nep4 4 Li La Zr O 
cutoff 6 4 95 30
n_max 4 4
basis_size 8 8
l_max 4 2 0
ANN 30 0
 -4.1213236e-04
 -1.7043941e-02
  7.3555455e-04
  8.8369042e-02
 -9.4963454e-02
  2.4411317e-03
 -3.9299191e-03
  3.1939611e+00
 -9.8201279e-03
 -3.2727979e-03
 -4.7667432e-05
  1.6692670e-01
 -2.5871028e-03
  1.8528743e-02
 -1.6635800e-02
  1.3500580e-02
  1.1974981e-01
  6.2172092e-03
 -4.3767937e-03
 -3.2318695e-03
 -1.6772655e-04
  5.2245031e-03
  9.9359045e-04
 -5.0441930e-03
  8.6440705e-04
  3.0534901e-03
 -5.9679891e-03
  6.7414659e-01
 -1.0658906e-02
 -6.8398716e-04
  5.6545287e-03
  3.1352942e-03
 -6.8972041e-03
  5.2087209e-03
  2.6067575e-02
  8.5824709e-03
 -8.1693372e-03
  1.1225649e-03
 -6.4154650e-04
  5.2178465e-03
 -2.3915763e-03
  5.6481308e-01
 -4.0272879e-03
  1.8616503e-03
  6.4434519e-04
  1.0522670e-02
  3.8516656e-02
 -6.4994316e-03
 -5.7250861e-04
  5.6280568e-02
 -5.3687976e-03
  6.9470331e-04
 -2.8557095e-04
  3.7857788e-04
 -1.2289811e-02
  2.8345429e-03
 -8.2409306e-04
 -2.2113195e-03
 -1.0858033e-02
  2.2711745e-03
 -8.4736936e-02
  2.3446885e-01
 -6.7286122e-01
  4.7150874e-01
  5.4830205e-01
 -7.3890612e-03
  7.6948907e-03
  5.9022661e-04
  8.9023852e-01
 -2.9801289e-03
  1.7967377e-02
  8.4679432e-02
  7.2786823e-02
  3.4296447e-01
 -4.5694485e-03
  5.3704266e-02
  9.7033483e-01
  1.3773653e-02
 -9.8450023e-01
  2.6005115e-02
  2.5903918e-03
  5.7621649e-04
  5.6878364e-01
 -3.2445833e-01
 -2.7570525e-02
 -1.5729302e-04
  2.4034444e-03
 -3.6975546e-03
 -7.1502576e-04
  3.9870259e-03
  1.6807723e-03
  3.3734916e-04
  6.4891455e-04
 -5.0087841e-03
 -1.7886230e-05
  2.4688573e-04
  7.6510664e-03
 -1.3207283e-03
 -2.3728684e-03
  4.5718201e-03
  5.8040912e-03
 -1.4875574e-03
 -2.3968308e-03
 -2.5069618e-03
 -5.6104191e-02
  3.1708481e-03
 -2.8097623e-03
  7.0574629e-04
 -8.0672087e-04
 -4.1003213e-03
  1.7414436e-02
  3.7253096e-03
  2.0200210e-03
  1.3077277e-03
  9.8588585e-05
 -8.9508930e-04
  5.5039856e-03
 -1.0350349e-02
 -1.9602268e-03
 -3.8079631e-03
 -1.9963467e-02
  2.0084472e-03
 -7.1420781e-03
  3.4382539e-03
  2.8074132e-03
 -1.4780181e-03
  1.0236784e-02
 -2.6516216e-03
 -4.9911841e-04
 -1.3785092e-03
 -8.4876642e-03
  3.9845710e-03
  1.6483073e-03
 -8.0180299e-03
 -2.6323981e-04
  9.9736564e-03
 -6.2855426e-03
 -2.0728869e-05
  3.6920044e-03
  4.8233899e-03
 -5.2462993e-03
  5.6091943e-03
  7.1005169e-03
  1.9988939e-03
 -2.8870127e-03
  2.4256154e-03
 -3.0966331e-03
 -1.6294024e-03
 -3.8919784e-04
  2.0135685e-03
  6.5083909e-01
 -9.6347759e-04
  1.6860388e-01
 -2.5971464e-04
  9.9255584e-02
  4.8157764e-03
  5.3156950e-02
  3.3993304e-03
 -1.9293746e-02
  1.8892742e-03
  3.9596618e-03
  8.9429738e-03
  1.1868755e-02
 -2.5205140e-03
  1.4602474e-03
  1.8826233e-03
  2.6134059e-02
 -6.2266225e-03
 -3.6105807e-03
  9.1950095e-01
 -1.6313609e-03
  4.9296439e-02
 -6.2102182e-03
  9.9167193e-04
 -1.0496929e-03
 -7.3926704e-04
  2.0261211e-03
 -3.9487919e-03
 -1.1863344e-02
 -1.0005313e-03
  1.8166795e-03
  1.4349077e-03
  1.7838567e-03
 -3.0136339e-03
 -3.7869075e-01
  9.7215985e-04
 -3.2837084e-03
 -8.8070976e-03
  1.9589171e-03
  2.3509581e-03
 -1.3010556e-02
 -1.5942533e-02
 -4.7572698e-03
  3.9869272e-05
  3.1307901e-04
  7.5379887e-04
 -1.1885305e-02
 -3.3193533e-03
 -8.8450633e-04
  8.0582593e-03
 -7.7600140e-05
 -5.5818460e-03
  6.2439847e-04
 -5.2690827e-03
  9.6124774e-03
 -5.5520618e-03
 -5.5909622e-03
  9.4405869e-03
 -2.4486459e-05
  4.0373905e-03
  1.2339530e-02
  1.4317197e-01
  1.7910829e-02
  7.2273989e-03
 -2.3133042e-03
 -6.0669701e-03
 -1.1109698e-02
 -1.3395549e-03
 -2.0059019e-03
  1.0461843e-02
  2.7047438e-03
  1.0420367e-02
  4.5923977e-03
 -2.7875478e-05
 -8.7619703e-03
 -4.3754228e-03
  1.8860342e-02
 -3.4308231e-03
  5.0674233e-04
  1.0806461e-03
 -6.5195910e-03
 -9.2628878e-03
  3.5145169e-03
  3.4816337e-03
  3.0077130e-03
  2.9629085e-03
 -7.4956832e-03
  7.2863977e-03
 -8.3540287e-03
  1.1793229e-02
  1.2394526e-01
 -6.0356865e-03
  2.1876686e-03
 -7.4258265e-03
 -1.1514986e-01
  1.5675080e-03
 -6.1935312e-03
 -6.5960485e-04
 -3.7106704e-03
 -2.3925814e-03
  8.9460677e-03
  1.4291935e-02
  3.6001340e-03
  7.0922007e-04
  3.5676470e-03
 -2.7648050e-03
  3.3133950e-03
  4.6854625e-03
 -4.4158176e-03
 -1.3611363e-02
 -1.0275980e-03
  2.8660145e-04
 -5.0097406e-03
  1.4282209e-03
  1.8996475e-02
 -4.2828438e-03
  3.6032961e-03
  2.1993110e-03
 -2.8277356e-03
 -5.2195708e-03
  1.1979142e-02
  6.1425478e-03
 -3.6186713e-03
 -1.4633355e-03
  1.8144816e-03
 -3.0574338e-03
 -2.0980067e-03
  3.4508540e-03
  1.7120279e-03
  9.6199336e-03
  4.5059738e-03
  6.1649377e-03
  4.2964472e-03
  3.1291172e-04
  8.8078827e-03
  1.2136120e-02
  1.3036047e-04
  8.2183974e-03
 -1.7588671e-03
  1.9145785e-03
 -4.7522894e-04
 -7.6829456e-05
  4.2930915e-04
  4.9585328e-03
 -1.5333983e-03
 -4.9952138e-03
 -2.1256083e-03
 -8.2023088e-03
 -1.3800209e-03
 -5.4211495e-03
  3.4777135e-01
  2.3225605e-01
  1.1613883e-01
  3.5916832e-01
  4.0870211e-01
  3.8848445e-02
  9.9007122e-02
  2.0443903e-01
 -2.1749299e-02
 -4.4016130e-03
  3.1213370e-01
  3.5132140e-01
  5.4738387e-02
 -2.5266814e-01
 -2.0135306e-02
  2.6406941e-03
  4.6298243e-02
  3.1579748e-01
 -3.2772232e-02
  6.5525763e-02
 -1.6689822e-01
  1.6691576e-01
 -5.3683207e-03
 -4.7678295e-01
 -3.0410096e-01
  3.1733693e-04
  1.2615513e-02
 -8.3821960e-02
 -6.2196136e-02
 -2.9790527e-03
 -2.8202115e-04
 -3.6594162e-03
  2.5740438e-03
 -2.2687956e-03
  1.2636364e-02
 -1.2699107e-03
  3.8330087e-03
  2.4190320e-04
 -2.6050585e-03
 -1.2116495e-02
  1.2644720e-02
  1.2270113e-02
 -1.3491762e-03
 -4.2368835e-04
 -2.3677744e-04
  2.0908188e-02
  3.8444783e-04
 -7.3054978e-03
  4.6135583e-03
 -3.1884006e-04
 -1.5788847e-03
  2.6110925e-03
 -5.5937651e-03
  3.4635591e-03
 -3.3975090e-03
 -4.2338106e-03
  2.3729505e-03
  5.8387886e-03
 -1.5689501e-03
 -1.2297061e-01
  5.7420745e-03
 -3.2480106e-02
  2.8724305e-02
  3.8510887e-03
 -1.4101008e-04
  2.7378974e-03
 -1.7310951e-03
  6.1687329e-03
 -1.2330224e-03
 -2.2978710e-03
 -1.1519747e-02
  9.4850026e-03
  2.8237924e-03
 -3.3010070e-03
 -1.9823324e-03
 -4.6017230e-04
 -1.2528882e-03
 -2.6440830e-03
  8.9884941e-03
 -4.8585739e-03
  1.8605977e-02
  4.3453262e-03
 -6.4384714e-03
 -4.4046645e-03
  5.0040134e-03
 -8.9422539e-03
  5.9823319e-03
 -2.1921618e-01
 -4.9977186e-03
 -7.9414266e-04
 -2.5000489e-01
  5.7921562e-02
 -7.2982110e-02
  1.9888039e-01
  8.5645175e-01
  1.2235210e-02
  2.3466736e-01
  1.7387285e-03
 -3.6272217e-02
 -8.4699383e-03
  1.5890138e-01
  1.3958549e-01
  5.1940564e-02
 -6.1350822e-02
 -8.5232509e-03
 -6.6530146e-04
  1.8779299e-01
  2.0901857e-01
 -3.6493186e-02
  3.0582564e-02
 -2.3826933e-01
  2.6906916e-01
 -4.5439876e-03
  3.4182398e-03
 -8.1243105e-02
  3.8664949e-03
  3.2342922e-02
 -1.3229832e-02
 -5.4395027e-03
  8.8521661e-03
  2.2145194e-01
  1.9411509e-01
 -2.2874087e-01
  9.6629053e-02
  2.3631458e-01
  1.2428984e-02
 -2.2526270e-01
 -6.7077897e-04
 -7.3283039e-02
  8.6050032e-04
  1.1904801e-01
  3.7293710e-02
  6.4210296e-02
 -1.5351449e-01
 -2.1687118e-02
 -1.2023486e-03
  6.1950974e-02
  1.6046232e-01
 -2.3889719e-02
  6.8580143e-02
 -7.5656228e-02
  3.4200308e-01
  1.0155095e-01
  1.4646009e-03
 -1.2969144e-02
  1.7348986e-02
  2.5456985e-02
 -2.9853685e-02
 -7.4793575e-03
 -1.0340229e-04
  1.8579456e-01
  6.3965864e-02
 -9.5859515e-03
  5.0114162e-02
  1.2984827e-01
  3.5529481e-03
  2.3681596e-02
  2.3686553e-03
 -1.0291365e-02
 -1.9469649e-02
  1.2851471e-02
  1.6197775e-01
  4.9998923e-03
 -1.8071653e-02
  3.1882804e-03
  6.5918262e-03
  2.7531121e-02
  3.6969036e-02
 -1.2513044e-03
  8.1353495e-04
 -4.6000671e-02
  3.4433243e-01
  1.2815822e+00
  9.7486918e-05
 -8.9718699e-03
  2.4326988e-03
  2.1421553e-03
 -1.6121572e-03
 -2.5130074e-02
  2.6196598e-03
 -6.7933844e-03
 -1.5142130e+00
  1.1617939e+00
 -8.3779775e-02
 -1.7166144e-01
 -1.5980542e-02
 -2.3203315e-01
 -5.6689035e-02
  1.3219642e-04
  6.3201352e-03
 -1.4563962e-02
 -1.5789042e-01
 -4.1526341e-01
  7.3506096e-03
  3.1698223e-03
  1.8686181e-02
  7.0769601e-02
 -6.6676222e-02
  7.4572879e-01
 -4.6105953e-03
  1.4951175e-01
 -1.9666146e-01
 -1.0555587e-02
  1.2857915e-01
  5.9908379e-02
 -4.9667470e-03
 -9.4340142e-04
  5.0437193e-02
  6.8959882e-03
  5.5252505e-03
  7.2136652e-01
  1.2765506e-01
  3.1941094e-02
  6.0582769e-01
  1.9077512e-03
  2.3285651e-03
  2.9306414e-03
  3.0954166e-03
 -1.8063510e-02
 -6.5851420e-01
 -4.2925715e-03
  1.5061452e-02
  4.5100641e-01
 -2.1451714e-02
  8.0950133e-04
  6.3865498e-04
  7.6807877e-03
  1.7680403e-02
 -1.2418297e-01
  1.2669205e-02
 -5.8939122e-04
 -5.0295470e-03
  1.2142104e-02
 -1.9356507e-03
 -4.1149892e-03
  2.7625665e-01
 -5.8491277e-03
  3.4345880e-03
  8.9118446e-05
 -6.5270797e-03
  5.1356276e-04
  2.5569869e-03
  3.3736103e-03
  7.4956281e-04
 -1.6419508e-03
 -2.1969836e-04
  2.2942983e-02
  4.0526726e-04
  4.3100488e-04
  2.3007130e-03
  8.2328748e-03
 -2.0020579e-03
 -4.1161585e-03
 -2.3194426e-03
  2.2868945e-03
  2.0726912e-03
 -1.4950144e-02
 -1.0309952e-03
 -2.0739448e-03
  3.9165788e-03
 -5.4787062e-03
  6.6097272e-03
 -5.6751841e-03
  4.1947737e-03
 -3.0076443e-03
 -3.7520754e-03
  5.1408453e-04
  5.4718349e-03
 -2.0016832e-02
 -2.5443819e-03
  7.4428156e-02
 -2.7274380e-03
 -9.0279311e-05
 -5.6591625e-03
 -1.3170012e+00
  5.1479824e-03
  1.3982166e-01
 -2.8925820e-03
  6.0651316e-03
 -5.1980251e-03
 -1.5757466e-02
 -8.8851218e-04
 -8.5096974e-03
 -6.1543221e-03
 -2.3289900e-03
  3.7742201e-03
  9.0233237e-04
  3.2392598e-03
 -5.6417026e-03
 -2.3517236e-03
  5.8622207e-03
 -8.0649406e-03
 -1.2880947e-03
 -5.3943294e-01
 -1.5908544e-03
  1.2005877e-03
  4.1549993e-03
 -3.8123510e-03
  1.9325352e-03
  5.7914509e-03
  3.9828652e-01
  7.4850075e-02
  6.1223074e-03
  1.9119296e-02
  3.2901028e-01
  1.0123926e+00
  1.0770100e-02
  5.3515542e-02
 -5.6579325e-02
 -5.3134644e-03
  6.5975194e-03
  1.3468912e-01
  4.2587861e-02
 -8.8760518e-02
 -3.4993037e-03
 -5.2440725e-03
  5.3342368e-02
  3.2650086e-01
 -1.3696674e-01
  6.3276542e-03
 -8.0219440e-02
  1.7948656e-01
 -2.5577015e-01
  4.6490586e-05
 -4.4567157e-02
  4.6773581e-03
  4.8233857e-03
 -1.4696020e-01
 -2.1040492e-02
 -6.3066133e-03
 -4.6121445e-02
  3.4291074e-02
 -3.1510111e-02
  1.1972247e-02
  1.4137726e-01
 -7.1758777e-03
 -7.8809736e-03
 -3.9671969e-01
 -6.7641631e-02
 -1.7928727e-02
  1.9490406e-02
  1.1158961e-02
  2.3209378e-02
 -3.1434973e-03
  2.1185145e-01
 -4.9493471e-03
  2.7690187e-01
  5.5171963e-04
 -3.1592971e-01
 -4.7231144e-03
 -2.9191209e-02
  2.5286454e-01
 -1.0248830e-02
  3.0345055e-03
 -6.7035202e-03
 -1.2409615e-02
  1.8814771e-03
 -7.2404561e-03
  4.8844758e-03
  7.7652987e-03
  2.6305693e-01
 -4.1683024e-01
  4.5410555e-04
  6.7309588e-02
 -1.6346826e-01
 -1.6516781e+00
 -2.2968236e-01
 -1.1826329e-02
  2.9835122e-04
  5.4195191e-04
  3.6232751e-03
  1.3627182e-01
 -3.1122576e-02
  3.9853558e-02
  1.0284536e-03
  2.7040951e-04
 -8.1482150e-02
 -4.7528267e-02
 -1.7662326e-02
 -7.8312559e-03
  2.4664821e-02
 -1.5667346e-01
 -8.4873782e-03
 -2.6950055e-01
  4.2301891e-03
  1.4043583e-03
 -1.3957352e-02
  4.2343508e-03
  1.9534079e-02
 -1.0030454e-03
  2.8612532e-03
  3.9483298e-02
 -8.9148972e-03
  7.9926930e-02
 -4.7665897e-01
  8.6295221e-04
  4.6766871e-03
  2.2581632e-03
 -1.2984078e-02
  6.1622914e-04
  2.6474968e-03
  2.3407223e-02
  2.3185911e-03
  1.6128569e-03
 -6.4382623e-03
  1.6500552e-04
  5.0816875e-02
  9.2326030e-03
 -7.2389767e-03
  4.0181084e-03
 -6.8451423e-04
  2.1559747e-02
  5.7265200e-03
 -2.2352599e-03
  6.4764014e-03
  2.3242095e-03
 -2.8809740e-03
 -5.6041591e-04
 -5.3671487e-03
  8.0308755e-04
 -5.1571506e-01
  3.3932367e-01
 -1.3576184e-03
  1.0447585e-02
 -8.1313366e-01
  1.2667934e-02
  1.8748029e-01
  3.0511726e-02
 -1.1319547e-01
 -2.2629330e-04
  1.9227378e-02
  7.9010045e-03
  8.7910511e-02
  8.6126268e-02
 -1.1794334e-02
 -5.6498812e-04
  1.8501519e-03
  1.2270351e-01
  3.1972568e-02
  4.3667778e-02
 -7.4428141e-02
  2.9792136e-02
 -5.2979672e-03
 -2.2249774e-03
 -1.5062332e-01
  2.6392178e-03
 -9.4445370e-04
 -6.0256030e-03
 -2.9835305e-03
  1.1496427e-02
 -2.1860455e-03
 -9.1411276e-03
  1.6412184e-03
  2.5552520e-04
 -4.9304567e-02
  2.9327441e-04
  7.2482973e-03
 -1.7076306e-02
  1.1032650e-02
  3.9935638e-03
  5.7509253e-03
 -6.6428818e-03
 -5.6600706e-03
 -3.0729838e-04
  1.9578768e-02
  3.8105177e-04
 -1.6042808e-02
 -1.1835380e-02
  2.2845890e-03
 -8.5373607e-04
  1.0236494e-02
  2.0824058e-03
  5.2285767e-03
  1.1372631e-04
 -6.0809278e-03
 -9.2434423e-04
 -1.7944312e-02
  6.2200660e-04
  4.7133118e-03
 -9.9714585e-02
 -3.0231439e-03
  6.5490212e-03
  2.8267367e-02
 -1.0120958e-02
 -7.0019253e-03
 -4.0523568e-03
 -4.0189218e-04
 -3.4769860e-04
  2.9140146e-02
  1.5843415e-03
 -1.7105503e-02
 -2.9030601e-03
 -1.3753034e-01
  1.0450562e-04
  6.4692982e-03
 -1.4503376e-03
 -1.4134358e+00
  3.1164081e-03
  4.8500057e-03
 -2.8070841e-02
 -1.3222124e-03
 -4.2791579e-02
 -2.5445945e-03
 -3.7412879e-03
  3.8074739e-03
 -5.4620290e-03
 -1.9382921e-03
  1.1866811e-03
 -3.1734013e-03
 -9.3238112e-03
  3.8302037e-01
  3.5576677e-01
 -8.3527371e-02
  3.5555476e-01
 -9.6104763e-02
  1.1935341e-04
  4.2545941e-01
  8.3475467e-03
 -1.3938669e-02
 -6.6255187e-03
  2.9799093e-02
  1.1638192e+00
  4.7261378e-01
  2.2020419e-01
  4.0878914e-04
 -1.1109737e-01
  2.3330267e-01
  4.9927766e-03
  1.4898552e-01
  1.3463534e-02
 -2.6759723e-02
  2.6399713e-02
 -1.5269694e-03
 -4.2382956e-01
 -2.1401921e-02
 -1.0134483e-02
  7.4547348e-03
 -4.9800044e-03
 -3.4525424e-02
 -3.9805528e-03
  1.9518264e-01
  5.2821559e-01
 -2.8143743e-01
  1.7789848e-01
  5.1639736e-01
  1.9595083e-03
  2.1524331e-01
  1.9028470e-02
 -9.6968599e-03
 -5.4189893e-03
  3.2260886e-03
  1.3467039e-01
  2.3659414e-01
 -2.6332065e-01
 -4.0006712e-03
 -8.0352777e-01
  1.2586276e-01
  7.8174517e-02
  2.2704333e-01
  3.6094908e-02
 -9.6630767e-02
  2.5475841e-02
 -4.0082978e-03
 -1.1462531e-02
 -2.0778501e-01
  5.8079665e-03
 -9.6621580e-04
 -1.2446238e-02
 -2.2284465e-03
  1.6219253e-03
 -1.7049345e-04
 -1.1058178e-03
 -3.0721494e-03
 -3.1028623e-03
  1.1924056e-02
  8.4554293e-04
  3.9157274e-04
  7.2070165e-03
  3.7125291e-03
 -8.5789850e-03
 -1.0468459e-02
 -5.3859004e-03
 -6.0432507e-03
  3.5046965e-03
  1.4869564e-03
 -1.7833870e-03
 -7.1440819e-03
 -1.5641164e-02
  1.3026547e-02
 -1.1985441e-04
  3.9084584e-02
  3.6073308e-03
  4.1269800e-03
  1.6850235e-03
 -5.5338982e-03
 -1.0771246e-03
 -6.3983253e-03
 -1.6021291e-03
 -1.7714547e-02
  1.6969647e-02
  7.2777730e-01
  8.0060255e-04
  1.7295917e-02
 -7.5091928e-04
  4.6417657e-03
 -7.9178708e-03
  1.1550310e-04
  4.0125614e-01
  5.7533178e-03
  6.1849183e-03
 -2.9127570e-02
 -7.4650357e-03
  4.7517060e-03
 -2.1943729e-01
  3.2398105e-01
 -9.5647149e-04
  1.0729475e-01
 -2.0113292e-03
 -2.1053320e-03
  2.0997957e-03
 -1.0690632e-01
  4.8491745e-03
  2.7708828e-01
 -5.2819061e-01
 -5.6925559e-01
 -5.9267869e-03
  6.9054565e-03
  6.5307337e-01
 -1.8739372e-01
 -5.5506639e-04
  1.7789070e-01
  1.6792664e-01
  2.7715766e-01
  4.0336614e-03
  4.2884690e-03
  2.9741424e-01
 -1.7972998e-01
  4.6980489e-02
  3.0186991e-03
 -1.4492308e-02
  9.2693257e-01
  1.2147866e-01
  1.1617598e-02
  5.7277614e-01
  7.8777516e-01
  4.1341546e-01
 -5.7841235e-01
  1.6648722e-01
 -2.6727444e-02
 -9.1482803e-02
  4.9305761e-01
  3.5993508e-01
 -4.7745246e-01
  4.4707739e-01
  1.9007943e+00
 -1.6234468e-01
 -2.0305826e-01
  5.3389508e-01
  5.6938106e-01
  1.3925901e-03
 -1.3575550e-02
 -4.2686947e-03
 -3.8073892e-03
  9.9147472e-04
 -5.3223460e-03
 -1.6207352e-02
  4.3390486e-03
  9.0234017e-04
  1.3480591e-02
 -3.8000464e-03
 -6.0188601e-04
  3.0705899e-03
  5.4198434e-03
  1.4215996e-02
  7.7962559e-03
 -4.0696267e-04
  5.5940682e-04
 -1.4205508e-02
 -2.9382077e-03
 -1.0057656e-02
 -4.5630513e-03
 -8.2255271e-04
 -1.3571974e-02
  9.8306984e-03
  2.4163751e-03
  1.6867135e-03
 -8.6218974e-04
 -4.0017790e-03
  1.4314560e-03
 -3.4114684e-03
 -1.3737409e-02
  2.8225181e-03
  1.8393470e-01
  1.0103636e-01
 -1.7591575e-01
  1.8088876e-04
 -1.7638592e-03
  2.0755630e-03
 -8.2685484e-04
  9.6830428e-03
  4.2723319e-03
  1.3887390e-02
  6.0237688e-03
  1.5118647e-03
  4.8806546e-03
 -1.3615857e-03
  1.6467909e-03
  1.1651531e-05
  6.4251469e-03
 -7.0987791e-03
 -1.1687458e-03
 -1.2619956e-03
  1.4136846e-03
  6.0715238e-03
  7.0012519e-03
  1.3354243e-03
  1.0700264e-03
 -1.4555627e-03
 -8.5152686e-03
 -1.2248274e-02
  5.0936528e-03
  6.6760264e-04
 -6.8338579e-03
 -6.7495444e-04
 -7.5446051e-03
 -1.3763522e-03
  6.7937290e-03
  4.7977507e-04
 -8.2618336e-04
 -2.7930553e-03
  7.9237786e-04
  1.0585001e-03
 -2.5973085e-03
 -4.7828942e-03
  7.3475624e-03
  8.5900584e-04
  1.4337762e-03
 -2.0940150e-03
 -4.5036087e-03
 -3.0750360e-03
 -3.7669927e-01
 -1.4933598e-02
 -2.3940608e-03
 -4.8150960e-03
 -2.5380368e-03
  2.4878973e-05
  1.8799431e-03
 -6.2554778e-04
 -1.8541185e-03
  2.7028585e-03
 -7.4029952e-01
  1.6273117e-02
 -6.0982609e-01
 -5.6298530e-01
 -1.2348769e+00
 -1.4474525e-01
 -1.8713117e-01
  2.0132379e-01
  6.5181708e-01
  2.5231940e-01
 -2.3785202e-01
 -8.8863261e-02
 -1.1674320e+00
  1.0482411e-01
  8.8634090e-03
 -1.8864983e-01
 -6.7225448e-04
 -3.3521418e-02
 -7.1422211e-03
 -1.5624087e+00
 -2.3033263e-03
 -1.7372052e-03
 -2.9746166e-01
 -1.1648573e+00
 -1.7098093e+00
  8.0657080e-03
 -1.2203951e-03
  1.0492110e-02
 -5.7582471e-05
  2.1233602e-01
  6.7384103e-03
 -1.2965637e-02
 -7.4170448e-04
 -9.9425372e-03
  5.9009674e-03
 -1.6387089e-03
  6.0433163e-03
 -4.5989249e-03
 -1.4063939e-02
  1.7809093e-03
  5.0601903e-03
 -1.6314000e-03
  6.8580415e-03
  1.8843784e-03
 -6.2043727e-03
  3.7588683e-04
 -7.7199200e-03
  4.2016413e-03
 -5.0415853e-03
  1.0342496e-03
 -1.9254709e-02
  7.3586131e-04
  7.7524032e-03
 -6.5094056e-03
 -3.4121813e-03
 -1.4235913e-03
 -2.6890883e-04
 -1.4955934e-02
 -2.4835090e-03
 -3.5412710e-03
  3.9019785e-03
 -6.1429469e-03
 -7.9953829e-03
  2.5100955e-03
  2.6896626e-03
  5.4511215e-06
 -1.0984275e-03
 -2.2054466e-03
  1.1360611e-02
 -1.6527114e-02
  1.9381426e-03
 -8.9778779e-03
  1.3126842e-03
 -2.0457641e-03
 -4.0446059e-03
  5.3243181e-03
 -1.4238190e-03
 -3.8743790e-03
  9.6963672e-03
  6.0369102e-03
  2.0118260e-03
  4.2556082e-03
 -3.8962363e-04
 -4.6694283e-03
 -4.7832890e-03
  6.4301831e-03
 -2.7875372e-03
 -9.4752008e-04
  2.0586690e-03
  9.8696549e-04
  8.7834988e-03
 -7.3974361e-03
 -5.9742481e-02
 -1.0783141e-02
 -8.4218858e-03
 -5.1097679e-03
 -1.0026371e-02
 -8.7610986e-03
 -2.4967715e-03
  2.5011573e-03
 -4.5310512e-02
 -6.9728224e-03
 -1.8567034e-03
  3.0653864e-02
  7.1309721e-03
 -1.5412465e-02
 -2.3964124e+00
  2.9726448e-03
 -7.2631645e-03
 -5.2660517e-03
 -1.1168820e-02
 -6.6832732e-03
 -7.4422751e-05
  1.2953273e-02
  1.3199692e-03
  2.2930666e-04
  3.1161122e-03
  6.9024815e-04
 -6.1661769e-03
  3.5309854e-03
  1.4959736e+00
  4.9227239e-03
 -4.1010645e-01
 -1.8457614e+00
 -7.4527067e-01
 -2.2725925e-01
 -5.2447689e-01
  3.9315107e-03
  5.6022000e-01
 -5.7520872e-01
 -2.2628292e-01
 -4.0065455e-01
  4.7542372e-01
  2.4334465e-01
 -8.2672387e-01
 -6.3969177e-01
 -3.6432657e-02
 -1.8146305e-01
  5.7444102e-01
 -1.1261393e+00
 -2.3167925e-03
 -9.8441204e-04
 -3.8209715e-01
 -2.1467113e-01
 -1.8574592e-01
 -1.0228897e-02
  4.7342505e-02
 -8.2222623e-04
 -1.4876288e-01
  2.7516449e-02
 -2.1422848e-03
  7.5874855e-03
 -9.9024805e-04
 -1.7948821e-02
 -7.1153142e-02
  3.7337601e-04
 -1.6187122e-03
  1.5358150e-03
 -3.3209238e-03
 -1.9817429e-03
 -9.1798902e-01
  1.2143219e-03
  8.0576818e-03
  8.4092906e-03
 -2.8254769e-03
 -3.0442432e-01
 -3.9256834e-03
  1.0777521e-02
 -1.6452360e-03
  1.8584018e-03
 -5.4578586e-03
 -5.1597711e-03
  6.1228047e-03
 -2.6272202e-01
 -1.5124017e-03
  7.6777176e-03
 -1.3451235e-02
 -2.8721455e-03
  2.6703818e-04
 -4.5364661e-05
  9.3843770e-01
 -1.4438123e-01
  1.3617450e-01
 -4.4155595e-01
 -7.8566417e-02
 -1.5395442e-01
 -1.2883046e+00
 -5.7642460e-03
  4.4666640e-02
  1.1941016e-02
 -8.9594901e-02
 -3.9777635e-03
 -4.5297374e-03
  3.8104173e-02
 -8.6400891e-04
 -2.9266983e-01
 -7.3492732e-03
 -2.5512113e-03
  7.2617503e-03
 -3.8147584e-01
 -2.7782281e-03
 -5.4425560e-03
  1.2982337e+00
  2.3620395e-02
 -5.0807279e-04
  7.4349069e-03
  5.4508946e-03
  5.4155034e-04
 -8.3331356e-04
 -6.9601386e-04
  2.4473450e+00
  1.4982272e+00
  1.2537546e-02
  7.1671540e-01
 -5.1516759e-01
  1.4479637e+00
  6.9600457e-01
 -3.1448549e-03
  2.0700315e-01
 -2.5762394e-01
  3.7801015e-01
  2.4666198e-01
 -1.7636348e-02
  1.2413459e+00
 -1.7808226e+00
  6.2571281e-01
  2.7466720e-02
  2.1393007e-02
  1.6237811e+00
 -1.1805235e+00
  6.5026078e-03
  1.0293288e-02
  7.0377403e-01
  1.1469607e+00
 -5.3470546e-01
 -6.5012299e-04
 -8.1957364e-03
  2.5252718e-03
  2.6097758e-02
 -4.8862621e-02
  1.0328599e+00
  3.1439979e-02
  1.1230574e+00
  3.2354447e-01
  2.6417154e-01
  4.4511303e-01
  5.3609496e-01
  2.0225539e-03
 -5.7663059e-01
 -3.5342188e-03
  5.7805067e-01
  4.3449655e-01
  2.2036538e-01
  6.1024779e-01
 -3.3204012e-02
  6.8783760e-01
  3.0003372e-03
  4.8917192e-01
  4.7808260e-02
 -1.1539317e+00
  2.2950375e-02
  7.4909334e-03
  9.1570592e-01
  2.8137097e-01
  8.4668603e-03
  9.5072053e-03
 -7.0903567e-04
  1.5104520e-03
  1.5922941e-02
 -2.0058750e-01
 -1.8924075e-04
  2.4920192e-03
  6.7637645e-02
  1.3046864e-01
 -3.4148201e-05
 -1.1730256e-02
 -1.0845092e-02
 -4.6681002e-04
 -2.9594011e-03
 -1.1385838e-03
 -2.3216929e-03
  1.6658040e-03
 -3.5738219e-03
  6.2001189e-03
 -1.0829941e-02
 -9.7200470e-03
 -9.8488685e-03
  2.1440792e-03
 -5.9399116e-03
  8.6558057e-04
  1.4173763e-02
 -1.9036680e-03
 -7.7034318e-04
 -2.0051517e-03
  5.5654659e-03
 -2.8284583e-03
  1.8238289e-03
  2.4528287e-02
  7.8290496e-03
 -1.2293807e-03
  1.9480076e-01
 -9.6502779e-03
 -2.7037453e-02
 -8.3780557e-02
 -4.0277851e-01
 -7.9049319e-02
 -4.6498183e-02
  3.9508729e-03
 -3.8522925e-02
  4.4007222e-03
 -2.3322063e-02
 -2.3346100e-02
 -9.8675871e-03
  3.3666015e-02
  1.2052730e-02
 -7.8954697e-02
  6.5717227e-03
 -1.1295971e-04
 -3.9959148e-02
 -6.6518888e-02
 -3.0930489e-03
 -7.8489482e-03
 -1.1249112e-01
  1.3875224e-01
  2.5783005e-01
 -1.0135826e-02
  3.3968089e-03
  3.5192821e-02
 -1.9462965e-02
  2.2546058e-03
 -1.2115248e-01
  1.0923099e-01
 -1.2451191e+00
 -1.5735601e-01
 -7.0754206e-01
 -5.9770733e-02
 -2.3691978e-01
  2.1978097e-01
  1.0915112e+00
  7.2968383e-03
 -1.2930860e-01
 -1.1675576e-01
 -1.9104311e-02
  3.4043339e-01
 -1.9053409e-01
 -2.3496360e-01
 -3.4342008e-03
 -2.0945317e-01
  5.5928558e-01
 -3.6236499e-02
 -2.6280379e-02
 -3.0392503e-02
 -3.4401053e-01
  1.3198446e-01
 -1.3716827e-01
 -4.8337211e-03
  3.4827593e-04
  4.6438344e-02
 -9.3302205e-02
  2.7750997e-02
  4.3824911e-03
 -1.5815762e-03
  9.8169204e-03
 -5.3504307e-04
 -1.9616613e-03
 -3.0137345e-03
 -2.9573577e-02
 -8.2678478e-03
  5.3181774e-03
  1.2809106e-02
  1.3185271e-04
 -1.5505629e-03
  1.4569486e-03
 -1.7570608e-04
  2.7146603e-03
 -2.3397407e-03
  3.3107195e-03
  8.4791216e-04
  5.2815065e-04
  4.8290705e-04
  2.0380837e-03
 -3.5091492e-03
  3.7061379e-03
  8.2648947e-04
 -3.6223315e-02
  4.6831644e-03
 -4.5882131e-04
 -8.9469375e-03
 -4.8649586e-03
  3.7875192e-03
  4.0630330e-03
  4.0472254e-02
  2.0408702e-01
  2.4171756e-01
  1.4612411e-02
  3.7413489e-03
  7.5551757e-04
  4.1355964e-04
 -3.5720235e-01
  2.4060465e-03
  8.6598778e-03
 -1.8419842e-03
  1.6329532e-03
 -6.9894805e-04
 -8.1393436e-02
  4.3082736e-02
 -2.0732880e-03
  2.3079838e-03
  2.1299614e-02
  5.4918755e-02
 -4.1713780e-03
  3.1123235e-04
  1.0166438e-02
 -6.4279817e-02
 -5.5611547e-04
  3.1693357e-03
 -2.4561419e-03
 -8.8951358e-04
 -9.3530037e-02
 -2.2051373e-02
  2.3404069e-01
  1.9944056e-03
  3.3531813e-03
 -3.3256670e-03
 -6.3683349e-04
  4.0309918e-03
 -4.2767995e-03
  2.2528628e-03
  6.6988252e-02
 -2.4175871e-04
  1.3852562e-01
 -9.4166276e-04
  4.1247541e-03
  3.1488484e-03
 -1.9580601e-03
 -3.4957589e-03
  6.9434252e-03
 -7.9814810e-03
  1.7049209e-03
  6.7545399e-03
  4.5797047e-03
 -7.7107025e-04
  9.9059462e-04
  5.2164993e-03
 -2.0898895e-02
 -5.0693043e-03
 -9.9880379e-03
 -1.4751538e-03
 -3.5020872e-04
  6.6742939e-03
  4.1431473e-03
 -3.3931797e-03
 -5.0794655e-01
 -1.9204710e-04
 -5.9306840e-03
 -6.2136434e-04
 -4.8891949e-03
 -1.5688654e-03
 -1.5025268e-03
 -3.7641716e-03
  1.3741315e-03
  3.0716325e-03
 -5.6052478e-03
  2.0893326e-02
 -5.4715085e-04
 -7.2790463e-03
 -1.0962045e+00
  6.2932684e-03
  7.3329294e-03
  6.0087256e-03
 -1.2579512e-02
 -9.0815471e-03
  1.3982257e-04
  1.1293528e-02
  2.6771289e-04
  1.9555553e-03
  6.6845790e-03
 -1.2989137e-03
  2.7022397e-03
 -8.2612870e-04
  2.4192791e+00
  4.6091616e-02
 -9.9110359e-01
 -1.0000175e+00
  3.3642316e-01
 -1.9336151e-01
 -2.8177099e-02
 -3.7774008e-03
 -1.8394602e-02
 -7.0913768e-01
 -1.9677144e-01
 -7.2951324e-02
 -4.3427471e-02
  6.0603237e-01
 -1.1552705e+00
 -2.2238684e-01
 -1.1433066e-02
 -1.3074833e-01
  5.6920886e-01
 -6.4595598e-01
 -3.0594252e-03
 -2.6074981e-03
 -7.2819568e-02
  8.2939127e-03
 -6.2344390e-01
 -1.2851753e-02
 -1.8941495e-04
 -5.4863846e-04
  8.0923215e-03
  9.8949932e-03
 -2.6011560e-03
  1.7063593e-03
 -4.4099335e-04
  1.0710678e-02
 -3.7231201e-03
 -1.0224741e-03
  1.5389528e-03
 -2.8028691e-03
  8.5566466e-04
  1.0546996e-03
 -1.6282464e-03
  1.5085959e-04
  1.7407748e-03
 -1.6247021e-03
  5.2263765e-03
 -8.5030645e-03
 -1.4451584e-02
  3.8117678e-03
  2.9896351e-02
  1.0590185e-02
 -5.1694489e-03
 -2.7595016e-03
 -3.1329039e-02
  1.1399996e-02
 -3.4375934e-04
 -5.1707290e-03
  4.1948509e-04
 -1.7650018e-03
  8.1035274e-04
  3.0016549e-02
  3.1041962e-03
  3.3120920e-03
 -2.8087580e-04
 -1.2273398e-03
  5.6756609e-03
 -1.8142689e-03
 -8.0420403e-04
  4.1134204e-03
  1.0741937e-03
 -5.4813176e-03
  3.8633377e-03
  7.3354919e-03
 -5.3204163e-03
  1.8620163e-03
  5.3533840e-01
  1.1095789e-04
  7.2052696e-04
 -5.7001868e-03
  7.6414669e-01
 -8.7620756e-05
 -2.0705017e-03
 -1.0255276e-02
  8.9434732e-05
 -1.0391394e-02
 -1.3087553e-03
 -8.2236668e-04
  3.9289454e-03
 -9.1807786e-03
 -8.0306985e-04
  7.5651801e-06
  1.6212315e-06
  1.5183263e-03
  1.3637413e-01
  1.6626330e-02
  1.8050006e-01
  1.5649026e-03
  7.7878648e-01
  2.5521189e-03
  3.7428127e-03
  5.8534630e-03
  1.1300066e-02
  4.6800930e-04
  3.3649769e-01
  4.2722438e-04
 -1.2047171e-02
  3.1767879e-03
  1.8318136e-03
 -2.2674839e-04
  3.3430806e-03
 -8.1518823e-01
  2.3424609e-03
 -1.0258634e+00
 -3.3435791e-03
 -7.0122875e-02
  2.9076836e-03
  6.2535210e-03
 -1.3954796e-02
 -6.1588022e-03
 -2.4177399e-03
 -1.1532179e-02
  1.4089100e-03
  3.7255515e-03
 -1.2749905e-03
  9.5506187e-04
  9.8214904e-04
 -1.0903798e-01
  6.8626960e-04
  1.0044018e-03
 -2.3166367e-03
  7.2909347e-03
 -6.1805570e-03
 -1.2784330e-03
  2.0988854e-03
  3.7353690e-04
 -3.2720407e-03
 -4.6745255e-03
 -3.7863608e-03
 -2.7626685e-03
  3.2662069e-03
 -3.0518998e-03
  3.6511477e-04
 -1.6956149e-03
  2.9695078e-03
  1.8588215e-03
 -1.8652851e-03
 -5.9565669e-03
  7.0856945e-03
  1.1194386e-04
 -7.2371326e-03
 -3.9104852e-03
 -8.3871800e-01
 -8.7631160e-01
 -8.5430138e-02
 -1.8893378e+00
 -3.4949368e-01
 -4.4306878e-02
 -1.5058182e-01
  1.1516949e-02
  1.7312303e-01
  3.6123826e-03
 -3.9592952e-02
 -1.5980664e-01
 -2.7814256e-03
 -5.0843936e-01
  3.8305439e-02
 -1.6647737e-01
 -9.5070656e-03
 -1.9984905e-02
  8.8590477e-04
 -2.5615936e-02
 -1.2524641e-03
 -1.9254791e-02
 -5.8705518e-03
  1.2886521e+00
  1.0181576e+00
 -5.0410721e-03
 -1.7827248e-03
 -2.7509367e-03
 -1.8527468e-03
 -9.3738791e-03
  1.5850333e-02
  3.7063283e-03
  1.8820679e-01
  6.5322304e-01
  5.9467363e-01
 -2.0953803e-03
 -1.2106079e-03
 -7.4297661e-01
 -1.2345408e+00
 -8.6415950e-03
  4.5174151e-03
  2.9778332e-01
  6.6388771e-04
 -2.2777333e-03
 -6.8719769e-03
 -3.4540286e-03
  5.5695724e-02
 -6.5893016e-04
  5.3094856e-02
  7.6185638e-04
  3.5738247e-04
  2.3352067e-04
  9.3255460e-04
  3.7038117e-03
  4.8526598e-04
  1.2219589e-02
  3.6911077e-03
  4.6517579e-03
  3.6491854e-03
  2.3334059e-03
 -2.2887161e-03
  6.9706845e-03
 -3.7514032e-03
 -1.8127143e-02
  9.8322164e-03
  2.3609505e-04
 -4.3613650e-04
 -8.4464659e-04
  6.6870876e-04
 -1.2256546e-02
  2.5851242e-03
 -3.0531711e-03
  4.8894499e-04
  9.7819677e-05
  6.9511044e-03
 -3.8158363e-03
  9.5626287e-02
 -1.2581915e-03
  2.2413621e-03
  2.1150978e-03
  3.9938779e-04
 -1.1025157e-03
 -2.3114337e-03
  6.6258158e-03
 -1.1123526e-03
  1.4600238e-03
  8.7159956e-03
  2.4053094e-04
  6.2498800e-03
 -9.4747497e-03
  1.4881935e-02
  2.9665879e-03
  8.7813050e-02
  6.8256021e-03
  1.0939140e-03
  2.9713212e-02
  3.3496304e-03
 -3.3086396e-03
 -2.1160844e-01
  6.1188795e-04
 -2.3152789e-03
  4.4750638e-02
 -6.8805106e-03
 -4.4715162e-03
 -1.2094015e-03
 -1.2206901e-03
  1.3449447e-03
  1.5408811e-03
  1.1229404e-03
  1.1714122e-02
  4.8847917e-01
  2.0076202e-04
  1.1859407e-02
 -4.2381559e-02
  1.0605967e-02
  1.7723039e-03
  6.1555179e-03
 -2.1006444e-03
 -5.7048453e-03
  7.4896114e-03
 -1.8750462e-03
  2.1505021e-03
 -3.6236855e-01
  6.2689143e-03
  9.4462149e-03
 -3.9239717e-03
  5.7002222e-03
  1.7205169e-03
 -8.6479471e-04
  1.7471420e-02
  4.8749402e-02
  1.4560358e-02
  3.8394032e-03
 -2.2381824e-03
 -6.3173673e-03
 -1.1443585e-03
  5.7264771e-03
  1.4801103e-03
  4.1944794e-02
  2.2292372e-03
  2.9847042e-03
 -3.5926837e-03
 -3.6446122e-03
 -8.8864351e-03
  2.6986923e-03
  6.6621327e-03
  5.5878743e-04
  2.9012111e-03
 -7.7959870e-05
  8.4448485e-03
 -1.5440891e-03
 -2.8638818e-04
 -1.2760460e-03
 -9.3062047e-04
 -1.1861491e-02
 -2.2409873e-03
  6.6680443e-03
 -2.2655269e-03
  1.3483977e-02
  1.5703080e-02
  8.3178626e-03
 -1.0501499e-02
 -2.3009842e-03
 -7.0862062e-02
  5.0585606e-04
  1.5535345e-02
  2.3613437e-03
 -9.9402922e-04
 -2.1387085e-03
 -1.2619025e-03
  9.2817582e-03
  4.2761266e-03
  7.4650871e-04
 -2.9126739e-03
 -1.4131588e-03
 -3.3632508e-03
  4.7403960e-03
 -5.0760759e-03
  1.2148783e-02
 -6.2004742e-03
  8.4835049e-03
 -7.9195976e-05
 -1.5466618e-03
  1.4541973e-01
 -1.5107505e-03
  8.1193342e-04
  2.1548178e-03
 -4.0874201e-01
 -2.9480241e-02
 -4.1976154e-01
  1.0668670e+00
 -1.3035583e+00
 -4.7103667e-01
  2.4136459e-02
  8.2184941e-01
 -6.0516875e-03
 -3.1662527e-03
 -6.3405424e-01
  5.3040409e-03
  4.3070436e-01
  1.0144817e-02
 -3.9047780e-04
 -1.1328400e-02
  7.4765798e-05
 -4.0641659e-01
  3.5202804e-03
 -1.1649227e-03
  1.7164052e-03
 -3.3105363e-03
 -1.5658910e+00
 -1.2838161e-01
  6.8656996e-02
 -8.6757997e-03
 -6.0421985e-01
  8.6690392e-04
  1.0724785e-02
 -4.0760428e-01
 -1.0380998e+00
 -1.6092725e-01
 -5.3868389e-01
  1.2194929e+00
  1.0313885e+00
  1.1117575e-02
 -4.9644625e-01
 -1.2514361e+00
  4.9728407e-03
  4.4696397e-01
 -2.0935240e-03
 -7.3851608e-02
 -1.3471830e+00
  5.6365581e-04
  4.9818359e-02
  3.1505236e-01
 -2.8368821e-03
 -5.2092737e-01
  2.8092629e-01
  9.3886408e-04
  1.9162858e-01
 -8.1961080e-02
  1.7163326e-03
 -1.0303359e-02
 -5.6126066e-02
  4.0554529e-01
 -4.1266917e-03
 -5.4344360e-05
  1.6895654e-03
 -4.8945146e-03
  1.4924282e-03
  4.0583806e-03
  3.7665125e-03
 -7.9604406e-03
 -6.4784675e-03
  3.0501068e-03
 -1.2820289e-02
  4.9011577e-03
 -6.3508493e-04
 -3.0655304e-03
  6.2340745e-03
  1.9159050e-03
 -4.6819854e-03
 -7.9705073e-03
  3.5804618e-02
  1.1097417e-02
 -1.2800982e-03
  2.9760711e-03
 -9.6712010e-03
  6.6712876e-03
 -4.0661488e-04
  6.4386078e-03
 -7.7861426e-03
  6.2850975e-03
  7.9266430e-04
  1.5443354e-03
  5.0810464e-03
  2.3136565e-03
  3.6867140e-03
 -1.4542560e-03
  3.6820343e-03
 -6.9684018e-03
  4.5751156e-03
  2.1572055e-03
 -1.8442363e-03
  2.5522644e-03
 -9.5653505e-04
  6.6183042e-03
 -5.9000161e-03
 -1.1638884e-02
  6.8412046e-04
 -1.3127766e-02
  2.1802008e-03
 -6.0226768e-04
 -1.5628900e-03
  2.6440024e-04
 -9.5564796e-04
  1.0338493e-02
 -1.4154457e-03
  3.0108774e-03
 -1.8815212e-04
 -7.5974399e-03
 -4.5891847e-03
  3.4061521e-01
  1.6499365e-02
 -4.7194675e-01
  2.4981380e-02
 -2.1958329e-01
  1.0301854e-02
 -3.2790288e-04
  9.4305463e-03
  3.5130542e-03
  3.0842857e-02
  7.8997128e-02
  2.2322631e-03
  2.3583688e-01
  1.6775829e-01
  4.3235652e-02
  2.0598168e-03
 -5.3722594e-02
 -4.6318755e-03
 -9.0860919e-04
  7.0014866e-03
  7.8723142e-03
  1.5430665e-01
 -3.5472788e-02
 -7.1714977e-03
  7.3669314e-02
 -2.4651036e-01
 -5.5156285e-03
  1.5069657e-03
  4.6669235e-03
  4.6087620e-03
 -1.9838285e-02
 -1.5287507e-02
  9.7810346e-01
  1.8530894e-02
  5.8779162e-03
 -5.6134551e-03
 -5.3782407e-03
 -1.0255522e-03
 -1.3951996e-03
  2.4862601e-03
 -5.9592016e-03
  1.7269620e+00
 -7.8087850e-03
  3.9354592e-04
  1.0224314e-03
 -1.9126233e-02
 -4.8681226e-02
 -7.3299631e-03
  5.7800505e-03
 -1.7853156e-02
  2.8587971e-03
  8.4703788e-03
  2.8562857e-02
  1.0513044e-02
  2.2924745e-03
 -7.7529009e-03
 -7.1744197e-03
  7.7854036e-03
 -9.8779879e-04
  1.4413481e-03
  8.9073349e-03
  1.2668221e-03
  4.9394375e-04
  2.4674686e-02
  8.3306321e-04
 -3.4631290e-03
 -4.1880654e-03
 -1.0672179e-03
 -9.6009456e-04
 -6.6782804e-03
  4.5289085e-03
 -3.8479173e-03
 -1.7028047e-02
  5.8309571e-03
  3.5598157e-03
 -8.6716339e-03
 -2.8186236e-03
  1.6663021e-03
 -2.0810484e-03
  1.5520660e-03
 -2.7933004e-03
  7.4562896e-03
  1.8154852e-03
  4.2464291e-03
  1.3112019e-01
 -3.2480366e-03
  5.0189737e-03
  1.5232807e-03
  1.5546379e-03
 -8.5845846e-04
 -2.2111303e-01
  2.0919072e-02
 -3.0165755e-03
 -1.5297475e-02
 -4.3658158e-01
 -3.0641849e-03
  1.2908538e-02
 -5.8202847e-04
  2.7813870e-03
  9.6674580e-03
  3.6154926e-02
  1.2983965e-02
 -5.9829146e-04
 -6.9836102e-04
  5.2326592e-03
  1.3255418e-02
  8.4646747e-02
  1.8094241e-04
  8.5936924e-03
  6.9206147e-03
 -5.4482017e-03
  1.6038772e-03
 -1.5837955e-03
  4.0523116e-03
 -4.3146978e-03
 -1.5031664e-03
  3.7879499e-03
 -1.1932069e-02
  2.6888747e-03
 -1.2831538e-03
  7.9734847e-03
  7.8484055e-04
  9.6659007e-04
 -2.0286685e-03
 -1.5156301e-02
 -1.1498109e-03
  1.4619983e-03
 -9.1513619e-04
 -4.1145138e-03
  2.8766757e-03
  1.7755575e-03
  1.1434100e-02
  1.9817823e-03
  3.4600816e-04
 -5.4775537e-03
  1.3661765e-03
 -5.3170007e-01
 -2.0898571e-03
  3.7960617e-03
 -6.5457975e-03
  3.4033961e-03
  1.2162536e-03
  1.1058073e-02
 -4.7832672e-03
  4.2415857e-03
  7.0655491e-04
  6.9083273e-03
 -1.0833962e-02
  1.1703652e-02
  1.6741754e-02
  2.6850736e-01
 -5.2768242e-02
 -2.1853803e-02
  3.5358691e-01
  2.8617188e-01
 -3.1608158e-01
  4.2169336e-03
 -3.0960044e-01
  7.3121160e-02
 -8.8266373e-02
 -7.4698395e-01
 -5.4899651e-01
 -2.1503946e-01
 -7.0115703e-01
 -1.0157811e-01
 -6.8612248e-01
 -3.3342388e-01
  1.1778810e-02
 -5.5584145e-01
 -7.6335534e-02
 -3.0183080e-01
 -2.6005235e-01
  6.3858936e-03
 -1.3051273e-01
 -1.5952107e-01
  5.0706452e-01
 -4.4432567e-03
  4.0262692e-02
  3.2674213e-04
 -5.2553308e-03
 -1.0327793e-02
  2.4689951e-03
  4.1459599e-03
  3.8679857e-03
  7.0358522e-02
 -1.2052126e-03
 -4.9590515e-03
  2.6763737e-01
 -4.6139545e-04
  3.7500481e-04
  2.8648698e-03
  2.2981451e-03
  9.1721391e-04
 -1.7254533e-02
  2.6126669e-03
  3.0478348e-03
  5.4951465e-01
 -8.2026534e-03
  4.9211201e-03
 -5.5044115e-04
 -5.7092633e-02
  1.2061087e-03
 -8.0847554e-04
  3.3889303e-03
 -1.5366938e-03
 -4.9679895e-04
 -4.6531241e-03
  1.9120310e-03
  6.5215659e-06
 -4.2039715e-03
 -3.8487892e-04
 -4.4384450e-03
 -3.6062801e-04
  2.8903198e-03
 -7.0495275e-04
  1.4713941e-03
  2.1887241e-02
  1.1640749e-03
 -3.8511269e-03
  8.2376534e-03
 -6.4793802e-03
 -1.8948307e-02
 -5.4649096e-03
  2.7789001e-03
  1.4806860e-03
  8.0400687e-01
  2.1108577e-03
  5.5699716e-03
  1.7997964e-03
  4.0903906e-03
 -3.4005969e-04
 -8.2218240e-04
  2.4203847e-03
  9.9571450e-03
  1.4999619e-03
  6.8183695e-03
  5.9787021e-03
  1.9325215e-03
  1.1958935e-03
  5.8852084e-04
 -5.7741576e-01
 -1.4548124e-01
 -2.1239565e-01
  2.0136566e-01
  4.5342674e-03
 -2.0712482e-02
 -4.3840334e-01
 -1.1466955e-01
  2.9065025e-01
 -3.2524350e-01
 -3.3467317e-01
 -8.0573744e-01
 -2.0972444e-01
 -7.7416861e-01
  8.7037764e-02
 -2.6568380e-01
 -4.3688616e-01
 -1.2114668e+00
 -2.6697809e-01
 -2.1493864e+00
 -7.8366637e-02
  5.8393445e-02
 -2.0034693e-01
 -6.0495116e-02
 -3.0577463e-01
  6.8503217e-04
 -5.9963528e-02
  1.4936329e-01
  7.9840218e-04
 -5.1660654e-03
 -1.0016168e+00
 -1.4183090e+00
  3.1882644e-01
  6.6298090e-02
  9.0324122e-01
 -7.1359449e-03
  1.4415375e-02
  2.5138149e-02
 -6.7360909e-03
 -6.0402125e-04
 -3.5310894e-02
  1.3720165e-01
  3.9602959e-01
  2.5722340e-03
 -3.5307948e-02
 -1.9703655e-02
 -1.9365337e-01
  3.0350700e-01
 -1.7358334e-01
 -2.6300398e-01
 -2.3950811e-03
 -5.3751871e-02
  3.2794360e-02
  5.6304928e-02
 -1.7880337e-01
 -2.2090459e-02
 -1.0597045e-01
 -8.9096911e-03
  9.9829747e-04
  5.4111499e-03
  2.6547802e-03
  5.4217177e-03
 -9.3369281e-01
 -6.8836683e-01
 -9.1892767e-01
  7.4984920e-03
  7.7575957e-04
  5.4675126e-03
 -1.0941148e-01
  7.6283026e-03
  3.5276230e-02
 -1.8749620e+00
  6.3469922e-03
  8.2840846e-04
  7.3115253e-03
  1.1666359e-03
  1.8604504e-03
  6.9161947e-03
  1.7119497e-02
  2.8844463e-02
  3.9244569e-03
 -2.7795568e-02
 -5.9654703e-03
 -1.6810801e-03
  2.8233798e-03
  1.0702675e-02
 -9.1440678e-03
  1.0468792e-03
  1.8597951e-03
 -4.0000365e-03
 -9.4631768e-04
  1.3204044e-04
 -1.1209854e-02
 -3.5794158e-02
  2.0514943e-02
  8.6853158e-04
 -3.3541766e-03
  5.5847961e-01
 -3.9329114e-03
  4.5465869e-01
 -1.5674430e-03
 -3.7571464e-03
  2.7933231e-01
  1.8309281e-03
  8.5504502e-03
 -2.7281556e-03
  1.3580106e-03
 -6.0370481e-03
 -4.1346643e-03
  3.4263073e-03
 -1.0803385e+00
  1.1039281e-01
  4.5541916e-03
  1.0070307e-02
 -2.4154244e-03
  2.7149692e+00
  8.6591661e-04
  3.0730357e-03
  4.5978916e-03
  1.2072789e-02
 -1.5121361e+00
  2.2412527e+00
 -8.5270607e-01
  2.3390867e-01
 -1.8608081e+00
  1.8258622e-03
  3.3441404e-01
 -1.4172980e+00
  3.2493924e-03
  8.0505919e-01
  1.6182803e-02
  2.3031573e+00
 -2.0863578e+00
  3.5850874e-01
  1.1082015e+00
  3.3559084e-02
  1.4485368e-01
 -1.2408122e+00
 -3.4595698e-03
  8.1187428e-04
  5.4951683e-02
 -5.7851332e-01
 -6.1722577e-01
  7.7546231e-02
 -6.3052028e-01
 -2.0828773e-03
  5.1482874e-03
 -2.2553751e-01
  7.7854859e-04
 -1.4635733e-04
 -7.0711714e-01
 -2.8465077e-02
  9.8946226e-01
  1.3876057e+00
  1.4075855e+00
 -1.0895002e+00
  6.1829484e-01
  6.8173599e-01
  1.8449485e-01
 -4.0343928e-01
 -7.5179756e-01
  2.7011626e-04
 -1.1892569e+00
 -3.1304500e-01
 -2.7271854e-03
 -3.7836105e-01
  6.8153322e-01
  1.1132979e+00
  4.5327657e-01
 -5.2106941e-01
 -1.9975795e-01
  9.4469033e-02
  1.2574701e+00
  3.1923942e-02
 -1.4828100e+00
 -8.1768282e-02
 -1.7490860e-03
  3.2862041e-02
  4.0158974e-03
  2.8415304e-04
 -3.6220191e-04
 -1.1979094e-04
 -3.3798897e-01
 -1.0425354e-02
 -8.1708483e-02
 -1.9703535e-05
 -2.2203568e-02
  2.4324038e+00
  3.1888909e-03
  1.4038036e-03
  2.1901657e-03
 -1.1608285e-03
  7.5821066e-04
  1.2495512e-02
 -5.0450522e-03
 -1.7720058e-04
  1.0158068e-01
 -1.1530318e-02
 -4.2937999e-03
  3.1968111e-03
  1.6932442e-03
  5.6367200e-03
 -4.0625208e-03
 -6.3250773e-05
 -2.1275303e-03
  2.4454957e-03
 -1.4148401e-03
  5.4641807e-04
  5.9660003e-03
 -2.0110274e-03
  3.9253396e-01
  3.3651985e-02
  2.8602025e-01
 -6.4150495e-03
 -3.3205777e-01
 -1.1092181e-03
  5.2365223e-03
  5.2598580e-03
 -1.4554090e-02
 -1.1062700e-03
  1.1968977e-02
  1.0095341e-02
  3.0714905e-01
  6.6015385e-02
 -4.0837070e-03
  1.4340187e-02
 -1.6785419e-01
 -6.8075083e-02
  1.2136673e-02
  2.6605413e-03
 -8.7290229e-03
  2.1060053e-01
 -4.7644143e-04
 -1.5501820e-01
  2.0583114e-02
 -1.3880277e-05
  6.4716581e-03
 -1.5234464e-02
  1.9065827e-03
 -1.1876019e-03
  2.7121925e-01
 -6.1972201e-02
 -4.5503271e-01
  5.7808407e-02
  7.7441871e-01
 -5.7906937e-02
  9.6313168e-05
  4.5815402e-01
  2.8532788e-01
 -2.5143126e-01
 -3.6183995e-01
  8.8101398e-04
 -9.5484592e-03
 -2.7589759e-01
 -9.3513153e-02
 -2.6302966e-01
  1.7078348e-03
  8.0798882e-01
 -1.4998879e-01
 -3.8378999e-01
 -3.2393739e-02
  1.5820810e-01
  2.0372012e-01
 -6.8899840e-01
  4.3586645e-02
 -1.7497782e-03
 -6.4633489e-03
  1.1467001e-02
 -2.0384681e-03
  3.8079804e-01
  3.7535790e-01
 -1.2322641e-01
  1.4263741e+00
 -4.8337076e-02
  2.6849025e-01
 -7.0866761e-03
  2.0415753e-03
  1.3783540e-03
  2.4133313e-03
 -8.4079700e-03
 -4.8357011e-03
  2.1029145e-03
 -1.4114787e-03
 -1.0569392e+00
 -2.4366153e-03
  1.2891816e-03
 -3.5087410e-03
 -2.6876889e-03
 -5.7186890e-02
 -2.1646325e-01
 -7.8484416e-03
  5.6564759e-02
  1.4834286e-02
  1.1162596e-02
  4.8475848e-03
  3.5024174e-03
  2.0699419e-02
 -1.0251990e-03
 -1.2125089e-02
  2.3123052e-03
  7.3365283e-01
 -1.1083869e+00
  5.6289494e-01
  6.0289967e-01
  8.0942160e-01
 -1.8451448e-03
 -6.5425523e-03
 -2.8626266e-01
  9.6908091e-03
 -9.5802601e-03
 -4.5492771e-01
 -5.3437329e-03
 -2.4753775e-02
 -2.2838345e-02
 -1.2094071e-02
 -2.8732941e-02
  9.4199920e-01
  3.2565647e-01
 -5.0782180e-01
 -2.3043875e-01
 -8.6756451e-03
 -1.7703700e+00
  2.1210963e-02
  2.6603980e-02
 -7.8276980e-01
 -2.2286901e-02
  1.9720444e-03
  7.9430165e-03
  1.7032595e-03
 -8.4189987e-03
  4.0335683e-03
  1.2655811e-01
 -9.1616511e-01
 -8.3074474e-01
 -1.8981919e-01
 -4.1791299e-04
  1.7350807e-03
  9.6777398e-03
 -8.1678569e-02
  1.7495718e-02
  2.1068208e-01
 -1.1094973e-01
  7.9551332e-02
  1.6600072e+00
  2.4236878e-02
  1.3732870e-01
  7.1632268e-04
 -7.2060484e-01
  1.9744357e-02
  2.0063375e-01
  7.2761644e-03
 -8.1514442e-01
 -1.1857491e-01
  1.7297661e+00
 -7.0356780e-01
  8.6741935e-04
 -1.2786683e-03
 -8.9519527e-03
 -2.0368327e-04
  2.1384382e-03
  1.3275406e-02
  1.6772222e-02
  1.5484693e-02
 -3.3093554e-03
  4.6344017e-04
 -2.2848598e-03
 -1.1039227e-03
  8.8335969e-04
 -6.5090735e-03
  9.9975779e-04
  7.0395339e-03
 -1.6309616e-01
  4.2184116e-03
  1.8129162e-02
  3.1904795e-03
  1.9778829e-02
 -2.5138273e-03
 -1.4632843e-02
 -3.6322388e-03
 -2.5655140e-04
 -1.1362819e-03
 -7.7083008e-03
 -7.7749221e-03
 -6.3949392e-06
 -3.0526349e-03
  5.0978964e-05
  3.5206308e-03
  5.9094885e-04
  3.9413372e-01
 -8.0173584e-03
  5.9546605e-03
  4.9696937e-03
 -3.9143216e-02
  1.6584109e-03
  2.8560548e-03
 -2.1010344e-03
 -8.3466840e-04
  8.1406757e-02
 -6.2524490e-03
  3.8743231e-03
  7.9069138e-03
 -5.4635494e-03
  5.1278160e-03
  6.8280110e-03
 -5.5585062e-04
  1.2157764e-03
  1.2203968e-02
 -1.9826475e-03
 -5.9921471e-03
 -1.6337357e-03
 -1.8726643e-04
  1.9690741e-03
 -4.1835601e-03
 -9.2852544e-03
  2.3449906e-03
 -1.8713361e-03
  2.2312752e-03
  5.5476109e-04
 -4.3103870e-04
  1.6416206e-03
 -7.9580359e-03
 -9.9736102e-02
  1.4536750e-03
  1.2652501e-01
  6.4444828e-01
 -1.7226972e-03
 -4.9957256e-03
 -4.7980710e-03
  4.5376732e-03
 -2.1568365e-02
 -5.6760618e-03
 -5.4318639e-03
  2.7406653e-03
  2.8423290e-03
 -8.6902268e-03
 -1.9943393e-04
  1.0233939e-02
 -4.3200697e-03
 -9.7094517e-04
 -6.9392356e-03
 -3.4249905e-01
  3.1132629e-04
  5.1045693e-03
  1.5086261e-02
 -1.0710686e+00
 -2.9284952e-04
  1.9778793e-03
  3.2350060e-04
 -4.1690674e-03
 -6.0472079e-04
 -3.2715783e-03
  1.6586257e+00
 -1.0133405e+00
  5.6590414e-01
  2.4605219e-01
  2.0052758e-03
  1.5605547e-02
  1.9363539e-02
 -6.6568956e-02
 -6.1416539e-04
  6.6756934e-02
  5.3354301e-03
  1.0817415e-01
  1.5731792e-05
  3.9704967e-02
  8.4550492e-03
  4.6135695e-03
 -2.2003546e-01
 -3.9873393e-03
  1.0906453e-01
  7.7481843e-03
 -1.5173825e-02
 -5.7390884e-02
 -8.5540719e-02
  1.2807674e+00
 -4.5272242e-03
 -3.1917295e-03
 -3.5837216e-03
 -1.3543114e-03
 -2.4030279e-04
 -8.6281240e-02
 -4.5517066e-01
 -7.4599625e-04
  3.4538212e-01
  6.0994968e-02
 -8.0993949e-03
  1.8893069e-03
 -6.9333442e-02
  1.4424316e-02
 -1.8789820e-02
 -5.0023749e-02
 -7.3169628e-03
 -3.5541120e-01
 -6.3417770e-02
 -4.2251717e-02
 -1.3649831e-02
 -6.7249590e-01
  6.0592522e-03
 -4.2370760e-01
 -2.5713205e-02
 -1.8910052e-02
 -1.1496106e-01
  9.2083305e-02
 -3.1060007e-04
 -3.7123299e-01
  3.5207893e-03
 -1.7718036e-02
  2.0803995e-03
  4.0853024e-03
 -3.1308699e-03
 -1.4381185e-03
 -2.9225980e-03
  9.6662980e-01
  1.0707357e-03
  1.3440656e-02
  9.5267138e-03
  6.0915882e-03
  3.9948905e-03
  5.7338816e-03
  2.0092439e-03
 -3.7216777e-03
 -9.6765887e-03
  4.2968304e-04
  3.7180651e-03
  5.7207625e-03
  1.0491468e-02
  2.6001697e-04
  1.1646010e-03
  8.9762136e-03
  2.1772794e-02
  1.1555653e-03
  1.6008028e-04
 -3.3677223e-03
  1.2376531e-03
  3.0209839e-01
 -8.5517333e-04
  1.6247734e-02
  1.1009310e-02
  2.7074786e-03
 -2.0889607e-03
 -1.4406711e+00
  4.1431960e-01
 -6.8254536e-01
  1.0295769e+00
 -1.1434191e-01
 -3.8680252e-02
  2.6267866e-02
 -2.1419273e-01
 -5.6520283e-01
 -5.4154754e-01
 -3.7824187e-02
  3.5303965e-01
 -8.9068615e-01
 -1.3687937e+00
  2.6677093e-03
 -2.7094111e-03
 -1.6180621e+00
 -9.5250160e-01
 -8.6449206e-01
  1.1309271e-03
 -3.0587453e-02
 -1.4272101e+00
 -7.3170680e-01
 -6.3296068e-01
  2.1262674e-01
  9.5455057e-04
 -4.8614688e-02
  6.2498928e-04
 -1.4577719e-02
 -2.1058094e-04
  1.3322245e-01
  2.9254893e-02
  4.3434105e-03
 -4.2012632e-02
 -2.5455996e-01
  2.6625241e-03
  9.3509303e-04
 -1.4927302e-03
 -3.0520263e-03
 -4.6311067e-03
  5.2844714e-03
 -3.0170991e-03
  1.4159948e-03
  5.7837196e-02
  5.2406579e-01
  1.1047047e-03
  2.6550037e-03
  4.5967195e-03
 -1.7560429e-03
  1.3898597e-03
  1.6577376e-02
  1.0194262e-02
 -2.3734634e-01
 -8.4732403e-04
  1.5457167e-03
  2.5166483e-03
 -1.5190793e-03
  5.7823681e-03
  2.0668919e-03
 -4.9938597e-03
  4.4174585e-03
 -1.6346071e-03
 -4.3641414e-02
  1.1962057e-01
  1.7779937e-03
  1.4463102e-04
  1.3075836e-03
 -6.7654878e-01
  3.2229599e-04
  7.9566898e-04
 -2.2417152e-01
  7.8464025e-01
 -2.8011391e-01
 -6.1565387e-04
  9.8053575e-01
  9.7550946e-01
  7.7645988e-03
  7.8834569e-01
  3.0034054e-02
  3.9946425e-01
 -3.7638330e-01
 -1.1603737e+00
 -1.0816139e-01
  3.3130578e-03
 -5.0573044e-02
 -2.8491300e-01
  2.5288284e-02
  1.5112420e-04
 -1.0991080e+00
 -2.7205234e-03
 -2.1136183e-01
  2.4414821e-02
  6.3155550e-01
 -3.7294352e-01
  3.4995107e-03
  3.6054650e-01
  5.8402284e-03
 -1.3906238e+00
 -2.9729381e-02
  5.3347643e-02
 -1.0537781e+00
 -5.1478434e-01
  5.0153232e-01
  7.4176528e-02
  1.8219287e+00
 -1.2569898e+00
  8.8321581e-02
  6.4283907e-01
 -1.5821816e+00
 -6.3946664e-01
 -5.9750581e-01
  6.8884116e-01
  2.5537422e-01
  9.4864331e-04
 -3.6254746e-01
  5.8216047e-01
 -5.6647837e-01
 -5.3834625e-02
 -8.1652915e-01
  2.3986569e-01
  9.5284544e-03
 -4.4356711e-04
  3.5231275e-04
  1.3784661e-02
  6.7530741e-04
 -1.6497880e-01
  2.5206896e-02
  3.8597600e-03
 -9.0859542e-03
 -2.7051913e-02
 -2.8931122e-02
  8.0332689e-02
 -1.1178794e-02
 -1.7421231e-02
 -2.2016544e-02
 -1.4746387e-02
  1.8741788e-02
  6.4125000e-03
  9.4598297e-05
 -1.5055018e-03
 -7.3337583e-03
 -8.1692832e-03
 -6.7002641e-04
 -9.6959844e-02
 -2.5012984e-03
  1.0699299e-03
 -1.3301600e-03
 -9.6714925e-03
 -8.9624710e-04
 -5.2933116e-03
 -4.7655039e-02
 -8.3276141e-01
 -2.3866789e-01
  1.4980841e-01
 -7.6682264e-01
 -1.1970818e-01
 -5.9547957e-02
  6.6410743e-02
 -5.6846714e-01
 -6.3170034e-01
 -6.6723806e-01
  8.5818994e-01
 -1.6103089e-02
 -1.0887710e+00
 -3.5454635e-02
 -8.0685836e-01
  2.0469598e-01
  4.7018197e-01
 -9.9069305e-02
 -2.6549461e-01
 -2.5747877e-01
  7.9358083e-01
  1.5508080e-01
 -1.1288439e+00
 -5.1992542e-01
  3.8728933e-03
 -2.5785002e-01
 -3.8665053e-03
  7.0149940e-03
 -1.0335591e-02
  2.2132754e-01
 -8.0134250e-02
  2.7023688e-01
 -8.8266242e-01
 -4.1161081e-01
 -1.6233408e+00
 -6.6133598e-03
  3.4887154e-02
 -1.5466893e-01
 -1.4482231e-01
 -9.2126441e-01
 -1.4167087e-01
 -1.2191088e-01
 -2.8114474e-01
 -9.5876974e-01
 -6.9375610e-01
 -5.5882138e-01
  2.7575931e-01
 -8.5265994e-01
 -4.3660703e-01
 -3.9744604e-01
 -6.8325233e-01
  2.3621945e-02
 -2.0929097e-01
 -5.2911687e-01
  9.5288572e-04
 -1.9482939e-02
  1.4161757e-03
 -6.2732073e-03
 -7.2407208e-02
 -5.5710804e-01
  1.0961135e-01
  5.3317088e-01
 -1.3110982e-01
 -5.7000768e-01
 -3.5777348e-01
  7.2416532e-01
  2.1795541e-01
 -3.6843110e-02
 -1.3099409e+00
  7.5441533e-01
 -1.9035329e+00
 -2.9877585e-03
 -2.5215006e-01
 -3.8592588e-02
 -8.6513124e-02
  7.2555609e-02
  3.0968907e-01
 -1.3516355e+00
  1.1626653e-02
 -7.2727554e-02
  1.1545784e+00
  3.4621835e-02
  3.9042156e-02
 -3.1781459e-01
 -1.6155027e-02
 -8.6298637e-02
 -1.0004000e-01
 -5.7815569e-03
 -1.4849096e-02
  3.4473172e-01
 -9.2185021e-04
 -1.4789378e-02
  3.9449669e-03
 -6.6191149e-03
 -8.3393464e-04
 -2.0626662e-03
 -7.9228086e-03
  5.2896305e-03
 -4.7064642e-03
 -4.1363062e-03
  6.5568270e-04
 -7.5725177e-03
 -5.1192804e-03
 -3.6371090e-02
 -5.2142097e-04
  8.4956408e-02
 -5.5338368e-03
  2.9382039e-02
  9.3667599e-04
 -4.1119438e-03
  2.1350816e-01
 -4.6532382e-03
 -2.9859515e-03
 -1.4180762e-03
  8.1433635e-03
  1.9431771e-03
 -1.3720813e-03
 -4.0067330e-02
  8.6746644e-03
 -9.9685377e-01
 -3.6293355e-01
  1.3251111e-01
  3.7741557e-01
 -5.0118244e-01
 -7.4556926e-03
 -1.7116958e-03
  1.8146275e-02
 -1.2430630e+00
  3.0241999e-01
 -3.0350393e-01
 -2.9729360e-01
  2.6443545e-03
 -5.7043168e-03
  3.5036332e-03
 -3.5090348e-01
 -2.9275198e-03
  3.9955312e-03
 -2.4525523e-01
  1.0509475e-03
 -1.9718762e-02
 -1.9265823e-01
  2.8820696e-05
 -8.0596775e-02
 -1.3563144e-03
 -6.5776025e-05
 -5.5669425e-03
 -6.1597244e-04
  4.2139934e-03
 -9.0759317e-04
 -9.5162070e-01
 -9.9416727e-01
  6.7081648e-01
  2.3878006e-02
 -1.1637076e-01
 -3.6697055e-03
  2.4193462e-03
 -4.0807370e-03
 -1.6040096e-01
 -4.3432252e-03
 -4.1006905e-01
 -7.5393723e-04
  5.0940304e-03
 -3.0331593e-03
  2.5310066e-01
 -7.9397932e-03
 -9.9851555e-01
  3.4884864e-04
 -8.3229650e-04
 -7.9726197e-02
  5.8797025e-04
 -1.8858748e-03
 -2.1856430e-03
 -1.6927975e-01
 -1.7019152e-03
 -1.3159407e-02
 -2.7579412e-02
  2.4747433e-01
 -3.0187329e-03
  4.0388932e-03
  1.0301316e+00
 -7.5136685e-01
 -1.8186483e-01
 -3.4781098e-01
 -7.7294506e-02
  2.6987204e-01
 -3.8850960e-01
 -8.9586206e-02
  3.0595336e-02
  9.2395559e-02
 -1.5501021e-03
 -2.2372954e-02
  4.2438614e-03
  1.6399606e-01
  8.1726089e-03
 -2.3814472e-03
  1.2111275e+00
 -2.1957706e-01
  4.6364465e-01
  2.2781645e-03
  2.1032020e-02
 -1.5241886e-03
 -8.0283880e-03
  5.8203168e-02
  8.4204040e-03
  3.7775964e-03
 -3.9523127e-04
  2.3595297e-03
 -4.5967544e-03
 -7.1711219e-03
  2.0612314e-01
 -2.8564274e-01
 -4.6053180e-01
 -3.8341746e-01
  7.9202186e-03
  1.9811543e-02
 -3.5957915e-03
 -1.1949770e-02
 -7.9355594e-03
  2.6192644e-03
 -6.6969788e-04
 -1.1533398e-02
 -6.5916688e-03
  9.0047141e-04
 -4.7663939e-03
  1.8546465e-03
 -4.8040198e-03
 -2.4782796e-03
  3.6202800e-03
 -5.1545855e-03
 -2.3279549e-03
  3.8594466e-03
  7.4329022e-03
 -1.0826238e-03
 -3.9060193e-04
  1.9450976e-03
  2.7114631e-05
  6.3744639e-03
 -9.0767508e-03
 -8.0068807e-05
  6.1552852e-01
  1.2844772e+00
  8.1891227e-01
 -9.8373048e-02
 -3.1789571e-01
  2.8775042e-01
  9.1672736e-01
 -1.3367375e-02
  6.5438665e-04
 -2.5264837e-02
  3.9205733e-01
 -4.2413035e-01
 -1.1800159e-02
  1.1520488e+00
  1.9920940e-02
  1.8592390e-01
  5.4449087e-01
 -6.2358373e-01
  5.9476942e-01
  2.5184736e-01
  6.3762911e-02
 -2.7215734e-02
 -1.5272310e-02
  4.3326110e-01
  1.8659237e-01
  6.0916515e-03
  1.2414945e-01
  9.4182015e-04
 -2.6264464e-05
  2.8381841e-03
 -1.2874147e+00
  5.9221828e-01
  2.5218451e-01
 -1.7676327e-02
  4.2977813e-01
  3.2714368e-03
 -5.5531166e-03
 -4.4098273e-03
  3.8625824e-03
 -2.1068980e-04
 -3.1026304e-04
  2.2771847e-03
  5.0755017e-03
  3.1493413e-03
  8.5672438e-03
  3.8587612e-03
  1.8353289e-01
 -1.6922140e-03
 -2.5437702e-03
  4.3465219e-02
  3.1589109e-03
 -6.0972419e-02
 -2.6742681e-03
 -8.5760877e-02
  2.7165419e-04
  1.9198889e-02
  9.3359360e-03
  2.5382417e-03
  2.5633152e-03
 -2.3607153e-03
 -4.0581273e-03
 -1.1143277e-03
  3.6422550e-03
  1.5797726e-03
 -2.3545271e-03
 -8.5783582e-03
 -2.0080018e-03
 -1.8545976e-03
 -1.0185506e-02
  1.1432765e-03
  2.7558305e-03
 -4.9704327e-03
 -3.0035621e-03
 -7.0514153e-03
 -4.7162911e-03
  6.0770377e-03
 -1.4163691e-03
 -3.1916169e-03
 -5.5993474e-03
 -2.6832905e-03
  3.8716043e-03
 -7.3732263e-03
  6.7048584e-04
  1.4878548e-03
  3.3003397e-03
 -1.6422148e-03
 -7.6138548e-04
  5.5018556e-03
  7.8190174e-03
  6.5645473e-03
 -3.4725764e-01
 -8.1981765e-03
 -2.3487676e-03
  8.0550518e-03
  3.1821514e-03
 -8.9347186e-03
  4.4900630e-04
  2.8069599e-03
  5.4216334e-03
  1.2158168e-02
  1.1200696e-02
 -1.4325157e-03
  5.9688231e-04
  4.0741675e-03
  6.5211870e-04
 -2.3606414e-04
  7.5053721e-04
  2.6411775e-03
 -2.1862155e-03
 -4.6555097e-03
  2.4921617e-03
  3.8250280e-04
 -7.6117250e-04
  8.8586528e-03
  1.1462411e-03
 -6.9452927e-04
 -4.3011354e-03
 -1.5881934e+00
 -7.1857902e-03
 -1.7448494e-02
  6.3984001e-01
 -5.2434087e-02
 -1.9423363e-01
 -5.9631431e-01
  1.8932788e-01
  2.4039866e-02
  8.2810801e-03
 -3.9641929e-01
  8.4631935e-02
  2.8179669e-01
  2.5643306e-02
 -1.8949378e-02
 -1.7151031e+00
  3.3343922e-02
 -6.0989900e-04
  4.3760668e-03
  2.6675722e-02
 -1.2125287e-03
 -1.4335521e-01
  1.2753765e-02
  1.0231044e-02
  8.5518569e-01
 -1.3037739e-02
  2.5836853e-02
  2.6813000e-03
  7.4554846e-02
  3.9556372e-04
  7.5716292e-04
  9.8754046e-03
  3.6033407e-02
  9.7525960e-01
 -1.0332345e+00
 -7.2498195e-02
 -7.0529014e-01
  4.4754499e-01
  1.1319592e-01
 -3.3455145e-01
 -5.9637763e-03
  1.0615826e+00
  5.1585525e-01
  1.6243327e-01
  6.4092135e-01
 -5.3399852e-03
  8.7599799e-02
 -2.2748085e-02
  9.2425548e-02
 -1.0356742e+00
 -3.9171621e-01
 -4.4058195e-01
 -3.1499106e-02
  1.9149628e-02
  4.5887390e-01
 -2.4200170e-03
  4.5204347e-01
  8.4586278e-02
  5.4153916e-03
  6.7619391e-02
 -1.0701272e-03
 -1.2894683e-03
  1.2487678e-02
 -4.1063770e-04
  9.5772864e-03
 -3.9311376e-04
 -1.2321584e-03
 -6.9146237e-04
 -2.0626473e-04
  3.0045584e-03
 -3.2752044e-03
 -8.4179901e-03
  3.7389627e-04
  5.4274192e-03
 -2.6714113e-03
  4.7884037e-04
 -7.6378288e-04
  1.6857681e-03
  1.3365471e-03
 -5.7417005e-03
  2.5974333e-03
 -7.6406042e-04
 -7.1019200e-03
  1.5801031e-02
  2.4863070e-01
 -2.4437234e-03
 -2.6431358e-03
 -2.2787491e-03
 -1.8645052e-05
  2.5408566e-02
  6.5448857e-03
 -1.4892328e-01
  4.7074440e-03
 -7.7689551e-02
  1.1297280e+00
 -9.1939068e-01
 -2.9603615e+00
 -1.7818277e+00
 -7.4550793e-02
  2.0595331e+00
 -1.3287874e+00
  7.5808358e-01
  5.3314853e-01
  7.3874057e-03
  1.0368589e+00
 -6.2740195e-01
  3.9140069e-01
  4.1423517e-01
  2.3718612e-01
  6.0670340e-01
  6.2587336e-02
  1.4207464e-01
  2.1819907e-01
 -2.9537702e-01
  8.6639021e-03
  2.2270112e+00
 -1.0175200e-01
  5.5991447e-01
 -1.2539351e-01
 -1.1313172e-01
 -4.2173741e-03
  7.3919743e-02
 -1.9115718e-01
 -7.6818401e-01
  6.6395706e-01
 -1.2389654e-01
  2.4537583e-01
 -7.8612536e-01
  1.4185110e-02
  4.5654795e-01
  6.5945410e-03
  5.3468293e-01
 -7.9767585e-02
 -5.1935419e-02
  1.2717797e-01
 -2.9875832e-02
 -2.5544158e-01
 -1.5986285e-01
 -1.1511149e-01
  9.9999383e-02
  1.5200174e-04
 -2.9933038e-01
 -4.3038675e-03
 -3.2258529e-02
 -1.6803974e-03
  1.4977300e-03
  7.4748616e-03
 -2.4359701e-02
 -5.9119118e-03
 -2.3465605e-02
  4.3358882e-03
  3.1189572e-03
 -7.2926120e-03
 -4.7968216e-03
 -4.6170760e-02
  2.6838065e-03
 -2.1823533e-03
 -3.8281813e-01
 -1.2114224e-01
 -3.3277993e-05
  1.7394358e-02
  9.2546970e-01
 -3.5263582e-03
 -3.3247139e-02
  5.7231593e-03
  3.6631965e-03
  1.2362872e-03
 -6.9436245e-03
 -1.6228387e-03
  5.0132532e-02
  6.5423723e-04
 -3.1772733e-02
 -1.2098684e-02
 -3.6598973e-03
 -5.6649436e-04
  3.8360164e-03
  5.6860312e-03
 -1.5091081e-03
 -2.4953127e-04
  1.4953275e-04
  2.2074746e-03
 -4.3954775e-03
 -2.2975918e-02
 -4.2848545e-01
  1.8378797e-03
 -1.6975056e-03
  2.4399477e-04
  1.3732747e-03
  1.2288707e-03
 -6.1780522e-03
  5.4493325e-04
 -1.3662347e-03
 -7.5016501e-03
 -3.6837356e-03
 -4.7953427e-01
  6.2081538e-04
 -2.4138599e-04
  4.5972243e-03
  8.9196414e-03
  1.2111549e-03
  2.2552568e-03
  1.1570966e-03
 -2.2914214e-04
 -1.1958063e-03
  6.7169145e-03
  3.8796896e-01
  1.4169374e-02
 -2.1519742e-03
 -1.1075437e-03
  1.4370830e-03
 -9.4624214e-02
  1.1129206e-02
  2.9462310e-03
  9.0118635e-01
 -3.4825671e-01
 -1.0381694e+00
  1.1647282e-02
  2.0585524e-01
 -1.3298864e-02
  1.8877450e-02
  7.4640615e-04
 -5.5868095e-03
  3.7770753e-03
 -1.3200447e-03
  7.5050533e-02
 -8.4970742e-03
 -4.2131506e-03
  1.9501315e-02
 -4.3955609e-02
  5.9254783e-01
  2.5354528e-01
 -3.0441557e-05
  5.6058937e-03
 -5.7167821e-03
  1.2187458e-02
 -5.8247085e-04
  2.8698565e-03
 -1.7398725e-03
  1.7889854e-02
 -2.3520952e-03
  6.8684720e-04
  1.3102124e-03
 -3.3542304e-03
  9.7493094e-01
 -2.1570897e-01
  7.5291610e-01
 -9.9823372e-03
 -3.2952831e-03
  2.0948907e-03
 -4.4524670e-03
 -1.1902148e-02
 -5.4505225e-02
  1.4524029e-02
 -2.0405247e-03
 -4.2015132e-02
  4.8238360e-03
 -5.4104091e-04
  5.5453214e-03
  3.4896738e-03
 -2.7679298e-02
 -5.7167318e-03
 -4.2712530e-03
  9.9309231e-04
  4.7527743e-03
 -4.0536892e-01
 -2.0853933e-03
 -1.0475965e-03
 -1.6773798e-03
  4.1143540e-03
  6.6845561e-03
  6.6463422e-04
  7.2201090e-03
  7.7549433e-03
 -2.4584751e-03
 -4.3496164e-03
 -7.3197684e-03
  3.6366333e-03
  1.3343799e-02
 -7.7641838e-05
 -3.2090913e-03
  1.0117811e-02
 -1.5965425e-03
 -2.1505926e-03
 -1.4501352e-04
  2.6953560e-03
  7.0029213e-03
  1.2048533e-03
 -4.0047518e-05
  1.3588422e-02
  5.3614628e-04
 -4.4755958e-04
  4.2050225e-03
  2.6815679e-02
 -4.1018073e-03
  9.0435310e-04
 -3.9155940e-03
 -8.2111523e-02
 -3.2648249e-03
 -9.0615703e-03
  6.0261297e-04
 -7.8671593e-03
  1.8202573e-02
  6.2264944e-03
 -3.8950220e-02
 -1.6111847e-03
  4.6825302e-03
 -2.2234782e-03
 -1.6955489e-01
 -3.5740351e-03
 -8.1322612e-03
  6.8373415e-03
 -1.1434401e-02
 -8.6848426e-04
 -4.1970569e-03
  4.5401117e-04
  2.7804472e-03
 -5.6558917e-03
  1.4043822e-02
 -1.0352229e-03
  5.0645739e-02
  1.0550168e-04
  3.3669770e-01
  3.5404810e-04
  1.6117586e-03
  1.2331225e-04
 -1.2123840e-01
  3.8659552e-03
 -4.8632189e-03
 -5.9719048e-03
  1.5646392e-04
 -1.4225966e-03
  7.8759342e-03
 -2.3088697e-03
  4.6338090e-03
  3.5446257e-04
  9.6181640e-04
  5.8712768e-03
 -1.2744279e-02
 -5.9669832e-04
 -6.9256604e-04
  6.3649775e-03
  2.2585208e-03
  8.6899369e-04
 -8.0879815e-03
 -7.7242376e-03
  8.3465065e-04
 -1.9686136e-03
  2.7095354e-03
  1.5844893e-02
  7.0396764e-03
 -3.9418116e-03
 -1.2940031e-03
  6.6157064e-04
 -1.2947264e+00
 -2.8978155e-03
 -2.4777004e-03
  5.9135286e-03
  7.7158646e-03
  2.2089025e-01
 -4.9094395e-03
 -6.8991664e-03
 -8.2258768e-03
  7.2684318e-01
  1.2540874e+00
  3.1580936e-02
 -2.0810777e-02
 -3.0313791e-03
  6.6453996e-03
  1.5471335e-02
  2.3855793e-03
 -7.1758800e-03
  6.6753170e-03
 -4.5710588e-03
  3.7133631e-03
 -2.0524377e-02
  3.9091934e-03
 -8.0805592e-05
  1.7299800e-03
 -2.1728983e-03
  3.1836089e-02
 -2.0193767e-03
  9.1569172e-03
 -1.9483302e-06
 -3.5433890e-03
  1.0835022e-03
 -5.6113447e-03
 -2.6817538e-03
 -8.8906623e-03
 -1.7574438e-03
  4.2784847e-03
 -1.4003316e-03
  1.4718116e-02
  8.1136340e-04
  2.2236001e+00
  2.4185142e-01
 -2.6657337e-01
  9.1522962e-01
  2.9217666e-01
 -4.3930876e-01
 -1.8658857e-01
 -4.4452380e-03
  2.0660681e-03
 -5.7303119e-01
  3.9458148e-02
  6.1715122e-02
  2.2628619e-01
  1.9932511e-01
  2.2390943e-02
  6.4318329e-02
  3.2798731e-01
  1.6845576e-01
  1.3820097e-01
 -7.5407928e-01
  1.7999789e-02
  1.0178926e-01
 -7.6693408e-03
  4.1402779e-03
  5.0672558e-03
 -3.0470381e-03
  3.3834811e-02
 -2.5433165e-03
 -4.1428832e-03
  3.8603175e-02
  1.7296690e-01
 -1.5183398e-01
 -1.2909587e-01
 -1.0104741e+00
 -1.3101622e+00
  8.9569438e-01
 -7.6288812e-02
 -1.1507059e-02
  2.1446347e+00
  1.5119392e-01
  1.1999472e+00
 -1.7420667e-01
  8.3104119e-02
  1.2887713e+00
  1.6271880e+00
  7.4356192e-01
 -8.6212501e-02
 -1.0328883e+00
  5.0733775e-01
  1.1537738e+00
  4.7512183e-01
 -1.4989570e-01
  3.5714477e-03
  3.7140179e-01
  3.4906968e-01
 -1.6632671e-03
  9.4994549e-03
 -6.9887685e-03
  1.8741769e-03
  7.4756265e-02
 -1.5898285e-03
 -7.5527197e-03
  2.3883739e-03
  8.0833350e-05
  2.7295891e-03
 -6.7206197e-03
  6.4466679e-03
 -1.1318105e-02
 -4.2126756e-03
 -4.8436685e-03
 -3.9096577e-03
 -1.2361806e-02
 -8.0025825e-04
  3.5341186e-04
  7.9046506e-03
  2.9519999e-03
 -1.5082031e-02
 -7.4294052e-04
  3.2096112e-03
  1.0276489e-03
 -6.7875125e-03
  3.5679627e-03
 -5.4423441e-03
 -3.3670350e-03
 -7.1605565e-03
 -2.2491107e-03
 -1.6969393e-04
 -1.0842260e-03
  8.3946611e-04
 -1.5554118e-02
 -8.9640632e-02
  1.0339406e-02
  3.5240797e-03
  3.9325277e-03
 -9.0534901e-03
  1.0724722e-03
  9.9149817e-01
  5.5774259e-03
 -1.9552361e-02
  1.1337435e-02
 -3.6058123e-03
 -8.8764830e-03
  4.0104191e-04
 -5.1356014e-03
  3.1707152e-03
 -3.1947098e-03
 -8.1151053e-02
 -7.5870701e-03
 -6.6404892e-03
 -7.8030000e-03
  1.4278739e-03
  4.0556435e-03
  1.1750553e-03
 -6.2415987e-04
 -5.8345413e-03
 -1.4764188e-02
  3.3170977e-03
 -4.9730050e-03
  7.4721221e-03
  1.3137162e-02
  6.1761332e-03
 -6.3650542e-01
 -1.2526860e+00
 -1.0711081e-01
  1.0309427e-03
 -3.6484938e-02
 -9.5426995e-01
 -1.3541600e+00
  5.6445412e-03
  8.4751425e-03
 -2.2046915e-01
 -3.7980371e-03
 -3.2356379e-03
  2.0124929e-03
 -1.1506315e+00
 -4.2260857e-03
  1.6246150e-01
 -2.2236763e-01
  1.3954616e+00
 -1.0957133e+00
 -1.2925822e+00
 -1.1741036e+00
  1.7537827e-02
 -4.2736092e-01
 -6.1471462e-03
 -8.9316130e-01
 -1.0272161e-01
  5.8300178e-02
 -1.6648668e+00
 -1.5309980e-03
 -2.2561651e-01
 -6.0298115e-01
 -6.1140591e-01
 -4.5097429e-01
  1.2823987e-01
 -2.6744217e-01
 -1.9585067e-01
  3.4728789e-01
  1.8020470e-01
  4.8560718e-01
  1.0196670e+00
 -2.6545282e-02
 -6.0152020e-03
  3.1906369e-01
  3.6155069e-01
 -4.1800542e-04
 -2.3759131e+00
 -8.5264707e-01
 -1.2601026e+00
  1.0097730e-01
 -3.4045148e-01
  1.4173591e-01
 -9.2017613e-02
 -5.8201239e-02
  3.5137015e-03
  1.5367445e-01
  9.2952341e-01
  5.9139079e-01
 -3.1421106e-02
 -8.9494534e-02
  5.7490954e+00
  7.7217096e-01
  1.8982816e-03
 -4.7656195e-03
 -2.1588837e-03
 -1.1551577e-01
  5.5039860e-02
 -3.9781296e+00
  1.1281944e-01
 -1.2645030e+00
 -1.0031219e-01
  3.1978961e-02
  1.1387732e+00
  9.7205034e-03
  3.8462821e-01
  1.4332675e+00
 -4.1021660e-01
  3.9639105e-03
  1.0268253e-03
  1.3000074e-02
  2.2072475e-03
 -1.5064516e+00
  2.8956661e-03
 -4.3309648e-03
  3.3204025e-01
  1.9720159e-01
 -2.6435095e-03
  1.8586447e-04
 -1.2545772e+00
 -1.3799148e+00
 -5.3462321e-03
 -6.8358555e-02
  9.9561107e-01
 -1.7783103e-03
 -5.9686187e-03
 -7.8987405e-03
  4.8694052e-03
  1.3623799e-01
  1.3000257e+00
 -1.9009095e-01
 -4.0757367e-01
  1.4337425e+00
 -3.6335760e-01
  4.2910278e-03
  1.2845011e+00
  1.3466705e+00
  2.2728011e-02
  3.5669094e-01
 -2.6558352e+00
  5.4119416e-02
  1.7652132e-01
 -4.6877773e-03
 -5.9399223e-01
  5.7863092e-01
 -5.6905180e-02
 -2.7828339e-01
 -1.5074738e+00
 -2.0983176e+00
 -3.4618855e-02
 -3.1001498e-03
 -3.1377488e-01
  8.5408401e-01
  1.2654276e+00
 -8.7354642e-01
 -8.4637672e-01
  1.6340364e-02
  4.0473682e-03
 -1.5812984e-03
 -9.0910666e-02
  1.5463006e-03
  1.5181112e-02
  1.5030633e-01
  1.4353154e+00
 -5.8610320e-01
  9.8891091e-03
  3.4513592e-03
 -4.7041276e-01
 -9.1538739e-01
  1.6017938e+00
  1.6762514e-01
 -3.3087975e-01
 -2.7208717e-03
  2.1530767e-03
 -4.4430154e-03
  5.1444486e-02
 -1.8123201e-01
 -9.4034979e-03
 -2.0033147e+00
  6.6469121e-01
 -9.6202987e-01
 -1.4319606e-01
 -2.7859677e-03
  2.6173732e+00
  6.1081779e-01
  1.5693929e+00
  1.3560674e+00
 -1.7437519e+00
  2.4702216e-03
  7.0767161e-03
  8.1539340e-03
  3.2616273e-01
 -6.2491196e-01
 -1.2851816e-01
 -1.4501640e+00
  8.0379951e-01
  1.0123312e+00
 -4.1389054e-01
 -2.5003299e-03
 -1.0020665e+00
  1.6497924e+00
  1.3202927e-01
  1.0270164e+00
 -1.7399961e+00
  2.0763921e-03
 -2.1992906e-03
  1.1013484e+00
 -7.0710212e-01
 -6.2136066e-01
  6.4495546e-01
  1.0744952e+00
  1.8450754e+00
  9.8899066e-01
 -4.0003504e-03
  1.9447032e-02
 -1.2012820e+00
  7.3746818e-01
 -1.0431106e+00
  4.3632892e-01
  5.4674521e-03
 -3.0106482e-01
  1.3772292e-03
  7.1767520e-04
 -1.0634555e+00
 -9.1299981e-01
 -2.4961932e+00
  8.6158973e-01
  2.5745273e+00
 -1.7167784e+00
 -2.5997511e-01
  4.6432531e-01
  5.3214490e-01
  3.6483175e-01
 -5.8395427e-01
 -8.3785228e-02
 -1.3353552e-01
 -4.1257384e-01
 -2.5490858e-03
  1.9924352e-03
 -5.0601482e-01
 -2.5543708e-01
  2.2615870e-03
  2.4563180e-02
 -2.0902400e-01
  8.4735715e-01
  1.2032933e+00
 -5.2728570e-01
 -4.1044378e-01
  2.3108429e-01
  2.5652354e+00
  7.0146078e-01
 -6.2691402e-01
  3.7215975e-01
  2.2101799e-02
  9.8619312e-03
 -5.0924665e-01
  6.7165536e-03
  1.0883282e-02
 -1.8736013e-03
  9.0822804e-01
  6.8026520e-02
  1.8106732e-01
  4.6447225e-02
 -1.1648058e+00
  1.0007156e+00
 -2.6867878e-01
 -4.1557844e-03
 -1.7525548e-01
 -7.7454019e-01
 -2.5548977e-01
 -1.8173711e-01
 -3.3756813e-01
  4.1353652e-01
 -3.6829568e-03
 -3.9079556e-01
  4.0650436e-01
  1.0198022e-01
 -7.3107702e-01
 -9.1154732e-02
  1.4905025e+00
 -7.3224103e-01
  5.9725847e-02
 -2.2802321e-04
  8.4909248e-01
  2.0159303e-01
  5.4417908e-01
  1.9896237e-02
  4.9215776e-01
 -4.3522218e-01
  3.8181275e-01
  3.6196434e-01
 -1.1092608e-01
 -4.4820297e-01
  1.9898658e+00
  2.5528963e-03
 -3.0362901e-01
  9.9919236e-01
  1.2746165e+00
 -4.7855863e-01
  3.8691628e-01
  4.5569015e-01
  2.9937556e-02
  2.4861271e-02
 -1.1734035e+00
  9.9035633e-01
 -1.8031776e-02
  4.6556315e-04
 -1.0026107e+00
 -1.7370650e+00
 -6.1395943e-01
 -3.5438128e-02
 -1.3406063e+00
  2.2343154e+00
  7.5180411e-01
  9.5872265e-01
 -1.4431165e+00
 -2.5606038e-02
 -1.6726328e-01
 -2.9393276e-02
  2.5297251e-01
 -1.9846375e+00
  5.4170132e-02
 -1.4139651e-02
 -1.2821738e+00
 -1.3445863e-03
 -2.4844317e-01
  2.3100951e-03
  1.1708890e+00
 -1.8270785e+00
  6.3015833e-02
 -2.4607431e-03
 -3.1095800e-01
 -4.9236517e-02
  2.7184859e-01
  8.9060999e-02
  3.4108415e-01
 -9.9460185e-02
 -1.0727805e-03
  2.5224969e-01
  5.6340414e-01
 -2.0972012e-01
  1.6238232e+00
 -6.4404450e-02
 -2.4719281e-01
 -1.1730453e-01
  9.3645519e-01
 -5.3201246e-01
  2.3975547e-01
 -5.0712681e-01
  2.2229764e-01
 -6.0764542e-03
 -5.4976389e-02
  1.2092968e+00
  2.2069311e-03
  4.5235079e-02
 -1.4155304e-01
  9.8952413e-01
  4.1735488e-01
  1.1002244e-03
 -4.6225429e-01
 -3.5364658e-02
  1.9493399e+00
 -8.0533385e-01
 -4.7630203e-01
 -1.9231667e-01
 -6.5878612e-01
 -4.8346411e-02
 -2.1125953e-01
  1.6941714e+00
 -4.9921442e-02
  7.3483813e-01
 -4.1311014e-01
  1.6048643e-01
 -5.8700152e-02
  4.3376291e-04
  2.2888815e-01
  9.0222783e-02
  1.4561646e+00
  1.3478911e+00
 -4.3829727e-01
 -2.0584969e-02
  4.5048608e-03
  5.6314073e-03
  1.0131201e-01
 -1.5162016e+00
  1.9252147e-01
 -5.5007883e-03
 -1.7080046e+00
  2.3022906e-01
 -3.0902499e-02
 -1.2415209e-03
  4.2526880e-01
 -4.0351090e-01
 -9.1386706e-01
 -2.3299533e-01
 -4.1341841e-01
 -1.5282129e-01
  1.0784030e-03
 -4.4090030e-04
  6.3903257e-03
  8.0522662e-01
  1.2887551e-02
  3.0630532e-01
 -1.0563386e-02
 -5.6789458e-01
 -3.9169621e-02
  6.9839810e-04
  6.2764192e-01
 -2.0941548e+00
 -2.0158333e-03
 -1.7777407e-01
 -2.8838770e-02
  1.4129315e-01
 -4.7852169e-04
  5.7622087e-03
 -4.1199616e-01
 -2.3604205e-01
 -9.9387594e-02
 -4.7131884e-01
  1.2832538e+00
  1.9909551e+00
  9.7353637e-02
  1.7958324e-03
  5.8160450e-02
  1.8271700e-01
 -5.1957780e-01
  1.0589704e-02
 -7.0200378e-01
 -3.0680951e-01
 -5.3238473e-04
 -1.1379124e-01
 -1.2100797e-02
  1.0283231e+00
  1.1014128e+00
  7.8090721e-01
  4.0184367e-02
  5.9502631e-02
 -3.4732959e-01
 -4.8579411e-03
 -1.4974609e-01
 -8.3360329e-02
 -6.1411256e-01
 -4.8823159e-02
  8.9455247e-01
 -2.4785921e-01
 -1.3580738e-02
 -1.5258879e-03
  5.7497501e-01
  5.3665239e-01
 -1.7329012e-01
 -9.4705723e-02
 -1.9742462e-01
  1.7819327e+00
  2.8750104e-01
  1.9626956e-02
  1.9034308e-01
 -1.0722347e-01
 -1.0918969e+00
 -4.3568766e-01
 -1.8582338e-01
  8.0040051e-03
  4.2842250e-02
  1.9310754e-02
 -1.5434982e-01
 -1.0538523e+00
  6.9855675e-03
 -1.2256268e-01
  6.2157583e-01
  8.4224334e-03
  5.8904213e-01
  1.0662949e-02
  5.7311767e-01
 -1.1129470e+00
  7.6323062e-02
  2.1218225e-01
 -6.4154737e-02
 -1.4193138e-02
  4.0157158e-03
 -9.2707723e-03
 -3.7530056e-01
  5.0919080e-01
  2.2437786e-01
  3.7031900e-02
 -1.2661272e+00
  5.0354934e-01
 -2.6822281e-01
  3.5261583e-02
 -1.5780536e+00
  2.2501061e+00
 -1.4347167e+00
 -6.5539873e-01
  1.3219394e-01
 -9.6429384e-01
 -3.4938347e-02
 -1.2681575e-03
  1.7684093e-01
  8.2031560e-01
 -3.8797098e-01
 -2.7710790e-04
 -2.1560349e+00
 -4.5795831e-01
 -1.8665774e+00
 -1.1051630e-03
  1.6837614e+00
  6.6823572e-02
 -1.3092119e+00
 -2.1023126e-03
  3.6163723e-01
 -5.9025425e-01
  4.0461189e-01
  1.7593591e-01
  2.1000661e-01
 -4.3598807e-01
 -3.4175989e-01
 -6.6717350e-01
 -3.1176299e-01
 -4.4481319e-01
 -9.1538198e-02
 -4.7546337e-04
  2.6592046e-01
  4.7628996e-01
  6.0950343e-02
 -1.4113921e+00
  1.0216401e-01
  3.3595912e-02
 -1.6592749e-03
 -3.4090839e-03
 -1.8403629e-02
  1.2488890e-01
  1.3033383e+00
  6.4614195e-01
  8.1724370e-01
 -2.1946332e-01
  1.2618079e+00
  3.5894758e-03
 -2.0300364e-01
 -3.5271370e-01
 -1.0616201e+00
 -1.8986727e+00
  2.1518654e-01
  2.9204262e-02
  5.9454772e-03
 -1.3060982e-02
 -1.3069830e-02
  9.4491497e-02
  7.5595066e-02
  2.8249906e-02
  7.8280205e-01
 -1.9552410e-03
  2.7636325e-03
 -2.7413885e-03
  3.8556516e-02
 -1.0822768e+00
 -1.0286044e+00
 -9.9507195e-01
 -1.2263801e+00
 -2.8152776e-01
 -1.6957421e-04
 -9.2257401e-03
  1.5546684e-03
 -1.3927130e+00
 -1.0407690e+00
 -8.0711073e-01
  2.2290788e+00
  4.4742048e-01
  1.4472419e+00
  6.1581717e-03
 -1.6627281e+00
 -3.3135000e-01
  1.0938887e-01
  5.1558888e-01
 -3.4074602e-01
  4.9212307e-02
 -1.9900793e-01
  2.3524263e-03
 -2.3693556e-03
 -8.7215686e-01
  1.7391114e+00
  1.2720166e+00
 -2.0604024e+00
 -2.5286072e-01
  4.6603492e-01
  4.8854789e-03
  7.0143491e-02
  7.0964080e-01
  3.4072304e-01
 -1.9029251e+00
  6.2219348e-02
  1.6993403e+00
  6.2284333e-04
 -1.5965017e-04
 -9.7213894e-01
 -1.9276166e+00
 -1.1711358e+00
 -2.9382780e-01
 -1.1187222e-01
  1.2805810e+00
  2.7757287e-01
  1.3760005e-02
  1.6223277e+00
 -4.4159871e-01
 -2.1281760e+00
 -2.4665666e+00
  2.2594495e+00
  1.1091405e+00
 -5.9318263e-03
 -1.3652844e-02
  2.9588991e-03
 -1.4990067e+00
 -8.1931241e-03
 -4.7798944e-01
  1.6717019e+00
  9.4444704e-01
  1.1088853e-01
 -3.0923279e-03
 -1.6429198e+00
 -8.5123026e-01
 -2.5249526e-01
 -1.2765534e+00
  1.1261957e+00
  4.8179993e-01
 -1.0603297e-04
  1.7927894e-03
  1.6946939e-01
  1.6331763e+00
  1.8200017e+00
  3.4864610e-01
 -4.2851263e-01
  1.5073079e+00
  1.9665629e-01
 -6.1460852e-04
  2.7856129e-01
  8.4507704e-02
 -3.8125589e-01
  8.6900717e-01
  1.5014104e+00
  2.2039142e-02
  3.9045897e-01
 -1.2560089e-02
  1.3104707e+00
  2.0735874e+00
 -2.9124188e-01
 -2.7396126e-02
  2.2983731e-01
 -4.9075443e-01
 -2.5023589e-01
  1.9149758e-02
  1.1042562e+00
  3.6863464e-01
 -3.0948339e-02
 -9.3107045e-01
  4.8957583e-01
  3.2618305e-01
 -2.8980839e-01
  7.1509886e-01
  3.8143758e-02
  2.5466218e+00
 -1.5258408e+00
 -7.6641518e-01
 -8.7531939e-02
 -1.9765457e+00
  4.0326700e-01
 -6.3285320e-03
 -1.2076823e+00
  8.2619190e-02
 -2.6927394e-01
  1.8114647e-01
  2.3099752e-01
  6.4237760e-03
  1.0831113e-02
 -4.0154897e-05
 -3.0308330e-01
  3.7297031e-01
 -3.1777197e-03
 -1.2188035e-03
 -2.4892861e-01
 -8.0342287e-01
 -3.7855685e-02
  1.5327078e-01
 -3.6693963e-01
 -5.6285375e-01
 -5.2020711e-01
 -4.4706511e-01
  2.8897282e-01
  3.2656896e-01
  1.2505109e-03
  2.0393529e-03
 -1.3770710e-01
  1.1192101e-02
  1.2215654e-02
  2.3711486e-02
  2.3297151e-03
  2.3331495e-01
 -8.1939869e-02
  2.7617253e-03
  1.8212055e+00
 -7.0053172e-01
 -2.2215376e+00
 -7.8533119e-01
  7.0457667e-01
 -3.9289677e-01
 -2.4486058e-03
 -2.0073812e-01
 -4.7870535e-02
 -9.1554517e-01
 -4.8170514e-02
 -1.6475342e-01
 -1.7084028e-01
  1.7019242e-01
 -1.1203393e+00
  3.0263692e-02
 -1.4891577e+00
  1.6345969e+00
  3.2583501e+00
  8.4794080e-01
 -7.6494896e-01
  4.8732523e-02
  1.0274885e-02
  7.1079480e-03
 -7.3661745e-02
  5.6837624e-01
  4.0338352e-01
  1.1560827e-01
  3.4964609e-01
  8.5855705e-01
 -1.7579770e+00
 -5.3680371e-03
  6.1317271e-01
 -1.6524460e+00
 -7.4751502e-01
  4.0460218e-04
  1.2763661e+00
  2.0524435e-01
  2.1170594e-03
 -5.3276606e-03
 -4.0858448e-01
  4.7698855e-01
 -4.2052427e-04
 -1.0064960e-03
 -1.4821944e-01
 -2.1695611e+00
  1.1630985e+00
  1.0949278e-01
 -1.9706385e-01
 -4.4345343e-01
 -2.3242787e-01
 -1.3240409e+00
  2.5224207e-02
 -5.8581877e-02
 -1.6403741e-03
 -1.0543588e-02
 -6.6735007e-02
  1.2874842e+00
 -1.1663570e-03
 -3.4513560e-03
  1.1374364e+00
  1.8955663e+00
 -6.1483043e-01
 -2.7919651e-03
 -1.2183505e+00
  2.0569877e-01
  9.8276228e-01
  8.5279292e-01
  3.5640761e-02
 -8.5345566e-01
  6.5580793e-03
 -2.9703588e-03
 -2.4410309e-01
  4.3772441e-01
  6.7650802e-03
  5.4941326e-03
  8.8661146e-01
 -1.9707751e+00
 -1.7499565e+00
  1.5078373e-01
 -4.8881528e-01
 -5.2322912e-01
  1.3596100e+00
  3.2874659e-01
  1.2930124e-01
 -5.1060345e-02
  2.8561434e-01
 -3.7937143e-03
 -2.9370332e-01
  1.7406896e+00
 -2.9545098e-03
  2.6634466e-03
 -2.2072475e+00
 -8.9838552e-01
  6.4470910e-02
 -2.7437159e-03
  6.3357912e-02
  5.7994839e-02
  7.0784383e-02
  1.5158534e+00
  4.8568377e-01
 -9.0134941e-02
 -4.4858500e-01
 -4.9275775e-02
 -5.9132046e-01
 -7.4369872e-01
 -1.6828233e-02
  4.5835635e-01
 -7.7268338e-01
  1.4356469e-01
  9.9981558e-01
 -1.2501546e-03
  1.7485434e+00
 -1.1319318e-03
 -9.5937753e-01
 -6.1462182e-01
  5.4706061e-01
 -4.2046519e-04
  3.5954625e-03
  2.8316042e-01
 -1.8168765e-01
  2.8546837e-01
 -2.8318537e-03
 -2.3847110e+00
 -1.2741985e+00
 -1.4605827e+00
 -1.0790659e+00
  2.6250626e-03
  2.5867087e-01
  1.1006687e+00
 -4.7004771e-01
 -3.0397412e-01
 -1.0444761e-01
  2.9450415e-02
 -1.7611045e-02
  4.2484747e-03
  1.0309167e-03
 -2.6996608e-03
 -1.6242092e-03
 -2.4342274e-03
  4.5860652e-03
 -1.4899354e-01
 -4.1375533e-03
 -2.4878148e-03
  8.2460925e-02
 -1.7670842e-01
 -1.1914922e+00
  4.4471622e-03
  2.0635709e-02
 -1.7810183e-02
 -2.8733462e-03
  2.6483715e-01
 -7.8681934e-01
 -2.5224420e-01
 -5.3864330e-02
 -7.8110886e-01
  2.2242922e-01
  7.2987652e-01
 -8.8240886e-01
  9.3250425e-04
  2.3667990e-01
 -1.0404088e+00
 -2.5354639e-01
  4.0356185e-02
  7.9638970e-01
  5.3376146e-03
 -3.0992520e-03
  3.2175654e-03
 -5.5743337e-01
  1.4868072e+00
  1.1589276e-02
 -4.9104908e-01
  3.0102270e-02
 -6.9564450e-01
 -1.2743945e-01
  2.5642931e-04
  6.1399784e-02
  1.2122119e-01
 -1.0106691e+00
  5.2692566e-02
  2.4636331e-01
 -2.0846572e-04
  7.1877865e-03
  1.6041571e-01
 -5.0151151e-01
 -7.1749808e-03
 -6.6582239e-03
 -1.0030321e-01
  3.6206748e-02
  1.6698729e-02
 -1.9509941e-01
  4.8934654e-03
  3.2769255e-03
  1.1264840e+00
 -8.5998255e-01
  3.2591489e-01
  4.0525466e-02
 -2.0958629e-04
  6.9575710e-04
  3.8909963e-03
 -4.2989793e-01
 -1.1358402e-01
 -7.5337663e-04
 -1.5277740e+00
  3.7964574e-01
  1.1826586e+00
 -5.9680426e-01
 -7.4749161e-03
  8.8499620e-04
 -3.1454712e-01
 -7.2360970e-02
  1.5372236e+00
  1.5260277e+00
  5.5453277e-01
 -2.5757840e-03
 -3.1721278e-03
 -3.6380836e-01
  5.0867254e-01
 -4.0117055e-02
  1.4735722e-02
  3.1878552e-01
 -1.4142777e+00
 -4.1605132e-03
 -3.7181389e-04
  4.5088097e-02
 -1.1353512e+00
  2.9552820e-01
 -4.6327162e-01
  5.5132568e-01
  3.8062897e-01
 -2.3074034e-03
  3.8634112e-01
 -5.9036594e-02
 -2.8601155e-01
 -1.2650101e-02
 -1.6138059e+00
  1.1605893e+00
 -1.2407278e-01
 -1.1059661e+00
  3.3907010e-03
  4.8942082e-02
 -5.3247678e-01
 -6.6621637e-01
  1.7187351e+00
 -1.3524758e+00
  2.7734446e-03
 -2.1097615e-01
 -1.0404692e-02
  2.1800455e-02
 -3.4867489e-01
 -9.1986430e-01
 -4.6794238e-03
  9.9393690e-01
 -7.2370946e-01
  3.0145487e-01
  1.5601389e-03
 -4.0337020e-01
  7.1854919e-01
  5.3430235e-01
  1.8267524e-01
 -6.0132933e-01
  7.7741081e-01
 -9.8187886e-02
  2.6305023e-01
 -7.1937621e-02
  6.8910629e-01
  1.9111098e-01
  1.7479514e-01
  1.9632050e-01
  4.4525215e-01
 -9.7790688e-02
 -1.4697919e-03
  1.6169038e-01
  6.1965156e-01
  4.0253997e-01
 -9.3387824e-01
 -1.5355333e+00
  8.7482752e-03
  4.3054861e-03
  1.4181730e-02
 -6.1677000e-03
 -4.4209342e-03
 -5.6795040e-03
  5.1095388e-03
  1.2674332e-02
 -4.3187262e-03
  5.7791397e-03
 -8.8505616e-04
  4.2789787e-02
 -3.0138683e-01
  4.3095925e-01
 -4.8780698e-01
 -6.0654849e-01
 -1.2075613e+00
  3.2330241e-02
 -1.2086846e-02
 -6.1697149e-01
  2.5926700e-01
 -9.3696815e-01
  2.7691433e-01
  1.1000220e-03
 -1.8754604e+00
 -1.8629376e-02
  4.7187074e-03
  7.6518726e-01
 -3.8348556e-01
  6.2511200e-01
 -2.3612375e+00
  4.0100095e-01
 -8.8085699e-01
  3.2774010e+00
  1.0595378e+00
 -3.3814475e-01
  5.1200211e-01
 -7.5561191e-05
  5.2042250e-03
 -3.3005342e-01
 -1.7537023e+00
  9.3584432e-04
  4.1005556e-03
  2.9389651e+00
  3.2542056e-01
  6.3219523e-01
  1.8659335e+00
 -2.4808472e-01
  9.5024252e-01
 -2.9340804e-01
 -4.2765313e-01
 -1.9068332e+00
  1.4585874e-02
  2.7808396e-02
  1.9708464e-02
  8.6061794e-01
 -4.2742252e-01
 -3.5589002e-02
  3.0600408e-03
  6.7729694e-01
 -1.1010163e-01
  4.8992696e-01
  1.2199732e+00
  1.3126949e+00
 -1.5749653e-01
  6.9944322e-01
  5.9044111e-01
 -2.4873924e-01
 -7.2192512e-02
  8.2105976e-03
 -1.8960479e-01
 -6.8991613e-01
 -6.3047573e-02
 -4.4349791e-03
 -1.4861831e-03
 -6.7979133e-01
  8.1769422e-02
  1.1690887e+00
 -4.3985131e-01
  3.1967345e-01
  1.7196686e+00
  5.6283468e-01
  4.2259492e-02
 -1.0766402e-01
  1.7126268e+00
  7.8898333e-03
  8.5359713e-04
  8.3026516e-01
 -6.1159752e-02
 -3.9056554e-03
  1.7675005e-03
 -9.3817210e-01
  4.6803284e-02
  1.4949596e+00
  2.4771388e+00
 -3.2295391e-01
  1.6668198e+00
 -1.6532846e-01
  4.6667680e-01
  3.6496305e-01
 -3.4877944e-01
  2.5421248e-03
  2.9499006e-01
  1.1769935e-01
  9.0405333e-01
  1.0591534e-04
 -7.4630824e-04
 -5.2446268e-02
 -6.6775501e-02
  8.2972580e-01
  1.3538537e+00
 -7.2407132e-01
  1.0316319e+00
  1.8782260e-01
  8.9408046e-01
 -4.2528620e-01
  2.4156119e-01
 -5.1209534e-04
 -2.7065893e-04
 -5.0153319e-02
  7.2604996e-01
  1.5920431e-03
 -1.3636511e-02
 -1.8466607e-01
 -1.0098205e-01
 -5.6001359e-01
  1.4804989e+00
 -1.7375676e-01
 -6.5355217e-01
 -3.3637533e-01
 -3.2522038e-02
 -7.2664696e-01
  9.0910470e-01
 -2.4840275e-03
  4.4479044e-03
 -5.3108203e-01
  3.3284873e-02
  6.9455057e-01
  2.2144627e-03
  2.0076981e-01
  1.7794530e-01
  1.0789332e+00
  2.5558662e-01
  6.2665921e-03
  5.1834034e-03
 -3.0577029e-04
 -2.4741238e-03
  4.4880363e-01
 -1.0378332e-03
 -9.8104756e-03
 -2.0581508e-02
  4.7022622e-04
 -4.2077126e-03
 -1.1927955e-03
 -4.9114396e-04
 -1.1921479e+00
  1.8492414e-01
  3.6101982e-01
  6.8775314e-04
 -1.8447438e-02
  4.8866475e-01
 -9.1215083e-03
 -3.5686735e-02
  2.1822382e-02
  2.2869980e-01
  6.6022453e-04
  9.0218429e-03
 -2.3748183e-01
  5.9708554e-01
  7.7689087e-01
 -1.8022582e-03
  2.2063800e-03
 -5.5973172e-01
  8.2412243e-01
 -2.6508398e-02
 -2.8351802e-04
  1.2333483e-01
 -2.2559437e-01
 -1.6656455e-02
  6.2891287e-01
  1.0653740e+00
  2.2063807e-03
 -1.6012562e-03
 -1.0494879e-02
  6.5355945e-01
  2.6599455e-04
  1.0915201e-02
  1.4902419e-01
 -2.9741052e-01
 -2.0163251e-01
 -5.9892857e-01
  1.0517264e-01
 -7.3644526e-02
 -5.9614298e-03
 -2.6803312e-03
  5.7672423e-01
  2.3607304e-02
  2.1122945e-03
  5.0095292e-03
 -2.4678862e-02
  1.1958280e+00
  6.4850223e-01
 -2.3894699e-02
 -1.9270951e+00
  4.3412510e-01
  6.3515782e-01
 -3.2926247e-01
  2.4665280e-01
  5.6138098e-01
 -1.8926589e-01
 -8.3982967e-02
  4.5767072e-01
 -4.8947409e-01
  8.9631621e-03
 -5.3572571e-03
 -5.9191769e-01
 -1.1292737e-01
  6.0166041e-03
 -8.0143823e-04
  1.8588887e-01
  1.0574311e+00
  1.3080504e+00
  8.9082319e-01
  3.8704017e-01
  1.6946282e+00
 -3.5057321e-02
  7.0123477e-03
 -7.7010155e-01
  3.6701795e-01
 -2.1186552e-03
  1.3344710e-02
  1.6115767e-01
  4.3791640e-03
  2.9448867e-01
  5.9844297e-03
 -1.1352873e+00
  4.1907030e-01
  3.1947878e-01
  2.3898442e+00
  1.5226598e-01
  5.3707689e-01
 -3.4192667e-04
 -5.2175969e-02
  4.0243372e-01
  4.6739034e-02
  1.6584911e-03
  4.3593026e-03
 -3.7067997e-01
 -3.6430767e-01
  6.7457911e-03
 -1.6831440e-03
 -5.0666517e-01
 -2.7081368e-02
 -3.6698955e-01
 -4.5096096e-01
 -1.0785447e+00
  7.2693601e-02
 -3.2762715e-01
 -6.0197752e-02
  4.5470953e-01
  1.0374097e+00
  5.3861458e-03
 -1.3764444e-03
 -1.7375821e-01
 -7.3912055e-03
 -1.0201087e-03
  1.6531246e-02
  2.0702899e-01
 -2.2128427e-01
 -1.0028168e+00
 -1.1883295e+00
 -4.9001774e-01
 -3.2218847e-01
 -3.3773524e-03
 -5.4870425e-03
  7.3551589e-01
 -1.1178355e+00
 -4.5151278e-01
 -3.0164701e-01
  1.3256373e+00
  3.3590007e-01
 -1.0180252e+00
 -2.1177155e-03
  4.2506614e-01
 -5.0319481e-01
 -1.6830503e+00
 -1.3399020e+00
  1.2599262e+00
 -9.3648778e-03
  1.3110958e-02
 -2.1867175e-03
  3.6834359e-01
  3.5293795e-02
  3.9080381e-03
  9.9699094e-04
  4.8643857e-01
  3.9277580e-03
  3.0895239e-03
  9.6075565e-02
  1.5323697e+00
 -5.2182674e-02
  2.5809950e-01
 -6.0571784e-01
  7.8703538e-03
 -9.9250535e-04
 -6.9966339e-02
 -7.5837970e-02
 -4.3458313e-01
  3.7184313e-01
 -3.7137851e-01
 -3.2673326e-01
 -6.8266201e-01
  7.3095876e-01
 -1.2345189e-03
 -2.3096344e-02
 -3.7618086e-01
  1.0557950e+00
  4.9119723e-01
 -7.6937042e-02
 -2.0853341e-01
 -3.5352674e-01
 -1.2185303e-03
  4.2078186e-02
  1.2850914e+00
  5.5074614e-01
  7.5337058e-04
 -2.0876279e-02
  1.2880824e+00
  5.6071097e-01
 -7.8680851e-03
 -3.0988829e-02
  7.6144570e-01
  9.6751493e-01
  5.7683438e-01
  1.3315915e-01
  9.6750605e-01
 -3.8964547e-02
 -1.7598380e-03
 -2.3208141e-01
 -7.5021036e-02
  7.0267648e-01
 -8.2594953e-02
 -1.4179857e-02
 -4.8864833e-01
  2.8157166e-01
 -6.9858287e-03
  1.8483434e-02
  1.2823144e+00
 -1.6825308e+00
  5.4608346e-03
 -2.5937688e-01
  7.9666890e-02
  2.4513215e-02
  2.3454565e-03
  2.1999618e-03
  9.1817006e-02
 -3.3358875e-01
 -1.1335195e-02
 -3.4035197e-01
 -3.0762610e-01
  9.8890485e-03
 -7.9324227e-03
 -1.2230790e-02
 -7.8392380e-01
 -1.4711026e+00
 -7.6713246e-01
 -1.8240588e+00
  5.4787487e-01
  1.0211743e-01
 -1.3428077e-03
  3.5329869e-03
  1.9933113e-01
  3.9177892e-01
 -2.2804592e-02
 -4.0392522e-03
  1.0765232e+00
  3.2343233e-01
 -2.5916188e-03
 -3.2540669e-03
 -1.7752886e-01
 -7.3380160e-01
  7.2684866e-01
  7.6594728e-01
  1.6158334e+00
 -1.7498010e-01
 -2.5292951e-01
 -4.5888312e-02
 -1.6812757e-01
  4.5022830e-01
 -3.9544490e-01
 -5.9585774e-01
  1.8985678e-01
 -3.9970851e-01
  6.2589492e-03
 -1.3089689e-02
  3.8806632e-01
 -2.5914469e-01
 -1.8100798e-01
  1.1885868e+00
  2.2310337e-02
 -3.4060199e-02
  4.4858743e-02
  7.9137318e-02
 -7.2294939e-01
  2.3230523e-01
  4.1038459e-03
  5.6057022e-04
 -2.4558489e-01
 -5.1787871e-01
 -9.3392827e-02
 -9.3828741e-04
  7.0012677e-01
 -2.3124984e-01
  1.8198013e-01
 -8.8629353e-01
 -4.7709593e-01
 -2.5331615e-03
 -6.1214473e-02
  1.9951224e-02
  4.3197539e-01
  5.4963297e-01
  1.3512968e-03
 -5.1708817e-01
 -1.7608975e+00
  1.3367429e+00
 -1.1501290e+00
 -1.0995817e-03
 -1.3137108e+00
 -7.1997672e-02
 -3.6276951e-02
 -2.4262829e+00
 -1.2157623e-01
  1.3306166e-05
  1.0235099e-03
  3.1809873e-04
 -1.2036316e-03
 -1.4616126e+00
  8.9465716e-04
  9.9580816e-04
  1.0724224e-03
 -5.5289239e-02
  2.0300571e-04
  1.6719698e-03
 -2.5522145e-02
  9.9379683e-01
 -9.3183666e-01
 -2.5663667e+00
  1.4994269e-03
  6.2564411e-03
 -5.1761195e-03
  9.5161404e-03
  3.6969167e-01
  5.4416388e-02
  3.5145767e-03
 -3.7500739e-01
 -2.9650465e-01
 -7.4390322e-01
 -4.2312890e-01
  5.4430692e-03
  2.8710330e+00
  1.6936295e+00
  1.9852370e-01
 -4.5881835e-01
 -3.5091200e-01
 -2.6314196e-01
 -2.4187244e-02
  1.9394844e-04
  3.0531120e-01
  8.6198054e-02
  4.1530695e-04
  6.7311648e-04
  1.9401202e-01
 -1.2425278e+00
 -5.4399681e-01
  2.3501043e-03
  1.2558765e+00
 -5.6921756e-01
 -7.0555800e-01
  1.9027388e+00
 -4.5220703e-01
 -3.2954083e-03
  3.1915039e-03
  5.2563874e-03
 -3.6678195e-03
  3.1462264e-01
 -1.9709475e-02
 -5.8711976e-02
  1.2193553e-03
  1.5652159e+00
  3.5847337e-03
 -7.1651215e-04
 -2.8349954e-01
 -5.0212854e-01
 -8.6526132e-01
 -4.9718642e-01
 -2.3935216e-02
  5.6919027e-03
 -2.3808058e-02
  1.5135644e-02
  3.2426366e-01
  4.7633013e-01
 -1.4477045e-03
 -5.3872317e-02
 -1.5607420e+00
 -3.1175211e-01
 -1.1210185e+00
  3.4929749e-03
  6.8870294e-01
  6.7208785e-01
 -2.7748110e-02
  4.9807611e-01
  3.0661064e-01
 -2.9918408e-01
 -4.3783817e-03
 -7.1803271e-03
 -5.3603470e-01
  2.0289174e-01
 -7.3840306e-03
  8.5659808e-04
  2.0996467e-03
 -2.1612823e+00
  2.2696164e-01
 -4.4777570e-03
  1.3982774e+00
  3.5423410e-01
 -1.3776609e+00
  9.9144888e-01
 -9.7936541e-02
  1.5365662e-01
 -2.1017574e-02
  3.7471685e-04
 -2.4898735e-01
  9.3857741e-01
 -2.2544859e-03
 -3.9372304e-01
  1.2435931e-02
 -7.8411949e-01
 -1.4639412e+00
  8.9881552e-04
 -7.3121995e-01
 -3.8338181e-01
 -3.0146611e+00
 -2.3778775e+00
 -1.2917130e+00
 -3.2054538e-01
  4.2859931e-03
  9.1904486e-03
  4.0696284e-01
  6.2776215e-02
  8.6525166e-03
 -1.1284773e-02
 -3.2135111e-01
  2.9744551e-01
  2.8037056e-01
  9.0476649e-04
 -4.5175472e-01
 -3.6024746e-01
  1.2184574e-01
 -1.0196042e+00
 -2.1887487e-01
  4.6828941e-02
  4.6828941e-02
  4.6828941e-02
  4.6828941e-02
  4.6828941e-02
  1.5609494e-01
  1.5609494e-01
  1.5609494e-01
  1.5609494e-01
  1.5609494e-01
  8.4413327e-02
  8.4413327e-02
  8.4413327e-02
  8.4413327e-02
  8.4413327e-02
  4.5293566e-02
  4.5293566e-02
  4.5293566e-02
  4.5293566e-02
  4.5293566e-02
  1.5889803e-02
  1.5889803e-02
  1.5889803e-02
  1.5889803e-02
  1.5889803e-02
  7.7725694e-02
  7.7725694e-02
  7.7725694e-02
  7.7725694e-02
  7.7725694e-02
