nep4 4 Li La Zr O 
cutoff 6 4 95 30
n_max 4 4
basis_size 8 8
l_max 4 2 0
ANN 30 0
 -1.7733641e-03
 -3.6101032e-02
  2.1628947e-03
  9.2015741e-03
  2.7420275e-02
  1.8595975e-03
 -1.3633615e-03
  5.7282476e-03
 -8.0376863e-04
  8.0111111e-03
  9.4286269e-03
  1.0817761e-03
 -6.7400961e-04
 -7.5798779e-04
  3.0524898e-03
  6.4950004e-02
 -1.8763704e-02
  3.6720459e-03
  9.5666545e-03
  6.0059489e-03
 -2.0659806e-03
 -8.2967971e-03
  1.1017589e-03
  1.0289183e-02
 -5.5244647e-04
  1.5327855e-03
 -2.2426939e-03
  1.9532216e-03
 -4.6885081e-04
  1.0738715e-03
 -5.0481919e-02
 -1.2712117e-01
 -1.6260641e-02
  1.0017040e-01
  1.9139491e-01
  2.0317324e-01
 -3.1688900e-04
 -7.3323987e-04
  2.3521981e-01
  1.4780445e-01
  3.7036985e-01
  4.7247708e-03
 -1.2276589e-03
  3.3352324e-03
  1.6922171e-01
  2.4359760e-01
 -5.8902245e-02
 -7.7886356e-04
  3.3677080e-01
  4.7367105e-01
  1.3986797e+00
 -3.2072356e-01
 -1.7661001e-03
  2.4081886e-01
  1.8595015e-01
 -4.7783390e-02
 -4.8616449e-03
 -2.4056241e-04
  5.0843544e-05
  9.2951331e-04
  3.6020929e-03
 -2.2662523e-04
 -1.8465926e-03
  5.1800303e-02
  5.9671956e-01
  1.6371759e-03
  5.8489712e-04
 -4.2500235e-03
 -6.7494658e-04
 -2.4892087e-03
  2.0179372e-01
 -2.7817857e-04
 -1.8091004e-03
  5.7114445e-04
  3.7869806e-05
 -1.2488117e-03
  4.4084438e-03
  2.7974250e-04
  3.9387145e-05
  2.3013802e-04
  2.6595248e-03
  8.9630904e-03
 -1.4248758e-03
  1.4626769e-04
 -1.3836459e-03
  6.2181300e-04
 -2.0949813e-03
  1.2429376e-03
  1.4702912e-04
  1.2322738e-03
  1.7691244e-04
 -4.8392368e-04
 -5.5206066e-04
  1.9234201e-04
 -6.8004252e-03
 -1.9507942e-04
  1.1191156e-03
 -9.0711651e-04
  2.3122590e-04
  8.7259739e-04
  4.0584567e-04
  2.2414292e-03
 -6.4879567e-03
  2.3182284e-03
  1.0211673e-03
  1.0451560e-05
 -1.3194015e-03
  1.9966841e-03
  8.5238612e-04
  7.0330722e-04
 -4.4470700e-04
 -3.1911433e-04
 -2.1379476e-03
  3.0787283e-04
  8.7182305e-04
  1.2402355e-03
  2.0228678e-03
  8.2994020e-04
  7.1201078e-04
 -3.5720365e-04
 -1.0227648e-03
  2.2658699e-03
 -2.6891986e-04
 -7.1144698e-04
 -5.0970265e-03
 -1.3119018e-03
  1.8384545e-03
 -2.3338667e-04
 -1.0874694e-03
  5.2141753e-04
  7.8510819e-04
 -1.6616201e-03
 -2.7553118e-03
  3.9888443e-03
 -9.0151251e-04
 -6.7925900e-03
  6.0909979e-02
  7.3623337e-04
  4.6573509e-04
 -2.3100941e-04
  4.0727173e-04
 -3.1275610e-03
  1.0298940e-03
  9.1474009e-04
  7.2680850e-04
 -1.5585739e-04
  1.7768204e-01
  1.9442757e-03
 -3.8602676e-03
  2.7963540e-03
 -4.0338645e-03
  3.5784764e-05
  1.1007832e-03
  5.0662253e-05
  1.1315087e-03
 -2.5233191e-03
 -4.8778480e-04
 -7.3231137e-03
 -1.5304332e-03
 -4.6991318e-04
  3.9766296e-03
  3.5628080e-03
  2.5771211e-03
  3.7684392e-03
  8.0262462e-06
  1.7665600e-03
  1.8705925e-03
  1.1702186e-06
  5.6495201e-03
 -3.6355114e-04
 -5.0973531e-04
  6.2383031e-03
 -1.1614376e-02
 -5.7775236e-04
  1.7367893e-04
 -4.9790218e-03
  3.5255463e-03
 -1.6468203e-03
  9.0146007e-04
  6.8543968e-04
 -1.6587019e-01
  1.5981520e-02
 -1.6033331e-02
 -1.0980364e+00
 -3.5937795e-01
 -3.3223303e-03
  1.3320149e-03
 -1.6070812e-04
  2.2181872e-02
  4.8919063e-04
 -5.9510332e-02
  1.4770641e-03
 -1.1919732e-03
 -3.9234795e-03
 -1.5057699e-04
 -2.8802174e-01
 -2.7922437e-01
 -1.1523567e-03
 -1.3162747e-01
 -7.5759934e-03
 -1.5628081e-02
 -5.7403529e-01
 -1.1675130e-03
 -3.3881080e-03
 -3.3435251e-03
  1.0205937e-03
  3.0172546e-03
 -1.6176498e-03
 -2.2862814e-03
  3.1183378e-03
 -4.1792154e-02
 -7.1360700e-02
 -1.1230276e-03
 -4.6710372e-02
 -9.3251042e-02
 -1.1542707e-03
  1.8299487e-03
 -2.0962995e-03
 -1.4126520e-03
  1.5022234e-03
  6.6246502e-03
 -3.2081010e-04
 -3.9797608e-04
  1.0143808e-03
 -2.0985228e-04
  1.9857857e-02
 -2.1047123e-01
 -2.0900561e-04
  1.8417282e-03
 -9.3611184e-04
  1.3023168e-03
  7.2191266e-04
  1.1188240e-03
  7.9301139e-04
 -5.8393809e-04
 -5.0765189e-04
 -8.0833607e-04
  5.9783007e-03
 -1.9245363e-03
 -1.7061729e-03
 -5.3244509e-04
  9.4273908e-04
  4.7798399e-03
  2.1972123e-03
  3.6601756e-02
  1.2260540e-03
 -3.4713435e-03
  3.0577600e-03
  5.6545809e-04
  2.1236977e-03
  4.6717492e-03
  4.0906426e-03
  2.8987339e-04
 -3.9699086e-04
 -1.9327275e-05
 -1.8517064e-03
  2.2630186e-03
  1.2665072e-03
 -2.1944314e-03
 -6.2537822e-03
 -6.4446230e-04
 -2.3286508e-03
 -1.3060661e-03
  1.4151501e-03
  3.4803022e-03
  7.5620814e-04
  3.0638278e-04
  1.9481931e-03
  1.5882526e-03
  6.3034619e-04
 -1.5458229e-03
 -7.3759950e-04
 -2.1562299e-03
  7.5174373e-04
  1.2521610e+00
 -4.1209110e-05
 -1.1860504e-03
  2.6224139e-03
 -4.7252042e-04
  4.4824323e-04
 -1.0001342e-03
 -1.9851995e-03
 -1.1228748e-03
 -1.6527225e-03
 -6.7682832e-04
 -6.1278427e-03
  1.3160129e-03
  9.0121431e-04
  1.5090595e-03
 -1.8271897e-03
 -1.8381036e-03
 -1.8710996e-03
 -1.0946668e-04
 -2.3953512e-04
  7.7850255e-04
  2.9087735e-03
 -1.3598140e-03
  2.0328793e-04
  5.3901132e-03
  2.8219074e-03
  1.0280520e+00
  3.7400272e-01
  5.6160283e-01
  1.1624829e+00
 -1.6323482e+00
 -1.0485988e-03
 -1.8215609e+00
  4.0626419e-03
 -2.9287285e-01
 -1.2751548e-04
 -5.8039546e-01
  1.7580248e-02
  4.3303924e-05
 -7.5313032e-01
 -9.9407606e-02
 -8.6921877e-01
  5.9978586e-01
 -1.6411836e-01
 -1.6968842e-01
 -8.2845435e-02
 -2.1079156e-01
  4.6117523e-01
  2.1912404e-03
 -2.6292902e-01
 -2.8183354e-02
  1.0296252e-03
  5.2532358e-03
 -1.3081689e-04
 -7.8863569e-04
 -5.3549516e-03
 -3.3949121e-04
  2.3090956e-03
  2.8385691e-04
  1.4517079e-03
 -3.7517429e-03
 -6.1494909e-04
 -2.1360876e-04
 -3.4264259e-03
 -4.9843770e-03
  3.2916482e-04
 -3.8064786e-03
 -2.8840086e-04
  1.5872215e-01
 -1.0781999e-04
  1.6790491e-03
  5.0416193e-03
 -2.2284549e-03
  6.0671527e-04
 -1.3586088e-03
 -2.0291526e-03
 -2.9012437e-03
 -2.2588386e-04
  6.2018371e-05
 -1.9496978e-03
  9.2966424e-04
 -6.4129243e-04
 -1.7865617e-03
 -1.3940533e-03
  3.7581724e-04
  3.8026858e-03
 -2.2476897e-02
  2.6580635e-01
  9.1368407e-02
  4.0348741e-01
  1.0772309e+00
 -1.9074632e-05
  1.2549614e-02
  7.0342852e-04
 -1.6675256e-03
 -3.0678457e-03
  7.1808332e-05
  4.1276742e-02
 -1.7328573e-03
 -2.6305101e-03
 -5.1983474e-03
 -8.6548598e-03
 -4.9254384e-05
 -4.3703103e-04
 -1.1949511e-03
  1.9881206e-03
 -3.1272996e-02
 -2.1947164e-03
 -1.7132667e-04
 -5.7187721e-02
  5.1668158e-04
 -2.3060125e-05
 -1.3956104e-03
  1.5381384e-03
  2.8370286e-03
 -1.1255394e-03
  1.2198954e-03
 -5.7161339e-03
  3.3764873e-02
 -3.1334031e-03
  3.1434789e-02
  2.4688308e-04
  2.7629184e-03
 -2.4706631e-03
  1.7099192e-02
 -7.8975427e-04
  4.3184157e-03
  2.9130173e-03
 -9.1850590e-03
  1.8922111e-03
  1.0952131e-03
  1.2767087e-02
 -6.9474534e-04
  4.6276517e-05
  9.1160974e-04
  4.0964768e-03
  3.1342243e-03
 -3.0101568e-04
 -2.8948660e-03
 -3.0253020e-03
 -7.3092704e-04
 -1.7535276e-04
  2.9504349e-04
  1.0684759e-03
 -1.7580552e-04
 -1.4254635e-03
  3.7055850e-04
 -1.9072116e-03
  2.1119588e-03
  1.8495845e-04
 -1.3458925e-02
  1.6995742e-03
 -5.2243721e-04
  5.1396026e-04
  6.7116017e-04
  2.6888340e-03
 -1.3871626e-03
 -4.4654012e-03
  1.5380338e-03
  2.9555726e-04
  5.2874495e-04
 -3.2773910e-03
 -1.9329437e-04
 -5.2918959e-04
  2.5559126e-03
  6.7109097e-04
 -1.2805876e-03
 -6.6486077e-04
 -1.9894035e-03
  8.0210349e-04
  3.5970082e-04
  6.3725621e-03
 -8.2760316e-04
 -1.3281661e-05
  1.6634575e-03
 -7.8958206e-02
 -3.4091718e-02
  2.5832166e-03
 -7.1962958e-04
  6.0073327e-04
 -9.7114164e-03
  1.5582399e-03
 -7.8946172e-04
  9.0683607e-05
  2.3457457e-04
  4.6891804e-04
 -9.2347540e-02
  8.1991625e-04
 -1.3046735e-03
 -3.0151756e-02
 -3.5761220e-03
 -1.4762297e-01
  2.8748494e-02
 -5.0989114e-04
 -6.6372361e-03
 -4.2548114e-03
 -3.2718100e-03
  1.2172158e-03
  1.4585251e-03
 -1.4799864e-02
 -1.0867479e-03
  9.1469446e-03
 -1.7582369e-04
 -3.6974177e-03
 -8.5537456e-04
  6.7936088e-04
 -3.4163501e-02
 -1.5120178e-01
 -3.9514652e-01
 -3.4245822e-01
  1.0347674e+00
 -8.3983416e-04
 -1.7156738e-03
  3.3238269e-03
  1.0440558e-03
  1.6570264e-03
  2.7454928e-01
 -8.6487837e-02
  1.3562676e-03
  2.0240895e-02
 -1.0176030e-03
  1.1087577e-03
  2.1179968e-04
  7.8362395e-04
  1.7328978e-03
  1.2797368e-03
  9.9559063e-03
  1.6506625e-03
 -1.6404453e-03
  8.6248301e-02
  1.4990543e-02
  1.2595347e-03
  1.5514489e-04
 -3.3482905e-03
 -2.5603757e-03
 -1.1643674e-03
 -2.7112125e-03
 -1.0487006e-02
 -2.1111954e-02
 -1.2548284e-03
  1.0172197e-01
  5.2384026e-03
  3.0768168e-04
  1.6809589e-03
  5.3335784e-04
  4.4425088e-04
  3.6255540e-03
  2.7742041e-03
  1.1683634e-03
  6.0537994e-05
  1.2659073e-03
  1.7815456e-02
  4.2115808e-03
 -1.8723052e-03
 -7.1441499e-04
  1.1331436e-03
  2.5199636e-04
 -4.7926316e-03
  3.2449880e-04
  2.2953344e-03
 -2.4813460e-03
 -3.5600844e-03
  3.1760832e-05
  4.3726811e-04
  3.7523119e-03
 -7.5522176e-04
 -6.0054363e-04
 -6.0246489e-03
  3.7127002e-03
 -1.0182867e-03
  1.1452941e-03
 -7.0626789e-04
  4.9203672e-03
 -1.3864046e-03
 -1.9504094e-03
  1.0240526e-03
  1.0887310e-03
  1.0000634e+00
 -4.1476110e-04
 -4.7390927e-06
 -2.0655099e-04
  1.0624413e-03
  2.7524685e-03
 -3.0057398e-03
 -1.2716420e-04
  1.9142812e-03
 -1.2256950e-03
 -3.8780728e-01
 -2.6440886e-03
  2.1861671e-04
 -2.2401162e-03
  2.4604093e-04
 -1.3271060e-03
  7.8453717e-04
 -3.6512691e-01
  2.8085317e-03
 -1.3356392e-01
 -9.2765361e-02
  1.4990933e-01
 -1.0558217e-03
  1.7418920e-01
  3.4834335e-03
  1.1486138e-03
  4.8655251e-04
  3.3209354e-02
  2.8725758e-03
  3.0221048e-01
 -1.5889087e-03
 -7.4748957e-04
  2.6572092e-02
  3.5704260e-03
  4.2552653e-01
 -3.3753684e-01
  2.1889312e-04
  6.5389469e-02
  8.1679873e-02
  4.1559094e-04
 -8.5387476e-02
  7.8255741e-04
  3.7045971e-02
  9.8561943e-03
 -3.3322575e-03
 -8.0982530e-03
  3.2998712e-03
 -2.6342801e-03
 -3.8049545e-03
  3.0400991e-01
  3.8512156e-04
 -3.0297507e-04
  1.1234013e-03
  8.3686098e-02
  2.2684389e-05
  5.3384015e-04
 -9.0959802e-04
  2.9091260e-03
  9.7206648e-05
 -5.1612477e-04
  3.3860423e-03
  9.4417628e-04
 -5.9336494e-04
 -2.0617768e-03
  5.7838252e-04
  3.4514626e-03
  2.4728356e-03
 -2.6057281e-03
 -3.9366615e-04
  1.0530588e-03
  1.1978510e-03
 -2.1548611e-03
  7.0522030e-05
 -4.9543072e-04
  3.3440435e-04
 -1.3031523e-03
  9.7898825e-04
  5.6330283e-04
  1.7980923e-03
 -3.2904634e-04
  2.2869990e-03
 -5.6193556e-05
  2.0317440e-03
  2.4053510e-01
  1.2856985e-04
  2.6121442e-03
  5.8339437e-04
  2.3518682e-03
 -2.6599085e-03
 -1.0155208e-02
 -2.0360337e-03
 -1.6504072e-02
 -3.8114775e-03
 -2.1288805e-03
 -6.2554479e-03
  1.5836552e-03
  1.9242039e-03
 -8.3754509e-05
 -1.0868115e-03
  1.5830047e-03
 -5.4713205e-04
 -7.6822651e-04
  5.5510440e-04
 -6.4480109e-03
 -3.7751076e-04
  5.9659639e-03
  6.1473122e-04
 -1.1472210e-03
 -9.1119681e-04
  5.5365592e-01
  1.4150354e-01
  8.3693373e-01
  4.1153806e-01
 -8.7395924e-01
 -6.1569214e-01
 -6.5106647e-03
 -9.8102633e-04
  9.9366321e-04
 -4.2205196e-02
 -4.0052930e-01
  3.4241992e-01
  2.8136445e-03
 -2.7644691e-01
 -1.2086877e-01
 -4.0020299e-01
  4.0053678e-01
 -1.1537344e-03
 -2.7060521e-01
 -1.3195224e-01
 -3.7159950e-02
  5.3703618e-01
 -3.8865456e-04
 -3.3571079e-01
 -1.7853005e-01
 -1.1125515e-04
  1.3261337e-02
 -4.3584956e-03
  3.7399575e-04
  7.4676514e-05
  4.5797154e-01
  1.6193980e-02
 -5.4295087e-01
  2.3136726e-02
 -7.7236563e-02
 -2.4938123e-01
 -3.1229664e-02
  1.0643272e-03
 -2.2101279e-01
  5.9709642e-02
 -4.4023395e-01
 -3.8852966e-01
 -4.1142985e-04
 -2.4463777e-01
 -2.1443747e-01
 -3.1728351e-01
 -3.8603509e-03
  4.8610219e-03
 -2.0522855e-01
 -4.5417669e-01
 -1.0090192e-01
  2.0069582e-02
  1.4666276e-03
 -2.7494285e-01
 -1.5171598e-01
  5.5536232e-03
  7.7350917e-03
 -7.0277257e-03
 -2.2434494e-03
  1.0646021e-04
 -3.0556354e-01
 -2.1560796e-02
 -1.2687941e-01
 -5.3173201e-03
  4.5026833e-01
 -5.1442167e-04
 -1.7796636e-03
 -6.4027769e-04
  3.8939733e-03
  8.8885110e-03
  1.0611636e-01
  1.5607810e-03
 -2.5098087e-04
  4.6465743e-02
 -3.6123910e-03
  1.9211988e-01
 -2.9810028e-02
  1.2228723e-03
  1.2173628e-02
  2.6358908e-02
  1.3201294e-02
 -5.2562486e-03
 -5.1201181e-04
  8.2347542e-03
  1.0117916e-02
 -1.6733409e-03
  2.6778676e-04
 -7.3636119e-04
  2.1348805e-04
 -2.4058916e-05
  1.0901474e-04
  1.0021181e-02
  3.5774901e-03
  2.5825382e-03
  3.5603431e-03
 -3.7248943e-03
 -1.0643461e+00
 -7.2987680e-04
 -4.9409247e-04
  2.8887664e-03
 -4.2073275e-03
 -1.0891686e-03
 -5.8936935e-06
 -2.0178445e-04
  8.1857288e-04
  1.0385168e-02
  6.4942436e-03
  1.5269731e-03
 -3.7606605e-04
 -9.6724846e-04
  9.6694374e-04
  3.7725046e-01
  5.5124471e-04
  5.2802288e-04
  1.0453360e-03
  3.4183390e-03
 -1.7411226e-03
 -1.2808095e-03
 -3.7768802e-03
  3.2847521e-03
 -1.0674673e-01
 -1.9123637e-03
  1.7634196e-02
 -2.3335520e-04
  5.6753647e-02
  4.1039023e-03
 -2.1326230e-03
  1.0046877e-01
  1.3647720e-03
 -1.2278097e-03
  2.0237545e-02
  4.4699307e-04
  4.6023310e-06
  1.8660749e-03
 -2.9474283e-03
  4.9564135e-03
  1.4564799e-03
  1.4214994e-06
  8.7043853e-05
  6.6375704e-03
  1.1618831e-03
 -1.8748889e-03
 -1.2732800e-03
 -4.0396475e-04
  4.3219700e-03
 -2.9728620e-03
 -3.9241519e-03
 -1.9732479e-04
  1.5202466e-03
 -1.8985621e-03
  1.0482451e-03
 -1.2083357e-03
 -3.1238887e-04
  1.7325815e-03
  8.2901120e-03
 -5.1121361e-04
  1.7942134e-02
 -5.5595842e-04
  8.1925206e-02
  2.4971745e-03
  1.1710458e-03
 -3.8700975e-05
  1.3769023e-03
  4.9273303e-04
 -3.0712949e-03
 -3.8130425e-02
  5.7218981e-04
  1.9249298e-03
  1.0245366e-03
 -2.4291293e-03
 -6.9287303e-04
  7.0903124e-04
 -1.4073323e-03
 -6.1007706e-04
 -1.4423879e-05
  3.9876695e-03
 -1.5216976e-04
 -2.5112410e-03
  4.7660819e-03
 -8.8687713e-04
 -6.4139995e-03
  1.7598787e-03
 -6.7539373e-04
 -9.5381169e-04
 -1.0028559e-03
  2.4901526e-03
  8.1569154e-04
 -2.3822610e-04
  4.4936375e-04
  7.3329132e-04
  5.0603487e-03
 -6.8675695e-06
 -1.1700700e-03
 -3.7494273e-04
 -9.7752956e-04
 -3.9326753e-03
 -1.9217924e-03
  1.5093372e-03
  7.8564174e-03
  3.5081387e-03
 -9.6402742e-04
 -9.7142457e-04
 -2.0465574e-03
 -2.5996572e-04
  2.2586228e-03
 -5.9913308e-04
 -3.8357120e-04
  4.3727407e-01
  1.0081547e-03
  1.1935690e-03
 -7.7870514e-05
  2.2557522e-03
  2.9626363e-03
  1.7492507e-04
  7.2027079e-04
 -3.3058657e-04
 -8.1704187e-05
 -3.6604144e-04
  3.4483540e-04
 -2.0454477e-03
  2.0456738e-03
 -3.7496230e-03
  3.4910403e-03
 -1.3559047e-03
  1.8805141e-03
 -1.0927882e-03
  7.2165846e-04
  1.5709451e-03
  2.5390608e-03
  2.1241419e-03
  4.4143666e-03
  6.1610155e-04
 -1.1917497e-03
  9.3186501e-04
 -1.8921330e-04
  1.9517627e-04
 -3.9765966e-04
 -3.0645730e-03
 -8.4197745e-03
 -1.5522302e-04
  5.1129139e-03
  1.0903925e-02
 -4.1559935e-03
 -9.6546166e-04
 -3.4885606e-04
 -1.4836367e-03
 -2.7345705e-01
 -3.8252914e-04
  4.5850114e-03
  2.4180372e-04
  1.1325254e+00
  5.7996257e-04
 -2.8751510e-01
 -5.5353199e-03
  1.0937521e-03
  1.4738451e-03
 -7.7878009e-04
  1.7481251e-04
 -1.2037988e-03
 -5.7495497e-02
  1.8186517e-03
 -4.0003785e-04
  1.3897739e-01
 -3.6915353e-01
 -6.3471109e-02
 -1.8546677e-03
  1.3456128e-04
  2.2178693e-03
 -1.7535995e-04
  2.6649320e-01
  1.8103981e-01
  7.6253104e-01
 -7.7198707e-02
  8.0808194e-04
 -4.4958171e-02
 -2.3097496e-03
 -3.7085587e-01
  1.1970589e-01
  1.8928519e-03
 -1.0147834e-02
 -4.1214687e-01
  2.4069715e-03
 -6.5562809e-01
  7.1617626e-02
 -3.5116445e-02
 -2.0836817e-01
  9.4692534e-01
  1.2394325e-01
  3.7488416e-02
  2.9940453e-01
 -1.3284372e-01
 -1.2240396e-01
 -6.1385888e-01
 -5.6183064e-01
  3.1018126e-01
 -7.8261085e-02
  1.1163974e-01
 -3.3411686e-04
  2.7627507e-03
  1.0806394e-03
  2.0267251e-01
  1.6006035e-01
  5.6818777e-01
 -3.2592493e-01
  2.4954814e-01
 -3.3482671e-01
  2.0445833e-01
  3.5834163e-02
  2.4806522e-01
  2.9077882e-01
 -5.3388840e-03
  1.5828252e-03
  4.9083644e-01
 -8.2871199e-02
  1.0542817e-01
 -1.0431765e-01
  1.2358301e-01
  1.1435807e-03
 -9.9035606e-05
  2.8193727e-01
 -5.1796097e-02
  1.8426741e-02
 -1.2536338e-01
 -4.5121834e-03
  4.6868065e-01
 -2.4255959e-03
 -9.9155569e-01
  9.6723773e-03
 -1.8557467e-03
 -3.1485674e-03
 -1.2854603e-03
  1.5219797e-03
  3.2006900e-03
 -8.6915318e-04
  1.3013895e-03
  3.2029007e-04
 -5.9099193e-03
  2.7994541e-04
 -3.2338521e-03
 -1.1822124e-03
 -2.9476874e-03
 -1.0166961e-03
 -6.0916232e-04
  1.4788481e-04
 -8.3066616e-04
  6.0653910e-03
 -1.5334485e-04
 -3.2734391e-04
 -4.1021442e-04
  2.0547174e-03
 -1.1507486e-03
  7.0183951e-04
 -2.0615836e-03
  1.7467213e-05
  2.3192426e-04
 -2.0032092e-03
  4.5765973e-05
  2.9831794e-03
  2.0950146e-03
  8.8084067e-05
 -1.0416463e-02
  6.6734606e-01
  3.6940908e+00
 -1.9775122e-01
  8.8130194e-01
  1.1847273e-01
 -8.9807945e-01
  1.0195693e-01
 -8.2721707e-04
 -5.7745390e-02
  9.2838413e-01
 -7.7876449e-01
 -7.2303331e-01
  3.7440297e-01
 -1.1935817e+00
  2.3254424e-02
 -1.5270693e+00
 -2.1245155e-01
  4.4573608e-01
 -2.1803755e-01
 -1.1991068e-02
  4.6087978e-03
 -1.9744945e-01
  1.5191659e-01
  3.9308039e-03
  8.2250968e-05
  6.0183852e-04
  3.1705017e-03
 -5.1503149e-03
 -1.2995972e-01
 -6.7154309e-03
 -2.0956677e-01
 -3.3699563e-01
  4.6388823e-01
 -1.9084286e-02
 -5.1725977e-03
  1.0854102e+00
 -2.6629253e-03
 -1.0616853e-03
 -9.9764334e-04
  1.7101638e-03
  2.3447512e-02
 -6.9876038e-03
  5.6127366e-04
 -3.2425430e-03
  7.6683477e-02
 -1.3963170e-03
  3.6767626e-03
 -1.0866732e-03
 -1.9561625e-01
  1.0076425e-02
  1.0110033e-03
 -6.4506137e-04
 -5.3883918e-02
 -1.5272238e-02
  6.7012045e-03
  1.6198002e-01
 -7.4056513e-04
 -1.7715880e-03
  2.4012912e-03
 -1.5646203e+00
  1.4152291e+00
 -1.3063629e+00
 -2.8948164e-01
  8.9276332e-01
 -6.2714644e-02
  1.2926549e-04
 -1.7689363e-04
  5.2873708e-02
  3.1693798e-02
 -3.6236060e-01
  8.7021418e-02
  2.9682630e-01
 -9.5592644e-05
  8.7981158e-01
 -3.3994615e-01
  4.8467936e-03
 -9.2506281e-04
  5.0224934e-04
  1.4199476e-01
 -2.3386396e-01
  3.2357972e-03
 -2.2477660e-01
  2.3962415e-03
  1.9246452e-02
 -1.6930172e-03
  1.2080085e-05
 -2.0395307e-04
 -3.2820441e-03
 -2.3375300e-03
  1.6080990e-02
  8.4141657e-02
  5.1956405e-03
  1.5589242e-01
 -2.4317011e-04
 -1.3234667e-03
 -1.0772399e-03
  1.4397863e-03
  2.9858900e-03
  1.3016333e-03
 -1.7343940e-03
 -1.0980065e-02
  1.1646478e-03
 -7.6304737e-04
  1.2193769e-03
 -5.9106125e-04
 -2.6248285e-04
 -6.8816269e-04
 -1.1003873e-03
  1.3496324e-03
  6.9298223e-04
 -4.4565625e-02
 -2.3327384e-03
 -2.4868289e-03
 -1.1517027e-03
  1.0665222e-03
 -2.0758206e-02
  3.2781750e-02
  8.9735945e-04
  9.0000778e-04
 -1.9759468e-03
  1.3909374e-03
 -7.6431554e-04
  1.1656053e-03
  8.8968716e-04
 -4.8700147e-03
 -5.1656574e-01
  2.2899932e-03
 -2.4999774e-03
 -2.2690772e-04
 -2.0267875e-03
  2.9114430e-04
  2.3627421e-04
  3.6620695e-04
  3.4547169e-03
  8.1556238e-04
  2.3934222e-03
 -4.7716252e-03
  1.1059515e-03
 -6.1752304e-04
  1.9037163e-04
 -3.4197303e-05
  1.6312406e-04
 -2.2223434e+00
 -2.4770636e-03
 -1.5815943e-03
 -5.9507182e-03
  8.9532963e-04
  2.0131047e-03
  9.4252644e-04
 -1.2852376e-03
 -1.1686047e-02
  1.2639307e-03
  5.0198409e-04
 -5.7813735e-04
  5.4332104e-02
  1.2851058e-03
  8.3483476e-04
  1.6613170e-05
  5.9941720e-04
  2.6133065e-03
 -1.2427799e-03
  3.6839739e-04
  3.9824383e-05
 -3.2205214e-03
 -7.6155476e-03
 -2.4420206e-04
 -1.7482204e-03
 -2.1252416e-03
 -3.0985195e-04
 -2.3116341e-03
 -1.6646217e-04
  9.4112265e-04
  1.2266343e-03
  3.1561793e-03
 -7.1300552e-03
 -2.4892993e-03
 -2.0480419e-03
 -5.7561327e-05
 -2.0713507e-05
 -3.5355646e-02
 -6.2873960e-02
 -6.1977777e-04
 -1.4304131e-01
 -6.9794798e-04
 -1.6472522e-04
  1.0348903e-03
  1.3329994e-03
  4.0717004e-03
 -2.5274090e-03
  1.3999555e-03
  1.3027829e-03
 -1.3794366e-03
 -4.0328628e-04
  5.0497102e-04
  2.5422830e-04
 -9.6491259e-04
 -1.2627239e-03
 -5.3963992e-03
  1.5136263e-03
  9.0930366e-04
  3.0523818e-03
  1.3594971e-03
  7.3804504e-01
  4.8641275e-04
 -2.7491220e-03
 -1.3737385e-04
  8.6755771e-04
 -7.0656250e-05
  2.1835833e-03
  3.3760325e-03
 -4.9048052e-05
 -5.7847099e-04
  5.5626628e-04
  1.0149908e-03
  1.9183058e-03
 -9.4934448e-04
 -1.3946272e-03
  1.3539892e-03
 -7.1123353e-04
 -2.3007533e-03
 -2.7040236e-03
 -5.8484834e-04
 -1.4797394e-03
  3.0111284e-03
  6.4888655e-04
 -3.0829373e-04
 -1.4246907e-04
  6.1607361e-04
 -6.0472591e-04
  7.8530243e-04
  4.1470248e-03
 -3.6005519e-04
  5.1047136e-05
  1.3652556e-04
  3.6029908e-01
 -1.2731487e-03
 -4.2406225e-04
 -1.6099275e-03
  2.3975552e-04
 -1.2741237e+00
  1.0788801e-01
 -1.2538363e+00
 -1.2809777e-01
  5.0879997e-01
 -5.9138751e-01
  4.7085010e-02
  3.8741365e-01
 -2.2571764e-03
  2.1821122e-01
 -6.3347280e-01
  1.5710810e-01
 -3.4652299e-01
 -3.7406713e-02
 -6.2664753e-01
 -1.4991164e+00
  7.3872097e-02
  6.3471889e-01
 -3.5374564e-01
  2.8901616e-01
 -4.3847516e-01
  2.7103913e-03
  3.0355576e-01
 -1.5407419e-01
  4.2839817e-04
  3.5209460e-03
 -6.0188442e-05
 -3.0405901e-03
  2.3246778e-03
  1.1951298e-02
 -4.9682718e-02
 -1.0748376e+00
 -1.3797673e+00
  4.4240931e-01
 -9.2500263e-01
 -1.9425569e-01
  2.0428162e+00
 -3.1688511e-01
 -2.5148782e-01
 -2.8611365e-01
  7.5738621e-01
 -1.6551222e-01
  5.0055522e-01
 -9.5172727e-01
 -6.7449689e-01
  3.5426414e-01
  1.3485496e-01
 -5.5158502e-01
  1.8378716e-02
 -2.9966339e-01
  2.0990290e-02
 -9.7402894e-01
 -3.5012960e-01
  1.2592026e-03
 -6.8471688e-01
 -3.6850593e-05
 -5.7168691e-03
 -1.2558098e-01
 -2.2896351e-03
  9.7023938e-03
 -1.7282373e-03
 -6.8317956e-01
 -2.0950084e-04
  1.9399414e-03
 -1.7203932e-03
 -2.9905917e-04
 -9.1788551e-04
 -9.7035366e-04
  2.3939423e-03
 -3.7805366e-04
 -1.5929475e-04
  6.2816689e-04
  6.8270057e-03
  2.1363203e-03
 -3.0307047e-04
  1.2227535e-03
  1.0670741e-04
 -4.6797554e-04
 -1.6618515e-03
 -9.9462678e-04
  2.1211805e-03
  4.4983265e-04
  7.3878432e-04
  2.7818422e-04
  7.1969093e-04
 -3.4326054e-05
  1.4521451e-04
  9.7087323e-04
 -7.3719476e-03
  1.0578854e-03
  9.2536974e-04
  2.1485696e-03
 -5.8946956e-04
 -9.8649249e-04
 -2.1967068e-03
  1.8616838e-03
  1.0088289e-04
 -7.6971871e-01
 -4.4501009e-03
  3.7234875e-03
  2.7767154e-03
 -1.7630826e-03
 -6.2184344e-04
 -1.0243357e-03
  2.2776339e-03
  2.4649934e-03
 -1.6490263e-03
  1.4352687e-03
 -2.7409301e-04
  1.6942935e-03
 -4.8204514e-04
 -3.6871472e-05
 -3.7359132e-05
 -3.5823308e-04
  1.0295409e-03
  1.7884222e-03
  1.5679171e-03
  3.9625636e-01
  4.7136634e-04
  1.9492195e-03
  1.3092914e-01
  5.4119054e-02
  1.3039928e-03
 -5.2614790e-01
  7.2021660e-04
  4.4468180e-03
 -2.1746573e-03
  2.8284734e-01
 -2.7186376e-05
  7.6768403e-03
  7.0398873e-01
  8.7371888e-04
  2.7193511e-01
 -2.0384770e-03
  4.9382299e-03
  3.3369311e-04
  1.7195018e-03
  1.3962946e-03
  7.8437843e-05
  2.3878899e-03
 -1.2113882e-02
  2.9677199e-04
 -2.5244532e-03
 -4.2212037e-03
  8.6478619e-03
 -1.9160557e-01
  2.7134146e-03
  8.3201854e-03
 -2.4831865e-03
  4.7386138e-04
 -7.6236528e-01
 -6.3653576e-01
 -6.5179080e-01
  6.0399383e-01
 -3.0729108e-02
  3.6053115e-03
 -2.6711038e-01
 -4.4116196e-01
 -1.8576096e-01
 -1.4351550e-01
  4.9592298e-02
  7.1591293e-03
 -1.1071376e+00
 -4.0257440e-04
 -5.4750081e-02
  7.0451261e-03
 -7.2792131e-01
  4.4685325e-01
 -2.4333289e-03
 -7.3354214e-02
  4.3234378e-02
 -3.1036649e-02
  2.4308318e-01
  3.3601804e-04
 -2.9860085e-01
  1.0325973e-03
 -2.1170327e-03
 -7.7037332e-03
  1.6858145e-03
 -5.4324698e-02
  1.4798144e+00
  1.0705470e-01
  5.4813570e-01
  7.5507455e-02
 -1.9184850e-02
  5.6895143e-03
 -3.7839508e-01
  1.0560717e-01
  3.4844654e-03
 -4.0954165e-03
  6.9451153e-02
 -6.9478762e-01
 -4.0871659e-03
 -1.0185167e-03
  1.1831783e-03
 -1.0897926e-03
 -4.2994169e-04
 -5.1765186e-03
  1.4047240e-03
 -1.7471263e-03
 -1.4172385e-03
 -1.7218452e-03
 -1.4384460e-03
  6.4626208e-04
  1.9087174e-03
 -1.2199094e-03
 -1.7006446e-04
  4.3145538e-04
 -1.9463300e-04
  1.1752547e-03
 -5.5950251e-03
  5.2065135e-04
  5.8273989e-04
  4.5928423e-04
 -1.2303215e-03
 -5.5001024e-04
  1.1778058e-03
  4.5627463e-03
 -9.9451072e-04
  5.3652820e-06
 -1.8435522e-03
  4.0463728e-04
  8.0763613e-04
 -4.2171305e-04
  2.6276484e-04
 -2.2420930e-03
  1.2026868e-03
 -6.9828710e-04
 -1.3338790e-03
 -3.0925507e-03
  3.5261278e-04
 -1.3375884e-03
  1.5347023e-03
  8.5525890e-04
 -3.8283977e-03
 -2.7684497e-03
  9.3616656e-04
  4.3954799e-04
  4.0901868e-04
 -5.0500000e-04
  3.9220657e-03
  1.0963770e+00
  8.8500831e-04
  6.5898478e-02
 -9.4136887e-04
 -2.4507665e-03
  1.5900051e-03
  2.7865237e-03
  5.0491950e-04
 -1.5803699e-03
 -2.7276215e-04
  3.1750256e-03
 -7.6670378e-02
 -1.3202496e-03
 -1.2993745e-03
  6.5850653e-04
  5.8452034e-04
 -7.0033048e-04
 -1.7272147e-03
 -1.9999009e-03
 -1.2671382e-03
  3.6575657e-04
 -6.5909507e-04
  7.4075791e-04
 -6.5178017e-04
  1.9830745e-04
 -1.7969906e-03
  1.2063024e-03
  2.3240806e-04
 -4.9038511e-04
 -3.8039714e-02
 -4.0454486e-01
 -2.3043688e-01
  1.3580677e-01
 -7.6046504e-02
  2.8913001e-02
 -3.5248371e-03
 -2.9635366e-02
 -6.0540485e-01
 -5.3617693e-02
 -8.0537423e-02
  5.7573095e-03
 -6.5315783e-02
  7.1813684e-04
 -4.6928264e-02
  2.9664227e-01
 -9.7388700e-02
 -1.0313787e-02
 -3.2365606e-03
 -6.7121468e-02
 -1.2320622e+00
 -1.0716809e-01
  1.2501186e-01
 -7.0160080e-04
 -1.6904414e-01
  1.0542270e-03
  4.8150797e-03
 -1.0770756e-02
  4.5458213e-03
 -3.1756873e-03
  1.1628368e-03
  1.6289053e-03
 -4.1663707e-03
 -4.5451609e-04
  5.0515225e-03
  1.1210670e-03
  4.8758887e-04
 -3.1362288e-03
 -4.7032447e-03
 -2.2901074e-04
  5.4060435e-04
  5.4775452e-04
 -1.8526170e-03
  8.0472662e-04
  1.0705190e-03
 -2.4776982e-05
 -9.8591880e-04
 -4.2503057e-03
 -4.5222894e-04
 -6.2700087e-04
 -2.9828589e-04
  1.8393007e-03
 -5.9572565e-03
  3.9965832e-03
  2.2286554e-03
 -1.2061205e-03
 -2.5195899e-04
 -4.1344273e-03
  4.0768198e-04
 -5.8186689e-04
 -4.6504964e-03
 -7.8001135e-04
 -8.7061356e-04
 -2.9180580e-04
 -1.6005959e-04
  3.3409887e-03
 -8.7515591e-04
 -7.0392987e-04
 -1.0087746e-03
 -4.1877511e-03
 -1.5408699e-04
  1.4868068e-03
 -2.5265019e-03
  1.9498310e-03
 -3.8718447e-04
 -4.0401230e-04
 -3.3936081e-03
 -3.5770400e-03
 -1.3806248e-03
  2.7894846e-03
 -2.6007155e-03
 -1.4652610e-03
  3.1346688e-03
 -3.1010609e-02
 -3.9097300e-04
 -2.6529187e-03
 -6.9417132e-05
 -7.4368647e-05
  6.7205646e-04
  2.3064141e-04
 -1.9706322e-01
  2.2090390e-01
 -2.7232853e-01
 -7.8250891e-01
  4.4656708e-04
 -2.2243015e-03
  4.1494360e-03
  3.0631840e-03
 -3.9223215e-04
  2.9628102e-03
  9.1688364e-04
  8.8485994e-04
 -6.3253239e-05
 -7.9062133e-04
  8.2639745e-04
 -1.8927172e-03
  1.3282660e-03
  2.1821007e-03
 -1.0680863e+00
  1.7990792e-03
  1.6216857e-03
  7.7488556e-05
 -5.6521891e-04
 -6.5016362e-04
 -3.8750033e-04
 -1.4068640e-03
 -3.1354045e-03
  1.4566622e-03
  1.3549890e-01
 -7.5047690e-04
  1.7818013e-02
 -2.7811357e-01
 -3.5003355e-01
  1.4635734e-01
 -1.1325517e-01
  1.7369217e-03
 -8.9163147e-04
 -7.0397607e-03
 -7.7439458e-03
 -5.2076108e-03
  4.8797336e-04
 -2.7181008e-03
  1.0082620e-04
 -4.1909501e-04
  3.0142520e-04
 -1.5254130e-03
  2.9324798e-04
 -3.9341250e-03
 -5.4101326e-04
 -1.3663988e-03
  6.0496959e-03
 -1.6257790e-03
 -4.7336174e-03
 -1.5677119e-03
 -1.1243021e-02
 -9.5896708e-04
  1.0056996e-03
  1.5212559e-03
  2.6871881e-03
  9.0472330e-04
  1.1678796e+00
 -3.1820473e-01
  7.4196905e-02
 -1.9672836e-01
 -2.4673472e-01
  2.1670967e-02
 -4.5580618e-02
 -4.0545323e-04
 -1.2324920e-01
 -6.3124634e-03
  1.5006094e-01
  5.9081556e-04
 -3.4236214e-01
  1.1311368e-02
 -2.4867264e-04
  2.1602060e-03
 -8.1160609e-03
 -2.1520692e-03
 -7.4170280e-04
 -4.4955201e-02
  3.0748205e-02
 -1.2238602e-02
 -1.8171710e-04
  6.2982464e-04
 -5.8364823e-02
  2.6253958e-03
  3.6584577e-04
 -1.6102156e-02
  5.7354034e-03
 -1.7215272e-03
  2.2657367e-03
  3.1830720e-03
 -1.0820302e-03
  6.7223393e-04
  1.7321835e-03
 -1.8283101e-04
  1.2921462e-03
  7.2051364e-04
  6.2756473e-03
  2.6817659e-03
 -1.2014995e-03
 -1.9704595e-03
 -1.6564223e-03
 -7.0395804e-04
  1.1649041e-03
  2.1380302e-03
  7.4610423e-04
  9.7556156e-04
 -5.1044306e-04
 -2.8952751e-03
 -7.0111529e-04
  4.8395598e-04
  2.8509016e-03
  7.5490616e-04
 -2.4432174e-04
 -2.4178198e-04
  1.4604170e-04
 -6.2157045e-04
 -3.2190559e-03
 -1.0524059e-03
 -1.6196551e+00
  1.2636331e-01
 -1.2976213e-01
  3.5572562e-01
  1.0609129e-01
  2.5815883e-01
  3.9028788e-01
 -1.7220344e-01
 -6.2474108e-01
 -2.4326557e-01
  4.2829761e-01
 -1.0503634e-01
 -3.7646943e-01
  1.5493278e-01
 -3.0384117e-01
  1.1015345e-01
 -4.9381247e-01
 -3.0585587e-01
  1.8539956e-01
 -6.1705250e-01
  1.0351130e-01
 -1.3880248e-01
  1.8476129e-03
  2.6024277e-03
  2.0763461e-01
  3.2050149e-03
 -2.9754601e-03
 -7.2865151e-02
 -5.0650040e-05
  6.7045982e-03
  5.1258609e-02
  5.7437426e-01
  2.8305107e-03
 -4.7555375e-01
  4.7962791e-01
 -3.6530381e-03
  8.3561131e-04
  1.1648375e-03
 -1.4254468e-04
  3.3962817e-03
  2.7584881e-03
 -3.9568013e-03
 -4.3146539e-02
 -7.8757344e-05
 -1.1761633e-03
  1.8755497e-03
  4.2976378e-03
  6.3305814e-04
  1.4082339e-03
  1.8304847e-03
 -6.5531647e-03
  9.8490869e-05
 -5.5087433e-04
 -8.2710956e-04
  1.6966534e-03
 -1.6714958e-03
  2.1733418e-03
  1.6831894e-03
 -3.5970582e-04
 -4.9462295e-03
 -9.5852674e-04
 -2.9732491e-04
 -7.0260197e-04
 -1.6320032e-03
 -1.0372403e-03
  3.2125792e-04
  1.7362373e-03
  4.6731549e-04
  1.2618719e-04
  1.8429154e-03
 -5.1179138e-04
  3.3926654e-03
  2.3834435e-04
  3.8487845e-04
 -1.7010975e-04
  4.1124280e-04
  4.8513887e-03
  1.0649323e-03
 -1.2344407e-03
  2.4476296e-03
 -5.7668454e-04
  5.2701849e-03
 -4.9996778e-04
  7.9759426e-04
  5.3125800e-04
  6.7301496e-04
 -6.9788558e-04
  1.3039361e-03
  1.7609305e-03
 -2.1527572e-04
 -1.9684569e-03
  3.8588073e-04
 -3.7657481e-04
  1.8136112e-03
 -3.9725273e-04
  5.9240973e-03
 -1.5283840e-03
  8.1271294e-04
 -5.7778982e-03
 -1.4531774e-03
  1.9514461e+00
  1.2974115e-04
 -3.5461513e-04
 -9.4500941e-04
 -7.5331032e-01
  1.2494074e-03
  2.7734113e-03
 -7.4825704e-04
 -2.3453818e-03
  3.5587036e-05
 -2.0766587e-03
  7.6366544e-02
  2.4130910e-03
  3.2104044e-03
 -6.0478447e-04
  3.3564301e-04
 -1.2285672e-03
 -8.7344227e-04
  1.3820722e-03
 -1.2122142e-03
  2.2447559e-04
 -1.1194753e-04
 -7.0511736e-04
  5.2293553e-03
  1.9239843e-01
 -2.9735807e-03
 -2.0153415e-04
 -3.1627686e-04
 -5.7648536e-04
  3.3062548e-04
 -4.5672065e-01
  6.4908296e-01
 -1.0716520e-04
 -4.7281836e-04
  4.7580272e-01
  4.1182449e-01
  5.7178710e-02
  2.8702509e-01
  1.4464181e-03
 -3.1711851e-04
 -1.5656620e-02
  1.4069299e-03
 -6.1615449e-01
  7.1884488e-04
 -2.4053612e-01
 -7.3007867e-04
  5.3159207e-01
  5.9041940e-04
 -2.6903544e-03
  2.1777349e-03
  9.0526915e-01
 -2.6977612e-03
  1.5951513e+00
 -3.7396988e-01
  3.6427161e-01
  2.4975358e-01
 -1.7360544e-02
  3.3447667e-04
 -1.5452480e-01
  2.3312678e-03
 -1.9148144e+00
 -1.1156751e+00
 -1.0273173e-01
 -3.7045028e-02
  3.4449238e-01
 -7.0980787e-01
  6.7440408e-01
 -7.6582089e-02
 -4.9090962e-04
 -6.0481888e-01
  4.1738734e-02
  9.5243705e-04
 -4.0321174e-01
 -3.6083451e-01
 -5.0484324e-01
  1.4863002e-01
 -1.0123682e+00
  2.8177679e-01
 -9.0715854e-05
 -2.6217766e-02
 -1.1346348e-04
 -1.4053503e-03
 -1.1439001e-03
 -1.0006412e-01
  3.4802058e-03
  3.4824701e-04
  2.8863803e-03
 -9.0508750e-03
  1.3470630e-02
 -1.8072888e-03
  1.6124876e-03
  2.3756670e-03
  7.9013384e-04
 -8.5716404e-04
 -1.3667181e-03
  5.5337668e-04
 -3.7477182e-03
 -6.8003352e-04
  2.3428851e-03
 -5.5585890e-03
 -1.6302769e-03
 -2.2659235e-04
  6.1019073e-04
  3.0150730e-03
  6.1594922e-04
 -5.1474647e-04
  2.5042098e-03
 -7.5113541e-04
 -1.0292708e-04
 -3.4203276e-04
 -4.3403023e-04
 -9.0739876e-04
 -2.3133333e-03
 -1.7115240e-01
 -2.1728282e-04
  5.7982267e-03
  3.7456779e-03
  3.1595040e-04
  1.2251030e-03
  3.4339838e-03
  3.0211920e-03
  3.8968300e-04
 -1.8701844e-03
  3.6187158e-03
 -1.8157457e-03
 -3.3248742e-03
 -4.1724180e-04
  4.9086934e-04
 -3.0549349e-05
  1.2246070e-04
  1.6041113e-03
  3.1359936e-04
 -4.9179629e-04
 -1.5910223e-04
 -1.5437901e-04
  1.8299759e-03
  2.9393990e-04
  1.1783689e-03
 -3.2467966e-04
  1.4663992e-03
 -9.3259692e-02
 -8.1673043e-04
  5.2212276e-03
 -6.0132518e-04
  3.3119414e-02
  1.0581276e-04
 -3.9790808e-03
  1.7136087e-03
  1.1770733e-01
 -1.3384542e-04
 -2.3202394e-04
 -7.3423097e-04
  1.7847854e-03
  6.8023655e-04
 -1.4726178e-02
  5.2045914e-04
 -1.2362013e-03
  3.4866778e-03
  3.4832475e-03
  4.8213070e-03
  2.2808721e-03
 -1.3298846e-05
  1.8539464e-03
 -1.7482832e-01
  1.3368484e-03
 -3.2099002e-04
 -4.1751316e-04
  1.9731413e-04
 -3.1037452e-03
  1.0882559e-03
  4.0002763e-02
  2.6307079e-01
  6.1441110e-03
 -2.4706194e-01
  6.7959851e-01
  2.1268147e-01
 -2.8946898e-03
 -2.3465529e-03
  4.8830554e-01
 -3.3043703e-04
  2.3404356e-02
  7.3887524e-05
  2.4667365e-02
  4.4618387e-02
 -4.0986282e-01
 -7.9460573e-01
 -4.1240593e-04
  5.0982243e-01
  4.4051385e-01
  1.8273889e-03
  7.4775884e-04
 -6.3457428e-03
  7.2555788e-02
  1.0011570e-01
  1.1692257e-01
 -7.9771393e-04
  2.1675427e-03
  9.4385556e-04
  6.1051333e-03
  9.1712084e-04
  9.3228515e-04
 -2.4867503e-03
 -1.6216490e-03
 -2.3301951e-04
  2.3581746e-03
  4.8203158e-04
 -7.7123544e-04
 -1.3611005e-03
 -2.9014542e-03
  2.7352173e-03
 -7.8502716e-04
  4.5996564e-03
 -8.0682621e-05
 -4.8033308e-04
  3.5279759e-04
 -1.9487336e-03
 -2.4296243e-03
 -2.4834590e-06
  1.0711142e-03
 -1.4983180e-03
 -1.2637336e-03
  6.0692444e-03
 -7.3684647e-04
  8.8846423e-03
 -4.9519227e-03
  5.6271371e-04
  4.7694930e-04
 -7.4473332e-04
 -1.8505154e-03
  3.4513773e-04
 -4.5980175e-04
 -2.2223854e-04
  1.1400281e-03
  1.3578613e-03
  1.2003940e-03
  7.9944823e-04
 -8.2963519e-04
  2.3610856e-04
  5.6237937e-03
 -1.9566035e-04
  1.1013950e-03
 -9.5404289e-04
 -2.7133434e-03
  1.6151486e-03
 -9.9779558e-05
  6.6947396e-04
  8.4080570e-04
 -1.0165549e-03
  4.1916179e-03
 -1.5952615e+00
  5.5936921e-01
 -6.6043396e-04
  3.4889081e-04
 -5.0427970e-03
 -6.5991924e-05
 -2.4257454e-03
  3.2473184e-04
 -9.4871462e-04
  9.8216441e-04
 -3.9601215e-04
  7.4726258e-06
  2.0734551e-03
  1.6405943e-03
  1.8585540e-01
  1.9635463e-03
 -6.2457874e-04
  6.5392975e-05
 -7.1755821e-05
 -1.6600762e-04
  3.1615373e-01
 -8.2826812e-04
 -3.3525873e-03
  2.5310670e-04
  2.7890399e-03
 -1.8993170e-04
 -1.9490615e-03
  1.3540882e-03
 -3.1541731e-05
  1.9574738e-03
  2.3200782e-03
  3.6472897e-04
  1.4357347e-03
  1.6950599e-03
 -3.5436670e-03
  2.3058695e-03
  3.8558822e-03
  1.0292283e-02
  1.9152504e-03
  2.7670725e-03
 -2.9033145e-03
  6.7438732e-04
 -1.0085833e-03
 -1.6846503e-04
  2.7281963e-03
  6.6295015e-03
  2.6339218e-03
 -2.1670910e-03
 -7.0766443e-01
  2.0630792e-04
 -1.9742200e-05
 -5.8167131e-04
  4.9288105e-04
 -7.0345384e-04
 -2.0906411e-03
  1.3409589e-03
  1.6158933e-03
 -2.8064442e-03
 -1.8740885e-03
  1.6358745e-03
 -2.2885818e-03
 -2.2721770e-03
  1.1149102e-04
 -2.0286089e-03
  1.9383302e-03
  2.7481946e-03
 -1.6271847e-03
 -6.4395589e-04
  1.0051513e-03
  3.2547003e-04
 -1.4993792e-03
  8.2005409e-04
 -7.0219667e-04
  1.1124241e-03
  2.0130978e-03
  1.3871021e-03
 -3.0798176e-03
  4.9882999e-04
 -6.2026040e-05
  4.0441453e-03
 -2.4891077e-04
  3.9305761e-03
  7.1064621e-04
 -5.2459480e-04
  3.7516884e-03
  8.8341977e-04
 -1.7664653e-03
  1.0959443e-03
  5.2850768e-03
 -4.1308287e-03
 -1.0386832e-03
 -1.0340549e-04
  1.6058943e-03
  1.7468347e-03
  1.8662408e-04
 -4.6287442e-04
 -2.3948166e-03
  2.0417080e-03
  3.1175971e-04
  4.5190518e-05
  2.4072298e-04
 -1.4369588e-03
 -3.2320737e-03
  1.2400678e-03
 -1.0610721e-03
  1.5195372e-03
  3.0265469e-03
  1.7449111e-03
 -6.4226030e-04
 -8.4857887e-04
  6.5607607e-04
 -2.3875264e-03
  1.7050051e-03
  4.9553916e-04
 -3.1378593e-05
  2.1636912e-03
  1.6361536e-03
 -4.6435717e-04
 -1.0036404e-03
  9.9425041e-04
  5.0532690e-04
  5.3023238e-04
 -6.7426916e-04
 -2.3342383e-03
 -6.4120721e-03
 -2.5376081e-03
  2.3398211e-03
  1.5411439e-03
 -7.3657096e-03
 -4.2716306e-04
  1.1343928e-03
  1.6707794e-03
  5.5640559e-03
  1.5965228e-04
 -1.8548373e-02
  2.2123531e-03
 -7.9592265e-04
 -3.3138529e-03
  1.5721277e-03
 -3.6410817e-03
  1.4411657e-03
 -2.8350481e-03
  4.7670412e-03
 -3.6669202e-04
 -7.3179888e-04
 -2.6919803e-04
 -3.3443826e-03
  5.2143144e-04
  8.2681244e-03
 -9.7830978e-04
 -5.9077214e-03
  1.9013580e-04
  1.3045392e-04
  2.8366630e-04
 -2.7434658e-03
 -1.3450973e-04
 -1.6948340e-03
 -1.5120834e-04
  2.5676542e-03
  1.2089375e-04
  5.3780479e-04
  5.0249898e-01
  3.9365133e-03
 -1.8015389e-01
  7.7631319e-01
  1.8551164e+00
  1.9384825e-01
  8.0538630e-01
 -3.7274521e-03
  1.5609759e-01
 -7.1304813e-03
  1.9406082e-01
  3.0232626e-03
  1.1433187e-01
  1.4220558e-01
 -3.2724249e-01
  3.9342186e-01
 -1.5830827e-03
 -1.6301030e-01
 -3.7903834e-02
  2.1891066e-01
 -1.3800515e-02
 -7.9945894e-03
  2.9147445e-04
  7.3573852e-01
 -6.6455044e-02
  2.5130652e-03
 -1.3371523e-03
 -1.6305008e-03
  1.3075834e-03
  9.9853473e-04
 -7.5565921e-03
 -4.3135926e-05
 -1.3406612e-03
 -1.3787966e-03
  1.1794962e-03
 -1.1913162e-03
 -1.7388674e-03
 -4.0223267e-02
  2.6358484e-04
  1.1519068e-03
  2.2013439e-03
 -1.0391899e-03
  3.9254449e-04
 -7.4940728e-04
 -4.3328470e-04
 -6.0514262e-04
  8.6806389e-04
 -5.3713083e-01
  1.8745954e-03
 -2.4248827e-03
 -1.0946181e-03
  7.6606276e-04
  1.0101129e-03
  5.0881726e-04
  5.5757779e-01
  6.2556367e-04
 -4.0893702e-04
  3.5645737e-04
  1.8631578e-04
 -9.3479810e-04
  2.0686145e-01
  1.1074120e-03
  4.2649865e-01
  2.7066819e-02
  4.3119860e-01
  1.2154340e-01
  1.4954767e-03
  2.2829897e-03
  3.1490311e-01
  4.1949530e-03
  5.1579613e-02
  1.2183194e-02
 -2.3482435e-03
  9.5226638e-02
 -9.7579002e-02
 -2.8513973e-03
 -1.6191360e-03
  2.9659062e-03
  1.0481182e-04
  6.5587083e-04
  4.3505272e-03
  9.5245423e-04
 -8.7194343e-04
 -9.5871827e-03
  2.9201710e-03
 -2.6868816e-04
 -7.5761788e-04
  5.7038309e-05
  2.1450780e-03
 -3.7888472e-03
  1.2120728e-01
  1.9597399e-01
  4.2871743e-01
  8.4216875e-01
  5.9547418e-01
  6.3973510e-01
  3.6816901e-01
 -6.0079914e-01
 -2.1769090e+00
  3.5827413e-01
  6.6181570e-01
 -8.1994049e-02
  5.2479923e-01
  4.7380126e-01
 -1.3502228e-01
  1.2152607e+00
  3.8351625e-01
 -4.5552766e-01
 -3.8044561e-02
  2.8128120e-01
  1.0306085e+00
 -2.1950309e-01
  5.4180194e-03
  3.1143978e-01
 -5.4683042e-01
  6.1740032e-03
  6.5781134e-03
 -3.4477446e-02
  1.8054919e-01
  1.3493882e-03
 -9.3474549e-01
  1.0565681e+00
 -1.1497492e+00
  5.4731393e-01
 -1.4675623e-01
 -6.2709242e-01
  1.0248128e-01
  7.8312449e-02
 -7.6758635e-01
 -7.0019400e-01
 -8.1855083e-01
 -5.6365401e-01
 -7.0217007e-01
  5.1112592e-01
 -2.0175111e-01
 -1.1181735e+00
  6.2959488e-03
  1.1501380e+00
 -6.3822502e-01
 -3.6420438e-01
 -1.1500638e+00
  2.6315862e-02
  3.6569777e-01
 -2.7338896e-02
 -1.0658193e+00
  9.0307015e-04
  8.7706976e-02
  9.0432456e-03
 -2.6456887e-02
  6.9793556e-03
  1.7250946e+00
 -9.4383055e-01
  1.0749298e-02
 -2.0791137e+00
 -1.9698589e-01
 -2.8679540e-02
  4.9051440e-01
  5.8991516e-01
  9.7462572e-02
 -1.6021772e-01
  3.7311733e-04
  2.7598223e-01
  2.6613008e-02
  9.0374690e-01
 -1.8464013e+00
  2.3171691e-02
  1.3396776e-01
  2.4725363e-01
  9.6600157e-01
  7.3479998e-01
  1.2135319e-01
 -1.0541634e-01
  1.9007230e-01
  8.5870212e-01
 -9.1254115e-02
 -2.6828444e-02
  4.2770966e-03
  4.7950947e-04
 -7.0106335e-02
 -1.5713701e-01
  5.9972957e-02
  1.6317740e-03
  5.8161233e-02
 -5.1649344e-01
  4.4888762e-01
  1.2233852e-03
  6.6273671e-05
  6.5820676e-04
  3.5272413e-01
 -5.2407989e-03
  4.9715838e-04
  3.5851500e-03
  1.3286745e-03
 -5.6480838e-04
 -8.6528687e-03
 -2.2793519e-03
 -5.2550144e-04
 -2.4135238e-03
 -8.3246082e-04
 -5.0569535e-04
  1.1644694e-04
 -2.9080556e-04
  3.0900311e-04
 -3.3973379e-04
  9.2555833e-01
  1.6711479e-03
 -6.5775579e-03
  3.8251944e-04
  9.8985434e-04
 -2.6877741e-03
 -1.4408461e-03
 -6.9686712e-04
  2.8432455e-04
 -2.9063539e-03
  4.4764456e-04
 -2.0904820e-03
 -1.6654421e-03
  1.6061228e-04
 -2.7690493e-03
 -1.5343637e-04
 -1.3456269e-03
  3.9453302e-03
  6.6385473e-05
 -1.1322902e-03
 -2.4939407e-04
 -2.8659962e-03
 -4.0301748e-04
 -6.9395802e-03
  5.4757912e-03
  5.9031462e-04
 -2.0856021e-03
  8.3755987e-04
 -4.1819870e-04
  2.4728756e-04
 -4.3142554e-03
  1.6979189e-03
  7.8521768e-04
 -3.0772958e-03
  1.9405480e-03
 -2.1875822e-03
  3.7078533e-01
  2.0473135e-01
  1.2466397e+00
 -2.7506655e-01
 -3.0728802e-01
  5.3463183e-02
  6.1552046e-04
 -3.2357618e-04
  1.4435432e+00
 -2.2554039e-03
  5.4402109e-02
 -1.0770750e-01
  8.6512271e-04
  2.6078069e-01
 -1.3109379e-01
  1.5201549e-03
  2.2305059e-03
  1.3332505e-03
 -3.2425672e-01
 -4.7221049e-03
  2.4364719e-02
  1.1725520e-03
  7.0468420e-01
 -7.8842705e-01
  4.4522032e-02
 -3.0450939e-04
 -4.1888523e-04
 -1.0713362e-04
  1.0272935e-03
  1.1844053e-03
  6.3974829e-04
  8.2707847e-04
  2.2416096e-03
  6.0662362e-03
 -2.9938549e-03
 -3.7891660e-03
 -3.6386594e-03
 -1.9020772e-05
 -4.3825237e-03
 -5.9824371e-01
 -5.6021323e-04
  9.7612676e-04
 -5.6020095e-04
  8.2745176e-04
  9.5660490e-04
  2.7684362e-03
  1.4047247e-03
  1.1599499e-03
  1.9492676e-03
  6.4007487e-05
  9.0925471e-04
  2.4356395e-03
 -5.8154983e-04
  1.6300929e-04
  4.9097982e-04
  2.0753841e-04
  6.1950963e-03
  3.9578849e-04
 -3.5825293e-04
 -6.8975112e-04
  4.8604645e-02
 -1.8020520e-04
 -1.9130918e-01
 -6.5052486e-04
 -1.1799625e-03
 -6.3377502e-03
 -3.3285937e-03
 -5.6765475e-03
  1.0903840e-03
  4.1005647e-04
  6.8695599e-04
 -1.1443195e-03
  2.2240218e-03
 -2.7676597e-03
  5.9021078e-04
  2.9716815e-05
  3.2651625e-03
  3.0763245e-03
 -1.4359743e-03
  1.4331579e-03
  2.8486634e-03
  1.0261899e-03
 -1.0520904e-03
 -5.5885123e-04
  9.8538026e-04
 -2.6674052e-03
 -1.2089006e-03
  6.1437245e-03
  1.0158432e-04
  8.3440146e-04
  5.4085332e-01
 -3.1183082e-01
 -1.1713175e-01
 -1.3771303e-01
 -7.6339573e-01
 -4.7909627e-03
  1.8789468e-02
  9.3851145e-04
 -3.7072927e-01
 -1.4442401e-01
 -4.6889994e-02
 -2.6739447e-03
  6.5490283e-04
 -4.4478437e-01
  4.5327928e-02
  9.2871254e-03
  3.5213419e-05
 -2.3151110e-03
  1.5981735e+00
  7.2305719e-03
 -8.5543713e-04
 -1.4906436e-03
 -2.3074432e-03
  3.2260200e-01
  1.3766426e-01
 -1.6094495e-03
 -8.5021718e-04
  2.1493103e-01
  1.4490001e+00
  1.5473631e-03
 -1.0545822e-03
  4.9355678e-04
 -5.5408600e-04
  1.9918501e-03
  7.7782031e-03
  5.4839859e-04
 -1.1495664e-03
 -5.8633240e-04
  3.0883674e-03
 -7.6037663e-04
  1.7078577e-04
  1.7420137e-02
  5.3778844e-04
  1.0971415e-03
  4.6869079e-04
 -3.5037934e-03
  2.7893800e-03
  1.4341012e-01
  4.8898838e-02
  2.5048669e-04
 -3.6218055e-03
 -2.0637996e-04
  8.6939038e-04
 -1.4461596e-03
 -2.8165211e-03
 -1.8184790e-03
 -2.4444357e-04
 -5.0187413e-02
  1.9862417e-03
 -7.0343388e-04
  1.3742492e-03
 -2.3689533e-03
 -1.4947554e-03
 -3.8750577e-04
 -2.0735061e-03
 -1.0481486e-03
  5.7819489e-05
  3.3882758e-04
  3.0530735e-03
  5.9702647e-01
 -9.7712118e-04
  4.4758441e-03
  6.2444317e-04
  2.2387314e-03
  4.2579943e-04
 -2.9694943e-03
 -3.1626517e-01
 -8.2797516e-04
  5.5226334e-04
 -2.6595220e-02
 -2.5009588e-04
 -8.4823102e-02
 -1.6286030e-02
  2.3875388e-03
  1.8906316e-03
 -4.1574519e-03
 -1.2070137e-03
  1.3349182e-03
  9.3317777e-04
  1.5857837e-03
 -1.6989520e+00
 -9.1253676e-02
  8.4955323e-01
  1.4070271e+00
  1.9826956e-01
  3.6939299e-01
 -7.0521545e-01
 -8.5333085e-01
  4.4222865e-01
  1.0898189e-01
 -1.7378434e-04
 -9.3771189e-01
 -3.2996106e-01
 -8.8011038e-01
  1.0792058e+00
 -3.2723658e-02
 -2.5495911e-01
 -4.2743042e-01
 -1.4413427e+00
  9.7175443e-01
  1.5480061e-01
  9.1420789e-04
 -1.0445207e+00
 -1.2076105e+00
 -6.9503772e-01
  1.2711907e-03
 -1.8300505e-02
 -1.0263443e-02
  3.5867742e-01
  1.5674852e-02
  1.6657416e-03
  2.6920307e-03
 -3.1853106e-03
 -8.1907600e-01
 -1.4571638e-02
  9.6808682e-04
 -2.2396494e-03
 -6.3509528e-05
 -8.0879632e-04
 -5.9227813e-03
 -3.8418940e-03
 -9.3483273e-04
  4.5296139e-04
 -8.7535370e-04
  1.0259698e-04
  2.0545321e-03
 -3.4328128e-04
  6.1133970e-04
  5.1941199e-04
  2.5204758e-04
 -1.5436599e-03
  1.0121207e-03
 -1.9108560e-03
 -1.0534547e-03
  4.2834878e-01
  4.5306049e-05
  1.6448500e-03
  2.0299107e-03
 -1.6171063e-03
  4.2596341e-05
 -2.3342791e-04
  3.2776728e-04
 -3.8990986e-02
 -6.8459724e-04
 -1.6237664e-01
 -8.8117933e-03
  4.8143333e-03
 -6.9319451e-04
 -2.0245306e-01
 -1.1588050e-03
 -2.8007096e-02
 -1.8872592e-03
  4.8923260e-04
  4.2990595e-04
  7.8777425e-02
  2.7262364e-03
 -2.3725680e-04
 -2.1952668e-03
 -7.2861306e-04
 -4.4105813e-04
  1.2965041e-05
  4.8251671e-04
  4.7340721e-04
  7.4113451e-02
 -6.1744926e-05
  9.4562134e-04
 -2.3615104e-03
  3.6961053e-04
 -8.6533505e-04
  3.6744818e-03
  2.6697916e-01
  1.1692283e-01
  1.3009525e-02
  2.2414517e-01
  9.0770537e-01
  1.2639607e-02
 -4.7937581e-05
 -5.0041918e-04
  4.5834076e-01
  4.3317181e-05
 -2.8055739e-02
  5.2128229e-03
  2.7875915e-02
  6.5578878e-02
 -2.9355386e-01
  3.8920309e-02
  1.9894952e-03
 -7.2024524e-04
 -4.0462729e-01
  1.1143943e-01
  2.7450763e-03
  4.3551752e-04
  7.9412409e-04
 -1.0679615e-02
  4.6108320e-02
 -8.9616132e-01
 -1.9898561e-03
 -1.5113058e-03
  3.1753429e-03
 -1.7381011e-03
 -1.8889202e-02
  3.8400914e-03
 -1.3497912e-03
  1.3927495e-04
 -5.8853887e-03
 -1.5644084e-03
  1.2078101e-04
 -2.5229584e-03
 -1.6967039e-01
  9.3517307e-04
 -3.4741563e-05
 -8.4545254e-04
 -1.8258004e-03
 -2.5112590e-01
  8.2612950e-03
 -1.3749754e-04
  2.2416589e-04
 -9.4086677e-03
 -3.7771331e-03
  7.8686228e-04
 -3.4193583e-03
 -6.7117292e-04
 -3.6155903e-03
  9.5417847e-05
 -2.3441152e-03
  1.1635308e-04
 -4.3984372e-02
  1.8922079e-03
 -1.1869101e-03
 -1.3224479e-03
 -4.7631776e-03
 -2.2912853e-05
  1.6237565e-04
  9.5100343e-01
 -5.8582547e-04
  1.1441960e-03
 -1.3797131e-03
 -1.2156519e-03
 -2.3816642e-03
  3.7583153e-04
  1.6186193e-03
 -1.5261406e-01
  1.7493325e-03
 -3.2146557e-03
 -7.9743516e-01
 -6.2921488e-01
  1.1218380e+00
  3.9812091e-01
 -1.8061734e-03
 -1.7506033e-01
  2.8864618e-03
 -3.0100966e-04
 -4.7022411e-01
 -6.5984140e-04
  3.1051366e-03
 -9.8668844e-01
  2.1124462e-04
 -2.1074757e-03
 -1.2243705e-01
 -1.3454773e-03
 -2.9239096e-03
  2.5808928e-03
  1.6889162e-01
  7.4085730e-01
  3.8084149e-04
  1.1472437e-01
 -1.1725817e-02
  1.2991656e-04
 -1.5746219e-03
  3.5071920e-04
  2.0309753e-04
  8.8445145e-01
  1.0611820e-02
  5.3918648e-01
  2.7884028e+00
 -1.4282018e+00
 -1.5773392e+00
  3.8218769e-01
  2.5347902e-03
  6.1666191e-01
 -1.0351629e-03
 -3.5219267e-02
 -6.1051923e-01
  3.2806382e-04
  1.0903581e-03
  1.3020793e+00
 -2.3006433e-01
 -3.5807320e-01
  7.4906945e-01
 -3.1150639e-01
 -2.6323342e-01
  5.0498653e-02
  1.7693435e-01
  2.4591595e-02
 -7.3642237e-03
 -8.3582371e-02
 -2.8530104e-02
  5.0181863e-03
  4.4443449e-03
 -1.0927553e-01
  1.2864086e-03
 -8.8022025e-03
 -1.9454099e-03
  2.0898951e-03
  6.2228902e-03
 -3.0819604e-02
 -3.5349727e-03
 -3.5077087e-03
 -3.7434530e-01
 -1.1899859e-01
 -1.8557066e-01
 -1.0618686e-03
 -9.6148504e-03
 -3.3095590e-04
  6.7272742e-04
  2.5252032e-03
 -5.4414658e-04
  4.1800211e-04
  1.8336137e-03
  1.3342571e-03
  2.4290211e-01
  2.8943438e-03
  1.2142978e-02
 -4.3156836e-03
  6.6475838e-04
 -1.1884806e-03
  1.2137736e-03
 -1.5247574e-03
 -2.8416947e-03
 -1.8606499e-03
 -5.7793886e-04
 -1.1096739e-03
 -6.7837891e-04
 -9.3997247e-04
  1.5361726e-03
  2.2319234e-04
  4.1255257e-03
  2.0217597e-03
  3.1906965e-03
 -1.3069282e-03
  1.4336093e-03
  7.9734653e-04
  5.4300809e-04
 -1.5336282e-04
 -2.0457837e-03
  2.5228088e-04
 -2.6072487e-03
 -1.1383547e-03
  1.8621593e-03
 -3.2320952e-03
  3.3979367e-03
  3.3527397e-04
  7.9712772e-04
  1.2463443e-03
 -5.6405773e-04
  3.0931570e-03
 -7.2013866e-04
 -2.9388380e-03
  4.7224594e-04
 -4.9357477e-04
 -8.9856616e-04
  8.5553149e-04
  1.4833244e-04
 -1.3794792e-03
  2.0325810e-05
  1.0857638e-03
 -2.4263425e-04
  5.1740790e-04
  2.9901266e-03
 -3.2780992e-04
  1.5418227e-03
  2.0742067e-03
 -9.4037520e-04
 -3.4850862e-04
  2.5703269e-03
 -1.5760595e-03
  3.9534387e-03
 -1.3394917e-04
 -1.9918079e-03
  2.5314177e-05
  2.1381892e-02
 -7.0039749e-01
 -5.3976548e-01
 -9.7841990e-01
 -1.1414300e+00
 -5.9649670e-01
  6.2544566e-01
 -3.3740759e-02
 -4.6303743e-01
 -7.7706100e-03
  1.7096673e+00
 -1.1070340e-03
  4.7603428e-01
 -8.3596334e-03
  9.1764277e-01
  1.1416821e+00
  3.5766449e-02
  3.8051254e-01
 -2.7794239e-01
  1.2238176e+00
  9.0523100e-01
  7.3263079e-01
  7.0829719e-02
  3.2181165e-03
  2.6414001e-01
  6.9290062e-04
  2.6867336e-03
  2.6978835e-02
 -1.9914499e-03
 -2.8586427e-02
  9.4714230e-01
 -4.2854883e-02
  1.3452992e-02
 -3.4892850e-02
 -5.5764651e-01
  1.4008474e-02
 -2.1234720e-03
  1.6546814e-02
  3.4775253e-02
 -1.2694172e-03
  9.2374894e-04
 -3.3313897e-03
  1.2827260e-02
  7.5686740e-04
 -1.5955878e-03
  9.7142364e-04
 -4.9788458e-04
  2.9078129e-01
 -3.8928756e-01
 -2.9991742e-02
 -1.2947107e-03
  1.4905095e-04
 -3.3875706e-03
 -2.1279887e-03
 -2.2453480e-04
  1.6718651e-03
 -1.4438067e-03
 -4.8811757e-03
 -2.3258557e-03
 -1.8782477e-03
  3.3834225e-01
 -5.7788551e-01
  2.2942622e-01
 -9.9793291e-01
 -1.6597055e-03
  1.0612082e-01
 -3.5868531e-01
  2.0166622e-03
 -3.1685507e-01
  1.5840307e-02
  1.0490997e-03
 -2.7229814e-03
  5.4495391e-05
  7.9355488e-04
  1.1573321e-02
 -1.8348860e-03
  7.7828300e-01
  1.5250687e-02
  1.3350966e+00
  1.3001160e-02
  3.4445107e-02
  2.9570488e-03
  2.8880733e-01
 -6.0651712e-03
  2.9732417e-03
  8.1285747e-04
  1.6060776e-04
 -7.6919392e-04
  2.3138900e-03
 -1.2950506e-03
 -1.0237559e+00
  8.7704921e-01
 -1.3900497e+00
  1.1718435e+00
 -3.4336847e-01
 -2.5278461e-01
 -1.2219009e+00
  4.1975651e-02
 -1.1998723e+00
 -7.6148206e-01
  7.0298545e-02
 -7.5026590e-01
 -3.4657195e-01
 -1.1181213e+00
 -1.1099116e+00
 -4.5144721e-03
  3.2003662e-01
 -3.0847931e-01
  1.0548742e+00
  3.7041277e-02
 -4.2870644e-01
  3.1853262e-02
 -1.7258020e-01
 -1.6866125e-02
 -7.2286075e-01
  3.7682149e-01
 -1.6463950e-03
 -4.9644354e-01
 -2.6839557e-01
  1.3346099e-02
 -1.7529216e-02
 -2.5680859e-03
  4.5151403e-04
 -5.1051180e-04
  4.6136306e-04
 -4.8725354e-03
  2.3727694e-03
  5.3143352e-03
 -1.7356968e-03
 -2.1193232e-03
 -4.6689564e-01
  7.7148150e-03
  3.0265742e-03
  3.8391149e-01
 -4.5186683e-04
  9.4225380e-04
  1.7763733e+00
 -2.6476706e-04
  2.2970906e-03
  2.4113699e-03
 -4.2269580e-04
 -8.5714962e-03
 -1.1445010e-01
 -3.1991076e-04
 -9.5617620e-04
  2.0905692e-04
 -4.1741882e-03
  8.7404408e-04
  1.8972821e-03
 -2.9032768e-03
 -3.8606746e-03
  6.2449026e-04
 -8.7039286e-01
 -1.3773891e-03
 -9.0389722e-04
 -1.9827515e-03
  1.1161348e-03
  7.4999571e-01
 -2.2455410e-03
 -1.9466043e-04
 -3.1601079e-03
  1.3537230e-03
  5.0379066e-03
  1.9948268e-03
  4.2777785e-04
 -9.8292986e-03
  2.0998663e-05
  1.0685077e-03
 -6.4922031e-05
  5.8004376e-03
 -1.0918339e-03
  1.5021046e-03
 -3.8474609e-04
  1.5317409e-03
 -2.3492798e-03
 -1.1680907e-03
 -2.0854683e-03
 -2.1360700e-03
  6.3537760e-03
  9.0679998e-04
  4.4712809e-01
 -1.4099976e+00
  7.3132537e-02
 -1.0828711e-02
  3.9495658e-03
  5.0903362e-01
 -1.5882520e-02
 -1.6401954e-03
 -6.4518531e-03
  8.1707500e-02
 -8.7761357e-03
 -1.6100796e-02
 -3.8238810e-03
 -1.4446435e-03
  8.2854129e-04
  8.1268348e-02
 -2.2061898e-03
 -9.5773477e-04
 -2.7525946e-01
 -3.2401627e-01
 -1.3367155e-01
 -4.0710639e-04
 -1.5489645e-04
  2.4683939e-04
 -1.5595102e-01
  1.4083694e-03
  4.8056530e-04
 -4.0287976e-03
 -3.3818346e-03
  1.3882382e-04
 -3.8716740e-03
  6.0613608e-01
 -1.9346926e-03
 -1.3730979e-03
  5.1599233e-03
  3.6168222e-03
  1.2470636e-03
  7.4025645e-04
  1.8009089e-01
  6.0809017e-03
  5.4407452e-04
  1.0230396e+00
 -2.1897526e-04
 -1.6169229e-03
  1.7288991e-04
  2.0542780e-01
  3.2341713e-03
  9.9644368e-04
 -3.0720327e-03
  1.9346448e-03
  9.7131662e-05
 -7.4504153e-04
  4.0751565e-04
  3.9585016e-04
  1.6992146e-03
  1.7716950e-03
  1.4184648e-03
 -1.1823354e-03
  1.9593560e-03
 -1.1738981e-04
 -1.6212627e-02
 -6.0531795e-01
 -6.3093364e-01
 -5.8415103e-01
 -2.1432443e+00
 -7.7177376e-01
  2.2441950e+00
 -1.4819499e-03
  7.8884739e-01
 -2.3837394e-01
 -5.8919913e-01
 -5.8147103e-02
 -3.0141872e-01
  9.0750769e-02
 -4.0714531e-03
 -5.8732170e-01
 -1.1843549e-01
 -1.1990915e-01
 -9.0224844e-01
 -4.5112011e-01
 -4.6941480e-01
 -5.8931257e-03
 -1.0236853e-02
  4.4198263e-02
 -3.9272346e-03
  7.6196634e-04
  4.9825845e-04
 -3.7465519e-03
 -1.7956472e-03
  6.7436590e-04
 -4.7112581e-01
  1.1794289e+00
 -8.0003021e-03
  4.0629777e-01
 -1.2916204e+00
  1.9852217e-01
 -7.1896300e-02
 -2.0925960e-01
 -2.5500706e-01
  3.9243571e-02
  6.6019176e-03
 -3.5198601e-03
 -3.7253190e-02
 -1.0946312e-01
  2.5793219e-01
 -1.2996666e-03
  1.0802898e-03
 -8.4608540e-02
 -8.9006126e-01
  8.7241698e-03
 -1.9604906e-02
  1.5747836e-02
  1.0494489e-03
 -2.9114948e-03
  3.9853095e-03
 -3.0694727e-03
 -2.2334393e-06
 -5.8102264e-04
  8.3335862e-04
 -1.8673912e-03
 -4.0595275e-01
 -1.1341590e-01
 -1.5599717e-01
 -4.7917254e-02
 -6.3819945e-01
  3.8585493e-01
  1.1830505e-02
  4.4679934e-01
 -5.3429383e-01
  7.6187718e-01
  6.5348399e-01
  1.6936740e-01
 -5.1239932e-01
 -7.1022637e-02
  6.3903712e-02
  1.1624488e+00
  8.6231476e-01
  4.4002005e-01
  1.1955333e-01
  1.1459877e+00
  8.5005575e-01
 -2.4766896e-03
  3.2357118e-01
 -3.0282542e-01
  1.9815383e-03
  2.5181805e-03
 -2.2155241e-04
  3.0074620e-05
  2.7764700e-03
 -8.2854176e-04
  4.8223268e-02
  1.3847803e+00
 -9.6638715e-01
  1.0379814e-01
  1.3583009e-01
  4.1166720e-01
  4.2906970e-02
 -2.2376494e-01
  3.5161682e-04
  4.7673911e-01
 -4.2492452e-01
  6.2136728e-01
  4.0512852e-02
  1.5763973e-01
 -1.6031902e-03
  2.2203510e-01
 -2.8365302e-01
 -2.7029002e-01
  3.6019848e-03
  6.4233011e-01
  4.2050517e-01
  5.8988515e-02
 -1.1576230e-02
 -7.5229055e-01
 -2.0351190e-04
 -2.0417035e-01
 -5.7790512e-03
 -1.0770002e-03
  7.2167902e-03
  8.5743819e-04
 -9.7679991e-01
 -6.6189095e-04
 -5.6380400e-04
 -1.3429798e-03
  1.2710618e-03
  1.2910881e-03
 -1.4627109e-03
 -1.0922193e-03
  3.8804531e-01
 -1.1809978e-03
  1.1021830e-03
 -6.4349227e-04
 -1.5865725e-03
 -2.5902607e-03
  2.0170833e-03
 -9.9052500e-04
  3.0465375e-03
 -6.9493521e-03
 -4.1911639e-03
  1.9829783e-04
  2.6777989e-04
  1.0686822e-03
  7.7084434e-04
 -3.0127917e-03
 -2.4001101e-04
  5.5132719e-04
 -7.2380080e-04
 -1.5040572e-03
  6.0524634e-04
 -5.0596462e-04
 -1.7962168e-01
 -2.9391446e-04
  1.0782207e+00
 -1.9368255e-01
 -1.1093521e-01
  3.8284069e-01
  2.5724056e-03
 -1.3038158e-02
 -4.3867182e-02
 -1.7169054e-03
  4.7747864e-04
  3.2248076e-03
 -6.2377773e-02
  4.2787975e-01
 -7.7513672e-05
 -5.8208400e-04
  6.9381431e-02
  2.3575062e-01
 -1.6768511e-02
  1.5374342e-03
  6.1765127e-03
  7.2970361e-02
  1.1826643e-01
  2.7001495e-03
 -4.4298786e-04
  3.0489673e-03
  1.6264948e-03
 -2.6998275e-03
 -5.6823227e-03
  9.7761070e-04
 -3.1065843e-01
  1.8398186e+00
 -1.6919619e+00
 -4.6752080e-01
 -8.8908088e-01
  1.6393267e-01
 -4.9445701e-01
 -1.3816730e+00
 -9.5351326e-01
 -1.1597795e+00
  1.8736185e-01
  7.4367648e-01
 -9.1259682e-01
 -5.2666318e-01
 -1.0237887e+00
 -5.5127847e-01
  4.2720965e-01
 -1.0165501e+00
 -6.9158965e-01
 -1.1660504e+00
  5.7573992e-01
  5.0728989e-01
 -1.0258713e+00
 -5.6908184e-01
 -1.6327981e+00
 -1.7649674e-01
 -7.1583135e-04
 -1.9863537e-02
  1.7008784e-01
  3.2453451e-04
  1.0472093e-03
  1.7409640e-03
  6.1646760e-03
  2.1390240e-03
 -1.1361802e-03
 -2.9940536e-04
  7.2445237e-04
  3.2939396e-03
  6.5008360e-03
  9.3125866e-04
 -1.6597813e-03
 -3.3619133e-01
 -1.6545660e-03
  2.0748033e-04
  6.2680431e-03
  5.1874755e-04
  1.7033928e-03
 -1.7777608e-03
  5.8501534e-04
 -1.2449647e-03
  8.6927926e-04
 -2.1003054e-03
 -8.9846156e-04
  2.6540149e-03
  1.4329652e-01
 -1.5283511e-03
 -2.3572568e-03
 -4.6542284e-04
 -1.5558003e-03
  4.1569518e-03
 -3.3590719e-01
 -1.5108061e-02
  2.3562415e-01
  1.7466916e-01
  2.7177325e-02
  8.3846405e-02
 -1.2989954e-02
  5.3604417e-02
  1.3803117e+00
  4.4292898e-04
  6.8293452e-02
 -1.5098558e-01
 -6.5390140e-02
 -1.3950345e-02
 -3.5115771e-04
 -4.7530559e-01
 -8.8713668e-02
 -2.3579006e-01
 -4.0184986e-03
 -1.1316411e-01
 -2.1151665e-01
  1.8144435e-03
  4.5150615e-02
  2.2873008e-01
 -1.6810913e-03
  5.2120973e-04
  1.1127369e-04
 -2.3363624e-03
 -3.2953029e-03
 -5.6500075e-04
 -5.4308194e-01
  5.8141249e-01
 -1.3622217e+00
  4.7174236e-01
 -1.5404120e-04
 -2.1877573e+00
  1.2712902e-02
 -2.0086656e-04
 -5.8481969e-02
  3.1385396e-02
  1.5669455e-03
  7.3724159e-04
 -3.1911078e-04
  7.0632271e-02
 -2.6922897e-04
 -1.5567241e-03
  2.4786841e-02
 -1.2892568e-01
  4.6817753e-03
  3.0759531e-01
  4.1883010e-03
  5.2283136e-03
 -2.1364156e-03
  8.7966531e-04
  5.1880041e-03
 -7.7535794e-04
  1.9962192e-03
  6.1836247e-03
  1.9402038e-03
  9.5863012e-04
 -4.5194817e-01
  7.2399490e-02
 -1.5463723e+00
  1.8829675e-01
 -8.4890515e-01
 -7.0353562e-01
  1.2422989e-02
 -1.3122007e+00
 -2.8883600e-01
 -6.8066828e-02
  6.0177747e-02
  9.2672026e-03
  7.0430326e-01
  2.7638438e-01
  7.6604332e-04
  3.6146840e-01
  1.2740487e-01
  7.6523226e-01
  2.7054480e-01
 -1.1224825e-02
  8.0397494e-02
  7.8866452e-02
  4.1826412e-01
 -1.7361308e-04
 -2.0755178e-03
 -1.7125662e-03
 -1.4378401e-03
 -7.9449834e-03
  1.3323422e-01
 -1.0998737e-03
  8.8143498e-01
 -7.8765380e-01
 -7.6722747e-01
  1.1264114e-03
 -1.6299788e+00
  2.3092739e-01
  1.2690162e-03
  8.0053776e-04
 -7.5213000e-04
 -1.0373887e-02
 -1.9695989e-03
  1.2880645e-03
 -4.7976907e-02
 -8.5544621e-04
 -1.2815361e-03
 -1.3184430e-03
  4.1232756e-03
  1.9781318e-01
  2.2725823e+00
 -1.8489526e-03
  1.0435780e-03
 -2.8519854e-03
 -2.7622536e-01
  2.5400580e-03
  2.5888232e-03
 -1.6274137e-03
  6.2300160e-04
 -1.8740293e-03
  1.2969645e-03
 -2.3220249e-03
 -1.5840470e+00
 -7.5560757e-03
 -9.6052368e-05
  7.5510802e-04
  4.4685608e-01
  7.5055379e-03
  2.8684579e-03
  3.2140175e-03
 -7.9106947e-04
 -5.7528205e-03
  1.7333411e-03
  8.2616630e-04
  4.9733547e-03
  1.6126655e-02
 -4.0652427e-05
 -2.9334559e-03
  1.2398091e-03
  3.1681037e-01
  7.4104755e-04
 -2.5054778e-04
 -3.2001516e-04
  1.7187287e-03
  2.5084296e-03
  3.1827763e-03
 -2.1491321e-03
  2.0716204e-03
  5.8894436e-04
  3.2276344e-03
 -8.3375577e-04
 -1.3209479e-03
  1.7004861e+00
 -1.0094819e+00
 -5.1612370e-02
 -8.6551750e-01
  5.3847295e-01
  9.0574485e-01
  2.3709223e+00
  9.2199278e-01
  4.4765595e-02
  4.0526551e-01
 -4.7673321e-01
  2.3172221e-01
  1.7461687e-04
 -1.2847927e+00
 -5.0067759e-01
  3.6759239e-03
 -3.9683709e-01
 -3.5471603e-02
  1.4397913e+00
  3.6512032e-01
  5.9802252e-01
 -6.9247347e-01
  9.2369072e-02
  1.1659002e-01
  8.5982877e-01
  1.2353911e-04
  6.9191507e-03
  7.9237260e-03
  1.3308395e-01
 -7.6311619e-05
 -2.2426741e-04
  5.8157148e-04
  8.9949193e-05
  6.0759124e-04
 -2.9290423e-01
  9.1821057e-05
 -2.3270056e-03
  1.0776042e-03
 -1.7061847e-04
  3.6149530e-03
 -3.0393368e-03
  1.5017298e-03
  1.7767638e-03
  9.8676316e-04
 -1.2876135e-03
  1.3768236e-03
 -7.0924987e-04
  2.1790309e-04
 -1.7599218e-03
  2.9663020e-03
  1.8383891e-04
  2.3262292e-04
 -1.0779424e-03
  7.7303610e-04
  1.8843799e-03
  2.6748117e-04
  5.4831844e-04
 -1.4269933e-03
 -2.0519497e-04
 -8.3737374e-05
 -1.5402929e-01
  2.4642430e-03
  6.1702868e-04
  3.5984826e-03
  3.8353819e-03
 -3.4017616e-03
 -5.4018991e-03
 -1.7239014e-03
  2.9264905e-03
 -9.8321843e-04
  3.9470852e-03
 -7.9294210e-03
 -1.8339377e-03
  3.2422325e-04
  5.4029548e-03
 -9.0898003e-04
  1.2056362e-03
  1.5193688e-03
  1.1233885e-03
 -1.0631685e-03
 -6.4609665e-03
  4.5136609e-03
  8.6412276e-04
 -1.9490607e-03
 -4.7918686e-05
 -2.2089423e-03
  1.3503982e-03
  4.4278954e-03
  2.2950063e-03
 -1.8563521e-03
 -3.6359280e-01
  6.4033002e-01
  1.8808198e-01
  5.8990872e-01
  4.8020551e-01
  1.9458650e-01
 -2.6586805e-02
 -1.4081978e-03
 -9.4772293e-04
 -3.8613076e-04
  9.6992694e-04
  4.8317702e-04
 -6.9981534e-03
  3.7473854e-02
 -4.7284801e-02
 -1.2903529e-02
  2.0459765e-03
  6.5490755e-04
  1.9183209e+00
  5.9405708e-04
 -6.6545988e-03
 -2.6978259e-03
  3.6870204e-02
  2.9654413e-01
  1.4927152e-03
 -4.8418765e-04
 -6.4270447e-05
 -9.5224107e-04
 -1.1655416e-03
 -3.7604121e-03
  2.3340633e-02
  4.9643647e-03
  7.0304805e-01
 -8.9474255e-01
  1.6444010e+00
  8.6771411e-01
  1.2210246e+00
 -1.4102888e-02
  3.3945760e-01
 -3.9691579e-01
  8.7109515e-03
  8.7552175e-02
  8.9005604e-02
 -7.6477439e-03
  1.0658891e+00
  9.7371817e-01
  4.8759051e-02
 -8.5418141e-03
 -2.8933460e-01
  8.4577155e-01
  1.1070118e+00
 -5.6929106e-01
  4.0253934e-02
  1.3344747e-01
  1.2517347e-02
 -2.2564891e-03
  1.2094562e-03
 -1.5787995e-01
  1.0575012e-03
 -4.0931366e-02
  3.9579354e-02
 -8.5318053e-01
  1.8508245e-04
  3.4071074e-03
  1.5430669e+00
 -5.2824207e-03
 -4.9775449e-04
 -5.0163438e-04
 -2.3336899e-03
 -2.2536768e-03
 -8.3782565e-04
 -3.2763099e-03
 -2.4415855e-03
 -7.9174520e-04
 -1.6811223e-03
  5.2129186e-04
  1.1390676e-03
 -7.8108389e-04
 -8.4400940e-04
 -1.0954358e-03
  2.7865020e-04
 -2.1477884e-03
 -1.5009708e-03
 -6.8248197e-04
  4.4501884e-04
  2.3802519e-03
 -3.7763864e-04
  4.8192474e-04
  4.7893552e-04
  7.3977769e-04
 -8.3034962e-01
 -1.6670307e-02
  1.1187025e-03
  5.4214323e-01
  4.5357352e-01
 -3.8219132e-02
 -7.8714192e-01
 -6.6081184e-04
 -9.2598116e-01
  9.5687211e-01
 -5.7612127e-03
 -1.2058396e+00
 -1.6687444e+00
  6.9103509e-01
 -1.1506964e+00
  2.6451352e-01
 -6.5736204e-01
 -4.1305795e-01
  3.3848535e-04
  1.6508691e+00
 -3.7912586e-01
  1.2392502e+00
 -2.7223575e-01
  2.6101238e-01
 -2.9986143e-01
 -1.4288606e-03
  5.6104478e-04
  1.0361897e+00
  2.3311427e+00
  8.5593390e-01
 -9.8952711e-01
 -1.0493060e-01
  1.5636237e-02
  7.3580122e-01
 -9.9725789e-01
  1.9421336e-01
 -1.4052600e+00
  9.5043689e-02
 -2.0596243e-02
 -5.3865564e-01
  9.2017263e-02
 -3.9203784e-01
 -3.3489397e-01
  6.2465715e-01
  4.9085149e-01
  2.0027645e-01
  4.9748838e-01
  1.9650201e+00
  1.4775271e-02
 -1.4761434e+00
  2.2627491e-01
  8.4547675e-01
 -3.4200603e-01
 -5.0196308e-01
  6.1846769e-01
  8.3134301e-02
 -1.2183476e-01
 -2.8875634e-01
  1.4752586e+00
 -5.5937320e-02
  4.7725143e+00
 -1.2011874e-01
 -2.4848115e-03
 -8.4632728e-03
 -4.6969363e-03
 -1.5830642e+00
 -2.5225990e-03
  7.1851164e-01
  1.6096129e-01
 -1.0464367e+00
 -6.5555774e-02
 -2.2690585e-02
 -1.0413463e+00
  8.6206347e-01
  3.0799714e-01
  1.7685263e+00
 -2.4552963e+00
 -1.0458857e-02
 -1.2522328e-03
  2.9607830e-04
 -1.0870745e-01
  3.3984929e-01
 -1.7391382e-03
  3.0529753e-03
 -3.4583801e-01
 -2.7476880e-01
 -4.5383838e-03
 -2.9406012e-03
  7.1950936e-01
  6.8947780e-01
  8.9900533e-04
  1.0138966e-01
  1.1374505e+00
  1.1651085e-03
  4.0540092e-02
 -1.9738514e-03
 -3.0620754e-01
 -8.9951587e-01
 -3.5365652e-03
  1.1577753e-04
  2.5519519e+00
  7.8098398e-01
  1.8506932e-01
 -1.0877971e-02
  1.8994797e+00
 -6.4510041e-01
  9.2600748e-02
  3.8088945e-01
 -4.0928695e-01
 -2.2139752e-01
  9.7779352e-03
  1.5062140e-03
 -1.8327764e+00
 -8.6499810e-02
  1.9713491e-01
  1.0733243e+00
 -8.9529681e-01
 -1.1373898e+00
 -6.3447040e-01
 -5.4740496e-03
  1.3888596e+00
  1.2108746e+00
 -3.1718132e-01
 -4.7874925e-01
 -3.9395836e-01
 -8.4247392e-01
 -1.1412293e-01
 -1.9209145e-02
  3.1481519e-01
  1.5040617e+00
  4.7287117e-06
 -3.8836105e-04
 -1.7572870e+00
  3.3120856e-01
  3.1072800e-03
 -6.2477039e-03
 -6.7090118e-01
  1.5719274e-02
  7.4156082e-01
  1.4933834e+00
  1.3003057e-01
 -6.6269535e-01
  2.8534502e-01
  4.7155553e-03
 -7.1924675e-01
 -2.8790462e-01
 -5.7773668e-01
 -1.8943335e-01
  2.4815757e+00
 -1.1322463e+00
  3.0792660e-01
 -1.5537596e-03
  1.3013661e+00
  7.1274644e-01
 -1.3941159e-03
  7.7844039e-02
  1.9342495e+00
 -8.1713909e-01
 -9.6113840e-04
  1.2358659e-03
 -2.6465937e-01
  9.9212661e-02
 -3.1939140e-01
 -2.6241335e-01
  4.8138440e-01
 -2.5508443e-01
 -8.1193453e-01
  1.8780420e-03
 -3.7268072e-01
  1.6223723e-01
  2.0983368e-01
 -9.6793735e-04
 -2.4710252e+00
  5.1201820e-01
 -1.3881255e-03
 -9.2522735e-03
 -2.7557448e-01
  1.6073152e+00
  5.8451932e-02
  7.1977305e-01
 -1.0594361e-01
  8.5304633e-02
  1.7359567e+00
  6.5807439e-04
 -9.1392726e-01
 -1.4642285e+00
  1.1298672e-01
 -2.0465465e-01
 -1.1464865e+00
  2.6370126e-01
  5.4590148e-01
  4.5561260e-03
 -5.9862841e-02
 -2.8797036e-01
 -1.0454821e-01
 -3.4349936e-01
 -2.6960840e+00
  2.2174789e-01
  4.7853082e-01
 -3.1084957e-04
  3.8969091e-01
 -5.7354546e-01
  9.4741213e-01
  2.7125597e-01
 -1.6410944e+00
 -2.5380918e-01
 -1.9198955e-03
  1.4343913e-01
 -7.5623574e-04
 -5.6440586e-01
 -2.6536419e-03
 -3.2799467e-03
 -2.0782198e-03
 -4.8808044e-01
  2.8973227e-04
  5.7148520e-04
  9.6552968e-01
 -5.1496160e-01
 -6.5023206e-02
 -3.4195447e-01
 -7.2388726e-01
 -2.1989755e-03
  1.5749361e-03
 -8.2941510e-04
  6.3372195e-02
  3.8023312e-03
  2.0966902e+00
 -2.8318131e-01
  6.4666156e-04
  1.0016996e-03
 -8.7295979e-04
 -1.1142739e-03
 -1.3189399e-01
 -3.1156290e+00
 -1.9975952e-03
 -5.1015183e-02
  3.9902308e+00
  5.7882017e-01
  6.8513481e-03
 -4.4137464e-04
 -1.3912944e-03
 -5.0742847e-01
 -2.1348989e-01
 -1.8669529e-03
 -2.7044153e-01
  2.8507990e-01
 -4.0738142e-04
 -4.4494658e-04
  3.9126754e-02
  4.1970757e-01
 -4.7132313e-02
  8.2322460e-01
  8.8422820e-03
 -2.5730755e-03
 -1.0749131e-04
  1.2963209e-03
 -1.3208865e-03
 -2.6508152e-01
  5.1872367e-01
  1.0786931e-03
 -1.3242475e+00
 -1.1069235e+00
  2.8335430e-02
  2.7136421e-03
 -2.2924233e-03
 -1.9198792e-01
 -2.3604128e+00
 -2.0180748e+00
  1.6303481e-01
 -2.2846049e-04
 -3.3098422e-03
  6.0224593e-01
  2.0450942e-01
  4.2056203e-01
  2.5687967e-03
  3.7639739e-03
  7.0443743e-01
  1.3527843e-04
 -2.5342642e-03
 -3.2647618e-03
  9.0844607e-01
 -2.0688190e+00
 -1.3118802e+00
 -1.7689389e+00
  1.1467097e+00
 -1.1555203e-03
  3.8555604e-03
  3.2383502e-03
  2.1972582e-03
 -1.1037660e+00
 -4.3990642e-01
 -8.0104796e-03
  4.4935790e-01
 -8.2599187e-01
  2.4017696e-03
 -1.4778065e-02
  4.5952913e-01
  6.9873714e-01
  2.2856002e+00
  2.4119062e-02
 -1.5385559e-01
 -1.6852729e-02
  4.4095168e-01
  1.0244313e-03
 -3.2279527e-01
 -1.3597937e+00
  6.3286722e-01
 -3.4118197e-03
 -2.3974946e+00
  7.8736553e-03
  9.5544308e-02
 -1.9100540e-03
  3.2719806e-01
 -1.9641575e-01
  1.4824045e-01
  1.4907446e+00
  1.6406928e-01
  4.6153265e-01
 -1.7976655e-03
 -2.5489901e-03
  1.8339168e-02
  5.1270831e-01
 -3.8711252e-03
  1.6656294e-01
 -6.8317461e-01
 -2.6206166e-01
 -1.1618998e-02
  2.3874335e-03
 -1.1768433e-01
  6.0336914e-02
 -2.0223641e+00
  1.0934493e-02
  8.3410025e-01
  1.7027327e-01
  1.2410130e-02
  1.0579322e-03
 -1.0934232e+00
 -3.2438311e-01
 -9.4410729e-01
 -5.8114839e-01
  1.4521232e+00
 -4.4042954e-01
  1.0380810e-01
  1.1418312e-03
 -7.4824446e-01
 -1.0932078e-01
 -2.9966812e+00
  4.7532094e-01
  1.3576725e+00
  8.7668341e-05
 -2.9001402e-04
 -9.5460238e-03
  9.7185612e-01
  1.5380226e-01
 -2.1219179e-01
  1.6939770e+00
 -1.3999611e+00
  3.2396841e-01
  3.7077658e-02
 -1.4205484e-02
  1.8340608e-01
 -1.5850486e+00
 -3.9444503e-01
  7.1360576e-01
  7.8333771e-01
 -6.1856169e-04
 -9.8378898e-04
 -3.4507384e-04
  1.8784298e-02
  1.4051098e+00
  4.4230968e-02
  5.5045199e-02
 -2.4686992e+00
  1.8869072e-03
 -1.6279245e-04
  1.8196850e-03
 -2.6404932e-01
 -1.0938733e+00
  7.6793431e-04
  8.0177510e-01
 -1.9347051e-01
 -9.3395906e-03
  4.6292073e-04
  6.4005103e-04
 -6.3406713e-02
 -5.5491686e-01
 -3.5867140e-01
 -2.2256079e+00
  9.6607631e-01
  3.4496415e-01
 -1.7193310e-01
 -3.8151335e-02
  1.3287975e+00
 -1.3481455e+00
 -3.7582669e-01
 -5.8074015e-01
 -4.4809866e-01
 -1.0981742e+00
  1.2422794e-03
 -8.3587561e-03
 -1.1732150e+00
 -3.0745673e-01
  2.5463974e+00
  2.7602556e+00
  8.1124485e-01
 -1.2898206e+00
  9.0532422e-01
  1.1619386e-03
  3.1734768e-01
  1.6829261e+00
  1.0803878e+00
 -4.0455720e-01
 -3.1351963e-01
 -9.6591199e-03
 -9.1493055e-03
 -7.4023930e-03
  4.2747870e-01
 -1.9476059e-01
 -5.1866043e-01
 -5.3465395e-04
 -6.2140435e-01
  6.2167317e-01
  3.5292318e-04
 -3.6689345e-02
 -8.8171262e-01
  2.8623557e+00
  1.8489617e+00
  6.7969131e-01
  2.7938345e-01
  8.2303776e-04
  5.1479787e-02
 -1.1089686e-03
  1.1506452e-01
  8.4374979e-02
 -9.7159468e-02
  1.0218011e+00
 -8.2720388e-03
 -1.6123220e+00
 -4.2602205e-01
 -2.0177381e-03
  1.8759031e+00
  2.0656910e+00
 -1.3216227e+00
 -2.2608559e-01
  2.4256946e-01
 -5.5269635e-01
  1.2193386e-03
 -5.0785253e-03
 -3.3941325e-02
  1.1894767e+00
  1.2713901e+00
 -1.2921110e-01
  5.0848556e-01
  6.9910264e-01
  1.5373518e-01
 -9.7990699e-02
 -1.3146207e-01
 -8.5819429e-01
 -9.3378407e-01
  5.8668804e-01
 -1.8005894e+00
  2.4455663e-02
 -3.9373718e-02
 -3.6247164e-01
 -1.4070034e+00
  9.9461818e-01
  5.7947278e-01
 -8.3951241e-01
 -1.1881744e+00
 -8.5189450e-01
  5.5784922e-02
 -9.0583919e-05
 -2.1578863e-02
 -3.0181235e-01
  1.6215338e+00
  7.9680258e-01
 -2.3465600e+00
  2.4876001e-01
  3.1419945e-01
  2.2903841e-02
 -1.0965176e-01
  1.3674828e+00
  3.0706289e-01
 -1.9864070e-01
 -7.5438339e-01
 -1.6225711e+00
 -7.3992820e-03
 -8.4297638e-03
 -1.4724720e+00
  3.1793073e-01
 -6.5585107e-01
  2.0412135e+00
  2.5019420e-02
  3.6365926e-02
  2.7000618e-03
  2.4857515e-04
  5.0795525e-01
 -1.5486556e-01
  4.9881153e-03
 -3.2890715e-05
 -1.7661172e-01
 -3.7114310e-01
  1.1916730e+00
 -1.2383993e-01
 -2.1403287e-01
 -9.5391721e-01
 -5.6463659e-01
 -4.5500323e-01
 -1.4544201e+00
 -2.5320298e-03
 -1.8682918e-05
 -1.1962245e-03
  1.4272594e-01
 -1.5093468e-03
 -5.4009270e-04
  1.6512838e-03
 -2.2222328e-01
  3.4188303e-01
  2.2677183e-01
 -1.0736316e-04
 -1.2966031e-02
 -2.8255349e-01
 -6.3053322e-01
  4.7928127e-03
 -1.3231440e+00
  3.1816801e-03
 -3.4369458e-04
  1.0838492e-03
 -1.4331670e+00
  4.4328415e-01
  6.0899626e-02
  7.6522212e-03
 -1.9589478e-01
 -1.5514013e+00
  7.0470874e-03
 -6.2319664e-03
  1.2760768e+00
 -1.5780483e+00
 -1.4342892e+00
 -1.9762458e+00
  1.8244400e+00
 -1.3465492e-01
  1.0870869e-03
 -2.6866786e-02
 -9.8816797e-02
 -4.3364248e+00
 -9.3138247e-04
 -4.2009627e-04
  7.9518366e-01
  1.1356715e+00
  1.4986608e+00
  2.7987611e-04
  3.9412153e-01
  1.2336527e+00
 -1.5018319e+00
  1.0912758e+00
  7.9168177e-01
 -9.3677994e-03
 -5.1203300e-03
 -3.4040786e-04
  1.9380435e+00
 -2.3738487e-01
 -4.2482670e-03
  3.3511003e-04
 -1.2559930e+00
  1.2610157e-01
 -1.0241324e-03
 -1.0488957e-02
 -3.0679524e+00
  1.7280730e+00
 -7.1112295e-03
 -1.0808821e+00
 -9.4368219e-01
  6.9534564e-03
  1.5407382e-01
  5.2222074e-03
 -1.5986536e-01
  2.0296256e-01
  2.5743663e-01
  7.6455279e-04
 -4.9997517e-01
  1.0579823e+00
 -2.4525216e+00
  4.9095214e-03
 -5.5046156e-02
  7.4230224e-01
 -1.7991555e-01
 -8.6061323e-01
  1.5545868e+00
  9.2709088e-04
  6.6602707e-04
 -2.4876189e-03
  5.0757255e-02
 -1.0955455e-01
 -3.0146080e-01
  1.9068815e-03
 -4.8919383e-02
  2.3206083e-01
  1.2892979e+00
  4.0234679e-01
 -8.7769449e-01
 -4.8328975e-01
  6.9177151e-01
 -6.0690796e-01
  1.3880708e+00
 -6.2225528e-02
 -2.0266678e-02
 -2.3605004e-03
 -1.9736697e-01
  6.1079212e-02
  4.1378859e-02
 -5.0450978e-03
 -1.5019977e-02
  8.4244949e-01
 -2.2722729e-01
  1.8306686e-05
 -2.9850597e+00
 -1.7412989e+00
 -9.6871692e-01
  1.5375860e-01
  1.0269104e+00
  2.0818172e-01
  2.4243346e-01
  6.9494261e-03
  3.1896025e-02
 -1.0689318e-01
  1.1459324e+00
  1.9641928e-01
 -8.1822944e-01
  7.5071925e-01
  9.8844904e-01
 -5.2212649e-03
 -1.6397836e+00
 -6.7324370e-01
 -3.4707242e-01
 -1.3326433e+00
 -5.5565161e-01
 -1.0205770e-01
 -6.5650505e-01
  2.4374330e-03
 -3.3621380e-01
  9.8501503e-01
 -1.3761244e-04
 -4.4206767e-03
  7.4002796e-01
 -7.5211477e-01
 -6.7665149e-03
 -2.0332181e-01
 -3.9727455e-01
  1.8754232e-01
  2.4211087e+00
  2.9227679e+00
  6.3868597e-02
  2.7142838e-02
  4.4189366e-03
  2.1046128e-03
 -3.5276604e-01
 -2.7440479e-03
 -1.9393408e-03
 -2.6196931e-03
  1.6319313e+00
  7.8490871e-01
 -7.4407255e-04
  8.4568100e-04
 -1.5000947e-01
  1.0890134e-01
  2.4949087e-01
  3.3009436e-02
  2.4529212e+00
 -1.1407214e-03
 -1.0775210e-01
 -1.6389077e-04
 -1.8917114e-01
 -3.8749423e-02
 -2.4370089e-02
 -6.7303021e-04
 -4.5978698e-01
 -8.7773111e-03
 -4.4041339e-01
 -1.4995161e-01
  6.0128760e-01
 -6.0879201e-02
  4.8897853e-01
 -1.0604107e+00
  1.5738825e+00
  1.0007847e-01
 -3.1262553e-05
  8.4890006e-03
 -1.3601810e+00
 -3.4535041e-01
  1.3474233e-01
  4.0973960e-03
  9.5935263e-02
  4.6046275e-01
  6.0000217e-01
  4.4795059e-04
 -2.6420590e-01
 -2.4853784e-01
  1.4793301e+00
  4.8908573e-01
 -8.3359563e-01
  3.9039329e-03
  2.1393208e-01
  6.1959676e-02
 -2.1883116e+00
 -6.7420653e-04
 -4.1868859e-03
  1.1083091e-03
  1.1796343e+00
  1.0521367e+00
 -1.1580494e-03
 -2.5390041e-01
  3.6142692e-02
 -2.6940545e-01
  9.4249892e-01
  7.3843539e-01
  3.3646092e-01
 -1.1975943e+00
 -4.5252445e-01
 -2.3542612e-03
 -8.8342637e-01
 -8.6297667e-01
 -8.0948099e-03
 -1.4716671e-03
  9.9118032e-02
 -1.2755287e+00
 -7.1216214e-01
  2.2040027e-04
  1.5949857e+00
 -2.8059887e-02
  1.9656415e-01
  2.1506799e-02
  4.2685304e-02
 -1.2564119e+00
  5.6350578e-02
 -8.8059121e-01
  1.5502403e+00
 -2.4116447e-02
  2.6543051e-01
  1.5455779e-03
 -3.7781566e-02
 -2.9968342e-01
 -5.0318968e-02
 -2.7585784e-01
  1.4460093e+00
  4.2749339e-01
  1.9790702e+00
  6.9748133e-01
 -9.0559703e-01
  8.0024660e-01
  1.5914313e-03
  1.8311918e-02
 -7.5298893e-01
 -5.3581268e-01
 -8.1756455e-04
  1.6855013e-03
 -1.5291785e-01
  1.7135869e+00
  1.0999283e+00
  2.3231348e-03
  4.6533418e-01
  6.8011856e-01
 -5.0929070e-01
  1.3932704e+00
 -1.4984475e+00
  8.2761246e-01
 -3.6357783e-02
 -3.5408911e-01
 -8.2383388e-01
 -2.8841710e-01
 -5.2512306e-01
 -1.3892840e-03
 -5.3241456e-01
  2.1257932e+00
 -1.9311962e+00
 -7.0243299e-02
  3.2148927e-01
 -4.3429047e-01
  1.0337790e+00
  1.8403391e+00
 -1.2026590e+00
  1.1893270e+00
 -3.3087674e-01
 -3.8783690e-01
  1.3424435e-01
  5.2948976e-01
  8.6950959e-04
 -4.6315724e-01
 -1.0003874e+00
 -2.8514687e-02
  1.9296603e+00
 -4.4181128e-04
  6.3234651e-01
 -4.9049628e-01
  1.2017995e+00
  1.7284770e+00
  1.2004917e+00
 -1.0476278e-04
 -3.4947418e-02
 -2.6550081e-03
  2.7633369e-01
  9.5490034e-04
 -1.0079384e-03
  1.4680432e-03
 -1.8080660e-03
  3.3088148e-02
  1.9419014e-03
  2.7362010e-03
 -5.1409420e-02
  1.2072958e+00
  8.1653869e-01
  9.1698992e-01
  3.3062309e-01
 -8.7129204e-03
 -8.2963053e-04
  2.4263906e-01
  4.7601143e-01
  5.4928786e-01
 -1.1218542e-03
 -4.2427388e-01
 -8.2508063e-01
  1.3449839e-01
 -4.7924537e-02
 -1.0137609e-03
 -1.9061564e-01
  9.8181760e-01
  2.4397796e-01
 -6.2068814e-01
  2.7062401e-01
 -2.2707233e+00
 -8.3383965e-01
 -1.2185913e+00
  4.9218127e-01
  3.4560923e-02
  2.6926221e-03
 -4.2062234e-03
 -6.6167104e-01
  2.5135183e+00
  6.8907809e-01
  1.4689318e-03
 -2.2078921e-01
 -1.0521337e+00
 -1.5769981e+00
 -7.7059507e-02
  1.0468196e+00
 -1.6868680e+00
  1.7974292e-01
  3.2816544e-01
  2.1939433e+00
  2.6158068e-01
  1.3038889e-03
 -2.9509476e-01
 -3.4988150e-03
  6.1766863e-01
 -8.6413193e-03
  5.9765535e-03
 -1.3461014e+00
 -1.8623154e+00
  1.8253437e-01
  1.3329374e+00
 -9.2282259e-01
  1.2074049e-02
 -3.0975392e-01
 -3.5396233e-01
  2.1868144e-01
  3.0209494e-01
 -7.5623329e-04
 -2.4244171e-03
 -1.0414525e+00
 -7.5682902e-01
  1.4401151e+00
  2.0827507e-03
 -6.6978616e-01
  1.7738362e-01
 -5.2616525e-01
 -1.3120854e+00
  7.7578589e-02
 -4.8942393e-01
 -2.8381318e-01
 -4.9477533e-01
 -6.6128760e-03
  1.4606412e-02
  1.3868553e-04
 -9.5395446e-02
 -3.9707699e-01
 -6.1351061e-01
 -3.8444275e-01
 -2.4318930e-03
 -7.3253304e-01
  1.2605426e+00
  1.6914997e+00
 -1.2434349e+00
  6.3675976e-01
 -8.7558806e-01
  1.8086883e-01
  2.6095721e-01
 -8.1529760e-01
  1.1028726e+00
 -4.0444122e-03
 -5.3398635e-02
 -1.8658261e-01
 -7.4428684e-01
  1.4568813e+00
  2.9526791e-03
 -1.0530199e+00
  2.7688909e-01
  4.7890025e-01
  1.2665753e-01
 -5.1603127e-01
 -2.2438876e-01
 -6.3398027e-01
 -4.9312925e-01
  2.9669198e-01
 -8.6729653e-02
  3.0216207e-03
  5.6311822e-01
 -5.7801902e-01
 -4.0707022e-01
  3.0491236e-03
 -1.3941238e-03
 -1.7614394e+00
 -4.7731331e-01
  3.4619525e-02
  3.9262933e-01
 -1.4357336e-01
 -9.7913653e-02
 -2.0546963e-02
  3.1239682e-04
  2.7222270e-01
 -2.7182555e-01
  1.6930702e-01
  7.8983545e-01
 -2.4260404e+00
  1.0895689e-01
 -3.1840721e-01
 -1.3043683e-02
 -3.2117000e-01
  5.9904528e-01
  1.2755616e+00
  1.2290157e+00
 -5.0132811e-01
 -7.8060612e-02
  1.6585321e-03
 -1.5092437e-03
 -2.4254178e-03
  1.0403354e-03
  4.8878544e-04
  2.3261663e-03
 -2.7897971e-02
 -1.1927484e-03
  1.5002235e-05
  2.1338009e-04
  2.4429337e-05
 -8.6722273e-01
 -3.1233307e-03
  2.7666245e+00
  1.7724144e-03
  5.2380539e-04
 -1.2977540e-01
 -7.1540438e-02
  2.0245387e-01
 -1.6026717e-01
  5.9343901e-02
 -2.3859707e-03
  1.5680141e+00
  3.9225915e-01
 -1.8945189e-01
 -4.5838286e-03
  5.7456315e-02
  7.0121002e-01
  4.0229955e-01
  3.4997019e-01
  1.3785344e+00
 -7.8210348e-01
  5.9472350e-03
  3.0956347e-02
  1.3482560e+00
 -4.7929493e-01
  1.0801612e-03
  5.7306871e-02
 -1.4314975e-01
 -1.1961136e-02
 -4.1929847e-03
  1.8841760e-03
  9.5589971e-03
  6.8030722e-02
 -1.9857897e-01
  5.7964444e-01
 -6.1165953e-01
 -9.8661575e-03
 -4.4783571e-01
 -5.5657845e-02
  4.4443399e-02
 -9.7162805e-02
  6.0327402e-03
 -4.6223695e-03
  7.5631446e-01
  4.6582016e-01
 -1.6788830e-03
 -2.1686226e-03
 -9.9700952e-01
 -1.4878410e-01
  2.4960836e-04
  4.4046810e-01
 -1.8535751e+00
 -2.1787104e-01
 -1.7782847e-03
 -5.6780558e-03
  5.3819448e-01
  4.5518851e-01
  2.1793131e-02
  4.6552578e-01
 -3.8044531e-02
 -1.6019886e-03
 -4.6908990e-03
 -1.7295829e-03
  1.3127807e-01
  2.4946702e-01
 -1.0903459e+00
  1.8754479e+00
  1.0790606e+00
 -1.1689654e-02
  9.5641895e-05
  5.4603040e-02
  6.8533134e-01
  2.2400182e-01
  1.5197518e-01
 -8.8364827e-03
 -9.9323636e-01
  1.0241009e-03
 -2.9906863e-03
  7.1759609e-04
  1.1555159e+00
  2.9229328e-01
  9.8867521e-02
 -2.0024791e+00
 -1.0692968e+00
  7.7501580e-02
 -3.4374562e-01
 -3.1469902e-01
  3.5913277e-02
  3.3884978e-01
  3.1159487e-01
  5.3617519e-01
  4.1485247e-01
  5.1040506e-01
 -1.8683723e-01
  8.6853973e-04
 -1.4491346e+00
  2.5295997e-02
  1.9271303e+00
 -1.5084425e+00
 -2.5431957e+00
  2.8902999e-01
  2.1659045e-01
  5.2457739e-02
 -1.9290774e-01
  4.0894598e-01
 -1.1450136e-03
  1.6260087e-03
  6.3814420e-01
 -1.3799484e-01
 -1.0657698e-03
  7.8002212e-04
  4.1922063e-01
 -2.7616274e-01
  6.8808270e-01
  2.1141978e-01
 -1.1353438e+00
  2.7564118e-04
  6.3586375e-04
 -5.7015225e-04
  1.3014424e-03
 -3.1287023e-01
 -1.4913949e-03
 -4.3968800e-03
 -8.5031599e-01
 -5.6693286e-01
  9.3776256e-02
 -6.3648081e-04
  7.1639645e-01
  5.0009370e-01
  1.3283949e+00
  1.3832189e+00
 -4.6429276e-01
 -6.0465705e-04
 -2.1851694e-03
 -6.2577194e-04
  9.5205189e-04
  2.7850127e-05
 -5.0618267e-04
 -1.5808927e-03
  7.4270193e-04
 -4.6020318e-03
  5.2215933e-04
  1.1197915e-03
  1.6150887e+00
 -5.3219751e-02
  6.9955247e-03
 -9.0867449e-03
 -1.2018277e-03
  4.9193278e-03
 -4.6689878e-05
 -9.3603664e-04
 -8.7619788e-04
 -1.3896561e-03
 -5.6730560e-03
  6.5522385e-04
 -2.3704042e-01
  9.0946025e-01
  3.2764953e-01
  6.2440353e-04
  2.0676813e+00
 -2.8730625e-01
  1.2567101e-01
 -1.5986092e-01
 -3.4319934e-01
  7.4411451e-05
 -2.5575198e-03
  3.2411527e-04
  1.2786275e-03
 -1.3277612e-02
 -1.9018402e-03
  1.1824880e-03
 -7.1736801e-01
  4.8611367e-01
  9.4172294e-04
  7.3846034e-04
 -1.2262288e+00
  1.7577763e+00
  7.8462489e-02
  9.5155352e-01
 -6.1247122e-02
  6.5650756e-04
  7.3717901e-04
  1.7794146e-03
 -2.1608845e-04
 -9.6538523e-04
  8.3230046e-04
  9.7340071e-01
 -3.8627869e-01
  3.4872862e-03
  1.1501804e-03
  2.2773162e-02
 -1.2389122e+00
  2.9509651e-02
 -7.8655735e-02
 -4.5825505e-01
  5.3221959e-01
 -5.3903233e-04
 -8.8749388e-05
 -1.6901718e-03
 -2.5193435e-03
 -1.0321910e-01
  2.7382094e-04
 -1.2611163e-02
 -3.9524105e-01
 -8.1812285e-02
 -7.1764615e-04
  2.0145371e-03
 -3.6411980e-01
 -3.5934466e-01
 -4.0004991e-02
 -3.7738064e-01
 -6.5327424e-01
  2.3818763e-03
 -2.5750737e-04
  3.3499897e-04
 -2.0483318e-03
 -2.9812953e-01
 -1.1595059e-03
  5.0675929e-02
 -2.0549181e+00
 -2.9846997e-04
  3.1958476e-01
  7.0984570e-05
 -1.2336609e+00
 -1.2607251e+00
  7.6353806e-01
  7.1237475e-01
  1.7170523e-01
  1.0135011e-03
 -5.1669530e-03
 -1.0159341e-01
 -5.3294370e-04
  1.0431842e-04
  9.0289614e-05
 -4.8383977e-03
 -6.5321934e-01
 -3.9679572e-01
 -3.6215637e-04
 -2.4300678e-04
 -1.3278559e+00
 -3.1096846e-01
  2.9043582e-01
 -3.1306601e-01
 -5.0091660e-01
  1.4590322e-03
 -6.5813097e-04
 -2.6869001e-03
  7.4875099e-04
 -4.6167364e-03
  2.2923201e-03
  1.1750926e-03
  6.9588520e-02
 -5.9507951e-02
  2.5514057e-01
 -9.2536933e-04
 -1.2173784e+00
  7.6994665e-02
  3.3036929e-02
 -4.3077025e-01
 -6.0745603e-01
 -6.1599314e-01
  4.0115603e-05
  5.1159334e-01
 -1.3392867e+00
 -6.4338791e-01
 -9.2217594e-04
 -3.8432652e-01
  6.8136305e-01
 -1.0715766e+00
 -4.5180738e-01
 -3.2076289e-04
  6.4320880e-01
 -9.3827856e-01
  3.9061990e-01
 -9.5611072e-01
 -5.0561786e-01
 -6.1491942e-03
  2.0547470e-03
  1.2846472e-03
 -2.9923001e-01
  1.3222190e-03
 -6.8733618e-03
 -2.0548170e-03
 -1.1615913e-03
  6.7875406e-04
 -7.8209309e-04
  7.3133551e-02
 -1.4066558e+00
 -1.2546681e+00
 -6.5023277e-04
 -1.0218747e+00
 -3.2834524e-01
 -1.5342639e-01
 -2.6759258e-03
  1.7526416e-02
 -1.0717774e-01
 -9.6374065e-01
  2.0099527e-03
 -2.4829435e-01
  4.0727964e-01
  3.7096393e-01
 -5.8857191e-01
  3.9050465e-03
  4.8964271e-01
  5.0272268e-01
 -1.9800640e+00
 -1.5777588e+00
 -4.9452022e-01
 -6.5162843e-01
  9.3182465e-03
  2.2887927e-01
 -2.5434414e-01
 -4.5816316e-03
 -1.0190820e-03
  1.4234055e-03
 -1.5284305e-03
  7.8106362e-01
 -1.9438894e-03
 -2.3982201e-03
  1.6637381e+00
 -2.9844868e-01
 -1.0227224e+00
 -4.7049007e-01
 -4.6076810e-01
 -7.6469500e-03
 -6.1450287e-04
  1.6283244e-03
 -9.7585332e-01
  1.0428822e-03
 -1.0622409e-03
  3.4738166e-04
  1.7865509e-03
 -4.8778465e-01
 -4.7103640e-01
  2.6274000e-03
 -1.2224083e-01
 -1.2177151e+00
 -1.3044899e+00
  1.2260983e+00
 -1.7978233e+00
 -1.3541497e-03
  6.1162084e-04
  6.9196434e-03
 -1.3394395e-01
  1.5715908e-01
 -3.4538045e-04
 -2.6517797e-01
  7.3284650e-01
  2.2684225e-01
 -4.0799160e-03
 -8.3759514e-04
 -2.4279012e-01
 -4.2607790e-01
  1.4025740e-01
  1.6952381e-01
  4.8118359e-01
 -1.4617576e-01
  4.1834362e-02
  3.0902225e-01
  9.9495953e-01
 -6.0563707e-01
 -1.0286806e-03
 -5.4890221e-01
 -7.8945678e-01
 -2.7768621e-01
 -7.1272486e-01
  4.2251870e-04
 -2.2693388e-01
  1.0008334e+00
  2.8201160e-01
 -1.6905270e+00
  2.1406147e+00
  1.5531419e-01
 -4.2212903e-02
 -4.8584008e-01
  7.6283973e-01
  4.6393776e-01
 -9.6721796e-04
 -4.9959294e-02
  9.0894306e-01
 -5.6095421e-01
 -3.9901063e-02
  4.3979604e-04
  9.4681668e-01
  1.5545821e+00
 -8.2360256e-01
 -6.2972051e-03
  1.1845257e+00
  4.5510989e-02
  2.0450354e-01
  7.6004930e-02
 -6.3936108e-01
  8.4830896e-04
 -1.6836963e-03
  4.1053854e-03
  3.1823692e-01
 -3.4673607e-01
 -4.2869464e-01
 -6.1651417e-03
 -1.6652770e+00
  7.5762713e-01
 -9.0392554e-01
  9.8434168e-01
 -9.2929527e-02
  5.7141925e-03
  5.4798904e-04
  1.3669822e-03
 -3.7079310e-01
  1.1050915e+00
 -5.5570966e-03
  3.9881826e-03
 -9.1142434e-01
  9.3961883e-01
  2.7410879e-05
 -2.2980261e-03
 -2.6889306e-01
  2.7901757e-01
  1.1504179e+00
  1.0929323e-01
 -9.1831499e-01
  2.1363788e-04
  8.8167554e-03
 -1.4490181e-03
  6.8773015e-04
  1.8389717e-03
  2.9801985e-04
 -2.2547699e-03
 -3.0013049e-02
  4.5184088e-03
 -2.3755275e-03
 -1.2860440e-03
 -3.4596205e-01
 -1.5208699e-01
 -6.9006467e-01
  2.7779121e+00
 -1.7434770e-03
  1.2579276e-01
 -5.9568537e-03
 -6.3533068e-04
 -2.2499987e-01
  4.3244739e-03
 -4.4049873e-04
  4.6047149e-03
  1.9262335e-03
 -1.3256649e-02
  7.2553433e-02
 -8.9108181e-04
 -4.3460733e-01
  1.3969110e-01
 -5.3961647e-01
  4.0027922e-01
  1.0876248e+00
  1.1862422e-02
  1.7677456e-01
  2.0082618e-04
 -1.6942814e-01
  1.4826584e+00
 -7.7448140e-06
 -3.2635420e-03
 -4.8775408e-01
 -1.0423561e-03
  5.7334273e-05
 -3.3660658e-04
 -7.8212976e-01
 -5.8648768e-03
 -6.3739615e-03
 -8.5555738e-01
  4.1973707e-01
 -6.5575945e-03
 -1.0673741e-02
 -5.1559699e-03
  5.2199773e-02
  1.2172919e-04
 -7.6843589e-03
  8.5789198e-03
 -4.2350075e-01
 -2.1879816e-01
 -8.0129001e-03
  4.8490781e-03
  1.1647645e+00
 -1.1011577e+00
 -2.2640682e-03
  8.4163666e-01
  8.2720909e-03
  7.9488403e-01
  1.2337463e-01
  1.4195448e-03
 -4.5195144e-01
  5.2720171e-01
  3.5508608e-03
 -1.0635800e-03
  1.1186092e+00
  6.6845673e-01
  1.9964191e-01
 -3.8030918e-03
  4.6435341e-02
 -2.7199295e-01
  4.7469741e-01
 -4.8425996e-01
 -1.3374513e-01
  1.1547492e+00
  9.0169645e-04
 -4.7908252e-04
  3.5147503e-01
  4.7852722e-01
 -2.3331726e-03
  3.5612800e-03
 -6.3427991e-01
  1.3390306e+00
 -4.0868795e-03
 -5.0068111e-04
 -1.0067761e+00
  1.4742111e-01
  2.1437557e+00
  3.2360669e-02
  6.5438886e-04
 -6.5063816e-01
 -4.0551714e-04
 -3.8550973e-03
 -2.5931102e-01
 -4.5554996e-01
 -3.6010654e-03
 -3.6204120e-03
 -4.0457308e-02
 -1.3320652e-01
  2.7165896e-01
  4.2286247e-04
 -7.8391349e-01
  1.8990959e-01
  1.3094358e+00
  2.6053691e+00
 -4.0923696e-02
 -3.2729264e-02
  1.1366139e-01
 -1.0560434e-02
 -4.1191420e-01
  6.8438846e-01
  3.1510866e-03
 -1.3698256e-03
  1.4823106e-01
 -6.4527512e-01
 -1.6320005e-01
  6.7868957e-04
 -4.1200724e-01
 -7.3545575e-03
 -1.3091830e+00
 -4.6480548e-01
 -8.4068492e-02
  4.6828941e-02
  4.6828941e-02
  4.6828941e-02
  4.6828941e-02
  4.6828941e-02
  2.0539802e-01
  2.0539802e-01
  2.0539802e-01
  2.0539802e-01
  2.0539802e-01
  1.0675663e-01
  1.0675663e-01
  1.0675663e-01
  1.0675663e-01
  1.0675663e-01
  4.8350923e-02
  4.8350923e-02
  4.8350923e-02
  4.8350923e-02
  4.8350923e-02
  1.6000099e-02
  1.6000099e-02
  1.6000099e-02
  1.6000099e-02
  1.6000099e-02
  1.0698410e-01
  1.0698410e-01
  1.0698410e-01
  1.0698410e-01
  1.0698410e-01
