nep4_zbl 4 Li La Zr O 
zbl 0.9 1.8
cutoff 6 4 98 30
n_max 4 4
basis_size 8 8
l_max 4 2 0
ANN 30 0
  4.4883487e-01
 -1.4489746e-01
  4.3306029e-01
 -2.8851447e-01
 -9.1094203e-02
  2.7420886e-02
  4.3878922e-01
 -5.3223152e-02
  1.0935416e-01
  1.4149426e-01
  5.0756544e-01
  4.4285172e-01
  2.7313229e-01
  1.7506279e-01
 -1.8608335e-01
  5.9143588e-02
  8.6832911e-02
  2.5924984e-01
 -9.0122610e-02
 -1.3198502e-01
  3.8250062e-01
 -5.7291161e-02
  1.9245254e-01
 -6.2398905e-01
 -3.8915810e-01
  8.0139548e-02
 -2.2442137e-01
 -1.1299283e-01
 -4.6976107e-01
 -1.8379995e-01
 -1.1319988e-03
  2.0411096e-03
 -3.6165179e-03
  6.3723382e-03
  4.3894928e-03
  7.7154842e-04
 -3.0010665e-04
 -2.0113154e-03
 -2.1338831e-03
 -1.7042235e-03
  5.5637915e-04
  4.1277492e-03
  4.1560137e-01
  1.4604218e-03
 -5.6518852e-03
 -1.3646159e-03
 -1.6753041e-03
  3.2896689e-05
 -6.1600032e-05
  2.1907664e-03
 -3.7973272e-03
 -2.0471520e-03
 -6.3700794e-04
 -3.6108191e-04
 -4.4426782e-04
  1.3394768e-03
  1.1806152e-03
 -2.6263918e-03
  3.7784234e-01
 -3.5204189e-03
  3.1264682e-04
  5.5828750e-05
 -4.1489941e-03
  1.3191441e-04
 -2.2095621e-03
 -1.9500835e-03
 -1.8077745e-03
  4.8962012e-03
  4.8628383e-04
 -9.4145653e-04
 -3.0527747e-04
 -1.3050443e-03
  5.0522517e-03
 -2.3374388e-03
 -1.4385552e-03
 -3.5198899e-03
  3.0049931e-03
  3.4178456e-04
  6.8083094e-03
  1.4706767e-03
 -1.2049332e-02
  1.0680003e-04
  1.0442678e-03
 -1.0486587e-03
 -9.2927343e-04
  3.1217694e-04
  3.2124433e-03
 -1.8318791e-04
  6.5738661e-03
  1.2865330e-03
 -4.0017322e-01
 -9.3445277e-01
 -1.0247512e+00
 -2.2268593e-01
 -1.9500079e-02
 -7.2268602e-03
 -4.7172990e-02
  2.6264489e-02
 -4.6516728e-01
  2.3633899e-02
 -3.7571284e-01
  1.1813676e-03
 -1.1431265e-01
 -4.8024935e-01
  1.1158457e-01
 -2.3014922e-01
  1.1136137e-02
 -3.6633268e-01
  3.0034827e-03
  7.7810988e-02
 -1.4478432e-01
  2.6145188e-02
 -1.7353052e-01
  2.9528263e-01
  1.3792513e-01
  1.2395158e-03
  6.2957313e-03
  4.4692461e-03
  1.7199541e-03
  2.4010818e-03
  5.8997154e-02
 -6.8258651e-02
 -2.4277671e-01
 -3.4472132e-03
 -4.2837290e-03
 -1.3905757e-03
 -4.7648665e-03
  1.5947823e-03
  2.4931405e-03
  2.3057146e-03
 -1.2497270e-03
 -1.5367146e-04
 -1.0186159e-03
 -3.5492526e-03
  4.9100756e-03
  2.0039510e-03
 -1.9123972e-03
  1.1527204e-02
 -1.5881649e-03
 -6.0617933e-03
 -1.4176278e-05
 -9.4618401e-05
 -3.3174292e-04
 -7.9329284e-03
  1.1592868e-03
  3.9897189e-03
 -4.1226353e-03
 -6.4331671e-04
 -1.5802373e-03
  1.3391129e-03
 -3.5683308e-03
 -7.8741536e-03
 -5.2149018e-04
 -1.2912470e-03
  1.0484994e-03
  5.7086778e-01
  1.1182253e-04
 -1.3294345e-03
 -1.0477858e-04
  3.4724767e-03
 -1.0035170e-03
  5.1928527e-04
  5.7688779e-03
 -2.8318039e-03
 -4.2475555e-03
 -1.6348666e-03
 -5.4904465e-03
  1.5538533e-03
 -1.6259890e-04
  2.8227807e-03
  5.7623110e-04
 -1.9529952e-03
 -1.1751041e-04
  3.0192155e-03
 -7.8770169e-04
 -6.2629714e-04
  5.1135547e-04
 -8.1506156e-04
 -7.7897456e-04
  1.0684023e-03
 -4.1572978e-03
  1.6959304e-03
  5.8657150e-03
  1.6288931e-03
  9.3362329e-04
 -6.8055280e-03
  1.5238079e-01
  4.5633907e-04
 -5.5844960e-04
 -2.5888000e-02
  4.5571583e-03
 -1.4109669e-04
  5.6365235e-03
 -2.7135576e-03
  2.7026592e-05
  7.5805497e-06
 -3.9947019e-03
  2.1569834e-04
  8.3157199e-04
  5.9007533e-04
 -2.3698339e-03
 -1.3336629e-03
  1.2388146e-03
  1.1422146e-02
  3.6932859e-03
  6.1632821e-04
  2.9298489e-03
  8.8885688e-05
  2.1542960e-03
  9.2739676e-04
  2.3140835e-03
 -3.2382712e-03
  2.6783077e-02
 -1.8354246e-03
  5.3808338e-04
  5.7263311e-04
 -1.1084726e-04
  2.3852018e-04
  4.2612441e-03
  8.7236374e-04
 -5.3035482e-03
  2.0487804e-03
  1.1775594e-03
 -5.3591370e-03
  4.3806103e-03
  5.7022041e-03
  1.6143604e-03
 -7.6623890e-04
 -4.2661382e-03
  2.7654781e-03
  4.5324527e-03
 -1.4560280e-03
  9.3298336e-04
 -3.1761295e-01
 -3.5699399e-03
 -3.6840697e-03
 -7.3081255e-04
  9.1428104e-05
 -1.2476026e-03
 -7.6202402e-04
 -6.4221187e-03
 -9.8539572e-03
 -6.0263164e-03
  3.9805300e-03
 -7.1012106e-04
  6.3149334e-04
 -2.6360468e-03
  8.4230769e-04
  7.2881969e-04
 -2.6287334e-03
  1.2158531e-03
 -5.4256804e-04
 -1.7247547e-01
  1.4645804e-03
 -2.0188598e-03
 -2.0827443e-04
 -6.6954056e-03
  3.3499959e-03
  2.3527438e-04
  1.8572025e-03
 -2.7927011e-04
  2.6846731e-03
 -3.1996688e-03
 -1.7171814e-03
  1.1600436e-03
  3.3181151e-03
  2.8639745e-03
 -9.1245689e-04
 -2.0861027e-03
  3.1409520e-03
  1.9893846e-01
  5.7758084e-03
 -4.9005353e-01
  2.8993425e-01
 -1.5448113e-03
  2.6211587e-03
  7.9672057e-03
 -7.6074764e-04
 -4.1689486e-03
  3.3241466e-03
  1.5931055e-02
  1.2223041e-02
 -7.2186464e-03
  1.0151630e-03
  1.8803810e-03
  3.1262261e-03
  1.3509741e-03
  1.7695947e-04
  2.6706377e-01
 -1.1826933e-03
  5.3310115e-04
 -2.7181082e-03
 -5.3516997e-04
 -1.8713439e-03
  5.6047272e-04
 -4.8206011e-03
 -1.1385101e-04
 -3.3929753e-03
  2.2664890e-03
 -1.4052599e-02
 -1.2014335e-03
 -4.0873997e-02
  1.8413459e-03
 -5.9139956e-02
 -1.4759524e-03
 -5.9429172e-04
 -3.4726271e-04
  6.3476188e-04
  4.7559543e-03
 -1.5003331e-03
  3.3691847e-03
  3.4333806e-04
 -6.0593931e-04
  8.7677978e-04
  9.3188894e-04
  1.0862940e-03
  1.9959921e-03
 -2.0168624e-04
 -3.8262140e-03
 -2.8363450e-03
  3.6272476e-03
  2.2833324e-03
 -9.0604601e-04
  7.5594109e-04
 -3.4146402e-03
 -4.0313443e-03
 -3.5958637e-03
 -1.8963307e-04
 -5.0051119e-03
  4.3456143e-04
  2.1073506e-03
 -4.2071709e-04
  3.7492272e-03
 -1.5605389e-03
 -4.7580712e-03
 -1.5839100e-03
  1.3567880e+00
 -6.7743035e-03
 -2.1960232e-03
 -5.8438997e-03
 -7.1746326e-05
  3.4037480e-04
  9.7210548e-04
 -7.5289392e-04
  2.3425883e-02
  3.7702727e-03
  2.9075171e-03
  1.0973182e-04
 -1.1781927e-02
 -9.6622662e-04
  1.2410735e-03
  2.3927270e-03
 -1.9044760e-03
  8.2436024e-04
 -3.7450069e-03
 -2.7027614e-03
  3.4934661e-04
  4.3239393e-03
  6.8501360e-04
  4.7805416e-03
 -2.0357814e-02
 -2.3158004e-03
 -8.9491409e-01
  4.4005507e-04
 -3.3383090e-03
  8.6457410e-04
  2.1630670e-03
 -1.9836770e-03
  3.2847712e-04
  3.0627511e-03
  1.5265688e-03
  2.2963730e-03
  1.2597700e-03
  3.2132613e-03
 -3.5247155e-03
 -3.6816450e-03
  5.8254198e-04
 -2.5326214e-04
  8.2950544e-04
  5.8293325e-04
 -4.5844659e-04
 -2.0518149e-03
 -2.3765063e-04
 -1.1530547e-02
  1.5711235e-03
  1.8469568e-03
 -1.5352143e-03
  9.2271523e-04
  2.8639401e-03
 -3.0185445e-04
  1.2755878e+00
 -2.8411067e-01
 -2.9214639e-03
 -1.4400800e-01
  9.5603097e-04
  1.6376708e-03
  5.4103672e-03
 -1.3058342e-02
 -4.0081474e-03
 -4.9980935e-03
  1.0445637e-02
  1.1312545e-04
 -2.2449188e-03
  5.3966552e-04
 -1.5766781e-03
 -5.7425094e-04
 -9.3576149e-04
  2.3957329e-04
 -8.9510456e-02
 -2.6248931e-03
  9.6358899e-03
 -1.6177152e-03
 -8.9920801e-04
 -1.4966087e-03
 -3.8465130e-04
 -4.0290157e-05
  3.0765033e-03
 -1.3343292e-01
  2.9517836e-03
 -9.4943354e-03
 -4.3336477e-04
 -2.4895361e-04
  8.7807123e-03
  2.7153473e-03
  1.9827734e-03
 -4.3416405e-03
  1.3547319e-03
 -1.5333829e-03
 -3.5745020e-03
 -5.7973107e-03
 -1.7846264e-03
  9.9521817e-04
  4.0414589e-04
 -2.8445307e-04
 -2.5791444e-03
 -1.1715940e-03
 -1.9466657e-03
 -9.8758137e-05
  4.6523061e-04
  8.9950087e-03
  1.9720611e-03
 -2.0357298e-03
 -3.3166057e-03
 -5.2967621e-04
  2.1315359e-02
  2.0379332e-05
  1.0858190e-03
 -5.0013643e-03
  4.8175501e-03
  1.0321905e-03
 -2.3115545e-03
  5.3466340e-03
  1.6626372e-03
 -5.4808415e-04
 -3.1494550e-04
 -1.8782347e-03
  6.5822876e-04
  1.6070484e-03
  4.5451944e-04
  6.8887969e-04
 -3.5601329e-02
 -1.6572828e-03
 -3.9580669e-03
 -6.8124558e-04
 -1.1089799e-03
  1.9463284e-04
 -2.2357360e-03
  1.6351641e-03
 -3.3925287e-04
 -3.5383804e-03
  8.7334011e-03
 -1.5889938e-03
 -1.9376719e-03
 -3.3097391e-04
  3.0973030e-03
  1.1655061e-03
  3.4697447e-04
 -4.8983627e-04
 -8.6371024e-04
 -2.1743744e-03
  8.9501467e-04
 -3.0092446e-02
  4.4634035e-03
 -1.7355947e-04
 -1.7086915e-03
 -5.0999131e-04
  1.2293819e-03
  1.7778789e-04
  5.0130645e-03
 -4.2709378e-03
  1.8467598e-03
  1.3649768e-02
 -1.5302631e-03
  6.7412492e-04
  3.3946827e-04
  1.2218708e+00
 -6.9826149e-04
 -1.2957862e-03
  9.8189630e-04
 -3.1340826e-01
  1.9481753e-03
  2.6803524e-03
 -2.8130887e-03
 -1.5452799e-03
 -1.7052036e-03
  1.5088184e-03
  4.3758471e-03
  4.0250332e-03
  4.0450500e-04
  9.9237578e-04
  7.6144427e-04
 -4.4552004e-03
  2.3501564e-03
  1.0865678e-03
 -3.4384956e-03
  1.8182263e-03
 -4.3009967e-04
  1.8890186e-03
 -6.4507837e-04
  4.8316669e-04
 -2.7309905e-03
  1.2532806e-03
 -9.8807621e-04
  1.4172755e-03
  4.3478279e-04
  4.3714913e-03
  1.3439524e-03
  3.4258890e-03
 -8.3298498e-04
  1.3987707e-03
  1.8985381e-03
 -5.8576767e-03
  1.2870305e-03
 -2.6952887e-03
  1.4781901e-03
  1.4688150e-04
 -5.2678166e-04
 -9.5321052e-03
  2.3445066e-03
 -6.8157786e-03
  8.8227715e-04
 -2.2585753e-04
  2.0263675e-03
  5.4763502e-04
 -2.7524447e-03
 -4.9737208e-03
 -2.8552590e-03
 -2.4080828e-03
 -1.4413630e-03
 -2.0505879e-03
 -9.0020802e-04
 -1.0800916e-03
  1.7697111e-02
  1.5360267e-03
  1.5642722e-03
 -3.1945561e-03
 -3.8808119e-03
 -4.8137684e-03
 -9.5380103e-04
  6.8697701e-03
 -1.9873488e-03
  8.4093760e-04
  4.5415098e-03
  8.3155287e-03
 -4.7275296e-04
 -7.6516281e-04
 -1.0357585e-04
  4.7016409e-03
 -1.2971200e-04
  9.0487965e-04
  6.7157370e-01
 -1.3864633e+00
  2.3946747e-01
  8.0607754e-01
  3.3041127e-03
  1.5544275e+00
 -2.8440315e-01
 -5.8117681e-03
  1.9949144e-03
 -2.8729126e-01
  5.5192453e-01
  1.0862578e-04
  3.4394297e-01
 -5.9941244e-01
 -4.8970282e-03
  6.0476363e-01
 -1.0103041e+00
  7.6087922e-01
 -5.3321385e-01
 -5.6702133e-02
  3.5610566e-01
 -4.3910506e-01
  2.1411949e-03
 -2.7864459e-01
 -2.7826202e-01
 -3.9308023e-01
  3.5120631e-04
  1.0362918e+00
 -5.6226604e-02
 -3.8621647e-04
 -5.3830422e-02
  5.2938467e-01
 -4.9616712e-01
 -2.9419336e-01
  6.6904174e-03
 -1.3416370e-03
 -3.9320651e-02
 -7.5269409e-02
 -3.0110660e-01
  4.5037051e-03
 -2.4219587e-01
 -3.7627888e-01
  2.1184124e-03
 -3.2570563e-02
  1.9819664e-03
 -1.8652441e-02
  6.1915559e-04
 -3.8666376e-01
 -2.3346715e-01
  3.2543242e-03
 -2.5563248e-02
 -3.9049515e-01
 -7.4079700e-02
  1.0749074e-03
 -1.6023232e+00
  8.3354901e-04
  4.3789102e-03
 -3.8496745e-04
 -5.1677861e-04
  1.5625148e-03
  8.0432114e-04
 -1.8117048e-03
  1.1733403e-02
  6.1758663e-05
  2.5145211e-03
 -2.2987090e-03
 -6.3765165e-04
 -1.3292219e-03
 -5.9431710e-04
 -1.6563683e-03
  7.3591247e-04
  7.1768154e-05
  6.3195629e-03
 -2.1766272e-04
  3.1527039e-03
 -8.7102233e-03
  7.8013114e-04
 -4.1587832e-03
 -2.5414053e-01
  4.9519236e-03
  6.4251553e-03
 -1.7800190e-03
  4.3573566e-03
 -3.7884167e-03
  3.1980828e-03
  2.2251380e-03
  1.0218692e-03
 -1.5961388e-03
  3.3344147e-03
 -3.4485018e-04
 -3.4894135e-03
 -2.1833959e-03
 -2.2745747e-03
 -5.4002066e-05
  5.5753288e-04
  4.1310999e-01
  9.4530277e-04
  3.7125725e-04
 -3.4213532e-03
  1.9510051e-03
  1.3162139e-03
  1.5478197e-03
  4.1721077e-03
 -4.7119672e-04
  1.1618384e-01
 -2.7204477e-04
 -4.0999730e-04
 -7.5101191e-03
 -1.4810150e-03
 -1.1104430e-03
  1.1257789e-04
  3.8559341e-03
 -1.8085950e-05
 -1.1740110e-03
 -4.2549809e-04
 -2.0932148e-03
  3.8812943e-03
  2.1960528e-03
  7.7802205e-04
 -5.7668157e-04
 -2.6616747e-02
  4.2092714e-01
  9.0611227e-02
  1.1740489e+00
  3.3066601e-01
 -2.3108923e-03
 -9.9932969e-01
 -2.6791317e-02
  7.1223283e-01
 -3.8396838e-01
 -1.3379361e-01
 -2.9833055e-01
  1.6715127e-01
  1.0680188e+00
  2.4280671e-03
 -7.3838997e-01
 -3.6599627e-01
  8.1379521e-01
  1.0722972e+00
  5.2745238e-02
 -7.6608203e-02
 -1.5157248e-01
  1.4870203e-01
  5.1310962e-01
  4.1460061e-01
 -3.2349158e-04
  7.4820789e-03
  7.0677814e-03
  2.2460493e-01
  1.8482979e-03
  4.5129221e-02
  1.9137008e-01
  1.6112363e-01
  8.8914716e-01
 -5.1197982e-01
 -3.1867385e-01
  5.0760130e-03
  1.3303989e-01
 -7.5150436e-01
 -2.3698549e-01
 -1.4303172e-04
 -2.6514906e-01
  1.4091565e-01
 -5.9027803e-01
  1.3143416e-03
  2.7521697e-01
  2.1922717e-02
  4.6913397e-02
 -7.2605699e-01
 -2.6009998e-01
  2.6776588e-01
 -4.7307342e-02
 -1.3901289e-01
 -8.1342214e-01
 -5.7576436e-01
  3.5296294e-03
  7.5997430e-01
 -5.1308759e-03
 -2.4477686e-01
 -5.1085982e-03
  2.6058087e-01
 -3.9725685e-03
  1.2819627e-03
 -9.3510322e-04
 -3.6282334e-03
  1.2038804e-04
  2.4322656e-03
  2.1043644e-04
  1.5010604e-03
  2.9235726e-04
 -1.6902346e-03
  3.0647547e-03
 -6.2386659e-03
  2.4232524e-03
 -1.1930658e-03
 -1.4934373e-03
  2.4194357e-03
  3.2956705e-03
 -4.4653346e-03
  6.2006060e-03
  2.9740958e-03
  9.5132133e-03
 -1.8681143e-04
  2.4926506e-03
  7.1502302e-04
 -7.8116371e-03
  2.1221339e-04
  8.4787011e-02
  2.6588687e-03
 -6.8509937e-05
 -6.3977039e-01
  5.2738261e-01
 -1.4453456e-03
 -3.8267788e-01
  3.3412965e-03
  3.0561100e-04
 -9.9291122e-03
 -1.0602805e-03
  6.4474428e-03
 -3.6525081e-03
 -8.3673904e-03
 -5.9980121e-03
 -7.9329079e-04
  5.1406319e-03
 -9.9577091e-04
 -5.8223312e-03
  9.7259143e-03
 -9.9280186e-04
  4.3112360e-02
  3.0988320e-03
 -1.0554914e-03
  5.3588429e-04
 -5.2092317e-04
  6.4405240e-03
 -1.2918032e-03
 -6.8968437e-03
 -5.6800828e-04
  6.8075873e-04
  2.9038165e-03
  9.4878644e-04
 -1.6276632e-01
  7.3009127e-01
 -4.8603469e-01
 -3.5299301e-01
 -4.6804553e-01
 -2.5106601e-05
 -9.3969507e-03
  3.2806280e-03
 -2.0574997e-01
 -1.1530455e-02
 -1.1259935e-01
  2.7238890e-03
  7.8225904e-04
 -4.6353156e-04
  7.1174128e-04
  1.8041671e-04
  5.0697312e-02
 -2.5268248e-01
  2.3834389e-01
  5.3585608e-02
 -7.5420082e-02
  8.3270147e-02
  2.2135621e-03
  7.3948532e-02
  9.7713374e-02
  1.7667498e-03
  3.4661611e-04
  6.5111420e-03
 -1.5561664e-05
  4.5683435e-03
 -8.0305906e-03
  1.1295155e-02
 -1.1687718e-03
  1.5240142e-03
  6.8566434e-05
 -4.6209046e-03
 -4.8146937e-03
 -1.2634067e-03
  5.1828879e-03
  5.9947028e-04
  3.8689669e-04
 -1.4743062e-02
 -1.3602012e-03
  2.3742700e-03
  3.3419923e-04
 -1.3368261e-03
  3.3680259e-04
  6.4865738e-04
  6.1379434e-03
 -1.8219934e-03
 -5.1704231e-03
 -6.9291674e-04
  1.6136585e-03
  1.4391276e-02
  1.9809490e-04
 -1.3788134e-03
  4.1111364e-04
 -2.5446541e-03
 -9.8619948e-04
 -6.0463761e-04
  5.5741724e-02
 -2.5204672e-02
  5.8013046e-01
 -4.2515867e-03
  2.5280886e-03
 -3.9592865e-03
  1.0105255e-02
  4.4937801e-02
  1.2020174e-03
 -2.1171267e-03
  4.3859214e-02
  1.4595102e-03
 -2.2322640e-03
  4.1530863e-04
  1.7386567e-03
 -8.6195208e-04
 -7.1939426e-03
  6.5257140e-02
 -1.2582071e-02
  6.6983356e-04
  1.1071580e-02
  2.1878923e-03
  4.6167541e-03
 -2.7093863e-02
  1.2737699e-03
  1.0709196e+00
 -4.6905368e-03
 -1.3613416e-02
 -1.0948871e-04
 -5.0121313e-04
  6.9992892e-02
 -1.2784120e+00
 -7.8159130e-05
 -9.6515661e-01
  2.8101713e-03
 -1.9678036e+00
  1.6539325e-03
 -3.3855769e-01
 -2.3363549e-03
 -5.6077480e-02
  3.9533707e-03
  5.6733359e-03
  1.6780733e-03
  6.4576745e-02
  2.3521250e-01
  7.2546275e-03
 -1.7991270e-01
  5.1488630e-03
  1.5715318e-04
  3.1435770e-01
 -2.1767938e-01
  3.6592924e-03
  1.1277460e-03
  3.4641403e-01
  1.5666608e+00
 -3.6254649e-03
 -8.5612588e-02
  1.3555060e-01
 -8.1470510e-04
 -2.1737583e-03
  1.1359617e+00
  3.4422445e-04
 -5.0403595e-02
 -7.3931068e-01
  1.4646851e-01
  3.9615834e-04
  2.5896016e-03
  1.1091019e-02
  8.3483480e-02
  4.9020773e-01
  1.0829315e-01
  8.6090945e-02
 -8.9368440e-02
  3.7771550e-01
 -3.7813731e-04
  1.4167701e-02
  1.1996379e-01
  4.8623580e-02
 -1.5085614e-03
  5.1843965e-01
 -6.0236418e-01
 -5.5499952e-02
 -6.1934610e-04
 -6.2901503e-01
  1.1729575e+00
  2.9737175e-02
 -2.7065304e-01
 -4.3949717e-01
 -9.1013715e-02
  3.6375701e-01
 -1.9042965e-03
 -7.4829132e-04
 -1.7834414e-04
 -5.0822068e-03
  1.1818792e-03
  2.1800792e-02
 -1.5903981e-03
  4.4688198e-04
  3.6549394e-04
  1.6784713e-04
 -3.0616709e-04
  5.2493210e-03
  3.1983787e-03
  2.7257476e-03
  7.7723735e-04
 -8.3892024e-04
  3.5945745e-03
  1.5420824e-03
 -3.7616130e-04
  2.9647450e-03
  4.9000728e-04
 -5.0524576e-03
 -5.7978707e-04
  3.4279024e-04
  1.6276399e-04
 -3.6027199e-03
  2.6414713e-03
 -6.4681110e-04
 -9.7639259e-04
  1.3078402e-03
  1.4309230e-01
  1.6069111e-01
 -8.1236345e-01
 -2.2869629e-01
  6.8904494e-04
  1.3446824e-03
 -2.7145034e-02
  4.6689322e-04
  2.5278574e-04
  2.2266023e-03
  8.4043657e-03
  5.4865249e-02
 -4.3848152e-03
 -4.9783617e-02
  7.3599867e-03
  4.9773823e-03
 -3.5566179e-04
 -5.5249380e-03
  1.5530774e-03
  3.5875358e-02
  1.2641544e-02
  5.5092592e-03
 -1.7502793e-03
  3.3810958e-01
  7.2300453e-03
 -1.7874175e-03
  2.4459087e-03
  3.0653258e-03
 -7.2474929e-04
  4.0856589e-04
  3.0004056e-03
  1.0250775e-03
 -1.3088965e-03
 -1.9168259e-03
 -1.0129967e-03
 -6.4920890e-04
 -8.4752578e-04
 -2.7448211e-03
  2.8887773e-05
 -3.0795881e-03
 -1.4886931e-03
 -1.3707724e-03
  5.3328840e-04
  4.9112849e-03
 -1.1229973e-03
  2.2392469e-03
 -5.9395022e-04
 -3.2870297e-04
 -4.8851187e-04
  4.3666642e-03
  8.5660099e-04
 -2.4329848e-03
 -2.2390109e-04
  2.5709797e-04
  1.5631772e-03
  2.6445201e-04
 -1.2803221e-03
 -8.6651271e-04
  7.2690001e-04
  5.8026216e-04
 -1.1571009e+00
  5.4249167e-01
  2.3536940e+00
  6.6273749e-01
  1.2833296e+00
 -1.3713038e-01
  1.1956532e+00
  1.1148674e-03
  4.6594419e-02
 -2.7957746e-01
 -3.5820107e-03
  3.1396124e-01
  5.9927076e-02
 -8.8113004e-01
 -4.0828001e-01
 -6.5447831e-01
  3.3648333e-01
  8.0769831e-01
 -1.1811273e+00
 -5.7228673e-01
 -7.7298349e-01
 -2.7569556e-01
 -3.0650558e-02
 -3.1528890e-01
 -3.3408466e-01
  2.7312199e-03
 -1.5499107e-04
 -1.2628069e-03
  1.4474688e-01
 -2.8344141e-03
 -1.6258142e-03
 -1.8350546e-03
 -4.7428392e-05
  8.2699186e-04
  4.9547874e-03
 -3.2807738e-03
  1.1418179e-03
  6.2466059e-03
 -1.8851177e-03
  8.7245420e-04
  4.8628612e-04
 -6.7752117e-04
 -3.4142875e-03
 -1.2484508e-03
  5.3952233e-04
  2.9480836e-04
  2.3574303e-03
 -3.4236407e-01
 -1.0654747e-03
  1.8622963e-03
  1.4280266e-03
 -3.7619349e-04
 -9.9701167e-04
 -4.7922519e-04
 -3.2674768e-03
  9.4470120e-04
  6.3132826e-04
 -1.3516665e-03
 -2.4228175e-05
 -2.5453425e-03
  1.6444163e-01
 -1.4649950e-01
  1.1047381e+00
  1.7372318e-01
 -2.6957440e-01
 -8.3552614e-02
 -2.9788128e-01
 -1.4422922e-03
  4.7705855e-02
 -2.6999864e-01
 -9.4076125e-03
 -8.2067214e-03
  1.9080935e-02
  2.7597743e-01
 -2.5378954e-01
 -3.6959944e-03
 -1.9760558e-01
  1.2971824e-01
  1.1746719e-01
 -2.6887077e-01
 -9.2688344e-02
 -3.3401299e-01
 -4.0185801e-03
 -4.1893072e-02
 -8.2366481e-02
  4.9879607e-03
 -2.0247961e-03
 -1.3889712e-03
  4.2604306e-03
  2.6634457e-03
  1.8099040e+00
  7.0870765e-02
 -4.8700279e-01
 -7.0004946e-01
  1.0215247e+00
 -4.1452098e-01
  1.5498786e-01
  4.7214599e-03
  6.1665183e-01
 -5.5153584e-01
 -2.3901060e-01
 -1.3033664e+00
  6.9798779e-01
  9.9026591e-01
 -2.1970668e-01
 -7.8726995e-01
 -9.9694443e-01
  2.8455538e-01
  8.5138172e-01
 -5.4700929e-01
 -7.8716815e-01
 -1.8074009e-01
 -2.3361838e-04
  1.9175042e-01
 -2.6217359e-01
 -1.3066761e-03
 -1.6916763e-03
 -2.5232220e-02
  1.6199607e-02
  1.0843399e-03
  5.5827620e-03
  5.4418980e-03
 -1.3776430e-05
 -2.1830332e-01
  1.4289498e-04
  1.5881426e-03
 -8.0070946e-05
 -2.0564792e-03
 -3.3367970e-03
  2.0824096e-03
  2.3873814e-03
 -8.1852556e-04
  1.8161464e-03
 -2.5107274e-03
  4.0034368e-03
  3.7852959e-03
 -1.1300445e-03
 -1.7049739e-03
  1.1267631e-03
 -1.8354700e-03
 -2.3894794e-03
  1.3491102e-04
  1.1660261e-01
  9.0865383e-04
  4.5260261e-03
 -2.3792435e-04
  1.6082371e-04
  5.2583200e-04
  3.4626354e-03
  1.0791477e-03
  1.0802571e-01
 -3.9199539e-03
 -2.6024294e-03
  8.3336189e-02
 -2.1432884e-01
 -2.8879274e-05
  2.1517847e-02
 -6.7322137e-05
  4.6349345e-03
 -1.1357293e-03
 -5.4288651e-03
  2.6326373e-03
 -2.8761770e-03
 -4.8544144e-04
 -3.5191376e-03
  5.8214611e-04
  2.9290322e-04
 -3.7432756e-04
  1.7492789e-03
 -2.0883407e-02
 -4.3300386e-03
 -3.7812998e-03
 -2.0803511e-03
  1.7237900e-03
 -5.1480439e-04
 -6.9615262e-04
 -7.0610346e-05
 -2.2966580e-03
  1.5522527e-04
  3.7973991e-03
  2.8605268e-03
 -8.0691348e-04
 -1.4453547e-03
 -2.1403191e-04
 -2.1380223e-03
 -1.5354257e-03
 -1.6195927e-03
  1.1131143e-03
  1.1720762e-04
 -3.1832207e-03
 -1.8073748e-03
  1.3050126e-03
  2.3852289e-03
  1.4549708e-03
  2.1461132e-03
  2.6962403e-03
  1.5117890e-03
  9.7065390e-04
  4.4240342e-03
 -1.7443385e-03
 -1.6227118e-03
  2.0021497e-01
 -3.0273478e-04
 -2.1176388e-04
  2.2255203e-03
 -8.8930101e-04
 -2.2330405e-03
 -1.0198496e-03
 -1.8477645e-03
  7.0855883e-04
  1.1189712e-03
  2.3772072e-03
  9.3188109e-03
  3.7209087e-03
  2.4609710e-03
  1.7970254e-03
  9.3756473e-01
 -1.1027748e-01
 -1.3302517e-03
  2.4941875e-04
 -1.9646392e-03
  1.0493908e-03
 -3.2548753e-03
  4.3029431e-03
 -6.9933487e-03
  9.0522185e-04
 -9.9518616e-04
  7.8288810e-03
  1.0584019e-03
 -1.6140380e-03
 -1.8772748e-03
 -3.7727847e-03
 -7.5991236e-05
  2.0566620e-03
 -1.0417354e-03
  1.6010618e-02
 -2.4359128e-03
  2.1233954e-03
 -1.6207170e-03
 -2.4651694e-03
  4.4024186e-03
  1.3166277e-03
  2.5861680e-03
 -4.2173779e-03
 -3.7155112e-03
  1.2458485e-03
  3.3512905e-03
 -1.8923572e-03
  4.8557267e-06
 -3.3786357e-04
 -8.3021238e-04
  2.8188756e-01
  3.9148135e-03
 -1.0517359e-03
  2.4182789e-03
  4.9444789e-04
  2.8594115e-03
 -2.0363862e-03
 -1.5351724e-02
 -1.4449003e-03
 -2.2176385e-03
 -1.0541818e+00
 -4.0788521e-04
  7.5558567e-04
 -2.6967854e-04
 -1.5864423e-03
  2.9804597e-03
 -8.9558808e-04
 -1.0897755e-03
  1.0573643e-02
  3.2920247e-01
 -7.0901465e-01
  5.6799954e-01
  2.1613783e-01
  3.9237463e-01
 -6.3885013e-03
 -8.0303842e-01
  3.3845527e-03
  1.0959706e-02
 -1.9933406e-02
 -3.1298711e-03
 -1.1071494e+00
  1.4379788e-02
  7.2088850e-01
 -6.6830617e-01
 -4.2446365e-04
 -1.8924873e-03
  2.6328677e-02
  1.0441586e-01
 -2.9287654e-01
 -5.6754731e-02
 -3.4978837e-02
  2.3368017e-01
 -9.1919339e-01
 -1.5333092e-01
  5.2116886e-03
 -8.4044899e-05
 -1.9313251e-03
  9.0336092e-03
 -1.6586491e-04
  5.9484357e-01
 -2.1277510e-01
 -6.3175417e-02
  2.2732804e+00
 -3.4574455e-01
 -5.7858735e-02
  7.4677706e-02
 -1.6728130e-03
 -7.2091234e-01
 -3.0008829e-01
 -4.6086717e-02
 -5.9738982e-01
  1.1689273e-02
  2.7737755e-01
 -1.1662629e-01
 -1.2811744e-01
 -2.8158155e-01
  1.0188931e-01
  3.8518861e-01
  3.9328045e-01
 -1.2759796e-01
 -2.1435821e-01
  7.9652522e-04
  6.8197405e-04
 -4.0995233e-02
 -1.5457853e-03
 -7.9095049e-04
 -1.6209298e-03
 -7.6042884e-04
  1.3236784e-03
 -1.2462394e-03
  2.4253631e-03
 -2.0529180e+00
 -4.5662176e-02
 -4.8097384e-01
  4.8063196e-02
 -9.9849375e-03
 -1.8124256e-03
 -1.5369455e-04
  1.9648420e-03
  7.4643170e-04
  1.4278630e-03
  1.5124374e-03
 -6.9167919e-04
  5.3457920e-03
  4.9511986e-03
 -2.1029841e-04
 -9.3060890e-03
  1.3007238e-03
 -5.3168839e-04
  2.4508403e-04
 -1.7412099e-03
  5.4999483e-03
  1.8376817e-03
 -1.4679040e-03
 -1.4779010e-04
  1.5675200e-03
  1.1832400e-04
 -7.5705494e-03
  8.5273100e-04
  1.9162659e-04
  6.7268877e-04
  3.2889077e-03
 -5.0539890e-04
  4.5859723e-04
 -2.2315059e-03
  2.1459281e-03
  6.3525722e-03
 -1.7226239e-03
 -5.4192208e-03
 -1.2848406e+00
  5.1804283e-04
 -2.9461007e-03
  6.6659180e-04
 -2.5603245e-03
 -1.3279331e-04
 -1.8235504e-03
 -2.8683818e-03
  1.3411846e-03
 -1.9851248e-03
  1.1426897e-03
  2.7710935e-03
  1.6423791e-03
  9.5153006e-04
  1.3006510e-03
  1.5272186e-02
  3.9980374e-04
 -3.4443135e-03
  6.8386123e-03
  1.0864561e-03
 -1.6219616e+00
 -5.4031819e-01
  2.0197055e+00
 -6.5660036e-01
  3.2655671e-01
  3.1002904e-03
  8.6688370e-01
 -2.9456681e-03
 -5.5402255e-01
 -1.5961058e-01
  5.3354907e-03
  5.1118582e-01
  1.8242536e-03
 -1.2846800e+00
 -1.9976334e-01
  1.4124572e-01
  1.0501754e+00
  4.0592421e-02
 -1.0412111e+00
 -4.4117758e-01
  7.1407214e-02
  3.4552126e-03
 -4.3775931e-01
 -7.0176236e-02
 -2.3251949e-01
  1.2026159e-03
 -2.8994448e-02
 -2.0223893e-03
  6.6142081e-04
 -5.8410474e-04
 -5.8386248e-01
  7.1630613e-03
  1.9804738e-02
  1.2169931e+00
  6.0950565e-01
  3.8403427e-04
  9.0772510e-02
 -2.5460629e-03
  1.4398559e-02
 -2.6051113e-01
 -7.7141398e-03
 -2.1814783e-01
  1.1166809e-01
  9.2209518e-02
 -1.5922931e-01
 -4.4154408e-03
 -1.4499146e-03
  5.4018725e-02
  9.7842835e-02
 -2.8168944e-01
 -1.5470128e-01
 -1.3458860e-01
 -3.5569395e-03
 -4.4214863e-02
  1.4204378e-03
  2.1086775e-03
 -2.7783689e-04
  9.4921148e-04
  1.8894458e-03
  4.7858893e-03
 -7.5540578e-01
  6.8725750e-04
  6.3269180e-01
 -9.3943369e-01
 -7.7418572e-01
  2.9334696e-03
 -1.4093693e-02
 -6.2235526e-04
  1.0746215e-04
 -6.1214162e-04
 -4.5245618e-02
  2.4223508e-04
 -1.0552981e-03
 -1.6495363e-03
 -1.1802043e-03
  9.8968968e-03
 -6.8106099e-05
 -4.7537722e-02
 -2.9486686e-02
  5.6684000e-04
  7.1820132e-03
  3.7731736e-03
 -2.1581963e-04
  1.8823792e-03
  3.1438831e-03
  1.3282858e-03
  1.0625264e-02
  1.1462817e-04
  1.1990558e-03
  9.3118194e-03
  2.9740544e-02
  1.9704720e-01
 -1.6388202e-01
 -3.3250576e-01
 -5.4961127e-01
  1.4792128e-01
 -5.3125001e-02
  1.1117416e-03
 -9.0058208e-02
  6.4181589e-02
 -6.2628894e-04
 -2.1461911e+00
  2.7975888e-04
 -4.3333787e-02
  2.1227288e-01
 -7.5858092e-04
  7.5603910e-02
 -7.8469239e-02
 -3.1374165e-01
  2.0453109e-01
  1.5347787e-02
 -9.9712727e-04
 -1.1326708e-03
 -6.5773830e-02
  6.0628299e-02
 -5.5483584e-03
  1.7926403e-03
 -3.4905123e-03
 -1.5767561e-02
  2.5778417e-03
 -3.7079348e-04
  1.6691603e-03
  1.1115423e-03
 -3.2519328e-04
  1.2766006e-03
  5.0947063e-05
  3.4745384e-04
 -2.7335656e-03
  4.0593595e-04
  6.6697685e-04
 -2.5720284e-03
  6.9892253e-03
  1.2115299e-03
 -4.2414689e-03
 -2.5052836e-04
  1.6313762e-03
 -7.0036482e-03
 -7.4672562e-01
  1.4604779e-03
  6.0284301e-04
  3.2263941e-03
 -1.7469404e-03
  3.4642951e-03
  1.2414809e-03
  1.4965930e-04
 -3.4011079e-03
 -3.4105033e-03
  1.6895281e-03
 -3.6722494e-03
  6.7588838e-04
 -6.6511923e-01
 -1.5570469e-01
  5.5891793e-02
  2.6379054e+00
 -1.7366016e-01
 -3.6811316e-04
  2.2080685e-03
 -2.2195175e-03
  4.8257001e-02
  9.1506794e-05
 -9.1657683e-04
  1.3517005e-04
  3.9380253e-03
 -6.3066557e-04
  2.6638521e-02
 -1.1679134e-03
 -9.6591972e-02
  5.2909506e-03
  1.1424222e-01
 -1.3192934e-02
 -7.5934511e-03
 -1.5032344e-03
  2.6788451e-03
 -2.3941806e-02
 -1.9292565e-03
 -2.3177047e-03
 -1.7866424e-03
  3.6807815e-03
  6.8635482e-04
  1.4586411e-03
 -1.6672675e-01
 -1.1108479e+00
  7.7212209e-01
 -9.9763945e-02
  6.2877363e-01
 -1.0172403e-02
  3.2708767e-01
  2.1537527e-02
  1.3279532e-02
 -8.6363778e-02
 -7.1763450e-01
 -3.9099764e-02
  4.9835513e-03
  9.5873930e-02
 -6.8848499e-04
 -2.0946914e-03
 -2.0030187e-03
  1.3013456e-02
  3.4829530e-01
 -8.6876772e-02
 -2.0340782e-01
 -2.7522754e-03
 -4.8075416e-03
  1.2256681e+00
 -4.0596398e-03
 -6.3979178e-04
  6.1533396e-04
 -4.8379382e-04
  2.8174520e-03
  2.2799792e-03
 -2.5985090e-03
 -7.6943324e-03
 -2.7060569e-03
 -5.5099389e-04
 -1.3288794e-03
  8.9292740e-04
  2.4399140e-04
 -8.3947118e-04
 -8.7192043e-04
 -6.4944208e-04
  3.4869583e-03
  1.6841871e-03
 -2.6336589e-03
  7.9589868e-03
  3.0151957e-03
  1.6327826e-03
 -1.1650147e+00
  1.6983134e-04
 -1.3624575e-03
 -1.7626379e-03
  3.3530351e-03
  6.7899632e-04
  5.6697414e-03
  1.5322200e-03
  1.1421741e-01
  4.2855381e-03
 -5.6231502e-03
  4.3444964e-04
  5.6965335e-04
 -5.4125339e-03
 -1.8730409e-01
  1.4313001e-02
  6.2380414e-03
  1.8750374e-01
 -7.2252177e-02
 -3.9433228e-04
  1.2206714e-02
  1.2844161e-03
 -2.2497576e-05
 -3.1852406e-03
 -3.0419868e-03
 -3.2040442e-04
 -6.0303835e-03
  1.6045304e-03
  3.0641879e-03
 -6.7476775e-03
 -5.6415568e-03
  2.4179372e-03
  1.0177362e-03
 -7.3405134e-04
 -1.2895953e-03
  3.1579963e-03
 -6.9594919e-03
  9.8693988e-04
 -6.5118237e-04
 -3.2010546e-03
 -6.5899087e-04
 -4.2844214e-03
  1.3524703e-04
 -2.9224815e-04
  4.7780473e-02
 -9.9267028e-02
  7.5568378e-02
  1.0532546e+00
  9.3645994e-03
 -1.3081662e-05
  2.2877039e-02
  2.2783107e-03
  8.6901579e-03
 -4.1799229e-03
  1.1962154e-02
 -2.6912808e-03
  6.6374447e-03
  3.6445908e-02
 -2.1697221e-02
  3.9920909e-03
  2.8508515e-03
  1.6606568e-01
  2.3868470e-03
 -2.8460226e-03
 -1.9337353e-03
 -1.0734687e-04
 -3.3274437e-03
 -1.1770930e-03
 -5.3533562e-04
  7.7516311e-03
 -2.1763442e-03
 -2.2422837e-03
  4.2986490e-02
 -8.6009694e-04
  4.4406638e-02
  7.4829557e-04
  1.5308893e-03
 -7.0439823e-02
 -1.4552047e-02
  3.7428404e-03
 -1.3387294e-02
 -2.3792847e-03
 -2.9846309e-03
  3.9636274e-03
  9.9845193e-03
 -3.0650594e-03
 -6.0334848e-03
 -2.5538465e-03
  4.4058496e-03
  8.0818200e-01
 -1.5556413e-02
  3.1158780e-03
 -2.1669732e-03
 -1.1885115e-03
 -2.3717445e-03
  4.1674513e-01
 -1.1890765e-03
 -3.7441909e-02
  1.7105641e-03
  9.2056114e-03
 -1.5998294e-03
  2.1731863e-03
 -9.8881079e-03
 -4.6883114e-03
 -1.2697546e-03
 -1.8231523e-04
  7.7268080e-04
  8.8479649e-03
  5.8468198e-03
  3.6900814e-03
  1.2056002e-03
 -1.1857251e-03
  5.8264972e-04
  1.2286902e-04
 -2.4549589e-03
 -3.2572462e-03
  3.9653648e-03
  5.7032970e-03
 -6.8691396e-03
 -4.5988495e-03
 -1.4807710e-03
 -1.1081462e-03
 -1.7342933e-03
  2.9790937e-04
  6.6350756e-04
  1.9380141e-03
  4.7334324e-04
 -8.2510058e-04
 -1.4187535e-04
  5.8154628e-04
 -2.2123787e-03
  2.7351122e-02
  1.8388281e-03
 -3.4367272e-03
 -5.2440318e-04
 -3.8084053e-03
  3.7720401e-04
 -6.4519496e-04
  4.5278673e-03
  1.1117785e-04
  8.6577653e-05
  1.3089821e-03
 -1.0376247e-03
 -3.1452088e-04
 -1.0383815e-03
  1.1484176e-03
  4.9127005e-03
  2.7997969e-03
 -1.3024972e-03
  1.1560221e-03
 -2.3826573e-03
  1.0549371e-03
  3.3299511e-03
  3.5158612e-03
 -2.5987148e-01
  8.5036148e-04
 -2.6362168e-03
 -2.2143094e-04
 -4.6068354e-04
  2.3065349e-03
 -2.6240665e-03
  1.4534625e-04
  2.7625395e-03
  3.1237147e-04
 -4.3996722e-03
  1.6359516e-03
 -5.1597869e-03
 -7.1316812e-04
  9.2113838e-03
 -3.1144947e-03
  1.3661903e-03
  1.7670461e-03
 -1.3204357e-03
 -1.5137133e-02
  1.9381925e-03
 -1.4918521e-03
  6.0362029e-03
 -2.7804631e-03
  2.5117614e-03
 -2.4743930e-03
 -2.5749761e-03
  1.5795618e-04
  5.5620802e-04
  1.9033018e-03
  3.9556697e-03
  2.0772843e-03
  7.4588517e-03
  1.5523883e-03
  3.0023796e-03
 -2.1512497e-03
 -5.6455433e-03
  8.5516967e-04
  5.7191174e-03
 -3.7918304e-04
  1.8483931e-03
  9.5649371e-03
 -1.1293311e+00
  7.7576530e-01
 -2.0174955e-03
 -7.6436061e-01
 -7.7935606e-01
 -7.5595506e-04
 -9.2410541e-04
  5.3668115e-04
 -6.7488174e-04
 -4.4108531e-03
  5.0565876e-02
 -1.7262040e+00
  1.4980644e-01
 -2.1059907e-03
  5.7275021e-01
  3.1092674e-01
  2.3353034e-01
 -1.5342723e-01
 -5.0470006e-04
 -2.6820423e-02
  1.4301952e+00
 -9.2740328e-04
 -2.6462832e-03
 -2.5831893e-02
 -1.5132102e-03
 -1.2923426e-04
  4.2959242e-03
 -4.7805478e-04
 -2.7398306e-03
  7.3548591e-01
  3.7833455e-04
 -1.6141763e+00
 -1.6944142e-03
 -1.0733352e+00
 -1.6920280e+00
  1.4537802e-01
 -3.4457308e-01
 -9.4580978e-02
 -1.3978423e-01
  1.2557831e-01
 -9.9355179e-01
 -1.1275526e+00
  3.7068054e-01
 -9.3107805e-02
 -2.4703553e+00
 -1.1852174e+00
  3.7079349e-01
  1.0247059e+00
  2.2583673e-04
 -7.0671850e-01
 -9.7894710e-01
  2.0489647e-04
 -3.7516269e-01
 -5.3611493e-01
  3.6810383e-01
 -1.8162230e-01
 -1.6281748e-03
  1.5147898e-01
 -1.6279127e-02
 -9.1637838e-01
 -4.4833022e-04
  8.4041014e-02
 -1.2328585e+00
 -6.7976047e-04
 -6.9444790e-03
  4.8941684e-01
  9.0037705e-03
 -1.3604605e-01
 -1.0795596e-01
 -2.1391198e-02
 -8.9729372e-03
  3.9456077e-02
 -1.0964741e+00
  1.0500776e+00
 -2.4691103e-02
 -1.6543359e-03
  5.5811470e-03
 -5.6840968e-01
  6.8472928e-01
 -4.3656235e-03
 -6.4896607e-01
  3.0066881e-03
 -6.2396234e-01
 -4.7160123e-04
 -2.8034728e-03
  3.7608945e-03
  1.0555034e+00
 -7.2448305e-04
 -1.6458544e-01
  3.2940802e-01
  9.7624624e-01
 -1.4690707e-03
 -2.5337078e-03
  1.0532576e-04
  1.0148652e-02
  2.1403863e-01
  1.4725502e-03
 -1.4555237e-04
  9.0844597e-04
  2.8719200e-04
  4.3239164e-01
 -2.9780047e-03
  1.1161937e-03
  2.0283873e-03
  1.2417979e-03
  3.4741585e-03
 -1.5835525e-03
  9.6945284e-04
 -4.8114829e-02
  2.0568382e-03
  9.1643199e-02
 -4.4039888e-03
  3.4828028e-01
  9.1325564e-05
 -3.8059082e-04
  2.5794515e-03
  8.0961911e-03
 -5.4066111e-03
 -1.8408407e-03
 -1.2985794e-03
 -1.9040295e-03
 -4.9827620e-04
  5.5374153e-04
 -1.0125125e-03
 -8.5823244e-04
  3.7508924e-04
  2.5939990e-03
  8.2578592e-04
 -2.1149676e-04
  1.5672210e-03
  5.4837432e-02
  2.9925252e-03
 -6.0293125e-03
 -2.6211408e-03
 -4.0951310e-04
 -2.7933957e-03
  2.3341854e+00
 -2.8626134e-03
 -1.7411816e-03
  1.7629338e-03
  1.2041345e-03
 -2.7943305e-03
  6.2839394e-03
 -4.4665169e-03
  1.7385853e-03
 -1.3451243e-04
  2.2890242e-03
  9.4428472e-04
  1.2863977e-01
 -1.4784877e-01
 -4.5126507e-01
 -3.9719641e-02
 -4.7467299e-02
 -4.0219352e-02
  1.7631091e-03
 -8.5170753e-02
  4.8617403e-05
  1.3940174e-03
  2.0238325e-01
 -3.5588313e-03
 -3.1963503e-03
  3.0462161e-02
  3.6022891e-03
  8.1242770e-02
 -1.8122844e-02
 -1.3146115e-02
 -2.5517904e-04
 -5.4010199e-03
  8.9767445e-03
 -1.5507534e-03
 -3.2247302e-01
  1.2756705e-03
 -3.0589789e-01
 -6.6975378e-03
  5.0500478e-04
  1.7787812e-04
 -1.2853516e-03
 -5.7073089e-04
 -2.6183665e-01
  2.3614855e-03
 -2.8948123e-03
  1.6168819e-03
  3.5675259e-03
 -7.1529602e-03
  5.1659155e-03
 -7.3056080e-04
 -2.5076495e-04
 -7.1520056e-03
 -2.3017593e-03
 -8.6965183e-06
  1.4431189e-03
  3.5821868e-03
  1.0203888e-03
  2.5360358e-03
  1.5600934e-03
  8.9352304e-04
 -2.2084448e-03
  1.7093178e-03
 -3.0377472e-03
  1.4940936e-03
  4.6699457e-03
 -2.2784644e-03
  2.7868387e-03
  5.1104760e-04
  2.8923887e-03
 -3.0351696e-03
  4.2640307e-04
  6.3222460e-04
 -1.5834294e-04
  6.8286047e-03
  1.9432185e-03
 -6.9032155e-04
 -1.9905825e-04
 -9.7933074e-04
 -2.2001212e-04
  3.0935693e-03
 -5.0906818e-03
  4.1013197e-03
 -4.7366363e-03
  1.6631361e-03
  3.8964491e-04
 -1.0171961e-03
  1.5236227e-03
 -3.5932467e-03
 -1.4811829e-03
 -1.1384732e-03
  4.3075136e-04
  8.5638167e-04
 -6.5839308e-04
 -8.5427973e-06
  2.1452948e-03
 -4.8845715e-04
  7.4086158e-04
 -2.0665140e-03
  1.8749629e-03
  8.2521309e-04
  5.1002200e-03
 -8.7348191e-04
 -3.4729195e-01
  4.0673268e-01
  3.1642365e-01
 -1.5010129e-01
 -2.3332669e-01
 -2.1810303e-03
  4.7402666e-03
  3.8824624e-03
 -1.3794293e-02
  6.3805393e-04
 -7.4839629e-02
  1.4107933e+00
  1.6472509e-02
 -2.1304987e-02
  4.6038311e-03
 -7.0241511e-02
  2.8629301e-03
 -9.5988705e-04
 -3.0637279e-01
 -7.6650278e-05
  9.2915993e-04
  5.6842207e-03
  1.4272733e-01
  3.9057201e-03
  2.7305949e-01
  4.9125203e-03
  1.5868405e-03
  3.3382102e-04
  2.8810385e-04
 -2.0102952e-03
  2.3695397e-01
 -7.3006701e-01
 -1.1162343e-02
 -5.0314790e-01
 -4.8927790e-01
 -1.6235096e-03
 -4.2090048e-03
 -5.0939465e-01
 -2.3918662e-03
  4.8219631e-03
  5.8399807e-03
  7.4903602e-03
 -2.6344517e-02
  1.8523993e-03
 -2.9154238e-01
  1.1288289e-01
 -1.3509545e-02
 -2.3279199e-02
  1.1662546e-01
 -3.7313050e-03
  2.0909911e-01
 -1.7219395e-03
  2.5873405e-01
  1.0573205e-03
 -2.1583548e-01
 -1.4068607e-03
 -4.1649919e-03
 -5.5867305e-04
 -7.0954654e-03
  2.9953897e-03
 -1.3947266e+00
 -2.0669813e+00
  1.3711390e+00
 -1.8289015e-01
 -6.2167156e-01
  6.7191839e-01
 -1.0339615e-01
 -7.6052523e-01
  1.8630980e-01
 -1.6307278e-01
  3.1899169e-01
 -1.8111692e-01
 -1.7774767e-01
  3.6084265e-01
 -1.5457298e+00
  9.6136057e-01
 -9.2018202e-02
 -1.1112288e+00
  9.3696080e-03
 -1.5865593e-01
  7.0578766e-01
 -1.2866288e-03
 -1.0182060e-01
  4.6021347e-03
  2.0076899e-01
 -1.3635667e-01
 -8.5152412e-04
 -2.6905593e-03
  2.6446558e-03
  1.6824015e-03
 -9.8517910e-02
 -1.9115785e-01
 -6.0481811e-01
  8.1112897e-03
  1.8304227e-01
 -2.1744706e-01
  2.8072670e-02
 -1.2524496e-01
  7.9660665e-04
 -1.8475673e-03
  8.3859712e-03
  1.8882647e-05
 -1.3061316e-01
  7.6070040e-02
 -1.1201663e-03
  4.6315998e-02
 -7.3318481e-03
 -7.6657563e-02
  1.2526589e-02
 -8.8847717e-03
  1.2985410e-01
 -2.3286077e-03
 -1.5820846e-01
  4.6845600e-03
 -4.2417550e-01
  6.1612530e-04
 -1.1967728e-03
  6.9683429e-04
 -8.6491341e-03
  9.5790839e-03
 -7.2403651e-01
 -6.0512102e-01
 -4.6758324e-01
  1.3384919e-01
 -1.2894647e+00
  2.7224281e-01
 -1.3304205e-02
 -1.8610451e-02
  1.2346347e-02
 -8.7715939e-02
  8.1784520e-03
 -1.6205911e-02
 -3.0807210e-02
  1.5314560e-01
 -1.1148863e-01
  6.5588474e-01
 -1.7547797e-02
 -9.9149242e-04
 -1.8614398e-03
 -6.5479326e-01
 -2.6607273e-02
 -1.9079020e-03
 -3.4523243e-01
 -1.5052051e-03
 -5.2833006e-02
 -7.4038804e-03
 -1.9577378e-03
 -7.7888573e-04
 -2.7334446e-03
  1.0557632e-02
  1.4579301e-03
  4.6587098e-04
 -4.5056678e-03
  2.3497436e-03
 -2.0932839e-03
  9.5230289e-04
  1.0235299e-02
 -6.6382475e-03
 -1.2402640e-03
 -2.0959564e-03
  2.2268115e-04
 -7.0370774e-04
 -1.7042176e-03
 -3.6883524e-03
  8.5077621e-04
 -2.5060985e-03
 -5.8835987e-03
  3.5129923e-03
  2.9132317e-03
 -8.3288373e-03
 -4.2292923e-03
 -1.4553822e-03
 -3.8459717e-04
 -6.2040156e-03
  2.7378259e-04
 -4.2883507e-03
 -3.0804090e-03
 -5.4804020e-04
  3.0566063e-03
 -1.1948136e-03
 -1.2683887e-03
  1.5825192e-03
 -3.3529485e-03
  4.7763038e-01
 -4.1355501e-04
  8.9957711e-04
  5.8544097e-03
 -9.1667433e-04
 -5.0930283e-04
 -1.6199308e-03
  2.0339638e-03
  3.2599756e-04
 -2.1584448e-03
 -4.8904103e-04
  1.7046861e-03
 -2.4451825e-03
 -2.0887977e-03
 -3.6449283e-03
  1.2288560e-03
 -1.6394969e-02
 -8.7548513e-05
  5.9964140e-03
  2.6404632e-03
  5.6426140e-04
  9.1319485e-04
  3.0962506e-04
  2.0874638e-04
  4.3024742e-03
 -9.9414552e-04
 -5.7244487e-03
 -2.3090822e-01
 -6.7768283e-03
 -3.9636893e-03
  4.7853327e-01
  3.1870443e-02
  6.0620615e-03
 -8.8914577e-04
  4.2495577e-04
 -3.6852554e-05
  5.8634975e-04
 -1.1805684e-03
 -2.4901635e-03
 -1.8497180e-03
 -1.0753284e-03
 -7.2965599e-03
 -2.9921921e-03
  2.9519957e-03
  1.5593932e-02
 -6.0845539e-04
 -6.4852475e-03
 -1.9862438e-03
  9.7504235e-04
 -2.7688867e-03
  1.8834540e-03
 -1.1298402e-03
 -1.1549643e-03
  1.3734833e-03
 -4.6303472e-03
 -2.1192229e-03
  3.0389498e-03
 -7.4143894e-03
 -3.4180160e-03
 -5.9547997e-03
 -3.5574515e-03
  4.2258925e-03
 -2.1788673e-03
  3.1692670e-03
  2.0154507e-03
  4.1838381e-03
  2.5126936e-03
 -1.1111289e-03
 -5.8242376e-06
 -1.7566853e-03
 -8.4072788e-04
  2.7456153e-03
 -1.8663607e-04
  3.6697064e-03
  1.0156842e-03
 -5.2606063e-03
  9.6932374e-04
 -2.8363243e-03
 -4.2466004e-03
  3.4885696e-01
 -3.1755078e-03
  3.7300354e-03
 -4.3843230e-03
  1.9850384e-03
 -4.0003574e-03
 -1.6421158e-03
  2.3957458e-03
  1.0772277e-01
  9.3592107e-01
  4.8412359e-01
 -7.1586229e-02
 -4.1866541e-01
 -1.0046588e+00
  8.0187902e-02
  4.2617857e-01
 -1.1825333e+00
  3.1253937e-01
  1.5971500e-01
  7.1697676e-01
  8.9206117e-01
 -1.3025954e+00
 -1.1695081e+00
 -4.4439608e-01
  4.2537308e-01
  1.1389976e+00
 -2.9409663e-03
 -3.6763304e-01
  1.5090303e+00
  1.0755951e-01
  2.2429955e-01
  3.4231957e-02
 -1.2216663e+00
  2.7970874e-01
  2.6085502e-03
  6.9589389e-04
 -2.0392784e-01
  9.0078987e-02
  5.6000078e-01
  4.9239032e-02
  1.5185572e-03
  4.9209981e-03
  6.3144010e-01
 -2.2650757e-03
  6.5786131e-03
 -3.5907787e-03
  9.7164111e-03
  1.3772905e-04
  3.3525352e-03
  4.3511596e-03
 -2.2865916e-03
  2.8167679e-03
  1.3539214e-02
 -6.2532876e-05
 -2.0183749e-03
  2.5407746e-03
  4.0633758e-04
  5.5340910e-04
 -1.6656435e-03
 -3.6140031e-03
  5.9138988e-03
 -3.1201015e-03
  2.4358134e-01
 -2.1313655e-03
  5.5682461e-04
 -2.2945786e-04
  3.6010623e-03
 -5.6994773e-05
  5.6231250e-03
 -1.6501628e-01
 -7.0698731e-02
 -4.6182337e-05
  6.1682600e-01
  1.6776698e-02
 -1.5534987e-03
  3.5139147e-04
  4.1721375e-03
 -1.4681945e-03
 -6.3153857e-05
  3.4984434e-04
 -1.8735888e-03
  1.1218407e-03
 -7.1684085e-04
 -1.0089559e-03
 -1.3450735e-02
 -3.9637045e-04
  1.0891504e-01
  2.4823625e+00
 -7.3394220e-04
 -9.9763763e-04
 -4.3045085e-02
 -1.3236357e-03
 -2.7054382e-02
  4.3073762e-04
  7.9189829e-04
  3.5573340e-03
  1.8136953e-03
 -1.1071254e-03
  1.7482187e+00
  6.8373799e-02
  2.9435140e-01
 -4.8911834e-01
 -1.2919292e-01
 -9.0218109e-01
  4.6162997e-04
  3.1137834e-03
  1.7883256e-03
  2.2699167e-01
 -2.6222399e-01
  2.9500477e-02
  1.9234234e-02
 -6.9472514e-02
  2.8676288e-03
  8.4305974e-03
  5.4612574e-03
  2.3118367e-02
 -5.0767614e-03
  1.6177611e-02
 -1.3558183e-02
  2.9664277e-03
  2.7202013e-01
 -1.2160428e-03
  1.6070766e+00
  2.9183039e-03
 -1.2637046e-03
  3.7645625e-03
 -4.2750267e-03
 -1.9189426e-03
  2.6703195e-03
 -4.7161318e-03
  1.8341396e-03
  6.2998692e-03
  5.9269629e-03
  1.6712146e-03
 -1.7552953e-03
 -9.9922521e-03
  3.1029864e-03
  1.3797193e-02
 -4.1836011e-03
 -4.9433339e-04
  2.2762350e-04
 -8.9881243e-03
 -9.5210149e-04
 -1.7030869e-03
  1.7050751e-03
 -2.7585620e-05
 -3.8315903e-04
  3.9744787e-03
 -3.1675440e-03
  4.3649608e-03
 -2.2782470e-04
 -2.2110729e-04
  9.5981947e-04
  4.5787618e-03
  1.2696905e-04
  1.6645456e-03
  2.7985093e-03
  6.4886519e-04
  7.5306403e-03
 -7.9441507e-04
 -1.0536802e-03
 -1.4619296e-03
  3.4334865e-01
 -3.4026667e-03
 -3.4185100e-04
 -5.1794620e-03
  4.9023130e-03
 -2.2666772e-01
  2.9270763e-03
 -8.2610192e-04
  6.1849086e-04
  3.8964274e-05
  8.9836563e-04
 -1.5726365e-03
  3.7596289e-03
 -3.3239809e-01
  4.3563076e-04
  2.5925576e-03
 -1.0533637e-02
 -7.6701125e-04
  1.7430992e-03
 -1.1147857e-03
  3.3360745e-03
 -7.8961498e-04
 -1.8399192e-03
  7.0775638e-04
  2.5036146e-03
  1.2964467e-03
 -1.4643407e-03
  9.3657273e-04
  6.1803862e-02
  6.4828905e-04
 -3.9778978e-01
 -1.3656156e-03
 -4.9439014e-04
  2.0996584e-04
 -6.5636723e-03
 -5.1194125e-01
  2.3364069e-04
  5.0195586e-03
 -2.2063246e-03
  2.1756829e-03
  1.2874111e-02
 -9.0880714e-02
 -6.9081754e-04
  3.3389851e-03
 -8.6526666e-04
  2.2323243e-02
 -9.1518480e-03
  3.6747227e-03
 -8.3092433e-05
 -8.1427553e-04
  4.2971171e-02
 -2.4960008e-03
  5.1871198e-04
  3.7642301e-03
  2.9716696e-04
  1.5626920e-03
  1.9343253e+00
  1.1113989e-01
  3.4070808e-02
  1.6308717e-03
 -1.0547601e-02
 -3.5437758e-03
  1.1227256e-02
 -8.2182325e-04
 -7.5423485e-03
 -5.0981711e-03
 -1.4363784e-02
  2.1711960e-03
  3.1434507e-03
 -9.2824036e-04
  3.2969008e-03
 -8.3193678e-04
 -1.0701935e-03
 -2.3199129e-03
 -8.5328723e-04
 -6.3731652e-03
 -2.6558938e-03
  1.1191387e-03
  8.3327904e-02
  1.0335138e-04
  1.9281565e-01
 -8.6408254e-05
 -4.9390525e-05
 -2.0389799e-03
  2.2893254e-02
 -1.1594183e-03
  9.7825867e-04
  4.3126897e-04
  1.8436539e-03
 -1.0379833e-03
 -1.6549878e-01
  1.3436147e-03
 -1.4359507e-03
 -8.5475709e-04
 -8.7839859e-03
 -2.9590190e-03
  2.4535540e-03
  6.6949218e-04
  2.6959640e-03
 -1.5827597e-03
  6.2521471e-04
  2.1420727e-03
 -5.0675712e-04
  2.3152090e-03
  2.6072452e-03
  2.9013644e-03
  1.5118029e-03
  3.0887366e-04
  1.2039535e-03
 -3.1568573e-03
  1.5213374e-03
  1.7881746e-03
  4.8288428e-03
  3.2506508e-03
 -3.0894935e-04
 -2.3225360e-03
  4.5227146e-01
  2.4539602e-03
  7.5332411e-02
  2.3273388e-03
 -1.5787756e-01
  1.7363256e-03
  3.9009745e-03
  9.7285016e-03
 -4.4737500e-03
 -1.6018364e-03
 -1.3723010e-03
  1.3933134e-03
  9.9717099e-03
 -7.7538770e-03
  1.3461690e-04
 -7.1677583e-05
  3.6640692e-04
  2.4203220e-03
  9.4918016e-04
  1.8613489e-03
 -4.0907165e-04
  4.0438786e-01
 -3.2026714e-04
 -1.7588796e-03
  2.5564332e-03
  5.9711365e-03
  5.6979549e-04
 -5.8936840e-04
 -9.7464456e-04
 -4.1914061e-03
  8.8290781e-02
  5.0554462e-02
  1.4420174e+00
 -4.3594860e-02
 -1.6846988e-01
 -1.8334984e-03
  2.4940409e-01
  6.4323080e-01
 -4.8907873e-01
  8.5989939e-04
  3.0889523e-01
  3.2438427e-01
  3.9258502e-02
 -2.2531988e-01
  9.3145352e-03
  1.9036926e-01
  1.4239058e-01
  3.6414853e-01
 -2.1386580e-04
 -1.8647233e-01
 -2.2972703e-01
  8.5960530e-02
  6.8851215e-01
 -1.4808174e-04
  5.5518949e-01
  5.3368520e-02
  2.1456985e-03
  1.7330319e-03
 -2.6836535e-03
 -9.9247470e-02
  1.5468099e-02
  1.8470089e-01
  2.0982003e-01
 -1.5608175e-02
  9.6334599e-02
 -9.2152134e-03
  3.2028800e-03
 -1.9002605e-02
  1.2695713e-03
 -5.3946404e-03
 -1.5256987e-02
  3.2593887e-03
  5.6576315e-02
 -4.3358528e-03
  2.1473821e-03
  1.1644928e+00
  5.3199665e-03
  3.2755025e-02
  1.4275073e-03
  1.7748142e+00
 -5.2061194e-04
 -7.1112451e-04
  1.1102703e-01
  9.4971363e-04
  1.4962399e-01
  4.2039198e-03
  4.4702003e-03
 -4.1911136e-03
  6.4165919e-04
 -6.3669548e-04
  1.3124975e+00
  5.9404667e-02
  1.4277509e-01
 -1.8003260e-03
 -5.5130816e-01
  3.4635101e-02
  2.3901518e-02
  3.0265497e-02
  2.4600690e-03
  2.6086811e-03
  3.3345824e-04
  4.7093695e-03
  3.6684148e-02
 -1.7417549e-03
 -6.9002021e-04
  3.8398937e-03
  3.3689076e-03
  1.9781128e-02
  1.2028692e-03
 -2.8240881e-03
 -1.4043191e-02
 -4.2991980e-04
  1.0817330e-01
  2.1033636e-03
  8.2814150e-02
  1.4982988e-03
 -6.9846649e-04
  3.1131983e-03
  1.8576054e-02
 -1.7556163e-03
  7.8507245e-04
 -5.5471156e-04
 -7.0200772e-03
  1.8368402e-03
  6.8312641e-03
  2.6399491e-03
  9.1978413e-04
 -2.8555312e-03
  2.7215143e-03
 -1.4611548e-03
  4.3916367e-03
 -8.0696552e-04
 -4.5745899e-03
  1.5351105e-03
  2.6179045e-03
  2.5887655e-03
  2.0646434e-03
  1.3228292e-05
  6.0959221e-03
 -1.0102434e-04
  1.4941578e-03
 -1.2846614e-03
 -3.6355699e-04
  5.4038495e-02
  4.0961415e-05
 -5.6757632e-04
 -1.2874891e-03
  5.2352380e-03
 -7.0558037e-03
 -1.1944299e-03
  1.8632153e-01
  4.0805888e-01
  1.3140498e+00
  4.0741730e-01
 -4.9758646e-01
  1.8479347e-02
  1.3421629e-01
  4.5830917e-01
 -4.1848939e-02
  2.4490501e-03
  1.5841779e+00
  2.9505765e-01
  6.2016594e-01
 -7.6348287e-01
 -2.5537154e-01
 -9.3733191e-01
  6.5911829e-02
  7.3732233e-01
  1.3870971e-03
  8.0789123e-03
 -8.9851767e-01
  1.0278456e-02
  1.3361196e-01
  4.7407777e-04
 -1.1104752e+00
  3.2200307e-02
 -2.6916508e-05
 -3.0894114e-03
  3.5180714e-02
 -9.4858557e-02
  1.6985469e-02
 -5.3234823e-02
  1.1016652e-03
 -1.2521825e-03
  1.4362789e+00
 -4.3556904e-03
 -2.3861592e-04
 -6.0648924e-01
  7.3516059e-01
 -4.9072292e-02
  6.2300283e-01
  2.7158861e-03
  1.0323332e-03
  3.8250477e-05
 -5.0164998e-04
 -2.2890784e-01
  9.1498958e-05
 -1.0012590e-03
 -5.1921185e-02
  5.0930132e-04
  4.5906031e-03
  2.2918884e-01
 -9.7941346e-02
 -1.9355645e-04
  1.1918603e-03
  4.8372242e-01
  3.2667193e-01
  7.7312246e-02
 -6.7049181e-01
 -1.7744187e-02
 -1.1631097e+00
  5.2925104e-01
 -7.1553481e-03
 -5.9127045e-01
 -1.0858614e-01
 -1.0132201e-03
  4.8513675e-01
 -8.7252277e-01
 -1.7714324e+00
 -6.9888979e-01
 -1.0058182e+00
 -6.4261518e-03
  5.6577045e-02
 -2.8063059e-02
 -1.9336572e-02
  1.6190004e+00
  1.9431026e-01
 -3.5337880e-01
  5.3618675e-01
  2.7988144e-04
 -1.9362284e-02
  3.4217814e-01
  2.4857305e-01
  1.3175781e-01
  3.3882099e-01
  1.2051116e+00
  5.6128925e-01
  4.4491217e-01
 -9.6149541e-02
  9.7748184e-01
 -2.4641588e-01
  3.4689918e-02
 -9.5876145e-01
  9.7200280e-01
  9.7454929e-01
  1.2792816e+00
 -5.0321412e-01
 -8.7327701e-01
  5.6128454e-01
  9.6814177e-04
  1.1661471e+00
  3.4393519e-02
 -2.8059042e-01
  1.3024502e-01
  1.1546046e-01
  1.2635689e+00
  4.5293923e-02
  2.6811442e-01
  7.6964569e-01
  2.2751249e-02
  4.4479117e-01
  5.0256517e-02
  4.3682191e-01
  5.2944112e-01
  3.1799456e-04
 -1.7865662e-03
  5.8727651e-03
 -1.2516783e+00
  2.6015320e-03
  6.6319667e-04
 -1.5325120e-03
 -3.3439308e-01
 -2.1678973e-03
 -3.5712521e-03
 -2.0268767e-03
  1.4772476e-03
  3.7986557e-03
 -8.9178811e-04
  1.8046385e-03
 -1.1411512e-03
  3.7817091e-03
 -3.7128266e-04
  2.4096607e-05
 -6.4594136e-04
  1.9073634e-03
  1.3712225e-03
 -4.9578340e-04
 -4.3776538e-03
 -1.2398020e-01
 -3.2286027e-03
 -2.5464504e-04
 -1.6880251e-03
 -2.4288921e-03
  2.6769887e-03
  3.3246671e-04
  4.0562291e-04
  4.9899146e-03
  4.1636895e-02
  1.9698143e-01
  1.9916082e-04
  6.6779232e-01
  4.7233213e-02
 -2.2990182e-02
  1.1641408e-01
 -2.3900161e-03
 -3.5491079e-02
 -3.6650993e-02
 -5.9407208e-02
 -8.6352564e-02
  9.9674857e-04
  5.1681988e-04
  8.1699509e-03
  3.4274805e-02
 -1.9913152e-02
  2.1657574e-01
  7.6904751e-02
  8.8278912e-02
  2.1039835e-01
  2.5118444e-02
  2.5956684e-01
  3.0988580e-01
  3.9312445e-02
  3.9392197e-01
  5.6905556e-01
  1.5144770e-03
  9.3477109e-04
  9.9107879e-04
  1.5785512e-01
  1.0650426e-03
 -1.0440151e-03
  3.9931983e-01
  5.0583810e-01
  2.0961100e-01
  2.5336558e-02
  6.3906435e-04
  4.8705030e-02
 -4.9131126e-03
 -2.5908148e-04
 -5.5064127e-04
  3.6513498e-03
  1.5574342e-03
  3.8924144e-04
  3.5163689e-02
  2.5823938e-03
 -7.4731768e-04
  6.1766822e-02
  2.9363795e-03
 -1.0221190e-03
  2.7272038e-03
  3.4705854e-03
  4.7142178e-02
  7.1317730e-03
  7.5539239e-02
  3.6890514e-03
 -4.5080506e-03
 -5.7581504e-04
 -1.9624119e-03
 -2.9389566e-04
  1.9897205e-04
 -1.3765125e-03
  5.3387767e-01
 -4.3497315e-01
 -8.3794393e-02
  9.5604622e-01
 -7.2820830e-01
  1.9837865e+00
  1.5506942e-02
  3.1206220e-01
  3.8338655e-01
  1.7473447e-03
  4.7169563e-01
  6.5454637e-04
  5.8920246e-01
  9.5656681e-01
 -3.5032124e-04
  4.5169911e-01
  6.2960229e-04
  7.8339475e-01
  8.7952483e-01
  6.8196451e-04
  9.2020190e-01
  2.0393883e-03
  3.3861277e-01
 -6.8904390e-04
  1.4446249e-03
 -3.7886575e-03
 -2.9085800e-03
  2.2970280e-02
  1.3243821e-03
  1.2555148e-03
  1.1686800e-03
  2.5668575e-03
 -2.2111346e-03
 -1.9035288e-04
  1.8935662e-03
  1.1834579e-03
 -1.0046293e-03
  3.9192813e-04
 -3.2732605e-03
  1.4765508e-03
  4.7127572e-03
 -2.1677206e-03
 -3.0161792e-03
  2.6402744e-03
  3.3085613e-04
 -3.8911428e-03
  2.5100294e-03
  2.9398707e-01
 -4.2010196e-03
  2.0933244e-03
  6.5894588e-03
 -2.7517993e-03
 -2.6347574e-03
  2.3172339e-03
  2.3040634e-03
  7.1619550e-04
  1.2769087e-03
 -3.3690757e-04
 -8.6939563e-06
 -4.4410774e-03
 -1.3831818e-03
  7.3370225e-05
 -1.3582216e-03
  1.1338709e-02
 -2.7572407e-04
  7.8463292e-04
  1.4575865e-03
 -4.4029788e-03
  1.4436567e-03
 -1.5121457e-03
 -4.6878438e-03
 -3.9265999e-03
  1.0510692e-03
 -1.3819631e-03
 -1.3691216e-03
  4.4487370e-03
 -1.1510677e-03
  5.1233492e-05
  8.5856812e-04
  8.7014463e-04
  9.1346519e-05
 -4.0348026e-05
  5.5480417e-04
 -1.5953861e-03
  2.9958799e-03
 -1.6636210e-03
  1.4452296e-03
  1.2888593e-04
 -7.9666516e-03
  1.8269353e-03
 -4.0842149e-01
  2.7047999e-03
 -3.5513180e-01
 -2.1680035e-01
 -2.7726161e-01
 -1.4855159e-03
  3.6419538e-04
  1.9657488e-03
  1.3569640e-01
  1.3961785e-03
  2.5012947e-04
  3.1971831e-05
 -6.0245972e-03
  5.8110561e-03
  1.0090352e-04
 -3.2163959e-04
 -2.6408306e-04
  4.9654226e-04
 -1.5626084e-03
 -2.6150744e-03
  1.4303776e-03
 -1.2574739e-02
 -1.5867405e-02
 -1.2431774e-02
 -1.6732375e-03
  2.2904719e-03
 -6.7727693e-04
  1.6367374e-04
 -4.7849016e-03
 -9.5918815e-04
 -1.9062683e-01
  2.3576099e-01
  6.9933645e-02
 -5.9550846e-01
 -7.8203028e-01
  7.0844448e-01
  4.1003656e-03
  2.2989769e-04
  2.2257543e+00
 -3.9268515e-04
  2.4368672e+00
  1.8913702e-03
 -5.8428101e-02
  3.0886774e+00
 -5.2567420e-04
  3.9047831e-01
  6.7478728e-01
 -4.7125494e-01
  1.0013083e+00
  1.5178272e-04
  7.5270480e-01
  6.4972579e-02
 -2.9238636e+00
  3.2799798e-01
  1.5345817e-02
 -4.9588525e-01
 -3.9672186e-03
  4.5428284e-02
  1.0549784e-01
  2.6156683e-03
 -1.3794054e-01
  1.6777853e-03
 -1.7507073e-03
  1.4604124e-01
 -2.5535703e-03
  3.4178240e-04
  3.3556598e-03
 -5.8746012e-04
  1.5685656e-03
  3.9721434e-03
 -1.8968448e-03
 -1.6293372e-03
  3.6363585e-05
  6.9956630e-03
  4.0005008e-03
 -2.6412143e-03
  1.1760119e-02
  2.7629527e-01
  7.2726799e-04
 -1.1666598e-01
 -2.4418745e-03
  1.2419622e-03
  6.2040309e-04
  6.7265832e-04
 -2.4368362e-04
  8.8383665e-04
  5.2451540e-04
  6.9054356e-04
 -3.0387705e-03
 -1.8623967e-03
 -8.8975698e-02
  4.2054582e-01
  5.1547908e-03
  2.6868516e-01
 -5.3571761e-01
 -1.0704466e-01
 -3.5014778e-01
 -2.4009417e-01
 -3.5353884e-01
 -2.2755189e-02
  6.9863312e-02
 -1.2646821e-01
 -1.2869816e-01
  3.4720092e-03
 -4.9669817e-01
 -1.6153785e-03
 -2.7483769e-02
 -1.0762894e-01
 -7.9310304e-03
 -5.5241424e-01
 -1.9105443e-01
 -6.8237716e-03
 -2.6847577e-01
  2.1776864e-02
 -4.0808320e-03
  9.0478910e-03
  8.2832889e-04
 -2.1531150e-01
 -3.9455802e-03
  7.6425076e-03
 -4.9456064e-02
 -2.9254376e-04
 -3.3624724e-03
  1.4271296e-03
  7.7427533e-03
  3.0173413e-03
  5.0355855e-04
 -5.9037976e-04
  6.4545666e-04
  1.3912918e-02
  3.0891306e-04
 -3.3189349e-02
  1.6813602e-03
  4.0234220e-03
 -1.6237096e-03
  3.8739736e-04
 -1.1501630e-03
 -8.2459053e-05
  4.3398635e-03
 -4.1214237e-04
 -9.7222056e-04
  3.4405943e-04
 -2.1089001e-03
  1.1139045e-03
 -3.8635181e-03
 -8.4271719e-04
 -2.0189504e-03
  1.9123631e-02
  7.6186070e-03
  3.4874794e-03
 -3.3385053e-01
  1.9427249e-01
  1.6510377e-02
 -1.1550969e-02
  1.9174142e-01
 -5.9900191e-05
 -8.4597925e-03
 -3.3318761e-03
  7.7319220e-03
 -1.1706690e-02
  1.7919672e-01
 -3.2730661e-03
 -2.1888019e-01
  1.2628216e-03
 -9.1618265e-04
 -1.5143289e-03
 -6.0260994e-03
 -7.2066952e-03
 -2.6955777e-03
 -2.4938075e-02
 -2.3742938e-02
 -1.5699865e-03
 -2.2252966e-02
 -1.2214159e-03
  3.8814507e-03
 -2.1036363e-03
  3.7970350e-04
 -5.6569879e-03
  8.7051233e-04
  9.2872104e-04
 -7.1831566e-01
  1.9779329e-01
 -1.7819935e-01
 -1.8562029e-01
 -2.9425433e-01
  1.9253556e-02
 -2.8833741e-01
 -8.4750557e-01
  6.7135245e-01
 -3.6905755e-03
 -4.7490532e-03
 -1.8496852e-02
  5.9850100e-02
  6.2027866e-01
 -8.5596973e-03
 -1.0499252e-02
 -3.0416690e-02
 -4.6269596e-01
 -1.8047309e-02
 -2.6662377e-01
 -2.8121480e-01
 -9.2003923e-03
 -7.5091474e-02
 -2.8796788e-04
  1.6550286e-03
 -4.0693437e-03
  4.7534937e-03
 -1.8830365e-02
  1.9803212e-04
 -4.2848201e-03
  1.5199214e+00
 -9.3882190e-05
  3.1778333e-04
 -1.0042476e-02
  3.1214810e-03
  4.0287700e-01
  2.5521901e-03
  9.1437821e-04
 -4.2929882e-03
 -9.8965513e-03
  2.0086549e-03
 -3.9649406e-03
  3.3111144e-05
  2.5534090e-03
 -2.3430656e-03
 -5.6608161e-04
 -2.2321429e-04
 -1.7796940e-03
  5.2806945e-04
 -1.3706768e-03
 -1.0395686e-03
  4.2933878e-01
  2.2020242e-03
  1.1208758e-03
 -6.8841001e-04
  1.9206040e-03
  1.0055935e-02
  2.2518807e-06
  4.1029562e-04
 -2.5141975e-04
 -4.5223072e-01
  7.6241052e-01
 -1.6584607e+00
  1.1219083e+00
 -2.1963026e-01
 -2.1602245e-01
  1.0845776e+00
  6.1715204e-01
  6.5495574e-01
  9.3056744e-01
  3.6205986e-01
  3.8081687e-04
  1.6009738e+00
  2.1785930e-01
  2.1814877e-02
  5.3545069e-02
  1.1190252e-03
  1.0935662e+00
  3.6051983e-01
  1.2575404e-02
  2.2390175e-01
  4.7644479e-03
  1.4587839e+00
  9.7964518e-03
 -7.4510567e-02
 -4.9836007e-03
  4.0958863e-04
 -2.4669454e-03
  2.9966512e-03
 -3.5819137e-03
  2.0139150e-02
  5.1558918e-01
 -3.2052841e+00
  1.1614850e+00
 -1.3595563e+00
  1.1674661e-01
 -2.7307883e-01
  2.2467399e+00
  1.4211886e+00
  1.7651914e-01
  1.4275181e-01
 -1.2970005e+00
  7.7685839e-01
  7.7186614e-01
 -6.3374513e-01
 -5.4895830e-01
 -8.4873444e-01
  1.0661924e+00
  4.9549463e-01
 -1.4600521e-01
 -1.7874552e-01
 -1.0804404e+00
  1.1932479e+00
  3.4145296e-01
 -5.2048022e-01
 -1.8878190e-01
 -1.6020937e-03
 -1.7718165e-01
  1.4971515e-02
  4.8142732e-03
 -2.7356333e-01
  4.7732213e-01
 -5.0582349e-01
 -9.1143787e-02
 -1.3938848e+00
  6.0164863e-01
 -1.0524862e-02
  5.0276870e-01
 -7.4744366e-02
  7.6865405e-04
  4.5530894e-03
 -2.6637727e-02
  4.7296193e-01
 -6.7793526e-04
 -4.4882689e-02
  5.7548944e-02
 -2.7795514e-01
  3.0696198e-01
 -3.8377350e-04
 -7.9450449e-03
  3.7418980e-02
 -8.6250409e-02
  9.7011849e-02
 -5.5161422e-01
 -9.6864197e-03
  3.5257748e-01
 -2.2031565e-03
 -1.4756402e-02
 -1.5204482e-03
  2.3168513e-04
 -2.2145365e-01
 -6.2091269e-02
  2.2052994e+00
 -1.1289388e+00
  1.3278257e+00
 -1.0158576e+00
  2.3217091e-01
 -4.5604944e-01
 -9.6279249e-02
  2.2239082e-02
 -1.1454808e-01
  3.1671987e-04
 -1.0102732e+00
  2.8186542e-01
  5.2763421e-02
 -2.1678585e-01
  2.0091826e-01
 -6.1321270e-01
  4.5647416e-03
  2.6777582e-03
  2.8891984e-02
  4.0668258e-03
 -3.6553553e-01
  1.1853062e-01
  2.4561703e-04
  1.5794666e-03
 -3.9241025e-03
  1.5469725e-03
  3.1169101e-03
 -7.4136781e-04
  1.5659847e+00
 -2.4721502e-01
 -5.0886142e-01
  8.6503446e-01
 -1.0003240e+00
 -1.2664127e-02
  1.4923237e-01
 -3.4208344e-03
  6.2067831e-01
 -3.0812412e-03
  2.6012086e-03
 -6.0833278e-03
  2.2386046e-01
  3.4595121e-04
  7.1124788e-03
  1.3348746e-02
  9.1705588e-04
  2.8357533e-01
  1.0028462e-02
  1.5740629e-01
  1.4201169e-01
  7.0154911e-04
  4.7632307e-01
 -2.0434472e-03
  3.1135592e-03
  4.3618141e-04
  1.2106807e-03
  7.9895025e-03
  5.8973662e-04
  5.9057539e-03
 -1.3697246e+00
  3.0781594e-01
  8.4799618e-02
 -1.0453906e+00
 -3.7022462e-01
  6.7022885e-03
 -1.4727998e-01
 -1.1572663e-04
  4.3486472e-02
  2.2569119e-03
  4.6981573e-03
 -7.6683629e-03
 -8.4088081e-03
  4.7147321e-03
 -2.4089892e-03
 -5.7323802e-01
 -8.1902528e-03
  4.0417096e-01
 -1.8324285e-05
 -1.0358455e-02
 -1.4364867e-02
  8.9129753e-02
 -6.5238541e-04
  1.1811858e-03
  3.4460216e-03
  6.6372805e-04
 -1.4710812e-03
 -1.3216008e-02
  4.5516784e-03
  4.8368350e-03
 -4.4419658e-01
  6.7808884e-01
  8.2289025e-02
 -3.6225331e-01
  5.3563911e-01
 -9.4249690e-01
 -7.7068717e-03
  6.3747138e-02
 -1.6159034e+00
 -4.0983964e-02
 -1.9994609e-03
 -2.2511047e-03
 -2.9363963e-01
 -7.4602063e-03
 -9.7804749e-04
 -7.2643298e-01
 -5.3288266e-03
 -8.8286512e-02
 -6.7364343e-02
 -1.2844327e-02
 -1.1558284e+00
 -1.5987113e-02
 -4.3311572e-01
 -7.3746330e-01
 -2.3772861e-03
  2.9525751e-01
 -1.3938170e-03
 -8.0216192e-03
 -8.4679341e-04
 -4.6736165e-03
 -1.0139616e+00
  1.2173953e-01
 -6.5307401e-04
 -7.9577595e-01
 -3.7742153e-02
 -6.3479808e-03
 -1.2725911e-01
  3.6985364e-03
  2.5177148e-01
  6.2074687e-04
  1.3599496e-03
 -6.3309832e-03
 -7.4557491e-02
 -4.0907576e-03
 -6.1055101e-03
  1.4560799e-03
 -4.8357244e-03
 -5.5935167e-02
  2.0848215e-03
 -7.5327174e-04
  8.4888673e-01
 -2.9531894e-03
  1.4404289e-03
 -9.7209796e-02
 -6.8032676e-03
  6.5203826e-04
  1.1453999e-03
 -5.3499307e-04
  2.0862101e-03
 -3.0533544e-04
 -8.5572082e-01
  4.5707357e-01
  8.0429344e-03
 -2.2176339e-01
  1.6793852e-01
 -2.9973972e-01
 -1.6827375e-02
  4.2371757e-04
  4.7175351e-01
  2.3364220e-04
  3.1620031e-03
 -2.5476268e-03
 -7.8346673e-03
  4.0904587e-04
 -2.7652127e-03
 -1.0773217e-03
 -1.6833352e-03
 -6.4339894e-01
 -1.6291274e-02
 -9.8454216e-03
 -9.1318821e-04
 -3.8947894e-03
 -1.8634632e-01
  5.9751100e-03
  6.7071646e-02
 -1.4656539e-03
  2.7828161e-03
  4.6527790e-04
 -1.4002977e-03
  1.6698490e-03
 -6.6470742e-01
  8.7625337e-01
 -1.2550681e+00
  2.9713076e-01
 -6.3993931e-01
  1.8677752e+00
 -1.3804681e-02
  8.2523711e-02
 -3.5415456e-01
  4.5303602e-04
  4.9329847e-01
 -1.2330018e-03
 -1.5228832e-02
 -1.8065351e-01
 -2.3648474e-02
  7.5705506e-02
 -6.6975102e-02
  1.3261096e+00
 -2.3510804e-02
 -4.4647053e-02
 -5.5750316e-01
 -1.4700308e-02
  2.9100370e-01
  3.2157320e-01
 -1.3770565e-03
 -1.3375037e-03
 -1.3077530e-03
  1.4115226e-03
 -5.3918478e-03
 -3.2819030e-03
  3.6418995e-01
  4.9892974e-01
  4.8614654e-01
 -5.6359953e-01
 -9.9971581e-01
  8.2610808e-02
 -1.9071208e-02
  1.2323918e-03
  7.0535761e-01
  1.6990051e-01
  1.2479845e+00
 -8.3923241e-04
 -8.3121369e-03
 -9.8293668e-01
 -5.4474428e-02
  3.3980343e-01
 -6.5348460e-03
 -1.0583527e+00
 -8.2790758e-03
 -2.4915372e-01
 -6.2346220e-01
 -4.6388339e-03
 -6.2173885e-01
  1.3118462e-03
 -2.1515854e-02
  5.0812005e-03
 -2.7761774e-03
 -3.7946802e-02
  5.7895329e-02
  7.9600513e-03
 -3.7656366e-04
  4.5960071e-03
 -5.7106111e-03
 -5.7442896e-02
 -3.9453307e-04
  4.8520467e-03
 -1.0014874e-03
  3.7810480e-04
 -3.6789819e-03
  1.1912066e-03
 -8.3237537e-04
 -2.5994189e-03
 -4.1743922e-03
 -1.1091460e-03
 -7.0363596e-05
 -5.6016731e-01
 -5.6170940e-04
 -6.5190380e-04
 -2.4138935e-04
 -2.1501826e-02
  1.5966255e-03
  1.5943224e-02
 -5.5377595e-03
  1.7009382e-01
  3.6052265e-04
 -1.3711912e-03
  1.7433990e-02
  2.3703913e-03
  2.8441371e-05
 -1.2076850e-03
 -7.2876909e-03
  3.0303092e-03
 -1.0095602e-03
 -6.6496194e-03
 -7.6520495e-04
 -2.8875466e-03
 -2.4518085e-04
  2.7485159e-03
 -2.2989765e-03
 -2.1502280e-03
 -3.9543468e-04
 -2.5353953e-04
 -1.2157069e-02
 -2.2887490e-03
 -1.3508513e-03
  2.3076817e-04
 -7.7953418e-03
  2.9285723e-01
 -4.2962134e-03
 -1.6369651e-03
  4.1027525e-03
 -1.0829151e-03
  2.8399855e-04
 -8.1183756e-04
  7.4050727e-04
  1.1800992e-03
 -2.8502510e-04
  8.3899056e-04
 -1.0481267e-03
  1.7212394e-03
  6.8818973e-03
 -7.2602909e-03
 -5.4767998e-03
  3.9083722e-01
 -1.7933904e-04
  1.6842653e-04
  8.7384680e-05
 -2.0574540e-05
  9.8038791e-04
  5.0986721e-03
 -1.4949938e-03
  1.2763465e-03
  4.8566051e-03
  4.1174358e-03
  3.2333222e-03
 -2.2619737e-03
  2.9861459e-03
 -6.8498112e-04
  1.3985277e-05
  4.7243033e-05
  2.3526615e-03
  5.3435788e-03
  8.1503745e-03
  1.0817383e-03
  1.0935479e-03
 -3.5607261e-03
 -2.9103891e-03
  1.3746775e-02
  3.1866418e-04
 -3.4360643e-03
 -1.5448340e-03
 -1.7423708e-03
  7.1049625e-01
  1.2475470e-03
 -8.2907772e-01
  6.6552422e-04
 -3.9511342e-03
  1.4212039e-04
  3.6836474e-03
 -1.6755399e-03
 -5.6060501e-03
  8.2881370e-04
  2.3951582e-03
  9.1334473e-04
 -9.9793251e-04
 -1.3579900e-03
  1.8272563e-03
 -6.4734736e-04
 -5.8781006e-03
  2.2682594e-03
  2.5186050e-03
  8.4445853e-04
 -3.0271491e-04
 -6.2997965e-04
  4.6269969e-07
  6.7928678e-04
  7.3530286e-04
  2.9486712e-04
 -2.5544101e-03
  1.4431190e-03
  6.1507469e-01
  5.8183412e-04
 -3.9666748e-01
 -5.5439947e-03
  9.2214948e-01
 -2.5331680e-04
  1.2771341e-04
 -6.6226065e-01
  2.4267735e-01
 -9.8605365e-02
  1.2251850e+00
  3.9741362e-04
 -7.7472292e-02
 -3.9758474e-01
 -6.8983540e-02
  2.6072242e+00
  3.0363372e-01
  1.9052686e-01
 -2.0708525e-01
 -1.2546970e-01
  6.5777123e-01
 -3.9688227e-01
  3.5204226e-01
  2.6262227e-01
  9.2757273e-01
 -1.3265330e-01
  1.1549403e-03
 -3.4190901e-03
 -7.3960348e-04
 -7.3467288e-03
  5.5537951e-01
  7.0180029e-02
  5.6855148e-01
  3.3215979e-01
  2.9076007e-01
 -3.7130114e-02
  3.7757106e-02
 -3.2478267e-01
  5.8119053e-01
  1.7975846e-01
 -9.9221194e-01
 -6.4199762e-03
 -3.1824329e-01
 -1.2500215e+00
 -2.2133797e-01
  1.0057079e+00
 -1.6430197e+00
 -6.5568423e-01
  5.4095781e-01
  3.8661349e-01
 -3.3522978e-01
 -4.1197273e-01
 -3.1998751e-01
 -2.9092991e-01
 -3.6537942e-01
 -4.4715059e-01
 -7.9698948e-05
 -2.1054817e-02
  1.4373322e-01
 -5.1511060e-03
  4.2523203e+00
 -1.3833873e-03
  1.6177455e-02
  6.3586474e-04
  7.5830561e-01
  1.4295614e-01
  2.0534830e+00
  1.3109387e-01
 -6.6738653e-01
 -3.1415457e-04
 -3.6308002e-02
 -1.8067898e-02
 -2.8794071e-01
 -5.2673858e-01
  5.6488466e-01
  9.9462497e-01
  1.5535395e-01
  5.8439812e-03
  3.7257531e-01
  1.4990210e-03
 -1.3454634e+00
  1.0545053e+00
  4.5816670e-03
 -1.2160351e-03
 -1.4518484e+00
  5.3389384e-03
 -1.2936633e-03
  1.5003316e-03
 -1.2685554e+00
 -5.9483874e-01
 -2.4790037e-03
 -4.6436588e-04
  3.7634510e-01
 -1.5919174e-01
 -4.8851348e-02
 -2.5202376e-03
  1.9622923e-01
  3.1294575e-01
  4.2009541e-01
 -7.4697840e-01
 -1.5647403e+00
 -1.5272410e-01
 -2.5717565e-01
 -1.2094246e-03
  1.4990755e+00
  1.3090426e+00
  1.0278044e+00
  7.3366302e-01
 -2.1919637e+00
 -6.9339447e-02
  1.3738015e-03
 -1.9173563e-03
  1.0030792e+00
 -2.4347180e-01
  7.9656100e-01
  8.4659243e-01
 -6.3271493e-02
 -2.8150845e-01
  9.6159995e-02
 -2.0118736e-04
 -1.8550472e-01
  3.8282672e-01
  5.1686227e-02
  1.5212957e+00
 -2.4502611e+00
  7.7890709e-02
  1.6034420e-03
  8.6794116e-02
 -2.7276069e-01
 -6.0428339e-01
 -1.9876741e-01
 -6.2136636e-03
 -2.6865199e+00
  1.3779896e+00
 -1.2361486e-02
 -8.3039533e-03
 -2.1982780e+00
  2.9047495e-01
  1.7732501e-03
  5.1775423e-04
 -3.4686464e-01
 -5.5914123e-02
 -1.4988480e-02
 -1.5386988e-02
 -5.5255580e-01
 -3.0674654e-01
 -5.2238756e-01
 -2.4870031e-01
  1.0507504e+00
 -2.0159060e-01
 -5.4373819e-01
  8.5293566e-04
  1.0282873e+00
  4.8992619e-01
  1.7083031e-01
  5.3841764e-01
 -1.1864202e+00
  6.2828678e-01
  1.4110686e-01
  2.3968141e-03
 -1.2607455e-01
 -3.3588782e-01
 -4.4532669e-01
  8.9224458e-01
 -1.4254151e-01
  4.8909687e-02
  9.9145961e-01
 -1.2769494e-02
  2.4105606e+00
  3.6211647e-02
  4.0957528e-01
 -3.5089913e-01
 -9.3330556e-01
 -1.3534126e-02
  8.0327486e-04
 -1.1707807e-01
  1.9322081e+00
  4.6253547e-01
  7.9181775e-02
 -5.3484446e-01
  2.3981479e-01
  5.1450884e-01
  2.0898877e-02
 -2.0657165e-03
 -1.0885149e+00
 -3.8889888e-01
  8.8412240e-03
  1.3529199e+00
  4.6038917e-01
 -6.4177835e-01
 -4.1901284e-01
 -9.2108423e-01
  9.4166493e-01
 -3.9823294e-01
  1.6639696e+00
  5.4873788e-01
 -1.3121694e+00
  1.6205640e+00
  3.9642736e-01
 -1.6449153e-02
 -8.6515822e-02
 -1.3866653e+00
  1.8377043e-01
 -1.4892604e+00
 -4.2548481e-01
  3.0091856e-02
 -2.4372603e-01
 -7.2016664e-02
  1.5040706e+00
  3.7243068e-01
  7.3586572e-03
  2.1084310e-03
 -1.8577133e+00
 -4.4754499e-01
 -2.5590894e-01
  8.0520781e-03
  2.9048800e-01
 -1.0999033e+00
  4.3073717e-01
 -2.6458792e-05
 -9.5469373e-01
  6.4196403e-04
 -2.6054180e-03
  1.4481918e-03
  1.6124570e-01
  2.2274077e-02
 -2.0701559e-03
  2.9109325e-04
 -1.2539835e-03
  3.1105432e-01
  7.2880167e-01
  5.0272129e-04
 -2.0801904e+00
  2.0565383e+00
  1.7701926e-03
  1.9072734e-03
  1.1802411e-03
  5.5585109e-02
  3.1235337e-04
 -2.3806593e-03
 -3.1896180e-01
 -1.9882968e-01
 -8.8687602e-04
 -2.0353869e-03
  3.3464941e-01
 -1.4796705e+00
 -6.6500145e-01
 -3.8635645e-02
  2.9016143e-01
 -9.6072680e-01
 -5.6889707e-01
 -1.2232301e-01
  2.6387358e+00
 -1.9265266e-01
  1.6076177e-03
 -4.9156228e-05
  5.2638662e-01
  6.0190313e-02
  3.5341382e-03
  3.6535054e-03
 -1.0639085e+00
  1.3906122e+00
  3.6785910e+00
 -7.7696517e-04
 -2.0585992e+00
 -1.9186525e-01
  1.5258658e-01
  6.5958482e-04
 -3.6967254e-01
 -6.1692119e-01
 -5.5945642e-02
 -5.2559446e-03
  3.8259602e-01
  6.8621407e-03
  9.9004328e-04
  7.9358323e-04
  2.3045673e+00
  8.6540681e-01
  2.0284577e-04
 -2.0390011e-01
 -1.1768223e+00
  1.2426428e+00
  2.6160893e-01
 -8.6588806e-01
  2.2907019e+00
  6.3084841e-02
  6.7394166e-07
  7.9947531e-02
 -5.2387697e-01
 -1.8062630e-01
  2.8706534e-04
  1.2334250e-04
  7.6528561e-01
 -2.0230183e-01
 -5.1478904e-01
  7.7514729e-04
  3.2308117e-01
  7.4826086e-01
 -1.2645193e+00
 -1.9417237e-01
 -9.1802782e-01
  8.7296951e-01
 -8.8729843e-04
  2.2446940e-04
 -6.5746683e-01
 -3.4476522e-01
  5.6135237e-01
  2.7701571e-03
  6.5672207e-01
  5.1967514e-01
  8.1225002e-01
 -8.4277093e-02
 -1.3195192e-02
  3.0473384e-01
 -9.8022975e-02
  2.7299765e-01
 -4.5612147e-01
 -3.0085805e-01
  9.4063357e-02
 -4.8537261e-04
  7.9125655e-01
  3.5471660e-01
  1.2226952e-01
 -3.0203146e-04
 -1.1599150e-01
  9.2425162e-01
 -2.9694131e-03
 -2.6657493e-04
  2.1205108e-01
  5.9675142e-02
 -3.5554481e-01
  4.5896909e-04
 -8.3889896e-01
 -7.4447095e-01
 -3.2103606e-03
  7.6329564e-03
 -4.8228833e-01
 -4.3898004e-01
  1.8358029e-01
 -2.7577909e-02
 -5.3449355e-02
  2.8571263e-01
 -8.8529745e-03
 -5.7524891e-04
 -3.1321365e-01
  5.7122612e-01
  1.4979308e+00
  8.7212580e-01
 -1.6359103e-01
  3.9195321e-03
  1.1033681e-03
 -1.3847125e-03
 -8.1375247e-01
 -5.3514278e-01
 -9.1766812e-02
 -1.2591259e+00
  3.9417854e-01
  3.9394665e-01
  9.5982105e-02
 -7.9346251e-01
  1.6654375e+00
  4.0146384e-01
 -1.0810419e+00
 -7.1643788e-01
  1.1596236e+00
  2.6466196e-02
 -2.8493248e-03
  2.2848598e-03
 -3.0351223e-02
 -1.0565985e+00
 -3.2962605e-03
 -4.3771658e-02
 -1.2895161e-01
 -4.9036075e-03
 -6.0171890e-04
  2.9447759e-04
 -1.9277672e+00
 -9.6487880e-02
 -1.4438739e+00
 -9.7562319e-01
  5.3287301e-02
 -1.0480367e-01
 -6.0803518e-02
 -1.9899542e-03
  1.3733493e-01
  5.0629169e-01
 -1.6128451e-01
 -9.0391833e-01
 -1.8730497e+00
 -8.5121411e-01
 -2.7264148e-01
 -1.3341671e-01
  2.0318289e+00
  1.9895478e+00
  1.6215171e+00
  1.0824672e+00
 -8.6194402e-01
 -7.6860475e-04
  1.5356385e-02
 -3.5048400e-03
  2.3857020e-01
 -9.4845772e-01
 -2.6526568e+00
 -2.0690258e+00
 -1.0119866e+00
 -1.3159182e+00
 -8.4507984e-01
  1.3561922e-03
 -3.7604179e-02
  9.0565972e-02
 -3.2700244e-01
  1.4788400e-01
  2.6898336e-01
 -1.2106869e-01
  2.2174071e-03
  4.5921132e-03
 -9.8884749e-01
 -5.4229343e-01
  1.1967114e-01
  7.0027840e-01
 -1.1149886e-01
  7.5590909e-03
 -1.9990378e-03
 -3.5812043e-02
 -3.4093760e-02
 -2.9164345e+00
 -1.0758498e+00
 -3.3776131e+00
  2.8493550e+00
 -3.8366359e-02
 -1.3138335e-03
 -1.5974276e-02
 -1.6389806e+00
  4.1923866e-01
 -3.3079136e-02
 -4.6964467e-02
  2.0143127e-01
 -1.1809095e+00
 -2.4893260e-02
  2.7261665e-01
  6.0577101e-01
 -2.4971887e-01
 -1.1229403e-02
 -9.1774851e-01
  7.1207142e-01
 -2.2585315e-01
 -1.3109335e-02
  2.7809603e-04
  4.0547043e-01
 -4.9106699e-01
 -1.1739353e+00
 -1.3628564e+00
  7.0337820e-01
 -5.1333755e-01
 -1.9195620e+00
 -4.2840477e-02
 -7.3114443e-01
 -1.2579606e+00
 -2.2229965e-01
 -9.6108747e-01
  7.4120533e-01
 -1.1534961e-01
  1.6138462e-03
  4.3396819e-03
 -1.1729834e+00
  1.2170451e-02
  4.5944226e-01
  8.0665236e-04
  2.3527267e+00
  5.3605634e-01
  3.6436948e-03
 -7.2055067e-05
 -8.8375829e-02
  9.0234362e-02
 -2.0614598e+00
 -4.9448884e-01
 -5.3734350e-01
  2.9616848e-01
 -2.6063895e-01
  6.8155868e-04
 -8.4288470e-02
 -1.2351680e+00
  1.5154222e+00
  4.4909176e-01
  1.2299531e+00
  4.5804370e-02
 -1.4889501e+00
 -1.5666777e-02
  4.9017671e-01
  3.8603556e-01
 -9.4709027e-01
 -1.1608132e+00
  3.0188042e-01
  6.4667070e-01
 -3.9650112e-02
 -1.4018959e-03
  2.0117292e+00
  6.6254890e-01
 -1.0727192e-02
  8.1213731e-01
 -1.0326403e+00
  3.8194704e-01
 -2.2022179e-04
  2.1542795e-03
  3.6637235e-04
 -7.4813950e-01
  4.7921032e-01
  1.8312029e+00
 -5.4002345e-01
  1.5239872e-03
  3.0082332e-03
 -2.3944294e-03
  3.1606120e-03
 -1.3805549e-01
 -4.7419887e-04
 -1.1231926e-02
 -2.6987270e-01
  3.3282638e-05
  2.4630711e-03
  6.2927773e-04
  1.8612702e-03
  2.6369683e-02
  4.3211469e-01
  2.1582399e-01
  3.0390987e-01
 -6.7343949e-03
 -5.0272983e-03
 -6.7469868e-04
 -2.6355352e-04
  1.3621887e+00
 -3.9471712e-04
  6.1470139e-01
 -1.3018299e+00
 -1.7296212e-03
  1.7398763e-02
 -3.6742695e-04
 -8.0789148e-04
 -3.5657430e-01
 -8.3014065e-01
  1.5988066e-03
  3.4000516e-01
  2.1001153e-01
  4.9706380e-04
  4.6439255e-03
  2.0209579e-01
  6.2705278e-01
 -4.2568231e-01
  2.7375883e-01
  2.1720330e-01
 -3.3730976e-04
 -1.3853323e-03
 -3.0356662e-03
  4.1662203e-03
  8.8219881e-01
  4.4495100e-01
  3.1744897e-01
  2.4614254e-01
  2.5854847e-01
  4.5465294e-04
  7.4357898e-03
  3.1032109e-01
 -5.0592418e-03
 -5.1607471e-03
  3.0335364e-01
 -7.0570745e-02
 -1.5999968e-03
  1.0824841e+00
  1.8105583e-03
  5.2191102e-04
 -9.0969789e-01
  1.4904394e+00
 -2.7913549e-03
 -3.4889325e-01
 -8.2268484e-02
  1.1195593e-03
 -3.5849418e-03
 -2.8894839e-01
  2.5501129e-01
  8.8703237e-02
  2.4409835e-01
 -7.4250418e-01
  5.2780198e-04
 -6.1190631e-03
  1.5913103e-03
  3.3406207e-01
  2.8593054e+00
  2.2777455e-01
  9.1149372e-01
 -1.7756747e-02
 -2.1821809e-01
  1.5931411e-01
 -3.1606181e-04
  3.9428029e-02
 -1.1793562e+00
  1.5694961e-02
  2.2717050e-01
 -1.5139525e-01
 -1.3220706e-03
 -6.5445650e-04
  2.5352200e-03
  8.4769567e-03
  6.5987009e-01
  1.5349590e+00
 -8.4951364e-02
  4.7383228e-01
 -1.1761689e-01
  1.1203396e-02
 -4.4676099e-02
 -1.4052878e-01
  2.5084570e-01
 -1.1813328e-01
 -5.2771294e-01
 -6.3519284e-02
  7.1355677e-04
  3.6533840e-04
 -9.7101321e-05
  3.7557027e-01
  1.1167533e+00
 -3.0114305e-01
 -1.2495931e+00
 -9.0133524e-01
  7.1346916e-02
  6.4627588e-04
 -1.4348847e-01
 -4.1724652e-01
 -1.5964968e-02
  7.3455453e-02
  2.2123796e-01
 -2.4263804e-01
 -6.9005595e-04
  6.5490417e-03
  5.6731608e-04
 -6.0691589e-01
  2.2582862e-01
  1.3536544e+00
  1.5017396e+00
  8.0272600e-02
  5.9421441e-06
  4.6702387e-04
 -1.8629825e-03
 -2.7871776e-01
 -1.8016759e+00
  1.8972974e+00
  4.6832487e-01
  1.9064214e+00
  2.9672691e-01
  7.2461140e-01
  3.8296171e-04
 -7.8643912e-01
 -1.3031813e+00
 -2.0404608e+00
 -4.6422237e-01
  9.8142964e-01
 -1.7201883e-03
 -2.6059884e-03
 -1.0611514e-03
  1.7647120e-03
 -8.2731545e-02
  1.2605848e-03
 -7.9091489e-01
 -2.4443357e-01
  2.0514335e-03
 -9.9175808e-04
  1.9459004e-03
  4.0454108e-02
 -6.7833441e-01
 -2.2933939e-01
 -1.1146263e+00
  2.8544402e-01
  3.4954173e-03
  1.0527609e-03
 -5.6913198e-04
  2.0097946e-04
  2.3261094e+00
  3.7540854e-03
  4.0754563e-01
 -8.3982694e-01
  1.6147137e-03
  1.1034675e-01
  1.1945800e-03
  1.4368975e-01
  1.2734703e+00
 -4.4228858e-01
  1.9239625e+00
 -2.2315900e+00
  1.7475946e-01
  6.2763126e-04
 -8.5034105e-04
  2.4334292e-04
  1.8566409e+00
 -1.8092476e-02
  1.3913155e-03
  4.7734582e-01
 -1.3339072e-01
  9.8610061e-01
 -2.1099197e-03
 -2.6968324e-01
  2.5128560e-02
 -5.4206991e-01
 -1.9199578e-01
  6.4646602e-01
 -3.9014637e-03
  4.7498223e-04
  2.3117352e-03
 -1.3776611e-01
 -5.6463385e-01
  8.3603568e-02
  5.0790168e-02
 -1.2892396e+00
  5.0412430e-03
 -5.5677892e-04
  2.2830658e-03
 -1.0578335e-01
 -1.8022408e-01
 -7.6197922e-01
 -1.4535079e+00
  1.3689475e+00
  1.6514576e-03
 -3.4549478e-03
 -2.3636448e-03
 -2.7852318e-01
  3.9265877e-01
 -6.3526662e-05
  3.9814007e-02
 -1.6778964e+00
  1.5699465e+00
 -7.2391675e-04
  5.0803897e-04
 -8.4877646e-01
 -1.6022471e+00
  1.4517765e+00
  4.4036570e-01
  4.3241283e-01
 -1.2587943e-03
  3.9270350e-01
 -5.5529810e-03
  3.5680138e-02
  1.7689035e+00
  3.1939238e-01
 -2.0283181e-03
  1.3013679e+00
  6.6195375e-01
  1.2350292e+00
  2.0067841e-03
  4.1397730e-01
  1.0107790e+00
 -8.1699812e-01
 -1.8599116e-03
  1.1417110e-02
 -7.5562805e-02
 -1.7689050e-03
 -7.3489465e-04
  1.1925844e-02
 -1.9789479e+00
 -1.7205627e-01
 -1.4105599e-01
 -3.5179278e-01
 -1.6549861e-01
 -1.7856409e-01
 -2.9519659e-03
 -8.5576397e-01
 -2.0600717e-01
 -9.2833084e-01
 -3.9115195e+00
  9.0134591e-01
 -1.2964043e-03
  2.2433901e-03
  2.2600617e-03
 -6.9732499e-01
  3.0521652e-01
 -1.2539697e-01
  7.9500127e-01
 -5.1732427e-01
  2.6637605e-01
 -6.4137560e-01
  1.1020415e-02
 -2.5706406e+00
 -2.5217047e-01
 -9.8505110e-02
 -1.1489538e+00
  6.0007709e-01
 -2.0400095e+00
  2.7055896e-03
  3.3865252e-01
 -5.2646518e-01
  6.5471852e-01
 -1.9049557e-02
  2.1570579e-03
 -1.6785384e+00
  1.6200559e-01
 -6.2250292e-01
 -3.7466214e-04
  9.4250745e-01
  8.0271459e-01
  2.8493530e-01
  1.8533891e-01
 -6.9728279e-01
 -6.7529112e-01
 -8.0079539e-04
  6.3207750e-03
  9.3631595e-02
 -1.9477943e-03
  9.6478662e-04
 -1.3687667e-03
 -2.6054744e-02
  4.9751233e-03
 -3.1009386e-03
 -2.1614011e-03
  7.4519312e-01
 -2.1290802e-03
 -1.1990348e-02
 -2.2263327e-01
 -2.0671613e-03
  1.5996990e+00
 -4.8593734e-03
  2.8005731e-01
 -6.3150930e-01
  8.5861312e-04
 -1.2136678e-02
 -1.6817371e-03
  1.1427631e+00
 -4.2724174e-01
 -6.4871711e-01
 -3.8624753e-03
 -2.8470322e-01
 -3.3030096e-01
  1.5419002e-01
 -6.7952648e-02
 -2.4986257e-01
  1.5981853e+00
  5.4626685e-01
  1.1641697e-01
  5.0611955e-01
  1.4434253e+00
 -6.0592280e-03
  9.6080974e-02
 -7.3388237e-01
 -4.4907004e-02
  1.1873651e-04
  1.9808798e-03
 -9.7993088e-01
 -1.5660677e+00
 -1.8314977e+00
  1.0533084e+00
 -7.7358365e-01
  7.0222408e-01
 -2.1559463e-01
 -4.7136764e-03
 -3.4279570e-01
 -2.6199376e-04
  6.9608954e-03
  4.3397465e-01
 -1.1318085e+00
 -2.5362527e-01
 -4.6413180e-01
 -1.1140236e-03
  1.3311441e+00
 -1.6245822e+00
 -2.6182413e-01
  1.3833370e+00
 -1.1026492e-01
 -2.8089610e-01
  2.2531234e-02
  3.0757791e-01
  4.3794441e-01
  8.5164160e-02
  2.1851980e-03
 -2.9087996e-03
  4.9741098e-01
 -2.6063010e-01
  7.8372788e-05
  6.9864024e-04
 -9.8457342e-01
 -9.7715187e-01
  2.4947510e+00
  4.8767531e-01
 -7.1955688e-02
  2.1062603e+00
 -4.1530576e-01
  6.3768920e-04
 -5.0272632e-01
  3.3261675e-01
 -2.8151965e-03
 -2.6994452e-04
  9.0746857e-02
 -3.5040477e-01
 -3.5155582e-01
  6.4990611e-04
  1.3875818e+00
  1.0385441e+00
  7.4889779e-01
 -9.7095162e-01
 -5.6451201e-01
  2.0006506e+00
  2.3265816e-01
  3.5449523e-01
  9.5304251e-02
 -3.9428696e-01
  7.8517020e-05
  1.0634259e-04
 -5.0172204e-01
  1.9635133e-01
 -1.5565454e-03
 -5.8841193e-04
  1.4838196e+00
  1.7209374e+00
  2.4839529e-01
  3.2385836e+00
  8.9008488e-02
  9.4464278e-01
 -6.1290346e-02
  1.0450455e+00
  2.1848533e-01
 -5.7405338e-02
 -1.0571405e-03
  6.0518336e-04
  6.6061544e-01
 -3.4678895e-02
 -1.4401335e-01
  6.9782557e-03
  9.1711992e-01
  1.0324787e+00
 -3.1775436e-01
  1.5235094e+00
 -6.6504681e-01
  2.0504235e-01
  4.7789463e-01
  3.3553738e-02
 -9.1871268e-01
 -5.7898074e-01
 -2.6493877e-01
  7.2243396e-04
  7.5256944e-02
  2.3761223e-01
  5.6982338e-02
 -1.2368531e-04
 -3.2379535e-01
 -1.3774620e-01
  6.4328510e-01
 -5.2141392e-01
 -1.7694236e+00
  2.8614494e-01
  6.2485356e-03
 -4.7176844e-03
 -4.4526726e-01
  1.7847710e-03
  6.3395062e-03
  8.8159065e-04
  6.8726355e-01
 -2.1654975e-03
  1.0617175e-03
 -5.4213998e-04
 -1.2290583e-03
  1.8572305e-01
  4.6138983e-04
 -2.0319940e-01
  2.5857408e-03
 -8.8763529e-01
 -6.4354256e-04
  4.7484990e-02
  8.4865165e-01
  1.3948958e-01
 -2.8602827e-01
 -5.4591326e-03
 -7.6384711e-01
 -9.9369496e-01
  2.2199973e-03
  1.8508484e-03
 -6.7720413e-02
 -2.1471879e-03
  4.7285292e-02
  3.8038117e-01
 -2.2551236e-01
  2.3191479e-01
  7.4743334e-04
  2.0311815e-03
 -1.7042066e-01
 -3.4944431e-03
 -3.5228906e-03
 -1.6824181e-01
  1.7771231e+00
 -9.4879586e-01
 -7.0796963e-03
  3.8879726e-03
 -2.3578465e-02
  2.2370507e-01
 -8.6823152e-03
  3.2309461e-01
 -1.2254947e-01
  1.1439760e+00
  8.5293660e-03
  6.3276635e-03
 -7.8156883e-01
  1.3346994e-01
 -2.6207315e-03
 -1.4733617e+00
  8.4907282e-03
 -2.7234264e-02
  5.7723112e-03
 -6.3172439e-03
  1.6514204e-03
  1.0817549e+00
 -1.5660933e-01
 -2.3725656e-01
  4.2748629e-04
 -1.0676743e-01
 -2.0024970e-03
  2.5451857e-01
 -1.9663104e+00
 -2.2126859e-02
 -2.9323073e-02
 -5.1983315e-01
  1.3289639e+00
 -3.3876952e-02
  6.5627240e-02
 -3.7100218e-04
 -2.5469823e-02
  9.4858551e-01
  1.2251049e-01
  1.6939340e+00
  1.1337736e+00
  3.2425323e-01
 -1.5704108e-03
  2.5783125e-03
 -2.8338057e-01
  1.1546557e-01
 -6.9297990e-04
  1.9659361e-01
  1.1516742e+00
 -1.0514779e+00
 -5.0600767e-03
  1.3249064e-03
 -2.8621486e-01
 -2.5443196e-01
  4.6893496e-02
 -2.7748829e-01
 -1.2616473e+00
  5.7471669e-01
 -1.3734399e-03
  2.7736539e-01
  2.4899788e-01
  1.1462115e-01
 -3.9616430e-01
 -5.0627667e-01
 -4.8824018e-01
  3.6380455e-01
  1.7319302e-01
 -2.1594474e-03
 -3.8493541e-01
 -7.0287108e-01
  2.6020855e-01
  7.9784216e-04
 -1.7486669e-02
  3.3918709e-01
 -1.3351790e-03
 -2.2899217e-03
  4.4296426e-01
  3.8815252e-02
 -1.1932448e-01
  2.6977152e-02
 -9.8652852e-01
 -4.0883276e-01
  1.4997802e-03
 -2.5871652e-03
 -1.4168343e-01
 -7.2991973e-01
  2.1254504e-01
  9.9374306e-01
  1.0157905e-01
  1.0945967e+00
 -2.1571624e-03
  1.3689738e-05
 -1.3569995e+00
 -5.3786004e-01
  3.4894995e-04
  3.9011165e-01
 -3.6303198e-01
 -4.7033960e-01
  1.4699199e+00
  1.6372839e-02
 -4.9777287e-01
 -6.3719982e-01
 -1.5283545e+00
 -2.9913202e-01
  2.0129049e-01
  2.0192016e-03
 -2.8688640e-03
  2.0248063e-04
  1.9336945e-01
  8.1671466e-04
  7.5037795e-04
  9.1931564e-05
 -3.2363588e-04
  4.5980085e-02
  2.7557793e-03
  2.0460565e-02
 -3.7234847e-02
  3.1001231e-01
  2.7136996e-01
 -7.1036547e-01
  1.0608895e-01
  5.1066215e-04
 -1.7198831e-03
 -5.8547751e-04
 -3.9838451e-01
 -7.7244051e-02
  7.7549467e-04
  3.2969111e-01
  7.2405475e-01
 -6.1550778e-01
  1.4333081e+00
  2.3589060e-03
 -6.1163861e-01
  6.7743713e-01
  2.9714206e-01
 -7.0268154e-02
 -2.1776170e-01
 -4.9904922e-01
  6.1221492e-02
  1.6924834e-03
  1.7659603e-01
 -1.7849779e-02
  1.3094716e-03
 -5.1553687e-04
  1.4782178e+00
  1.9772722e+00
  5.1657516e-01
 -2.7178607e-03
  8.7772053e-01
 -2.1217170e-01
 -3.2146627e-01
 -2.1705021e-01
  5.8788055e-01
 -1.1194564e+00
  1.5799397e-01
  1.7441360e-03
  4.0756476e-01
 -1.6901601e-03
 -3.6068517e-03
  2.3812298e-01
  1.4304116e+00
 -3.0210894e-01
  2.4048123e-01
 -1.1498096e-03
 -3.2227364e-01
  8.5730664e-02
 -8.9162713e-01
 -6.6180784e-01
 -3.3533973e-01
 -1.1002132e-03
  1.0063316e-01
  1.2860617e-03
 -5.1267529e-01
 -3.7322912e-01
  1.0735627e-03
  2.9708655e-04
  9.1161591e-01
 -1.2167944e+00
  1.8392737e+00
  5.5832313e-03
 -1.0496268e+00
 -1.1600871e-01
  2.9297074e-02
 -1.8239267e-01
  1.2734330e+00
  6.4624262e-01
 -6.0651597e-04
  4.2873487e-04
  5.9987563e-01
 -4.0848198e-04
 -7.4900459e-03
  7.5328397e-03
 -7.3458403e-01
  1.2408148e+00
 -1.7874655e-03
 -1.3019217e-03
 -1.6701928e+00
 -1.3908365e-01
 -1.2746154e+00
 -1.8783356e+00
  7.4537176e-01
 -1.8757090e-01
 -3.1401478e-02
  6.1403093e-04
  2.9650882e-01
 -3.5312616e-03
  2.6568363e-03
  2.1627858e-02
 -3.4912980e-01
  1.2028674e+00
  9.6493697e-01
  1.5141601e-04
 -6.4818367e-02
 -5.2991517e-02
 -1.0413145e+00
 -8.4084058e-01
 -2.4962060e-01
  5.2779455e-02
  3.5229111e-01
  1.2774497e-01
 -8.6084932e-01
 -6.3725179e-03
 -3.1220524e-03
  5.7252339e-04
  2.7396864e-01
  6.8835801e-01
 -3.0713705e-03
 -2.4861298e-03
 -1.7850970e-01
 -6.5170512e-02
 -8.0444284e-02
  2.3690094e-01
 -2.8597394e-01
 -5.6997246e-01
 -2.4781316e-03
  4.1624982e-02
 -9.9143273e-01
  6.8501651e-01
 -3.9755274e-04
 -3.7336415e-01
 -8.6254585e-01
  7.7995539e-02
 -4.2347144e-02
  1.6315398e-03
 -1.5044551e-01
  3.8457495e-01
  5.9052527e-01
  6.4083427e-01
  4.6874166e-02
  9.3181506e-03
 -1.7010426e-03
  4.1320906e-03
  1.3405160e+00
 -1.3406910e-03
 -4.6872356e-04
 -4.0542153e-03
  1.4693410e-03
  1.8177974e-03
 -8.2125450e-03
  6.9797738e-04
 -8.4414160e-01
 -1.6954724e+00
 -6.4158493e-01
 -1.2641472e+00
 -2.0841355e-02
 -5.4954395e-02
 -2.7319362e-02
  1.4079947e-02
  6.7405522e-01
  6.8753153e-01
  7.2795171e-03
 -2.4675925e-01
 -2.9561937e-01
  1.5718084e-03
 -1.1944574e-01
 -5.2012708e-03
  5.3645086e-01
 -6.3591808e-02
 -7.3580766e-01
  8.0749381e-01
 -2.2417135e+00
  5.9113491e-01
  1.9322075e-03
  9.6589858e-03
 -9.3596101e-01
 -1.1359550e-03
 -2.4263652e-03
 -5.7869912e-03
 -7.0874125e-02
 -1.9901907e-01
 -2.1740068e-04
  4.5620953e-03
 -3.1268334e-01
 -4.2868906e-01
 -2.7764001e-01
 -4.1662267e-01
 -6.4857179e-01
  8.2645059e-01
 -4.0979654e-02
  8.7447377e-04
  2.0763850e+00
  6.9622046e-01
 -9.0147541e-06
 -1.0745003e-02
 -2.6178272e-03
  1.8512335e-01
 -5.3073712e-02
 -1.3093563e-03
 -1.0994194e+00
  1.1929430e+00
 -9.1699278e-01
 -1.2538751e+00
  1.5964951e-01
  4.8102072e-01
  6.5701269e-04
  2.3554841e-01
 -1.7544674e+00
  1.7269885e-03
  1.0951766e-03
 -5.4197810e-03
 -8.7044400e-01
  5.8858842e-02
 -1.9991614e-02
 -6.3442369e-04
 -7.0389527e-01
  1.3218653e+00
  7.6652181e-01
  2.2328994e+00
 -5.0954187e-01
  1.2516068e-01
  6.0536782e-04
  2.5983397e-03
 -3.9057815e-01
  2.7751991e-01
  1.8914165e-03
  4.9645430e-03
 -4.8363960e-01
  1.1256539e-01
 -1.2493595e-02
 -2.7941461e-03
  4.9584290e-01
  7.2644705e-01
 -5.7237881e-01
  7.5272256e-01
 -1.3152784e+00
 -2.0455846e-01
 -3.9779179e-02
  2.0584214e-02
  6.3184094e-01
  8.8270235e-01
  2.6940948e-03
 -2.7593774e-01
 -7.8153563e-01
 -1.7373984e-01
 -6.0666003e-03
 -2.5213608e-03
 -1.0664084e+00
  3.2102350e-02
  2.8905120e-01
 -1.9171962e+00
 -8.5645124e-02
  2.9507877e-02
  3.5702584e-03
  2.8435484e-01
  3.5413990e+00
  6.0249137e-04
  2.7191881e-03
  3.7884564e-04
 -8.0857837e-01
 -4.1239318e-01
 -2.7482416e-03
 -9.8345312e-04
  2.4149506e-01
 -9.3669891e-02
  5.9189133e-02
 -8.5316218e-02
  6.3232511e-01
 -3.0444482e-01
  2.2922426e-03
 -6.5231631e-03
 -3.0604339e-01
 -1.8013299e-01
 -3.0379337e-01
 -8.6247891e-01
  1.6541310e-01
  4.8121393e-01
 -1.8835683e-01
 -1.0653019e-03
 -5.0155693e-01
 -2.9634506e-01
 -2.9800239e-01
  5.6903850e-02
  4.7733781e-01
  4.1905409e-04
  4.3687256e-04
 -8.4269233e-03
 -3.1972286e-01
  1.1497579e-04
  9.1759971e-04
 -5.6945714e-03
 -4.5257401e-01
 -2.8755830e-03
  3.1716477e-03
 -8.4506278e-04
  6.6174872e-02
  1.7155412e-01
 -3.9691367e-04
  2.3202195e-03
 -1.9373168e-03
  2.1330959e-01
  1.8872278e-03
 -4.8997928e-04
 -1.7227910e-02
  1.8328319e-01
 -1.4125079e-01
 -8.2400692e-01
  1.5209566e-01
  5.7106608e-01
 -1.3259539e-01
  3.2421765e-03
 -9.9134552e-01
 -1.1827141e-01
 -3.9987248e-01
 -4.4465353e-04
  8.0814950e-02
  1.3927690e-02
  3.6581760e-04
 -9.2653949e-03
  6.3578683e-01
 -8.4688640e-01
 -4.0305196e-03
 -2.3306096e-01
  7.3015946e-01
  4.2369342e-03
  7.8424654e-04
 -4.0244567e-03
 -8.7750739e-01
  3.0797917e-01
 -6.9813186e-01
 -6.9014257e-01
  5.3486145e-01
 -1.6824538e-02
 -3.2903589e-04
  4.9329805e-03
  4.0360099e-01
 -1.2150766e-02
 -5.7636041e-02
 -6.0059973e-03
 -9.5457214e-01
  1.5421979e-01
 -2.7245248e-02
 -1.9547169e-03
  7.7558421e-02
 -1.2431389e-01
 -1.6312391e-02
 -1.0549668e-02
  3.5240005e-03
  1.8359212e-03
 -1.5603433e-03
 -2.0239313e-04
 -3.8943708e-01
 -9.1600005e-04
  1.7963239e-03
 -1.2146534e+00
 -5.3646173e-02
  1.7721899e-01
 -6.6002451e-02
 -2.2647860e-03
 -6.6177136e-01
  7.7363313e-04
 -1.2146739e-01
  8.1170514e-02
  1.8285702e-01
 -3.4858378e-05
  9.7748952e-04
  1.9950857e-03
 -1.6004601e+00
 -9.3478864e-01
 -1.8110891e-03
  2.9910550e-02
 -1.1460422e+00
 -3.8204980e-03
 -5.9455996e-03
 -2.9544544e-03
 -6.3588488e-01
  3.0706748e-02
  1.9253884e-01
 -4.2977867e-01
 -1.8805656e-01
 -8.2715573e-03
  1.1881106e-02
  8.4156712e-04
  6.4315808e-01
  5.4695513e-02
  1.4817459e-03
 -1.6494138e+00
 -4.0827087e-01
  7.0070815e-01
 -8.4292047e-02
 -2.4598874e-03
  3.4760132e-02
 -9.6220851e-02
 -1.5518024e+00
 -2.2667322e-01
  5.0916660e-01
  2.9313361e-02
 -1.0734565e-02
 -2.4172461e-03
 -4.5643497e-01
 -5.3537208e-01
 -2.4828415e-03
  2.4803673e-04
  7.8079780e-04
 -1.4667587e-01
  7.5131207e-04
 -2.0496612e-03
 -2.9533026e-01
  1.4584336e-01
 -1.9220264e-03
  8.6827862e-01
 -1.8357471e-01
  4.2859793e-02
  4.2859793e-02
  4.2859793e-02
  4.2859793e-02
  4.2859793e-02
  1.9459088e-01
  1.9459088e-01
  1.9459088e-01
  1.9459088e-01
  1.9459088e-01
  1.0022022e-01
  1.0022022e-01
  1.0022022e-01
  1.0022022e-01
  1.0022022e-01
  4.4044662e-02
  4.4044662e-02
  4.4044662e-02
  4.4044662e-02
  4.4044662e-02
  1.5585213e-02
  1.5585213e-02
  1.5585213e-02
  1.5585213e-02
  1.5585213e-02
  1.0107938e-01
  1.0107938e-01
  1.0107938e-01
  1.0107938e-01
  1.0107938e-01
