nep4 4 Li La Zr O 
cutoff 6 4 95 30
n_max 4 4
basis_size 8 8
l_max 4 2 0
ANN 30 0
 -7.6735712e-04
 -2.3232931e-03
 -5.0328234e-03
  2.0992627e-02
  2.5021301e-03
 -1.3596339e-02
  1.5883504e-03
 -4.1236198e-03
  3.8158377e-03
 -2.0611161e-02
  5.9937644e-03
  2.4612503e-02
 -2.5113603e-01
  5.4168580e-03
 -8.6795649e-04
  9.2109563e-03
  3.1482468e-03
 -5.8448813e-03
  6.0561839e-03
 -2.7335424e-03
 -1.3203707e-02
 -3.1654841e-01
 -2.7000514e-01
 -2.5235558e-02
  3.0684292e-03
 -8.4269904e-03
 -1.9495051e-02
 -2.8411443e-03
 -8.9607118e-03
  2.1081367e-03
 -8.6423242e-01
  8.0807492e-02
  3.7393276e-02
 -2.0211793e-01
 -4.2074665e-01
  8.4272891e-01
  3.6796907e-01
 -4.9305749e-03
  1.0645233e+00
  1.1673737e-01
  3.6821109e-01
 -2.3996467e-02
 -2.9853873e-03
  1.1783176e-01
  1.2185402e-01
 -6.2588817e-03
 -8.4548324e-02
 -2.3426513e-04
  1.3019884e+00
  4.4736969e-01
 -1.0071404e-02
  5.0945613e-03
 -2.4714550e-01
  1.0447605e+00
  1.7226668e-01
 -4.8290113e-01
 -3.9336802e-03
  3.8199739e-03
  1.5390392e-01
  1.0804187e-02
  1.4264326e+00
  4.2987669e-01
 -1.6438008e-03
 -4.8865519e-02
  4.1062805e-01
  3.1421412e-02
 -7.6352164e-02
  3.8670504e-03
  8.9113051e-03
 -1.2532713e-02
 -2.9328775e-01
  1.2479469e-02
 -9.1180138e-02
  1.0029451e-03
 -3.0624688e-01
 -3.9841747e-03
  3.9512751e-01
 -1.3824615e-01
 -1.5065821e+00
 -4.8115943e-02
 -9.1739995e-03
  8.3172824e-03
 -1.3910921e-02
 -1.0373610e-01
 -2.6545304e-01
  8.4770564e-03
 -3.2941261e-03
  5.9415651e-03
 -7.8673717e-03
 -1.0737158e-02
 -1.3531999e-02
 -5.4130977e-01
 -5.5909481e-02
  4.5192756e-02
  1.9224031e-01
 -7.1539804e-02
 -1.0120360e-01
 -5.0288461e-02
 -1.2741261e-02
 -9.4187766e-01
 -7.8771710e-02
  8.3157435e-02
 -3.7579721e-01
 -2.8566789e-02
 -1.1043904e-01
 -3.0755073e-01
 -3.5732232e-02
 -2.6973820e-01
 -1.4634619e-02
 -1.0063883e-01
  2.9050426e-03
  1.6557490e-02
  7.9983275e-04
 -7.6245844e-01
 -2.2297660e-02
  3.5535242e-02
 -2.5713010e-02
  2.4836822e-03
  6.1068311e-03
  9.5652085e-04
 -4.3791253e-03
  7.3571414e-02
 -1.4414981e-02
  8.9598130e-03
  4.1836197e-03
  1.2392187e-03
 -1.2144811e-02
 -4.8596067e-03
 -3.6806739e-03
 -7.3104580e-03
 -1.2336896e-02
 -4.1040531e-04
 -2.1957520e-03
 -2.7575538e-02
  4.4019306e-03
  1.4693209e-02
 -1.8006830e-02
 -8.4688663e-02
 -2.0520920e-03
 -1.0266259e-03
 -3.7672317e-03
  6.4617987e-03
 -6.2051187e-03
  1.4583203e-02
 -3.6707845e-02
 -3.0492973e-01
  1.0198955e-02
  6.9193812e-03
 -1.8042034e-03
  3.7318305e-03
  1.2001014e-02
 -1.6265291e-01
 -7.7447477e-03
 -2.4898921e-01
  2.4576837e-04
  1.5844734e-02
  1.6820072e-03
  5.5132941e-03
  2.9125940e-03
 -3.3115752e-03
  1.8480014e-02
  7.1643800e-03
 -1.8470246e-02
  1.9207325e-02
 -2.8011400e-02
 -1.3504054e-02
 -7.0936210e-03
 -1.3249479e-01
  1.2473924e-02
  1.6074333e-01
  3.5427458e-04
 -7.3166061e-03
 -3.0102427e-03
 -1.1849141e-02
 -5.0107073e-03
 -1.4442482e-02
 -1.6326414e-02
 -8.0088675e-03
  7.0579927e-03
 -5.0428003e-02
  3.2824572e-02
  7.9291932e-02
  1.3339451e-01
  4.3894029e-01
 -6.6937588e-02
  1.0626091e-01
  2.4518380e-01
 -8.5323239e-03
  8.6583793e-02
  9.4641764e-03
  7.7160996e-01
  6.9038682e-03
  1.2882946e-01
  4.7970429e-01
  2.9991671e-01
 -6.9982285e-04
 -2.1903792e-03
  5.3317022e-01
  4.2465003e-03
  2.2800341e-02
  4.5069521e-03
 -4.3492276e-02
  4.2039119e-02
  1.4353736e-01
  3.3430602e-02
  5.6683105e-01
  1.7368046e-03
 -7.2104554e-03
 -8.3827134e-03
  1.4022755e-02
  1.4796050e-02
  1.7581116e-02
  1.2133246e-02
  9.4829500e-01
  1.9193726e-02
 -1.4319216e-02
 -6.8611298e-03
 -3.0969975e-03
  5.4142592e-03
 -3.5685137e-02
 -1.2497178e-01
  1.6246799e-03
 -9.4939547e-04
 -4.6108165e-03
  4.9133790e-03
  3.2782902e-03
  4.6842364e-03
  1.4776788e-02
 -5.9532486e-03
  1.4048626e-02
 -1.1239300e-02
  1.4847049e-02
 -3.6083218e-02
 -7.5140414e-03
  3.2333152e-03
  2.6988855e-03
 -1.2178625e-02
 -4.0805512e-03
  5.8831745e-03
  3.4121906e-03
  1.3538854e-01
 -2.7022406e-01
 -1.0328185e-02
  5.9766525e-01
  1.3788538e-01
 -2.2013387e-02
 -2.0747760e-02
  2.5791992e-03
 -4.9512228e-03
  6.0344827e-03
 -2.1469996e-03
 -2.0396037e-03
  7.8659985e-05
 -6.4630341e-03
 -4.8238169e-03
 -9.0679927e-03
  6.2624536e-02
 -4.3026380e-02
  8.2315780e-02
 -1.7549144e-01
 -2.7816702e-02
 -5.5583912e-01
 -6.9821072e-03
 -1.1406287e-02
 -2.8568178e-02
 -4.9054902e-03
  1.1474086e-02
 -7.8170430e-03
  6.9909871e-01
 -9.4066681e-03
  6.4693010e-01
  5.1133657e-01
  3.9406079e-03
 -7.7413106e-03
 -7.1465425e-02
 -1.3520564e-03
  3.1964344e-01
 -8.1621937e-02
 -8.3724530e-03
  1.5772395e-02
  2.2083180e-02
  1.6417345e-01
  1.0703689e-02
  2.6128352e-01
  6.5317297e-01
  1.5616021e-02
 -7.3345327e-03
  2.6827441e-03
  3.6059371e-01
 -2.7959261e-03
  1.5508104e-02
 -4.3652481e-03
  3.5481624e-02
  3.0499963e-02
  1.6940182e-02
 -1.5444224e-02
  1.6328649e-03
 -2.5303438e-01
  4.7933906e-03
  1.4094681e-03
  2.3303417e-02
 -5.8077769e-03
 -8.5254144e-03
 -6.0749445e-03
  8.9195287e-03
  1.3725149e-02
 -2.1987605e+00
  9.4567356e-04
  5.5020698e-03
  1.6383214e-02
  6.8083149e-03
  4.7950139e-03
 -5.1757875e-03
  1.0019694e-01
  1.1408068e-01
 -7.9392679e-03
  1.1051388e-02
  6.1686384e-04
  3.3575788e-03
  7.2103599e-04
  7.9553097e-04
  3.0251550e-03
  7.0554279e-03
  4.3756598e-01
  1.0864511e-03
  9.7687763e-01
 -5.8839342e-04
 -1.8353780e-03
 -5.9093869e-05
 -6.8233744e-03
 -6.6587651e-01
  3.3804584e-01
  1.7682414e-01
 -4.3208930e-01
  4.9773692e-03
  3.2991901e-02
  9.6958093e-03
  1.4420076e-01
 -8.4485449e-02
  5.9744501e-03
  4.2324010e-02
  5.5507746e-02
  2.8792620e-01
  6.7100398e-02
  2.3420827e-02
  1.1215826e-02
 -7.7833259e-01
  1.6170384e-01
  4.2220390e-01
  9.1592772e-03
  1.7635250e-02
 -1.4401801e-02
 -7.0654627e-05
  5.4849327e-01
  6.0468167e-02
  2.6017699e-01
 -1.3075623e-03
  4.8087267e-03
  1.0706174e-02
  4.2246804e-03
 -6.8728350e-02
  7.9782633e-03
 -1.0850288e-02
  3.9793208e-01
 -2.0983493e-02
  2.2458732e-02
 -3.3261480e-03
  4.2345796e-02
  6.7733608e-02
  2.2162923e-03
  2.5697784e-03
 -1.4629569e-02
 -5.7416786e-03
 -8.5310239e-01
  8.6738700e-03
 -1.4868872e-01
 -7.7929180e-03
 -4.5900145e-03
 -4.1875869e-01
  2.0352472e-03
 -4.6905847e-03
 -8.4871240e-03
 -4.8619551e-03
  2.4916073e-03
  2.6616968e-02
  7.5534452e-04
 -8.2065538e-03
  6.0326094e-03
 -1.0217587e-03
  2.5532875e-04
  3.4814650e-01
  3.8809711e-01
  7.2997093e-01
 -2.5613815e-01
 -9.7822303e-01
  2.1444906e-02
  2.1149302e-01
 -6.6326577e-03
 -9.0177439e-02
  3.2814506e-01
  2.1557027e-01
 -3.6363003e-01
  2.0564045e-01
  8.4550089e-01
  1.8106586e-01
  1.0166437e-01
 -8.9691955e-01
  2.9275632e-01
 -1.4438729e-01
  3.5127997e-01
  2.7439123e-01
 -1.7817708e+00
  9.0892175e-03
  4.1018366e-03
  6.0225981e-01
 -1.6661894e-02
  1.1103792e-02
  1.6296180e-02
  1.2374853e-01
 -4.3929025e-04
  9.0003736e-02
 -2.5327930e-01
  4.0224362e-03
 -5.1760280e-01
  3.6374282e-02
  2.6471007e-03
  3.6023294e-03
 -4.1165340e-01
  9.2530902e-04
 -9.7849116e-02
 -2.6461352e-02
  2.0446070e-03
 -2.7914824e-02
 -6.7434595e-03
 -1.3548824e-01
 -3.5983194e-03
 -3.0531952e-01
 -2.4265870e-01
  5.0440157e-04
 -4.5649461e-02
  9.0480167e-03
 -3.3526987e-04
 -9.0732789e-03
 -4.2966176e-02
 -2.3311641e-02
  1.6793931e-02
 -8.8746110e-03
 -6.2155388e-03
 -2.0131223e-01
  2.3878291e-03
  4.1811699e-03
  2.4022918e-02
 -1.3619103e-02
 -8.7514132e-01
  2.1303486e-02
  2.5585370e-02
  9.0391672e-04
  2.0788703e-03
  1.2654770e-02
 -2.8985373e-03
 -2.7645048e-01
  4.6807970e-03
 -1.0613885e-03
  7.9370886e-03
  1.8598371e-03
  2.1572807e-03
  1.1731704e-03
 -5.4727594e-04
  1.1895120e-02
 -1.0369786e-03
 -6.1449975e-02
  7.0018978e-03
 -7.9910206e-03
 -1.2492393e-02
  1.1027263e-02
  2.1784992e-03
 -2.8282480e-02
  8.4039402e-01
 -1.4485007e-03
 -1.5686523e-02
  1.0595734e-03
 -4.8684068e-02
  2.0172965e-02
 -8.8556893e-02
 -5.2644457e-03
 -8.4396610e-03
  1.6004909e-02
 -2.5286314e-03
 -6.8938676e-03
 -6.0001495e-03
  6.4697405e-03
  1.0545773e-02
 -5.9774192e-03
 -4.2192394e-01
 -7.3332733e-01
 -2.6332462e-02
 -3.6148541e-03
 -9.8077429e-04
  1.6347488e-02
 -6.2286747e-01
 -8.7538809e-03
  6.6824555e-03
 -2.2495119e-03
  4.8363343e-04
  1.6100869e-04
  1.4872199e-02
  4.5994474e-03
  2.5593587e-03
 -2.5061108e-03
 -1.2513403e-02
 -1.3639076e-03
  4.9102306e-01
  4.2757472e-01
 -4.7923438e-02
 -1.9429330e+00
  8.6761573e-03
  3.0947828e-01
 -2.6901279e-02
 -2.5428949e-02
 -2.6615027e-01
  5.0506197e-02
  3.0697212e-01
  1.4748925e-01
 -1.8411453e-01
  1.6179584e-01
  2.9525492e-01
  2.5495032e-02
  7.8044379e-01
 -4.9330765e-01
  2.7882320e-01
 -4.3536122e-03
 -7.6832741e-02
  7.5698562e-02
 -4.7489487e-02
  1.0761894e-01
 -1.0251254e-02
  1.5777180e-02
  8.3020627e-03
  3.6737289e-02
  8.4105087e-03
 -3.9265121e-04
  1.8112558e-03
  3.7631873e-04
 -1.7101169e-02
 -7.0873881e-03
  1.9420002e-02
 -1.0408498e-02
 -3.0308139e-02
  1.0324489e-02
  7.0636715e-03
 -7.8028934e-03
 -5.2908575e-04
  5.2614794e-03
  8.7596951e-03
  3.8421163e-03
 -1.1010473e-02
 -1.1068571e-02
 -6.8655908e-01
 -4.8956890e-03
  3.7814653e-03
  8.6327419e-03
 -6.2217205e-03
  9.6863406e-03
  1.7755531e-03
 -6.1145090e-03
  1.0867988e-03
 -2.0808762e-02
 -3.2436740e-01
 -3.0840464e-02
 -1.5062707e-02
 -5.8918014e-02
 -3.6250776e-01
 -2.5304255e-01
  5.3524274e-01
  7.5705260e-02
 -5.9004277e-02
 -9.7634055e-04
 -1.0297222e+00
 -7.5915951e-01
 -1.5709773e-02
 -8.3822638e-02
  8.2431391e-02
 -8.5715754e-03
 -1.4613984e+00
 -1.2767424e-02
 -2.1361826e-01
  4.8048444e-02
 -5.5316068e-02
 -5.8215433e-03
 -8.5688412e-02
 -2.1206848e-03
 -1.3566452e-01
 -6.2667340e-01
 -1.6439607e-02
 -3.2951459e-02
 -1.8195384e-04
 -1.6637554e-02
 -1.5162295e-02
 -9.8751001e-02
  1.0093544e-02
 -5.4250413e-01
  2.9467493e-01
  8.9623636e-01
 -7.7080470e-01
 -2.9781821e-01
  1.0486948e-01
  3.6312121e-01
 -3.8065010e-01
 -1.0893681e-02
  2.9721645e-01
  2.9121464e-01
  2.1248918e-02
  7.7549882e-02
 -2.7390891e-01
  5.6287390e-01
  3.8986534e-01
 -1.4696635e-01
  4.5863986e-03
  4.9528027e-01
  6.9953716e-01
  1.2655754e-01
 -2.6098220e-02
  2.1804568e-01
  1.3072477e-01
  2.3985250e-01
 -1.5960824e-03
  7.5951535e-03
  2.2386720e-03
  6.4021617e-02
  1.3800544e-03
  3.9554834e-02
 -1.7277567e-02
  6.8279677e-03
  8.3615586e-02
  2.9148357e-02
  5.7959143e-02
  4.4357483e-05
  6.5289312e-03
  3.2742865e-02
  1.2906458e-03
  1.0584044e-02
  2.9874563e-03
 -1.1816221e-02
 -3.1159755e-03
  1.4413612e-02
 -1.8252524e-02
  9.6512437e-03
 -8.9513557e-04
 -1.2722496e-02
  3.5186259e-03
  4.7701625e-03
 -1.1559966e-02
  3.3871375e-02
 -6.5491246e-03
 -1.6571267e-03
 -9.2401328e-03
  1.7417353e-02
  1.7213356e-01
  3.3170398e-04
 -7.0216432e-03
  2.0127788e-03
 -5.3456047e-04
  1.0308290e-02
  1.1006886e-02
 -1.3948792e-03
 -8.6762023e-04
  6.3709347e-03
  1.7245268e-02
  1.6577374e-03
 -1.3717934e-02
 -7.5685750e-03
 -2.6264080e-01
  9.7822677e-03
  2.7910119e-03
  2.0376937e-03
  4.1327761e-03
  1.5876243e-02
 -2.5371052e-03
  3.0760856e-03
 -6.1604092e-03
  1.1422010e-03
  7.7509671e-03
 -4.6453238e-03
 -4.2350111e-03
  4.5381086e-03
  1.5585907e-02
 -2.3566764e-02
 -8.0718352e-03
 -5.9568589e-03
 -7.6509994e-03
  1.5255716e-01
 -1.9752469e-03
 -1.0158193e-03
 -1.0411532e-03
  1.8415498e-03
  7.0784867e-01
  1.2039192e-02
  3.5455956e-03
 -8.1873899e-03
  8.5440064e-03
  1.4874564e-03
 -1.1840783e-02
  8.8604111e-03
  8.7023554e-03
  1.3284110e-02
  1.4457744e-02
  3.4499273e-03
  1.0126377e-01
  6.1674765e-03
  3.0893851e-03
 -2.1019459e-03
 -1.3088352e-02
  4.4934773e-03
  1.4255160e-02
  2.2040920e-02
  4.2590061e-03
  1.0708123e-02
 -5.3727301e-03
  1.2626987e+00
 -1.4777200e-03
 -2.8337032e-02
  5.5962126e-03
 -2.4824182e-02
 -1.4395207e-01
  2.5949748e-03
  1.8630750e-02
 -3.5784256e-03
 -3.7763864e-03
 -1.5612920e-02
  1.7657392e-02
 -2.5434922e-03
 -1.8713024e-02
 -8.2203317e-03
  8.7233083e-03
  8.3979681e-02
 -4.0585837e-01
 -5.6400173e-03
  3.4101421e-03
 -3.9662453e-03
  7.4489946e-03
  8.4574036e-03
  1.6840931e+00
  2.8573021e-02
  3.4723126e-03
  2.4712184e-02
  1.4445950e-02
 -1.2319895e-02
  1.7106647e-02
  2.3935947e-03
  3.5823558e-03
  7.9394700e-03
 -4.1205180e-03
 -5.6170109e-03
  4.8530471e-02
 -2.8363033e-03
  2.5213347e-03
  9.2569515e-03
  1.0613698e-04
  1.1136626e-02
 -2.0075866e-03
  7.6046926e-03
  1.3886210e-02
  6.4136190e-03
 -1.3360098e-02
  2.3130998e-03
 -1.8397614e-02
 -3.8806889e-03
 -5.1253573e-03
 -4.8823529e-03
 -1.6696727e-02
 -8.3169644e-04
  7.9441564e-03
  6.9791824e-02
  9.2469566e-03
  3.0165790e-03
 -2.2893991e-02
  8.6633720e-02
  4.3062298e-03
  1.4312675e-03
 -2.7843932e-02
  1.0441813e-01
 -2.2363986e-04
  2.7562454e-03
 -7.0661688e-01
 -6.9773996e-01
  6.0660414e-02
  8.5854694e-02
  3.2591640e-03
  3.4692690e-02
  1.0309666e-02
  1.9304056e-02
  5.4874633e-02
  8.5655555e-02
  1.4899749e-01
  7.3476911e-02
  9.0929121e-03
 -3.5007086e-03
  6.4689398e-02
  1.6025500e-02
  1.3940434e-01
  1.6433435e-02
 -1.4898580e-01
  8.8310011e-02
  5.6021390e-03
  8.0611944e-02
  1.1258798e-03
 -1.0008771e-02
  1.0899501e-02
  9.2064470e-02
  3.6345777e-01
  3.8009004e-03
 -3.2669853e-04
  1.0838579e-02
  3.1613849e-02
 -1.8767866e-03
  5.7923933e-03
 -4.3730102e-03
  6.5791230e-03
  6.0500634e-01
 -6.1664693e-03
  7.9226661e-03
  1.0028598e-03
 -7.8670587e-03
 -6.5013459e-03
 -6.3086785e-03
 -4.0921231e-04
  3.1015675e-03
 -1.1817657e-02
  1.5301848e-02
  3.7508225e-04
  1.7243955e-02
  9.0489034e-03
  1.0046884e-03
  1.6213601e-02
 -1.4865006e-02
 -1.4950287e-02
  1.3160983e+00
  2.3599991e-03
 -5.9116217e-03
  9.0736063e-04
 -4.4298939e-02
  2.9931527e-02
  2.8056633e-01
  1.8995206e-01
 -1.3698835e+00
  6.1035293e-01
  2.6676005e-02
  5.4417018e-02
 -9.1925245e-03
  1.9090591e-03
 -1.0649652e-02
  8.4093502e-03
  1.6455175e-02
  3.1022014e-02
  7.2867073e-02
  7.0519524e-04
 -3.2859347e-03
  1.2346619e-02
 -1.9106535e-04
  6.2932217e-01
 -2.9368084e-03
 -1.2479964e-02
  1.0099852e-03
  6.7170508e-02
 -4.9155210e-03
 -1.0867758e-03
  3.3252507e-03
 -5.8996105e-01
  5.8261221e-03
  1.0367667e-02
  2.4117914e-03
 -2.2902453e-02
 -7.8146551e-03
 -1.2003631e-02
 -1.6702567e-01
 -3.4834528e-03
  9.8901084e-03
 -1.6375406e-03
 -9.7606182e-03
  1.7256584e+00
 -1.3651505e-02
  4.9087778e-04
 -1.8663734e-02
 -1.5047356e-02
  2.4544855e-05
 -1.2341153e-02
  2.7908233e-03
  9.8797008e-03
 -7.4538076e-03
  1.6536933e-03
  1.3862284e-02
 -2.0274485e-04
 -7.9499751e-01
 -1.0754529e-02
 -4.9215942e-03
  7.1011297e-03
  6.6470071e-03
  5.8172655e-04
 -1.2969342e-01
 -3.0191331e-03
 -9.2560761e-03
  1.1507738e+00
 -1.1162333e+00
  5.1715899e-01
 -3.2067135e-02
 -2.8650209e-03
  9.6242651e-02
  1.2773940e-02
 -2.6818419e-02
 -5.5627716e-01
 -1.4489448e-03
 -1.2499781e+00
 -2.0640317e-01
 -7.0622092e-01
 -5.9134266e-03
 -7.1093743e-03
 -4.1369521e-03
  9.2215800e-01
 -1.1496052e-02
 -1.3363659e-02
 -2.3862796e-01
 -9.4352560e-03
  1.1145051e-01
 -2.3208730e-02
 -3.7138427e-03
 -1.0774601e+00
  3.8487244e-02
  5.8993003e-03
 -5.4887372e-01
 -6.5028113e-03
 -1.3091040e-01
  3.4170276e-01
 -2.2729044e-01
 -3.5099927e-01
 -7.0752025e-02
 -8.6154588e-02
  4.3986312e-01
 -1.5933596e-01
 -2.6229310e-01
  1.8000256e-01
  4.0971987e-02
  4.9082571e-01
  1.5821710e-01
  3.8751122e-01
 -1.9073346e-01
  2.4857024e-02
 -6.1739713e-02
  6.3561326e-01
 -8.9785131e-03
 -4.0424430e-01
  6.7590183e-01
 -2.2341328e-02
 -8.6558731e-03
  5.9426036e-02
  3.2129440e-02
 -2.6687760e-02
  5.3183305e-01
 -8.4383050e-03
  3.9094716e-01
  4.6362855e-02
  1.1444179e+00
  6.7269778e-01
  1.0904972e-04
 -1.3659617e-01
 -8.6841369e-03
  1.2999317e-02
 -9.5365636e-02
 -2.6728775e-02
  1.2366434e-02
 -5.1619724e-04
 -3.9494275e-03
  1.0636277e-02
 -1.2586920e-03
  2.9113032e-02
 -4.1545432e-02
 -5.1008775e-03
 -8.3091827e-03
 -1.5963232e-02
  2.5071548e-02
 -2.1679593e-02
  8.8731684e-03
 -1.8633810e-03
 -1.9199415e+00
  2.6536626e-01
 -8.7115038e-03
 -6.8918085e-03
 -1.1482038e-02
  2.1454029e-02
  1.0817025e-02
 -3.6114515e-03
  1.8500172e-03
 -4.2036617e-01
 -1.1092922e-02
 -1.2494564e-01
 -9.5769286e-01
  1.7423118e-03
 -2.9065460e-02
 -1.9441422e-02
  7.3059397e-03
 -5.3137732e-03
 -8.8515049e-03
 -7.3346598e-03
 -1.8998019e-02
  8.4556317e-01
  4.0139612e-03
 -3.5452616e+00
 -3.1397495e-02
 -2.8646560e-03
  8.2006976e-02
 -1.6955309e-01
 -7.0629474e-03
  1.1893726e-02
  4.9459804e-02
 -1.2795584e-03
 -1.3939323e-01
 -2.4626413e-03
  8.1038894e-03
  1.3833039e-02
  1.1390392e-03
 -8.0910157e-03
 -1.3965030e-01
 -5.7679188e-01
  8.1615314e-02
  7.1388328e-01
  3.1319043e-01
  1.3141303e-02
 -1.3788109e-02
 -1.7339980e-03
 -3.3116072e-02
 -3.9479259e-02
 -4.3779025e-03
  7.2635906e-03
  3.3339053e-02
  3.9841313e-04
 -1.9762665e-02
  5.4575060e-03
 -2.3243739e-03
  2.7225342e-02
 -4.8078289e-03
  1.0331226e-01
  1.2676644e-02
  5.3859721e-03
 -2.2062745e-02
 -1.5313686e-02
  2.4322055e-02
  7.5530740e-03
 -4.2763394e-03
 -4.9279188e-04
  2.1962517e-04
 -1.1987351e-03
  1.0231487e-03
  3.0846432e-01
 -2.8741402e-03
 -3.6964604e-01
 -3.8619852e-01
 -1.2478800e-02
  2.1044291e-03
 -2.8941275e-03
 -4.6654544e-03
 -1.6815674e-02
  2.1084263e-03
 -2.4898848e-02
  6.3462593e-03
  3.2065880e-02
  2.2377662e-02
  5.7991839e-04
  6.6102967e-03
  4.1247425e-03
  5.8452939e-03
 -5.4548832e-04
  5.6674969e-03
 -1.4402620e-03
 -4.4204784e-03
 -3.8986169e-03
 -5.1810727e-03
 -6.6547967e-02
  5.9698815e-03
  6.9052679e-03
 -2.9090340e-03
 -1.2810645e-02
 -8.0661802e-03
 -2.6705527e-01
  1.9922037e-01
  1.4168422e-01
  1.8607838e-01
  2.7343830e-02
  4.4807824e-03
  1.1398703e-02
 -8.8774296e-04
 -1.2557345e-02
  1.2802406e-02
  2.8970654e-03
 -1.0390707e-02
  8.6052641e-02
 -4.9315155e-03
 -1.2780726e-02
 -1.8365836e-02
  8.6603565e-03
  6.0228589e-03
  1.9638618e-02
 -1.1206329e-02
  3.2344032e-03
  3.6707132e-03
 -4.0663473e-02
  1.1035714e-03
  2.2469456e-03
 -7.7640996e-03
 -8.5099051e-03
  3.9102840e-03
 -3.2341469e-03
  4.4798985e-01
 -1.3966473e-02
  1.3453682e-02
 -2.3662871e-02
  1.3666508e-02
 -2.9055577e-02
  8.3905468e-03
 -2.4275177e-03
 -6.8921396e-03
  2.1383770e-02
  3.7386334e-03
 -2.6904633e-03
  4.8470970e-02
  2.0256402e-02
 -1.6860686e-02
  1.5115000e-03
 -7.4646142e-03
  1.1332349e-03
  4.0663099e-03
  3.5061135e-03
 -7.1114083e-03
  7.1942550e-03
 -3.9118016e-03
  2.7389552e-02
  5.1106401e-03
 -1.8130599e-02
 -7.2974921e-03
 -7.6385663e-04
 -2.7069631e-03
  1.5694001e-03
 -4.6430802e-01
 -5.7467479e-01
  1.4101639e+00
  3.4110507e-01
 -2.8214321e+00
 -1.8019101e-02
  3.1522593e-01
 -8.8511303e-02
 -5.6975353e-01
  3.9081439e-02
  5.1681470e-02
  3.2320961e-01
  5.6716782e-01
 -1.4859414e+00
  5.0684923e-01
  9.1370003e-04
  2.3202037e-02
  5.6096023e-01
 -1.5180422e+00
  5.9384704e-01
  4.6514189e-03
  1.7912265e-02
 -3.2414070e-03
 -2.6648787e-01
 -6.0970313e-03
 -3.3963462e-03
  1.2593737e-03
  2.9661781e-03
 -3.2470390e-04
 -1.1555511e-02
  5.0330758e-01
  7.0604444e-01
 -1.6544931e-01
 -1.0313768e+00
  5.3376436e-02
 -4.2729455e-01
 -9.2286903e-01
  1.0536536e+00
 -1.3613130e-01
  1.0298002e+00
  4.0957887e-02
 -9.6017629e-01
 -7.4647002e-02
  5.5927461e-01
  3.9984570e-03
  5.3103518e-02
 -6.6716927e-01
 -1.5197513e-02
  2.8671691e-01
 -8.1685491e-02
  4.2087001e-01
 -9.5364881e-01
  5.0197399e-01
 -1.2469667e-03
 -9.0912390e-01
 -3.0529610e-04
  1.6038919e-02
  2.3379039e-02
 -1.6769753e-01
 -3.1999357e-02
  7.7736373e-03
  2.2696175e-03
  3.6912702e-03
 -9.9541796e-03
  9.8681357e-03
  6.6643395e-03
  1.6975122e-03
  4.3125530e-03
  5.3284829e-03
  4.1447148e-02
  1.5415586e-02
  4.0130671e-03
 -2.2951169e-03
  4.7641322e-03
  1.6075070e-01
 -2.9627898e-01
 -1.4075021e-04
 -4.2087459e-03
 -6.3049626e-03
  6.5192743e-03
  7.5221695e-03
  8.8493815e-03
 -2.8996492e-02
  4.5838389e-03
  7.2019487e-03
 -1.2426879e-02
  7.5917519e-03
  1.2716044e-02
 -1.3042852e-02
  2.8362164e-02
  4.8952842e-01
  4.1143474e-01
  1.4151033e+00
  5.2667636e-01
  1.1635824e+00
  5.6003504e-03
 -8.2334708e-03
  1.3538677e-02
  1.0499658e-02
 -2.4366772e-02
 -1.1147318e-03
  7.6834718e-03
 -5.9907269e-03
  1.2660371e-01
 -7.4950228e-03
 -3.5005647e-03
 -1.5826342e-03
 -1.4818107e-01
 -1.8631423e-02
 -2.3567758e-03
  4.8122713e-03
 -4.7290680e-04
 -3.4286477e-02
 -1.3060321e-01
 -1.7142987e-02
  1.7086742e-02
 -3.0458858e-03
  1.6036442e-03
  1.5432943e-03
  5.4341638e-03
 -5.7501227e-01
  1.3107617e+00
  3.6946541e-01
  1.7486989e-01
  1.6490586e-02
 -1.5581133e-03
 -5.5018417e-04
  1.7912542e-02
 -4.7424760e-02
 -4.8312923e-04
  3.5957833e-05
  7.6949871e-03
 -5.0295884e-04
 -1.8274350e-02
 -1.0217982e-02
  8.8364128e-03
 -6.6140206e-03
  4.2291805e-03
  9.1756731e-02
  7.0928875e-03
 -1.8929964e-02
 -1.0591219e-02
  1.4645578e-02
  1.4298994e-02
  8.9397207e-03
 -1.2653377e-02
 -7.9466058e-03
  8.3779283e-03
 -1.5248056e-04
 -1.2117686e-02
 -1.5890610e-03
  9.0433219e-03
 -1.9203994e-02
 -1.0028206e-03
  6.8519805e-03
 -5.5153691e-03
  1.1011969e-02
 -6.8489852e-04
 -5.9694233e-03
  8.2930410e-03
  1.3238388e-03
 -6.5969392e-03
  3.7591252e-01
  3.1727867e-03
  8.6969286e-03
  1.1343058e-02
  4.5353151e-03
 -2.5928631e-02
 -1.5618491e+00
 -3.2786638e-04
 -2.3531849e-03
 -6.7145303e-03
  6.3472297e-03
  2.9519403e-03
  1.0472615e-03
 -5.4283869e-03
 -4.2458819e-03
  5.1338887e-03
  6.6339917e-02
 -1.0322228e-02
  1.3468204e-03
 -1.7786828e-01
 -5.1353294e-02
 -1.2156127e-02
 -1.8142420e+00
 -9.5496010e-03
 -1.0185923e-02
 -2.5733628e-03
  5.2293661e-05
  1.3575157e-03
  9.8856967e-03
 -2.1640253e-03
 -2.8209348e-04
 -3.0778106e-03
  1.8920584e-03
 -1.4083105e-03
  1.4759066e-03
  1.9163260e-03
  3.9150994e-02
  9.0823125e-04
 -1.9927076e-03
 -9.6590640e-03
  1.4449580e-02
 -2.5806343e-03
 -2.5684969e-02
 -4.5174737e-03
  1.6739873e-02
 -1.4076401e-03
 -9.8181260e-04
 -3.7603532e-03
 -2.1775374e+00
 -1.0954893e+00
  1.7596285e-01
  2.3299153e+00
  2.3180759e-01
 -3.4043302e-03
  8.7935310e-03
  3.8710984e-03
 -1.1596166e-03
 -4.4401479e-03
  9.5792627e-04
  1.3857012e-02
  3.0646304e-02
 -1.8828235e-03
  9.7042217e-04
 -9.9877259e-03
  3.3459324e-02
  8.7971678e-03
  3.7544151e-03
  2.4290153e-01
 -6.3923173e-02
 -2.5057662e-03
 -5.7906728e-02
 -3.2711741e-01
 -7.8474926e-03
  7.1016541e-03
  5.6909584e-03
  1.2474813e-02
 -4.9787641e-02
  1.3681211e-01
 -4.4109353e-01
  9.4924843e-01
  1.1078524e-01
 -1.4939388e+00
 -1.3549045e+00
 -1.1970230e-02
  1.3133419e-01
  2.3575518e-02
 -9.9164285e-02
  9.9392939e-01
  3.4507915e-02
  3.2495010e-01
  1.0729090e-01
 -9.2354780e-01
  1.0103534e+00
  7.5245928e-03
 -8.8150799e-03
  7.5017267e-01
 -2.5340462e-01
  4.1325608e-01
 -3.9005936e-03
  2.4799723e-02
 -2.8698623e-01
 -2.7068177e-01
  2.2291444e-02
  1.2640809e-02
  9.5938891e-03
  7.0368301e-04
 -2.6995053e-03
 -2.9658142e-03
  2.9928731e-03
  3.9673492e-01
  3.5860473e-03
  7.4778306e-03
  1.8958696e-03
  3.7228412e-04
 -1.0845227e-02
 -4.1946191e-02
  1.5043289e-02
  2.1354645e-03
  2.8085889e-02
  1.4921515e-02
  3.5361634e-03
 -3.7161035e-03
  5.0130757e-03
  1.3066261e-02
 -8.4460300e-04
 -4.6587498e-03
  6.3189147e-03
  9.9580102e-03
  1.8732715e-03
  8.9201173e-03
 -6.2817219e-03
  1.1588164e-03
  1.6792800e-02
 -4.8695561e-03
 -2.4370853e-04
  1.4030170e-02
 -1.1202769e-02
  6.7482363e-03
  4.4916631e-03
 -8.6647971e-04
  2.5233594e-03
  1.3659662e-02
 -1.3143226e-02
 -1.1878232e-02
  2.7528754e-03
  3.6665585e-04
 -5.7315882e-03
 -5.9222057e-04
 -3.0614282e-03
  8.0354614e-03
 -7.1336175e-03
  1.5658382e-02
 -7.1911377e-01
  4.2826603e-03
  1.6034467e-03
 -4.1687638e-03
 -1.3295057e-02
 -4.7517391e-03
  1.2008250e-02
 -4.4996450e-03
 -4.8256965e-04
 -1.6500363e-03
 -7.2132505e-04
  4.2472687e-03
  2.6329933e-03
  4.6495460e-03
  1.9274493e-03
  1.3757820e-02
  1.5440388e-03
  3.7471689e-02
 -1.1551147e-01
 -9.6153617e-02
 -1.8624462e-01
 -5.7224430e-02
 -9.9708780e-04
 -1.5964685e-02
  1.3047928e-02
  1.0788493e+00
  1.7307805e-02
  1.0171072e-02
 -8.7718886e-01
  1.8902335e-02
  9.9280995e-01
  1.7005159e-02
 -1.3686541e-03
 -1.2864777e-01
  1.1048896e-02
  7.3991470e-02
  1.0044696e-02
 -4.5512626e-03
  6.1005750e-03
  8.7101012e-02
  3.9799437e-03
  2.1443274e-02
 -4.0111141e-03
 -6.7089475e-03
  2.1880472e-02
 -1.7865855e-02
  6.2349153e-01
  4.9910495e-01
 -1.0484702e-01
 -3.4781975e-01
 -1.4543112e-01
 -1.7079007e-02
 -5.8824448e-03
 -1.2978500e-02
 -6.7056958e-03
  2.7356276e-01
  7.0018147e-04
 -8.4901517e-03
 -4.5465276e-02
 -5.7355981e-02
  7.6062940e-03
 -1.3862744e-03
 -1.3216525e-02
  9.3591079e-04
  2.1165314e-03
 -1.5338328e-01
 -2.6484861e-04
  2.4545728e-03
  2.3274215e-02
  5.1351380e-01
  1.3664989e-02
  3.6557414e-02
 -1.5720776e-03
 -3.2075862e-03
 -4.6849996e-03
 -1.1397699e-02
  1.2856837e-02
 -5.1836193e-01
  1.6754856e-02
 -2.0848863e-02
  4.3855170e-03
  2.0780831e-03
 -3.3479601e-03
 -2.8698054e-01
  3.5813660e-03
 -4.0586889e-03
 -4.9156141e-02
  7.5465376e-03
 -1.3686298e-02
 -1.6673215e-02
 -3.9553386e-03
  4.3109558e-03
 -4.4914447e-03
 -1.5554362e-03
 -5.5203587e-03
 -1.5395782e-02
 -1.2640755e-03
 -1.3069283e-02
  1.3032184e-02
  6.7076869e-02
  1.7951446e-03
 -3.9588213e-03
  7.2985864e-03
  1.2823965e-02
 -1.8616893e-03
 -3.4558291e-03
  1.6493741e-02
 -1.5786969e-03
  1.6532209e-02
 -1.1459191e-01
  1.3203562e-02
 -4.7543226e-03
 -9.5505277e-03
 -1.1364186e-02
 -1.6200906e-02
 -7.4780583e-03
 -3.1442384e-03
  1.0852169e-02
  7.6402165e-03
  2.8750207e-03
 -1.0537574e-03
  9.5682526e-03
 -4.1170772e-03
  3.1785762e-03
  1.6404071e-04
  6.6811722e-03
 -5.8679632e-03
 -1.1581783e-03
  1.7178873e-02
 -7.2611059e-04
  1.1796072e-02
  3.0393112e-02
 -6.4776680e-03
  8.0410475e-03
 -3.7211878e-03
 -9.0327961e-03
  1.2171012e-02
  1.7846609e-03
 -1.8518142e-02
  1.0436620e-02
 -6.7225005e-03
  5.0380784e-03
  1.0617247e-03
 -3.5973302e-01
 -1.8537903e-02
  1.3557436e-02
  3.6133630e-03
 -7.9956208e-04
 -2.0431759e-02
  1.1345777e-02
  2.2783226e-03
 -1.0588845e-02
  1.1497961e-02
  1.1777082e-03
  2.0956187e-02
 -5.8604409e-03
  5.0536036e-03
 -7.9123944e-04
 -1.2395305e-03
 -1.5700232e-02
 -1.0097138e-02
 -9.6357986e-02
 -2.9482814e-03
  8.6303102e-03
 -9.4322674e-03
 -2.9968689e-03
  1.0460613e+00
  3.2014099e-01
 -1.3544378e-01
 -1.2735705e+00
 -1.9957398e+00
 -1.2325847e-02
 -6.8071028e-03
 -1.7877081e-03
  5.2774809e-02
  3.2597080e-02
 -1.5471652e-03
 -2.5143808e-02
  4.7989041e-03
 -4.0177919e-04
 -9.5406896e-01
 -3.3247971e-03
 -3.8932513e-03
  2.5923026e-03
  2.9614842e-01
 -5.7429355e-02
 -4.3266602e-03
 -1.2962230e-03
  4.2880811e-03
  6.3793689e-01
 -3.8424570e-03
 -1.1850243e-02
  3.4009952e-03
 -7.9727201e-03
 -1.7277058e-03
  5.0502983e-03
  9.0985036e-01
  1.4198540e-01
  1.0083636e-01
 -3.7687019e-01
 -7.5107545e-01
 -2.0663273e-02
 -7.2252387e-03
 -4.9168589e-03
  3.2979999e-02
  4.5763995e-03
  1.7838759e-03
  5.3708376e-03
 -1.5139882e-02
  2.1076743e-01
 -8.9677952e-02
 -1.3839870e-02
 -2.1934966e-02
 -2.1743707e-03
 -1.0488780e-01
 -7.3306307e-02
  1.6096067e-02
  2.2898740e-03
  1.9352753e-02
  1.2683545e-01
 -5.7014167e-01
  2.0863188e-02
 -2.0811111e-01
  2.4519658e-03
 -4.4638980e-03
  2.1445851e-03
  5.1116014e-01
  6.4622843e-01
 -4.6667424e-01
  5.4612744e-01
 -7.2442681e-02
 -5.1213741e-02
 -9.2665839e-01
 -6.0250495e-02
  1.0459771e-01
  3.4859911e-02
  5.1921938e-02
 -4.6677742e-02
 -7.4386775e-01
 -2.2128362e-02
  3.2747597e-02
  3.5911240e-02
 -3.6622919e-02
  2.2914293e-01
 -4.7329828e-02
 -5.3254032e-01
  2.5206634e-03
 -5.4854350e-03
  1.6743757e-01
 -1.2787545e+00
 -5.4844743e-01
  1.3526189e-02
  3.3880516e-03
 -1.0441393e-04
  5.0898232e-03
 -1.6343601e-02
 -4.4066712e-02
  9.3501732e-02
  1.4886516e-02
  3.6019955e-02
  5.3319640e-02
  2.5527937e-02
  7.5959465e-03
 -3.3038235e-03
 -1.1517148e-02
  1.2470988e-03
 -1.9640033e-03
  7.7104624e-03
 -3.3160895e-03
 -3.0188712e-03
  2.4498161e-03
  7.1659102e-04
  2.5354788e-01
 -1.0392465e-02
 -3.5401029e-03
 -1.9097777e-01
 -1.8893253e-02
  2.0376916e-01
 -2.2619264e-02
 -1.2044091e-02
 -1.1031208e-02
 -2.3739278e-02
  1.2766023e-03
  1.3459592e-02
 -3.8095050e-02
  2.1201884e-03
  1.3421573e-03
 -8.4846292e-04
  1.1865365e-02
  3.4509823e-03
  1.3213297e-03
  1.3919166e-02
  2.9301064e-03
  8.2297390e-03
 -4.2818515e-03
  1.9571630e-02
 -7.7160060e-02
 -7.5203818e-03
 -3.4825876e-03
  1.0825117e-02
  3.0075144e-03
 -4.0167803e-03
  1.1837780e-02
 -1.0205745e-03
  7.3796385e-03
 -4.0595005e-03
  3.0308919e-02
  5.0763860e-03
  2.6513590e-03
  1.0892712e-03
  6.2190024e-03
  2.0979750e-03
  2.3851988e-03
  9.0304520e-03
 -2.2269052e-03
 -2.2917436e-03
 -2.0164829e-03
  7.4113011e-02
  1.2321128e-02
 -4.4392940e-02
  6.3938000e-03
  8.8364566e-03
 -1.8660287e+00
 -1.1143320e-03
  6.5448191e-03
  1.3537800e-02
  1.7115423e-02
 -2.0785107e-01
 -3.0381573e-02
 -8.5996473e-03
  2.5887473e-03
  4.0338454e-03
 -1.2866343e-02
 -1.6653099e-03
 -4.4525838e-03
 -1.2573970e-02
 -6.5048519e-03
  1.1742150e-03
 -2.4674288e-03
  2.9225545e-02
  5.2691843e-02
  8.4761850e-04
 -2.5049944e-03
  1.0407984e-02
 -7.8199720e-03
 -1.1326535e-02
 -4.4571972e-03
 -2.6363514e-03
 -6.1460650e-01
 -9.0192053e-03
 -6.5094098e-03
  1.9076498e-02
  3.0427217e-02
 -9.8188184e-03
  1.5001222e-03
  8.5358564e-03
 -7.8792879e-03
 -1.5258467e-03
 -4.9459090e-04
 -1.3873678e-01
  1.0487937e-02
 -7.8731524e-03
 -1.4126382e-02
  3.6905676e-03
  1.2663689e-03
  4.8860102e-03
  2.1839926e-03
 -2.4575824e-02
 -1.7028337e-02
 -8.2768621e-03
 -9.8679382e-03
  1.2970862e-02
  8.3410796e-03
  2.5886980e-01
  1.2913221e-02
 -1.0130574e-03
 -2.7104432e-04
  3.3064242e-02
  8.2190533e-04
  8.6168135e-03
  6.9343472e-01
 -4.8894328e-03
 -5.9314980e-03
 -3.2456034e-01
  1.6098281e-02
  4.9710297e-04
  8.7416843e-03
 -4.2983117e-03
  6.8044732e-04
  5.1309778e-03
  1.4338631e-02
  9.6426429e-03
 -2.5790848e-02
  5.2381875e-03
  1.0418574e-01
 -1.3760988e-02
 -2.0024965e-02
  4.5789191e-03
  5.0452602e-04
 -6.6727763e-03
  2.3605235e-02
 -1.1672772e-02
  1.2489960e-03
  3.1022551e-03
  1.3819096e-02
  2.0103658e-02
 -1.4186828e-01
  1.9389903e-02
 -4.4600528e-01
  1.1311737e-01
 -1.0454442e-02
  1.1086805e-02
  2.5659856e-01
  3.0686593e-01
 -2.8213996e-01
  1.6532505e+00
  1.6534929e-01
  4.4678338e-03
  1.2768153e-02
  2.5157176e-02
  8.2967907e-01
 -7.4162725e-03
  6.5534282e-03
  2.3515846e-04
  2.6631671e-01
  2.7657505e-03
  5.8537242e-03
  2.2854542e-02
  9.7432691e-01
  1.4243316e-02
  9.0798885e-02
 -2.3110953e-01
  6.7471093e-03
 -4.4705919e-03
  1.5339111e-02
 -6.8803066e-01
 -3.6851364e-01
 -4.3477389e-01
  5.0160730e-01
 -2.2581214e-01
  3.6594346e-01
 -7.9087140e-03
 -9.3646371e-01
 -1.9953942e+00
  1.1265558e-02
  5.1279449e-01
  2.3895550e+00
  2.1309288e-02
 -1.5140386e-01
  3.6982089e-01
 -1.5754893e+00
 -3.2097202e-02
 -5.4028850e-02
 -3.7053609e-01
 -5.8786672e-01
 -2.9471371e-01
 -1.2369755e-02
  4.6176673e-03
 -3.7249428e-01
 -6.0625255e-01
 -1.0222899e+00
  3.4982780e-01
  1.6044745e-02
 -1.6425093e-01
  4.8503999e-02
 -7.9343371e-02
  1.0653820e-02
 -1.0729599e-02
 -9.5795959e-01
 -5.5450094e-03
 -1.2109646e-02
 -1.8943222e-03
  3.0234708e-02
 -5.2072178e-03
  2.2625372e-02
  7.5775692e-03
  3.0302754e-04
 -1.1567152e-04
 -2.7936674e-03
 -7.9937105e-04
  2.3717750e-03
 -1.8846921e-03
  1.0983706e-03
 -4.2320518e-03
 -2.4286376e-03
 -7.9123722e-03
  1.1965518e-01
  3.1265926e-02
 -1.0983850e-02
  8.5477596e-03
  1.9433754e-02
  1.8016143e-03
  1.7287660e-03
 -3.0298259e-03
 -2.3131333e-04
 -3.9050739e-02
  1.8787378e+00
  1.5991259e-01
 -1.9880525e+00
 -7.9625285e-01
  2.7589500e-01
  3.1460419e-02
  2.6351154e-01
 -5.1720291e-01
  1.4682366e-02
 -1.2047073e-02
 -9.9847559e-03
 -5.5503506e-02
 -7.5295389e-01
 -3.4626313e-02
 -4.6219854e-03
 -4.4835246e-01
 -6.9152033e-03
 -1.6070633e-01
  3.6024202e-02
 -5.0229277e-03
  6.5053003e-03
  2.9639215e-03
 -1.8736109e-04
  4.9465228e-02
  1.0013330e+00
  1.5009649e-02
 -1.4709057e-02
  3.7237912e-01
  1.7094573e-04
  2.2023194e-02
 -1.5794270e+00
 -1.3150854e+00
  2.3549769e+00
 -5.9164798e-01
  8.4534943e-01
 -4.0918145e-01
 -7.5029796e-01
  2.2376862e-01
 -2.9952612e-03
  1.6205080e-01
 -1.0596329e+00
 -6.0903829e-01
  1.3696626e+00
  1.9983965e-01
 -3.0527818e-01
 -1.2944623e+00
 -1.1795949e+00
  2.3988084e-01
 -1.0212027e+00
 -4.5305467e-03
 -9.9916750e-01
 -6.6967642e-01
 -8.8156778e-01
 -8.9706343e-01
 -7.2298847e-02
 -2.1852015e-02
  4.4465563e-03
 -2.7733484e-01
 -3.6937408e-02
 -4.2716493e-03
 -1.2321521e-01
 -2.0296414e+00
  5.5454481e-01
 -6.8122432e-02
 -1.8269644e+00
  1.4623151e-02
 -9.7786188e-02
  1.7261149e-01
 -1.5805770e-02
 -5.8905710e-04
 -4.5835143e-01
  2.3001076e-03
  9.9784225e-01
  6.2710419e-02
 -2.0676042e-01
 -2.1342386e-01
 -6.4726216e-03
  6.9950153e-03
  3.2275993e-02
 -4.1931693e-02
 -2.0479640e-01
 -3.0380303e-01
 -1.0986393e-01
 -7.0596943e-03
  1.6256634e-02
  1.7856758e-02
  1.2062177e-04
 -1.7485416e-02
 -5.2299635e-03
  3.3816798e-03
 -1.3681378e-03
  8.1246281e-03
 -3.9721069e-01
 -2.7066492e-03
  4.4429512e-03
 -2.0096690e-04
 -3.1872481e-04
 -8.6999424e-03
  5.4005310e-03
  7.5184894e-03
 -1.7403034e-02
 -7.7630235e-03
 -3.7971415e-02
  5.7317462e-02
 -3.5867754e-03
 -1.0060366e-02
  8.8457763e-03
 -1.1872690e-03
  3.1138111e-03
 -1.9973293e-03
  8.9067118e-03
  4.9206135e-03
  3.9282786e-03
 -1.1043683e-02
  6.9604658e-02
  3.1161582e-02
 -6.9049872e-03
 -2.0862486e-02
 -8.9687575e-03
  1.2975627e-03
 -3.6485679e-02
 -4.4551423e-01
 -6.2896526e-01
 -1.5387946e-01
 -5.8821809e-01
  1.9179458e-02
 -2.8750610e-01
  1.4445197e-02
  2.9788952e-02
  8.6535828e-04
 -2.6572752e-01
  1.3378780e-01
  1.7568367e-03
  1.7654542e-02
 -1.6350718e-02
 -1.7995729e+00
 -7.2261520e-02
  3.1083799e-04
  2.4886270e-01
 -1.2677515e-01
 -8.0423113e-03
 -9.7488402e-04
 -3.9211363e-01
 -1.5431005e-01
  5.9458916e-03
 -7.9432325e-03
 -3.3382367e-02
 -1.4388214e-02
  8.2189385e-03
 -5.1437975e-03
 -7.6829367e-03
  6.3086995e-03
  9.5757553e-03
  8.6956350e-03
 -1.8366466e-03
 -2.1501380e-04
  5.3402768e-03
 -4.9045114e-03
  5.7793395e-03
 -1.7703956e-02
 -8.6638359e-03
  4.4586039e-03
  7.2169304e-03
  5.4835710e-03
 -2.7491080e-02
 -1.1413951e-01
 -1.3963724e-03
  4.7549201e-04
  2.3506744e-02
  3.9032248e-03
  7.4672992e-03
 -5.4222364e-03
  4.7972421e-03
  6.1614248e-03
 -4.1043269e-03
  1.1071210e-02
  4.6509758e-04
 -6.0032000e-04
 -1.3099686e-02
  5.1915529e-03
  5.1706508e-03
 -1.7977783e-01
 -9.2170583e-03
  4.9955674e-05
 -8.8319723e-03
 -1.1305104e+00
  2.6346492e-03
  5.2066417e-03
  1.9179405e+00
  1.7490837e-01
  9.1099637e-03
 -4.1618076e-04
 -1.9701377e-02
 -1.0488092e-02
 -5.0246523e-04
 -9.7119333e-03
  2.4242397e-02
  1.8004626e-02
 -9.8805428e-03
  7.6866308e-03
  4.8186164e-03
 -6.9133043e-03
  1.3091022e-02
 -8.5578468e-03
 -2.4845246e-03
 -4.3456368e-03
 -1.3139689e-03
  2.7829260e-03
 -1.1456954e-02
  1.3903060e-02
  4.0287778e-02
  5.0519979e-01
  6.1376467e-03
  1.3937250e-02
 -5.5862434e-04
 -5.9541193e-04
 -1.8000947e-02
  5.1493025e-01
 -1.8269649e-03
  1.0437023e-02
  3.3312079e-03
 -2.9159468e-03
  1.5096107e-03
 -4.0943343e-03
  1.5477571e-03
 -4.8606643e-03
  4.4843238e-03
 -1.3791710e-03
 -7.7455096e-02
  3.2009406e-03
 -1.5642768e-02
 -1.0566077e-02
  1.8003030e-02
 -8.9922920e-03
 -7.2156692e-01
 -3.4112711e-03
  1.3431701e-02
 -9.2184106e-03
 -4.4335954e-02
  2.8021396e-03
 -7.6021266e-01
  6.0195848e-02
  3.5480714e-01
  9.6858390e-02
  8.0918765e-01
 -3.5047305e-01
 -7.8060576e-03
 -2.2168935e-03
 -1.0880138e-02
  2.6725791e-02
  5.8537915e-02
 -3.8239923e-01
 -2.3278967e-01
  3.5621945e-03
  5.1855072e-02
 -7.0839852e-02
 -2.4315934e-03
  1.1977509e+00
 -5.5904482e-02
 -1.0997023e-02
  5.6213826e-01
  6.3482344e-02
 -2.4540779e-01
 -1.6979264e-01
 -2.6942320e-02
 -2.8581792e-02
  2.1092191e-02
  1.4906096e-03
  4.3509465e-02
 -8.0344312e-02
  5.9637296e-01
  4.4782059e-03
 -2.1309921e-01
  2.8607473e-01
 -9.1147572e-01
 -1.6507657e-01
  3.4652638e-01
 -3.9320585e-01
 -4.4137049e-01
 -8.0188796e-02
 -8.0184519e-01
 -3.5190955e-01
  2.1830748e-01
 -1.8992257e-01
 -9.8873568e-01
 -1.1291881e+00
 -3.3126819e-01
 -6.1953378e-01
  1.6409348e-01
 -5.8329526e-02
  3.8826849e-02
  5.1595533e-01
 -9.2937106e-01
  4.2881694e-01
  2.2401139e-01
 -7.8371696e-02
 -3.8255131e-01
  1.3733475e-04
 -5.8566593e-04
 -1.5851738e-03
  2.0531356e-02
  1.7701250e-05
 -2.5591696e-02
  5.2833580e-04
 -2.2453912e-02
  2.4942512e-02
  2.0634677e-02
 -1.4647663e-03
  2.4435935e-03
 -3.4987589e-03
 -2.4371238e-01
  3.6849294e-02
  2.2626055e-02
  7.2293254e-03
  1.7923445e-03
  4.0371579e-01
  3.0628070e-03
  4.4237236e-03
  5.4873563e-02
  1.6341330e-03
 -3.4368308e-03
  1.7445935e-02
 -1.2616633e-04
 -9.3879632e-04
 -4.3756762e-04
  1.6855923e-02
 -1.1404923e-02
 -5.8899350e-03
  1.3969003e-03
 -1.1884040e-02
  1.1484524e-01
  1.5094346e-01
  2.5072198e-02
  9.4082840e-02
 -4.0800367e-02
  3.1358527e-03
  5.1224367e-03
 -3.0668410e-02
  3.9964985e-02
 -1.1551602e-02
 -2.2408966e-02
  1.2112693e-02
  1.1514997e-04
 -1.4106902e-02
 -2.3966458e-02
 -6.2191125e-04
 -6.3111028e-04
 -1.1897106e+00
  1.5636161e-03
  4.3689301e-03
  1.4650308e-03
  6.3471720e-03
 -9.4848156e-02
  4.6699420e-02
  1.2862557e-03
  6.4790105e-03
 -3.8012417e-03
 -1.5809733e-03
  6.1657545e-03
 -2.8621969e-03
  3.0079663e-01
  5.9910849e-02
 -5.0249141e-01
 -1.3183914e+00
 -6.2244093e-01
  4.9172956e-01
  1.3519558e-01
 -9.6074027e-01
  2.3310500e-01
 -2.7066737e-01
  3.3762404e-01
  4.3994358e-01
 -1.0391713e+00
  3.7086045e-03
 -4.3856448e-01
  1.1193590e+00
  1.4366178e-01
 -5.1410282e-01
  8.0786532e-01
 -4.8001802e-01
 -1.4904541e+00
  2.0816163e-03
 -4.0831587e-01
  2.3325734e-01
  8.7291226e-02
 -4.3846172e-01
 -7.1480162e-02
 -5.4581231e-03
  9.7324286e-04
  6.9106636e-03
  2.5952594e-02
  5.9762127e-03
  9.2308804e-02
  4.2916745e-02
  4.1139651e-02
  7.8706610e-01
 -2.3877972e-03
  2.7993018e-02
 -1.6341295e-02
  1.1693228e-02
  8.1971418e-03
  8.1547471e-03
  2.1241680e-03
 -3.7194872e-03
  1.3542457e-03
 -1.5082227e+00
 -2.0972507e-02
  2.9105227e-02
  3.7130510e-04
  1.6304317e-03
  2.2797806e-02
  2.0719698e-02
 -3.5142955e-01
  6.2682498e-03
 -1.4128472e-02
  8.0225812e-03
  1.4967660e-02
  5.1319767e-03
 -7.9826666e-03
  8.6296704e-03
  1.4054522e-01
 -8.7383442e-04
 -3.9458051e-02
 -1.1432932e-02
  1.9381301e-02
  1.8916471e-02
  1.2219859e-02
 -9.7306725e-03
 -3.8068420e-03
 -2.2731723e-02
  1.1912278e-02
  2.3298880e-02
 -1.8250465e-03
  6.6478560e-03
 -5.7104714e-03
 -4.0755584e-03
 -3.3065851e-03
  1.3377943e-02
  1.1253755e-03
  9.3484009e-03
 -9.8864716e-03
 -1.2538452e-01
 -3.2633019e-03
 -4.3733113e-02
  6.5375711e-03
  3.9876495e-03
  2.9633084e-02
  8.9485627e-03
  8.5700125e-01
 -1.6727775e-03
 -1.3093948e-01
  8.0325902e-02
 -1.7622612e-01
  6.9970274e-01
  1.5318254e+00
 -6.7071043e-02
 -2.2869426e-01
  3.4084871e-01
 -1.3395463e+00
 -4.8575874e-02
  2.0464039e+00
 -1.3714540e-01
  3.4804414e-03
 -7.9343379e-02
  3.1633109e-02
 -7.2510242e-01
 -5.8485180e-01
 -1.1296863e-03
 -8.9627135e-01
  7.0367545e-02
  2.3646362e-01
 -4.9518049e-02
 -2.2962227e-02
 -8.1555806e-02
 -3.2509256e-02
 -6.9476202e-02
  4.9936209e-02
  2.8837277e-03
  1.1326649e+00
  1.2070567e-02
  4.9301776e-01
 -1.7584806e-02
 -6.2438946e-02
 -6.3536036e-01
 -5.6927174e-01
  6.5008819e-01
  2.8886428e-02
 -4.0627170e-01
  1.5546570e-02
 -3.1995971e-02
 -5.6190766e-02
 -8.3129205e-02
  1.1903001e-01
 -2.7132085e-01
 -1.1987755e-01
 -2.5409707e-01
  8.6174451e-02
 -1.8884772e-01
  1.2347598e-02
 -2.2278393e-02
 -1.1485276e-01
  2.0587224e-01
 -8.1365556e-02
 -1.7775480e-01
 -1.0119453e-03
  1.6084141e-01
 -4.6466790e-02
 -4.9857134e-03
 -2.3672672e-03
  7.3212129e-01
 -1.1268182e+00
 -5.6769747e-01
  1.5414873e+00
  2.5537443e-01
  7.0521422e-02
  7.2707810e-02
 -3.0769798e-01
  1.1323143e-01
 -4.6670294e-01
  8.8388272e-02
  1.3873416e-01
 -1.7333792e-01
  1.7166545e+00
  2.6864710e-01
 -7.3329948e-02
 -8.9771706e-01
 -9.4645806e-02
  1.9666580e-02
 -1.0392265e-01
  1.2540051e-02
 -6.3395888e-01
 -2.5558446e-02
  7.0660448e-01
 -3.0909431e-01
 -1.7292872e-02
 -2.0908980e-02
  1.3779461e-02
 -1.0166045e-01
 -3.5309199e-02
  3.8994700e-03
  4.0575569e-03
  7.4884458e-03
  8.3769783e-03
 -1.1473284e-02
 -1.8913010e-03
  3.2507004e-03
 -5.3576269e-04
 -1.8582435e-02
  7.6509593e-03
  1.0282003e-02
  1.1389786e-02
 -2.5141614e-02
 -1.0055330e-02
 -4.0794006e-03
  6.3880689e-02
  2.8203398e-02
  6.4731011e-04
  3.3715882e-03
  1.4691578e-01
  1.2161907e-02
  3.1921617e-03
 -9.8403590e-04
  2.0270892e-03
 -3.4424118e-03
 -3.7044546e-04
  1.3330592e-03
 -2.0156384e-02
 -1.1665829e-02
  2.2725968e-03
  1.1265879e-02
 -1.7935380e-03
  6.8997579e-05
  1.2203610e-02
  1.4511803e-02
  1.8986690e-04
 -1.0717948e-02
  8.8353048e-04
  7.3253652e-03
 -4.5234300e-03
 -2.2712186e-02
 -6.9499956e-03
  1.3847999e-02
  1.7412236e-03
 -3.9313505e-03
  3.2426026e-03
 -7.3691239e-03
 -1.1986165e-02
  5.1839519e-03
  2.7764365e-03
  2.0848243e-03
 -2.4597585e-02
  5.8251587e-03
  1.6758490e-03
 -5.6939136e-04
 -2.3505019e-02
  3.0386509e-04
 -2.0828212e-02
  6.1562001e-03
 -4.1085851e-04
 -5.2415417e-04
  5.6274152e-01
 -1.4114227e-03
  3.2383509e-02
 -7.2351685e-03
 -1.0019720e-02
 -1.1644256e+00
  4.3076757e-02
  2.1531278e-02
 -2.8463686e-03
  1.8418616e-02
  4.6304736e-02
 -2.3115561e-03
 -3.5642434e-03
  2.3054206e-03
  3.0766943e-04
 -6.2960763e-03
 -6.6586481e-03
  1.6721388e-02
  3.1316644e-01
  6.3904594e-03
 -1.0350627e-02
 -6.5630358e-03
  2.0589107e-03
  1.3019526e-03
 -7.7121970e-03
 -5.6455011e-04
 -3.2456458e-01
 -1.5582046e-02
  6.6014065e-04
  1.8145294e-04
 -1.2352326e-01
  2.0410588e-02
  2.5375718e-03
  1.5241194e-02
  2.3799330e-02
  2.6465962e-03
  4.3632957e-04
  4.7005867e-03
 -9.4227782e-03
  6.7304363e-03
  3.0387931e-02
  1.4659270e-02
  1.0007575e-02
 -2.3000099e-04
 -9.5179984e-03
 -1.1554412e-02
  3.5833651e-01
 -7.2672232e-03
 -2.7971007e-03
  8.1071211e-03
  6.7649307e-03
 -1.0712441e-03
  4.4789532e-01
  3.1617980e-03
  1.6056719e-01
 -1.4006886e-02
  2.0788028e-03
  2.0885551e-03
  9.6215792e-03
  7.1663423e-03
 -1.5815299e+00
 -4.1385103e-02
 -5.4550350e-01
 -1.4835873e-01
 -1.0860891e-02
 -1.3639376e-03
 -9.6240290e-02
 -1.0238269e-02
  8.6502440e-04
  2.3543131e-02
  7.8763440e-03
 -1.1826461e-02
  1.4438134e-01
 -3.0578841e-03
 -7.0624608e-01
 -1.0606751e-01
 -1.3469161e-01
  1.8124085e-02
 -1.9876857e-03
  1.4720974e-02
 -7.6337732e-02
 -1.2966831e-01
  9.7017235e-01
 -6.9488272e-02
 -1.3219470e-02
  3.3329013e-01
 -8.0809956e-03
  1.8600298e-02
 -8.0290893e-03
  2.1914902e-01
  3.1864125e-02
 -1.4393363e-02
 -7.0461649e-03
 -1.5842873e-01
 -4.4945964e-01
  2.9381807e-03
  5.8787023e-03
 -1.1589775e-02
 -4.0220621e-04
 -1.1463044e-03
 -4.0628071e-04
  1.4324716e-02
 -5.0471029e-03
  4.1396022e-03
  1.5623067e-02
 -1.7478729e-02
 -1.5074457e-01
 -4.0600501e-02
 -5.7881954e-03
  1.2774766e-02
 -4.3235570e-03
  4.3257737e-01
 -1.1999597e-02
 -8.7165534e-02
  1.3391774e-02
  3.5411596e-02
 -7.6764240e-03
 -2.1698132e-02
 -3.9807017e-04
 -6.3760164e-03
  8.5239357e-01
 -4.3033287e-03
 -8.6265579e-02
 -3.0234717e-02
 -1.4265077e-03
 -1.9795345e-02
 -8.9519266e-03
 -7.2574466e-03
  1.7362313e-03
 -1.0324310e-02
 -1.7201399e-02
  5.7449406e-03
 -3.8235195e-02
 -9.2858551e-03
 -6.2921853e-03
  1.8594015e-02
  2.1453585e-02
 -2.2023609e-02
  1.7189227e-02
  7.1451040e-03
  1.7657690e-02
 -1.2119073e-02
  7.2725834e-03
  3.0417282e-02
  1.4360372e-03
  6.4573777e-03
  5.9845485e-03
  6.2950468e-03
  8.3920127e-03
  1.5920417e-02
 -2.2047082e-02
 -8.1177123e-02
  2.3759596e-01
  1.7361429e-01
  8.6459059e-01
  3.0148229e-01
 -1.6289569e-01
 -2.6306687e-03
 -3.9906064e-03
  3.1196168e-01
 -8.4733404e-03
 -7.4788980e-02
  2.0784086e-03
 -2.2025762e+00
  3.0071415e-02
 -1.0732462e-01
 -8.9901689e-05
  1.2921108e-02
  3.2170910e-02
  4.3656401e-02
 -2.4285580e-03
  2.7343740e-03
 -8.7439567e-02
  3.6380480e-03
 -2.5367113e-02
 -4.6636257e-03
  2.3575107e-02
 -3.1280666e-04
 -5.8087762e-03
 -2.1205029e-02
 -3.4739601e-03
 -1.6733021e-02
  7.2544016e-02
  2.5480241e-03
  1.3904512e-03
  2.3979004e-03
 -6.1947959e-03
  3.9749211e-03
  8.5140169e-03
  1.5782233e-02
  1.3133676e-03
  8.4350826e-03
  1.0802575e-04
 -1.3051543e-03
  3.2070566e-03
  1.6913892e-03
 -8.1889173e-03
  2.4905616e-02
 -5.6497363e-05
 -1.5413000e-02
  1.7719527e-03
  4.3080742e-03
  6.9635818e-03
 -8.4128678e-03
  3.9262334e-03
  4.0892228e-03
  1.0121611e-02
 -1.4907601e-03
  3.6959692e-03
 -1.5401278e-02
  4.3728006e-01
 -4.7150461e-04
  2.3264527e-02
 -6.9364505e-03
  1.1554245e-03
  1.0270493e-04
 -2.6775451e-02
  5.7636355e-03
 -8.7747043e-03
 -3.9784387e-01
  6.2545626e-03
 -1.0760053e-01
 -1.2955520e-03
 -7.3542376e-03
 -2.9285126e-03
  1.1957419e-02
  1.1916695e-01
 -1.0098071e-02
  2.0867065e-02
  4.2215381e-03
 -1.7859654e+00
  2.5356522e-02
  1.1136340e-02
 -4.7891038e-03
 -2.1089149e-01
 -1.1377370e-02
  5.3156372e-03
  1.9161342e-02
  7.1078972e-03
 -2.3413854e-02
  1.6398638e-01
 -2.2126522e-02
  1.2715448e-01
  1.4228081e+00
  8.6957060e-02
  2.5344081e-03
  1.0689269e-03
  1.9354004e-02
 -1.4958422e-02
  3.3920508e-02
  2.0669913e-01
 -1.9538968e-03
  2.1662571e-02
  5.3169886e-03
  5.0072785e-02
  1.2092806e-01
  5.7213757e-02
  4.9947347e-03
  5.7099131e-04
  2.4495617e-02
  4.7314022e-02
  1.9992873e-02
 -1.0871907e+00
 -3.0975649e-04
  5.2270470e-03
 -2.7327597e-02
 -3.3921557e-03
 -1.8925108e-02
 -4.9692780e-02
 -1.9793142e-02
 -5.0200731e-03
 -1.4095998e-01
 -6.0214400e-01
 -7.5025596e-02
 -4.3680528e-03
 -1.3028717e+00
 -2.5447564e-02
  2.2938463e-03
  3.2636017e-01
 -1.6675713e+00
  4.2525691e-01
 -8.0007343e-03
  9.4305602e-04
 -1.8676466e-01
  1.9040097e-01
 -8.0582341e-03
 -4.9463090e-01
 -2.0482159e-01
  4.3814600e-01
  2.1657965e-03
  8.8022894e-01
 -5.6721669e-01
  9.5793074e-01
 -2.6477602e-01
  1.3464481e-02
  5.0862253e-02
 -7.7295727e-01
 -7.7353935e-03
  1.0618137e+00
  6.3122666e-01
 -3.0715606e-01
 -4.9050668e-01
  8.7238121e-01
 -5.6469834e-01
 -1.8999338e-02
 -9.5337760e-01
 -2.2367057e-03
  8.5187875e-02
 -5.7947006e-02
  1.6081481e+00
 -1.5251584e+00
 -3.5283643e-01
 -3.4276864e-01
 -1.1209476e+00
  2.9301983e-01
 -1.9531764e-02
  8.2743728e-01
 -1.4139003e+00
  9.4532621e-01
 -3.5630543e-02
 -1.4956282e-03
  3.9699170e-01
  5.4609907e-01
  5.7025421e-01
 -3.4279069e-01
 -4.5257884e-01
  8.3540815e-01
  5.6644417e-02
 -1.2351818e-01
  5.2472490e-01
  2.4087772e-02
 -1.7765345e-01
  8.2280785e-03
  8.6124893e-04
  5.9250754e-01
 -3.0138297e-03
  2.6672378e-01
  1.0989851e-02
 -1.5801208e-02
  1.5820052e-01
 -1.2752507e-02
 -3.2861788e-02
 -6.3201122e-02
 -5.8470438e-03
  5.3975567e-02
  2.5620740e-03
  4.0407669e-02
 -1.4538581e-02
 -1.3743730e-02
  4.2384239e-03
 -4.0055360e-03
 -1.3180108e-02
  2.5331774e-03
  4.8760055e-03
  6.5096486e-01
  2.2052953e-02
 -1.4740635e-02
  1.2607576e-02
  1.2597891e-04
  3.1248871e-03
 -6.4451927e-03
  1.1974419e-02
  9.8379841e-03
 -4.7206711e-02
 -1.0438785e-03
  7.1670809e-03
 -4.3981087e-01
  6.2330924e-03
 -1.4716444e-03
  1.7886745e-02
  1.0499148e-02
 -2.7922983e-03
  1.1511569e-02
  2.0667831e-03
  1.4989381e-02
  1.9702267e-02
 -7.8301318e-03
  3.6958030e-01
  1.0709989e-02
  8.9545650e-03
 -9.0449508e-03
 -1.3043461e-03
  8.9916745e-03
  1.0737976e-02
 -6.3208137e-03
  3.1376787e-02
  1.2397113e-03
  6.6014957e-03
 -4.6421951e-03
 -2.3710303e-02
 -1.4783260e-01
 -5.2629601e-02
 -2.0136907e+00
 -7.4826145e-01
  8.2259393e-01
  3.8013953e-01
  1.0062610e+00
  3.6328286e-02
  5.9868222e-01
  3.4965146e-03
 -3.8184412e-02
 -4.6228923e-02
  1.9397847e-01
  2.9974863e-01
 -4.9007398e-01
  1.9850019e-01
  5.4968979e-02
 -9.4840080e-03
  4.3978199e-01
  8.6009574e-01
  1.9555071e-02
 -2.3175406e-03
  1.7973424e-01
  8.0316179e-03
  3.1720671e-01
 -1.0327693e-02
 -7.3315864e-03
 -1.5150057e-03
 -5.0838809e-03
 -6.6485810e-01
 -6.1306607e-02
 -4.6032420e-03
  7.8908941e-03
  1.9717166e-01
  9.6501308e-03
 -1.0583439e+00
  1.4909971e-02
 -3.1778004e-02
 -3.8450092e-02
  1.0639843e-02
  3.8089959e-03
 -4.0359227e-03
  6.9235575e-01
 -4.1569176e-01
 -6.2414310e-03
  1.4312838e-02
 -4.6872781e-03
  5.9566260e-03
 -6.5118715e-04
 -7.0889066e-03
 -5.2141451e-04
 -5.1985071e-03
 -7.1938060e-02
 -3.2861377e-03
  2.7108572e-03
 -2.8431272e-02
 -1.8178893e-02
  7.2247545e-05
  4.7020460e-04
  1.9223531e-03
 -2.1066275e-01
  4.5756647e-01
  1.2821110e-03
  4.6351897e-03
 -2.7585344e-03
  4.4187764e-03
 -8.0054337e-03
  2.8171594e-04
  1.5406233e-02
  5.3427233e-03
 -2.7471262e-03
  6.6199549e-04
 -1.3139320e-02
 -1.2961834e-02
  3.6462642e-02
 -2.0374009e-02
  4.5583406e-03
  1.2891859e-02
 -1.6139381e-02
 -5.1833214e-03
  1.7857829e-03
  1.4912559e-03
 -2.5309799e-03
  4.8165431e-04
  9.6040320e-01
  4.7431746e-03
  8.4992005e-03
  2.5936471e-02
 -6.6443873e-03
  4.6689127e-02
 -1.1140608e+00
  1.2399268e+00
  1.2103081e-01
 -5.0280809e-01
  3.0868211e-01
 -3.3013202e-02
  7.4645109e-03
  2.1631943e-02
  4.9499147e-02
  8.2075256e-01
  5.2334322e-03
 -1.1854636e-01
  2.2667551e-02
  3.6588837e-03
  6.7736688e-03
 -8.9233920e-02
  2.2561243e-02
  9.0183700e-03
  5.3880984e-01
 -3.4309283e-03
 -5.0895371e-02
 -1.5354850e-02
 -5.1720254e-03
  3.7575092e-02
  4.2412523e-03
  2.0188401e-03
  8.0169747e-03
 -7.3969561e-01
 -1.5094173e-02
  1.0364463e-02
 -8.4888357e-01
  4.3229766e-02
 -3.4406596e-01
  3.7228042e-01
  6.8821055e-01
 -8.2507720e-03
  2.6940415e-03
 -1.1896479e-03
 -4.7578496e-01
 -1.8251864e-02
 -4.8663342e-01
 -4.4987644e-03
  4.6628541e-03
 -2.4873249e-01
  9.5175117e-02
 -1.1836149e-01
 -1.7431937e-02
  2.6577121e-02
 -4.7260985e-01
 -2.6818824e-01
 -1.5812573e-01
  1.8797511e-02
  4.4814493e-03
  2.5535682e-02
 -4.7208931e-02
 -1.7875357e-03
  1.3025263e-03
  1.1410536e-02
  7.5643796e-01
  4.2089030e-01
  8.9234853e-01
  8.3144331e-01
 -2.7275138e-02
  3.3222824e-01
  2.2827303e-01
  1.1584264e-01
 -1.8217232e-02
  7.7494800e-01
  2.7504882e-01
  3.2777983e-01
 -1.2118570e-03
 -5.2197927e-01
  4.3586627e-01
 -1.6262132e-01
  1.9570372e-01
  5.5634695e-01
 -1.6746530e-02
  8.0028331e-01
  7.1701503e-01
  2.5791553e-01
 -2.1410189e-03
 -5.7144267e-03
  5.3166282e-01
  3.0277830e-02
  7.1619228e-03
 -1.2440118e-02
  2.5763470e-03
  5.3554040e-01
  4.3940237e-03
 -2.7946725e-02
  8.7120300e-03
  4.3990597e-02
 -8.0715055e-03
  5.2620791e-02
 -1.9861435e-04
 -1.5472187e-02
 -8.0463253e-03
  5.7278983e-02
  2.2156323e-04
  8.8170897e-03
 -1.6804308e-03
 -3.2121788e-03
 -5.7457690e-03
 -4.9089058e-04
  3.4203533e-02
 -2.8430377e-03
  8.2781404e-02
 -3.2269170e-03
 -5.6701675e-03
 -9.4067350e-02
 -1.9602612e-02
  4.1711521e-03
 -4.7052400e-03
  5.3337364e-05
 -9.3619928e-02
 -2.3510386e-03
  5.2087566e-05
  4.0390259e-03
 -1.2851539e+00
 -6.1599612e-03
  4.7962356e-02
 -1.3323194e-02
 -9.2434924e-04
 -1.7614065e-01
 -1.1714931e-02
  2.2628291e-02
  5.7756945e-02
 -1.0604778e-02
 -4.3453515e-02
  2.2020703e-03
  5.0308913e-02
  7.3577934e-03
  1.1899589e-03
  7.9589831e-03
 -1.4429383e-05
  8.0783078e-03
  3.6598414e-02
  2.0500828e-01
  1.6683061e-02
  1.0954672e-03
  5.5243558e-01
  2.0683862e-03
  4.1920532e-02
  3.0831036e-01
  1.8192118e-03
 -1.1603097e-02
 -2.7165138e-03
 -2.8674568e-03
  7.2660092e-03
  1.5451277e-04
  8.1278443e-01
 -2.6255606e-02
  5.0625660e-02
  2.1183474e-02
  1.7573231e-01
  1.3664644e-03
 -2.0106742e-02
  3.6804541e-04
 -7.4928391e-01
 -6.3393852e-03
  3.1734889e-03
  1.2244661e-02
 -5.9485380e-03
 -2.3452936e-02
  1.2130065e+00
 -8.5471766e-03
  1.3295411e-02
 -3.0839719e-02
 -1.4018797e-02
  1.2584776e-03
 -1.4187076e-02
  3.4347146e-03
 -7.1621188e-03
  5.9143794e-03
 -2.3569669e-04
  7.6762307e-04
 -5.8284649e-03
  1.3096306e-02
 -8.1290361e-03
 -1.3185192e-03
  1.9685312e-01
  6.8873800e-03
  1.4463406e-03
  3.3618680e-01
 -7.9334937e-03
  7.0406675e-02
 -1.0937177e-04
  1.9306142e-04
  5.4965885e-03
 -5.4144827e-03
 -7.2537237e-03
  1.1576426e-01
 -4.4343690e-03
  2.6353996e-02
 -8.2291691e-03
  8.1649348e-03
 -8.1538875e-03
  5.0507538e-02
  9.5655788e-03
 -9.8018507e-03
 -3.0276070e-03
  5.6353380e-04
 -3.3296403e-03
  1.1285177e-02
 -1.2933476e-02
  3.8869584e-03
 -5.0533675e-03
 -3.7039057e-03
  6.3693495e-03
  1.0325065e-02
 -1.4621551e+00
 -1.4510770e+00
 -2.5801911e+00
 -2.8573241e-02
  8.1057602e-01
  6.1691040e-01
 -6.5880990e-01
 -3.9879009e-03
  6.4212821e-02
  2.1284270e+00
  2.8169274e-03
  2.0747247e-01
 -3.8384713e-02
 -2.9729372e-01
  5.6374148e-02
  8.9455956e-01
  2.5494266e-01
  1.1206743e-02
 -7.9502895e-02
 -1.5181245e-01
  7.1043603e-02
 -3.1309536e-01
  1.7083991e-01
 -2.4480452e-01
  3.9693964e-01
 -1.9943623e-02
 -4.5565228e-04
 -1.9602628e-02
  1.1947650e-03
  2.6015848e-02
 -6.6581098e-03
  1.0004438e-03
  4.5212891e-02
 -2.6450729e-02
  1.1453592e-01
 -1.0486129e-02
  2.2202493e-03
  2.1071977e-03
 -4.7892835e-03
  2.0086282e-01
  9.3646450e-03
 -2.2056445e-02
 -2.2018546e-02
 -3.4481974e-03
  1.0212498e-01
  1.9993428e-03
  2.2368531e-01
 -1.0022143e-02
  1.5316232e-03
 -2.9272754e-02
 -1.7150538e-02
  8.8068163e-03
 -2.2146620e-02
 -3.0296903e-02
  1.5444791e+00
 -3.5175735e-03
 -1.8568052e-02
  5.2584410e-03
 -3.3923746e-03
 -9.6315956e-03
  1.4424641e-01
  6.3395891e-03
  1.8927626e-02
  2.8390789e-02
 -6.3163307e-03
  4.2891284e-03
  1.5133766e-04
  1.4540411e-02
 -3.4962851e-04
  1.4553410e-03
  1.3554918e-02
 -1.9732748e-01
 -1.0895577e-02
 -2.1891773e-02
 -4.9011493e-03
  9.3676997e-03
 -1.0212550e-02
  5.0197490e-03
  1.9146488e-03
 -2.2697601e-02
 -5.4145055e-03
  1.7935948e-02
 -4.1915439e-03
  5.2850251e-03
  6.2577780e-03
  1.3048572e-02
 -2.4092379e-03
 -4.6108686e-03
  5.5963781e-02
  2.1818895e-02
  6.4384824e-01
  2.4815004e-01
  1.9797469e+00
  9.0529311e-01
  1.6643356e-01
 -1.0186844e+00
  1.9980152e-01
 -9.9696308e-02
  9.1495439e-03
  6.6616982e-02
 -4.8549300e-01
 -2.3649129e-01
 -1.0657328e+00
 -4.7320899e-01
  1.3790890e+00
 -1.1161486e+00
  1.2958713e-01
 -3.2439846e-01
  5.7539386e-01
 -9.6722317e-01
 -9.5753849e-01
  5.8420247e-01
  1.7505272e-01
 -9.6281934e-01
  4.3836710e-01
  3.6051549e-02
 -8.8365242e-02
  1.3881706e-01
 -2.4812223e-02
  9.1568583e-01
  1.4898450e+00
 -1.2097169e-01
 -7.6480037e-01
 -6.0161310e-03
  2.0502363e-01
  1.4875497e-04
  3.9845568e-04
  5.2199694e-03
 -1.7781191e-01
 -3.9079357e-03
 -2.1717923e-02
  7.4008843e-03
 -1.7176669e-02
 -1.4843323e-02
 -7.7295363e-02
  6.7086896e-04
  1.7598232e-02
 -8.0925627e-03
  8.2803015e-03
 -8.0109360e-03
 -2.4725420e-03
  7.2907610e-04
 -5.2749426e-03
 -3.9155506e-02
  3.8461431e-03
  2.5152775e-02
  4.3918568e-04
  1.5750953e-03
  2.0479560e-02
  1.2383250e-02
  1.2783542e-01
  5.2335411e-03
 -3.8871667e-03
 -1.3937889e-02
 -1.6776092e-02
  4.6923449e-03
 -3.3001006e-03
 -5.5143973e-03
  3.8304606e-03
 -1.2534537e-02
 -3.4093671e-03
  1.8579595e-02
  3.1020030e-02
 -1.4261267e-03
  4.2180493e-03
 -6.2831491e-03
 -5.7950802e-03
  5.0510578e-03
 -2.7856580e-03
  1.6106117e-04
 -4.9649030e-03
  1.1584923e-04
  9.1806212e-03
  1.9609870e-01
  5.3290153e-01
 -2.6735345e-02
 -1.1785037e-03
 -8.4094852e-03
  2.9200448e-02
 -7.9812240e-03
  3.9611033e-01
 -9.7443178e-02
 -1.0958652e-02
  7.4676836e-01
 -1.4147706e+00
 -4.8177358e-02
 -3.2981977e-01
  7.4659451e-03
 -1.1850588e+00
  5.0599551e-01
 -9.8117286e-01
 -9.0642208e-03
 -3.4261629e-02
 -2.1548828e-01
 -3.7916169e-02
 -4.7380650e-01
 -8.2406223e-02
 -3.6086428e-01
 -1.1100675e+00
 -3.1114966e-01
 -2.5467953e-01
  5.5987206e-03
 -1.5587511e-03
 -4.5411804e-01
 -8.8611588e-02
  3.4362156e-02
 -3.5119327e-03
  2.0862706e-02
  1.0371326e-02
  5.1424969e-03
  5.0398342e-02
 -3.2696280e-01
  4.4804165e-01
  6.6871613e-02
  4.1818847e-03
 -6.9409953e-03
  8.1019271e-03
  2.7157220e-03
  3.3404198e-04
  1.0122333e-02
  6.4292522e-03
 -1.8583231e-04
  4.1305069e-03
  1.2544876e-02
  1.1567835e-03
  3.7440357e-03
  7.1115969e-03
  1.5056875e+00
  1.0520762e-02
 -7.1729640e-03
 -2.6575902e-02
  5.4398919e-03
  5.9661281e-04
  5.7876986e-03
  9.1827903e-03
 -7.0248838e-03
 -4.6534622e-03
 -1.5609524e-02
 -4.9853497e-03
 -3.8409815e-03
  6.9386190e-01
 -1.0822909e+00
  1.7622210e-02
 -1.3211992e+00
  1.3166684e-01
  2.0143082e-02
  5.6410814e-03
 -3.3893283e-03
  4.5474386e-01
 -1.2829251e+00
  2.4572034e-01
 -4.5444810e-01
  1.7442369e-01
  1.9981325e-01
 -3.1547266e-01
  8.8738546e-02
 -2.5589114e-02
  6.6237307e-01
  1.2039501e-02
  6.9761181e-01
  8.0016218e-03
 -3.0563874e-02
 -1.1233335e-03
  8.1771843e-02
  5.3727766e-03
 -1.5552196e-02
 -1.0483271e-02
 -4.6772331e-02
  2.2150407e-02
 -7.5366795e-02
 -1.6343500e-01
 -1.7784576e-01
 -1.3450989e-02
 -1.3506130e+00
 -1.7494641e-01
  3.0287648e-02
 -9.6894950e-02
  1.0090323e-02
  3.7952325e-01
 -1.2194231e-01
  6.7594172e-03
  1.1374976e-02
  2.3876317e-02
  2.8090222e-02
 -1.0335703e-01
 -3.6364149e-02
 -2.0862713e-02
  2.0275509e-01
  5.6865316e-02
 -1.2389886e+00
  1.4650844e-02
 -8.2422182e-02
  5.0666230e-03
  2.4860797e-02
  1.4637703e-03
 -1.4133283e-02
  1.6069589e-02
 -7.5080064e-03
 -6.0753161e-03
 -1.8436936e-01
  3.2310780e-02
 -1.4659991e-02
  9.1399181e-01
 -7.3916949e-02
  1.5158983e-03
 -2.9648808e-03
  3.9324225e-03
  3.0318266e-03
 -3.9103764e-04
  2.7590566e-03
  1.3784992e-02
 -3.9400924e-03
  5.1416326e-02
  2.5773970e-02
 -3.5258792e-02
 -4.1090511e-03
  3.1340073e-03
  2.7733689e-02
  1.1925749e-02
 -1.9621253e-02
  1.4455252e-03
 -2.8589021e-02
  1.5225668e-01
  9.6356748e-03
  2.6455710e-03
  4.3131734e-04
 -1.5783314e-02
  1.1100689e-02
 -1.0062416e-02
 -2.5044479e-03
  1.6800499e+00
  1.2820169e+00
  2.1403193e+00
 -3.9601859e-01
 -1.2789611e+00
 -1.0270623e+00
 -1.7067615e-02
 -1.6279169e+00
 -2.3529622e-01
 -6.9083726e-01
  7.1509737e-03
  2.6214293e-01
 -1.2434442e+00
  2.0862351e-01
 -6.6217947e-01
 -5.3579891e-01
 -6.5882736e-01
 -8.6112332e-01
  3.7259337e-02
 -1.2265149e+00
 -1.2320585e+00
 -2.2941050e-01
 -1.0204147e+00
  5.7097882e-01
  2.2356047e-01
 -4.2278733e-02
  6.8749028e-01
 -3.7476411e-01
 -1.0865820e-03
  1.1991570e+00
 -5.2000630e-01
 -2.5668052e-01
  2.4987829e-01
  7.6226884e-01
  6.6760272e-01
 -2.2785828e-01
  7.5562306e-02
  7.5176656e-01
 -4.1462436e-01
  3.3833972e-01
 -7.6913255e-01
  1.6598533e+00
 -5.4858614e-02
 -4.9916968e-01
 -1.1953461e+00
  1.7557570e-01
  2.7077547e-01
 -1.9279543e-01
 -1.4636718e+00
  5.4997790e-01
 -1.4262964e-01
  1.6055080e+00
  1.8886603e-01
 -4.1832864e-01
  9.3020061e-03
  5.6836784e-02
  1.3964796e-02
  3.0730963e-01
 -2.1912789e-02
 -5.9672657e-02
  1.1154782e-02
  9.7277062e-03
 -9.5845945e-03
 -3.3573765e-01
 -4.8666690e-03
 -3.5417983e-03
  4.5584932e-02
  2.2127146e-02
 -1.0130613e-02
 -2.0301363e-03
  1.3279065e+00
  2.7085403e-02
  3.0301388e-02
  4.9396190e-03
 -2.2835312e-03
 -9.1060782e-03
 -1.5213929e-01
  3.5404073e-04
 -1.1893308e-03
  2.0756599e-02
  2.0063351e-01
  6.4968439e-03
 -1.2188391e-03
  3.3208362e-03
 -3.4134837e-03
 -8.9520589e-04
 -7.2707748e-03
  5.9916440e-04
 -2.0152651e-02
 -1.3772687e-03
  1.6338830e-01
  3.1665000e-01
  4.4973072e-01
  4.2362446e-01
  8.7868387e-01
 -2.1208579e-02
 -2.4583185e-01
  1.7099805e-01
  1.0725366e-01
  5.2226651e-01
 -5.4089472e-02
  6.0219043e-01
 -1.6101588e-02
 -4.5411873e-01
  1.1186484e-01
  2.2035049e-02
  4.1293707e-02
  2.4679717e-02
 -3.7469290e-02
  1.3012934e-02
  1.6154961e-01
  1.6040866e-01
 -1.1371230e-01
 -1.1226492e-01
 -3.2724988e-02
 -4.6046339e-03
  2.1709969e-02
  1.8461761e-01
 -1.7647183e-02
  8.2034677e-02
 -3.9127227e-03
 -1.6053965e-02
  2.9605539e-03
  1.5620169e-02
  1.3753742e-02
 -2.8843146e-03
  1.6961267e-02
  6.6877315e-03
  1.2447561e-02
  1.7451797e-02
  7.2667510e-03
 -5.2700117e-03
 -1.2812804e-02
 -1.5143712e-02
 -1.5117916e-02
  1.2369307e-02
 -1.0982675e-02
 -1.0169941e-02
 -6.0349293e-03
 -9.8334933e-03
  3.6651837e-03
 -9.4952770e-03
 -5.8951182e-03
  3.9239863e-01
  4.7162369e-02
 -1.1725123e-03
 -2.1217380e-02
 -7.0385938e-03
 -2.3391884e-02
 -3.4572955e-03
 -1.0112125e+00
 -7.9198860e-02
 -9.1663963e-01
 -2.4850741e-01
  6.5058571e-01
 -1.7297459e-01
 -3.1978145e-01
 -1.6604842e-01
 -1.0840830e-01
 -1.5223458e-01
  5.7506688e-02
  1.8962964e-02
  1.5497270e-01
  1.8975645e-02
  2.1010870e-03
  8.0042970e-01
 -8.3408040e-01
  6.1422080e-01
  6.9034792e-02
  2.9221093e-02
  5.2580297e-02
 -1.6199075e-02
  4.8807543e-02
 -6.4638788e-03
  4.2391036e-02
 -1.7475253e-02
  9.0879342e-03
  5.9150998e-03
  5.9788520e-03
 -1.7373331e-02
 -9.3434602e-01
 -4.2233616e-01
 -1.3691934e+00
  5.3033561e-01
  7.4230003e-01
 -1.3449649e+00
  4.0047520e-01
  3.2458627e-01
  2.3367001e-01
  2.4017267e-01
  3.6221623e-04
  2.1822444e-01
  1.2416931e-02
 -1.0916137e-01
  1.6315575e+00
 -1.4990179e-01
  2.4269051e-03
  1.2155589e-01
 -1.7281220e-03
  1.5141841e+00
 -6.3871099e-03
 -4.9267360e-03
  1.0888925e-02
  2.5601871e-02
  7.0958729e-03
  1.6268298e-02
 -3.8521597e-05
  7.0098357e-04
  8.8519454e-03
  4.4208234e-03
 -7.3650581e-01
  1.0371868e-02
  4.1022733e-01
 -8.9994794e-01
 -4.1974480e-03
  9.0710801e-01
 -6.7068118e-01
 -9.6307427e-01
 -2.3893107e-02
  3.0066720e-03
 -2.6541534e-01
  1.0193624e-01
  2.7453415e+00
 -7.8079438e-01
 -8.8748839e-03
 -1.0861419e+00
  1.0137074e-01
 -4.6004850e-01
 -1.1728910e+00
  1.0474775e-02
 -3.0509512e+00
 -8.3560950e-01
  2.3779848e-01
 -5.4990721e-01
  7.8411445e-02
  3.0184615e-01
  2.7468073e-01
  1.7376819e+00
 -2.3099350e-02
 -3.7202349e-01
 -2.1477854e-01
  3.5617169e-02
  3.3171687e-01
 -2.4678738e-01
 -4.2525832e-02
 -3.8749543e-01
 -4.5159727e-01
  2.8850791e-01
 -3.2033733e-01
  2.9395905e-01
 -8.4744513e-02
  4.2654030e-02
  1.9265934e+00
 -2.4519637e-01
 -7.2303958e-02
 -4.6758974e-01
  6.2903440e-01
  1.2291890e-01
 -3.6800897e-01
 -7.0659406e-02
  9.0565282e-01
  3.7730089e-01
  6.8423562e-02
  1.6817460e+00
 -5.2020550e-01
  1.4350018e-01
 -6.1109805e-01
 -1.9138707e-01
  4.9993351e-01
 -7.8764528e-01
  4.7399530e+00
 -3.3936092e-01
 -4.8982212e-04
  2.4596055e-03
 -4.6223693e-02
  4.9247423e-01
 -5.5956477e-01
  9.7265035e-01
 -1.4449641e-01
 -3.0822885e-01
 -2.3692023e-02
 -3.4730730e-03
  1.2876266e+00
 -2.6130624e+00
 -8.4282136e-01
  3.9319437e-02
  1.0826461e+00
  8.2281185e-04
  1.0052752e-02
  2.4170239e-01
  2.5276106e-02
 -6.0233208e-03
 -4.4463427e-06
 -2.3770595e-03
  4.3626839e-01
 -1.4936222e-02
 -4.9116734e-01
 -2.3973382e-03
  1.8312685e+00
 -1.6214905e+00
 -1.1619761e+00
 -2.5095788e-01
 -1.4703992e-01
 -4.6909121e-03
  1.8326592e-02
 -1.0256130e-02
 -1.4348040e+00
  4.9602771e-01
  4.5950837e-02
  1.1426010e-02
 -1.1715130e+00
  9.0760511e-01
  2.6524195e-01
  9.2076054e-03
  9.1770381e-01
  5.4905111e-01
  5.5765194e-01
 -2.5031018e-01
 -3.2696906e-01
  1.5286284e-02
  6.7146823e-02
  2.4047813e-03
 -6.1231786e-01
 -1.0941470e+00
 -2.4389094e-02
  5.0043100e-01
  4.2771119e-01
 -2.1124877e-01
 -1.2206892e+00
 -3.1175287e-03
 -1.0009018e+00
 -3.1626191e-02
 -1.8606991e+00
 -3.2365341e-02
 -6.2625945e-02
  1.0939845e+00
 -4.2874734e-03
  4.9914484e-04
  5.4791552e-01
 -8.6545444e-01
  1.1505948e-02
  1.3902210e+00
 -2.1302934e+00
 -4.6932012e-01
 -3.0617161e-02
  2.1843313e-01
  5.7612497e-01
 -1.5292426e+00
  2.6095230e-02
  1.2016066e-01
  1.1454590e-01
 -5.5634286e-02
  5.9412834e-03
 -1.1598183e-04
  2.1617462e-01
 -6.3229913e-01
 -2.2136183e-03
  2.2269727e-01
  1.9232011e-01
  2.4919186e+00
 -1.5493859e+00
 -4.7389488e-03
 -4.7367856e-01
 -1.4141381e+00
  3.3252764e+00
  5.9647304e-01
 -2.0625007e+00
 -9.1974370e-02
 -2.0571953e-02
 -1.7692275e-02
 -2.9152083e-01
  5.4443032e-01
 -1.9195043e-01
 -3.1665650e-01
  3.6361715e-01
 -8.6037296e-01
 -2.4459038e+00
  3.3451837e-02
 -2.3895426e-01
  1.4694014e-01
 -2.3240656e-01
 -8.5057890e-01
 -1.0275143e+00
 -6.5756184e-01
  4.7385439e-01
 -1.2158033e-01
 -1.7009794e+00
 -9.0045273e-01
 -7.4995804e-01
 -3.9449468e-01
  4.8909700e-01
 -1.6306522e-01
 -4.3007623e-02
  1.3954800e-02
  1.1650296e+00
 -2.1462657e-01
 -1.1503991e+00
 -4.7983300e-02
  1.8165770e+00
 -1.0582364e+00
 -1.2969829e-03
 -3.7257276e-03
  3.2152230e-01
  3.6397016e-01
  1.1983767e+00
  8.4370154e-01
 -1.5553367e+00
 -7.0660937e-01
  9.3678570e-01
  1.7917477e-02
  1.1837107e+00
  6.0750754e-04
 -1.0064678e+00
 -6.5653753e-01
  1.0534847e+00
 -6.5590292e-01
 -1.3198407e+00
 -1.9105229e-01
  1.2351056e+00
  4.3452526e-03
 -2.0949282e-03
  3.0709205e-03
  6.0307783e-01
 -4.2118669e-01
 -4.1794932e-01
  4.0529035e-03
 -1.0036802e+00
  7.3788863e-01
 -3.0487314e-01
  3.7942058e-01
  3.3594805e-01
  2.7317401e-02
  3.8990441e-01
  7.6949126e-03
 -5.3703779e-01
 -1.4790289e-01
  5.0984893e-04
 -1.2512397e-02
  5.5131984e-01
 -5.3687322e-01
 -6.2491987e-02
  2.1220930e-03
 -6.5727609e-01
 -7.5360179e-01
 -2.6770666e-02
 -1.4520292e-03
 -1.3090736e-01
 -1.7215272e-02
 -5.6012277e-02
  1.1473165e+00
  5.4950929e-01
  9.2407984e-01
  2.0307919e-01
  1.9531767e-01
  1.9553380e-02
  1.4366429e-01
  9.7058555e-03
  3.2983948e-03
  8.2127267e-01
 -3.5404077e-01
  1.0246741e+00
 -1.8355381e-02
 -5.5131167e-01
 -4.1961256e-02
  1.1552357e-02
 -3.5553728e-03
 -1.4198458e-01
  1.4360318e+00
 -6.0768968e-01
  3.7709840e-02
  4.7871703e-01
 -4.1163936e-01
 -4.3688938e-01
  3.8365489e-03
 -6.7191470e-01
  7.8430820e-01
  4.7989359e-01
  1.2126911e+00
  1.1058314e+00
  7.3817879e-01
  7.1260355e-02
  4.1314536e-03
 -1.2157565e+00
 -9.4582498e-02
 -8.3874238e-01
 -9.8981168e-03
  1.0241730e+00
  6.1697010e-03
  1.8795488e-02
  1.6838662e-02
  3.2222524e-01
 -8.9769971e-01
 -6.2156725e-01
 -7.2859538e-01
  7.6537915e-02
 -1.5436178e-02
 -4.2642031e-02
  4.2486977e-02
 -5.6513947e-02
  4.7554168e-01
 -6.5042288e-04
  2.9813099e-01
 -4.3684503e-01
 -6.2437493e-01
 -1.2822691e-01
  9.7016810e-04
  1.2054709e+00
  1.1893691e+00
  4.7401771e-01
 -5.5829304e-01
  2.7794513e-01
 -2.3225822e-01
 -4.0580738e-02
  1.5987976e+00
  3.9906284e-01
  8.3202817e-02
  9.2648484e-02
 -3.1053764e-01
  2.2769088e-01
 -3.2015172e-01
 -2.2721140e+00
  1.0762118e-03
  5.8051702e-02
  1.0198387e+00
  3.2219639e-01
 -7.9769485e-02
 -3.6850050e-01
  6.4844847e-01
  6.6209361e-03
  3.9442027e-01
  6.9498071e-03
  1.7362180e+00
 -6.9090061e-02
 -4.6004537e-01
  1.4234990e+00
  1.7396027e-01
  5.1700675e-01
  1.1469381e-03
  2.2089076e+00
 -2.2153388e-01
  2.9694265e-01
 -2.1760693e+00
  8.2478940e-01
 -4.8327127e-01
 -3.4279135e-01
  1.7100677e-01
 -2.7410934e+00
 -1.3155683e+00
  1.6189994e+00
  8.3742715e-02
  1.9753499e-01
 -9.1969281e-01
 -6.0312617e-01
 -6.9190837e-03
  1.3846570e+00
 -6.7681950e-01
 -8.7127781e-01
 -1.6710233e-02
  2.7905226e-01
 -2.4534705e-01
 -1.2402934e-03
 -8.2594855e-03
 -6.4842170e-01
  2.0646114e+00
 -3.5319906e-01
 -1.1737438e-02
  1.2754890e+00
 -1.0002755e+00
  2.3614085e+00
 -7.9247847e-02
 -7.9644799e-02
  7.9347402e-01
 -3.0418036e+00
 -4.8581111e-01
  2.5227892e-01
  2.7877709e-02
  6.1201672e-03
  1.0658923e-02
 -3.4115657e-01
  1.8898493e-02
  4.1981433e-03
 -1.1028156e-02
 -6.2916636e-01
  1.2090033e+00
  4.7999096e-01
 -3.5277023e-03
 -1.2758690e+00
 -2.1094265e+00
 -2.7810279e-01
 -3.0535141e-01
  1.5793973e+00
 -1.1374263e-02
 -1.9797146e-01
 -7.4650790e-03
  7.6501332e-02
 -5.1796786e-02
  1.2423748e-02
  1.8548639e-02
  7.0383382e-01
  1.2555112e+00
 -2.4875839e+00
 -1.0374950e-02
  1.7101451e+00
  1.4229949e+00
 -6.6857404e-01
 -5.5285025e-01
 -7.2150260e-02
  1.4420018e+00
 -6.9685779e-03
  5.1495325e-02
  9.1669959e-01
 -1.7406815e-01
  1.2723838e-03
 -3.7883857e-01
  3.8701236e-01
  9.9117750e-01
 -1.2750697e+00
  1.7264881e-03
 -3.2581156e-01
 -5.4316068e-01
 -1.2999374e+00
 -1.2120219e+00
  1.3221100e-01
  1.2133681e-01
 -5.8900543e-02
  9.7291842e-03
 -7.1969962e-01
  4.8788312e-01
  5.1452662e-03
 -6.3140658e-03
  4.3958211e-01
 -5.1231092e-01
  2.4655445e-03
 -4.6913832e-02
  2.7506548e-01
  4.1451585e-02
 -7.9426384e-01
 -2.7703524e-01
  1.8021978e+00
 -2.9519707e-01
 -3.8218907e-01
 -2.5589663e-01
 -1.6036311e-01
 -2.4189565e+00
  4.1171940e-04
  1.2158237e-02
 -4.0729681e-01
  1.3371906e+00
 -1.4576958e-01
  5.5201272e-03
  2.8855416e-01
 -6.5786177e-01
  8.1085783e-01
 -2.1526118e-01
  1.8524921e+00
 -2.6522309e-01
 -1.4097693e-02
 -4.5463173e-03
  1.0539910e+00
 -6.6971111e-01
 -1.4461589e-01
 -1.1453799e+00
 -5.8081543e-01
  3.9148051e-01
  1.3403873e+00
 -3.7237346e-02
  8.9260346e-01
 -1.1590893e+00
 -8.8084087e-02
 -1.5045924e+00
  1.8089166e+00
 -9.9165833e-01
  3.9028957e-02
  4.8961382e-02
 -3.9007103e-01
  2.0430715e-01
  2.5207704e-01
  9.0349309e-02
  5.8850020e-01
  1.3512247e+00
 -1.6678903e-01
  2.1085474e-03
  5.4046375e-01
 -8.3047904e-02
 -1.1255267e+00
 -1.4522642e+00
 -1.7271306e-01
 -7.0709035e-02
 -5.4390651e-01
 -6.7157763e-01
 -2.7464893e-01
 -4.0412411e-02
 -4.2141861e-01
 -2.7230516e-01
  4.1538689e-01
 -1.5065839e-02
 -5.5920434e-01
  2.9135409e-03
 -1.5513320e+00
 -4.0109414e-01
 -1.2609575e+00
 -1.8402356e+00
 -6.6850382e-01
  1.8971403e-01
  4.3265615e-03
 -2.2191541e-02
  9.1413999e-01
 -7.1855807e-01
  4.9712467e-01
  1.2941309e+00
 -8.9687955e-01
  1.4583464e+00
 -1.9467577e-02
  4.1105640e-03
 -5.3545159e-01
  2.1640141e-01
 -5.7803720e-01
 -1.1705664e+00
 -1.7251247e-01
 -5.2062422e-04
 -1.2800369e-02
  2.0546759e-03
  2.8040720e-02
  4.5811862e-01
  9.5100798e-02
  1.1894543e-02
  7.0631588e-01
  6.8564758e-02
 -2.6464777e-03
 -1.6811900e-02
  1.8487744e-01
  5.7360667e-01
  3.8545191e-01
 -1.1244938e-03
  1.0567497e+00
  5.0597903e-03
  4.0054757e-02
  8.1368135e-03
 -2.7893618e-01
  2.6747552e-01
 -1.8590842e+00
 -7.5770366e-01
  1.7537713e+00
 -2.2759318e-01
 -2.2218676e-01
  1.7247908e-02
  6.3390559e-01
 -3.0620739e+00
 -3.0873613e-02
 -1.4025710e-02
  2.3831518e+00
  7.1540797e-01
 -6.6642597e-04
 -2.1004686e-02
  4.5761877e-01
  1.2624981e+00
  5.8339745e-01
  2.8089464e-01
 -1.0339961e+00
 -4.2111298e-01
  1.5508877e+00
  4.7832250e-04
  1.3338110e-02
  2.5613884e-02
  1.1077414e+00
 -3.4391421e-01
 -1.3799725e+00
 -4.8617329e-02
  2.1764594e-03
  3.3717009e-03
  1.0108397e+00
  9.3663073e-01
 -3.8026553e-01
  3.7173091e-03
  7.0805162e-01
 -1.0018963e-02
 -1.9052561e-01
 -1.0890364e-02
 -3.5376838e-01
  1.3341494e+00
  1.0572554e+00
 -7.4370980e-01
 -3.9266908e-01
 -3.9699161e-03
  3.6883712e-02
 -4.2110711e-01
 -2.9208806e-01
 -9.7070944e-01
  2.4291144e-01
 -4.9215883e-01
  2.6991229e+00
  2.0607892e-01
 -1.1815438e-01
 -1.3463978e+00
  6.9306254e-01
  7.2600998e-02
  1.7951001e-01
 -1.3054663e+00
  1.5595180e+00
 -1.6244879e-01
 -1.1850249e-02
  7.7595025e-02
 -3.4045093e-02
 -7.1502918e-01
  1.5484315e+00
 -1.0143393e+00
  2.7146334e-02
  7.3595947e-01
  6.8701023e-01
 -6.3520372e-02
  5.6755865e-01
  1.0644435e-01
  1.0779244e+00
  5.5134702e-01
 -2.5282897e-02
  2.7066457e-01
 -1.3052111e-02
  1.6777937e-01
  1.1490887e+00
  3.3216739e-01
  6.7956692e-01
  8.0927497e-01
  7.1574301e-01
  5.1119721e-01
  1.4755355e-01
  2.0315261e-03
 -1.1882960e+00
 -4.8527277e-01
  4.1394117e-01
  2.1206782e+00
 -1.3854355e+00
  1.1343828e+00
  1.0683214e-03
 -4.1528605e-02
  2.0133884e-01
 -3.7684369e-01
 -1.0522257e+00
  2.6080114e-01
 -2.5674981e-01
 -3.6083290e-01
 -9.3606865e-01
 -2.9099610e-02
  6.6727497e-02
 -2.4623153e-01
  2.2359182e-01
  2.8583172e-01
  1.1931040e-01
  8.7277241e-02
  6.9104932e-02
  3.3147946e-02
  9.0479866e-02
 -5.3726834e-01
  1.4690441e+00
  8.6401135e-01
 -8.3995754e-01
  1.3293019e-01
 -1.6315085e-01
 -1.7049041e-02
  1.8809759e-03
  4.9830022e-01
 -1.5743114e+00
  1.8049076e+00
 -5.6416935e-01
 -2.8368106e-01
 -2.2377873e-02
 -2.8423531e-04
  5.0585669e-01
  9.4175273e-01
  8.9806743e-02
  4.4437414e-01
  4.5505768e-01
  3.2392335e-01
  4.4728564e-03
  1.2963155e-02
 -2.7661163e-02
  1.8002369e+00
  2.7086011e-01
 -9.5985960e-03
 -7.8622460e-02
  3.8048854e-01
  3.6889568e-01
  3.6068223e-02
 -5.2999294e-01
 -7.2559297e-01
 -7.5841606e-01
  5.1747227e-01
  9.7566390e-01
 -4.5938882e-01
 -1.1646999e+00
 -1.7926387e-01
  2.5189977e+00
 -1.9399992e-01
 -2.0006871e-02
  6.0575206e-02
  2.2660131e+00
 -9.6025229e-02
 -1.2550892e-01
 -1.1205547e-01
 -2.4625441e-01
  1.4801981e+00
  9.2553920e-01
  2.2643101e+00
  4.5177090e-01
 -5.0268441e-01
  2.1967580e+00
 -1.6330488e+00
 -4.5420027e-01
 -8.4182158e-02
  4.3793563e-02
  8.5373980e-01
  1.2801832e-01
 -1.3936445e+00
  1.3432709e-02
 -6.3900277e-03
  1.0699663e+00
  1.3030031e+00
 -7.6111454e-01
  9.0492442e-03
 -1.2870964e+00
  6.6099560e-01
 -7.5031978e-01
 -2.9771426e-01
 -3.9858136e-01
  2.6013070e-01
  1.2147844e+00
  1.9470660e-01
 -1.4740105e+00
 -8.0307275e-02
  2.5011343e-01
  6.6439950e-01
 -1.1754778e-01
  9.0950273e-02
  2.4672492e-01
 -2.4833479e+00
  6.1770958e-01
 -1.0154670e+00
 -2.1275632e-01
  7.2178193e-03
  1.4913505e+00
 -1.3548705e-01
  4.9431080e-01
 -8.9834237e-01
 -1.0620252e+00
  6.2780273e-01
 -4.8574973e-02
  6.8321025e-01
 -7.6109749e-01
  3.2301357e-01
  1.2143338e-01
  8.9447975e-01
  3.5610324e-01
 -2.1587374e+00
 -1.3999770e+00
 -2.6422116e-01
 -3.5067892e-01
 -6.3523537e-01
  1.4395237e-01
  5.1366723e-01
 -1.1162422e+00
  7.7446602e-02
 -5.9471506e-04
  1.2704740e-01
 -1.0352952e+00
  1.1945331e+00
 -1.8268728e+00
 -8.9032453e-01
 -2.3057127e+00
 -6.7676508e-01
  1.7047986e+00
  4.4294184e-01
 -4.9462649e-01
 -3.6571422e-01
  1.3806607e+00
  2.2950390e-01
  9.0002334e-01
 -6.0946763e-01
  2.8331915e-02
 -5.7842016e-01
 -6.7013465e-02
  7.1086442e-01
  7.9151553e-01
  1.1006415e+00
 -2.3844159e+00
  1.7140813e-01
 -6.5077060e-01
 -5.8070902e-02
  4.7951931e-01
 -1.6246365e+00
  9.3207158e-02
  3.1379238e-01
 -1.1479501e+00
 -5.4896373e-02
  1.4872593e-02
 -2.1978424e-01
  8.2795721e-01
  1.5205905e-02
  1.0773052e-02
 -1.0647336e-02
 -1.1873992e-01
 -2.2461452e-02
  1.0289384e-01
  2.4475664e-02
  2.4257031e-01
  7.8466600e-01
  1.7967571e+00
 -4.1269422e-01
 -1.0333519e-02
 -1.0324151e-01
 -1.2847462e-04
 -1.8653342e-03
 -1.1926504e-02
  2.7449760e-03
  1.0685263e-02
 -7.3011192e-03
  1.2086239e-02
 -1.5720431e-04
  6.6405203e-04
 -1.8333413e-02
 -6.5942174e-01
 -8.3124298e-01
  6.6014940e-01
 -4.7514161e-01
  1.4151406e-02
 -1.2255246e-02
 -1.6786329e-02
 -5.0924319e-01
  3.2697257e-01
  5.6955861e-03
 -6.2574749e-03
 -1.0154100e-02
  2.5881821e-01
  8.2235169e-01
  1.0786321e+00
 -2.0042278e-02
  1.4145068e+00
 -2.9751340e-01
  5.7653093e-01
  1.3037100e-01
  8.0409897e-03
 -8.4686029e-04
  5.1267263e-03
 -3.7298340e-01
  3.0596319e-01
  7.7836663e-01
 -2.0151569e-02
 -2.1225572e-02
  2.1993385e-01
  9.4485784e-01
  1.9443123e-02
  9.7987214e-03
 -4.3082482e-01
  1.8044036e-02
 -7.5703180e-01
  1.4475958e+00
  6.3956869e-01
 -4.3348232e-01
  8.0395740e-04
  6.0598883e-03
 -8.4743196e-01
 -3.2046607e-01
 -1.5388296e-02
 -1.1430856e-02
  1.1932278e-02
 -4.8176602e-01
  2.3546726e-01
 -3.5474659e-03
 -1.5815678e+00
 -7.0233278e-02
  1.4394977e+00
  3.1421337e+00
  5.9454024e-01
 -5.3642812e-04
 -4.8262542e-03
 -1.5554941e-01
  8.1712914e-01
 -6.2113558e-04
 -3.0462956e-03
  4.1780394e-01
  9.2677534e-02
 -1.0744190e+00
  8.8690706e-03
  1.3534563e-02
  9.2103744e-01
  3.8564032e-01
  8.3388156e-01
  3.1091183e-01
 -4.3261382e-01
 -5.3924322e-01
  2.4426486e-03
 -1.4945136e-01
 -1.0154741e-01
  4.0137600e-03
  1.8143641e-04
  6.4729666e-03
  5.2918624e-02
  4.8966292e-02
  4.1850853e-01
 -2.0411380e-02
 -1.1809947e+00
 -3.2026030e-02
  1.4662048e+00
 -2.8488097e-01
 -4.3949452e-01
 -9.0159363e-01
 -1.3197777e-02
 -1.5524473e-02
  1.2688021e-02
  2.2488188e-03
  2.1994386e-03
 -1.1034063e-02
  2.7013460e-01
  1.5417250e-01
  1.6716039e-02
 -1.4926546e-03
 -1.5895367e+00
 -2.0670280e-01
  1.8420366e+00
  1.9167488e+00
  9.6702844e-02
 -1.6032752e-01
  7.8038080e-03
 -4.4126537e-01
 -6.6391718e-01
  2.4022304e-01
 -1.9808603e-03
 -1.3828752e-02
  7.0125163e-01
 -2.2761579e-01
  3.9242357e-01
  6.5829250e-04
 -1.5572016e+00
 -5.7103521e-01
 -6.9575787e-01
  1.4640267e+00
 -8.6654447e-02
  1.9909297e-01
  2.8197384e-01
  4.5478934e-01
 -1.3481506e+00
  2.7400741e-01
  4.7722664e-01
  3.4135598e-01
 -5.6523561e-01
 -6.0805909e-02
 -3.7115179e-02
  1.5587334e-02
  9.9771488e-01
  1.2173657e+00
 -4.5208322e-04
 -1.8337443e+00
  2.9834348e-01
 -2.6787221e-03
  5.5258060e-03
  1.9025970e-02
 -4.9546504e-01
  9.7086849e-03
 -1.5607630e-02
  1.9810686e-02
 -3.4215218e-01
  8.9055542e-03
 -4.8403693e-03
  5.0129127e-03
  6.6357309e-01
 -5.8485572e-03
  3.9301436e-02
 -4.1561729e-01
 -1.0722385e-02
  7.0872746e-02
  2.4670106e-01
  1.3132769e-01
  6.4472012e-02
 -6.0884110e-03
  6.5334988e-01
  1.0534757e-01
 -1.9074321e-01
 -1.0250134e-01
 -5.7538424e-02
  1.5555117e-02
 -3.2497048e-01
  3.7146711e-01
 -9.2553971e-03
 -2.5546625e-01
  9.9041855e-01
  1.0412400e+00
  8.6978171e-03
 -3.2498521e-01
 -4.2071065e-01
  5.0391383e-02
  2.0213675e-02
  1.7157452e-01
  2.1660135e+00
  1.2423244e-01
 -1.2472616e-02
  7.6979254e-03
  1.3977727e+00
  2.5326160e-01
 -5.0292187e-03
 -6.3499366e-03
 -1.9503221e-01
  4.2739432e-02
  1.0806107e-02
  3.8536116e-01
  5.7104737e-01
 -2.1409651e-03
  1.6975249e-01
 -6.4118055e-04
 -2.1860443e-01
 -1.9040234e-01
 -6.1190192e-02
 -8.6009745e-03
  1.7481759e+00
 -4.1517418e-02
  5.3621817e-04
  8.6811984e-01
  2.6034541e-02
  3.6637147e-03
  1.6026907e-01
 -2.6537621e-01
  5.2286241e-02
 -8.7852791e-02
  9.6782379e-02
  5.5620635e-01
 -1.6980053e+00
  2.5094464e-01
 -3.1675019e-03
 -1.0527954e-02
  8.6752254e-01
 -1.1131756e+00
  7.1923360e-02
 -1.5915169e-01
 -6.7703646e-01
 -1.8709908e-01
  4.8177280e-03
 -2.0004237e+00
 -6.1398745e-01
  3.2803023e-01
 -7.9028374e-03
 -5.7916787e-02
  5.3376043e-01
 -2.5796011e-02
 -1.6336375e-01
  1.2575955e-02
 -1.0606086e+00
 -9.9229705e-01
 -6.0763246e-01
 -2.1586983e+00
 -4.8211643e-01
 -2.0733815e-02
  5.0224960e-02
  6.3921171e-03
 -1.4993908e-01
 -5.6906545e-01
 -1.7553751e+00
  5.6727290e-01
  6.8546253e-01
  1.3602071e-02
  1.8917288e-03
  1.6305732e-03
 -4.0218711e-01
 -6.7643642e-01
 -2.5688546e-02
  1.3781679e+00
  7.1954131e-02
 -1.6036361e-01
  2.2915995e-01
  1.8190831e-01
  5.5815950e-02
  2.1370940e-03
  5.4203845e-03
 -2.5303471e-03
 -2.4519701e-01
  1.0221761e-02
 -1.1933757e-01
 -7.7758254e-03
 -1.8729640e+00
 -1.9469264e-01
  1.0431371e+00
  1.1910857e+00
  5.6574857e-01
  3.0174360e-02
  4.9621958e-02
 -6.1782002e-01
  5.4273941e-02
 -6.8061724e-02
 -6.3161790e-02
 -1.0823380e-01
  2.0491661e-01
 -1.1530312e+00
 -5.0993288e-01
  9.8349676e-03
  2.0894299e+00
  3.2243305e-01
 -1.5674564e+00
  1.0887097e+00
  5.2403933e-01
 -3.7102269e-03
 -1.3940000e-03
 -3.9276099e-05
 -4.9625400e-01
 -6.6058296e-03
 -1.7568829e-02
 -1.8159455e-02
  1.2564716e-02
 -3.5260750e-03
 -4.8090988e-03
 -8.2510402e-03
  3.8131011e-01
 -1.4600805e+00
 -5.7183236e-01
 -3.8535479e-01
  5.5957593e-02
  2.0528169e-02
  1.0706215e-02
 -4.2170444e-01
 -5.0731796e-01
 -3.4464053e-03
 -2.7650476e-02
 -7.6516286e-02
 -2.0880120e-01
  1.6855898e-01
 -4.9124357e-01
 -1.5936155e-03
  1.7424364e+00
  7.9860252e-01
  6.5478086e-02
 -2.6110876e-02
 -4.6299662e-02
  2.6155677e-01
  2.2599089e-01
 -5.8294291e-04
  4.1432294e-01
 -2.2876568e-01
 -9.9308258e-03
  1.5053226e-03
 -1.9075735e-02
 -1.0600233e+00
 -5.4720390e-01
  4.1205445e-03
 -9.5070347e-02
  5.4102361e-01
 -1.7287457e+00
 -2.0462043e+00
  1.0889590e+00
  2.7337199e-01
 -2.1022467e-02
 -4.2825207e-01
 -7.1731038e-02
  5.1681072e-01
  1.3086315e-05
 -3.2005869e-02
 -4.8159701e-01
 -2.7482690e-02
  7.0181424e-03
  2.0958793e-03
 -7.0026344e-01
 -1.0039159e+00
  1.0738093e-01
 -1.2635931e+00
 -3.0702722e-01
 -5.0980560e-02
  3.4695938e-01
 -1.7234413e-02
 -7.8039086e-01
  5.7931519e-01
 -7.6954570e-03
 -1.0969649e-03
  9.5465279e-04
  8.7126523e-01
 -1.4049125e+00
  2.5276880e-04
  9.1417640e-01
 -9.9131286e-01
 -5.8847702e-01
 -4.1734451e-01
  4.7981784e-01
  1.1934595e+00
  3.3813361e-03
 -7.2717197e-02
 -8.5470891e-01
  3.5458103e-01
 -5.3111404e-02
  9.4605208e-04
  2.0879307e+00
 -6.6070592e-01
  7.6133341e-01
 -2.6743887e-03
 -1.6358665e-01
 -9.0181208e-01
 -1.6094978e-01
 -8.8138247e-01
  6.7593679e-02
  6.7719650e-01
  2.7339354e-03
  1.3973753e+00
  2.2793016e-01
 -3.7437400e-01
 -2.2875313e-01
 -3.6165389e-01
  1.2246404e+00
 -4.7508064e-01
 -2.1438370e+00
 -6.4907623e-03
 -3.9138517e-01
 -1.3191815e-01
  3.6546949e-01
 -3.1889945e-01
  3.1952929e-01
  4.6262637e-01
  1.0262325e-02
  1.6431982e-02
 -1.0602858e-01
 -9.5987052e-02
  2.0170948e-03
 -1.9351421e-02
  7.5403059e-01
 -3.0930784e-01
  1.8476576e-02
  5.2363756e-03
 -5.2075636e-01
 -3.6500350e-01
  1.2972996e+00
  2.7953289e-02
  2.6759592e-01
  1.2760214e+00
 -2.7562287e-02
  7.0245200e-01
  4.4346091e-01
  4.0499473e-01
 -1.1210962e-02
  8.8323110e-01
  2.2396408e-01
 -4.2251939e-01
 -3.0458530e-02
 -1.6633085e-04
  1.3153731e+00
  9.9236639e-03
 -1.4498324e+00
 -6.6294181e-01
  3.8960928e-01
  7.6455042e-02
  1.0132090e-02
  1.1147520e-03
 -9.3426144e-01
 -2.0440032e-01
 -3.8653936e-03
 -7.1846573e-03
  4.9687386e-02
  1.5453723e-01
  2.6001134e-03
 -1.8493327e-03
  2.8739171e-02
  4.0825659e-01
  3.7605074e-01
 -1.1406580e+00
  7.9974824e-01
 -1.0929695e-01
 -2.1014728e-01
  3.5551339e-01
 -2.4800807e-01
  1.6771339e-02
  4.4824034e-03
  4.3053952e-01
  9.6336204e-01
 -1.0175415e+00
  2.1190851e-04
 -3.0957463e-03
  1.7806952e-01
 -6.0954489e-02
 -1.0988463e-03
 -1.6845219e-01
  3.8732141e-01
 -7.6738375e-01
  3.9940307e-01
  1.0769947e+00
  2.1857107e+00
  2.7465370e-01
  2.0536290e-01
  1.2550441e-02
  7.7146977e-01
  1.2560806e+00
 -6.1575971e-03
  4.1850912e-03
  3.2642612e-01
  9.3583101e-01
 -3.1292424e-02
 -9.7478932e-01
  1.1473895e+00
  8.0672491e-01
  8.5732764e-01
  6.3345348e-04
 -3.2019267e+00
 -2.0360839e+00
 -4.7560960e-02
  4.5150873e-01
  1.0218355e-03
  5.3496528e-01
 -1.1850529e-02
  1.0927130e-02
  1.0967162e-01
 -4.6889314e-01
  6.7879933e-01
  1.9608451e+00
 -5.5300367e-01
 -8.0838415e-04
  3.8322964e-01
  6.0086215e-01
 -1.2653945e-01
 -1.0862063e+00
  7.7224010e-01
  2.0730918e-02
  2.0639937e+00
 -4.3323010e-01
 -6.8640965e-03
 -7.9205809e-03
 -8.3626139e-01
 -2.3728982e-01
 -9.3538046e-01
 -9.0416294e-01
  1.0849094e+00
  7.3709065e-01
 -7.9419613e-02
  4.4458577e-01
 -1.6377856e+00
 -2.5162041e-01
  3.6934146e-03
  1.8406132e-03
  1.9987071e-02
 -3.2038920e-02
 -2.3112079e-02
 -1.0203000e-02
  5.1774930e-02
 -1.3462386e+00
 -2.7163276e-01
  1.2239985e-01
  3.0236430e+00
  1.1962038e-01
 -8.6265996e-02
  8.9930743e-02
 -1.0638497e+00
 -1.3309207e+00
  6.4885211e-03
  2.2717978e-01
  5.7575665e-02
 -1.4060900e-01
 -1.3422455e-03
 -8.4103811e-01
  1.6808398e-01
 -7.4823749e-01
 -1.4619304e-01
  2.2329919e+00
  6.0219914e-01
  7.8776717e-02
  4.1532910e-01
  6.7271644e-01
 -2.2947068e+00
 -1.1950379e-01
 -7.4841767e-03
  4.7345120e-03
  4.6822822e-01
 -1.0675895e+00
  2.4758340e-03
  5.8090137e-03
  5.0919663e-02
 -6.7863303e-01
  1.1384969e+00
  2.2830248e-01
 -3.3415167e-03
 -3.3706510e-01
  1.2382617e+00
  7.5662527e-03
 -5.0600231e-01
 -7.4962831e-01
 -3.5939535e-01
 -6.2167394e-01
  1.8803355e+00
 -4.0374580e-01
 -6.6500813e-01
  7.7258903e-03
  6.1217821e-01
  1.0266806e+00
  8.4656078e-01
  1.0806143e-01
  4.9699932e-02
 -7.5828493e-02
 -1.3712547e-02
  7.0571615e-03
  2.8936595e-03
 -4.4265934e-03
 -4.9805781e-01
  3.9231274e-04
 -1.2307160e-01
  1.4666367e-02
 -1.4588005e-02
 -6.4579984e-03
  1.9818457e-02
  8.6105382e-03
  1.6672377e-03
 -6.8816286e-01
 -8.4765302e-03
  3.9215293e-03
  9.3985900e-02
 -1.0204107e-03
 -3.3584487e-01
 -1.7411267e+00
 -2.5367582e-01
 -1.9526011e-01
 -7.7910960e-01
 -3.1080831e-02
 -5.5786222e-01
 -2.2389276e-01
 -4.5506435e-04
 -5.7886165e-01
 -2.6297882e-01
 -1.7466089e-02
  1.5313205e+00
 -7.8056604e-01
  1.3358730e+00
  1.6165849e-02
 -2.5481796e-01
 -8.0934763e-01
 -5.6870221e-03
 -1.8889073e-02
  1.1465579e+00
 -2.0642975e-01
  3.9540688e-03
 -1.7093506e-03
  2.2275546e-01
 -6.3034266e-01
 -8.8615435e-01
  2.3337984e+00
  1.3764881e-01
 -1.5870206e+00
  6.6982485e-02
 -2.6213145e-02
 -6.0709726e-02
  8.2778913e-01
 -7.8107074e-02
 -7.2865728e-03
 -1.0708095e+00
 -3.1770272e-03
 -2.2523327e-01
  1.1000497e-02
 -5.3265560e-01
 -6.5528858e-01
 -1.1078386e+00
  1.3032212e+00
  7.9985715e-02
  2.0790461e-01
  7.8607094e-01
  3.4159508e-02
 -2.2086534e-01
  1.1461520e+00
 -3.2959774e-02
 -5.1295370e-01
 -8.3345449e-01
 -1.9664369e-03
 -7.5177319e-02
  1.4845137e-01
 -3.3124825e-01
 -5.7378930e-01
 -4.9845004e-01
 -1.2616043e-01
 -1.8821218e+00
 -4.8858620e-02
  1.3100415e+00
  4.4315425e-03
  4.4750100e-01
  6.8773079e-01
 -3.1609058e-03
  7.9486491e-03
  3.3643097e-01
  3.3266816e-01
 -1.1363289e-01
 -5.9349905e-03
  5.1293886e-01
 -7.3273093e-02
 -3.4207460e-01
  1.4784267e+00
 -1.6087822e+00
 -2.9605672e-01
 -5.9629935e-01
  4.9273413e-02
  1.2646829e-01
  4.8773831e-01
 -5.3273678e-01
 -6.5780377e-01
 -1.0120526e-01
 -3.6376882e-02
 -2.2451021e-01
 -5.7109166e-03
 -2.4167299e-01
  1.5221192e-01
 -2.1505648e-01
  7.4085003e-01
  3.2163862e-02
 -1.7445521e-01
  5.8710647e-01
  6.9991215e-03
 -7.3792279e-02
  1.2627652e-01
 -5.2575129e-03
  1.7812826e-02
 -7.1956480e-01
 -4.2107564e-01
 -7.7362498e-03
 -1.6631596e-02
 -1.1955545e+00
  2.4661258e-01
 -3.3842874e-01
  9.5099175e-01
  5.2924186e-01
  4.6828941e-02
  4.6828941e-02
  4.6828941e-02
  4.6828941e-02
  4.6828941e-02
  1.8903287e-01
  1.8903287e-01
  1.8903287e-01
  1.8903287e-01
  1.8903287e-01
  1.0675663e-01
  1.0675663e-01
  1.0675663e-01
  1.0675663e-01
  1.0675663e-01
  4.6630532e-02
  4.6630532e-02
  4.6630532e-02
  4.6630532e-02
  4.6630532e-02
  1.6065972e-02
  1.6065972e-02
  1.6065972e-02
  1.6065972e-02
  1.6065972e-02
  1.0321043e-01
  1.0321043e-01
  1.0321043e-01
  1.0321043e-01
  1.0321043e-01
