nep4_zbl 4 Li La Zr O 
zbl 0.9 1.8
cutoff 6 4 95 30
n_max 4 4
basis_size 8 8
l_max 4 2 0
ANN 30 0
 -6.9639683e-02
  1.3744909e-02
  7.8581941e-01
  2.8143883e-01
 -5.7703592e-02
 -4.7449088e-03
 -1.7839655e-02
  2.2374120e-02
  9.2172049e-02
 -4.6977144e-02
 -2.2894667e-01
 -4.0100589e-02
  4.2885832e-02
 -8.8713177e-02
  4.6617588e-01
 -5.6870827e-03
  3.2979266e-03
  8.1095789e-03
 -2.9643912e-02
 -2.9859570e-01
  1.1600689e-02
  1.1495004e-04
  2.2171611e-02
 -8.3845435e-03
  3.5811510e-02
  1.5289984e-02
  4.7784757e-02
  3.0041732e-02
 -7.8468807e-02
  4.7230825e-02
  1.1854460e-02
 -2.5702119e-01
  4.8986878e-02
  1.1697491e-01
  1.1047950e-02
  6.6194065e-02
  7.3325597e-02
  2.1005800e-02
  1.1058335e-01
  1.9404886e-02
  3.5349440e-02
  6.4549938e-02
 -7.3902540e-02
 -8.4733702e-02
 -1.8504078e-02
  2.3103435e-01
 -3.8385041e-02
 -6.1844937e-03
  6.7701089e-01
  6.5784492e-02
  4.5058843e-02
 -5.3705864e-02
 -5.8887921e-02
  3.0535408e-03
  6.8123788e-02
  3.7353110e-02
 -8.5313083e-04
  7.6372035e-02
 -8.7804675e-02
 -7.3670775e-02
  3.5532364e-01
 -4.3254614e-02
 -5.8786370e-02
 -7.5957822e-03
  1.2015218e-01
 -3.0970978e-02
  6.3088802e-03
  2.1061733e-01
  3.8891677e-03
  1.5202413e-03
  6.1570082e-02
  6.1440095e-02
 -6.5726885e-03
 -3.7574567e-02
  6.5573994e-03
 -4.7445092e-02
 -2.1731039e-03
 -5.1075723e-02
 -1.7121451e-02
  8.0735587e-02
  9.8056354e-02
 -2.0484010e-02
  3.0646484e-02
 -7.6028979e-03
  9.0376418e-03
  8.0547415e-02
 -1.9006003e-01
 -1.0946393e-02
  2.5806250e-04
  5.2275516e-02
 -4.6728143e-01
 -2.3666993e-03
 -3.9717522e-02
 -1.6725655e-01
  2.3207195e-02
  6.5393925e-02
 -1.5295492e-02
  1.0206810e-02
 -1.5292749e-02
  3.9791283e-03
 -6.2627555e-03
 -1.1518221e-01
  1.0670966e-02
  2.7450052e-01
 -2.0056604e-01
 -2.3043659e-02
  3.1303179e-02
  2.7950376e-02
  6.8817818e-01
  1.5393941e-01
  1.6401291e-02
 -5.5004898e-03
 -1.1481575e-02
  1.3309733e-02
  7.2803330e-03
  1.3586476e-01
 -3.6997084e-02
  4.2150799e-02
 -3.0051531e-02
  3.5375857e-04
 -6.8530750e-01
 -7.9837054e-01
 -8.9439672e-01
  1.0250673e-01
 -2.9050186e-01
 -2.1951985e-02
 -2.2304787e-03
 -9.7396346e-03
 -5.0709188e-02
  5.5387776e-02
  1.5814747e-01
  2.1789844e-01
  3.8676638e-02
 -4.7442488e-02
 -6.7889042e-02
  2.0873364e-02
  1.2668857e-01
 -3.7035029e-02
  3.5534903e-02
  6.0495466e-01
  1.8225363e-01
  5.9812345e-02
 -1.5933794e-01
  3.7596768e-01
  5.2947515e-01
 -2.9163020e-02
 -8.1551457e-03
 -2.8458161e-03
 -1.1339188e-03
 -1.6288595e-02
  1.1080519e+00
  1.4610545e-02
 -5.2055288e-03
 -1.2145056e-01
 -6.3395277e-02
 -5.3850975e-02
  2.8787677e-03
  3.3086859e-02
  8.3285412e-03
  6.6716038e-02
  1.2246972e-01
  4.0315680e-02
 -7.8251176e-02
 -1.8519968e-02
 -3.9129062e-03
  9.8743616e-03
  1.8471764e-02
  1.3369651e-02
 -1.8877307e-01
 -4.1392222e-02
  9.4285831e-02
  8.2983263e-02
  2.6651017e-02
 -7.4255810e-04
  2.2834538e-02
 -3.5346027e-03
  4.3818069e-01
 -7.0564878e-01
 -2.9589768e-02
  8.6504258e-02
  3.5579614e-02
 -2.8896719e-02
 -2.9857543e-03
  1.1384023e-02
  1.0152507e-01
  1.4830133e-01
 -5.9766788e-03
  1.1679942e-01
  3.9718971e-02
 -2.2615469e-01
  6.0961945e-03
  2.7009938e-02
 -5.5671507e-01
  4.2988822e-02
  1.5087462e-02
 -5.7642862e-02
 -4.6597917e-02
 -3.9853644e-02
 -6.1609703e-03
 -1.3326393e-03
 -1.5599058e-02
 -4.5430616e-02
  4.5344707e-02
 -2.9017178e-02
 -1.9241379e+00
 -2.7818747e-02
 -1.9651603e-02
 -1.4511740e-01
 -2.3675252e-02
  2.5198406e-01
  8.5690492e-01
 -1.4507241e+00
  8.9884121e-03
 -1.7011777e+00
 -1.1759678e+00
  3.2131042e-02
 -3.2847952e-03
 -2.7803116e-02
  2.4826160e-02
  1.3910995e-01
  2.2402028e-02
 -2.4495797e-02
  3.8848545e-02
 -2.4789335e-02
  9.2180274e-02
  1.0948577e-02
  6.7032844e-02
 -2.4649771e-02
 -8.0265236e-01
  4.0690607e-01
 -2.9912082e-02
 -8.2809888e-02
 -6.2502787e-04
 -4.0079665e-01
  3.1603456e-01
 -4.9169047e-04
 -2.4374206e-02
  1.1520537e-01
 -3.0776840e-02
 -1.0046686e-02
 -2.0022076e-01
  4.2776573e-02
  1.6632816e-02
 -9.8934019e-01
 -1.5982153e-02
 -3.3697023e-03
  3.1241687e-02
  2.6497561e-02
  1.5782131e-02
  7.8273810e-02
 -3.7915736e-02
 -2.8084486e-03
  2.8750323e-02
  3.3257395e-02
  2.8822217e-02
  3.7664197e-02
 -7.5550089e-03
 -4.0816411e-02
  5.7213180e-02
 -7.2864927e-02
 -2.2396576e-01
 -2.2010280e-02
  5.2776322e-02
  8.5700694e-03
  2.6202518e-02
 -7.4704140e-02
  1.0002095e-01
  1.0232367e-02
 -3.7658473e-03
  5.8189716e-02
  2.3348851e-02
 -8.2221180e-03
 -1.3732071e-02
 -1.1649437e-01
 -6.4231411e-02
  2.1178534e-03
 -1.5526236e-03
  5.4944679e-04
  6.3568719e-02
  6.2502809e-02
 -9.5381923e-03
  2.4290364e-02
 -4.0112630e-02
  4.6889625e-02
 -9.3975436e-04
  8.2305893e-02
 -9.5866071e-03
  3.9370209e-02
  6.5253384e-02
 -3.2384437e-02
  1.7224571e-02
  1.5181268e+00
 -1.9232701e-03
 -3.3912078e-02
  4.0902989e-03
  8.7601081e-02
  6.0349774e-02
 -2.4443696e-04
  6.7565456e-02
 -5.3649049e-02
 -7.8132635e-01
  1.7318413e-01
 -1.3369097e+00
 -2.9287245e-02
 -2.8653875e-01
 -2.2074371e-03
 -1.2412320e+00
 -1.3296251e-01
 -6.7291155e-02
  9.3792854e-03
  6.4058773e-02
  2.1932015e-01
 -1.3062511e-02
 -1.5553749e-01
  1.7448939e-01
  1.0626511e-01
 -7.2268038e-03
  2.2625083e-02
 -2.0251881e-01
  7.8009942e-04
 -3.0411633e-03
 -6.6851445e-02
 -6.0546666e-02
 -2.7497181e-01
  2.8684083e-01
  1.8574364e-02
 -4.8909612e-02
 -1.0118918e-02
 -4.1310675e-02
 -5.5183801e-03
 -1.4277840e-01
  5.5736715e-01
  1.3400836e+00
  4.3866408e-01
  2.9089245e-01
 -1.9093134e-02
 -2.2755702e+00
  1.3529606e-02
 -1.7630988e-01
 -1.5518729e-01
 -6.7342436e-01
 -3.3966478e-02
  9.1353860e-03
  2.6806805e-03
 -2.9216291e-02
 -2.3648737e-01
 -1.0375597e-01
  1.7195258e-01
  8.5292965e-01
 -7.7323550e-01
 -4.7561105e-02
  9.9247888e-02
  1.0697435e-01
  1.5929180e+00
 -6.6627175e-02
  9.2282102e-02
  3.1822573e-02
 -1.0613819e-02
 -5.2164771e-02
 -1.5979546e-01
 -8.5120276e-02
  6.6566370e-02
  3.3361286e-01
 -3.3789325e-01
 -2.8634313e-02
 -2.1552446e-01
 -2.6640363e-02
  2.8339416e-01
 -3.7166533e-01
 -1.2470648e-01
 -4.3012694e-01
 -4.5617692e-02
  2.6116002e-02
 -1.9741343e-01
 -3.2501096e-01
 -1.1143774e-01
 -2.0629649e-01
  1.0814100e-02
  4.0413520e-01
 -6.1826819e-01
 -1.2273185e-01
  6.7678720e-02
  2.1449115e-02
  1.0038479e-02
 -7.8865014e-02
  6.6547957e-03
  1.4396263e-02
  1.9306774e+00
 -4.2622596e-02
  5.3917453e-02
 -5.6105322e-01
  5.2607018e-01
 -1.9194335e-01
  1.4967025e-02
 -4.2916089e-02
 -2.8602589e-02
  6.2465928e-02
 -7.9388969e-02
 -3.3573452e-02
  2.2494163e-02
 -2.8933834e-02
  3.4869096e-01
  2.0247625e-02
  1.5215724e-02
  3.4324324e-01
  3.8137802e-01
  2.6362335e-02
 -5.9356000e-02
  1.3534515e-02
 -2.2926714e-02
  1.9437742e-03
 -2.5905007e-02
 -3.7399810e-02
 -1.2552002e-02
  1.2799388e-01
  1.0293137e-01
  1.2770916e-02
 -2.8043518e-02
  1.9261529e-01
  1.6967952e-04
 -2.1505230e-03
  1.5496363e-02
 -1.0888705e-01
  1.1418620e+00
 -1.5823647e-02
  3.9468529e-03
 -7.8058317e-02
 -1.7489254e-02
 -7.7748805e-02
  3.4072755e-03
 -1.6425708e-03
  7.4780390e-02
  4.1495197e-02
 -1.3051873e-01
 -2.4289332e-02
  1.9476442e-02
  3.2459058e-02
 -1.0238253e-01
 -6.3346433e-03
 -9.7436300e-03
 -5.3693512e-03
  4.3963205e-02
 -1.6421966e-02
 -8.0436498e-01
  9.3837571e-04
  1.8206708e-02
 -6.9296546e-02
 -3.1446647e-02
  3.2748228e-01
 -6.6955246e-02
  5.8060605e-02
  3.2087147e-02
  1.6338252e-01
  3.3778825e-01
 -2.5675911e-01
  1.3031301e-01
  1.4221452e-02
 -3.3356439e-02
  2.1558867e+00
  2.5069062e-02
  6.4444482e-02
  9.6918225e-02
 -2.0294623e-02
 -8.2510963e-02
  8.0663823e-02
  1.1628570e-01
  1.9434640e-01
 -6.0644433e-02
 -2.2959463e-01
  1.4581686e-01
  6.4502759e-03
 -2.6553640e-02
 -1.1058501e-02
  3.3646218e-02
  2.0786096e-01
  9.3761958e-02
 -2.0028887e-02
 -3.5312776e-02
 -5.0146375e-02
 -1.0735349e-01
  9.9580675e-01
  6.3287497e-02
  5.3029340e-03
 -7.8772977e-02
  2.1436262e-01
  1.6566895e-02
 -6.7208901e-02
  4.1855931e-02
  2.8902555e-01
 -1.3688678e-02
  1.4196102e-02
 -2.9890478e-02
  6.1760121e-03
  1.8548373e-02
 -4.3670297e-02
 -2.1042088e-03
 -2.1508118e-02
  5.4015979e-02
  2.7647426e-02
  2.8453274e-03
 -7.2381759e-01
 -9.8555721e-03
 -1.9757085e-02
  1.1029358e-02
 -2.9394904e-02
  1.8748419e-02
  1.0509147e-02
  6.2609036e-03
  1.1240294e-02
  1.9558879e-02
  1.7318481e-01
 -1.9350464e+00
 -1.0962777e+00
  3.7445843e-01
 -1.3906920e-01
  1.8933497e-02
  5.4425620e-02
 -4.9967024e-01
  1.7535246e-03
  1.2978930e+00
 -3.8097193e-03
  9.1065489e-02
 -1.9955318e-03
 -4.7785705e-03
  1.5004145e-02
  9.1377854e-01
 -7.0338242e-02
  4.2914976e-03
 -3.2334512e-01
  2.2254460e-03
  1.4462407e-02
  1.0281766e-04
 -4.1544743e-02
 -4.3950696e-02
  1.4787920e-01
  1.4952899e-02
  3.6181536e-02
  1.5928254e-01
  1.8110186e-02
  4.1032024e-02
  1.2039647e-01
  1.6760655e-01
 -3.5346795e-02
 -5.6655012e-02
 -4.7948390e-02
  3.1004827e-03
  1.1455239e-01
  5.0113164e-03
  4.0160675e-02
  1.1708079e-02
  4.3370441e-02
 -8.8099994e-02
  1.6562438e-02
 -6.6736646e-02
  1.1866401e-02
  7.8406837e-03
 -7.2300583e-02
 -1.4007167e-03
  3.2671918e-03
 -2.8489590e-02
  3.4940865e-02
 -4.9160235e-02
 -1.0916989e-02
  1.8502129e-04
  8.7343995e-03
 -2.6466704e-03
  3.8934865e-03
 -5.3555455e-02
 -5.3755157e-03
 -6.6319725e-04
  1.2282901e-02
  1.4992002e-01
  1.5525962e-01
  3.0604232e-02
 -1.4168786e-01
  5.9638698e-02
  6.3785575e-02
 -1.2386946e-01
 -4.0280052e-02
  1.2461943e-01
 -5.3514788e-05
 -1.8654125e-02
 -1.3597889e-01
  3.2212667e-03
  4.7423828e-02
  2.7678624e-02
  2.0759273e-02
  1.0995760e-02
 -2.4096334e-01
  4.1151337e-02
  1.9732961e-02
 -1.1651309e-02
  1.9594152e-02
 -2.7034669e-03
  8.2096092e-02
  3.5940189e-02
 -5.5115998e-02
 -3.1632021e-02
  1.4053937e-02
  1.7751440e-02
 -3.0721888e-01
 -3.2629633e-01
 -3.4551945e-01
 -8.4253959e-03
  2.0435559e-02
  2.4639275e-03
  1.4858722e-02
 -1.2378088e-02
  1.0606107e-02
 -4.3618180e-02
  1.7001034e-01
  3.3476140e-02
  5.1872052e-02
  3.4167268e-03
 -9.0648048e-02
  7.1712188e-02
 -6.0704183e-03
 -3.2334679e-01
 -1.5559633e-01
  4.7316123e-02
 -1.0844447e-02
  6.7111023e-02
 -9.3180783e-02
 -1.2753217e-03
 -2.1592125e-02
 -6.1225388e-02
 -8.5660130e-02
 -2.5538038e-02
 -2.1758605e-02
 -7.9538049e-03
 -1.3914777e-01
  1.1276735e-01
 -2.2249881e-03
  4.0446226e-02
  2.6730726e-02
  9.2404122e-03
 -1.6608339e-02
 -3.8583856e-02
 -6.8730965e-02
  4.3506045e-02
  3.5237692e-02
  9.3027074e-03
  2.5653974e-03
 -1.7787883e-02
  3.8326723e-03
  4.6282308e-03
  5.9021223e-02
 -2.9408630e-02
 -7.0807420e-02
 -9.1408286e-03
 -6.9665485e-03
  2.8690441e-02
  4.8189472e-02
 -1.9485701e-02
  7.8944981e-01
 -5.7742544e-02
  1.4153553e-02
  5.8295652e-02
  1.0066580e-02
 -5.5549696e-02
  3.3957313e-03
  2.1565987e-02
 -1.9085336e-02
  1.2151956e-01
 -8.2373179e-02
 -6.1395265e-02
  3.4931339e-02
  8.5819587e-03
 -2.3265032e-02
 -1.2728916e-01
  1.8754083e-01
  4.9372710e-02
  1.8684367e-02
 -8.3591729e-02
 -2.0852612e-02
  2.6352799e-01
  1.8425263e-02
 -6.2445384e-02
  1.7184341e-02
  1.0376164e+00
  3.8704163e-04
 -5.4869749e-02
 -5.3270287e-03
 -5.4564148e-02
  1.3446991e-02
  4.5664079e-02
  2.7048749e-01
 -5.5706862e-04
 -1.4636060e-02
  4.1002709e-02
  7.1801633e-02
  5.4026371e-01
  4.4592112e-01
  3.3415321e-01
 -2.6824069e-01
 -2.2722623e-01
  1.0266905e-01
  1.5595925e-02
 -1.5834242e-01
 -4.3975111e-02
 -2.0456992e-01
 -3.0681482e-01
  8.6751312e-01
  2.5149909e-01
 -8.3344162e-01
  7.4509174e-02
 -7.1457225e-01
  6.4215946e-01
  2.0964403e-01
  2.9165819e-03
 -4.3504709e-01
  1.3933636e-01
  8.0463815e-01
 -2.1490715e-03
 -1.5001835e-01
 -1.3320394e-01
  2.0990983e-02
  3.8448028e-02
  4.4759568e-02
 -1.2706925e-02
 -3.8778089e-02
 -1.2174737e-01
 -1.4326794e-01
 -1.0209836e-02
  1.8725769e-01
  2.0305954e-02
  2.1635318e-02
  8.2396485e-02
 -1.4023565e-02
  6.0156141e-03
  6.9685198e-02
  1.6408947e-01
 -4.1251499e-02
  3.2368351e-02
 -5.8632962e-02
 -4.8636060e-02
 -1.3182123e-02
  3.8175408e-02
 -2.3257131e-02
 -4.9197961e-02
  1.0027503e-01
  8.9500301e-02
  1.2287599e-02
  3.5257328e-03
 -2.1797488e-02
  2.4754163e-02
 -6.7537586e-04
  5.6550581e-02
 -8.7132454e-02
  5.6885101e-02
 -3.9821204e-02
 -1.2568215e+00
 -3.5364651e-03
  9.4545064e-03
 -5.5825359e-01
  3.9583530e-02
  4.0901855e-02
 -1.7370937e-02
 -2.2088520e-02
 -3.0811215e-02
  3.6120021e-01
 -4.3549918e-02
  2.2547806e-02
  8.5806698e-03
  2.8333820e-03
  3.4554567e-02
 -6.9322633e-03
 -1.5424297e-02
  2.0406276e-02
  3.2328505e-02
  2.1050004e-02
 -1.1093806e-02
 -7.4222917e-04
  6.7116758e-05
  1.0128236e-02
  7.8466184e-02
  3.4212079e-02
  5.2621398e-02
  7.1073450e-02
  3.2196119e-02
 -1.1733627e-03
  1.2645435e-03
 -2.8848629e-02
 -1.1330707e-01
  9.0023644e-02
 -2.9483604e-01
  1.2967164e-02
 -2.6849972e-02
  2.0200398e-02
  5.3039701e-03
  1.4867143e-02
 -2.9382098e-03
  5.7989365e-01
  3.6689378e-02
  3.6116533e-02
 -1.8595723e-02
 -2.5153995e-04
 -1.6288660e-01
  5.7979643e-02
 -5.6133717e-03
  2.0409338e-02
  3.8349796e-02
  3.6198378e-02
  6.3008375e-02
  2.7153872e-02
  5.6319279e-03
  1.1055646e-02
 -4.7712453e-02
 -5.6133900e-02
  5.9035748e-02
  5.2369572e-02
 -5.4309621e-02
  7.2499126e-02
  1.6001096e-02
  1.4372283e-01
 -7.1593667e-03
  1.3404245e-02
  5.5278074e-02
  3.1611276e-01
  4.1318920e-02
  6.0059940e-03
 -2.6155908e-02
  1.8479541e-02
 -6.2608592e-02
  1.2476733e-02
 -8.4094740e-03
 -9.8235393e-03
 -2.9782362e-02
  2.8797863e-02
 -6.0802121e-02
 -2.9995905e-02
 -3.4215733e-02
  1.7418370e-02
  3.2677138e-01
 -3.0929022e-02
  3.9847553e-02
  5.4449392e-03
  3.3982601e-03
 -2.9037772e-03
  4.5881574e-03
 -3.9919354e-03
 -1.2408136e-03
 -3.0445231e-02
  2.2595128e-02
 -3.8386941e-02
 -8.8831015e-02
 -8.3171189e-02
 -2.8440349e-02
  1.7824205e-02
  5.7155572e-02
 -2.1009760e-02
  9.5619848e-03
  2.5455549e-02
 -6.4875293e-03
 -5.8782947e-01
  6.0824875e-02
  4.2279117e-02
 -3.5229884e-02
 -5.7911474e-02
  1.7791850e-02
  3.1648315e-02
  2.5413202e-02
  4.6041501e-03
 -1.5859190e-02
  3.1476222e-02
 -4.3655876e-02
 -3.7516225e-02
  4.6787295e-02
 -3.5988808e-02
 -1.0725148e-01
  5.2013433e-01
 -8.9740443e-01
 -1.3570935e-01
 -3.7612125e-02
  5.0619447e-01
 -2.6816154e-02
  1.8447293e-02
  2.2826947e-01
 -1.0850542e-02
  1.7331371e-03
  2.2781810e-03
 -4.3361467e-01
  4.9915429e-02
  7.4509799e-02
  5.3730798e-03
 -1.2316743e-01
 -7.9610057e-02
  1.7876859e-01
  1.2081157e-02
 -2.7205033e-02
  3.6458489e-02
  1.0004397e-02
 -3.1220010e-02
 -1.2015283e-02
 -2.5927722e-02
  4.7701057e-02
 -4.2243185e-03
 -1.0156853e-01
  5.0811805e-02
 -2.1450926e-02
 -2.7514290e-02
  1.6275398e-01
 -8.5809439e-01
 -1.5864684e-01
 -1.8357451e+00
  3.0286035e-02
 -7.5036801e-02
 -3.5137564e-01
 -8.9030005e-02
 -3.1318795e-02
 -9.1620483e-02
 -1.0262921e+00
 -1.5994463e+00
  3.6494099e-02
  2.8679574e-02
  1.7941431e-03
 -4.0856577e-02
 -8.5224473e-01
 -4.4865650e-03
 -7.7704288e-02
  2.7416619e-02
  9.4695985e-03
 -1.2553062e-02
 -3.4341711e-01
  2.8781332e-02
  3.4100753e-03
  6.2531941e-02
 -5.8326345e-02
 -1.0572058e-01
 -5.2350312e-02
 -7.0139907e-02
  1.4715827e-01
 -1.2744955e-02
 -2.3492740e-01
  4.0466556e-01
  8.4848776e-02
 -4.2684752e-02
  4.7182822e-01
  1.2881436e-03
 -6.4721969e-03
  3.3957824e-01
 -3.1849122e-01
 -1.3810929e+00
  1.9567651e-01
  5.9243485e-02
  2.4130477e-01
 -1.1650473e+00
  2.5790423e-01
  2.1429572e-03
  2.1900150e-01
  4.6846297e-01
 -4.0086202e-02
  1.7675519e-01
 -1.0319055e+00
  2.8845239e-03
 -7.0356369e-02
  7.5186794e-03
 -1.0207941e-01
 -1.2831344e-02
 -3.3634463e-01
 -1.3550378e-01
  6.6553436e-02
  2.1510404e-02
  1.3290282e-01
 -2.3839055e-01
  3.1584376e-01
 -1.6614269e-02
  1.1196217e-02
 -8.0459066e-02
 -3.1328380e-02
  2.2148058e-02
 -7.7865742e-02
 -7.2405875e-02
 -9.8552577e-02
 -3.0464156e-02
  8.0528334e-03
 -1.1808556e-01
 -2.0005018e-03
 -2.4084228e-01
  2.6505971e-02
  2.2087656e-01
 -2.7050894e-01
  2.1973858e-03
  1.7943004e-02
  6.3279888e-04
 -1.4149682e-02
  1.5001531e-01
  1.0283842e-01
  1.2326493e-01
 -5.0082600e-01
 -8.9789048e-02
  1.2059170e+00
  1.2188652e-02
  2.5717156e-02
  5.7306122e-02
  5.5891210e-03
 -4.0797282e-02
 -1.8176192e-01
 -4.4548765e-02
 -2.3433881e-02
 -1.7569448e-01
 -1.1241868e-02
  1.5084713e-02
 -7.2521172e-02
  2.5071222e-02
  9.1540076e-02
 -2.8484059e-02
  1.5000790e-01
 -8.5513145e-02
  1.4367369e-01
  9.0311067e-03
  4.1267172e-02
  2.3196475e-03
 -3.3683005e-05
 -8.5332036e-01
 -7.3168918e-02
  6.3271977e-02
  7.7352766e-03
  4.7620993e-02
  7.4376285e-02
 -5.7104308e-02
  3.9459415e-02
  3.2835953e-02
  1.6374759e-02
  1.6268969e-02
 -5.6740317e-02
 -2.7328560e-02
  3.9588470e-02
  1.7179156e-02
 -2.3525134e-02
  1.0919848e-02
  1.3387190e-02
  5.5745941e-02
  3.0806210e-02
 -3.5513226e-02
 -8.1188969e-02
  7.8659922e-02
  4.1578028e-02
  1.2750807e-03
  1.7354457e-02
 -2.0747500e-02
 -8.8141691e-03
 -2.1370612e-02
 -3.5313314e-03
 -1.1752327e-02
 -1.3395448e-02
 -5.0576431e-01
  1.8238196e-02
 -1.0647598e-02
 -2.2035034e-02
 -4.6828680e-02
  5.3421881e-02
  5.9431553e-02
 -1.7043279e-02
 -2.6829414e-02
 -1.5637685e-02
 -1.7791215e-02
 -1.7275531e-02
  1.5473676e-02
  1.6135629e-01
 -3.3276256e-02
  4.6661776e-02
  8.0664575e-02
  7.8073083e-03
 -5.0971821e-02
  7.9262334e-01
  1.0512708e-02
  1.2275191e-01
 -5.3700197e-01
  3.3347132e-03
 -3.4002412e-02
  1.4756925e-01
  1.8745065e-02
  7.0078135e-02
 -8.6847447e-02
 -3.2835427e-01
 -1.8026249e-02
 -2.3157474e-02
  3.2456569e-02
 -1.6907996e-01
  8.0468901e-02
 -2.1623780e-03
  1.4438487e-02
 -1.0388120e-02
  1.4775777e-03
  1.6747144e-01
 -2.3833723e-03
  8.6007845e-03
  2.8239708e-02
  5.5347972e-02
  2.5851909e-02
  3.6197808e-02
  6.1392519e-03
 -5.5119317e-02
  1.2386730e-02
  6.3596450e-02
 -1.8132947e-03
  3.5879631e-02
  6.3629612e-02
  7.4319363e-02
  1.6021995e-02
  3.8944874e-03
 -2.1470258e-02
 -2.4310790e-02
  7.9349734e-02
 -2.0326397e-03
  3.6380619e-02
  4.0712312e-02
  3.6989268e-02
  5.1857460e-02
  9.8748744e-02
 -1.9728027e-01
  1.1115440e-01
  7.1337804e-02
 -1.7523105e-01
  1.2705661e-01
  3.1580739e-02
 -2.0093394e-02
 -3.3246331e-02
  2.9494422e-02
 -8.3667971e-02
  6.1698565e-03
 -2.5664560e-02
 -1.5650202e-01
 -5.8943298e-02
 -5.1046994e-02
 -5.7790065e-03
 -1.1570233e-01
  5.2541912e-01
 -4.5762397e-02
  7.0354939e-02
 -1.0145979e-01
  1.0549530e+00
 -3.0901223e-02
  3.2735750e-02
 -9.0862835e-05
 -8.4796232e-01
  2.6313515e-02
 -1.3862204e-02
  2.8498806e-02
 -9.7535551e-01
  3.8125637e-01
  7.0282584e-01
  2.6658010e-01
 -1.2726873e+00
  1.0475359e-01
  4.0235166e-02
  1.9580662e-01
 -4.9188903e-01
 -1.3998486e-02
 -1.0932293e+00
 -5.6353718e-01
  8.8064611e-01
 -7.1690172e-01
 -1.2017610e-01
  3.1116990e-02
 -9.2821503e-01
  3.0246720e-01
 -3.0524382e-01
 -1.4815181e-02
 -4.6927076e-02
 -1.8369144e+00
  1.5812565e-01
 -1.6390802e-01
 -1.8627179e-01
 -1.0885896e-01
 -3.7403040e-02
  8.5852087e-02
  7.2882697e-03
 -4.5421787e-02
  6.6805673e-01
 -2.3669407e+00
  6.2761277e-02
 -1.1538979e+00
  4.7554368e-01
 -6.8460099e-02
  7.5295739e-02
 -1.2273323e-02
 -3.0639225e-03
  2.1252409e-02
  4.7748843e-01
  1.4395794e-01
 -1.4092406e+00
 -2.3110652e-01
  3.7948242e-01
  6.1143454e-02
  8.9361526e-02
 -9.6115041e-01
 -1.9068466e-01
  1.0678111e-01
  4.0979680e-02
 -1.1310151e-01
  3.7338084e-03
 -7.7131249e-02
  7.8966394e-02
 -2.7296718e-02
 -2.5937455e-02
 -5.7043224e-03
 -2.1239439e-01
  2.7804270e-03
 -9.0724900e-02
 -4.4345352e-01
  3.6658692e-01
 -1.8403733e+00
 -5.2831750e-02
 -2.8326022e-03
  1.2495726e-01
 -4.4242600e-01
 -3.4198248e-01
  8.8943714e-01
  8.1146553e-02
  1.0455436e-01
 -3.8030091e-01
 -1.8524872e-01
  2.9756960e-01
  1.0919105e+00
  2.0127624e-01
 -2.6138783e-01
 -3.4370559e-01
  1.8438794e-01
  8.2399219e-02
  4.7938502e-03
 -4.2478132e-01
 -3.6585879e-01
  1.9382963e-02
  1.8075187e-02
  1.3108850e-02
  5.1411059e-02
 -1.6794734e-02
 -4.7537882e-02
  1.5792914e-01
 -1.7662540e-01
  7.2205566e-02
 -5.1721897e-02
 -6.2722191e-02
  8.0199137e-02
 -3.4103371e-02
 -1.7048256e-01
 -7.7421106e-02
  3.7222955e-02
 -1.3032541e-01
  4.1085601e-02
 -8.3221747e-03
 -1.6625255e-01
 -3.1683883e-03
 -2.3199307e-02
 -2.7231477e-02
 -8.3205201e-02
 -1.2313759e-02
  4.8984729e-02
 -1.7451121e-01
 -2.2538193e-02
  3.0471023e-02
  2.0244947e-02
 -2.9070670e-04
 -5.9189510e-02
 -1.4524102e-01
  8.6200535e-02
  1.0716374e-01
  3.8555652e-02
  1.2411316e-02
  1.5908252e-02
  3.2713573e-02
 -3.3363950e-02
  2.2344243e-02
  1.9394670e-01
 -2.6366813e-02
 -2.8080372e-02
  3.1216359e-02
 -6.3856221e-03
 -5.1275298e-02
 -6.8474053e-03
 -5.6192409e-02
 -1.0544299e-01
  6.3222915e-02
 -5.6409966e-02
  6.4927377e-02
 -2.6229244e-02
 -2.6080239e-01
  7.5430330e-03
  8.6275861e-03
  1.3377953e-02
 -4.4677784e-03
 -5.9960123e-02
  3.8785536e-02
 -4.4155143e-02
 -9.0590656e-02
 -1.3664376e-02
  3.3016557e-05
  2.2385028e-01
 -5.2974857e-02
 -2.5143367e-01
 -3.9869405e-02
 -6.8664789e-02
  4.6170283e-02
  4.9195886e-02
 -1.3414027e-01
  3.0564142e-02
 -1.7917050e-02
 -6.6145314e-03
 -1.0058431e-01
  1.0595960e-01
  8.0742344e-02
  7.5443025e-04
 -1.2429489e-04
 -2.3185190e-02
 -4.8805881e-02
  4.7711480e-02
 -3.7487581e-02
 -1.3383664e-01
 -8.6295106e-02
  2.5513014e-02
 -1.1269959e-01
  3.4330007e-02
 -3.6834184e-02
 -2.5682917e-02
  1.4071018e-02
  8.0595285e-02
  3.7831284e-02
 -4.6941843e-02
 -6.0422286e-02
 -4.2482600e-02
  4.0367439e-02
 -2.6715958e-02
 -2.8912290e-03
  1.3734691e-02
 -1.0957736e-01
  4.8324928e-02
 -5.6008494e-01
  8.6914618e-03
 -8.0269333e-03
 -6.2825866e-02
  7.5469792e-02
  4.2665087e-02
 -1.2777055e-02
  2.6436264e-02
 -7.9516657e-03
  2.7447766e-02
 -3.2620426e-02
  8.9462079e-02
  1.6732694e-03
  1.4074290e-02
 -1.8641856e-01
 -3.4134336e-02
  8.4743746e-02
  1.9457685e-02
 -3.7924267e-02
  3.0420888e-02
 -4.1389234e-02
  1.5076543e-02
  2.3827656e-01
  3.4738724e+00
 -2.0842533e-01
  1.0104401e+00
  1.6493633e+00
  6.3360654e-02
 -9.5790356e-02
  1.1891901e-01
 -4.0937338e-02
 -9.3665846e-02
 -3.6918551e-02
 -2.8784031e-01
  1.1896629e-01
  2.7214620e-01
 -5.6604937e-02
 -8.4476419e-02
 -2.2475556e-02
  1.7855048e-01
  1.6209990e-02
  2.6832515e-02
  1.2956585e-01
  2.9906830e-01
  5.6400310e-02
 -8.3393101e-03
  2.2854986e-02
 -6.0966864e-02
 -7.5619377e-02
  1.4175538e-02
  3.9071955e-02
 -3.9329045e-02
  9.9595718e-02
 -2.8304068e-02
 -7.2811842e-01
  4.1986359e-03
  2.2805603e-02
 -1.1793062e-01
 -1.1501100e-02
 -8.5564323e-02
 -8.4428333e-02
  2.0672989e+00
 -1.3955005e-02
 -1.0623559e-02
  1.3009834e-01
  2.2574037e-02
  5.6605965e-01
  1.0970788e-01
  4.5330811e-02
 -1.3623701e-01
 -6.0377624e-03
  4.8316397e-02
  1.9060109e-02
 -3.4709059e-02
  1.1726634e-02
  4.6869399e-04
  1.9247798e-02
  5.7331342e-02
  6.9802105e-02
  1.5749278e-02
 -1.0736724e-02
  8.8214315e-03
  3.9917231e-02
 -4.3844368e-02
  1.5598452e-01
  6.7671351e-02
 -3.2582249e-02
  1.2730770e-01
 -8.6406926e-03
 -4.7955319e-02
 -9.6847326e-02
 -3.6989387e-02
  2.7779611e-02
 -5.4105826e-02
 -4.0825766e-02
 -1.9323518e-03
  1.5508485e+00
  7.8713238e-01
 -2.1065414e-02
  3.0574173e-02
 -6.7921288e-02
 -5.5351160e-02
 -3.3142973e-02
  4.8158355e-02
 -1.4427879e-02
  1.7249940e-03
 -1.6507400e-02
  4.5102347e-02
  2.0047550e+00
  2.1810079e-02
 -4.3208942e-02
  1.0571176e-01
  5.9405241e-02
  1.2637237e-01
  1.5115838e-01
 -3.6343187e-02
 -3.7612349e-02
  1.4393376e-01
  1.2610568e-01
  1.7974475e-02
 -9.2286356e-03
 -9.6330894e-03
 -4.9940519e-02
  4.4435263e-02
 -7.1064020e-03
 -1.0457560e-01
  1.6719170e-02
 -2.1302876e-04
  1.3650439e-02
  2.1477003e-02
  2.3655241e-02
 -8.7426547e-03
 -4.8705763e-03
 -9.2036881e-02
  3.2655010e-01
 -3.6473162e-02
  1.7984847e-02
 -2.3368118e-02
  4.4956066e-02
 -6.6985831e-02
  1.7420785e-01
 -1.0883702e-01
 -1.6082245e-01
  8.0061816e-02
 -4.1110539e-01
  1.0914122e-01
 -3.1009987e-02
  1.8568488e-02
 -2.3311291e-02
  2.6717143e-02
  8.0032490e-02
 -2.4961533e-02
  1.0748992e-02
  4.1709315e-02
  6.5559953e-02
  2.5901668e-02
  1.0442075e-02
 -1.2810825e-02
 -3.9023163e-03
 -3.3292700e-02
  1.1789863e-01
 -8.6639121e-02
 -3.3689164e-02
  1.0771112e-01
  1.7889809e-02
  3.4238470e-01
 -7.0850961e-02
 -8.2180714e-03
  2.4730808e-03
 -3.7370659e-02
  1.0494303e+00
 -6.1466922e-03
  4.1434891e-03
 -2.4087155e-02
 -1.2543350e-01
 -3.8456671e-02
  2.2983251e-02
 -7.5118258e-03
  1.1310383e-02
 -9.5745429e-02
  5.1905292e-01
 -1.4178966e-01
 -1.1420026e-02
  9.0535171e-02
 -2.0934695e-02
 -2.0803137e-02
 -2.4164405e-02
 -4.9260920e-03
 -5.5463146e-02
 -2.4365537e-02
  3.7282303e-02
  5.1269889e-02
  4.7288872e-03
  1.6473860e-02
 -2.3500794e-03
 -5.6110770e-03
 -2.6348608e-02
  7.3338202e-03
  5.6182530e-02
 -1.9534817e-02
  1.5748113e-01
 -3.1611994e-02
 -1.5088893e+00
  5.8259028e-01
 -1.7383534e-01
  4.5316564e-03
 -1.3451165e+00
  6.5794855e-01
 -3.5573640e-01
  3.3537660e-02
 -3.6566806e-01
 -1.8690569e+00
 -3.4404910e-01
 -7.9870576e-01
  5.9913814e-01
 -2.0049399e-02
 -2.8575283e-01
 -2.9821426e-01
 -5.9301037e-01
  1.2860315e-01
 -2.8870650e-02
 -1.0079066e+00
 -1.9104671e-02
  1.1446146e-02
 -3.4395859e-01
  1.3565834e-03
 -1.5261960e-02
 -2.0517582e-02
  4.1368328e-02
  1.7671457e-02
 -2.3300990e-02
  3.3775359e-02
 -6.7029290e-02
 -2.0692150e-01
  9.4386822e-01
  1.2130029e+00
  1.8065519e+00
 -1.0052720e-02
 -3.8896090e-01
  1.9472843e-02
  1.8353064e-01
  1.1113192e-01
 -1.2608225e-02
  7.5724676e-02
 -8.9486903e-03
  4.0599953e-02
 -1.4135946e-02
  2.6431751e-01
  9.9365655e-03
 -1.3967741e-02
  7.9250830e-01
 -1.5777180e-01
 -5.7251620e-01
  2.3030820e-01
 -4.6985284e-03
  6.9315642e-02
 -6.3127704e-02
 -2.6890012e-03
 -2.0778501e-01
 -8.4794946e-02
 -7.3674130e-03
  5.7196366e-03
  7.3855206e-02
 -1.2499416e-02
  7.7380394e-03
 -1.7128674e-02
  1.6519012e-02
 -3.1068221e-02
 -1.9048069e-02
 -4.7325864e-02
  2.6696058e-02
  6.3492835e-02
  2.2614354e-02
 -1.4148881e-02
  4.4811531e-03
  1.1914792e-02
 -1.4778806e-03
 -5.4147139e-02
  6.9471419e-01
 -1.1687996e-01
  7.4809571e-03
  5.9020594e-02
  7.7286489e-02
 -1.1629257e-01
  7.7037290e-03
 -6.9643617e-02
  5.8951005e-02
  4.2935520e-02
 -1.9664844e-02
 -1.7770128e-02
 -4.7252122e-02
 -1.3859984e-02
  1.0584210e-02
  2.4041058e-02
 -2.0914188e-02
  4.4665158e-01
  4.2897564e-01
  1.3941748e-03
 -4.6281302e-03
  5.9313676e-03
 -1.3845208e-03
  2.7306804e-02
 -6.4556079e-04
 -1.7488390e-02
 -1.5807152e-02
 -2.3382436e-01
 -2.4997020e-02
  4.7711227e-02
  7.1839325e-04
  1.0059094e-01
  1.4709748e-01
  3.2697655e-02
  9.3036734e-02
 -1.6687538e-03
 -2.9785521e-02
 -4.3004636e-02
 -4.1686621e-02
 -2.6161660e-02
 -6.2440798e-02
 -3.6567423e-02
 -1.1334688e-02
  5.3144617e-05
  7.2203554e-02
 -5.6607211e-01
  8.0804430e-02
 -5.8166735e-02
 -3.8862400e-02
  1.2687427e-01
  6.5009481e-01
 -4.8962324e-03
 -1.4691183e-02
 -3.2813994e-03
 -1.6600573e-03
 -1.0943102e-01
  4.5679368e-02
 -4.4904384e-01
  2.7433800e-02
 -1.5532033e-02
 -3.5237152e-02
  9.7956568e-02
 -3.0625159e-01
  3.5052481e-01
  2.4231248e-02
 -2.8765582e-02
 -5.5933721e-02
 -1.2974598e-01
  6.9091968e-02
 -2.7863927e-02
  1.4339338e-01
  4.3158274e-02
 -5.2424263e-02
 -4.6208475e-02
  9.2706603e-01
 -2.2386867e-01
 -2.3471029e-01
  1.5165709e+00
  8.6452886e-02
 -2.3627410e-02
 -8.9518294e-02
 -3.7033327e-02
  4.2333546e-01
  1.0099926e-02
  6.4159459e-03
  6.7682005e-02
  3.7581570e-02
  4.5899633e-01
 -4.2995300e-02
  5.1818930e-02
  5.8295322e-04
 -2.9458191e-02
  2.4785812e-01
 -1.5424152e-02
 -1.5548209e-02
 -1.5031394e-01
  2.2508754e-01
  4.3253306e-02
 -4.9682176e-01
  1.1474202e-01
 -5.7715751e-02
  1.9632094e-02
 -1.0891953e-02
  2.1681245e-02
 -1.5196738e-01
  3.4179154e-01
 -4.3676102e-01
  2.3866784e-02
  2.5149569e-01
 -1.6382103e-01
 -1.8947287e-01
  2.0214272e-01
  1.3242789e-01
 -1.3267660e+00
  1.0375224e-01
  1.6322374e-02
  6.1369576e-02
  2.5652656e-01
 -2.0649502e-02
 -8.2469344e-02
  4.1754447e-02
 -2.4519561e-02
  2.7222136e-01
 -2.3937874e-02
 -4.3054584e-02
 -4.7402095e-02
  9.5673673e-02
  1.4572415e-01
  3.6038470e-02
  5.7475414e-02
  1.1781473e+00
 -3.1085428e-02
 -6.0811430e-02
  9.0781106e-03
  4.6657681e-02
 -2.3593662e-02
 -3.7959654e-02
  5.2891732e-03
 -2.8705519e-02
  1.2647177e-02
  1.4891220e-02
  3.2737009e-02
 -6.3054211e-02
  1.3599728e-01
  1.9771634e-02
 -3.0313523e-02
  4.8657026e-02
 -8.4186479e-02
 -2.5047818e-01
  4.1460939e-02
  4.1397855e-02
  4.4672973e-02
  2.1600895e-01
 -2.4183761e-02
 -7.1426686e-03
  2.5481195e-03
  8.0190795e-03
 -4.1582685e-02
  5.7252171e-03
  9.0011895e-02
  2.8887697e-02
  1.9919759e-02
 -1.2481543e-01
  9.9122785e-02
  9.0075977e-02
  6.9860071e-03
  3.3833700e-01
 -4.7831707e-02
 -2.2040451e-02
 -6.4152136e-02
  1.1829683e-02
  2.7640471e-03
  8.8830724e-02
  1.2195432e-03
  1.0640118e-02
  4.7762752e-02
  3.2531174e-03
 -5.5666074e-02
  1.0440215e-01
 -6.0382098e-02
  4.0885374e-02
 -2.8331757e-02
  1.8434439e-02
  1.1112045e-01
 -1.9555578e-01
 -1.9231483e-02
  7.5627454e-02
  1.2795971e-02
 -4.3999963e-02
  6.6789496e-03
  2.3378009e-02
 -4.2344961e-01
 -1.0166944e-01
  2.3718534e-02
  3.5720464e-02
  7.3715933e-02
  2.7418372e-01
 -1.9277127e-01
 -2.6996243e-01
  1.0577970e-01
 -9.6633220e-03
  9.8332055e-02
  3.0735461e-02
 -8.4602199e-02
  2.1000048e-02
  3.1097117e-03
 -1.9336809e+00
 -1.3479075e-01
  3.5879279e-03
 -1.8886941e-02
 -2.5987839e-02
 -2.7018234e-02
 -3.6018389e-01
  7.4887276e-02
  1.0269497e-01
  1.8995812e-02
 -2.5779140e-01
  9.9519596e-02
  5.6495056e-02
 -2.0843340e-02
  7.9325721e-02
  6.0018074e-02
 -5.0075906e-03
  4.4094589e-02
  7.1214200e-03
 -1.7314160e-02
 -2.1969026e-01
 -5.9797470e-02
 -1.5292752e-03
 -2.1379929e-02
  3.1481821e-02
  1.0304109e-02
  3.5870671e-02
  1.9661479e-03
  8.5968971e-03
  1.9835334e-02
  2.5703508e-01
 -4.3327410e-02
  8.3724484e-03
  6.5630898e-03
 -6.3468687e-02
  5.9267964e-02
 -2.7061859e-02
 -1.0023579e-02
 -5.0263699e-02
  3.7379351e-02
 -6.0267150e-02
  3.5835382e-02
 -5.7977104e-01
  7.9089608e-03
  3.7258178e-02
  4.5718338e-02
  6.9542207e-02
 -6.7300573e-03
 -6.7412561e-01
 -3.0689148e-02
 -2.7615272e-02
 -7.1922701e-04
  5.2191090e-02
 -9.4738059e-02
 -4.6169120e-01
  7.0289865e-02
  2.5864348e-02
 -2.9778391e-02
 -9.4608957e-01
  1.4133630e-02
 -2.4955006e-02
 -9.5773584e-01
 -6.7882973e-01
 -3.5435557e-02
 -6.0784277e-02
 -2.7421771e-02
  7.1371205e-02
 -1.7657921e+00
  2.8563730e-02
 -8.7225456e-03
 -2.2440767e-01
  6.2802285e-01
  5.7649946e-01
 -1.0750659e-01
 -8.4020339e-02
 -8.8232094e-01
  4.8937853e-03
  7.3628360e-01
 -6.3362610e-01
  1.0074739e-01
 -1.8289037e-03
 -4.1540074e-03
 -7.0680198e-03
 -4.9419755e-01
 -1.3553108e+00
 -1.1571635e+00
 -1.9157325e+00
 -2.8721085e-01
  7.7475801e-02
 -1.2375621e-01
 -1.5117328e-01
  6.9929916e-01
 -1.0846452e-02
 -3.7859157e-02
 -4.3791461e-01
  6.9745433e-01
  2.3855306e-01
 -1.1431481e+00
  7.8662336e-01
 -1.0588860e-01
  2.3610336e-01
 -7.2537279e-01
  1.4015822e+00
  9.4268894e-01
  4.3740064e-02
 -8.1502452e-02
 -3.2384562e-01
  1.9218575e-02
  5.5977631e-01
 -1.1572810e+00
 -1.0956970e+00
  7.0067900e-03
  1.4735969e+00
 -3.4231246e-03
  3.1832319e-02
  5.4078344e-02
  5.5854507e-02
 -3.5105062e-01
  2.0311447e-02
 -6.1115395e-02
  1.8418698e+00
  3.2994163e-03
 -2.7713187e-02
  3.5204935e-01
  6.5200320e-03
 -3.7778925e-02
  3.3596674e-01
  4.4519520e-01
  3.0134737e-02
 -1.9178274e-03
  1.5250570e-04
  1.6291544e-02
  1.2383567e+00
  1.0163882e-01
  1.0298490e-01
  1.1156582e-02
  5.4070656e-03
  7.9661101e-02
  1.2545885e+00
 -1.7112496e-01
  1.8289572e-02
 -4.1054648e-01
 -1.4329696e-02
 -1.3212043e-01
 -4.4053388e-01
  6.6243201e-01
 -1.7414404e-01
 -4.4965982e-01
 -3.4229852e-02
  2.1008439e-01
 -9.0117675e-01
 -6.3112862e-02
 -2.2694007e-02
 -6.0591596e-01
 -9.1270602e-01
  2.0109656e-01
 -8.8282716e-01
  8.1977713e-01
  5.4330468e-01
  3.7394732e-02
  5.9600753e-01
 -3.0883235e-01
 -5.5964118e-01
  2.3138796e-01
 -1.6308790e-02
 -1.7490411e-02
  7.2652422e-02
  1.4895624e-02
  8.7966733e-03
  1.8021038e-01
 -8.0712092e-01
 -1.6231960e-01
  1.1018869e-02
  3.4353457e-02
 -5.1373136e-01
 -4.2244127e-01
  8.6519301e-02
  2.5042102e-02
  8.1824539e-03
 -1.6352002e-01
 -4.0629458e-02
  5.6292601e-02
 -4.6883792e-02
  2.9963713e-02
 -1.0612199e-02
 -4.7432434e-02
  8.2313530e-02
 -7.2277761e-01
  4.7699079e-02
 -2.3715505e-02
 -3.7978165e-02
  2.8588784e-01
 -3.3649176e-01
  1.2240636e-02
 -9.5266737e-03
  4.4649625e-03
 -3.0361554e-02
 -9.6913487e-02
  3.7373760e-01
 -1.3255925e+00
 -9.2072204e-02
  4.8646277e-01
 -1.3020355e-01
 -1.7224307e-01
  5.5438519e-01
  2.6540488e-01
 -2.8968629e-01
 -1.9340323e-02
 -4.7095440e-02
  4.0971845e-01
  2.5776604e-01
 -1.2226633e+00
 -6.3251317e-01
 -4.8140445e-01
  3.4036012e-03
  2.7836564e-01
 -3.9082631e-01
  4.5314401e-01
 -6.5184683e-02
 -5.3472016e-03
 -4.2707540e-02
 -1.4359752e+00
  1.1568025e+00
 -6.7675691e-03
  7.9996642e-03
  4.2648215e-02
  4.9951658e-02
 -1.3002846e-01
  8.5648663e-02
 -1.0690334e+00
 -1.9444072e-01
  7.2515406e-02
 -7.3015827e-01
 -2.5013540e-02
  2.3091113e-02
  4.2214295e-01
 -7.2331303e-01
  2.2783110e-01
  1.1374214e-01
 -2.9304111e-03
 -1.0452887e-02
 -1.3179433e-01
 -1.4398599e-01
  2.4751565e-01
 -1.1215219e-01
 -4.0987277e-01
 -4.0070853e-01
 -5.4845409e-03
 -2.3058264e-02
 -6.9563821e-02
 -5.1548099e-03
 -3.1405097e-01
  8.4262237e-02
  1.1380114e-02
  2.0965390e-02
  4.4964436e-02
 -1.4867922e-02
  3.0157320e-02
 -1.0167664e+00
 -7.8439683e-01
  4.8250023e-01
 -1.0388228e+00
 -2.0058141e+00
 -1.0014398e-01
  4.5629323e-01
 -3.2281643e-01
 -1.0435512e+00
  1.7969252e-01
 -6.0950380e-02
  3.9510939e-02
  8.3557509e-02
  3.8714656e-03
 -4.6889487e-01
 -5.9661150e-01
 -2.1508402e-01
 -3.2528874e-02
 -7.7114516e-01
  4.1592607e-01
 -2.0841961e-01
 -2.0339835e-02
 -2.5210050e-01
 -7.3952436e-01
 -1.5225908e-02
  5.4054778e-02
 -8.5974365e-02
  2.2173790e-02
 -1.1731031e-02
 -6.3631043e-02
  2.0700532e-01
  1.1349308e+00
  2.0111285e-01
  6.5965816e-02
  6.1300330e-02
 -3.8680885e-02
  4.1185327e-02
  4.8681967e-02
  1.9191818e-03
 -1.5638341e+00
  1.0502504e-01
  4.8249491e-02
 -1.6502716e-02
 -1.5557142e-02
 -3.8205087e-02
  8.9495105e-04
  1.9593759e-02
 -2.2116246e-02
 -1.2447677e-01
 -1.2043074e-01
  1.9877978e-02
 -4.8008218e-02
 -5.2851144e-02
  5.1034860e-02
 -1.9089891e-01
  6.9830969e-02
 -1.0974267e-01
 -3.6981970e-02
  1.1846457e-02
  6.0832992e-02
  4.1443888e-02
 -4.1297771e-02
  7.2571659e-01
  7.2256714e-02
  4.5428190e-02
  9.2850849e-03
 -9.8127788e-03
 -6.7836881e-01
 -6.7637995e-02
 -6.2366109e-03
  1.7732182e-01
  1.5005039e-02
 -2.7221406e-04
  2.5745755e-02
  9.7403869e-02
 -4.2519514e-02
  2.9485859e-02
  1.7410645e-03
 -5.9143297e-02
 -1.0967170e-02
  2.5320130e-03
 -1.7189853e-02
 -9.4369322e-02
 -3.2363206e-02
  3.3251453e-02
 -5.9606694e-02
  4.5057881e-01
  9.8312311e-02
 -8.3664671e-02
 -7.4552611e-02
  4.8032591e-01
 -5.2572405e-01
  1.0210558e+00
 -1.1712197e+00
 -6.3384700e-01
 -2.6357666e-02
  5.4776926e-02
  4.3959033e-02
 -3.6335170e-02
  3.5352382e-01
 -4.2901270e-02
  5.8299411e-02
 -7.6746345e-01
 -7.4000221e-01
 -3.0112494e-02
 -5.7556879e-02
  1.4177407e-01
 -1.4966255e-01
 -5.2631158e-01
 -1.5639378e-03
 -4.6157360e-02
 -6.7170486e-02
  2.5556069e-02
  1.4755465e-02
 -6.3013107e-02
 -4.6910293e-02
  3.5112336e-02
 -6.2019579e-02
  7.0538305e-02
  3.8954448e-02
 -8.8835633e-01
  1.0863035e+00
  9.4676161e-01
 -5.5180192e-01
  7.2359163e-01
  8.0752216e-02
 -3.6741994e-02
 -6.0672469e-02
  3.5601161e-02
 -6.6070971e-03
 -1.7676078e-01
 -6.2852770e-02
 -2.0688916e-02
  8.3756232e-01
  8.2022689e-02
 -5.5846363e-02
  2.5008732e-02
 -2.1210003e+00
  4.2172908e-03
 -5.8073795e-01
 -1.3286716e-01
  1.8822359e-02
 -1.2825656e-01
 -2.5020048e-01
 -5.9547126e-01
  3.4571189e-02
  5.7388016e-04
 -6.2648810e-02
 -2.0646021e-02
 -7.1860544e-02
 -2.4670015e-01
  4.0152493e-01
 -5.4349579e-02
  5.2288737e-02
  1.0464785e+00
  5.8368564e-02
 -7.5997554e-02
  1.4996684e-02
 -2.2287220e-01
  1.9045319e-02
  1.0602830e-03
 -6.7988986e-01
  3.0421576e-01
  7.5504072e-02
  1.0088470e-01
  5.3167090e-02
 -4.1186247e-02
  1.2086206e-01
  3.2924286e-01
  2.1745841e-01
  2.1907678e-03
  4.9741901e-02
  1.2350933e-01
  2.2176519e-01
  9.4595379e-01
  7.3250616e-03
  4.1483074e-02
 -1.4262185e-01
 -4.8221223e-02
 -7.0543721e-02
  7.8860503e-01
  4.9303528e-02
 -8.0420756e-01
 -8.8629091e-01
  1.2960210e-02
  9.6036710e-02
  1.9863332e-02
 -2.1425496e-01
 -2.3974128e-02
  2.7004634e-03
 -1.8327909e-03
 -2.7627287e-02
  8.8240348e-02
 -1.5185844e+00
  3.2592107e-02
  3.2746352e-02
  1.3654182e-02
  6.5383866e-02
  9.8518409e-02
  3.5465375e-02
 -8.3361365e-02
 -1.2841421e-02
 -1.4640513e-02
 -6.5181861e-03
 -8.7303348e-02
 -1.0827400e-01
 -9.5741361e-02
 -4.6198227e-02
 -7.9739660e-02
 -9.6640721e-02
  5.4802775e-02
 -2.3575660e-02
 -1.0738154e-01
 -6.1637636e-02
  6.1276503e-02
 -2.2938330e-02
  1.3033195e-01
  2.9991580e-02
  2.2587406e-03
  1.3388661e-02
 -6.9330364e-02
  4.7686405e-02
  5.7819835e-03
  1.0268922e-02
 -3.4846395e-02
 -1.0522722e-02
  1.2781607e-02
  5.9761848e-02
  9.9021131e-03
 -2.6606706e-03
  1.8366940e-02
  1.7799055e-02
 -2.0560089e-02
 -7.5003295e-03
  8.3889998e-03
  1.2896324e-02
  5.7801049e-02
  7.5272322e-02
 -1.7391974e-02
  8.4597999e-03
  3.4012383e-01
 -3.4620088e-02
  7.4568218e-01
  1.2051546e-01
  3.3498642e-01
 -5.6235496e-02
  7.3243298e-02
  1.3490821e-01
  1.2055114e-02
  6.8542756e-02
  4.4845600e-02
  6.1805144e-02
  5.3654898e-02
  1.3047095e-02
  3.0446278e-02
 -9.5790084e-03
  5.7663962e-02
 -1.5048826e-01
 -4.6320792e-02
  1.6493948e-01
 -1.3231072e-01
  4.1173543e-03
 -5.5731624e-02
 -6.0562603e-02
  2.3355478e-02
  1.6418667e-01
 -4.4423021e-02
 -6.9119610e-02
 -7.3394202e-02
 -2.0263456e-02
  7.1094103e-02
 -2.2610151e-03
 -7.8706918e-03
 -3.9972074e-02
 -4.4935293e-04
 -1.1126533e-02
  4.2085717e-03
 -4.5410007e-02
  5.1737096e-02
  8.4435884e-03
 -6.4248048e-02
 -6.8347938e-02
 -6.0576431e-02
 -4.8742320e-02
 -4.1001826e-03
  5.6269940e-02
 -5.3584058e-02
  2.8927058e-01
  3.8312878e-02
  1.0941406e-02
  3.0250795e-02
 -1.0606471e-01
 -4.6327777e-02
  1.4530332e-01
 -3.9226413e-02
 -4.5747280e-02
 -9.5037144e-04
 -5.9935967e-03
  1.7160455e-02
  1.9888518e-02
 -4.8654276e-01
 -6.3144475e-02
 -1.5617690e-02
  1.0650962e-02
  7.7531718e-02
  2.6886481e-01
 -6.3810921e-03
 -1.1719866e-01
  3.6730960e-02
 -1.6851844e-01
  1.3095142e-01
 -1.9155875e-02
  1.1807928e-01
  4.0472932e-02
  2.8598811e-03
  1.2735257e-01
  6.0177930e-02
  4.0738311e-02
  2.9188806e-01
  7.8175366e-02
  8.3673254e-02
 -1.9385427e-04
 -1.7866049e-02
  3.6149107e-02
 -4.4986486e-02
  6.4767422e-03
  7.1983591e-02
 -1.0992736e-01
 -2.6342807e-02
  6.9968770e-03
  2.7519403e-02
  8.3767483e-03
  2.3767375e-03
 -9.3997456e-03
 -6.9476880e-02
  8.3822839e-02
 -9.4197649e-01
  2.1900824e-01
  4.5686260e-02
 -2.6295729e-02
  8.4822319e-02
 -2.0556042e-02
  5.8580214e-01
  7.7953383e-02
  8.8353328e-02
 -3.8455430e-02
 -1.8156353e-02
 -6.1117396e-02
 -5.7435513e-02
  1.6076511e-02
 -2.6043615e-01
 -4.1919652e-02
  2.5663892e-02
  5.0608744e-03
 -4.9786633e-01
  4.7793887e-03
  8.1776883e-03
 -2.1244744e-02
 -1.6258819e-01
  2.4108677e-03
 -5.0850324e-02
  3.2460099e-01
 -1.8068245e-01
  6.5547749e-02
  4.2427294e-02
  6.0459524e-03
 -2.4677613e-01
  3.0090399e-03
  1.4861271e-03
  3.9221150e-01
  7.3640354e-02
 -3.7088327e-02
 -1.0218590e-02
  6.8599419e-03
  2.5426336e-02
  2.0545468e-02
 -3.9496555e-04
 -4.6923663e-03
 -2.5221547e-02
  8.2370909e-03
  1.4471878e-02
 -2.2892229e-02
 -6.5538831e-02
  2.6981473e-01
 -1.1142404e-02
  1.0929488e-03
  1.4207160e-02
 -1.1628496e-01
  4.3606441e-02
 -8.8367239e-02
  3.6376759e-02
 -1.4140384e-02
 -3.3812138e-01
  4.4049025e-02
 -1.3300087e-01
 -4.1737184e-02
 -6.4373147e-03
 -3.6939045e-03
 -3.4173787e-02
 -1.0837578e-01
  6.3346154e-03
  2.9532807e-02
  1.4524953e-02
 -5.0920185e-02
 -5.0295410e-03
 -1.3251765e-01
 -5.0506916e-02
 -7.0456289e-02
 -1.0307197e-01
 -1.6383113e-03
  2.1026634e-02
  6.0240794e-03
 -2.4619209e-02
 -1.6926381e-01
 -1.5186034e-01
  5.3796981e-02
  5.8820886e-03
  1.0382763e-02
 -1.6160032e-02
  3.1101635e-02
 -3.2846440e-02
 -7.7053882e-02
 -1.7306648e-02
  3.9386950e-02
  2.1204064e-02
  3.7505958e-02
  9.1892101e-02
 -2.5162293e-02
  1.4392366e+00
 -4.2096388e-02
 -1.5769241e-02
 -5.4387323e-04
  1.4156527e-02
 -3.2864977e-02
 -2.8866444e-02
 -4.3142114e-02
  7.1439952e-02
  9.8959748e-03
 -1.8438572e-03
 -3.0393558e-02
  7.6731313e-03
  5.0519202e-02
  6.0566951e-02
  2.0989040e-03
  1.9912718e-02
  2.1815939e-02
  3.2078173e-02
  2.2751408e-02
  9.3045443e-02
 -2.7497164e-03
 -7.4478902e-02
  5.0713450e-01
 -6.9817913e-01
  1.2088100e-01
  2.3177704e-02
 -7.8262679e-02
 -2.6436554e-02
  8.1386350e-02
 -1.0881011e-02
  9.8514348e-02
 -1.2638064e-02
 -7.7312268e-02
 -1.7381202e-02
  1.7374847e-02
 -4.5529385e-03
  3.5784539e-02
 -1.0096282e-02
 -6.3386567e-02
  5.2171800e-02
 -1.2439264e-02
 -4.4106871e-02
  4.2612357e-03
  7.4412532e-02
  1.6725415e-02
  2.2270991e-03
  4.1169006e-02
  4.1325610e-02
  1.2440130e-02
  2.2180576e-02
 -8.8864828e-05
 -3.3589162e-02
 -6.4240688e-01
 -1.6365536e-02
 -2.2136545e-02
  1.9011667e-01
 -3.3336872e-01
 -2.1991830e-03
  5.1116467e-01
 -1.3010524e-01
  7.5455225e-01
 -1.8116904e-02
  2.9924724e-01
 -3.7845078e-01
  3.0228540e-03
  2.1841295e-02
 -2.1119095e-02
  1.0716339e-02
 -1.6325180e-01
 -6.9498867e-01
 -1.0193473e-01
 -3.3675589e-02
  2.5789821e-01
  2.2058469e-01
 -2.6912129e-02
 -1.0001799e-01
 -1.9631227e-02
 -2.8949538e-03
 -4.5233462e-02
  1.6504407e-01
  4.6144798e-03
 -6.8629581e-01
 -2.9518688e-01
  1.9217578e-01
  5.8584191e-02
 -2.7445459e-01
  2.7584212e-02
  2.3950286e-02
 -4.1456088e-02
  3.0877747e-02
  7.8626104e-02
 -1.1853685e+00
  2.9035529e-02
 -3.1489429e-01
 -7.2865352e-02
 -1.2711380e-01
 -7.6980297e-03
  2.4473906e-02
  3.3079478e-01
  2.1059383e-02
  3.4072804e-01
  6.3390671e-03
 -4.4448547e-02
  1.7592477e-02
 -9.2822440e-02
 -9.3381412e-02
  3.4504205e-02
  3.0341510e-02
 -8.1271846e-03
  7.2671130e-02
 -5.0793651e-02
 -7.2734177e-02
 -1.5979427e-01
 -1.8893039e-02
  3.8306840e-02
  5.2353617e-02
 -3.4253094e-02
 -4.7351327e-02
 -7.4803436e-01
  1.6882902e-02
  2.6598716e-02
  2.2955403e-02
  1.8371828e-02
  3.1543136e-02
 -4.0642899e-02
  1.5345008e-02
 -3.6296919e-02
 -2.0398175e-02
 -2.5871377e-03
 -2.2270411e-02
  9.3236357e-02
  2.4061097e-02
 -1.0960536e-03
  3.1640640e-01
 -3.8042460e-02
 -2.3536298e-02
  3.6993124e-02
  5.6577962e-02
  1.5407158e-01
 -6.4303926e-03
 -1.2645435e-01
 -1.3731674e+00
  2.3487087e-01
  1.1333150e+00
 -1.1714873e-01
 -2.2427417e-02
 -6.5612245e-01
  5.7439822e-01
 -3.9215797e-01
  4.0683571e-01
 -5.0030392e-01
 -9.7785130e-02
 -6.2936996e-03
  5.1178277e-01
  5.0261527e-01
  2.2663014e-01
  3.6732593e-01
  2.4335586e-01
 -9.6327561e-01
 -1.5946065e+00
  1.1677840e+00
  3.0948643e-02
 -8.2908921e-02
  5.1336315e-02
 -4.1047743e-01
  1.6954791e-02
 -5.0619423e-02
  2.6113659e-03
 -1.7910880e-01
  2.7814878e-02
  5.3559244e-02
 -2.1317771e-02
 -7.1927435e-03
  3.6014110e-02
  8.2715452e-03
  7.6954074e-02
  9.7125806e-02
  1.4340683e-02
  1.0970336e-01
  2.4010623e-02
  1.1703234e-01
  3.7468318e-02
  1.0139455e-02
 -7.5122765e-03
 -1.3533470e-01
 -3.8774613e-02
 -4.0676266e-02
 -9.9341325e-02
 -1.0269339e-01
 -7.8496292e-02
  3.9192061e-03
 -2.8164862e-02
 -3.6722839e-02
  7.6881051e-03
 -3.5261002e-01
  8.1557825e-02
  5.8088858e-02
  1.4677477e-02
  1.0663253e-01
 -5.0606422e-02
 -9.1191372e-03
 -1.3854575e-01
 -4.2356378e-01
 -7.5603735e-01
 -2.7436650e-01
 -8.7142795e-01
 -1.4647970e-01
  7.1109682e-02
 -1.8998714e-01
 -5.1859778e-01
  1.5952612e-01
 -1.5176576e-02
  1.2376286e+00
  2.1157812e-02
 -7.8873277e-01
 -2.4577226e-02
 -2.1219976e-01
  1.8926387e-01
  1.3779929e+00
 -8.5661769e-01
 -3.7044883e-02
 -1.0808173e-03
  3.1104493e-01
  7.8385420e-02
  5.7036500e-02
  2.2247177e-01
 -1.1968296e-01
 -1.1533297e-02
  4.7066238e-02
  3.9635777e-02
  3.6275025e-02
 -1.0583184e+00
  1.6775142e+00
  1.3345457e+00
 -2.2505827e-01
  6.9037127e-01
  9.1917805e-02
  3.8713764e-02
 -2.5436195e-02
  2.6729774e-02
 -8.8300765e-02
 -6.2773362e-02
  1.6993796e-02
  5.4025911e-02
  3.7489074e-01
  4.0895134e-02
 -3.9293759e-02
 -7.7360682e-02
  1.3137922e-03
 -1.8803425e-02
  2.1708708e-02
  9.7106872e-03
 -1.9723719e-02
  1.8181186e-02
  6.4714417e-02
 -1.1197777e+00
 -9.8137166e-03
  3.3569198e-02
 -2.8925587e-03
 -2.8525550e-02
  4.9134351e-02
 -5.9263084e-02
  6.9067828e-02
 -7.6874513e-03
  3.6470513e-04
 -2.1816744e-02
  1.5405117e-01
 -6.7067921e-02
  1.3111744e+00
 -7.8297734e-02
  7.6414540e-02
 -6.1514538e-02
  1.3066744e-02
 -1.6217759e-02
  2.1739654e-02
  1.9668499e-02
 -2.5223309e-02
 -3.8587976e-02
  3.0996721e-02
  1.0369221e-02
 -1.8769413e-02
 -1.2587608e-03
 -3.4267321e-02
  1.2516834e-02
 -1.7313156e-01
  6.2099355e-03
  5.3366974e-02
 -2.0934300e-02
  6.3007041e-03
 -2.8083345e-02
 -2.8249443e-02
  4.7621999e-02
  2.6728028e-01
 -4.2075116e-02
  4.7696885e-02
  5.7553519e-02
 -3.1576642e-01
 -3.3929475e-02
  5.4004695e-02
 -9.7140484e-03
  1.0628819e-01
 -3.5400826e-02
  9.4132666e-03
  1.6659439e-02
 -5.7920138e-03
 -3.2510176e-02
 -2.4439586e-02
  4.3368861e-03
  4.0658575e-02
  8.4423155e-02
 -9.2477411e-02
 -1.4015105e-01
  1.1632738e-02
 -7.8527391e-02
  5.8853650e-03
 -6.5628737e-02
  4.6396222e-02
  3.4477059e-02
  2.0650759e-01
 -3.5475893e-03
 -3.4021944e-02
 -2.7840728e-01
 -1.1359690e+00
 -4.2760718e-01
 -1.2663555e+00
 -4.0783200e-01
  1.3655515e+00
  1.0252911e+00
 -2.1602990e-02
 -1.8463625e+00
  2.0057631e-01
 -3.1668782e-01
  1.5717069e-02
 -3.3940703e-02
 -4.2476195e-01
 -1.3061373e-02
  4.1666622e-03
  2.7510062e-02
 -7.6649286e-02
  6.5144785e-02
  2.4256890e-03
  8.4932250e-01
 -3.5631233e-01
  7.6129772e-02
 -2.0874750e-02
  8.0238819e-01
  5.1329616e-02
  7.3225254e-01
  2.0783398e-01
  4.2857561e-01
  2.0693882e-01
  7.2107410e-01
 -1.2145798e+00
  1.4104692e+00
 -1.5172437e+00
 -1.0576240e+00
 -9.0582579e-01
 -3.2197961e-01
 -2.5015905e-02
 -7.0607454e-01
  9.5803589e-01
  5.6433141e-01
  1.8164586e-01
  1.5725920e-02
 -6.9897944e-01
 -4.8392001e-03
  8.9684355e-01
 -1.5953839e-01
  3.2273629e-01
 -2.6734594e-01
  8.8312123e-03
  2.4140313e-01
 -9.2302942e-01
 -7.5810558e-01
 -3.2537694e-03
  1.1964469e+00
  4.7380012e-02
 -1.7932993e+00
  3.5993737e-01
 -2.3481166e-03
 -5.4806460e-02
 -1.7235555e-01
  8.4866178e-01
  1.9755147e-01
 -1.1961708e+00
 -7.8035635e-01
  1.2525426e-01
  4.5021185e-01
 -2.8717566e-01
 -5.3293008e-01
 -1.3852469e+00
  1.0255796e-01
  7.7219266e-01
 -2.3103228e-02
 -4.0912334e-02
 -2.0962026e+00
 -1.2234751e-01
  8.0650538e-01
  3.5707392e-02
  1.6310023e+00
  1.1044906e-03
  4.6989569e-01
  1.2600183e+00
 -1.5666509e-01
 -4.1325144e-03
 -7.0174843e-01
  8.0692923e-01
  2.9290596e-02
 -1.1985144e-01
  4.6038977e-03
  5.4028155e-03
 -3.2353199e-03
  8.7741315e-02
 -5.8326829e-02
  6.5666623e-02
  1.0619838e-02
 -1.1906893e-01
  2.3579496e-01
 -7.8701593e-02
 -3.8796323e-03
 -2.8396341e-01
  2.0159498e-02
  1.1803967e-02
  4.2586725e-02
 -3.2647245e-02
  1.3796496e-04
  2.6067168e-02
  7.1955249e-02
  1.0207563e-02
 -3.6479346e-02
  1.0740666e-01
  5.4492164e-02
 -1.4286346e-02
 -2.7328789e-02
 -3.7509665e-02
  2.2119053e-02
 -7.2211144e-03
 -2.4096132e-03
  7.3652364e-02
  5.5624805e-02
  7.1266413e-02
 -9.9412557e-03
  5.0512189e-01
 -3.7328647e-03
 -1.1744118e-02
  1.9972080e-01
 -2.5308155e-03
 -1.9773813e-02
  1.0619757e-01
  3.0577371e-02
 -4.8088346e-02
  1.5423911e-02
 -2.1971656e-01
 -1.9591389e-02
 -4.6323295e-04
  7.7453755e-02
  5.9521340e-02
  5.8133060e-01
  2.5179643e-02
  4.2222291e-01
 -4.0166643e-02
  2.8759247e-01
 -1.7158045e-01
  3.4328949e-02
  5.5743092e-01
  6.5898880e-02
  8.8295983e-03
 -7.5654157e-02
 -3.5455048e-02
 -1.3530346e-02
  1.3667852e-01
  1.5728439e-01
  3.2538291e-02
  2.6070397e-02
 -1.0522410e-01
  6.8452768e-03
  2.5290122e-02
  3.4425385e-02
  4.7999253e-03
  2.6991401e-02
  1.1357228e-02
 -1.0497990e-02
 -6.0260177e-02
  6.2843403e-03
 -1.2278796e-01
 -9.4619999e-03
 -6.0699712e-02
 -1.1231788e-01
  1.0147242e-02
  1.1027811e-02
 -1.5413654e-02
 -2.7313313e-02
  5.2437987e-02
 -8.4752090e-02
 -1.5475453e-02
  1.3191701e-01
 -1.3851968e-02
 -1.3972276e-02
  6.3482687e-02
  1.2442961e-01
  7.9683140e-03
 -1.7148395e-01
  4.1034877e-02
  2.2800740e-02
 -5.3824849e-02
  5.0698109e-02
 -5.3111874e-02
 -1.1450673e-03
  3.7987915e-01
 -1.2134685e-01
 -1.1655008e-01
 -3.4401033e-03
 -1.3788074e-02
  6.0207270e-02
 -1.3143273e-01
  1.6393078e-02
  4.1497312e-02
 -1.0047560e-01
 -1.4765400e-02
  4.0572148e-02
  4.9350481e-02
 -3.1374668e-04
 -5.8000017e-02
 -4.3293156e-02
  3.2406186e-03
 -8.2468197e-02
  2.7485234e-05
  1.4609828e-02
 -3.5423856e-02
  4.7414128e-02
  7.5730331e-02
 -4.9980539e-01
  2.8633967e-02
 -7.5072110e-01
 -8.8625411e-03
 -9.4434001e-02
  1.1813167e-01
  4.4057238e-01
 -2.7659044e-01
 -4.9572084e-02
 -7.3582329e-02
 -5.1539935e-02
  4.7717273e-02
 -2.2677738e-02
 -5.0317352e-03
 -1.1281871e-01
  2.2075051e-02
 -9.7484440e-01
  5.5017319e-02
  3.5941720e-01
  6.8743475e-02
 -6.1204727e-03
 -7.9365033e-01
  7.4162269e-01
  3.2216620e-02
  5.0779045e-02
  4.0202543e-02
  6.9641126e-03
 -8.2118465e-03
 -1.1337485e-02
 -1.7871724e-02
 -1.3547055e-02
 -3.6341574e-02
 -4.9872327e-01
  8.2254052e-01
 -1.5962923e-01
 -1.3368142e-02
  1.8496606e-01
 -3.1270629e-01
  2.8480983e-01
  7.7230781e-01
  2.3867806e-02
  1.1949182e-01
 -1.8082576e-02
 -2.5954075e-02
  5.8171350e-01
  3.7417050e-02
 -2.8766888e-01
  9.2901010e-03
 -1.9293301e-01
  7.5050674e-02
 -7.2207779e-02
 -5.1063484e-01
 -4.7160840e-01
 -2.5143253e-02
 -2.7167520e-01
 -1.8834224e-02
 -1.0585054e-02
  1.5477075e-01
 -2.3381650e-03
 -7.2602704e-02
  1.6874142e+00
  3.7884358e-01
  3.6158469e-01
 -7.0229598e-04
  1.8628134e+00
 -2.0625092e-01
 -6.7710155e-04
 -2.0239753e-01
 -1.5760843e-01
 -9.4790566e-01
 -7.0383477e-01
 -9.3118650e-01
  2.6981378e-01
 -2.3483830e-02
 -2.0288493e-01
  1.7335333e-02
 -1.7426215e-01
 -2.0573412e-03
 -4.1856687e-03
 -4.3564731e-01
  1.7147568e-01
  1.8742045e+00
  1.2870099e-01
 -1.2900258e-05
 -3.6374263e-02
 -3.8970031e-02
 -3.2700490e-02
  2.6613817e-04
  3.3643832e-03
  8.2183344e-04
  2.7650066e-02
  5.8597188e-02
  1.0634622e-01
 -2.1376946e+00
 -3.0039966e-03
 -8.2677580e-02
 -9.9579282e-03
 -1.5251632e-02
 -8.8987648e-03
 -6.0294505e-02
 -2.5248878e-02
  2.1311633e-02
 -2.9663027e-03
  1.9389829e-02
  1.5371565e-02
 -7.0677206e-02
 -4.3649855e-03
  3.4584276e-02
 -5.4458037e-02
  1.0371949e-01
  6.3453239e-01
 -8.2015833e-03
  2.3346126e-02
 -1.8930092e-02
  1.0468461e-01
 -9.4820313e-02
 -9.9829689e-02
 -6.4367399e-02
 -2.3856977e-02
  5.6920275e-02
  2.2354884e-01
 -5.4771590e-01
 -4.8738964e-02
 -8.5294567e-02
 -6.0429014e-02
 -3.1441400e+00
  3.4237202e-02
  7.0632890e-02
  9.9435605e-02
 -3.4636071e-01
 -7.8093387e-02
  8.8411838e-02
  7.5614977e-01
 -3.2703623e-02
 -1.4444609e-02
 -1.3115678e+00
 -2.0940411e-01
  2.5214106e-02
  6.3949726e-03
 -7.9937965e-02
  1.1108727e+00
 -1.8079355e-02
  8.3447456e-02
 -3.3536915e-02
 -4.1665852e-02
  2.6179129e-02
 -7.6250896e-02
 -2.6726918e-03
  1.3748901e+00
 -1.9349886e-01
 -4.1853558e-02
  2.1101531e-01
 -1.0959420e-01
 -5.5503380e-01
  1.5596999e-02
 -4.9043167e-02
 -3.1154618e-01
 -9.4862866e-01
  2.4923164e-02
 -2.1233959e+00
  3.0067910e-03
  1.0776778e-01
 -1.1692247e+00
  1.2576792e-02
 -8.5258073e-01
  4.8777573e-03
  6.5843660e-01
  4.5332704e-03
 -9.8454513e-02
 -1.9583035e+00
  3.3325806e-02
  6.4714855e-01
  7.2681163e-03
  1.1943710e-03
 -2.0548330e-01
  2.6902915e-03
  1.9203506e-02
 -2.5856572e-01
 -6.4318781e-03
 -8.2384503e-01
  1.3978947e-03
 -6.6800453e-02
  2.6916403e-02
 -7.3314840e-03
  2.4259023e-03
  1.3481991e-03
  1.5894225e-02
  3.6454454e-02
  1.3047273e-02
 -4.3750048e-04
  6.8674386e-02
 -4.6838328e-02
  3.1281468e-02
 -2.6334841e-02
  2.9930223e-02
  3.3996683e-02
 -5.2467275e-02
  5.4987915e-02
  1.3484061e-01
 -3.5874541e-03
  1.8526329e-02
  6.9759727e-02
  1.7550111e-02
 -2.2857128e-02
  3.2441128e-02
 -1.2882474e-01
  5.0654560e-02
  6.1774977e-02
  5.9608802e-02
 -3.2746319e-03
 -1.2127318e+00
 -4.2051813e-01
 -2.2337759e-01
 -3.3604294e-02
 -1.2741196e+00
  1.6882345e-01
  2.0251348e+00
 -1.6896309e-02
 -6.2919813e-01
  7.2505027e-01
 -2.3242034e-01
  2.5890980e-02
 -7.0705548e-02
 -2.9212756e-02
 -6.1965609e-01
 -2.1665664e-02
  9.8854750e-01
  2.8951836e-01
  2.5477412e-01
 -3.7244130e-02
  7.1131088e-02
 -2.2834355e-02
 -5.0727379e-02
  3.4356393e-02
 -1.6054580e-02
  1.5228546e-02
  7.5870968e-02
  1.4151386e-02
 -9.6438909e-03
  8.1331104e-02
 -1.9100689e+00
 -9.1964316e-01
 -8.6770308e-01
  1.3234822e+00
  3.7357423e-01
  2.9661605e-01
 -1.0842792e+00
 -1.5691012e-01
  8.6659431e-02
 -1.8594712e+00
  1.4650325e-01
  4.4324405e-02
  8.1016183e-02
  7.7575436e-03
  8.0995046e-02
  4.1591175e-02
 -1.1691801e-01
  1.5156491e-01
  1.6524985e-01
 -1.5623221e+00
 -1.7624947e-01
  5.5260128e-01
  4.7915339e-02
  2.0159222e-01
 -1.0693832e-01
 -7.0900805e-02
 -8.0614509e-03
  1.5958920e-02
 -1.7797751e-02
 -2.8049344e-01
 -1.7119681e+00
 -1.0024869e-01
  4.0674862e-02
  1.0298982e+00
 -2.2419678e-01
  1.2835944e-01
 -1.6248549e+00
 -2.6817101e-01
  4.1304875e-02
  2.7005303e-01
 -2.0223999e-02
  6.4187199e-01
  3.9476958e-01
  3.5183832e-02
  2.4751273e-01
 -2.4624747e-01
 -2.8453076e-02
 -2.1031834e-01
 -2.5855996e-02
 -3.0191639e-01
 -4.0478224e-01
  2.1062309e-01
 -9.6096750e-03
 -1.7735717e-01
 -1.5686746e-01
 -1.5684567e-01
  2.6178076e-03
 -1.1293509e-02
  2.0086730e-02
 -7.0587069e-02
  4.0496238e-02
  2.6895588e-02
  4.9977344e-02
 -2.4919426e-02
 -3.2116927e-02
  8.0590121e-02
 -5.4549356e-03
  1.5963328e-03
 -1.3763829e-03
  5.2546460e-02
 -2.8013488e-02
 -4.0983539e-03
  2.5493987e-02
  3.5198241e-02
 -3.6167495e-02
  6.8366051e-02
  3.8666051e-02
  1.6527114e-02
 -1.5882273e-01
  1.8709085e-03
  5.3211689e-02
  7.6225393e-02
 -3.8208630e-02
  1.9068511e-02
  1.1255029e-03
 -1.6166431e-01
 -6.2548495e-03
  1.3135616e-02
  1.0029368e-01
 -8.5559860e-02
  9.3157012e-03
  1.0229372e-01
 -1.7582761e-01
 -1.2403056e-02
 -2.7292639e-02
 -8.3319798e-02
 -1.1817534e-02
  1.0139143e-01
  3.3621069e-02
  1.2251164e-03
  2.9980697e-02
  3.5120040e-02
  1.5455510e-02
  5.9794568e-02
  1.7920593e-02
 -5.1444780e-02
  5.9325844e-02
 -9.9690966e-03
 -2.7493969e-02
  1.7803085e-01
  6.7152746e-02
  1.7148581e-01
 -2.1992045e-02
 -2.5113307e-02
  5.7537565e-03
  1.4732584e-01
 -1.1285101e-02
 -1.8630033e-02
  3.1114859e-03
 -6.3113356e-03
  8.2882434e-01
  4.8195541e-01
 -7.2161508e-01
  6.2238760e-02
  1.5185003e+00
  4.3086040e-01
 -8.7623590e-01
  5.7181615e-01
  1.9097449e-01
 -1.1585739e+00
  1.5464966e-01
 -1.0584856e-01
  6.2531984e-01
 -4.5078158e-01
 -3.3163497e-01
  5.3037614e-01
 -4.4170669e-01
  8.2904136e-01
 -3.8129246e-01
 -1.7285972e+00
  1.1798351e+00
 -2.5542742e-01
  3.2103744e-01
  9.8770964e-01
  5.9021379e-05
  2.0742244e-01
  2.5632507e-01
  6.3986704e-02
  5.6635015e-02
 -9.6940672e-01
 -2.9380536e-01
  2.4031129e-01
  1.0336544e-01
  7.9928465e-02
 -1.4002405e-01
 -4.2732218e-03
 -1.0248622e-01
  6.8506740e-02
 -2.5346482e-02
 -3.3701960e-02
 -4.9308512e-02
  2.2876408e-02
 -3.2591052e-02
 -7.9392940e-02
  7.7782743e-02
 -7.0247655e-03
  8.5596323e-02
  5.9761781e-02
 -1.5517089e-02
 -2.2976238e-02
  1.7830411e-01
 -4.1799918e-03
  2.2187401e-02
 -5.1262029e-03
 -9.6299835e-02
 -3.6424159e-03
 -5.5856355e-02
 -4.5476828e-02
  5.2191809e-02
 -5.9548680e-02
 -9.9140517e-02
 -3.8194437e-02
  4.9226792e-03
  1.1581627e-02
 -3.8847547e-02
  9.7128056e-02
 -2.5797978e-02
 -3.4659050e-02
 -3.6015344e-01
  3.4917837e-01
 -2.2053513e-01
  1.1967838e-02
  1.0699349e-01
  1.1726441e-01
 -1.2848390e-02
  1.9185243e-02
  2.1245396e-02
  1.2968654e-02
 -1.4878232e-02
 -2.0035269e-02
 -6.0533326e-02
  1.0904837e-02
  4.6402112e-02
 -8.7291999e-03
 -7.5546108e-02
  4.1840129e-02
  5.3975914e-02
  1.9137505e-02
 -1.2121361e-02
  2.2035927e-02
 -6.7538824e-03
  1.5254981e-02
  4.0237054e-02
 -1.1640245e-01
 -8.6871209e-03
 -2.6992358e-02
  4.6726930e-01
 -6.9127783e-02
 -2.2069149e-02
  3.5988215e-02
 -5.1356494e-02
 -8.4922716e-02
 -1.5088717e-02
 -1.7244365e-02
  4.9753141e-02
  6.1365772e-02
 -5.4023322e-03
  2.3640072e-02
  6.1449070e-02
 -2.3049075e-02
 -3.9094475e-01
  2.3396967e-02
  8.7344311e-02
  9.0465322e-03
  1.6341245e-02
  1.7451824e-01
  4.7043886e-02
 -6.5778112e-03
 -4.9057260e-05
  5.4566208e-02
 -3.2923877e-02
 -3.3296280e-02
 -4.4336323e-02
  7.3370382e-02
 -6.1447672e-03
  2.4247281e-02
  2.2029119e-02
 -1.3429223e-02
 -1.2474714e-02
  6.0267966e-02
  1.4915256e-04
 -7.9655774e-02
  7.3462196e-02
  2.8890714e-02
  4.2765290e-02
 -4.3802112e-02
  8.1826247e-02
  2.8636957e-02
 -7.9764493e-02
  5.8120959e-02
  1.8043751e-02
 -3.3951856e-02
 -2.5452571e-03
 -1.5953863e-02
  1.0655024e-01
  3.4642380e-02
  7.2352448e-03
 -5.9542328e-01
  4.1007586e-02
 -1.8941905e-02
 -4.2134948e-02
  3.6626652e-02
 -1.4472079e-02
 -4.2955920e-02
  1.4997128e-02
  9.7674429e-02
  5.0152224e-03
  3.4740165e-02
  8.3963843e-03
 -3.3901945e-02
  1.3057825e-01
 -5.6717508e-02
 -6.6192240e-02
  5.9503414e-02
 -4.9539693e-03
  5.2250806e-02
 -5.3181116e-02
  5.6766034e-03
 -7.5022995e-02
 -2.6120061e-02
  5.1419729e-01
 -1.5156809e-02
  1.2170634e-01
  7.3737577e-02
  3.8791910e-02
  5.5125998e-03
  3.5721404e-03
  1.5627377e-02
  6.0803689e-02
 -1.8606052e-02
 -7.0867658e-01
  4.6200797e-02
 -6.3101196e-01
  1.0661362e+00
 -4.1879669e-01
  5.4606754e-01
 -1.8133964e-01
 -4.6528231e-02
  1.4122269e-02
  2.8854582e-01
  1.1877079e-01
  3.9830226e-01
  1.0884131e-02
  3.1566568e-02
  2.3257291e+00
  8.4755369e-02
 -2.0313051e-01
 -8.9158595e-01
  9.9744564e-03
  2.3739274e+00
 -1.3699454e-02
  4.1378960e-01
 -6.9350541e-02
 -6.2946685e-02
  6.7557625e-02
 -1.1649644e-01
 -5.4126736e-02
 -2.0630306e-02
 -1.1637011e-02
 -1.9936133e-02
 -1.6555741e-01
  3.2370750e-02
  4.2938638e-02
  5.7844915e-03
 -4.6951931e-02
 -5.2958517e-03
  5.9927292e-02
 -9.8623735e-01
  9.4288804e-02
 -4.8630681e-02
 -2.1452961e-02
  1.0652015e-03
 -8.5176125e-02
  2.3238614e-02
  4.2079914e-02
  3.6776349e-02
 -7.9062559e-02
 -8.6328993e-03
 -7.1887127e-03
  6.2329199e-02
  6.8012007e-02
 -9.4787389e-02
  2.5358111e-02
  2.1966901e-03
  2.6170909e-02
  5.0123902e-03
 -4.7356684e-02
 -9.9042587e-02
 -2.7732078e-02
  3.7155010e-02
  1.4857890e-02
 -1.8548050e+00
  8.2275253e-03
 -5.3386110e-01
  6.0644239e-02
  1.6261418e-01
 -2.9508464e-02
 -7.5425982e-04
  1.4730282e-01
  4.3451679e-01
 -8.0138212e-03
  1.2760373e-02
  1.1148669e-01
  9.0384424e-02
 -1.9473260e-02
  6.5373983e-03
  1.1812551e-01
  7.6316777e-03
  1.4703521e-02
  1.1533014e-01
 -1.2692501e-03
  1.3890743e-01
 -2.7801121e-02
  4.2176110e-04
  1.5514768e-02
 -2.7575869e-02
 -2.2967069e-03
 -5.0074846e-02
 -3.3893339e-02
 -1.0635838e-01
  7.5295746e-02
 -8.7993577e-02
  1.4572565e-02
  2.0134814e-02
  6.1224524e-02
  4.2419679e-02
  3.2611594e-02
 -1.1215139e-01
  2.8747659e-02
 -2.3333913e-02
  2.8917281e-02
  4.2029139e-02
  4.0118195e-02
 -4.0368292e-02
 -6.0645789e-02
  1.4352364e-02
  4.9858164e-02
 -2.1439895e-02
 -1.0150794e-02
 -3.0741772e-02
 -7.1368456e-02
 -2.7611924e-02
 -1.2514982e-03
 -3.2227691e-02
  3.7050530e-02
 -3.8754586e-02
 -6.1921481e-02
 -2.5218200e-02
 -4.5352862e-03
 -1.0424216e-02
  5.6181245e-02
  2.5568409e-02
 -4.0401869e-02
  2.8979471e-01
  8.8373506e-01
 -6.1180550e-01
  2.2480290e-02
  4.6163250e-02
  3.9790809e-02
 -2.2858107e-02
 -3.9702680e-02
 -2.6121536e-01
  3.9097092e-01
  9.8651044e-02
  2.8054738e-02
 -2.7653644e-02
 -9.5939375e-03
 -1.7253440e-02
 -5.4201648e-02
 -1.8935740e-02
  2.1312362e-02
 -4.6590706e-03
 -1.7739486e-02
  1.3962714e-01
 -1.6207373e-02
 -1.8470790e-03
 -2.1785321e-02
  2.0165849e-02
  6.8141825e-02
 -1.5101203e-02
  1.8971565e+00
  6.9136941e-01
 -6.4895540e-01
  7.2100359e-01
  1.8738207e+00
 -3.6657389e-02
 -8.6678046e-01
  5.6290913e-02
  1.0678650e+00
 -9.0806705e-01
 -6.1697370e-01
 -1.2536362e+00
  2.4469467e-02
  3.7125468e-01
 -1.6521250e+00
 -4.0428862e-01
 -4.6882552e-01
  9.1869384e-02
  1.0332005e+00
  2.7154438e-02
 -5.0746959e-01
 -9.4479668e-01
 -5.2968568e-01
 -4.3951732e-01
  6.9977421e-01
 -1.1631212e-01
 -6.2484056e-02
  1.4408995e-01
 -7.2585776e-02
 -3.9194277e-01
 -2.0835787e-01
 -7.9215626e-04
  5.1783484e-01
 -6.1821580e-01
 -1.2561449e+00
 -4.0164384e-01
  5.8392090e-01
 -1.0219341e-01
 -1.1958368e-01
 -1.1282682e+00
 -2.7705956e-01
 -2.0537779e-01
 -2.3096248e-03
 -1.9426239e-01
 -4.5405331e-01
 -1.5452476e-01
 -6.2122029e-01
  8.1692412e-03
  3.3438619e-02
 -3.6476966e-02
 -4.9732521e-02
  9.8393140e-03
  1.2743537e-01
  1.5349343e-02
 -1.8493968e-01
  8.4721647e-02
 -4.0008098e-02
  4.3595985e-02
 -1.4874199e-02
  1.0686313e-01
  7.0985574e-01
  8.5904643e-02
 -5.4067980e-02
  3.0200941e-02
  9.5458813e-03
  1.2165686e+00
 -9.5893282e-01
 -2.0179956e+00
  1.5313956e-02
  1.0081190e+00
 -1.5538161e+00
  2.4931712e-02
 -5.1995140e-01
  4.9058723e-01
 -1.4811869e+00
  5.0768587e-03
  7.3523277e-01
 -1.1228777e+00
  6.1474466e-03
 -1.7092530e-01
 -6.6874093e-01
 -2.6863957e-02
 -1.3766132e-01
  5.1262772e-01
  9.2366600e-01
 -2.2273976e-02
 -1.3733032e-01
 -5.4469756e-03
  4.5353718e-02
 -9.8033589e-01
 -7.7045989e-01
 -6.9290228e-02
 -2.7436709e-01
  3.2422744e-02
 -3.2542460e-02
 -9.9317813e-01
  5.6809551e-01
 -8.3353966e-01
 -1.1305877e-01
  4.3852437e-01
  1.3132179e+00
  6.5935962e-02
 -1.2693093e+00
  1.8211390e+00
  5.6347662e-01
 -5.3977251e-02
 -1.1794110e-01
 -1.5214301e+00
 -1.1817189e-01
 -1.2405258e-01
 -2.6560357e-01
  2.7283162e-03
 -8.8483179e-03
  3.2419905e-01
  6.8469651e-02
  2.5101295e-01
  5.6819253e-02
  4.2211365e-02
  1.6268798e+00
 -1.1573143e+00
  3.1923625e+00
  2.8059110e-01
  8.1049584e-02
  1.2067068e-01
  1.9780995e+00
 -1.2602354e+00
 -9.6833594e-02
 -3.6769670e-01
  1.7270677e+00
  3.9169911e-01
 -1.0282614e+00
  8.5036889e-02
 -5.7200062e-01
  7.2861540e-01
 -8.0437040e-01
 -2.9549252e-02
 -3.8347396e-01
  4.9465090e-02
  2.5108411e+00
 -4.8505459e-02
 -2.0612757e+00
 -1.7073704e+00
 -3.1748526e-02
  2.3016393e-02
  1.5196441e+00
  2.1323422e-01
 -9.6503504e-02
 -3.5435304e-02
  5.6921422e-02
  6.1475992e-01
 -2.9917043e-01
 -8.7824142e-01
  1.7234108e+00
 -1.3392385e-02
 -4.0972140e-02
  8.6346758e-04
  7.8818291e-01
  1.3045307e+00
 -1.6121496e-01
 -1.2184506e-01
  9.9330115e-01
  3.9529052e-01
  5.3544456e-01
  2.2897530e-02
 -6.3427866e-01
  7.5561649e-01
  8.3625630e-02
  5.1316363e-01
  3.0489850e-01
  1.7622899e-01
  3.1250205e-02
  6.3880384e-02
  2.1056430e+00
  1.1091437e-01
 -4.5758405e-01
  8.1158131e-03
  6.1341119e-01
  1.4972126e-01
 -7.8220212e-01
 -4.4484589e-02
  2.0125227e-01
 -6.7906106e-01
 -2.2764447e+00
 -1.8927981e+00
  1.2230372e+00
 -6.0095116e-03
  9.7731063e-03
  4.8007429e-02
 -4.4620831e-02
  1.7386940e-01
  7.2624676e-02
 -8.9635067e-02
 -2.3808479e-01
 -1.7883550e-01
  3.7831169e-02
  1.4416068e-02
  3.8646613e-03
 -1.5312465e+00
 -1.9389974e+00
 -1.4973067e+00
 -8.8554448e-01
 -1.6239727e-01
  7.8912899e-02
  8.1000261e-02
  8.6416192e-02
 -6.6749442e-01
 -2.3624457e-01
 -4.2959429e-02
  3.3288065e-01
  1.6293558e+00
  1.1592033e+00
 -5.6807067e-02
 -3.9545843e-01
  7.5325154e-02
  5.1697027e-02
 -1.5699950e+00
  2.0891212e-01
  5.9398520e-01
  2.8409440e-02
 -1.1115809e-02
 -1.0391300e-03
 -7.1890539e-01
 -2.2089963e-01
 -8.0957091e-01
 -2.1439555e-01
 -3.6912441e-01
 -9.5918828e-01
  9.8367482e-02
  3.3878401e-01
  1.4638750e-01
 -1.1643901e-01
  1.9688046e-01
  8.8896716e-01
 -1.3446675e-02
  6.4053945e-02
  8.6008213e-02
  5.9024131e-01
  1.1300743e-01
  1.1490432e-01
  3.4644932e-01
  4.6969581e-01
 -1.3264236e+00
 -2.3985496e-01
  2.3318257e-02
 -1.2594405e+00
  2.9313017e-02
 -1.2066560e+00
  2.6209199e-01
  1.1853720e+00
  5.3320263e-02
 -9.0759015e-03
 -6.0101841e-02
  2.9615328e-01
  1.1760636e-02
 -7.5457716e-01
 -1.5741764e-02
 -8.5816354e-01
 -1.2318486e+00
 -3.0345136e-02
  2.2962552e-02
  3.5107099e-03
  4.4844094e-01
 -1.3825035e+00
 -1.4956957e-01
 -8.0839872e-02
  1.2741921e+00
  3.3886887e-02
 -3.6068919e-01
  1.3687438e+00
  1.5531013e+00
  7.9596627e-01
  8.4120965e-01
 -1.9306053e+00
 -1.2267286e+00
  2.3391082e+00
  1.2974474e-01
 -3.2266530e-01
 -9.5942611e-01
  4.7296456e-01
 -8.2506365e-01
  7.6912463e-01
 -1.0459323e-01
 -2.4692915e-01
 -7.1583189e-02
  4.7420427e-01
 -6.0539627e-01
  3.5268001e-02
 -2.2306543e-02
 -4.8849821e-01
  1.1071326e+00
  2.1657906e-01
 -3.6368567e-02
 -2.0160949e+00
 -1.2724179e+00
 -1.6797222e-01
 -2.2246804e-02
 -2.4375582e+00
  5.4154489e-02
 -1.7829284e-02
  4.8972715e-02
  1.1405422e-01
  4.8607446e-02
 -5.9805013e-02
 -9.0336055e-02
  4.8589591e-02
  4.7628742e-01
 -5.6559134e-01
 -5.2413478e-02
  1.7879913e+00
 -7.5091957e-03
 -6.0059643e-01
 -1.1468465e+00
  2.6937306e+00
 -1.7555494e-02
 -1.4277528e-01
 -2.4157677e-02
  4.0247828e-01
  2.9186219e-01
  1.9719046e+00
 -1.6005532e-01
  3.6513203e-01
  1.9122391e+00
  2.9366529e+00
  8.3714858e-02
  1.5697818e+00
 -1.7191877e+00
 -3.1230876e-01
 -2.8295401e-02
  4.1013934e-02
 -2.3390968e+00
 -1.3335027e-01
 -4.2732824e-02
  2.6005416e+00
 -1.0961442e+00
 -4.0719563e-01
 -1.2033050e-01
 -2.7707994e+00
  1.5086131e-01
 -6.4808583e-01
 -1.2351907e+00
  7.9854447e-01
 -6.2749505e-02
 -5.3457880e-01
 -1.8066269e-01
  6.3855752e-02
 -1.6810274e-01
  3.7748617e-01
  1.1951222e-01
  5.8184236e-01
 -1.8823497e+00
 -2.8556613e-02
  4.3653348e-01
  8.6342388e-01
  3.9820820e-01
 -1.3580716e+00
  6.5518387e-02
  6.6740997e-02
 -7.1818137e-01
 -5.7791197e-01
  5.7512200e-01
  9.3804675e-01
  1.3678375e+00
 -4.1850689e-01
 -7.9620117e-03
 -6.3855344e-01
 -4.1606346e-01
  1.0780731e+00
  2.5941055e+00
  1.0684007e+00
  6.5934783e-01
  5.4376245e-01
 -1.8566390e-02
  6.6963941e-01
  1.1388059e+00
 -5.1099378e-01
  5.9857378e-03
  2.5267816e-01
  1.4675151e-01
 -9.6427625e-01
  4.5829579e-01
 -1.5870027e-01
  1.1827735e+00
 -2.7115976e-02
  1.3045189e-02
  1.0403112e+00
  5.0130326e-01
  1.1969353e+00
 -7.8420267e-02
 -2.2224097e+00
  6.2965000e-01
 -8.3451682e-01
 -8.2589829e-01
 -5.3381109e-01
 -9.4464563e-02
 -4.7203541e-02
  2.4710986e-01
 -2.6315990e-01
  8.9629948e-01
  9.6729614e-02
  8.4903818e-03
 -1.8378773e+00
 -3.6387107e-01
  8.0327672e-01
  1.0206451e-01
 -1.1278358e+00
  8.4000897e-01
  8.6928225e-01
 -7.7463418e-01
 -2.5098389e-01
 -4.4285196e-01
 -2.0122999e-01
 -3.5784364e-01
 -8.5089082e-01
 -4.9725160e-02
  9.1926642e-03
 -1.6233352e-01
 -7.0079416e-01
 -7.8729585e-02
 -5.8478475e-02
 -4.5443214e-02
 -1.5784699e+00
  3.9990816e-01
 -1.8201141e-02
  1.1288827e-02
  8.8680744e-01
 -2.1941248e-01
 -3.4549225e-03
 -4.5852244e-02
  7.1331590e-02
  2.4802131e-03
  6.9541663e-02
 -5.1942583e-02
  1.1005547e-02
  1.7484425e-01
 -2.5695996e-02
 -3.6513728e-01
 -1.2734944e+00
  1.1036153e+00
  3.0863974e-03
  1.4411377e-02
 -9.2440063e-01
  2.6680782e-01
  1.6807230e-01
  1.3031771e-04
 -1.0928202e+00
  1.9979165e-03
 -2.5743965e-02
  1.4270702e-01
  2.8917307e-02
 -4.8029292e-02
 -9.1357410e-01
  1.1730964e-02
 -1.5533555e-01
 -7.6137835e-01
 -2.8497145e-02
 -1.3796063e-01
 -7.8614312e-01
 -8.1773740e-01
  3.9563975e-01
  2.9418511e-02
 -3.7736771e-01
 -3.6448105e-03
 -4.2144243e-02
 -1.9847309e-02
  2.4415252e+00
  2.1627731e+00
  1.3478235e+00
 -1.9564996e-02
 -1.3446106e-01
 -1.2433516e+00
 -4.9607575e-01
  1.0428715e-02
  8.1139617e-02
 -4.4586343e-01
 -3.4192216e-01
 -8.6005759e-01
  3.8911164e-01
  2.6779549e-02
  9.9360095e-03
 -1.8470047e-02
 -8.3723098e-02
  3.3557457e-01
 -3.2182533e-02
  1.8195450e-02
  5.2292442e-01
 -1.6206785e-01
  2.5578995e+00
  1.8269919e+00
 -1.0655122e+00
 -9.7897530e-02
 -2.4290303e-02
 -4.6746019e-02
  5.4538751e-01
  3.8184682e-01
 -5.3937519e-03
 -2.7807919e-02
  3.8332203e-01
  8.6929864e-01
 -9.8242915e-01
 -5.2698757e-02
 -2.6626763e+00
  2.6868621e-01
 -1.5135792e-01
  5.0735328e-02
  3.9796814e-01
 -9.4785944e-02
 -2.0241437e+00
  2.2427585e-02
 -2.2639970e-01
  4.5979809e-02
 -4.1776482e-02
 -1.6199062e-02
  8.4293321e-02
 -1.4037481e-01
  2.3261620e-01
  5.9962623e-02
  1.6143692e-01
 -8.5490102e-01
 -6.0645502e-02
 -7.0111859e-03
 -1.9776520e-01
  3.6170700e-01
 -1.4053290e-01
 -5.4706746e-01
 -5.4159039e-01
  1.6475044e-01
 -1.0495298e-02
  5.9756089e-02
  2.9291940e-01
 -2.4502109e-01
 -1.7521288e-01
  2.6680663e-02
  9.0390056e-02
 -1.3609972e+00
  3.4805307e-01
 -7.8032929e-03
 -1.8893345e-01
 -2.1680211e-01
  2.7727420e-02
 -3.7098903e-02
  5.4159526e-02
  1.1757678e-01
 -1.4984738e-02
  1.0363548e-01
 -2.0665510e-02
  5.0028884e-01
 -3.7949581e-02
  9.0694219e-02
 -1.6258073e+00
 -1.6166390e+00
 -6.9875726e-03
  8.4645563e-01
 -1.4571275e-01
 -5.1800370e-01
  1.2073086e-02
  3.1497333e-02
  3.8733932e-01
  1.0290065e+00
  2.4645446e-01
  1.1986934e-01
  6.1542343e-02
 -1.0100838e+00
 -2.8617179e-01
 -3.6590561e-02
 -8.5566066e-02
 -7.2073889e-01
 -1.9752403e+00
 -6.9574463e-01
 -1.0803810e+00
  3.6501732e-02
  8.1382088e-02
 -1.8591251e-02
  2.0273745e-01
 -3.8136884e-03
  4.5715335e-01
 -2.8090440e-02
 -2.5021243e+00
 -9.0120986e-02
 -5.1808106e-03
 -1.5863106e-02
 -2.4293201e-02
 -1.4204631e+00
  1.1970469e-01
 -5.2848703e-01
  9.8116791e-01
  1.1678147e-02
  8.6767189e-02
 -3.1706020e-03
 -4.8295191e-01
 -8.9635098e-01
 -8.9145541e-02
 -4.2715535e-01
 -1.9519014e-02
  3.4253767e-03
  8.4589100e-01
 -4.8493505e-02
 -1.1766504e-02
  2.0636935e+00
  2.8325744e+00
  1.5146853e+00
 -1.7191030e+00
 -4.3200976e-01
  3.0043165e-03
 -1.0182781e-01
 -5.0599259e-01
  1.8664646e+00
 -1.0503505e+00
  7.2665089e-01
 -8.6072236e-01
  6.0129923e-01
  9.1118777e-01
  3.1595528e-02
 -2.0585799e+00
  9.3929505e-01
 -3.5605513e-02
 -2.4537192e-01
 -5.4505348e-01
 -6.6065654e-02
 -1.5104823e-01
 -5.6686353e-02
  4.7334121e-03
  1.0050294e+00
 -6.2936157e-01
 -6.9047548e-02
 -1.5151806e+00
  6.0387999e-01
 -2.1313843e-01
  1.2416649e-01
  1.7825991e+00
 -1.0463912e+00
  4.3625546e-01
 -3.9287154e-02
  1.8158141e+00
  2.0632192e-01
  8.0111504e-02
 -4.5636132e-02
 -1.8095566e-01
 -7.3582858e-01
  7.9851162e-01
  1.0111340e+00
  1.5338118e+00
 -5.2492231e-01
 -9.3630433e-01
  5.0293088e-02
  1.3277228e+00
  5.5556202e-01
  1.3592790e-01
  1.7473009e+00
  6.6852725e-01
 -5.3487611e-01
 -8.2090926e-01
  2.2301683e-02
 -9.4147313e-01
 -1.7411879e+00
  1.8385185e+00
  1.4975830e+00
  1.1229391e+00
 -3.6867896e-01
 -8.7028414e-01
  3.6589075e-02
  7.1265972e-01
  1.0487050e+00
 -4.7088626e-01
 -8.5516465e-01
 -1.5512727e-01
  3.1227565e-01
 -3.4003109e-01
 -3.2893036e-02
  3.6540353e-01
 -1.0977048e+00
  2.5571728e-01
 -1.3707037e-02
 -6.3306683e-01
 -2.7277470e-01
 -6.7148738e-02
 -2.5977530e-02
  2.3081747e-01
  8.9435071e-02
 -1.9937997e+00
 -1.8778318e+00
  1.0472227e+00
  4.6171689e-01
 -1.4321397e-02
  2.4291499e-01
  6.1791754e-01
 -1.7314179e-01
  2.7128121e-01
 -8.6358494e-01
 -2.1413125e-01
 -3.4914408e-02
  2.1236958e-03
  5.4502189e-02
  3.9545316e-01
 -2.9523021e-01
  7.0009500e-02
 -8.8579649e-01
  7.5069916e-01
  1.0798587e-01
 -5.3675291e-03
 -2.2669442e-03
  2.2176256e+00
  1.8625365e+00
 -6.8547022e-01
 -2.5175977e-01
 -5.0780857e-01
 -6.9615161e-01
 -2.4573071e-01
 -1.1543243e-01
  2.4884570e-02
  1.8070018e-02
 -3.6021009e-01
 -2.1919830e+00
  5.9122205e-01
 -1.9616636e-02
 -6.8966867e-03
 -2.9709207e-02
  3.6518243e-01
 -4.8236504e-02
  2.7904972e-02
  3.1374428e-02
  8.0627225e-02
 -6.0419511e-02
 -1.1851059e-02
 -6.1430022e-02
 -4.5266563e-01
 -4.3195510e+00
 -7.9503024e-01
 -5.7521933e-01
 -1.4467557e-01
  3.0171795e-02
  1.1808026e-01
 -4.6255969e-02
 -4.3742085e-01
 -1.4179872e+00
 -1.1125498e+00
 -8.3264184e-01
  1.3752748e+00
  1.4022493e-01
 -1.5534402e+00
 -2.2274245e-02
  3.1211844e-01
  3.7482664e-01
  9.2280018e-01
  6.7221045e-01
 -1.5617987e+00
 -3.0569738e-01
  4.0792271e-02
  4.7481656e-02
  8.8452764e-02
  4.4907171e-01
  1.9155465e+00
 -3.3392456e-01
  2.1749702e-01
 -6.5163958e-01
  6.9960362e-01
 -4.7359467e-03
 -1.0620629e+00
  6.3089305e-01
 -9.0430129e-01
 -1.1512539e-01
  4.8898733e-01
  4.5375326e-01
 -5.5405080e-02
  1.7410469e-03
  1.8897787e-02
  5.4038036e-01
 -3.4372789e-01
 -7.9897121e-02
  1.5614947e+00
 -2.4959196e-01
 -9.8431581e-01
  1.9066182e-03
 -2.8230343e+00
 -2.6334202e-01
 -2.1539891e+00
 -3.2528417e+00
  1.3789297e+00
 -5.0267555e-02
  4.1702490e-02
 -7.5134493e-02
  1.7102191e-01
 -1.1891693e+00
 -8.6742520e-02
 -7.9196972e-01
 -4.2942244e-01
 -1.6118201e+00
 -8.9242019e-02
  3.3016112e-02
  1.7275598e+00
 -1.4612570e+00
  7.5642979e-01
 -2.2313951e-02
  6.8725713e-02
  5.2226288e-03
 -3.0534128e-02
 -1.0497232e-01
 -1.0133181e-01
 -1.5449128e+00
  4.7772300e-01
 -1.2292812e+00
 -6.9762814e-01
 -4.6619800e-01
  6.6393167e-01
 -2.2362402e-01
  1.1606997e+00
 -1.5850444e+00
 -1.4098190e-01
  1.3584942e+00
  1.4135776e+00
  4.2502590e-02
 -1.5083431e-02
 -1.5701354e-01
 -8.2184874e-02
 -5.4371911e-01
  1.8047665e-01
  2.6100740e-01
 -3.2456073e-01
  8.1012726e-01
  5.3329211e-01
 -7.1864873e-02
  6.1614227e-01
 -9.0567827e-01
  9.0839960e-02
  6.2660640e-01
  1.0000070e+00
  2.6487499e-01
  3.8380954e-01
  8.2256250e-02
 -1.4112570e+00
 -8.7613806e-02
 -1.2876874e+00
 -1.1847776e+00
  1.4471073e+00
  1.0728298e+00
 -2.1902456e-04
 -6.2934323e-03
 -4.5016631e-02
 -8.6602730e-01
 -1.2973654e+00
 -1.3434259e+00
  9.0553463e-01
  9.2093134e-01
 -1.9132368e-01
  1.3517189e-01
 -5.4846799e-01
 -3.1377295e-01
 -5.0447634e-03
  1.1486039e-02
  6.0936892e-01
  9.2568852e-02
  1.9109420e-01
 -6.8259925e-02
  6.9059700e-01
  7.4141771e-01
 -1.7342921e-01
 -3.1297648e-01
 -1.5178640e+00
  1.3966554e-01
 -3.6365174e-02
 -5.4891538e-02
 -2.0363727e-01
 -9.9801691e-03
  1.7332762e-02
  1.7815134e-02
 -3.2751399e-01
  3.4978699e-02
  7.6963559e-02
 -3.5524100e-02
 -1.7280838e-01
 -9.3687731e-01
 -6.6320233e-02
  2.7866881e-02
  2.7669728e-02
 -1.6072180e-02
 -1.6424429e-01
  7.4109003e-02
  2.4684659e-01
  3.8034298e-02
  4.8987802e-02
  7.3637702e-02
  1.9612031e-02
 -3.3024183e-01
  1.6466913e-01
 -2.7075237e-02
 -7.3364265e-02
 -1.6557847e-01
  5.0580487e-02
 -4.4375427e-02
 -5.4851866e-01
  1.6512424e-01
 -2.0715658e-01
  2.4239730e-02
 -6.7097382e-03
 -4.6065569e-02
  1.1290378e-01
  1.0916121e-02
 -2.1517975e+00
  5.0385177e-01
  5.5027388e-02
 -3.4201362e-03
 -1.2283829e+00
  2.2716330e-01
  2.9073942e-01
 -2.1571898e-01
  1.6667103e+00
  7.5472623e-01
 -1.0485992e+00
 -3.8836222e-02
 -5.0706613e-01
  1.8877050e-02
  4.5053177e-02
  2.9877882e-02
 -6.1549731e-02
 -6.7757392e-01
  3.4949973e-02
 -2.2450183e-02
 -1.4567994e-01
 -1.0771303e+00
 -1.7384155e-01
 -1.8752279e-02
  5.6923918e-02
 -6.3476958e-03
 -4.0458970e-02
  3.4265044e-01
  1.1231191e+00
 -7.0295244e-02
 -6.4271167e-02
 -6.2433600e-01
  1.0458765e+00
  5.0074231e-02
  9.2923515e-02
  3.6975622e-02
 -2.5251267e-02
  3.1480360e+00
  7.5956756e-01
 -1.8956164e-01
  3.9214812e-02
  8.2430905e-01
 -6.9231220e-02
 -7.7703199e-03
  5.0212309e-02
  5.4386184e-02
 -8.3650500e-02
  1.1231855e-01
 -6.3283396e-01
 -3.2870475e-02
 -1.1253601e-02
 -5.0833044e-03
 -9.0772265e-01
  9.1393757e-01
  1.6712409e-01
  6.9694096e-01
  1.5683330e+00
  6.7708105e-01
 -3.4403887e-01
  7.9003513e-02
 -3.1397760e-01
  2.3620285e-03
 -3.2498750e-03
  3.9754629e-01
 -9.3244821e-01
 -6.8146950e-01
  4.8330843e-01
  3.7563272e-02
  1.6603535e-01
 -1.1257188e+00
 -3.0788687e-01
  7.9674967e-02
  6.6832787e-01
  5.4977112e-02
 -5.5094078e-02
  1.2647302e-01
 -2.5775541e-02
  6.8087429e-02
  2.2382368e-03
  2.8884683e-02
 -8.9498222e-01
 -4.8914587e-01
 -2.0941041e-01
  6.1709415e-02
  1.8148692e-01
 -3.6416767e+00
 -6.7127997e-01
  4.2787362e-02
 -6.6579592e-01
 -6.7087665e-02
  6.4500205e-02
 -5.4398090e-01
  5.3897280e-01
  7.7751404e-01
 -1.8642344e-02
  4.9188006e-01
  3.3241224e-02
 -1.2326194e-01
  4.1196927e-02
  6.3701063e-02
 -4.5367468e-02
 -5.4511809e-01
 -8.5967928e-01
 -9.1117650e-01
 -8.8240546e-01
 -4.1303255e-02
  3.3502478e-02
  3.2517915e-03
  1.2872742e-01
 -1.1600689e-02
  1.1314708e+00
  9.2145666e-02
 -3.7980801e-01
  1.5319025e-02
  1.1514254e-03
 -8.4794454e-02
 -5.6022865e-01
 -4.2764034e+00
 -4.5314294e-01
  1.0707037e-01
  9.1510367e-01
 -1.3960231e-02
  1.7916778e-02
 -1.6504074e-02
  5.2427113e-01
 -1.4667596e+00
 -3.0629368e-02
  2.4507715e-01
  7.2285658e-01
  8.0064209e-03
 -1.2524879e-01
  4.0853149e-03
 -1.1975152e-01
 -6.5560061e-01
 -8.1494641e-01
  8.7744921e-01
 -3.1490493e-01
  8.1105821e-02
 -4.6971146e-02
 -5.3108925e-01
 -5.4733765e-01
  6.5622312e-01
  3.1996604e-02
  1.0987182e-01
 -1.8777913e-01
 -4.7821426e-01
 -4.8274048e-02
  1.1085414e-01
 -9.0937287e-01
  7.3214704e-01
 -1.8602228e+00
 -1.0275482e+00
  7.9756027e-01
  5.6784574e-02
  3.1974938e-02
  9.3283251e-02
  2.5441396e-01
  8.2718171e-02
 -1.5240373e-02
  2.1115939e-01
  1.3448092e+00
  7.5400528e-03
 -7.3194034e-02
 -2.9053446e-02
  2.7264407e-01
  1.4943977e-01
 -1.7475250e+00
  3.3821860e-01
  6.5984121e-03
 -7.7180297e-04
  2.5404107e-02
 -4.5774555e-01
 -2.5203062e-02
  7.0504367e-01
  4.2777345e-02
  5.9009826e-01
 -1.9855325e+00
 -3.2091752e-01
  3.1856033e-03
  1.0006767e-01
  2.3404494e-01
 -2.4045053e-01
  6.1501712e-01
 -1.0097872e+00
  2.6138681e-01
 -5.0037938e-01
 -1.0410551e-02
 -5.7686016e-02
  1.6667882e+00
 -7.1742764e-04
 -6.6924021e-02
 -4.2251546e-02
 -2.3933189e+00
 -2.4716409e-02
 -3.8382709e-02
 -3.4912627e-02
  4.2606112e-01
  3.1611899e-01
  8.7737417e-01
 -1.7591089e+00
  4.0882367e-01
  1.5509875e-01
  1.4853174e-03
  4.3692544e-02
  3.8980064e-01
  6.0122024e-02
 -2.2766415e-02
  6.9237578e-01
 -3.7865408e-03
  3.0574510e-01
 -2.3106255e-02
  4.2668235e-02
 -1.9116863e+00
  6.5200388e-01
 -5.2530777e-01
 -1.2711357e-01
  1.7374203e+00
  1.5554802e-02
 -1.6529486e-02
 -1.3522485e-01
  2.7296895e-01
 -3.5554592e-02
  7.7991769e-02
 -2.7139664e-01
  1.0738198e+00
 -8.7156996e-02
 -4.0228507e-03
 -1.2757098e-02
  7.2524244e-01
  1.6332540e-01
 -4.8441532e-01
  7.5459206e-01
  7.1374840e-01
 -3.7081353e-02
  4.8884951e-02
  8.6983055e-02
  1.5231014e-02
  8.3176184e-01
 -3.0136155e-03
 -2.9859900e-01
 -1.3569478e+00
 -1.2174579e+00
  6.2877524e-01
 -1.9697329e-02
 -3.2678306e-01
 -3.5551733e-01
 -2.2465670e-02
 -2.3757714e-01
 -2.0861675e-01
 -2.5379155e-02
 -1.6471472e+00
 -1.0465896e-02
  2.2902116e-01
  3.0859007e-02
 -1.9366961e-02
 -8.0284573e-02
  2.9333100e-02
 -7.8095239e-01
  5.1179089e-02
  4.5568977e-02
 -3.3090100e-01
  3.5456803e-02
 -7.3267527e-02
 -1.1760724e-01
  8.8688008e-02
 -2.6498584e-02
  1.7123047e-02
 -6.1279517e-02
 -7.5976104e-01
  6.2344748e-01
 -9.4413534e-03
 -5.1380521e-01
 -8.6804557e-01
  8.5074276e-01
  2.8746390e-01
  2.1363044e-02
  2.2084317e-01
  6.5131545e-01
  1.5293738e-01
  1.8183415e-01
 -6.0870212e-01
  5.9906483e-01
  2.5214715e-02
  1.6359588e-02
 -2.3603748e-01
 -4.7409716e-03
 -4.3851856e-02
 -9.1397963e-02
  2.7910691e-01
 -1.2821008e-01
 -2.7282065e-02
 -2.4950132e-02
 -4.0889606e-01
 -7.4802303e-01
 -1.2159754e-01
 -6.6556507e-01
 -1.7305033e-01
  1.2482412e-02
 -9.4649568e-02
  1.2807370e-02
  7.7089137e-01
  2.9616600e-01
  1.2989628e-02
 -1.3657059e-01
 -4.7911927e-02
 -6.7588333e-03
  3.0940261e-01
 -3.7046031e-03
 -1.2016520e-01
 -7.6069891e-01
 -1.5416037e-01
 -2.1350169e+00
  2.8986985e-02
 -6.9654086e-03
  5.4071419e-02
  9.0962850e-02
 -2.2519071e-01
  2.3134363e-01
 -1.9819330e-02
 -3.7130967e-01
 -1.3344128e+00
  3.4770548e-02
  6.7567755e-03
  4.6875764e-02
  1.2126524e+00
 -1.4624833e+00
  3.9137793e-01
  5.6958514e-01
 -6.6672206e-01
  4.9032325e-01
  1.1216464e-02
 -4.5453649e-02
 -1.2071855e-01
  3.6153218e-03
 -4.8590980e-02
  2.1760911e-03
 -3.1883919e-01
  7.2812796e-02
  4.9957144e-01
 -2.3734007e-02
 -4.7526300e-01
  6.5223122e-01
 -5.0394386e-02
 -1.4076249e-01
  5.5788056e-04
  3.8657781e-01
 -9.4900224e-03
  2.0905953e-02
 -6.2136781e-01
  9.5073092e-01
  5.9168402e-02
 -2.2639973e-01
 -5.3335166e-01
  4.0147334e-01
  1.5877913e-01
 -4.1431591e-02
 -1.5134854e+00
  8.4687692e-01
 -3.9194476e-02
  3.9015034e-01
 -1.3558117e-01
 -3.6419284e-02
  1.8832901e-02
  3.0394781e-01
  1.3363644e+00
 -1.3470754e-01
 -7.8509592e-02
  4.5309968e-02
 -9.2280293e-01
  2.9578897e-01
  3.1394991e-01
  2.4087947e-02
 -7.2114736e-02
  1.0170923e+00
  4.0936634e-01
 -2.5849123e+00
  3.1136820e-01
  9.8542482e-02
 -1.2404824e-01
 -1.3025212e+00
  9.4498104e-01
  9.7813845e-02
  6.1407272e-02
  2.0995696e+00
  9.1512132e-01
  9.1930163e-01
  1.1624380e+00
  3.8144138e-02
  4.6311218e-01
 -6.2076074e-01
 -5.2126307e-02
 -1.9640831e-02
  8.1683487e-02
 -2.5891958e-02
 -4.0640733e-03
  1.5789339e-02
  4.7436450e-02
 -2.4178883e-02
  1.1690800e-02
 -6.5692544e-02
  3.6226645e-02
  4.6975948e-02
  8.1331834e-02
 -2.5050551e-02
 -3.0906039e-01
 -2.1854613e-02
 -5.0749052e-02
 -5.0351655e-01
 -6.0781300e-01
 -1.5099235e-01
 -7.0007396e-01
 -1.5542497e-01
 -1.3121177e+00
 -1.0709817e-01
  3.6848295e-02
  4.7701243e-01
 -7.8614479e-01
 -5.1643842e-01
  3.0228356e-01
 -2.7974723e-02
 -1.7124971e+00
  8.0893533e-03
  8.0223205e-03
 -4.6498215e-01
  1.8759319e+00
 -3.7604302e-02
  1.4570795e-02
  3.2815537e-01
 -2.1606207e-01
  1.7905031e+00
 -1.0845058e-01
  2.5036970e-02
 -7.8115761e-02
  1.4910089e+00
  5.0549978e-01
  1.8025193e-02
 -4.9654841e-01
  5.9633774e-01
 -7.5447398e-01
 -1.6160856e+00
 -2.7733762e+00
  2.7418181e-01
 -1.2040152e-01
 -2.0275235e-02
 -1.5185831e-02
  2.8523889e-01
 -2.1869908e-03
  1.1518019e-01
  7.0633702e-02
 -1.8779111e-01
 -1.0417039e-02
  6.7899600e-03
 -8.4398633e-01
 -8.8961639e-02
 -4.9503958e-01
 -5.1653560e-02
  1.2394331e-02
 -1.0842193e-01
 -4.3488201e-04
 -7.1140178e-03
  9.0093970e-01
 -1.2649482e-01
  3.9513512e-03
  1.0700703e+00
 -1.3767998e+00
 -8.2279032e-01
  1.1993932e+00
 -9.6858881e-02
 -1.2823843e+00
 -2.0531563e-01
 -9.5100236e-01
  5.5077803e-01
 -1.1222514e-01
 -7.6739705e-01
 -2.4083562e-02
  7.5372465e-02
  1.7106185e+00
  1.0896554e+00
 -6.6788644e-02
 -1.3595545e-01
  2.2610174e-01
  1.1717088e+00
 -2.8323060e-01
 -5.1646352e-02
 -5.2387291e-01
 -3.9739308e-01
  1.1611657e-01
 -1.2336596e-01
 -1.1993473e+00
 -5.2954376e-01
 -3.7193865e-01
 -1.9439749e-01
  8.7014848e-01
 -9.5251459e-01
 -4.5145463e-02
  1.4986291e+00
  2.9963300e-01
  3.5739779e-01
  9.5017803e-01
 -3.2417275e-02
 -3.1672761e-01
 -2.3562405e-03
  1.7193125e-01
  4.3285326e-03
  1.3409231e+00
 -3.6019631e-02
 -8.9874528e-03
  2.5427051e-02
  1.5717654e-01
 -2.2600882e-01
  7.9506449e-03
 -4.7252607e-02
  2.9885596e-02
 -7.9768091e-02
  3.1601186e-03
 -8.0808699e-02
 -5.8765632e-01
 -1.2209072e-01
  1.4149746e-01
 -3.6308652e-01
  1.2009928e+00
 -6.1275536e-01
  1.1196342e+00
  7.6890147e-01
 -1.0549320e-01
 -2.0347970e-02
 -2.2773559e-01
 -2.2175327e-02
  4.1475806e-01
 -1.3269891e+00
 -4.8186738e-02
  9.4161697e-02
  1.2130686e+00
  1.5192534e+00
  3.5122386e-01
 -5.7184976e-01
  1.5939154e-01
  1.9175774e-01
 -4.0695764e-02
 -9.9923704e-03
 -7.6548518e-03
 -4.4707488e-02
 -1.8414430e-02
 -4.5607783e-02
  1.2154938e-01
 -1.9273829e-02
 -2.7575297e-02
 -1.1578646e-01
  3.9134029e-01
 -1.5316979e+00
 -4.0094092e-01
 -3.1040895e+00
  2.7604833e-01
 -3.9691962e-02
  4.2764250e-02
 -4.5258634e-02
 -1.0988183e+00
 -1.0992900e-01
 -6.8614120e-04
 -2.3676189e-02
 -3.8292244e-02
 -8.3566211e-02
 -9.2822142e-02
  1.3207132e-01
 -3.4944007e-01
  7.2606921e-01
 -5.2400130e-01
 -1.4625267e+00
 -3.1095034e-01
  4.0385416e-01
  7.4768919e-01
  1.3258959e+00
 -1.0881857e+00
  8.4359847e-02
 -5.9353147e-02
 -4.4785507e-02
  1.0438335e+00
 -1.1349831e-01
  6.8940029e-02
 -9.5054165e-02
  5.3302038e-01
 -2.6612175e-01
 -8.5863692e-01
  9.9636286e-01
 -1.4510401e+00
  1.9134279e-01
 -5.5985995e-02
  1.6229950e-02
 -4.2100838e-01
 -5.8391780e-02
 -1.9529313e-02
 -2.3882855e-02
  1.0111689e-02
 -2.9261956e-01
 -1.2161459e-02
  4.5743898e-02
  1.3935368e+00
 -7.5185865e-01
 -3.4908262e-01
 -1.9546899e+00
 -9.6116066e-01
 -8.1642056e-01
  2.1923573e+00
  3.3529216e-01
  1.0486326e-01
  1.1100329e-01
 -3.4408584e-02
 -4.2054458e-03
  1.4934653e-01
  2.3764490e-01
  3.7213489e-02
 -2.5400960e-01
  8.4531921e-01
 -8.1940413e-01
  2.1982980e+00
  2.2408147e+00
 -3.9100888e-01
  1.7243012e+00
  4.6496493e-01
  3.0622858e-01
 -2.4745464e-02
 -7.8756502e-03
  1.6121106e-02
 -2.2383029e-02
  8.0430359e-01
  5.1915094e-02
  1.1484279e-02
 -2.8716121e-02
  2.9428276e-01
 -2.0558778e-02
 -2.1485376e+00
  5.0869209e-01
 -6.0852438e-01
  1.8298774e+00
 -4.2417291e-01
  8.6041719e-02
  2.0835152e-02
  2.0958455e-01
 -5.6981344e-02
 -1.1092335e-01
  2.7211130e-02
  9.1675919e-01
  2.2871269e-02
  5.2609302e-02
  5.2278733e-01
  1.2517078e-02
 -2.3621290e+00
 -2.1129708e+00
  1.1598377e-01
  1.0887436e+00
  5.2106434e-01
  8.7943971e-01
 -3.5161954e-01
  2.9269555e-01
  1.1951185e-02
  2.5063802e-02
 -1.0879860e+00
  2.1144740e-01
 -3.6167629e-02
 -8.9196876e-02
 -8.9122586e-02
  8.7932564e-02
 -5.5296206e-01
  4.4926637e-01
  6.3660997e-01
  4.9651079e-02
  4.9651079e-02
  4.9651079e-02
  4.9651079e-02
  4.9651079e-02
  1.8096660e-01
  1.8096660e-01
  1.8096660e-01
  1.8096660e-01
  1.8096660e-01
  7.6547131e-02
  7.6547131e-02
  7.6547131e-02
  7.6547131e-02
  7.6547131e-02
  4.6038996e-02
  4.6038996e-02
  4.6038996e-02
  4.6038996e-02
  4.6038996e-02
  1.6284093e-02
  1.6284093e-02
  1.6284093e-02
  1.6284093e-02
  1.6284093e-02
  7.4615687e-02
  7.4615687e-02
  7.4615687e-02
  7.4615687e-02
  7.4615687e-02
