nep4 4 Li La Zr O 
cutoff 6 4 98 30
n_max 4 4
basis_size 8 8
l_max 4 2 0
ANN 30 0
  5.4486018e-02
 -6.5631829e-02
  2.5331703e-01
 -1.5029166e+00
 -1.4283973e+00
 -2.0437917e-02
 -2.1749451e-03
  5.5206819e-03
 -1.7710428e-01
 -2.5630262e-02
  8.7454738e-03
 -2.4961609e-01
  3.6253538e-02
  3.7613264e-03
 -1.8424261e-02
  1.9321647e-02
 -2.0275587e-01
 -1.5703839e-01
  2.4821670e-03
  5.5170678e-02
  2.6767200e-03
 -1.4259349e-01
 -2.6216233e-04
 -5.7712900e-03
 -7.8732928e-04
  2.2249550e-03
  1.0153515e-06
  3.3133063e-02
 -1.6483346e-03
 -1.7232990e-03
  1.2659673e-01
 -6.9691658e-01
 -8.1545085e-01
  5.9708321e-01
 -7.6224476e-02
 -1.5605765e-02
 -5.2267551e-02
  1.4735104e-01
  5.0806340e-02
  1.7329471e-02
  3.1776566e-04
 -1.8936239e-01
  3.3080265e-01
  2.1156555e-02
 -1.5172802e-03
  5.7150340e-01
 -1.6801165e-01
  1.0008486e-01
  2.3788016e-03
  4.1496414e-03
  1.1485460e-02
  1.8269372e-01
  1.5207124e-02
  1.1939055e+00
 -6.2783971e-02
 -1.0200781e-02
 -9.3163596e-03
  3.5611112e-02
 -2.2195778e-03
 -5.9373485e-04
  5.5830623e-03
  3.0273095e-01
  1.9359309e-02
 -2.3104632e-01
  1.3140507e+00
 -2.3692134e-03
 -1.1953030e-03
 -6.4027689e-02
  1.4998611e-03
 -1.4617320e-03
  5.0576380e-03
 -3.5631940e-02
 -1.8883409e-02
 -2.3012692e-03
 -5.2301227e-03
  9.6991722e-04
 -7.0371572e-03
  1.0317940e-03
  1.8578245e-03
 -7.1478195e-02
  4.7347057e-03
 -2.3818291e-03
 -2.8046905e-03
  5.6003560e-03
  1.7014101e-02
 -1.9280948e-03
 -3.7864596e-03
 -4.2110151e-03
  6.6470108e-03
 -3.0979684e-03
 -6.6052601e-02
  8.4435061e-02
 -1.0041051e-01
 -5.6960475e-01
 -8.4021568e-01
  4.0667407e-02
  1.9646671e-02
 -1.1665933e-01
 -3.7868075e-02
 -8.4814411e-03
  6.6995705e-03
 -1.0202092e-01
  1.0925394e-01
  1.2877344e-02
 -2.5405750e-02
  4.3004373e-01
  7.1858622e-02
  5.3273984e-03
  7.6820239e-02
  1.3479661e-02
 -2.3072131e-01
  1.1807813e-01
  2.1736538e-02
  5.2907411e-03
  7.4629351e-02
  4.9227389e-04
 -2.7682108e-03
 -1.8951391e-01
 -3.8988700e-03
 -2.8155819e-03
 -3.5875619e-03
 -1.6632943e+00
  4.1545107e-05
  1.4027481e-02
 -3.8451890e-03
 -4.2956114e-01
 -1.7510446e-02
 -7.2861197e-03
  7.5314037e-04
 -3.9010119e-02
 -1.1449226e-03
  8.9652911e-03
  1.4342818e-01
 -2.3573506e-01
  1.4329430e-03
  3.1692052e-01
 -4.3113502e-03
 -1.9027943e-03
  2.5150841e-02
  8.2874231e-02
 -5.5227038e-03
 -1.4690661e-02
 -2.6379938e-03
  2.1799375e-01
  6.1956095e-03
 -1.1487451e+00
  4.0762536e-03
  5.0710067e-03
 -1.9917993e-03
 -1.7717142e-03
  9.6413968e-03
  3.2271567e-04
 -9.8599179e-04
  1.1747625e-01
  8.1856446e-03
  2.8990069e-02
 -5.5919266e-03
 -3.9718425e-01
  9.7214215e-04
  4.7097560e-03
  9.1674072e-01
 -3.0672658e-04
  1.7299749e-04
  2.5429418e-03
 -8.1734089e-03
  6.1824541e-03
  1.6956644e-02
  1.2231950e-03
  5.5071944e-03
 -1.7371874e-04
  4.9276198e-03
 -2.3065975e-03
  2.1527435e-03
  2.6224002e-03
 -1.1420576e-02
 -4.2904969e-03
 -1.1971354e-03
 -1.7519067e-03
  5.2456055e-03
 -4.2564794e-03
  3.3707935e-03
 -6.3437283e-01
  6.4611027e-04
  1.1895082e-01
 -9.0283900e-01
 -2.5283208e-03
 -1.4061436e-02
  6.8720547e-03
 -4.4646030e-03
  2.0146368e-03
  4.5817653e-03
 -2.4051152e-02
  2.3759830e-01
  2.3451175e-03
  1.7393170e-03
 -3.2348372e-03
 -2.1197867e-02
  4.1841511e-02
  1.2883303e-03
 -6.5011613e-02
 -1.2302338e-01
 -3.7092779e-02
  7.6399012e-03
 -2.3785605e-01
 -1.1022534e-02
 -1.8400794e-03
  5.6533393e-04
  3.3578330e-03
  1.8812293e-03
  4.5249317e-02
  1.9119778e-01
  3.0605501e-01
  2.7011257e-02
  4.0433952e-01
  2.3426101e-01
 -3.3253321e-01
 -4.9990462e-03
  1.7776160e-01
  1.7578875e-01
  8.4740566e-03
  1.4232982e-02
 -2.8699530e-02
  5.0180491e-02
  5.1776501e-03
 -1.5724570e+00
 -2.8084093e-01
 -8.5346073e-01
  2.0563133e-01
  4.2799216e-02
 -5.3294349e-02
 -6.6280238e-02
 -3.3775908e-01
 -1.2541005e-01
 -1.7636839e-03
 -3.4633752e-02
  7.9982597e-03
 -1.8681064e-02
 -9.8123050e-01
  4.5547420e-03
  8.1098825e-02
  1.1162637e-01
 -8.8607889e-01
 -3.8240306e-02
  7.9270464e-04
 -1.8553071e-01
 -7.4161746e-04
  6.0502929e-03
  7.5010175e-04
  8.0949256e-05
  1.0938175e-02
 -4.1825202e-04
  2.7064867e-03
 -1.0668400e-02
 -5.1956260e-05
  3.4680739e-03
 -4.6191602e-03
  1.2736434e+00
 -4.9214199e-04
  5.1725595e-03
 -1.0647354e+00
 -1.9182174e-02
 -1.1249693e-02
  1.6492818e-02
  2.9462446e-03
 -1.9037561e-01
  7.3996303e-03
  1.4508029e-02
  1.8372633e-03
  7.1801539e-03
 -1.1079175e-03
 -1.1563789e-02
 -2.8271560e-02
 -2.0458733e-03
  2.8233398e-03
 -2.9681864e-01
  1.2883857e-02
 -9.7392982e-01
 -2.6870422e-02
  2.4243908e-03
  3.8596811e-03
 -2.5229939e-04
  8.9146301e-02
 -7.0238844e-03
 -5.7381613e-04
  5.7360247e-02
  1.0764388e-03
  1.0968202e-01
 -7.3539657e-03
  1.5977426e-02
  3.7453467e-01
 -8.0421008e-03
  8.1488140e-02
  2.0339808e-03
  1.6889110e-02
  2.5014129e-02
  1.9795133e-03
  1.7478611e-01
 -1.1333816e-03
  9.2226360e-03
 -4.8633283e-03
 -1.4762609e-03
 -2.0221171e-03
  3.3937074e-04
  8.7543757e-04
 -1.6215502e-03
  5.4332158e-03
  7.8489613e-03
 -6.6227478e-04
  2.2818537e-04
  4.8266873e-01
 -1.8406156e-03
  8.5682776e-03
 -3.7060485e-03
 -3.1370080e-01
  3.0482013e-03
  2.0088481e-04
  8.9047872e-04
  6.2280870e-03
  8.6742046e-05
  2.4292567e-03
 -1.2720574e-03
  3.8342695e-03
 -6.8399105e-03
 -9.6431334e-04
  2.2548665e-03
 -8.4604956e-03
  7.4695144e-04
  2.1729176e-03
  1.8636798e-02
  3.8667147e-03
 -1.5484837e-03
 -2.4729129e-03
  3.2234804e-03
 -1.1433121e-03
  4.5450591e-03
  2.4574113e-03
 -3.9832816e-02
 -8.8499701e-03
 -4.8787083e-04
  6.8679503e-03
 -2.4827914e-03
  5.2177563e-02
 -2.6980659e-03
  1.6566101e-02
 -5.6853588e-03
  2.8021806e-05
 -5.0967280e-03
  1.8324096e-03
  3.4419724e-04
  8.7361382e-03
 -2.1336754e-03
  3.6506762e-03
 -3.1574856e-02
 -5.7431875e-04
  6.3930554e-03
  2.6133172e-03
 -1.4279646e-04
 -1.7823412e-03
  4.0467299e-04
  3.1978034e-03
  4.5721559e-03
 -1.2434810e-01
 -1.6267970e-02
 -8.0012167e-03
 -2.2097807e-03
  6.1875707e-03
 -7.5845341e-03
  4.8996496e-04
  6.1141007e-02
 -2.0737027e-01
 -1.0764540e-01
 -3.7578039e-02
  1.1256659e-02
  1.9045275e-02
 -5.8425358e-04
 -7.7377758e-03
 -4.9212291e-03
  1.4212051e-01
  4.9702581e-02
 -3.0082816e-02
 -9.0764612e-03
 -6.6747151e-02
 -3.4497220e-02
 -7.4915057e-03
 -1.8322245e-03
  6.3302862e-03
  1.4330272e-03
 -1.5911404e-03
 -6.7059314e-03
  6.3888705e-03
 -1.4635594e-02
 -4.0473752e-03
 -1.5067944e-01
  7.0608366e-01
  4.8419169e-01
 -6.0528661e-03
  4.4649658e-03
  2.2182669e-02
  1.6721077e-02
 -7.6440661e-03
 -3.0949065e-01
 -5.1976323e-02
  2.9909750e-04
 -8.7589351e-03
 -5.8670468e-03
 -1.2699350e-03
 -8.2078993e-02
  3.8201064e-01
  2.1059214e-04
  6.3646701e-03
  1.2794166e+00
 -1.5247621e-02
  1.1067003e-02
  2.7186691e-03
  8.0476013e-05
  1.5683774e-03
  1.8379854e-03
 -4.0696356e-03
  2.0597000e-03
  9.8983599e-03
 -4.4868365e-03
  6.9814371e-03
  3.4871250e-02
 -8.2023971e-02
 -2.6940906e-01
 -6.7599030e-04
  1.2581628e-02
 -1.2724096e-02
  8.7172668e-03
  9.8429201e-03
 -6.9178082e-03
  2.8113560e-03
 -6.5552182e-03
  4.7508320e-03
 -9.7450670e-03
  2.2285967e-03
 -1.2926212e-02
 -7.3386808e-03
  2.6896869e-05
 -2.3858300e-03
 -4.2028534e-03
  3.7484448e+00
  3.1482058e-03
 -6.5124249e-03
 -6.4942278e-03
 -9.1478661e-02
 -6.9103288e-03
 -2.8576194e-03
 -8.8092980e-05
 -2.2981218e-03
 -3.9601554e-03
  2.4908400e-01
  3.8943810e-03
 -1.0940102e-03
 -1.0720378e-01
  2.1452985e-03
  8.2674520e-03
 -9.2899483e-03
 -1.0259388e-02
  3.7447461e-03
 -7.9466746e-04
 -2.1464829e-04
 -3.1356961e-02
  4.4976231e-03
 -3.0081221e-03
  1.5950477e-02
  1.0416670e+00
 -4.2222245e-03
 -2.2694196e-04
  3.3318924e-03
 -9.5568970e-04
 -2.9539492e-03
  6.5837489e-03
 -6.6630221e-03
  2.1451844e-02
 -3.9231773e-03
  4.1477922e-03
 -1.5660236e-02
  4.5707412e-03
 -1.9397461e-03
  2.8695362e-03
 -1.0992655e-02
 -3.3595663e-04
  1.0103623e-02
 -1.1836140e-03
  3.2747191e-04
 -4.7568595e-03
 -1.6829898e-03
 -7.6607247e-03
 -4.3853726e-03
  6.7278217e-03
  3.0445172e-03
 -2.2081406e-04
 -1.5607040e-04
 -9.8322719e-02
 -1.9976166e-03
  9.8871486e-03
 -4.8680175e-03
 -3.5485018e-03
  1.0930222e-02
  7.8448374e-03
  9.2651173e-03
 -3.6634819e-03
 -2.0357583e-01
 -1.7254523e-03
 -1.9077773e-03
 -8.6750439e-04
 -1.5202282e-03
  6.9611804e-03
 -9.4203424e-04
  6.6468143e-03
  9.2119044e-01
  3.5035300e-01
  4.5001499e-02
  2.1087267e-03
  1.0331246e-02
  6.6213793e-04
  5.1252043e-01
 -6.4606597e-03
  3.0710805e-02
  3.3333183e-03
  7.8865001e-03
 -2.2079593e-01
 -2.0004548e-02
  9.8398677e-04
 -5.9108394e-03
 -1.8432542e-03
  2.0529765e-01
 -2.2524839e-02
  2.5773020e-02
  1.6538090e-03
  6.8725511e-03
 -3.1392598e-03
 -5.7446174e-02
  1.1233133e-02
 -8.6235598e-02
 -2.6140976e-01
 -1.3352524e-03
 -4.9470095e-03
 -3.0203490e-04
 -9.7802413e-01
  9.1644801e-02
  7.6571667e-01
 -1.2189014e+00
  2.7252188e-01
 -1.0898697e-01
 -6.4323903e-03
  5.0566099e-03
 -5.5213320e-01
 -2.2421791e-06
  6.9593848e-03
 -4.8691258e-01
  1.1907227e-01
 -5.0642061e-01
 -2.2103204e-03
 -1.1672660e-02
 -7.3359728e-01
 -5.6106917e-04
 -3.8881376e-01
  9.9413795e-04
 -1.0753235e+00
 -2.8576678e-01
 -1.4870840e-01
 -4.8574004e-01
 -6.8736649e-03
 -1.1709287e-03
  3.5679841e-03
 -7.4289115e-03
 -1.3699555e-02
  1.2552322e-02
  3.1566927e-03
  7.5986888e-04
  2.7564992e-03
 -2.6825971e-03
 -1.4935412e-02
 -3.9427541e-04
  5.2491608e-03
 -7.6815067e-03
 -2.2209703e-03
  1.1099465e-04
 -7.1370602e-03
  3.4699484e-04
 -3.2911785e-03
  3.4653526e-03
 -8.8003837e-04
 -7.0641784e-04
  2.4921607e-04
  1.6783917e-03
  3.4741516e-04
 -1.0241209e-02
  1.8185456e-03
  4.9454658e-03
  6.0146246e-03
  1.1203123e-03
  1.6357536e-04
 -3.5260012e-03
  3.3168118e-02
 -7.9809316e-03
 -3.6210145e-03
 -4.9492748e-05
 -4.5467233e-03
  2.7894032e-01
  1.8649338e-03
  8.8842344e-03
  8.1590272e-02
  5.0694954e-02
  1.8333826e-02
 -3.0946583e-01
 -3.1933863e-02
  3.5716895e-02
  3.0928908e-02
  1.3583508e-01
  2.2704311e-02
  3.7086520e-03
  6.2531983e-03
 -5.4042634e-02
  2.1584306e-03
 -3.8133103e-02
 -2.9025471e-02
  3.4565885e-02
  9.9234609e-04
  1.6362516e-02
 -3.5294858e-04
  2.9750736e-03
  2.4493318e-02
 -1.4031584e-02
  1.4766648e-02
 -1.6009804e-03
 -5.7796077e-03
 -2.5905638e-03
  3.5318092e-03
  2.1905291e-03
 -1.5451581e-03
 -9.9446867e-03
 -8.9883678e-02
  2.3273985e-04
 -1.1062244e-02
 -5.8056379e-04
 -4.0216236e-03
  2.4447434e-03
  8.0470653e-04
  3.9026314e-01
  2.8222299e-03
 -9.5272687e-04
 -4.1839655e-04
  2.9903758e-01
  1.1187988e-02
 -2.2290859e-03
 -2.0674894e-02
  3.8948350e-03
  2.1479016e-03
  6.8363984e-04
 -2.4475483e-03
  1.9686155e-04
  9.7100349e-04
 -2.4426267e-02
  4.7317124e-04
  3.8741934e-04
 -1.3633737e-02
 -2.8000453e-03
 -1.8781140e-01
  5.3917366e-01
  1.1184871e+00
 -3.6456454e-01
 -1.1613299e+00
  6.5276545e-01
  6.1360425e-01
 -1.3506725e-01
 -4.7802269e-02
  2.9566050e-01
 -5.3633399e-02
  9.0217924e-01
 -3.1243053e-01
  3.4327889e-03
  4.7985473e-01
 -2.3841245e-01
  5.5517828e-01
 -5.8948439e-01
  3.2756555e-01
  8.5068041e-01
 -7.4103072e-02
  5.1076615e-01
 -1.3059232e+00
  6.9273543e-01
  5.3070617e-01
 -6.8426199e-02
  9.0513580e-02
 -5.5551552e-03
  1.5257502e-01
 -8.5096918e-03
 -5.3025633e-01
 -1.0996605e+00
 -2.9470181e-01
 -2.3209131e-01
  6.3408160e-01
 -1.6518766e-01
 -1.8371348e-01
 -3.6301941e-03
  2.2048758e-02
 -4.8037961e-02
 -8.0790010e-04
 -4.7749467e-02
  1.0634252e-01
  1.2678631e-01
 -3.9757390e-02
  9.0033142e-03
 -2.0988274e-01
  1.1377051e-01
  1.8507737e-03
 -4.3160580e-03
  5.9588134e-01
 -1.4957343e-01
 -3.3570693e-03
 -1.7890346e-03
 -5.7547018e-02
  6.1048567e-03
  6.5689284e-04
  1.0586538e-02
 -4.1958272e-02
  2.2777699e-02
 -5.9658356e-02
  1.7322111e-01
  6.7645118e-02
 -2.9258889e-01
  1.8028039e+00
 -1.9121491e-03
 -1.2229653e-01
  2.6985848e-01
  1.6152153e-02
 -2.1106666e-03
  2.4950777e-03
 -8.6835392e-02
  9.9895455e-02
  1.7793808e-04
  4.3631159e-02
  1.6054268e-03
 -6.1307300e-02
  3.9630941e-01
  1.8311912e-03
 -4.9993739e-04
 -8.5723273e-02
 -4.7883713e-01
  1.2977292e-01
  1.4344356e-02
 -9.0881187e-04
 -1.1511650e-03
  1.5125618e-02
  1.7281953e-02
 -2.6472175e-04
  8.3785262e-03
 -2.1152453e-01
 -2.7263906e-02
  1.8769731e-03
  6.8679004e-04
  3.6457265e-03
 -1.8565727e-03
  6.7158598e-03
  2.8223144e-02
 -6.4256298e-03
 -5.3129084e-03
 -1.5438696e-02
  6.9427616e-03
 -1.2661020e-03
 -2.5051637e-03
  1.1754065e-03
 -2.5584281e-03
  1.1942796e-03
  3.1154514e-03
  6.5476662e-03
  2.2304766e-03
  1.5622093e-03
  9.1714161e-03
  2.8284242e-02
  7.9931375e-03
 -4.5328634e-03
  3.2639764e-03
  4.7471230e-03
 -4.1701845e-03
  1.1552820e-02
  3.5065487e-03
  5.2761422e-03
 -1.5307319e-03
 -3.0593912e-03
  3.2878739e-03
 -1.2647833e-03
  2.7074793e-03
 -4.6450254e-03
  1.9610930e-02
 -9.3111256e-03
  1.2360701e-03
  1.4778294e-03
 -6.6339085e-03
  7.4967961e-03
 -1.2944170e-03
  2.3398565e-03
 -8.5485717e-03
 -3.0068473e-03
 -1.8968258e-02
 -5.7231155e-03
  2.8707080e-03
 -4.5544617e-03
  7.6901782e-03
 -3.5342148e-03
 -1.0007284e-02
 -7.7646454e-03
  5.1661353e-03
  3.8378504e-03
  6.1036753e-03
 -5.0147460e-03
 -1.2171547e-03
  3.3778235e-01
 -9.5721439e-02
 -3.1364059e-01
  6.1819166e-01
  1.6677830e-01
 -1.9136982e-01
 -5.0718707e-01
  4.7022298e-02
 -4.3957680e-01
 -4.1299877e-01
  7.2663202e-04
 -4.4720525e-01
 -3.3434484e-02
 -2.4622008e-01
 -2.0470240e-03
  2.3688374e-01
 -3.6706561e-01
  7.9940540e-01
  2.2128288e-01
 -3.2843709e-02
  3.1540185e-01
 -2.7634463e-01
  1.0752711e-01
 -4.4886515e-01
 -2.6024604e-01
  2.4915637e-02
  4.8949290e-03
  1.7674106e-01
 -2.6309994e-01
 -9.5433876e-04
  2.0345183e-02
  1.5553688e-01
  3.8268398e-02
 -1.9721647e-01
  1.1293401e-01
  2.9677847e-01
  5.9070494e-02
 -1.1413060e-01
 -1.9253054e-01
  2.6227656e-01
  2.8739002e-01
  1.1102619e-01
 -3.9681679e-01
 -2.7273762e-01
  1.9504575e-02
 -1.1815294e-02
  3.7136093e-02
 -6.1005168e-02
 -1.2195396e-01
  5.0503081e-01
 -2.8732207e-02
  1.4464034e-01
  1.4921602e-02
  5.5362754e-02
  4.9768546e-01
 -5.3444323e-03
  1.1810977e-02
 -3.6685553e-01
  7.6782450e-02
 -3.6818243e-03
 -3.0232230e-03
 -5.5443492e-02
 -3.5652569e-01
 -8.8512227e-03
 -4.1344156e-03
  2.7169089e-03
 -1.0515692e-02
  8.2127536e-03
 -4.7426365e-04
 -4.2959701e-04
  2.4206438e-03
 -3.0289271e-03
 -3.3116096e-03
  1.5318649e-02
 -2.7683846e-04
 -2.2557166e-03
  1.0136878e-03
 -2.3958697e-03
  9.9192616e-03
  9.8657841e-03
  9.0428302e-03
  8.3059643e-04
  5.4124373e-01
  1.3429936e+00
 -2.8124782e-03
  7.9997946e-03
  2.6225217e-03
  1.0861689e-03
 -3.5675832e-03
  9.7553956e-04
  3.7622163e-01
  2.2360390e-01
 -1.1734736e+00
  3.6044199e-02
  2.7259644e-02
  9.6363410e-02
  8.3371693e-01
  8.1010282e-01
 -6.3970327e-02
 -2.4417934e-01
  4.4655623e-03
  5.1576745e-02
  3.2306865e-03
 -6.7182195e-01
  7.5366087e-02
 -6.1149113e-02
  5.9618657e-03
  4.1732305e-01
 -3.1177087e+00
  1.9650138e-04
 -2.9323695e-02
  6.1486280e-03
  1.2356741e+00
 -1.0125710e+00
 -1.0535542e+00
  5.1361225e-03
  2.7874054e-03
  2.7717428e-02
 -1.7419679e-01
  5.7303472e-03
 -2.4211693e-01
 -6.5610927e-01
  2.0755610e-01
  4.4927138e-01
 -1.0357755e-01
  7.4734967e-03
 -1.7080383e-01
 -1.2060782e+00
 -2.2397414e-01
  3.6778572e-01
  8.9981835e-03
  2.4559831e-03
 -2.0391589e-01
 -1.9462407e-01
  6.3645601e-02
  1.1290576e-01
  3.5228974e-03
  2.5431648e-01
 -3.0047494e-01
  2.1966840e-03
  2.5313377e-01
  1.2641116e-02
  6.1846095e-01
 -3.7446722e-01
 -1.1331795e+00
 -2.3297779e-03
  2.0515399e-02
 -5.5630243e-01
  5.7749504e-01
 -1.0489151e-01
  4.7251847e-01
 -1.0588419e+00
  1.8716878e+00
  1.2123685e+00
 -7.8760004e-01
 -5.1346272e-03
 -5.4708548e-04
  2.3426239e-01
 -3.3285186e-01
  6.8480987e-04
  2.1714605e-03
  6.3567040e-03
  7.8618568e-01
 -1.2939565e+00
 -2.2866763e-03
  3.4595180e-01
 -1.5718098e-03
  9.8663974e-01
 -5.2274287e-01
  1.0094290e-03
  2.9001462e-01
 -1.1366770e-03
  8.5194677e-01
  4.1676041e-01
 -1.5921934e-03
 -3.0065968e-03
 -2.9952289e-04
  2.0972840e-02
  3.1916210e-01
 -2.7519888e-03
  2.4399802e-03
  1.6820282e+00
 -7.0636904e-01
 -1.1342958e+00
 -1.1043603e+00
  6.9630748e-01
  7.4056491e-02
 -1.7946502e+00
  6.4304821e-02
  1.2770534e-03
  1.2648349e-01
  2.9830981e-02
 -2.8553626e-01
  4.4156015e-01
  5.2025295e-03
 -2.1698765e-02
 -6.6107704e-04
 -4.5792225e-01
  9.3318075e-01
  2.1184725e-03
 -9.6231237e-02
  4.6788142e-03
  6.1024777e-03
  7.6473033e-01
 -2.5135309e-03
  2.5675260e-03
  5.1678210e-03
 -5.4122768e-02
 -1.6752757e-01
 -9.4303545e-03
 -2.6321763e-01
 -1.3405737e-01
 -3.4032919e-02
 -2.4944679e-01
 -4.4292238e-01
  1.1632091e-01
  8.1623799e-01
 -1.1839547e+00
  2.4078015e-02
  1.2819351e+00
  6.5345332e-02
  8.3173114e-01
  9.8295055e-02
 -7.9174775e-01
  3.4298052e-03
 -4.3234728e-02
  3.1688505e-01
  1.3301167e-01
 -5.0179487e-01
  6.3282610e-03
 -5.4145295e-02
  6.9200352e-02
  5.1689979e-02
 -7.3510647e-01
  3.3073931e-03
 -1.1076397e-02
 -5.6784526e-03
 -6.6630165e-03
 -5.9042860e-02
  4.5318250e-03
 -2.0718025e-02
  3.1058046e-01
  6.8693659e-03
 -1.1092281e-03
  2.3857709e-03
 -1.0116244e-02
  7.0908642e-03
  4.3775709e-03
  2.9323646e-03
  7.2277260e-05
 -1.7937630e-02
  2.2003030e-02
 -1.4476288e-03
  1.6664946e-03
  2.7762860e-01
 -5.3840037e-03
 -1.7007040e-03
  4.6255738e-03
 -4.0496211e-03
  1.1729113e-02
 -1.0436325e-03
  4.6997597e-03
  1.0014638e-04
 -1.0795017e-02
  1.2801939e-03
 -2.5090232e-04
 -6.8382286e-03
 -8.7964889e-03
  3.2026058e-03
 -2.9449095e-03
  1.5677417e-02
 -3.6868167e-01
  7.6872343e-01
  7.7362645e-01
  7.0106112e-03
  3.4148956e-03
 -2.9380571e-03
  5.8202919e-02
  2.3179203e-03
 -2.2015184e-02
 -1.5782691e-03
 -8.9250468e-03
  4.8491288e-02
 -7.4125417e-02
  7.5684261e-01
 -7.8881619e-04
 -7.6904856e-03
 -2.0129236e-03
 -5.9167137e-03
 -2.4573211e-04
  1.6159898e-01
  6.3687903e-03
  8.2225219e-04
  1.2934762e-03
  1.1087932e-02
  6.0377307e-03
  2.1806063e-05
  2.1396021e-03
  2.8476776e-03
  1.7283427e-03
 -1.1109949e-01
  3.4370665e-02
  1.0913223e-01
 -3.3744738e-01
 -7.9459763e-01
  6.8952632e-03
  3.1151099e-02
  9.7005232e-04
  1.1739368e-03
  1.4020602e-03
  5.2117077e-03
  2.0974906e-02
  9.8564718e-03
 -1.1629115e-02
  1.5041298e-02
 -5.1269275e-03
  5.2503250e-03
 -1.4703204e-01
 -9.5195815e-02
 -8.1312042e-03
 -3.1280104e-02
 -1.2134404e-03
 -1.1714046e-02
  3.5964072e-02
 -1.1483290e-05
 -5.5522826e-03
 -6.4003328e-03
 -1.4997519e-03
  1.5543158e+00
  4.3611080e-04
 -2.8948069e-01
  1.6964715e-02
 -9.7919290e-04
 -3.8890787e-03
 -4.8371434e-02
  1.8954518e-03
  3.5298839e-03
 -9.4375327e-02
 -4.9157790e-04
  2.6156707e-03
  5.3260308e-03
  5.0117197e-03
  4.7369120e-03
  5.9398804e-03
 -3.5749245e-03
 -2.7171001e-05
  1.2801666e-02
  1.5294279e-02
  3.1711394e-04
 -3.7900426e-03
 -9.6768104e-03
  1.6587825e-03
  5.7195630e-03
  1.3593149e+00
  1.7920104e-04
 -4.7579939e-03
  7.6587463e-04
  7.3789605e-03
 -2.0290215e-03
 -3.6710985e-03
  2.0430741e+00
 -5.2188361e-01
 -5.7482056e-02
  2.9945120e-01
 -6.6185600e-01
 -1.2058739e-01
 -3.3533156e-02
  5.4996020e-01
 -1.7623827e-03
 -6.0143724e-02
 -1.0806449e-02
 -3.0715814e-02
 -5.4992020e-02
  6.7727722e-02
  6.7345481e-03
 -1.7132413e-03
 -1.2251142e-01
 -7.5764334e-01
  5.9899949e-02
  7.5890007e-03
  5.2832910e-03
  5.5014035e-03
 -7.1655792e-01
  1.1183293e-02
 -1.0575683e+00
 -6.8877614e-04
 -6.2977537e-03
  8.1291525e-03
 -5.6810542e-03
  6.5243579e-03
 -1.2907674e-02
 -7.4075040e-04
 -8.2006054e-03
  3.5232331e-03
 -6.2577454e-03
 -7.9604900e-03
  6.3880697e-02
  3.7954971e-03
 -5.7764114e-03
 -3.0783555e-03
  2.1235923e-04
 -2.0020728e-03
  1.8334473e-02
 -2.6054928e-04
 -8.7767849e-03
 -3.1293582e-03
 -2.6851734e-03
  5.6537683e-04
  4.0492923e-03
  1.1800112e-02
  7.3455840e-02
 -1.5219371e-03
 -5.2656949e-04
  2.7069657e-03
 -1.0807107e-02
  5.9939194e-03
 -7.1381754e-03
  5.6867721e-03
  1.3521723e-03
  2.5707560e-03
  7.9637319e-03
  2.3540275e-02
  1.0631797e-02
  3.1102700e-03
 -5.6999218e-02
 -1.1543832e-03
 -7.3567955e-03
 -7.6467445e-04
  1.4259149e-02
  1.3027648e-03
 -1.1132837e-02
 -2.6315781e-03
  2.7477134e-02
  1.9155098e-03
  4.0156380e-03
  2.3323549e-03
 -9.1634043e-02
 -1.6816589e-03
 -1.0929688e-02
 -9.8855130e-04
 -2.9975881e-03
 -2.1955237e-02
 -8.7223142e-02
 -1.3686868e-02
  5.8735036e-03
 -7.2127092e-04
 -1.0262984e-02
 -3.3701095e-03
  1.4655048e+00
  3.2293894e-03
  3.7439798e-03
  2.7431226e-01
 -5.7319477e-03
 -4.8543280e-03
  1.7577339e-02
 -6.2252800e-03
 -6.7363039e-04
 -1.2944030e-02
 -9.0867910e-04
  1.9234337e-02
 -1.4973148e-02
 -7.9884846e-03
 -2.4045827e-03
  3.6224232e-03
  5.2689216e-03
  1.4869636e-03
  3.2800229e-03
  1.1115085e-02
 -2.2247143e-04
 -1.0113845e-02
  2.2730548e-02
 -5.7739037e-04
 -7.1375765e-04
 -4.3345038e-03
 -5.8986258e-04
  4.8950780e-03
 -1.3944080e-02
 -1.8600406e-01
 -5.9367117e-04
 -4.8810658e-03
 -6.7119277e-01
 -2.6791093e-01
  1.3680806e+00
 -3.8701206e-01
 -3.3615369e-01
  7.4755125e-02
  4.2835143e-01
 -2.0387457e-01
 -4.7521006e-02
  3.4041952e-03
  6.2335968e-02
  4.3381152e-01
  3.9922300e-01
 -6.0589343e-01
  8.4458487e-03
 -1.0158049e-01
  7.7093482e-02
  1.1704306e-01
 -2.7906799e-01
 -2.6146874e-03
 -3.1503644e-02
  3.0658623e-02
  8.8984974e-02
  3.5742855e-01
  6.3736667e-04
 -4.2880925e-05
 -1.0035406e+00
 -7.5789280e-02
  1.1681274e-03
  2.0159052e-03
  4.4832385e-01
 -6.2113763e-03
 -2.2471901e-02
 -2.5756289e-03
  5.8451183e-03
 -1.4743363e-02
 -9.9444967e-03
  2.5434582e-02
 -1.8893406e-03
 -6.9131483e-03
  5.7740328e-03
  3.9878287e-03
  3.0035567e-02
  9.1082174e-03
 -2.4066998e-03
  3.0967057e-01
 -2.2248605e-03
  2.5254174e-03
  2.5464609e-04
 -3.3520805e-03
  3.2908642e-03
 -3.8020811e-03
  2.6456641e-03
  8.2785159e-04
  2.6683991e-03
 -5.3078454e-04
 -2.7876589e-03
  6.7863939e-03
 -5.4610539e-03
  4.5299572e-03
 -1.2978440e-03
 -1.7042004e-02
 -4.0029451e-01
 -1.2613372e+00
 -2.5877383e-02
  1.9357102e-02
  1.3879807e-02
  2.8781155e-03
  5.8259461e-02
  2.9733353e-03
  1.7119958e-03
  2.2023234e-04
 -1.0675819e-03
  5.5415664e-02
 -5.9709265e-03
  1.8657526e-03
 -7.1355258e-04
 -1.9759305e-02
  2.4885600e-02
  4.6037715e-03
 -8.3924886e-03
 -2.4874590e-01
  6.5661152e-04
  2.5417237e-03
 -3.2374751e-02
  2.9816264e-03
  4.5148581e-03
 -2.7851874e-03
 -4.3066189e-04
 -4.9974495e-03
 -6.5840017e-03
  1.2714425e-01
 -2.4886981e-01
 -2.1110566e-02
 -2.8936865e-03
  5.3537899e-04
 -1.2743986e-01
 -6.7253386e-05
  1.0458120e-03
 -6.5730838e-03
  6.0809636e-03
 -2.6876417e-01
 -1.7436278e-03
  2.2003928e-03
 -4.3658544e-03
  1.2193274e-03
  7.7464633e-02
 -5.6309975e-03
 -4.1005760e-02
  1.9641169e-05
 -1.4688079e-03
  2.8460689e-03
  1.9462909e-01
 -1.6643471e-01
  2.3030594e-03
 -3.5251989e-03
  5.1523920e-04
 -6.2814592e-03
 -8.3732251e-03
  1.4459549e-02
 -2.4415217e-02
  6.2196054e-03
  2.6190537e-04
  1.4635654e-03
  1.6765244e-03
  2.1216525e-03
 -6.4868960e-03
 -7.1478747e-03
 -6.1684113e-04
 -1.1060401e-02
 -8.0083339e-03
 -6.2624514e-03
  6.4421035e-03
 -7.7874633e-05
  1.3707805e-03
 -4.4112322e-03
 -1.3796175e-03
  3.1277707e-03
 -1.1562827e-03
  9.2493603e-03
 -4.3522138e-03
 -1.7652581e-03
  2.2252481e-03
  8.0828061e-03
  1.1403715e-04
  2.7721277e-03
 -3.2908809e-03
 -3.6223347e-03
 -7.3217968e-03
  8.7668439e-03
  2.9205704e-02
  4.9765792e-01
 -1.1188431e+00
 -7.5761664e-01
  1.1163043e-03
  2.5885176e-02
  6.2832688e-03
 -1.6653341e-01
 -2.7599954e-04
  1.3481051e-02
  5.3602341e-03
 -9.5522497e-03
 -2.1780874e-01
  4.6641058e-01
 -8.1297627e-04
  5.5188214e-04
  2.9217742e-02
 -9.9847959e-03
 -1.3106491e-01
  3.3743347e-03
 -2.0499866e-02
 -5.3028311e-03
 -1.2597437e-02
 -1.8045084e-01
  2.4013380e-03
 -1.1893565e-04
  8.8137137e-03
 -3.0764334e-03
 -7.5400886e-03
 -1.1656847e-02
 -3.8166914e-02
  1.8182527e-01
 -4.8315563e-04
 -4.6918534e-02
 -7.1889593e-04
 -2.8647182e-03
 -2.6319607e-03
 -4.3982170e-03
 -2.7813662e-03
  4.5929202e-03
  2.2876407e-03
 -6.3236626e-03
  5.8736233e-04
  9.7720437e-03
 -2.8240832e-03
 -1.1538133e-02
  3.5419571e-03
  4.3923419e-02
  1.0911024e-01
 -2.5483308e-04
 -1.3579096e-02
  9.2109237e-03
 -3.0314580e-03
 -6.5430482e-03
  7.5178836e-03
 -1.2372607e-02
 -1.1500411e-01
  2.4010004e-03
 -2.4904434e-03
  2.8425240e-04
  3.4421510e-03
 -4.3664165e-03
  1.2750353e-02
 -6.0595409e-03
  6.3411929e-03
 -1.3819962e-02
  2.0899244e-03
 -5.5996992e-04
  1.9340854e-04
  3.8597386e-04
 -1.3780274e-04
 -1.0866161e-02
  2.9077400e-03
 -5.2415382e-02
  1.0254743e-02
 -4.5744977e-03
 -8.3397893e-04
  6.6004451e-03
 -2.9324584e-03
 -4.2196228e-03
  7.0548188e-03
  2.0241416e-03
 -3.6234315e-03
 -9.7085396e-04
  1.1366873e+00
  8.8258432e-03
  2.1350803e-03
 -1.5068336e-03
 -6.3010742e-04
  3.1855572e-03
  5.7767918e-03
  6.4212155e-01
  2.9648820e-02
  2.2515475e-03
 -5.1010926e-03
 -7.7874530e-03
  2.6583206e-03
 -4.2586816e-03
  1.1596534e-02
  2.6971374e-03
  1.3879153e-03
 -6.4017638e-03
  4.3828948e-03
 -3.7295248e-03
  6.0955961e-03
 -7.4014938e-03
  4.0270910e-03
 -9.9505270e-03
  6.1444640e-05
  1.3705927e-02
 -5.2424006e-05
  1.5660077e-02
  2.7959205e-03
  1.0179787e-04
  4.9272869e-02
  1.5772240e-03
  1.4757247e-03
 -1.1626543e-02
  2.5339174e-04
  2.3942110e-01
 -9.3632424e-01
  4.3531921e-02
 -2.4289232e-02
 -1.6458227e-01
 -9.2865288e-02
 -3.2885077e-03
  7.4337840e-02
 -1.5466524e-02
 -9.5143495e-03
  1.1076155e-04
  4.0044010e-02
  9.3699396e-02
  1.8733002e-02
 -9.3142514e-04
 -6.7758281e-03
  8.9852657e-04
  7.4131857e-04
  5.7699503e-03
  2.8095292e-03
 -3.9536860e-03
 -1.0403098e-02
  2.5778955e-03
 -3.4993479e-01
 -4.3319156e-03
 -1.6015232e-02
 -1.7441714e-03
  1.0883423e-02
 -2.5928251e-03
  3.1153330e-01
  6.1807386e-04
  1.8828778e-01
 -8.2594220e-04
  2.4613563e-02
  1.0028844e+00
  1.7137592e-01
 -5.9567890e-03
 -7.3565394e-02
  5.5550200e-01
 -9.0389540e-03
 -9.1652192e-02
 -4.1582906e-03
 -7.7085271e-03
  6.3516721e-03
  1.1397503e-01
  1.0290444e-01
  1.7486761e-03
 -2.6681437e-03
 -2.2397584e-01
  1.0819564e-01
 -7.7184360e-04
 -8.9779752e-04
 -1.6021388e-02
  8.4686326e-03
  4.1233387e-05
  5.5727474e-03
  7.2761918e-03
  2.0946111e-03
  2.4719597e-03
 -4.2804333e-04
 -3.1949382e-02
  3.1665573e-03
 -6.5270615e-01
  8.0596060e-03
  7.8064151e-04
  1.2988205e-02
 -1.0812122e-02
 -1.8715623e-03
  7.5873220e-01
 -5.7584010e-03
  1.0720027e-03
  5.6392415e-03
 -1.2526765e-02
 -1.4070696e-03
  9.3608676e-03
 -2.6141501e-03
  1.6478512e+00
 -3.2939702e-06
  8.8247936e-03
  6.8172519e-03
 -1.8002873e-02
  5.0832081e-01
  2.0890001e-03
 -8.3929894e-04
  7.0103891e-03
 -1.5219798e-03
 -4.8192656e-03
  1.4839081e-04
  2.6250852e-03
  8.3462562e-04
  5.4719183e-03
 -9.3347448e-01
  8.5422158e-02
 -6.5199421e-03
 -1.1988965e-01
 -6.1661524e-01
  1.0465660e-01
  1.2524249e-01
 -2.7975313e-02
 -8.3848119e-02
  7.5880141e-04
  1.0498419e-02
  4.2737342e-02
  9.1981171e-03
 -4.8931576e-03
  2.4605205e-03
  5.9614545e-01
  3.0321568e-02
 -1.8184234e-01
 -9.1843002e-02
 -1.2636934e-03
 -1.0644833e-02
  5.1099909e-03
  2.4431158e-02
 -7.1601295e-03
  2.2797489e-03
 -4.6151094e-05
  3.0134502e-03
 -7.1226498e-03
  2.5745474e-02
  9.8243973e-04
 -1.5755451e-01
  1.2262872e-03
 -3.0350937e-03
  6.5453933e-03
  3.1031814e-01
 -1.6753590e-03
 -4.7735259e-04
  3.1106675e-03
 -1.5716115e-04
 -3.8536754e-03
  2.8954709e-03
  5.8208928e-03
  4.8611755e-03
  4.4316002e-03
  1.7102118e-04
  1.2349298e-02
 -6.1297361e-03
 -5.0733885e-04
 -6.2363259e-03
 -3.2890157e-03
 -4.0788820e-04
 -1.0902969e-02
  4.3677185e-03
  6.5826043e-02
 -9.7920289e-03
 -6.2451354e-04
 -8.8056829e-03
 -3.1965775e-03
  1.4617800e-03
  1.6997214e-05
 -1.0277993e-02
  2.4268955e-03
 -2.1207494e-04
 -3.9908275e-02
  4.4354069e-01
 -1.4527377e-03
  3.8186427e-02
 -2.2377075e-04
  9.2560053e-03
  3.9023585e-03
 -5.3110947e-03
  1.5680198e-02
 -8.8121388e-03
 -2.1988649e-03
 -1.0768122e-03
  4.2403052e-03
  5.8222085e-04
  6.7169429e-03
 -6.7202997e-04
 -3.1346190e-03
 -4.5329179e-03
  5.2258151e-04
 -1.6098580e-03
  4.6208515e-03
 -3.5720798e-03
  9.8284206e-04
  1.7792862e-02
  8.3843066e-04
 -8.9299390e-03
  2.5656938e-03
 -2.4860162e-02
  1.6996939e+00
 -9.2003334e-01
  1.3274859e-01
 -2.6181233e-04
  2.6266346e-02
  9.2960680e-03
 -5.9460760e-03
  9.0223926e-05
  1.2277776e-03
 -7.0488229e-03
  2.5620256e-02
  1.1548740e-01
 -1.0114194e-02
  5.7664495e-03
 -9.0260267e-02
 -2.4075285e-03
  2.0917341e-02
 -1.5909143e-03
 -2.6249657e-03
  4.6492442e-02
 -6.7551853e-03
  1.4267385e-01
 -1.1776353e-02
 -3.4639059e-05
  5.9734215e-03
  2.0407781e-03
 -1.0174166e-02
  4.4122310e-03
 -1.1273186e-03
  7.0410800e-01
 -1.2813997e+00
  8.5381383e-01
  3.8391265e-01
 -2.5451619e-03
 -9.0595365e-02
 -4.2737167e-02
 -3.2307502e-02
 -1.1065212e-01
 -1.1534411e-02
 -4.3827002e-03
 -6.7888841e-02
  1.0166031e+00
 -7.3315138e-01
 -2.6143687e-03
  1.3579640e-01
 -3.5746672e-04
  1.7544749e-01
 -7.1113920e-03
 -3.9262665e-03
  1.0513312e-01
 -2.1217026e-04
  3.0153200e-01
 -5.6409758e-01
 -3.9582332e-03
 -2.6252614e-03
 -5.2624936e-03
  1.9025562e-02
  1.2804883e-02
 -5.3525837e-03
 -6.7099468e-03
  1.9382209e-03
 -6.8621084e-05
  1.3962870e+00
  1.3943262e-03
 -2.7864370e-03
 -1.6517832e-03
  9.0580964e-03
 -1.5627535e-03
 -1.0104734e-02
 -2.8972230e-03
  4.4545461e-03
  5.8316290e-03
  1.5811564e-02
  6.0974020e-03
  7.7098771e-04
  7.1554952e-03
  7.9437401e-03
 -2.4015929e-03
  9.2377486e-03
 -1.7411655e-03
 -6.3601206e-03
 -1.2144839e-03
 -1.7501061e-03
  4.9420809e-03
  1.8381942e-02
  8.8740941e-03
 -2.5459125e-03
 -9.0675335e-03
 -3.4290592e-03
 -1.3453135e+00
 -7.3633541e-04
 -4.6663630e-01
 -9.6678801e-02
 -2.7015382e-01
  2.6564318e-01
  2.8276229e-01
  1.5266596e-02
 -2.2444939e-02
  1.6961904e-02
  1.0312817e-01
  3.0710876e-01
  1.4717573e-01
 -9.6552946e-02
  3.5722603e-03
  4.8023569e-03
  6.8383139e-01
 -4.3847919e-02
  4.2964411e-01
 -1.6241592e-01
  9.9966568e-01
  5.6940443e-03
  1.1135209e+00
  2.0832488e-01
  8.5302917e-03
  4.3790974e-03
 -7.3896685e-05
 -3.4018613e-03
 -2.9272777e-03
 -2.9799810e-03
  5.3491938e-01
 -5.4971880e-01
 -3.2696861e-01
 -7.8400498e-04
  2.7420677e-03
 -1.9158280e-02
 -5.6542039e-02
  9.3854922e-01
 -6.9956733e-03
  7.7316435e-03
 -3.0683077e-04
 -4.6943035e-02
 -2.5841238e-03
 -9.3819462e-02
  1.8682638e-01
  5.9994417e-01
  2.0064792e-01
 -5.4347771e-03
 -1.3469992e+00
 -2.8044078e-03
 -5.0460058e-03
  2.5898740e-01
 -3.8243835e-03
  2.0219702e-02
  5.6745517e-03
  5.9694058e-01
 -3.3964902e-02
  4.2288475e-02
  3.5809616e-03
  1.5686460e-02
 -1.0854824e+00
  1.3155127e+00
  1.4781915e+00
  1.0653847e-03
 -3.5413247e-01
  4.4628644e-01
  3.2877827e-01
 -6.1377275e-01
 -9.8071042e-03
 -1.4205736e-01
  1.2842189e-03
  9.4129401e-01
 -2.6855257e-01
  5.0562382e-01
  1.7754066e-01
 -1.3991955e-04
  8.2135016e-01
  2.6526952e-01
 -1.0545887e-02
  3.4838167e-03
  4.4454190e-01
 -5.8950758e-01
 -1.6442437e-01
  6.8635219e-01
 -4.2992854e-04
  2.6815256e-01
  5.6006014e-01
 -1.1097026e+00
 -8.7706886e-02
  1.0287144e+00
 -6.8249395e-03
 -3.9802825e-01
 -1.9427700e-01
  1.2641220e-02
 -1.8357360e-03
 -7.4559129e-03
  2.4163043e-04
  5.1223230e-01
 -5.0442930e-02
 -8.8942619e-03
  4.3647378e-03
 -3.6771747e-03
  1.0940154e+00
 -8.0937929e-03
  3.5925715e-03
  1.2770677e-01
  4.7854552e-04
 -1.2548997e-02
 -6.7418884e-03
 -2.0688223e-03
  5.2458668e-01
  9.4494605e-03
  1.5099448e-02
 -6.7528454e-04
 -8.7034260e-04
 -1.4661362e-04
  3.7340957e-03
 -1.2810913e-02
 -1.2634005e-03
 -1.5503137e-02
 -2.2140919e-01
 -5.1503706e-01
 -2.7048686e-01
  3.2013094e-03
 -2.1707004e-01
 -2.5036393e-03
  4.3469974e-01
  7.2562275e-03
 -1.8421142e-01
 -3.1383049e-02
 -3.9129817e-01
  8.1448806e-03
  3.2758177e-03
 -3.6624100e-02
 -1.0366319e-01
 -6.9884658e-03
  1.5437954e-02
 -2.9109292e-02
 -8.7318562e-02
 -1.5809407e-02
 -9.8382071e-02
  3.6018211e-01
  1.5770641e-01
 -1.0089457e-02
  6.8631582e-03
 -5.6465369e-01
  5.9992424e-03
 -7.7419374e-03
  5.8218185e-03
 -7.5010853e-03
  1.8617908e-03
 -5.0657275e-03
  4.4488050e-03
 -1.1273322e-01
  1.7266816e-03
 -2.1616363e-03
  2.7003966e-03
 -4.7623278e-03
 -2.5970160e-03
 -3.5402076e-03
  2.2206034e-01
  9.7083009e-04
  9.7536510e-03
  2.0234517e-03
  1.2231928e-02
  6.5615522e-03
  1.2542859e-03
  7.7021206e-03
  4.2538837e-02
  3.6674107e-03
  6.9307699e-03
 -3.3912014e-03
  3.3015286e-04
 -2.4327477e-03
  2.1084053e-03
  6.3971216e-03
 -9.2522614e-06
  1.2150627e-03
  4.6375925e-03
  1.1258661e-02
 -1.2918620e-02
 -8.2702452e-04
 -7.5969758e-04
 -8.0802131e-01
  3.3593075e-03
  4.0313653e-03
 -2.9385376e-03
 -1.0692552e-03
 -1.6682338e-02
  1.3929206e-03
  9.3931658e-04
  1.3478596e-02
  6.3210391e-03
  1.1087892e-03
  8.8837268e-03
 -8.7721223e-01
 -2.3011444e-03
 -1.8379211e-03
 -4.4715259e-04
 -6.2020863e-03
 -9.5464429e-04
  1.6590529e-03
  2.4027597e-02
 -8.8230306e-03
  2.0208349e-03
  2.6124197e-03
 -1.1871728e-03
 -2.3110367e-01
  2.0814834e-03
  1.3548058e-02
  3.8075995e-02
  2.5508794e-01
 -1.3556250e-04
 -3.9844867e-03
 -3.6424147e-03
 -2.3304869e-03
  2.8339622e-03
 -3.8312639e-03
  2.8682733e-02
  2.5527810e-03
  6.7702802e-03
  2.1979585e-02
  1.8992405e-04
  1.6681053e-02
 -7.3297680e-03
  5.6782295e-04
 -2.9017157e-03
  1.8289533e-02
 -4.0451490e-04
  1.6138196e-03
 -1.7773638e-02
 -5.8792238e-03
 -3.1114451e-03
 -8.4574887e-04
  9.4020292e-02
 -3.8639533e-03
  6.2136999e-03
  5.2953307e-03
 -3.6680107e-03
  8.4848413e-03
 -1.1923353e-01
 -1.2421380e-01
 -4.0785453e-01
 -9.1857511e-01
 -9.7136068e-01
 -8.5903015e-03
  6.2268819e-03
  6.0289218e-03
 -2.6991481e-01
 -2.1211348e-02
  1.5325788e-02
 -1.6859736e-01
 -8.2461894e-01
 -2.7054776e-02
 -9.0700231e-02
 -1.4242493e-03
  4.9753459e-03
 -3.8216767e-01
 -1.0818256e-01
 -3.0782443e-02
  1.5376282e-02
  8.3981745e-02
  2.9695773e-01
 -1.7217591e-01
 -1.3116696e-02
 -6.2127211e-03
  1.4603502e-02
 -2.8694399e-02
  1.2517740e-02
  5.5286248e-04
 -8.8829751e-04
  5.2913083e-03
 -4.9769483e-04
 -3.8071910e-03
  1.9990944e-03
 -3.1533486e-03
 -1.7511075e-02
  6.3082919e-04
 -2.7652448e-03
  5.6793424e-03
  8.8885619e-04
 -8.9795087e-03
  1.2647400e-02
  4.6775765e-03
 -1.0781653e-03
 -3.0975912e-03
 -2.4424354e-03
 -3.1148442e-03
  1.8478226e-03
 -3.7465061e-04
  2.2658380e-04
 -2.4889591e-03
  1.8112898e-02
  3.2209601e-02
 -3.5900127e-03
 -2.1251289e-03
  2.9735465e-03
 -4.5808505e-05
  6.6904239e-03
 -1.9574703e-03
  3.0266751e-02
  3.9503706e-01
 -1.7136848e-01
  1.9382192e-04
 -1.4429072e-02
  8.6520694e-04
 -7.9498295e-04
  3.0364867e-03
  2.7734840e-01
  2.3514813e-02
 -4.2472547e-03
  1.9581411e-02
  2.0036165e-02
  5.3908908e-01
 -4.3895991e-05
 -2.9406469e-02
 -5.0639561e-03
  8.8182967e-03
  1.1975735e-02
  1.4175270e-02
  7.0556579e-03
 -1.6372595e-02
 -3.8960122e-03
 -2.2934538e-03
  3.7810692e-01
 -4.6223518e-03
  3.3909639e-03
  2.0749134e-03
 -2.9716683e-03
  5.5284119e-05
 -6.5661588e-04
  8.2390741e-02
 -7.6114293e-03
  4.3573980e-03
  3.4358678e-03
 -1.8332649e-03
  7.4931900e-03
  1.3101005e-03
  6.4045736e-03
  2.0340679e-03
  7.9752244e-03
 -7.7643986e-03
 -5.0241470e-01
  1.2299099e-03
 -3.2694913e-03
 -1.4202070e-03
 -9.7738137e-04
  1.4416869e-02
 -6.4005456e-03
 -2.0924464e-03
 -1.8858889e-03
 -1.9492142e-01
 -3.4717316e-04
  5.6179883e-03
 -1.1455467e-03
  1.5219839e-04
  8.2815401e-03
 -8.8012184e-04
  1.1527247e-02
 -9.8240040e-03
 -2.4807839e+00
  2.2806573e+00
 -7.1194005e-01
 -8.0697693e-02
  6.9194561e-01
  2.2285094e-03
  2.7571753e-01
  2.0971909e-01
  5.3834520e-02
  4.3892581e-02
 -8.7459646e-03
  1.1577115e+00
  7.8454280e-01
  1.7592432e-01
 -8.7082601e-01
  1.0929660e-02
  1.1148850e+00
  7.0168972e-01
  3.6413014e-01
  2.5822398e-01
  1.0324956e+00
  7.3601365e-01
 -4.8915301e-02
  9.2910147e-01
 -3.3756937e-03
  5.3813201e-03
  8.4938994e-04
  1.1811957e-02
 -7.5877872e-03
 -4.6468624e-03
 -1.0889271e+00
 -6.4816415e-01
 -4.6694589e-01
  9.4854712e-01
 -3.7195307e-01
 -5.9373075e-01
  1.2110387e+00
  2.2401582e-02
 -2.8218946e-01
 -1.6607476e-02
 -1.6010594e-02
 -8.5511720e-01
 -1.4843777e-01
 -9.1155070e-01
 -2.7275398e-01
  3.4728311e-02
 -9.3329214e-02
 -5.1245987e-02
 -2.3050532e+00
 -3.2764999e-03
  6.7172283e-03
  8.6401045e-01
 -1.3890893e+00
  3.9786920e-02
 -5.1729251e-03
  8.9988596e-04
  2.3362428e-02
  5.4074265e-03
  1.5103129e-02
 -1.0735068e-01
 -4.4603616e-02
 -4.0571082e-01
 -1.4535957e-02
  2.0446037e-03
  1.0265686e-03
  3.2803142e-03
 -1.3998227e+00
 -3.1304173e-03
 -2.8729871e-02
 -7.9058688e-03
 -4.9579991e-03
 -2.4980051e-03
 -8.1491414e-03
  4.3177800e-03
  1.6878761e-03
  5.3473739e-03
  4.7525343e-02
 -3.1063892e-03
  3.3087279e-03
 -4.1460278e-03
  6.5549044e-04
  1.5243837e-02
  4.5664771e-03
 -8.0737676e-03
 -2.4736408e-04
 -9.8775700e-04
 -5.4170368e-03
 -3.7130257e-03
 -3.1300010e-03
 -6.9712364e-04
  8.3110225e-01
  3.2163748e-01
 -1.1271518e+00
 -3.7004998e-01
 -3.5949085e-02
  1.2377156e-02
  1.0337409e-01
 -1.7407704e-03
  2.2011666e-01
  2.8319478e-01
  2.3902038e-03
  9.3192041e-01
  1.0510983e-01
  1.8115021e-01
 -1.1331751e-03
  4.5545387e-01
  7.6809949e-01
  6.2455159e-02
  1.1108481e-01
 -3.2056028e-03
  3.8791388e-01
  3.3485591e-01
  2.7223819e-01
  1.2612253e+00
 -2.1182554e-02
  1.1611874e-02
 -1.1724718e-01
  1.9927068e-02
  4.4984886e-04
  3.1338830e-03
  1.8573966e-03
  3.3684012e-02
  2.4338540e-02
 -2.2052074e-02
  7.2319075e-03
  5.4835547e-03
 -3.1690387e-04
  1.1169200e-03
 -2.1412347e-01
 -1.1077746e-03
  9.9034293e-04
  1.0481941e+00
  2.0243235e-02
  3.5151874e-04
  1.0136395e-03
 -5.2720930e-05
  1.3514803e-03
  9.1944159e-05
  2.0352015e-04
 -5.1830616e-03
  4.4231233e-03
  1.2047106e-03
  6.0288152e-03
  3.5257677e-03
 -7.0956638e-03
  1.1740711e-02
  1.0749256e-03
 -7.3933729e-04
 -2.4137594e-04
 -1.1526749e-03
  6.8706423e-03
 -5.0954060e-03
 -5.7646364e-01
  1.0115046e-02
  1.2252778e-02
 -3.1263891e-03
 -7.5588115e-03
  7.8857122e-03
  3.4580578e-03
 -3.3885418e-04
  6.7451561e-04
  6.0056681e-03
  8.5327961e-03
 -3.8536757e-03
  1.7816313e-03
 -1.0829435e-02
 -4.2577884e-03
 -6.4537758e-03
 -3.0544573e-03
 -8.3604027e-05
 -4.1081612e-03
  2.9377833e-03
 -4.9546519e-03
  6.0537667e-04
  4.2439429e-03
 -8.3617801e-03
  7.5771599e-03
  7.7630887e-03
 -2.4678404e-03
  3.2277217e-03
  1.2385075e+00
  1.5320575e+00
  1.5109369e+00
 -1.1227001e-01
  5.6801778e-01
  1.1055181e+00
 -1.5607705e+00
 -5.9867363e-02
  5.9289795e-01
  6.7052299e-01
  5.9061639e-02
  1.4268549e-01
  1.8393674e-03
  7.4061471e-01
  4.5522663e-01
  1.1672866e+00
 -1.7050479e-01
  1.4995685e-01
  7.7352017e-01
  2.5154505e-02
 -4.7260752e-01
  2.0559855e+00
 -7.1607119e-01
  2.7194520e-02
  4.6164188e-01
 -4.5555559e-04
 -2.0006508e-01
  8.5911497e-02
 -1.1659148e-02
  7.8421012e-02
  3.6477104e-03
 -3.7676096e-04
  3.2236152e-03
  8.1196679e-03
  2.1355427e-03
  4.4628407e-04
  7.9111260e-04
  1.0475983e-02
 -1.1735179e-03
  1.5189310e-03
  1.1530383e-02
  8.2686385e-03
 -1.2460532e-02
  2.2315241e-01
 -1.1150619e-03
  1.0768160e-03
 -4.7720824e-03
 -2.2989464e-01
  8.5530599e-04
  1.9740027e-03
  3.2241820e-04
  1.2306197e-04
 -1.1480047e-03
  1.2534263e-03
  6.8488093e-03
 -4.1585430e-03
 -9.2634261e-02
  6.2356335e-03
  4.5972280e-03
 -2.9018736e-02
 -3.6379784e-02
 -1.7864701e+00
 -3.4393018e-01
  1.1666571e-01
 -3.1136891e-01
 -1.2628798e-01
 -1.5181920e-02
  3.4750137e-03
 -7.1318161e-01
  8.1099957e-02
 -1.1821138e-01
 -1.7341931e-01
  5.8291686e-01
 -1.3958135e-01
  1.5762728e-01
 -8.6997740e-02
  1.5919955e-01
 -1.6768549e-01
 -3.0257335e-01
 -1.3512446e-02
  2.7125552e-01
  8.6463153e-02
 -5.2317496e-02
 -4.1774580e-01
 -1.3949440e-01
  8.9934342e-02
  1.0466295e-01
 -3.1565640e-02
 -9.5321739e-01
 -1.3530396e-03
  1.1124282e+00
  5.7707852e-01
  2.0453961e+00
 -1.2901012e-02
 -3.3472532e-01
  1.5514981e-03
 -1.2495592e+00
 -1.5822152e-02
  2.9985968e-04
  1.1052970e-03
  9.9782953e-03
  9.6986499e-03
  2.5985877e-03
  4.5254620e-04
  1.1372040e-01
 -4.2382656e-03
 -1.6229443e-01
 -3.4861071e-03
 -7.8938222e-03
  4.1134781e-03
  6.1116664e-04
 -4.8232679e-03
  1.0159340e-02
  4.7461279e-03
 -7.5933090e-03
 -5.7017225e-01
 -3.0363696e-03
 -9.2215696e-03
 -2.4915521e-04
  4.4582505e-03
 -1.5860951e+00
 -3.8715735e-01
 -2.0983016e+00
  1.5538749e-01
 -1.2140540e+00
  3.9443653e-03
  5.2255917e-01
 -5.4606462e-01
 -5.3167188e-01
 -8.1328698e-02
 -1.5713943e-02
  3.1057504e-01
 -4.7718817e-03
 -2.4526097e-01
 -1.4087496e+00
  3.8582701e-03
  2.0402386e+00
  2.6947469e-01
 -1.5745358e-01
 -1.6636439e-02
 -4.7693424e-02
  1.3229458e+00
  2.2629427e-03
 -1.0193313e-01
  6.0302442e-01
 -1.6278311e-03
  2.5204536e-01
 -2.1940703e-02
  2.4407374e-02
 -1.7568307e-01
  1.7999244e-03
  9.2896831e-04
  9.1223773e-03
  7.3300009e-03
  8.8239349e-03
 -7.3129497e-03
 -8.7802848e-03
  3.7368801e-03
  2.3368254e-02
 -1.4785836e-03
  7.7595585e-03
 -6.7556733e-03
  4.4454117e-03
 -2.9235051e-03
  7.0244065e-03
  8.7898521e-04
 -1.1953874e-03
 -3.7202123e-03
 -9.7677368e-04
 -6.1156163e-03
  2.4256336e-03
  3.2328975e-03
 -3.0552798e-03
 -3.7851604e-03
 -2.8349380e-03
  7.4354322e-03
  1.9424448e-03
 -1.3562107e-02
  4.7281263e-03
 -2.0874909e-03
 -1.3301040e-03
  1.4681400e-01
 -4.1430853e-03
  5.6900061e-04
  8.6291237e-03
 -8.1941634e-03
 -4.6710533e-04
  6.5680281e-03
 -5.8122301e-03
  8.8026226e-03
 -1.2813593e-02
  1.9024892e-04
  2.0109441e-02
 -1.1309277e-03
 -1.3240385e-03
 -1.1653281e-02
 -4.9838843e-03
  3.3851050e-02
  5.8677473e-05
  5.4090689e-03
  6.1899875e-03
 -2.5653366e-03
 -3.7687109e-03
 -2.9955369e-03
  5.7326863e-03
 -3.0489059e-04
  4.0198001e-03
  7.9391915e-03
 -1.9051976e-03
  3.3151763e-03
  2.7587963e-03
  4.4370223e-05
 -7.6897874e-02
  6.9189489e-02
  1.3678160e-02
 -6.4737713e-03
 -3.1205020e-03
  1.8238336e-04
  2.4135646e-03
 -5.7451455e-03
 -1.7675399e-03
 -4.8938871e-04
  2.7995638e-03
  7.4414774e-03
  1.2218049e-03
 -1.7289242e-02
  6.6990065e-03
 -1.9331332e-03
 -9.1258381e-03
  1.5840476e-03
 -5.6027458e-03
  8.7484368e-06
 -1.5895061e-02
  4.5876415e-04
  3.6784841e-03
  4.0129316e-03
  4.5959423e-03
  2.6733789e-03
 -6.0030389e-01
  8.4401686e-03
  1.1552229e-04
  7.5132060e-03
 -1.2589965e-04
 -6.7488756e-03
  1.6535487e-02
 -1.0184352e-02
  7.7023753e-03
 -6.5591335e-03
 -2.6783033e-03
  1.8005170e-03
 -2.3661456e-05
  3.4007125e-03
  1.4059028e-02
 -2.6519822e-03
  8.2868617e-03
 -3.3035853e-03
  6.1907521e-03
 -1.1458668e-02
 -7.3561427e-04
 -4.5290440e-03
 -1.9572519e-03
 -2.7853814e-03
  3.8688332e-03
 -2.4703797e-04
  7.7840481e-03
  2.8915645e-03
 -2.2402743e-03
 -1.2953400e-04
  3.0197853e-03
  4.2292718e-03
  3.1487367e-01
 -7.0068105e-03
 -5.3067908e-02
  5.5843383e-01
 -3.3060329e-03
 -8.3605768e-03
  2.8338283e-03
  4.0119221e-03
 -2.0271151e-03
  2.8609425e-02
  1.6580627e-03
  5.0846939e-03
  3.9202292e-03
 -3.3392351e-02
  1.2392852e-01
 -1.7494534e-03
  1.1889647e-03
  9.6138371e-03
 -2.6495318e-04
 -5.3733913e-03
  1.2705703e-02
 -3.7466717e-01
  1.1457230e-02
  2.6534713e-04
  4.6297344e-03
  2.3501709e-02
 -2.1626006e-03
  1.2837501e-02
  2.3688544e-03
  8.1078568e-03
 -4.8828986e-01
  7.7470398e-01
 -2.5768921e-01
 -1.9193392e-01
 -7.5364196e-01
  2.3458134e-01
  1.3593225e-02
 -6.4130127e-02
  1.1626671e-01
  2.7807664e-02
  1.4114122e-01
  1.0306765e+00
  2.2324485e-01
  7.6886788e-02
 -2.5687041e-02
  1.2505855e-03
  3.8983058e-02
 -2.0866795e-01
  7.9519510e-02
  2.9340518e-01
  4.3379232e-01
  9.8795623e-02
  3.0552047e-01
  6.0062516e-01
  7.3108032e-02
  3.1772468e-03
 -5.9849795e-02
  5.0234810e-02
  4.3153224e-04
 -1.3625914e-01
  2.9928992e-03
  1.6540594e-02
 -1.2279495e-03
  9.5948926e-04
  4.9823103e-03
 -2.2653108e-02
 -1.1366884e-02
 -3.5864029e-03
 -4.3042446e-03
 -2.0735664e-03
 -5.1092003e-03
  3.1045212e-03
  2.4872562e-03
 -8.5562142e-03
 -2.7010762e-03
  6.1534359e-03
  1.0663890e-03
  4.0430841e-03
  1.3412841e-03
  3.8113478e-03
 -8.8419527e-04
  2.5797063e-03
 -5.8960216e-03
  2.7634404e-04
  9.9940291e-03
  1.4006330e-03
  4.2590746e-03
 -6.3949017e-05
  2.7227406e-03
 -2.5916756e-03
 -1.8190452e-01
 -6.0006976e-01
  5.6300783e-01
 -3.3855136e-04
 -1.8487804e-02
  5.4082018e-03
  1.4903607e-03
  8.5578552e-03
 -2.0439774e-02
 -1.6476747e-03
  3.3264100e-03
  8.2625286e-04
 -1.7718039e-02
 -1.1880268e-02
  5.6308289e-03
  6.6770916e-03
  7.8137740e-02
  7.0309057e-04
  3.8701348e-04
 -4.7222949e-03
  1.2209099e-02
 -6.5083811e-03
  8.9340746e-01
 -1.9129688e-02
 -2.2141999e-02
 -3.7117912e-03
 -4.0168512e-01
  5.0213849e-03
 -8.4485263e-03
 -6.7683379e-04
 -3.1837311e-03
  1.9452475e-01
  2.5103781e-02
 -3.3973574e-03
  6.8832939e-03
 -3.6147297e-03
 -2.1536989e-02
 -1.5106123e-02
  3.0163901e-02
  9.2841182e-03
  8.5342554e-03
  4.0552532e-03
 -2.8070113e-02
  2.8633836e-03
 -5.9382250e-03
 -2.2625912e-02
 -2.1659094e-01
  6.1031547e-03
  6.8970508e-04
  1.3718138e-02
 -1.2951450e-03
  8.4303616e-04
  9.5852967e-03
  7.4027264e-03
  1.5848260e-02
  9.4824396e-03
  2.8554725e-03
  8.9443764e-03
  3.9592669e-03
  9.3038660e-03
  8.8822260e-02
  6.5109754e-01
  1.2138373e-01
 -2.2835072e-02
  9.6091986e-02
 -4.4492376e-04
  3.3601422e-02
  5.5682380e-04
  4.3726146e-02
  5.6111054e-03
 -3.4976078e-03
 -4.8618343e-02
  1.1351518e-02
  8.3790598e-03
  2.2513879e-04
  2.4478461e-03
 -1.9645053e-01
  2.1915918e-03
  3.7137766e-03
  9.6383896e-03
 -5.8955434e-03
 -9.7190449e-03
 -1.6868596e-03
  4.7503051e-04
 -5.4097554e-04
  8.7321298e-03
  8.3405450e-03
 -7.6148547e-03
  8.2009556e-03
 -3.4760253e-03
 -6.7961885e-04
  1.1410730e-02
  8.5038040e-04
 -2.1189535e-02
  1.0367938e-03
 -6.4151931e-01
 -6.6967420e-03
  1.9537994e-04
 -1.0944732e+00
  1.5147429e+00
 -1.7359178e-01
  6.8767747e-04
  1.1076044e+00
  1.2076003e-02
  1.3300397e+00
 -8.3001822e-01
  7.5308732e-03
  3.9823779e-01
 -1.5878536e+00
  4.6604252e-01
  3.1669447e-03
 -5.2113545e-01
  1.6451372e-03
  6.4321775e-03
 -3.7200069e-03
  1.9665290e-02
 -3.9894362e-03
  4.7692587e-03
 -4.8941362e-04
 -1.1161289e-02
 -3.1049216e-01
 -6.1066061e-01
  5.1236562e-03
 -1.2186155e-02
  2.9941353e-01
 -7.7832967e-01
  9.9511571e-02
  4.6245024e-01
  1.6347063e-01
  9.3288428e-01
 -9.3793702e-01
 -3.9108914e-01
  7.9290944e-01
  1.4501768e-01
 -8.5617593e-03
  1.1926529e+00
 -3.0824405e-03
 -1.2021712e+00
  2.8121433e-01
 -1.1231701e+00
 -5.9707630e-02
  1.0234414e-02
  5.0012893e-03
 -9.5494008e-03
  3.3201586e-04
  1.7421205e+00
  1.5781121e-03
 -4.6989080e-01
  2.6575100e-01
  4.6149585e-01
 -4.0226734e-01
  6.8600923e-01
  3.5879912e-03
 -1.9228420e-01
  7.0383555e-01
  5.6353360e-01
  3.2643753e-03
  2.9619687e-04
  1.0763153e+00
 -1.2766455e-02
  2.5985368e-02
  1.2869528e-01
  6.2641832e-03
  4.9093228e-02
 -4.0035002e-02
  9.1373490e-04
 -4.0880118e-02
 -7.4696875e-01
  2.1355491e-02
  4.1952275e-02
  2.5880586e-03
 -2.6058260e-01
  8.5474485e-01
  7.2491139e-01
 -1.4138702e+00
  1.2824584e-04
 -1.8136665e-02
  8.5493773e-03
  3.9236661e-04
  1.1061672e-02
  3.8527426e-01
  1.7650390e+00
  1.1035763e-01
 -2.6460385e-01
  1.2929376e+00
  6.8153346e-01
 -3.8254631e-01
  2.8887793e-01
  7.7764046e-01
 -3.2353416e-01
  6.8864858e-01
 -3.6440161e-01
 -4.6038182e-05
  5.0285012e-01
  1.8156084e-01
  1.0772388e+00
  1.7161487e+00
  6.9994293e-02
  9.3914813e-01
 -9.6425885e-01
  2.0930550e-01
 -3.0700123e-01
  7.2264485e-03
  4.4372180e-01
  1.2901242e-01
 -2.2812193e-02
 -2.6849307e-02
  3.9622795e-02
 -1.7491645e-01
  1.8442896e-01
 -3.1043765e-01
  4.8926026e-02
  1.7982456e-01
  8.7970020e-03
  3.2406121e-01
  1.7712970e-01
  2.5867760e-01
 -1.2765837e-01
 -2.4835279e-02
  1.5271790e-01
 -1.8164842e-01
  3.7119731e-02
 -4.0406496e-03
 -1.1111802e-02
  1.1990703e-02
  6.1574823e-04
 -2.6162120e-02
 -2.7345061e-01
 -1.7142087e-01
 -2.9399464e-02
 -2.1087440e-02
  5.9798364e-02
  4.2661382e-03
 -7.5465362e-03
  8.1974097e-02
  4.2339572e-01
  8.3029322e-02
  1.0239362e-02
 -2.4059205e-03
  9.0815099e-03
 -1.7864906e+00
 -7.4959004e-01
 -5.1429812e-03
  2.0215881e+00
 -2.4495386e-01
 -1.4404527e+00
 -4.7009054e-01
 -1.8901359e+00
  1.8582655e-01
 -6.7763209e-01
 -3.3669129e-01
  1.1482769e+00
  2.4123751e-03
 -3.4087363e-01
 -3.0908925e-03
  1.6521312e-02
  1.1496571e+00
  3.2260671e-01
 -5.7652217e-01
 -9.4604802e-01
 -4.4977719e-01
  6.9427051e-02
  1.9311916e+00
 -5.7678050e-01
 -1.5080095e-03
 -3.4810482e-03
  1.3589885e-02
  1.9018978e-02
  1.1813303e-02
 -2.4989572e-01
  5.5029178e-01
  3.7226701e-01
  5.7289964e-01
 -1.2714401e-01
  9.2569822e-01
  6.2155086e-01
 -1.7450936e-01
  5.5511940e-01
 -1.8194909e-01
  1.0540862e-02
  7.5419015e-01
  9.2226326e-01
  3.5999182e-01
  7.3927115e-03
  2.2932850e-01
  1.7662245e-01
  4.9900484e-01
  6.1626714e-02
  1.1066767e+00
 -4.4483330e-02
  5.1306438e-01
  4.1795507e-01
  1.4589840e-01
  7.6838017e-01
  7.4027640e-01
  3.1392351e-02
 -1.3917866e-02
 -2.8844713e-03
 -5.7487427e-03
 -1.6373606e-01
  9.7569704e-01
 -5.4790914e-01
 -5.4607129e-01
  7.8143261e-02
  8.7209713e-01
 -1.1453233e-01
 -6.6807933e-02
 -1.4706450e-03
  2.0218492e-02
 -7.2147483e-01
 -6.8814401e-03
  3.1791743e-02
  2.8729506e-02
  5.2368570e-02
  8.8691982e-03
  4.6419032e-06
  6.4691827e-02
 -1.0740091e-01
  3.4363365e-01
 -1.7117886e-03
  2.4326962e-01
 -3.8675311e-01
 -5.3100507e-03
 -1.9017259e-03
 -9.2868455e-02
 -1.1818829e-01
  4.3303049e-03
  4.4076485e-03
 -8.9713940e-03
 -1.1763480e-02
  5.2745497e-01
 -1.7975467e-01
 -1.6691604e-01
  8.9134909e-03
 -9.5557672e-01
  9.0934849e-01
  2.5869593e-01
 -2.1316840e-01
 -5.8873729e-03
  5.9616948e-03
 -4.8843163e-01
 -1.3509777e-01
  2.9709497e-03
 -7.0031953e-01
  3.5246299e-03
 -2.1991577e-02
  1.5300260e-01
  2.5158405e-01
 -1.1793549e+00
  9.6143680e-03
  2.9756206e-03
 -3.0568002e-02
  3.7257126e-01
 -1.2134531e-01
  2.9188259e-02
 -1.5281036e-03
  5.2892510e-03
 -1.0555830e-02
  4.3532592e-03
  4.4984128e-03
 -6.9348937e-01
 -9.1181988e-01
  3.1199136e-01
  5.0098133e-01
 -2.1244055e-01
  1.3453023e+00
  3.5646653e-03
 -7.2022021e-02
 -5.7427101e-02
  5.9926383e-02
  1.3866661e-01
  2.4497990e-02
 -1.0951221e-02
 -5.7897143e-02
  4.3498045e-03
 -6.5126568e-03
  3.6024414e-02
  4.8863965e-01
 -1.2104784e-02
  3.5417405e-01
 -3.4790340e-01
  4.6306986e-01
  4.5948720e-01
  8.2805157e-03
  1.2073359e-01
  1.6051719e-01
 -5.3782300e-03
 -4.6427413e-03
  1.1281471e-02
  3.9858245e-03
  1.5762839e-02
 -7.6720812e-03
 -6.5281922e-03
 -2.5482685e-03
 -5.4548524e-04
 -1.0494504e-03
 -3.7264766e-03
 -5.8387993e-03
 -2.8348972e-05
 -7.5817839e-03
 -9.1399103e-03
 -1.0099318e-03
 -3.8855963e-03
  5.7366849e-03
 -3.2126612e-04
  3.0662424e-03
 -3.3044761e-01
 -6.5949641e-04
  2.8117544e-03
 -2.9597324e-03
  2.0398949e-03
 -3.9906553e-03
  3.0795920e-03
 -1.1848324e-03
 -2.8973263e-02
  1.8824288e-04
  1.2071747e-03
 -3.2538322e-03
 -8.0651371e-03
  3.0762185e-03
  3.0764565e-01
 -1.6908758e+00
 -3.7411049e-01
  2.1038885e-01
  7.1401346e-01
 -2.7607653e-01
 -1.3688038e-01
 -2.3579462e-03
  1.0656095e+00
 -8.9035342e-03
  1.2336019e-01
 -8.0843747e-02
 -3.6822862e-03
  1.6210537e+00
 -6.5256529e-02
  2.1139538e-02
 -1.1371433e-01
 -5.6184644e-01
  1.6258810e-02
  1.5508734e-02
  9.4469205e-02
  4.9644876e-03
 -3.0484480e-01
  2.9140338e-02
  5.5452263e-05
  1.1768530e-02
  9.1798132e-04
 -3.1680746e-03
 -7.5823390e-03
  1.0386391e-03
 -1.7588272e+00
 -1.0223542e+00
 -1.1503706e-03
  2.9317036e-01
 -7.4227853e-03
 -9.9907380e-01
 -1.7894521e-02
  3.8044080e-01
  8.7879831e-01
 -2.0975061e-01
  2.2774873e-02
 -2.4197204e-01
  5.1908921e-03
  4.2454755e-01
 -2.2436081e-01
 -7.0206419e-04
 -3.7769404e-01
 -7.5838876e-01
  1.2214876e-01
 -3.0512136e-01
  1.2885539e-01
  4.8073949e-04
  6.1095975e-02
 -2.1108708e-03
 -5.1323641e-02
 -4.0310840e-03
  9.4955880e-03
  3.0094248e-03
 -4.2656122e-04
  5.5155256e-03
 -2.3137739e+00
 -2.4475531e-01
 -2.4197249e+00
  1.9439170e+00
 -8.9692521e-01
 -5.0307810e-02
 -1.3608435e+00
 -1.0389056e+00
 -1.0940657e+00
 -6.2395078e-01
 -2.1404795e-01
  2.4397517e-02
  6.8610162e-01
 -6.8011957e-01
 -1.6722229e+00
 -6.4010507e-01
 -1.9483598e-02
  5.0357270e-01
 -5.2491599e-01
 -7.6244688e-01
  4.2663798e-02
  3.0709139e-01
  1.6550846e-01
  5.3117245e-01
 -1.5519868e+00
 -1.3459246e-01
 -8.6176991e-01
  8.2216725e-02
  1.2214748e-01
 -9.0939325e-01
 -6.9793570e-03
 -2.1194033e-01
 -2.8778589e-03
 -2.7692533e-04
  2.5091157e-03
  1.3250492e-03
  2.4797179e-02
  9.6275527e-03
  3.1143087e-03
  3.7074238e-01
  3.0636127e-04
  9.4376793e-03
  7.1505940e-04
  5.4832356e-04
 -1.2622232e-03
 -5.8399644e-03
 -6.8507256e-04
 -1.0447989e-03
 -4.4995979e-03
 -6.2506370e-02
  4.6819797e-01
  9.2422019e-04
  8.1405090e-04
  1.9559499e-03
 -3.4319360e-03
  2.5273457e-03
 -3.7379651e-03
 -5.1480107e-04
  7.7308570e-03
  6.8972401e-02
 -3.8927794e-01
  1.2270304e-02
 -3.6653084e-01
  4.3359166e-01
 -1.2693665e-02
 -6.5907216e-01
  1.9475726e-02
 -8.6146435e-03
  6.0939882e-02
  7.0741028e-03
 -2.8512174e-02
 -1.7315472e-02
  2.7231933e-03
 -4.5759380e-03
 -3.1585506e-01
 -4.3962500e-03
  6.9553278e-02
 -2.2614307e-03
  2.1972541e-02
 -1.3841587e-01
 -1.7831835e-03
 -2.0954877e-01
  3.7927702e-01
 -1.6129296e-02
  1.0718995e-02
 -3.2333673e-03
  5.4927003e-03
  2.7663247e-03
 -2.2015085e-03
 -1.2143517e-03
  7.0572976e-04
  1.5162598e-02
 -2.0800880e-03
 -8.8149932e-04
  5.7433443e-03
  2.7340939e-03
 -5.9476253e-03
 -1.8394071e+00
  4.3361131e-03
 -1.2267845e-02
  2.4356279e-03
 -8.1770742e-01
 -5.1365304e-03
  8.3202031e-04
 -6.8137329e-03
  5.5670529e-03
  7.4080110e-04
  7.9632632e-02
  4.4759745e-03
  1.2440998e-03
 -6.8927398e-03
 -6.9707464e-03
  2.1201079e-03
  9.8147173e-04
  2.6472824e-02
 -2.7211094e-01
  9.2828178e-01
  2.3666404e-03
 -2.6273909e-03
 -6.2489789e-03
  8.4394360e-01
  5.6259775e-01
 -5.4004556e-01
  3.4259102e-01
 -3.2522655e-01
  3.2280159e-01
 -4.1151279e-01
  1.1458704e+00
  4.1692358e-01
 -8.1247278e-04
  8.1442273e-01
 -1.0560445e-01
  1.1231080e+00
  6.8474424e-01
 -4.7351077e-01
  2.5538528e+00
 -2.0725366e-01
  5.2982849e-01
  3.1104845e-01
 -8.7673682e-01
  2.0457307e-01
  5.9297508e-01
  4.7655654e-01
  6.5082675e-01
 -5.9084210e-04
  1.3284570e-02
  3.2789444e-03
 -2.0592400e-01
 -3.0379286e-01
 -1.4853175e-03
  9.1787554e-02
  6.5942669e-01
 -1.3718895e+00
  1.6197413e+00
 -7.0972461e-01
  5.5290461e-03
 -2.6505148e-01
 -7.0624026e-03
 -2.9025486e-02
 -2.4186048e-01
 -8.9311451e-02
  5.4447913e-01
  1.2140948e-02
 -1.6064805e-01
  9.4804235e-02
 -7.6776673e-03
  7.8222133e-02
  3.8892299e-02
  3.3941844e-01
 -2.9837060e-01
  7.6679150e-03
 -3.3308712e-01
 -5.3191584e-01
  2.4022866e-02
 -1.3525766e-01
 -6.9312933e-03
 -3.3814516e-03
  2.2767067e-02
  4.0171021e-03
  2.1247149e-03
  3.7961523e-03
  2.1948032e-01
 -9.4054186e-01
  4.4813117e-01
  5.4135537e-01
  8.1777526e-03
  3.0321706e-04
 -4.9872804e-03
  8.3355147e-01
  1.4109897e-02
  2.0440915e+00
 -9.9486420e-03
  2.1729292e-03
 -9.2316857e-03
 -1.2792896e-03
  1.9145275e-02
  2.6935709e-03
  3.5636586e-03
 -3.2827873e+00
  7.6314203e-02
 -3.9051841e-03
  9.4959311e-02
 -6.1814538e-03
  1.9239797e-04
 -2.2014740e-03
  4.2909728e-03
 -4.1847257e-03
 -1.1884342e-02
  6.5363134e-04
 -2.4747381e-03
  7.0703495e-03
  4.5707985e-03
  1.6798022e-03
 -2.1222006e-03
  1.9400112e-01
  1.0633907e-02
  1.1653734e-03
  9.6793741e-04
 -1.8898837e-03
  1.0315250e-03
 -1.2250375e-03
 -9.3331896e-03
  1.7201138e-03
  5.9392839e-03
 -1.7691007e-03
  1.6760423e-03
  2.5898626e-01
  1.1315075e-03
  7.0078475e-03
 -9.3309104e-04
 -2.1076626e-03
  2.0074442e-02
  1.9409099e-03
  3.3420292e-03
 -2.5238029e-03
 -7.3974626e-03
 -1.9800143e-04
 -1.2142336e-02
 -6.7066337e-04
 -4.2851418e-03
  4.6554777e-01
 -9.5231973e-02
  1.4911209e+00
  4.1191310e-02
  8.1749105e-01
  4.5003988e-02
  2.3447463e-04
  2.3892790e-03
 -1.3516064e-01
 -1.4616877e-03
  4.4871676e-03
 -1.1686993e-02
 -1.3008179e-01
 -2.1530749e-02
  4.5474181e-01
 -8.3361836e-03
  4.7490172e-02
  8.0113292e-02
 -1.5188493e-01
  3.3403918e-01
 -1.1664850e-02
 -4.9170172e-01
 -4.6941312e-03
 -1.9951368e-02
  7.5969577e-02
  3.8972065e-01
 -1.1404982e-03
  2.9118943e-03
  4.0529571e-03
 -2.9015483e-03
 -1.6173093e-01
  1.0684807e-02
  4.2448021e-03
  2.4578795e-01
 -3.2111358e-02
  1.7716826e-01
  3.5168424e-02
  5.8454834e-02
 -1.6934021e-01
  1.6663576e+00
 -3.5974953e-02
 -1.8847004e-02
 -9.2325853e-03
 -4.6937168e-03
  9.7202912e-02
 -3.0988818e-03
 -3.0885518e-01
 -2.3254630e-01
 -3.6820307e-01
 -2.1088924e-01
 -2.8536364e-02
  2.4474488e-01
  2.2310673e-01
 -2.0573731e-03
  3.4069800e-01
 -1.7122288e-03
  2.0710819e-03
 -1.1861643e-02
  1.3561252e-02
 -4.7124471e-03
  1.4263169e-01
  7.3415837e-03
  3.3420816e-01
 -8.3998072e-01
 -3.7502058e-02
  4.7055569e-01
 -1.0258240e-01
  1.0133116e-02
  4.9244425e-01
  1.7849605e-01
  5.8153044e-02
  1.0826853e-02
  2.5883801e-02
  3.0366147e-02
  1.6121179e-01
 -2.2288502e-04
 -7.0619732e-02
 -2.7018213e-01
 -5.8798520e-03
  4.8595828e-01
  1.8816094e+00
  5.0994206e-02
 -3.7363622e-01
  7.8415029e-02
 -7.1025677e-03
 -8.2364399e-03
  6.1752205e-03
  1.0700511e-02
 -8.2377363e-03
 -2.5632236e-02
  3.8694805e-03
 -4.4671493e-03
 -6.7719698e-02
 -3.7401900e-01
 -9.8030978e-01
  4.5339815e-02
  7.2570066e-03
 -2.6535979e-03
 -2.2397360e-03
  1.3133163e-02
  1.6369629e-01
 -3.1365377e-01
 -9.4667040e-03
 -2.3355177e-02
 -3.6431120e-03
  1.1357912e-04
  2.4111760e-01
 -6.0877297e-02
 -5.3697997e-03
 -1.1438573e-01
  1.4344186e-03
 -5.7672863e-03
 -2.5121337e-02
 -1.7744386e-01
  7.8434311e-03
  8.9629937e-04
 -1.9417547e-03
 -1.1238397e-02
  9.4101485e-03
 -2.2314566e-03
 -3.7732783e-01
 -9.4847101e-01
  7.7698147e-01
 -9.6497990e-02
 -8.2018769e-01
  4.1571689e-01
  7.8861511e-01
 -3.0936735e-02
  3.4500250e-01
  2.0153233e-01
  1.3086005e-01
  1.0090741e+00
  1.6523950e-01
 -1.0022043e+00
  2.9702282e-01
  4.3986359e-01
  2.1497791e-01
 -7.6871252e-01
 -8.1055060e-02
  1.1450504e+00
  3.5871217e-01
 -2.0470996e-01
  2.3011545e-02
  8.2710618e-01
 -6.4837438e-04
  2.3435648e-04
  6.9933748e-03
 -1.6526284e-02
 -6.2977956e-03
  2.1921786e-02
 -1.3816444e+00
 -4.5469787e-02
 -2.5605288e-01
  2.2051509e-02
 -2.7776977e-01
 -5.2333170e-01
 -4.7810873e-04
  3.1161886e-03
  5.5281434e-02
  3.6119656e-03
 -9.4764140e-03
  2.0509639e-03
 -1.5322042e-03
  5.8124568e-03
 -1.4459603e-01
 -1.9392138e-02
  4.4529781e-02
 -1.6730508e-01
 -1.9739509e-02
 -6.7377710e-01
  2.4486068e-01
 -5.1007443e-03
  6.2559225e-04
 -3.4414285e-01
  1.9631027e-03
 -4.3454044e-03
  1.4800546e-02
 -2.9240001e-03
  1.6984653e-03
  1.7934657e-03
 -4.9551651e-01
  1.8655850e-01
 -2.2152302e+00
 -7.7852213e-01
  8.3587563e-01
 -4.1919667e-01
 -1.7405641e-01
 -1.6956496e+00
 -2.1669758e-02
 -3.1790289e-03
 -8.6399555e-02
 -7.2450686e-01
 -2.1183465e-04
  1.8650182e-02
 -1.6283410e-02
 -2.0598926e-02
 -1.8410866e-01
 -6.3462090e-01
  1.5669273e-02
 -2.2867931e-01
 -2.7837900e-03
 -2.4620967e-02
 -3.0021512e-04
 -2.8164755e-03
 -2.2617671e-01
  2.0189646e-03
  5.7827476e-03
 -2.6498558e-03
 -3.9780750e-03
 -1.3531400e-02
  1.0806969e-02
 -2.5076447e-03
 -1.4268953e-01
  2.1888345e-01
 -6.1565605e-03
  8.1749775e-02
  1.0313961e-02
 -5.7575800e-03
 -1.0625583e+00
 -1.7017965e-01
 -2.4024349e-02
 -5.7864487e-03
 -6.8525970e-04
 -9.3291497e-01
  2.5665888e-03
  4.5691789e-03
  3.7096234e-03
 -1.1544777e-02
  6.0310861e-04
 -6.0729883e-03
  1.6053861e-01
 -1.2878361e-02
  7.5298471e-05
  3.1531581e-03
  2.6209513e-03
 -9.9048360e-05
 -9.9014258e-03
  8.6715442e-01
 -6.0242997e-04
  6.0966160e-02
  5.3361109e-03
  6.4999383e-04
 -4.0537883e-03
  9.5892290e-04
 -1.5441254e-03
  2.5448816e-02
  9.0745613e-03
 -2.8538059e-03
 -1.3312931e-03
  2.2655749e-03
  1.6982377e-03
 -2.0595158e-03
 -8.1604499e-05
 -2.1322213e-02
 -1.0741322e-02
 -3.1995042e-03
  1.5987151e-03
 -1.6738249e-03
 -2.3394125e-02
  7.2587869e-04
 -4.9383700e-01
 -4.5708427e-03
 -3.0170945e-03
 -3.1450281e-03
  7.0231291e-03
  1.9254724e-03
 -3.2541901e-04
 -4.4058948e-03
  7.7381260e-03
  3.7264468e-03
 -1.2157432e-01
 -7.1689583e-02
 -7.9984955e-02
  2.5547591e-01
  3.4648985e-01
  5.6291707e-02
  5.8689876e-03
 -1.1902286e-01
  7.0830015e-03
  2.5627559e-01
 -1.3222382e-02
 -6.3166190e-03
 -8.5221656e-04
 -1.0141095e-03
  6.3290978e-03
 -3.1409424e-02
  4.7244020e-02
 -1.3930530e-02
 -1.9375788e-02
 -6.3291066e-03
 -3.6214937e-05
 -4.4470974e-03
  1.8707110e-03
 -2.2701868e-03
  6.5533887e-03
 -1.9468946e-03
  2.2335304e-03
  3.4122306e-03
  8.9841736e-03
  1.2801199e-03
  5.1791361e-04
 -3.2609000e-03
 -4.9478938e-03
 -1.4420626e-02
 -1.5085972e-04
 -5.3283013e-04
  1.0192195e+00
 -7.4139755e-04
  2.6830507e-03
  3.5213681e-03
 -2.2856409e-03
  4.2259856e-03
 -3.5213227e-03
 -1.6420938e-01
 -7.8509841e-04
  4.9408926e-03
  5.4248828e-03
  3.9111944e-03
  7.9427650e-03
  2.8185523e-05
 -2.7078444e-03
  2.7211080e-03
 -5.6630443e-03
  3.7366024e-03
 -1.3252156e-03
  1.9302035e-03
 -1.3617838e-03
  9.9659781e-04
 -5.2898843e-03
 -5.6802528e-03
 -9.0048277e-01
  1.6186116e-02
  5.7598656e-01
  3.9153032e-02
  1.4049544e+00
 -1.1599659e+00
 -7.1540254e-01
  3.9231542e-01
  6.8375391e-01
  4.0633824e-02
 -2.6505446e-02
 -1.4157689e-01
 -1.0023651e-03
 -1.0111498e+00
  3.9883223e-03
  9.0535629e-01
  1.6326180e+00
 -1.8394080e+00
 -1.9387582e-04
 -1.1684602e-01
  8.9146638e-01
  8.7012991e-02
  3.9096576e-01
 -4.6648079e-01
 -9.7810781e-01
 -8.4812021e-01
 -1.9955643e-02
 -1.4552672e-03
  3.6155620e-01
  5.8976756e-03
  3.8578108e-01
  7.4082690e-01
 -6.1009723e-01
 -4.8949045e-01
  1.4083284e+00
  7.1933967e-01
 -1.3223099e+00
 -3.0995056e-01
  1.0602494e-01
  2.2716171e-01
  3.6229530e-01
  1.6470296e+00
 -7.4345857e-02
 -4.5313361e-01
  6.9110513e-02
  5.4916579e-01
  3.9601111e-01
  6.1667079e-01
 -1.7217943e-03
 -3.2892343e-01
 -3.0921644e-01
  4.0813321e-01
 -2.3098449e-01
 -1.1731584e+00
 -1.7798591e-01
  6.6870713e-01
 -1.2659533e-01
 -1.4119993e-01
 -3.1380156e-01
  3.1801596e-02
  4.2234488e+00
 -2.2583206e-03
  2.5848451e-03
  1.4755120e-02
  2.2947626e-02
 -9.4894104e-02
 -4.7840732e-03
  3.7158020e-03
  9.4080764e-01
  1.7134489e+00
 -5.3870583e-01
  8.5607148e-04
 -8.7957126e-01
  7.1643025e-01
  1.6184773e+00
  3.2702975e-03
  2.4128746e-02
 -1.3194600e-03
  1.8685975e-03
 -2.1979341e-04
  2.3639316e-02
 -5.5647664e-02
 -7.1791485e-02
 -1.2609872e-02
 -1.1739337e-03
 -4.0381104e-03
  4.4082180e-02
  3.1325759e-05
 -2.4920218e+00
  7.7275890e-01
  2.7630875e-01
  1.0965255e+00
 -9.8184073e-01
  3.1487639e-03
  2.1927986e-02
 -7.5045897e-04
 -5.1691043e-03
  3.0500907e-01
  7.0063460e-01
  5.0612557e-01
 -1.8183875e+00
 -3.5844979e-01
 -1.4482634e-01
  6.0354150e-03
  5.3191066e-01
  1.6230907e-01
  4.5158651e-01
 -5.6946033e-01
  7.5532621e-01
  2.9730871e-01
  2.2454296e-01
  3.1283421e-03
  8.7313205e-02
 -8.1068121e-02
 -7.2518241e-01
 -8.8014156e-03
 -2.9481736e-01
 -1.6757512e+00
  9.4719529e-01
 -3.0528957e-03
 -1.1569386e+00
  1.5127534e+00
 -8.5606590e-02
 -3.9421916e-01
 -1.5555857e+00
  6.1023712e-01
 -2.7911649e-03
  1.9042283e-02
  5.3805280e-01
 -2.7921936e-01
 -1.7882854e-03
 -1.7621294e-03
 -2.0432246e+00
  4.0968129e-01
  1.8110026e-02
  4.0029157e-03
 -4.5374772e-01
  4.2558682e-01
  2.0313089e+00
  1.7556986e+00
 -1.2029036e+00
 -1.8743018e-03
  9.1214916e-03
  1.4484581e-03
  7.5515634e-03
  1.2241664e-01
  4.1966908e-02
  3.4100304e-03
 -1.2032274e+00
 -1.4368395e+00
  6.3772631e-01
  1.1640919e-03
  1.8102610e-01
 -3.4195480e-01
 -1.0151525e+00
 -5.8346342e-02
  1.0028712e+00
  1.1566761e-01
  2.6722962e-02
  1.0380423e-02
  5.8420252e-02
 -6.9105327e-01
 -3.6591035e-01
  1.6116775e-03
  5.3935736e-01
  5.1861055e-02
  2.6765449e+00
 -1.0423183e-02
  1.7220365e+00
  3.5741276e-01
 -8.0597498e-02
  2.0473514e+00
 -6.7695034e-01
 -3.4598422e-01
 -5.1463833e-03
 -3.6802320e-03
  5.1312339e-01
 -6.4821869e-01
 -1.6436926e-01
  2.8738992e+00
  1.1235229e+00
  7.6885188e-01
  1.5914500e-02
  2.1602379e-02
  1.1768446e+00
 -9.0718992e-02
  1.1576368e+00
  3.2354182e-01
  6.0020936e-01
  5.0018593e-03
 -6.0101841e-03
 -3.2928048e-04
 -4.8250142e-02
  8.5491872e-01
  1.3299750e+00
  2.8094925e-02
 -1.8925946e-02
  4.8173243e-01
 -2.7277092e-02
 -9.2025958e-03
  8.3166249e-02
  3.1638610e-01
  1.5282497e+00
  2.0927782e+00
 -6.3442552e-01
  1.1064362e-01
 -1.2975137e-01
  3.7925120e-03
 -7.3924416e-01
  4.5723644e-01
  2.9447216e-01
  6.0553037e-02
 -8.7310779e-01
 -4.1522765e-01
  3.0473739e-01
 -4.5268628e-01
 -3.3730832e-01
  1.4514451e+00
  1.0091442e+00
  9.8473489e-01
 -5.4157746e-01
  8.3434507e-02
 -2.2842321e-03
 -1.4324287e-03
 -3.4986621e-01
  1.8844289e+00
  1.7880858e-01
  4.4135939e-02
 -9.8788047e-01
  1.1307818e-01
 -7.6108897e-04
 -4.5367652e-03
 -1.1524415e+00
 -1.7961216e+00
  1.0153336e-03
 -1.2608997e-02
  4.9488118e-01
 -1.1026950e-02
 -9.3930268e-01
 -5.0473644e-04
 -7.3058617e-01
 -1.1160866e+00
 -8.7061656e-01
 -2.3681477e-02
  7.7359118e-02
 -5.5490720e-01
 -7.3296773e-01
  1.5488353e-01
  1.6457766e+00
 -5.0290096e-01
  2.3875337e+00
  1.2207489e+00
 -2.5606930e-02
  1.4094198e-01
 -2.4822555e-03
  1.0422227e-02
 -3.3359274e-01
 -3.2659885e-01
  1.0413024e+00
  5.6462032e-01
 -5.0773311e-01
  9.4644678e-01
  3.2954127e-01
  3.4339405e-03
  2.4827977e-01
 -4.8561597e-01
 -4.6942160e-01
 -1.4132040e-02
  1.7372078e+00
  7.9201750e-02
  9.7677074e-02
  1.7238365e-02
 -1.1110386e+00
  3.3228178e-02
 -1.7405824e-01
 -5.3185380e-01
 -1.0112803e+00
  7.9893982e-01
 -3.8254189e-01
 -2.1645397e-01
 -1.2353359e+00
  2.8674239e-01
 -7.5562090e-01
  3.6610857e-01
  7.4480265e-01
 -2.6063468e-02
 -2.6437470e-01
  8.9495238e-03
 -5.2027404e-01
 -2.8811404e-01
  4.1167088e-02
  2.3636085e-01
  1.2605616e+00
 -1.6166370e+00
 -8.5487351e-02
 -1.0541560e-02
  1.1717973e+00
 -1.5927051e-01
  4.8004872e-01
  1.8787268e+00
 -4.2964230e+00
  6.5012030e-02
  4.8390506e-03
 -1.3859777e-01
  2.3542044e+00
  6.2879324e-01
  3.2769933e-01
  1.9190806e+00
 -9.5423913e-01
 -1.5265931e+00
 -6.9647205e-01
 -1.6133738e-01
  5.0190890e-01
  2.7213615e-01
  1.0088801e+00
 -1.7418159e-02
 -7.1625978e-01
 -5.9381258e-01
  5.7540759e-03
  3.4812817e-03
 -1.4012653e+00
  8.4696341e-01
 -2.2156806e-01
 -6.1993498e-01
 -4.6310654e-01
 -6.6825241e-02
  1.8163093e+00
  1.5722288e-02
  1.0372987e-01
  3.1561887e-01
 -8.5372990e-01
  8.3856088e-01
  9.4341263e-02
  3.0960259e-01
 -1.9385876e-02
  1.0462165e-02
  2.6235169e-01
  1.5651456e+00
  4.3419689e-01
 -2.5702803e+00
 -3.2983354e-01
 -2.3425333e-01
 -1.4281423e+00
 -1.4515090e-01
  1.7280889e-01
 -9.9180120e-01
  5.4400805e-02
  1.5162221e-01
  1.5292418e+00
  2.0976942e-02
  1.5913574e-03
  3.6896446e-03
  7.4302107e-01
  5.0329417e-01
 -6.1348313e-01
 -1.1052028e+00
  1.4335087e-01
  8.1657067e-02
  1.9994774e+00
 -1.0590845e-01
 -1.7432518e+00
  1.0848255e+00
  6.8881714e-01
  2.7487211e+00
 -7.9474680e-02
  1.5961887e-01
  7.7703451e-03
  7.5698816e-03
 -5.9675431e-01
  2.5496224e-03
 -3.0858837e-02
 -4.5627251e-02
  2.8861219e-01
 -5.1177436e-01
  1.8556666e-01
  8.4204627e-03
 -1.0515400e+00
  7.8792566e-01
  3.9146417e-01
  4.1287339e-01
 -2.0508118e+00
 -1.3664999e-02
 -4.3194789e-02
  2.0633206e-04
  5.1455118e-02
 -3.4836617e-01
 -1.4610396e-03
 -5.7469204e-02
  4.7674626e-03
 -2.0578553e-01
 -3.7249723e-03
 -4.2690234e-03
  4.2519265e-01
 -2.6061890e+00
 -1.9383821e+00
 -9.4577056e-01
  2.7569753e-01
  2.9905543e-01
 -1.4827629e-03
  5.0302047e-02
 -1.3039842e-01
  6.6561632e-02
 -1.2460282e+00
 -1.7525136e+00
  1.9798978e-01
  8.5570157e-01
  4.1282192e-01
 -3.5641706e-03
 -1.7779306e-01
  9.8027930e-02
  6.1489677e-01
  9.9149615e-01
 -8.9092112e-01
  4.5969915e-01
  7.1487874e-03
  2.0033118e-01
 -9.8535144e-01
 -4.3905279e-04
  3.4649238e-01
  1.5402344e-01
  4.4262564e-01
  2.2613095e-01
  5.1788231e-03
 -4.2907833e-03
 -1.0167046e+00
  1.7185732e+00
  1.2429280e+00
  1.3558394e+00
 -1.2491641e+00
 -1.6104244e+00
 -2.0530179e-01
  3.4381896e-02
 -7.6056886e-01
  1.1252420e-01
 -3.6098775e-01
 -1.5709223e-01
  1.0813179e+00
  1.3264629e-01
 -5.8324937e-02
 -6.1045634e-03
 -2.8592744e-01
  1.0987238e+00
 -2.5454891e-01
  3.5622087e-01
  4.4954428e-01
 -2.2136037e+00
 -7.2190948e-02
 -2.7942070e-01
 -2.9192361e-01
 -9.1514254e-01
 -1.1765702e+00
 -1.0258081e+00
 -1.2445055e+00
  3.6635572e-01
  1.1050104e+00
  4.3881405e-03
  1.5809891e+00
  5.2481294e-01
  7.3972511e-01
 -9.6124309e-01
  3.7151057e-01
  1.2640403e-01
 -1.5589448e-02
  6.9410212e-02
  2.2156100e+00
 -2.2456738e-01
  3.5694024e-01
  8.6735016e-01
 -1.7790008e-01
 -1.0293594e-03
  8.7277167e-02
  5.2359891e-03
 -1.3675132e+00
  2.0128781e-01
  8.7551868e-01
  1.5748085e+00
 -9.3057942e-01
  5.6655794e-01
 -2.6784453e-03
  9.9835929e-04
  3.7383292e-02
 -1.4481338e+00
 -8.3026099e-01
 -9.7376227e-01
  2.2213333e+00
  1.2838936e+00
 -2.2386441e-02
 -2.1349922e-02
 -1.2140081e+00
  1.0492740e-01
  7.5611311e-01
  1.0386766e+00
 -8.4740514e-01
  3.4041563e-01
  9.5975017e-03
  3.1104896e-02
  3.6967490e-02
  3.5948196e-01
 -2.4007529e-01
 -1.0424127e-01
  1.1847515e+00
 -1.2120619e-01
  6.6909857e-02
  8.9869807e-03
  4.9384964e-01
  4.1813049e-02
 -1.4583205e+00
  5.8427382e-01
  1.5244787e+00
 -2.9298512e-02
  5.2856645e-03
 -5.4521258e-03
  3.9333147e-01
 -1.5804912e+00
 -1.6389239e-03
 -1.7880365e-02
  6.2361902e-01
 -1.0478848e-03
 -7.1474612e-03
 -2.8460126e-03
  2.7639268e-04
 -6.9973361e-01
 -3.1941484e-03
 -5.0958139e-01
  4.5747557e-01
 -1.9026984e-03
  1.4188723e-03
 -3.4800558e-03
  9.4231802e-01
 -1.3190012e-01
  3.3123845e-01
  2.8602801e-02
 -1.1260939e+00
  1.0008965e-01
 -3.2682552e-03
 -6.0128230e-03
 -7.7284932e-02
  5.0937647e-01
  7.8326678e-01
  4.6477214e-01
  1.7232888e+00
 -3.7123346e-01
  1.8218762e-01
  9.4599865e-04
  2.6589611e-01
 -9.8789567e-01
 -7.2495735e-01
 -1.6957265e+00
 -2.0657253e-01
 -8.7375319e-01
 -7.3174140e-03
  6.0828319e-03
 -5.6780738e-01
  8.8018948e-01
 -1.7057273e+00
 -5.6619206e-03
  4.3116766e-01
 -3.7568606e-02
 -8.1293769e-02
 -3.6451810e-03
  1.2759476e+00
  2.0786606e-02
  9.0920888e-02
  2.0892452e-01
  4.3414935e-01
  8.2072001e-03
 -1.2564381e-03
  1.7261300e-03
  3.9480231e-03
 -1.3903170e+00
 -1.4615346e+00
 -1.3280498e+00
  4.5297763e-01
  1.0254487e+00
  5.7323563e-01
  3.5872206e-04
  8.8855334e-02
  2.0554032e+00
 -2.1209152e-01
 -4.7387205e-02
 -1.7647046e+00
 -8.3612537e-01
  3.5595421e-03
 -1.2815339e-04
 -4.8512354e-01
  1.1277750e-01
  3.8339129e-01
  1.2972434e-02
  1.4079394e+00
 -1.0488839e+00
 -8.0868818e-02
  1.0728406e-01
 -1.2697537e-01
  1.5559028e+00
 -1.4097046e+00
 -6.8083867e-02
  5.3266323e-01
  2.6630795e-02
 -2.8302374e-03
 -6.4071384e-04
 -1.3189487e-01
  1.6344521e+00
  4.1389564e-01
  9.3549185e-02
 -5.0453162e-01
  5.4960746e-01
 -1.4489095e-01
 -5.4316903e-03
  1.2251531e+00
 -8.0695528e-01
 -2.3460411e-02
 -2.3126683e-01
  2.1759920e+00
 -4.4496946e-02
 -2.5275117e-03
 -7.9056364e-04
  4.3917051e-01
  4.8018786e-01
 -3.8515943e-01
 -2.0609325e-01
 -2.7832621e-01
  5.8033317e-01
  9.1669366e-02
 -2.6908621e-02
  2.1289851e-01
 -2.4143381e-02
  7.0730275e-01
 -2.1732070e-01
  3.1009771e-02
 -3.1479633e-01
  3.3327814e-03
  1.0734275e-03
  9.5596695e-01
  5.9022725e-01
 -6.1697960e-01
 -8.7237090e-02
 -1.4975386e+00
 -1.1543702e+00
 -5.2864462e-01
 -1.2195037e-01
 -9.3210578e-01
  6.4067596e-01
  4.1535612e-02
  1.2005357e-02
  1.0079542e+00
  2.6227286e+00
  8.1772012e-01
 -4.1069356e-03
  9.3881422e-01
 -1.2348297e+00
 -9.7006106e-01
  5.0675565e-01
  5.9706318e-01
 -3.5146926e-02
 -1.3024886e-02
  4.4949036e-03
  5.1430548e-03
 -3.3893585e-04
 -6.0480954e-03
 -5.9949281e-03
 -3.7777596e-04
  3.3453229e-01
  4.2847216e-02
  3.4033370e-03
 -1.5908922e+00
 -1.2306224e+00
 -7.6755828e-01
  6.3883709e-03
 -6.0476935e-01
  2.9300859e-03
  8.9437611e-02
 -9.3459776e-03
 -1.1218734e+00
  2.6839957e-01
 -2.3291017e-01
  1.4194424e-03
 -3.8420603e-01
  7.8361976e-01
 -5.7618380e-02
 -9.3571935e-04
 -1.1523919e-01
 -3.1773019e-01
 -1.3736075e+00
  1.0720284e+00
 -1.2178258e+00
 -7.7285564e-01
 -2.0305553e-02
 -4.2877525e-02
 -3.6481974e-01
 -7.6242316e-01
 -1.1437738e-03
  1.9717003e-04
  6.1511856e-01
  7.1891415e-01
  1.2305263e+00
  1.4195669e-01
 -1.6834013e+00
  7.4520844e-01
  1.2103157e+00
 -1.7230307e-01
  2.9776004e-04
 -1.3394231e-02
  6.3971273e-04
 -1.3865020e-02
  4.0622619e-01
 -2.3861146e-01
 -1.3593661e-02
  1.4648238e-03
 -4.6292746e-01
 -7.3787183e-02
 -1.0876493e-02
  7.6705120e-03
 -3.3419502e-01
 -4.2287266e-01
 -4.6290490e-01
  2.5089482e-02
 -2.1152711e+00
 -2.3825210e-01
  4.6307324e-03
 -2.8625580e-03
 -1.4745407e+00
  1.2114615e-02
  5.0105967e-02
  1.5469308e-02
 -1.8540536e+00
  7.3736303e-02
 -4.2514399e-01
  5.6609074e-03
  1.2680185e+00
  2.0657351e+00
 -5.3136343e-01
  4.6705127e-01
  5.8038759e-01
  7.6130611e-01
 -3.0086122e-02
 -3.3370492e-01
 -7.9734570e-01
  3.4869829e-01
 -3.3090062e-02
  8.2663998e-02
 -7.2127712e-01
  2.0625530e-01
  5.9711277e-01
 -3.7680866e-06
  2.2175120e-02
  3.5598439e-01
  6.5244913e-01
 -6.9726163e-01
 -7.6588511e-01
 -1.7333053e-01
  1.0857665e-02
  5.6763371e-03
 -5.6852072e-01
  1.2869760e-01
 -5.1036078e-01
 -1.8161093e-01
 -8.8264281e-01
 -6.5887856e-01
  6.2171062e-03
 -2.1563645e-03
  8.8056707e-01
  9.3738260e-03
  1.4265127e+00
 -1.0554846e-01
 -2.7239680e-01
  3.1395474e-01
 -1.3596463e-02
 -3.8771107e-04
 -7.5608748e-01
 -3.6330211e-01
  1.0217505e+00
 -2.1570823e+00
  6.6598520e-02
  1.8796487e-02
 -2.4860255e-02
 -5.7890651e-05
 -3.7263831e-01
 -2.9287934e-01
  1.2750578e-01
  1.9814159e-01
 -1.5149206e+00
  2.0915861e-01
  6.8937847e-03
  1.9082996e-01
 -8.9269340e-01
  2.6128592e-03
 -3.2575147e-03
 -3.3029004e-03
 -8.3346063e-01
 -3.6652245e-02
 -5.4837674e-02
 -5.0567039e-03
  1.3640971e+00
 -1.1238842e+00
  9.5029891e-01
 -8.8642788e-01
  1.5615420e-01
  3.3032404e-05
  3.0875143e-03
 -5.7590660e-04
 -2.5733167e-01
  1.1885779e-02
  4.5942971e-01
  7.5934953e-03
  1.4561972e-05
 -1.1410652e-02
 -1.9206307e-03
 -7.3476150e-03
  1.7348355e-02
 -6.2253331e-03
  9.0190136e-01
  1.6252451e+00
  5.4778825e-02
  1.4678980e-02
 -7.3097972e-03
  4.3951532e-01
 -3.3536720e-01
 -1.1196511e-02
  5.4699939e-04
 -2.4055313e-02
 -4.5320421e-01
  1.0409574e-01
 -1.7145162e-02
 -3.0373789e-03
 -4.0192056e-01
  3.6450833e-02
 -8.2148129e-01
  2.1048188e-01
 -3.2308400e-01
  7.8251499e-01
  5.3341319e-03
 -1.3582287e-02
 -5.3912264e-01
 -2.9800016e-02
 -2.3319277e-03
  6.1328500e-03
 -2.1482538e-01
 -6.6205329e-01
  5.9931405e-04
 -2.4846103e-03
 -4.5793825e-01
 -4.9498357e-02
  1.5261774e+00
  6.8203771e-01
 -2.6900597e+00
  1.3938501e-01
  2.9376680e-03
  2.0796090e-01
 -2.3961841e-01
 -2.2514733e-02
 -1.3955460e-03
  1.6240478e-03
  4.5774039e-03
  7.8512080e-02
  1.3477384e-01
  8.0869021e-03
  1.0230047e+00
  3.1533700e-01
 -2.7796400e-03
 -1.0214795e+00
 -1.1054385e+00
 -4.5536342e-01
  6.9461966e-01
  1.9385241e-02
 -3.9292431e-01
  4.9385411e-01
 -2.0659140e-03
 -1.0250370e-02
 -4.0600806e-01
  6.4034961e-02
 -1.7262192e-02
  1.7884308e-03
  1.2243666e-01
  9.0716016e-01
 -3.1767595e-01
  3.2350713e-01
 -2.9613018e-01
  1.7551695e-03
  2.8194344e+00
 -1.6722245e-02
 -5.7353812e-01
  3.8855763e-03
 -4.2442675e-04
  2.4134316e-03
 -9.2725515e-01
 -7.6188093e-01
  2.9590470e-04
 -2.4882998e-02
  1.0670311e+00
  1.1255968e+00
  1.5020952e-01
 -7.2988600e-02
 -8.2196444e-01
  5.2007657e-01
  4.6580473e-01
  8.3113962e-01
 -1.4862105e-01
 -4.1807702e-01
 -7.3961145e-03
 -2.0454672e-01
  3.1950417e-01
  3.4266612e-01
 -2.7437407e-01
  4.5036776e-03
 -1.4662951e+00
  6.7539555e-01
  1.5305218e+00
 -2.2290144e+00
  2.9338533e-01
  2.0957924e-01
 -2.4004908e-01
  2.6463978e-02
 -7.7008255e-02
  2.7310917e-01
  2.1765276e-03
  2.7951698e-03
 -4.8581979e-01
 -6.5436848e-02
  8.5547948e-03
  3.1611626e-03
 -2.0107150e-01
 -1.0140860e-01
 -8.1575876e-01
  7.6263331e-02
  3.4812233e-01
 -7.7152252e-01
  9.2336535e-01
  7.6434141e-01
  5.1726680e-02
  7.2638011e-01
 -7.2629549e-02
  4.3078008e-01
 -4.8294973e-02
  4.1734248e-01
  2.5141877e-01
  1.0812892e-02
  9.1898382e-01
  1.7088840e+00
  2.4799070e-01
 -6.4965084e-02
  1.9147614e+00
  8.9259177e-02
  7.9569951e-02
  2.1298758e-03
 -1.2574548e+00
  2.0570937e-03
  1.1951145e-02
  2.2948836e-03
  8.4131089e-04
  2.4544043e-03
 -1.5082406e-02
  5.4683117e-03
 -1.9867057e+00
 -8.8967139e-01
 -1.1466004e+00
 -9.8163790e-01
 -7.6906636e-02
  1.0344436e+00
 -2.0359892e-02
  4.3043038e-03
 -3.4512633e-01
  1.0167347e-01
  3.8878433e-02
  4.0319517e-01
  1.7131544e-03
  2.1904944e-01
  6.6974914e-01
  1.8584393e-01
 -5.3668398e-01
 -3.5546726e-01
  1.8521639e+00
  9.4886696e-01
 -1.9615165e+00
  1.7498832e+00
  1.8154377e-01
  5.3440869e-01
 -7.8119820e-01
  1.3494149e+00
  6.5589705e-03
  1.5820038e-03
  2.5659646e-03
  9.9399716e-02
 -9.6494902e-04
 -1.0803299e-04
 -2.5997260e+00
 -3.1511864e-01
 -4.8988813e-01
 -1.5275154e+00
  1.8730351e+00
  1.8527483e+00
 -5.3508687e-01
 -1.6171046e-02
 -2.0204406e+00
  2.2294827e-01
  2.4452817e-03
  7.8150421e-02
  1.6497013e-01
 -5.6395161e-01
  4.6643728e-01
 -9.2344754e-04
 -2.2613840e+00
 -6.2174153e-01
 -1.1298679e+00
 -3.3686608e-01
  4.4605756e-01
 -6.7751122e-01
  1.0143675e+00
  4.0502772e-01
 -4.5425144e-01
 -8.6784825e-02
  9.3359770e-03
  3.2064366e-01
 -1.0130717e-01
  2.1104881e-01
 -2.0145485e-01
  6.8914314e-04
  3.1850231e-01
 -5.2456594e-01
 -2.2982647e+00
 -1.2455455e+00
  1.7917483e-01
  1.2764019e-01
 -5.8687259e-03
  5.5159909e-01
  6.3361400e-01
  1.6355402e+00
  1.4167856e-02
  2.7266348e-02
  4.4015473e-01
  7.9581451e-01
  4.8553649e-01
  3.7693258e-03
  6.3374823e-01
 -9.6527791e-01
 -2.2303019e+00
 -6.4724112e-01
 -3.9926416e-01
  2.2698049e-01
 -5.8415490e-03
  6.6361934e-02
  7.7466570e-02
 -8.9399415e-01
  1.0132939e-04
  4.0385455e-01
 -3.6975423e-01
 -3.7455079e-01
  2.4039952e-01
 -3.0732325e-03
  1.7673370e-01
 -6.0760278e-01
 -9.7309965e-01
 -4.0580237e-01
 -5.6639695e-01
  3.9541721e-01
  1.1142957e+00
  5.0212998e-02
 -9.8231155e-01
  3.0894049e-02
  2.9736578e-03
  2.4186871e-04
 -2.1739225e-01
 -6.1355203e-01
  2.3053408e-01
  1.0159523e-03
  2.5821093e-01
 -4.9937752e-01
  6.0749567e-01
  1.6194670e+00
 -5.5616218e-01
 -1.2329660e-01
 -5.7039857e-03
  9.8738694e-01
 -3.3863306e-01
 -1.3732738e+00
  3.2555118e-01
  2.4129322e-01
 -3.1924555e-01
 -9.8311412e-01
  2.0124970e-03
  4.0977802e-03
  5.4116834e-02
 -1.1056806e+00
  1.5147111e+00
 -1.0954815e+00
  9.9898648e-01
 -4.9420622e-01
  1.4956975e-02
  6.4204377e-03
  1.7252228e-01
 -6.6749053e-03
  7.7825529e-03
  8.9739394e-01
 -1.4137028e+00
 -1.0657378e-02
 -1.0112747e-02
 -6.1082407e-03
 -1.7159861e-01
  9.7387993e-01
 -2.8497053e-02
  3.5047802e-01
  2.3570877e-01
 -5.0043766e-03
 -1.5080984e-02
 -3.3370066e-01
 -1.0037498e+00
  2.9750368e-01
  2.7281490e-01
  4.2273521e-01
  7.0301783e-01
 -3.0949476e-01
  3.5544898e-04
  6.2941643e-03
  4.5250952e-01
 -2.4331962e-01
 -2.8406839e+00
 -1.0246674e+00
 -1.2685720e-02
 -1.0328338e-01
 -4.1676766e-01
 -1.2918211e-04
  2.1302910e+00
  9.4676042e-01
  9.1936463e-01
  1.3969296e-01
 -1.2038990e+00
 -4.8052692e-01
 -1.3410668e-02
 -4.8139910e-03
  3.9283183e-01
  1.4259867e-02
 -9.8603213e-01
 -1.0562572e+00
  3.5741091e-01
  2.0633703e-01
 -1.7073187e-01
 -3.0613580e-01
 -1.1684614e+00
  2.3374815e-01
  4.7830716e-02
  2.5338486e-01
  2.3572680e-01
 -2.4843818e-01
 -1.2142055e-05
 -2.2276601e-02
 -1.6442245e+00
  5.2938521e-01
 -2.6696765e-01
  9.9761236e-01
  7.5650531e-01
 -2.5026701e-02
  1.2898442e-03
  4.2715631e-03
 -6.1615402e-01
 -1.3696933e-02
  1.8175541e-01
  4.4740218e-01
 -1.9589956e-01
 -8.4764743e-04
  3.0068212e-04
 -1.6079346e-02
 -2.4775820e+00
 -4.4571185e-01
 -2.0499561e+00
 -3.4263772e-01
 -3.2872573e-01
 -1.1861913e-01
 -2.5823908e-03
 -5.5799022e-02
  6.9017434e-01
  4.1372874e-01
  4.1057738e-03
 -7.3289527e-03
 -1.5261856e+00
 -1.1648619e+00
 -2.8524315e-03
 -8.9726718e-03
 -1.2276199e+00
 -2.5655159e-01
 -3.4677827e-01
 -3.6380622e-01
  9.7554736e-03
  4.4859942e-02
 -1.8777162e-01
 -9.5242858e-03
  1.2875941e+00
  8.0199701e-01
  5.8842909e-01
  5.3517824e-01
 -5.7000858e-01
 -8.8131847e-03
 -1.7249004e-03
 -3.1481087e-03
 -1.7345871e+00
  6.9049142e-02
 -2.2023654e-01
  1.7258048e+00
  1.1025713e-02
  2.4963564e-01
  1.0502233e-01
 -1.6309614e-01
  2.2102319e-01
  5.3508884e-01
 -4.8920852e-03
 -3.5131648e-03
 -3.6865685e-02
 -2.3538844e-01
  4.3596983e-02
  4.2574103e-03
 -9.7960836e-01
  5.8378762e-01
  1.2130339e-01
  6.4396821e-02
 -2.7546149e-02
 -2.1421884e-03
 -4.6606793e-04
  6.3693463e-03
  6.7963970e-01
 -8.9621806e-01
 -6.7704259e-03
  2.3783583e-02
  4.3000293e-01
  1.2165092e+00
 -1.4361150e+00
 -2.5435702e-03
  7.4845731e-01
 -9.6805720e-03
 -7.3197609e-01
  5.9257126e-01
 -1.7773737e+00
  7.5822943e-03
 -2.9030573e-03
  2.1326223e-03
 -4.0329701e-01
  9.4932457e-03
 -6.5565277e-03
 -2.8343550e-03
  1.9207865e-01
 -1.6193657e-01
  2.1800881e-03
  1.3392688e-03
  1.6895700e-02
  6.6852033e-01
 -3.2837123e-01
  3.4887758e-01
 -9.2542034e-01
 -4.5146886e-03
 -5.0235470e-04
 -2.3199597e-04
  2.7910957e-01
 -6.6814739e-01
 -5.8725360e-03
 -4.9013734e-02
  1.2139752e+00
  9.3323803e-01
 -5.8905488e-01
  8.5859159e-03
 -2.8864935e-01
  1.0290322e+00
  3.5674632e+00
 -4.8846155e-01
  3.3433273e-02
  3.8920887e-02
 -1.5345182e-04
 -2.6091621e-03
 -1.3506682e+00
 -2.7888003e-01
 -2.3403589e-03
 -2.0936647e-04
  5.4552579e-01
 -2.4287516e-01
 -7.3568487e-01
 -8.1215421e-04
  7.8205384e-02
 -1.1270603e-01
 -1.6208881e+00
 -1.7937528e-01
  1.7425580e+00
 -2.1847181e+00
  1.5594109e-03
 -2.3857947e-03
 -7.4648088e-01
 -7.8829038e-01
  5.4465132e-03
  2.6524546e-02
 -2.6314876e-03
  4.5057777e-01
 -3.1185845e-01
 -1.8358815e-03
 -1.7269458e-01
  2.7473718e-01
 -3.7059242e-01
  5.6559306e-01
  2.3411879e-01
  1.1800811e+00
 -6.0054468e-04
  1.3473816e-04
 -2.0224955e-03
 -6.4451593e-01
  1.5977072e-03
  1.6260259e-03
  1.6647317e+00
 -1.6270599e+00
 -1.7463268e+00
 -1.2256999e-03
  3.1882676e-01
 -1.8108176e-01
 -1.0421652e+00
  1.4550705e-01
 -4.3756178e-01
 -7.9755194e-02
 -2.6134341e-03
  4.5399363e-03
  8.7454206e-01
  1.4407650e-02
 -1.7155023e-02
  6.2266462e-03
  4.2666548e-01
 -1.2677919e+00
 -4.5795916e-03
  2.6203312e-03
  6.6488695e-01
  2.5685582e-01
 -7.9539329e-01
  5.4203164e-02
 -1.5646327e+00
  5.9704711e-03
  3.1218813e-03
 -1.2025071e-02
 -1.2891109e+00
 -1.4382634e+00
 -2.8581764e-03
  4.4168085e-03
  4.3285072e-01
 -3.7873057e-01
 -2.3708668e+00
  5.8635505e-04
  7.3831606e-01
  3.0468583e-01
  2.1643816e-02
  1.8950586e+00
 -6.0496390e-01
 -1.0984680e-01
 -3.0133338e-04
  1.1936918e-02
 -1.3044636e+00
  6.8837625e-01
  5.6027347e-04
 -2.2676531e-03
  2.6283744e-01
  1.3090418e-01
 -6.7007067e-03
 -2.0704682e-03
  7.9811561e-01
  3.0506924e-01
  1.6186056e+00
  2.6708720e+00
 -6.6237128e-01
 -7.9586697e-01
  3.2771923e-02
 -8.0499071e-01
  1.0220193e-01
 -7.5843325e-04
 -3.1811215e-03
 -7.1738106e-03
 -6.0480800e-03
  5.2650541e-01
 -5.8995150e-02
 -3.5916402e-03
 -6.6312057e-01
 -2.4383578e-01
  5.3273928e-01
  7.7898872e-01
 -1.1653082e+00
 -1.3767950e-01
  1.7291700e+00
 -4.5779194e-03
 -3.0406135e-01
 -7.1785823e-03
 -1.0761250e-02
 -5.0932652e-04
 -6.9716619e-04
 -1.2973028e-02
  1.2178712e+00
  1.3348510e-02
 -6.5776058e-03
  7.0623374e-01
  9.4336921e-01
 -2.9737726e-01
  3.2461286e-02
  5.2047455e-01
  3.7670881e-02
 -6.8643582e-01
 -6.7383992e-03
  4.0333616e-04
 -4.6077166e-03
  5.8731539e-03
 -4.9656946e-03
  5.0085938e-01
  8.7718933e-04
  2.0930547e-02
 -2.0727378e-01
 -6.3823742e-01
 -7.2186375e-01
  2.1105068e+00
 -3.0291921e-01
 -1.5313872e+00
  8.4627114e-02
 -4.3137100e-01
 -8.7715077e-01
 -1.1330521e-02
 -6.3170344e-03
 -4.0559033e-03
 -9.2677139e-03
  8.6691701e-01
  1.0158147e-01
 -9.8722114e-04
 -1.1147062e+00
  1.2485273e+00
 -7.4212980e-01
  9.7321832e-01
  9.6032542e-01
 -9.7457075e-01
  9.8711625e-04
 -8.1276195e-04
 -2.5500187e-01
 -5.5296484e-02
 -2.2925993e-02
 -5.4477155e-03
 -2.9462355e-01
  9.7142768e-01
 -6.4101405e-02
 -1.3158953e-02
  7.5488450e-04
  1.1806459e+00
  1.7937248e+00
  2.5214026e+00
  4.5576295e-01
  2.8525309e-03
 -1.7293435e-02
 -1.7552619e-01
 -1.3760456e-01
 -5.8912300e-03
  1.1980199e-03
  1.1654047e-03
  7.0436263e-01
 -2.7874053e-01
 -3.4950677e-02
  1.1754644e-03
 -8.9488322e-01
  1.1997751e+00
  1.6061726e+00
 -2.7212052e+00
 -8.8299793e-01
  5.3440992e-02
  5.4008520e-01
 -1.3328390e+00
  1.0548501e+00
 -2.8024600e-03
 -3.0329311e-03
 -1.1425401e-04
 -3.0868468e-01
  7.6923424e-01
  5.3486582e-03
 -2.9138087e-03
  2.3824719e-01
 -6.4523745e-01
 -2.5554842e-01
  1.0406730e+00
  6.8054020e-01
 -2.8972120e-03
 -2.9316774e-02
  3.1784353e-01
  3.4707067e-05
 -1.2371553e-03
  4.8839566e-03
  6.5382000e-04
  1.2880120e-04
  5.3751302e-01
 -2.4729583e-01
 -5.7584327e-03
 -8.2063861e-02
 -9.5539039e-01
 -3.3512002e-01
 -4.8945406e-01
  8.5380954e-01
  4.4723703e-03
  3.8624462e-01
 -3.9708754e-01
 -3.9108443e-01
 -1.5193073e-02
 -4.9199220e-03
 -9.2266519e-03
  6.0379747e-02
  3.2949448e-01
 -3.1212526e-03
 -2.1113839e-03
 -5.6431180e-01
 -9.3157649e-01
  7.5499123e-01
  1.5102576e+00
  1.1747994e-01
  4.2859793e-02
  4.2859793e-02
  4.2859793e-02
  4.2859793e-02
  4.2859793e-02
  1.9459088e-01
  1.9459088e-01
  1.9459088e-01
  1.9459088e-01
  1.9459088e-01
  1.0022022e-01
  1.0022022e-01
  1.0022022e-01
  1.0022022e-01
  1.0022022e-01
  4.4044662e-02
  4.4044662e-02
  4.4044662e-02
  4.4044662e-02
  4.4044662e-02
  1.5585213e-02
  1.5585213e-02
  1.5585213e-02
  1.5585213e-02
  1.5585213e-02
  1.0107938e-01
  1.0107938e-01
  1.0107938e-01
  1.0107938e-01
  1.0107938e-01
