nep4_zbl 4 Li La Zr O 
zbl 0.9 1.8
cutoff 6 4 97 30
n_max 4 4
basis_size 8 8
l_max 4 2 0
ANN 30 0
 -3.4359400e-03
  1.2972364e-03
 -7.8197406e-04
 -3.9996633e-01
 -1.2934912e-02
 -1.0833802e-01
 -6.3359454e-05
 -1.4136602e-02
 -9.7238375e-03
 -3.7463266e-02
 -8.0286965e-02
 -2.9427418e-05
  4.6258084e-03
 -1.9210654e-01
 -7.6116957e-03
  1.4313148e+00
  5.0541112e-04
 -2.8345821e-04
 -1.9293105e-03
  1.1638710e-03
  6.1950041e-04
  3.8463747e-04
  1.6952942e-01
 -8.9736059e-03
  1.9401090e-03
  1.3737931e-03
  1.7575352e-03
  5.7061465e-04
 -2.6225180e-06
 -3.4418268e-04
 -4.3436280e-03
 -1.3088877e-05
  1.7309842e-03
 -8.2491778e-02
  4.2123143e-02
  2.3082183e-03
 -1.4929130e-04
  3.8213755e-03
  1.9917602e-03
  9.2785400e-01
  1.7524130e-03
  4.6445737e-03
 -1.5769141e-03
  1.4097170e-03
 -1.0999367e-03
  2.6297520e-03
  6.1609776e-04
 -5.4476134e-02
  6.5179006e-03
 -2.2573259e-03
 -3.0281686e-03
  1.4606966e-03
 -2.2747626e-03
  1.8896100e-04
 -1.9178414e-03
 -7.6509640e-04
 -2.0888797e-03
  1.4309997e-03
 -1.0061706e-03
 -4.1989202e-04
  2.4660761e-03
  7.4913877e-04
  1.1498462e-03
 -7.1600276e-05
 -9.1151457e-04
  2.2968352e-03
 -1.6174078e-03
  2.7374700e-03
  1.6913675e-03
  2.1487275e-04
  3.3730461e-04
  1.0046884e-04
 -1.3405915e-03
  1.8462444e-02
  1.9106767e-04
  6.9811591e-03
  3.7333316e-03
 -2.1851839e-02
  9.0375106e-04
  1.1504574e-03
  9.6422648e-03
 -2.4852486e-04
 -4.2084805e-03
  1.5808735e-02
 -7.4905867e-04
  1.8150990e-03
 -2.0591186e-04
 -4.0843297e-04
 -2.5147857e-04
  1.2555459e-03
 -5.2334950e-03
  1.2957328e-04
 -2.8405144e-04
 -9.0307649e-04
  6.6678674e-04
  2.4134628e-03
  7.8643599e-05
  3.0311238e-04
  5.1992072e-04
  2.4053087e-03
  2.3449613e-03
 -4.1255243e-02
  3.1002143e-03
 -1.4475618e-03
  3.4117801e-03
  2.5518425e-03
  2.8869850e-04
 -2.7491343e-03
 -1.8356739e-04
 -2.1567764e-03
  2.4503209e-03
 -1.5016908e-03
  1.1060801e-03
  2.6922061e-03
  1.4559603e-04
 -5.5904465e-04
  1.0929247e-04
  2.4573037e-03
  1.7154933e-04
 -1.0025252e-03
  2.7397507e-05
 -2.8757818e-04
 -3.6938090e-04
  1.1496621e+00
  5.6698266e-03
 -8.1701367e-04
 -6.6438611e-03
  1.4082805e-03
  8.6049741e-04
 -1.5271700e-02
  3.6558104e-03
 -3.1358688e-03
  2.3288419e-03
 -2.9643474e-03
  3.0607071e-03
 -3.9727571e-03
  5.3310511e-03
 -9.3584723e-04
 -2.1923347e-04
 -3.0580440e-03
 -1.5127653e-03
  1.9742361e-04
 -1.5791786e-03
 -1.8311627e-03
 -4.9619847e-03
  5.0955261e-03
 -4.3361390e-04
 -4.8242906e-01
 -3.1564190e-04
 -4.6660919e-03
  1.5177780e-01
  4.0614206e-02
 -2.0288112e-02
 -6.4781040e-01
  1.6951022e-01
 -1.6846518e-03
  3.7315015e-03
  2.0863669e-01
  9.0224683e-02
  2.3136441e-02
  2.0234158e-02
  6.4005246e-03
 -1.8668215e-01
  1.5386584e-01
 -5.1452674e-02
  1.5642691e-01
 -7.3287755e-02
 -2.1784399e-01
  2.2995827e-01
  2.9685639e-02
  2.1279380e-02
 -3.0903000e-02
 -1.1135269e-05
  1.6966349e-01
 -1.2156696e-02
 -5.1323962e-03
  1.3166588e-02
  1.3456503e-02
  1.5051310e-03
 -9.8969101e-04
  8.2969677e-04
  2.7996893e-03
  1.8230929e-03
 -5.5798538e-02
 -2.8556090e-02
 -3.5432854e-03
 -5.7099839e-03
 -1.1544010e-02
 -1.1814155e-02
  1.0266996e-03
 -1.3206711e-01
 -2.0464581e-02
  4.4619188e-05
 -3.8811747e-02
 -1.9717664e-03
 -1.1005251e-01
 -8.5190877e-02
  5.4635022e-02
 -6.6226196e-01
  1.3616651e-03
 -8.0809304e-03
  2.6739497e-05
 -7.9984637e-04
 -1.2613337e-01
 -2.3575171e-03
  2.7270603e-03
  2.9986824e-03
 -9.7673545e-03
 -2.7305523e-03
 -2.3672603e-02
  1.1418022e-03
 -2.6672920e-03
  4.3558108e-04
 -1.1959329e-01
 -6.1453890e-02
  3.8618115e-01
 -4.3563060e-03
 -5.3277533e-03
 -3.8537052e-01
  1.1090678e-03
 -6.8493694e-02
 -8.1957944e-02
  7.7036454e-04
 -9.3550421e-02
 -9.4435742e-04
 -3.0491600e-02
 -8.5414313e-02
  1.0773838e-01
 -6.7809439e-01
  7.4975542e-03
  7.2799586e-03
 -6.4732609e-05
 -2.3565853e-04
 -1.5203990e-01
  1.5268472e-01
  8.3616832e-03
  3.6055655e-03
 -8.7365685e-03
 -4.0318691e-03
  5.6221813e-04
  2.0519173e-01
 -2.2315560e-01
 -1.4921083e-03
 -3.5890830e-01
  8.9279130e-02
  4.2866513e-01
 -1.0557212e-01
  4.1997150e-01
  3.3701703e-01
 -2.4691606e-01
  1.4326599e-01
 -1.6285083e-01
  3.6952797e-01
  6.2076632e-02
 -2.2170091e-01
  5.5750710e-01
 -2.7848807e-01
 -1.7091248e-02
  4.6023607e-01
 -2.2612050e-02
  1.5337314e-02
 -2.6707901e-04
  4.6907231e-02
  3.9728743e-01
 -1.4507276e-01
 -8.8332206e-02
 -2.6211438e-03
  1.7962809e-01
 -2.4697736e-01
  9.7861223e-02
 -5.3106314e-03
 -4.5802239e-03
  7.7065255e-04
  1.2077872e-03
  1.0690105e-03
  1.4173455e-04
  7.2316900e-03
 -1.7806117e-03
  1.4666955e-03
  3.7266696e-03
 -1.3477134e-03
 -6.0296874e-03
 -1.6771202e-03
 -6.4302826e-01
 -9.1175426e-04
 -2.7250675e-03
  2.1383404e-03
  7.8564894e-04
  8.4395558e-03
  2.9161968e-04
  2.9581369e-04
  1.3872302e-03
 -7.1391556e-03
  2.3272402e-04
 -2.8961699e-03
  7.0280011e-04
  8.4088999e-04
 -5.3448504e-04
 -8.9684239e-04
  6.4373564e-04
  5.0860355e-03
  8.6591952e-03
  1.5581130e-03
  3.4738365e-03
  3.8484733e-03
 -2.7326209e-04
 -4.2887754e-04
  3.1220177e-02
 -4.0466259e-03
  1.0531612e-03
 -7.6858625e-05
  2.1389427e-03
 -5.5025803e-04
  3.6102103e-03
  1.8344066e-03
  7.2588962e-05
  8.8549210e-03
  3.6827999e-04
  4.0040980e-03
 -5.0705154e-03
  2.3607658e-03
 -8.4408319e-05
  1.8521651e-03
 -1.1033694e-04
  1.4806938e-03
 -1.4159842e-03
 -8.2345179e-04
  3.3922540e-06
  1.4276019e-03
 -6.0850466e-03
 -1.9503891e-01
  4.0862365e-03
 -3.4068120e-03
 -3.2980673e-02
  7.0549190e-02
  3.8697049e-03
  2.2552554e-04
  7.3650137e-02
  1.1297040e-02
  5.9249531e-04
  1.1477295e-02
  1.7688584e-02
  4.0895407e-04
  1.1122125e-01
  1.1240232e-03
  5.8398228e-02
 -1.9305053e-03
 -1.4157102e-01
  6.0865812e-02
 -8.5834816e-02
 -3.1784908e-03
 -2.0163693e-02
  2.6504297e-03
  5.5086901e-03
  5.7045277e-04
 -1.9280883e-04
  2.1184043e-03
 -1.2023204e-03
  5.3782588e-01
  1.5950213e-03
 -1.5114386e-03
 -2.8351676e-03
 -2.8727558e-03
  2.3275022e-03
 -4.3001152e-03
 -9.5262937e-04
  2.3296287e-03
 -1.4360249e-03
 -3.3815792e-03
 -1.0373165e-03
 -8.0194161e-04
  5.2798027e-04
  1.0870793e-03
 -6.4406358e-04
  2.1336204e-03
 -3.0282966e-04
 -2.9387671e-04
 -8.7483227e-04
  7.0419366e-04
 -3.0874467e-04
  1.1445321e-03
  8.2673319e-03
 -6.9353904e-05
  4.1896898e-02
  2.5288516e-04
  4.5010555e-04
  2.9479626e-03
 -6.5845144e-03
 -1.0323306e-03
  3.4657221e-03
 -2.3779376e-01
 -1.0088391e-02
  1.0251148e-02
 -4.5441446e-01
  3.4525094e-03
  2.7332695e-02
  3.5008034e-01
 -1.4894401e-01
 -2.4206097e-01
  4.5168942e-01
  8.8741899e-02
  3.3851033e-01
  2.1286460e-03
 -6.9403636e-01
  1.6476880e-01
 -1.2800948e-01
  6.4308673e-01
  7.7046406e-01
  1.7827414e-01
 -1.2072387e-01
 -1.7145622e-03
  7.7888370e-03
 -3.1318536e-03
 -2.3203525e-01
  5.3757895e-03
  2.4137022e-02
  4.6048176e-01
 -2.7622236e-02
  8.0996373e-04
 -3.8538408e-02
  1.9926335e-01
 -1.2273735e-03
 -5.4730043e-02
  2.7284205e-03
  2.3205499e-01
  3.8614217e-02
 -1.9250340e-03
  9.0755165e-02
  9.6175469e-02
 -1.9560839e-01
  1.9647411e-01
  1.0942698e-02
 -1.1274065e-03
  8.5224047e-02
 -7.8756493e-03
  1.3905622e-01
  5.0468820e-01
 -1.1374856e-02
  3.6494002e-01
 -3.2143837e-01
  3.8601158e-03
  4.7460548e-03
 -7.2603708e-04
  1.3497284e-01
 -6.1157886e-02
 -3.2491554e-04
  1.1891057e-01
  1.2990181e-02
 -1.5958342e-03
  9.2357461e-04
  1.3035882e-04
 -1.0908698e-04
  1.0621611e-02
  2.1501298e-01
  1.6739363e-02
 -5.1969965e-03
  6.3129121e-01
 -1.3991559e-01
 -3.3807557e-02
  1.9152179e-01
 -7.5977638e-02
 -1.8160832e-03
 -1.1718793e-02
 -1.7819189e-01
  2.7480922e-03
 -2.1749079e-01
 -1.2224387e-04
  4.2524010e-02
 -1.3243774e-01
 -5.6549691e-04
 -8.0014551e-03
 -2.0926578e-03
  3.2227675e-03
 -1.2257232e-01
  8.8916324e-02
 -2.4752502e-04
  4.5149797e-03
 -2.6465384e-02
 -9.8496825e-03
  6.0111703e-04
  1.7144631e-01
 -1.0308059e-01
 -1.2014839e-03
  7.6285191e-02
  1.8426006e+00
 -4.4247892e-02
  4.1696820e-03
  3.1350940e-02
  2.1401646e-02
  9.7900508e-03
  3.1120172e-02
 -5.5541527e-02
 -1.7038946e-03
  1.1312918e-01
  9.6491398e-04
  7.3566429e-02
 -3.6887056e-03
 -1.7012960e-01
  2.1401577e-01
  5.1912747e-04
  4.6937671e-02
 -3.1750570e-03
  1.5019281e-03
  3.6062550e-02
 -5.3702625e-03
 -8.3188564e-01
 -1.0793370e-03
  6.9838730e-03
 -4.5428477e-04
  6.9572674e-03
  1.8346262e-04
  3.7076448e-03
  6.6804880e-04
  1.1584402e+00
 -5.5263186e-01
  3.9004218e-02
 -1.6569598e-01
  8.4112037e-04
 -4.7370130e-03
 -2.4779277e-01
  1.9408005e-03
 -1.4792527e-01
  5.8834638e-02
 -1.0291646e-01
  1.7010714e-03
  1.0047152e-03
 -2.2618885e-01
  4.7769463e-01
  1.6305566e+00
  3.8501020e-03
 -3.2514772e-01
  4.0238310e-02
  1.4434019e-03
 -5.0429027e-03
 -6.8844575e-04
  3.0229308e-03
 -5.2684853e-03
  9.1791793e-05
 -1.0932751e-02
 -5.8451289e-04
 -4.4120331e-03
 -5.1028602e-04
  7.8140125e-05
 -2.3383556e-03
 -1.9882447e-03
 -7.6695901e-01
  9.3337410e-04
 -4.8014857e-03
 -1.6438315e-03
  2.7278022e-04
  1.4699538e-03
  3.9821840e-03
 -4.2132461e-03
  2.6776735e-03
 -3.5859740e-03
 -2.5267939e-03
 -1.3604325e-03
  2.3853990e-01
  8.7373948e-01
 -7.7310300e-01
  3.9780168e-03
 -3.3124522e-03
  2.4099313e-03
 -7.5648137e-04
 -6.0874911e-04
 -1.0397490e-03
 -1.0411264e-03
 -3.9112289e-03
 -1.4877070e-03
 -1.8098207e-01
  1.3794310e-01
  1.9183956e-02
 -5.2712448e-03
 -8.0646622e-01
  2.0209594e-02
  1.8979687e-02
 -1.2771714e-02
  1.7080206e-01
  1.5085948e-01
 -9.2497841e-02
  2.9489130e-02
 -3.1788535e-03
  1.2906241e-01
  2.1849927e-01
 -2.3885935e-03
  6.5493584e-02
  3.7421071e-04
 -1.0820483e-01
  9.1780680e-01
 -3.7493248e-02
  2.2095041e-03
 -1.3131413e-02
  2.6957635e-03
  2.3326737e-01
 -1.8807214e-03
 -4.6511805e-03
  4.8401910e-03
  1.1391186e-02
  1.3309302e-03
  1.0799515e-02
  2.8944874e-04
 -1.4534497e-03
 -1.0956597e-03
 -1.3745493e-02
  2.4420966e-01
  3.2060695e-04
  8.7145722e-01
  1.8471319e-02
  5.3601094e-02
 -1.5814234e-04
  4.4667810e-02
 -1.0657852e-01
  1.7063053e-03
  2.2780213e-03
 -5.5919951e-03
  2.5885144e-02
 -8.8778073e-03
 -1.1640608e-01
  1.1688577e-02
 -1.7935426e-04
  8.7365258e-04
 -3.1961789e-03
 -7.7775051e-04
  1.7500719e-02
 -1.7592990e-01
 -9.7581616e-04
 -2.8505834e-04
  5.7957103e-03
  2.4499651e-03
  4.4384813e-03
  2.2951795e-01
  3.1238070e-01
 -9.8171789e-05
 -2.7290806e-01
 -6.0990679e-01
  1.1028245e-02
 -6.0868186e-01
 -4.6129781e-01
  2.6816431e-01
  1.0882305e+00
 -1.5302376e-01
 -7.6018125e-01
 -1.0067337e-01
  3.3931825e-02
  1.1975790e+00
 -4.9538713e-02
 -4.3080047e-01
 -2.3639289e-01
  3.4558481e-01
  9.4000852e-01
 -1.9329549e-01
 -4.7394350e-01
  2.4263766e-01
 -2.4639054e-01
  6.6230798e-01
  1.1829495e-03
 -4.8007496e-02
 -3.7842743e-02
 -1.0998383e-01
 -1.2233690e-04
  1.2964149e-02
 -2.6820964e-01
  1.2167042e-02
 -4.5634255e-02
 -2.0418078e-01
 -4.1482199e-04
  1.3962996e-04
 -9.1019208e-03
 -4.9936813e-03
  2.4578976e-04
 -8.3829276e-02
 -2.1303119e-01
  3.6226427e-03
 -3.8048923e-01
  1.3770354e-03
  2.5339921e-03
 -1.5271563e-03
  9.7542390e-02
 -1.3408795e-02
  1.6481839e-01
 -1.7380503e-03
 -6.9984375e-04
 -3.9714957e-03
 -6.6863126e-03
  1.3997827e-02
  2.9528540e-04
 -2.3133925e-03
 -7.9077287e-03
  1.0341640e-03
  4.6179234e-04
  6.4054737e-04
  2.0222960e-03
 -1.5018900e-03
  3.4258866e-03
 -1.5544974e-04
  3.4826071e-04
  1.4769452e+00
  1.8195345e-03
 -4.6886057e-03
  1.0934601e-03
 -9.0371823e-04
 -1.8542622e-03
  1.6780065e-03
 -7.8140212e-05
 -3.9899647e-03
 -6.8862666e-04
 -2.2354715e-03
  1.1555348e-03
  2.0404421e-03
 -8.9150568e-04
 -3.9930446e-03
  5.2206182e-01
 -1.3907780e-03
  1.2263189e-03
 -3.1845754e-03
  2.6668803e-04
  1.9235491e-03
 -4.4891429e-03
 -4.8364904e-03
 -2.7288633e-04
 -2.2286808e-03
 -2.5023490e-03
  2.0401182e-03
  7.7369916e-03
  1.1567468e-02
  6.1730738e-03
  8.7986444e-04
  2.2105898e-03
 -2.3726763e-03
  4.8584846e-04
  9.9697178e-03
  1.4835532e-02
  2.1650683e-04
 -7.2736759e-04
  1.4410882e-01
  4.6442342e-03
 -1.7625638e-03
 -6.9948494e-02
 -3.4217141e-04
 -1.7998330e-03
 -2.2319674e-03
 -1.0771581e-03
 -2.9827192e-04
  2.9327930e-03
 -6.6803833e-03
 -5.5788574e-03
 -1.0162488e-03
  2.1065525e-03
 -2.0634732e-03
  3.4951946e-01
 -1.2585692e-03
 -1.4748403e-03
 -4.2852899e-04
  3.0804207e-04
  4.2720246e-03
 -2.5203356e-03
  5.8797095e-03
  2.6250828e-02
  5.9635018e-04
 -3.4821249e-04
  5.4855812e-02
  4.0370207e-03
  9.0896589e-04
  1.1241511e-02
  1.1900980e-03
  8.8195307e-03
 -6.4616377e-04
 -8.4360503e-02
  1.8835022e-01
 -3.2295056e-03
  1.5091183e-02
 -1.4653181e-03
  2.4266283e-03
  3.1279109e-03
  9.6526754e-04
 -8.1074868e-05
 -4.4408998e-06
  2.2419791e-03
 -5.1434630e-01
  1.3402030e-03
  1.1666375e-03
 -5.2649444e-03
  1.9017183e-03
 -4.1260593e-02
  1.3058617e-02
  1.8885916e-05
  3.7476947e-03
  1.0046135e-03
  7.9960320e-03
 -8.1219673e-03
  6.5691289e-03
  6.7903660e-03
 -2.7202968e-03
  3.3837245e-04
 -5.6576490e-04
  1.4937905e-03
 -1.1332868e-04
 -1.2709036e-02
  1.4459610e-03
  2.6133204e-01
  6.0169029e-01
  3.1524576e-02
 -8.1401796e-04
  1.0126471e-01
  2.7268287e-04
  3.1104735e-01
  2.2469026e-03
  2.8437329e-03
 -7.8249425e-03
 -4.8939110e-05
 -1.3096558e-02
 -2.6545638e-01
 -8.8803493e-04
 -1.5070107e-03
  7.6349065e-02
  2.8137380e-05
 -1.7760186e-02
  1.1074820e-01
  5.7368841e-02
 -2.2036061e-03
  2.4066626e-03
 -2.7404871e-02
  8.4572850e-04
  2.2024632e-01
 -7.9400195e-03
  1.0618654e-01
  3.9010139e-03
 -6.4183116e-02
  4.1153427e-02
 -4.3647904e-03
  5.4365466e-03
 -1.6427176e-02
 -2.1277978e+00
  2.0551898e-02
 -1.4756604e-01
  4.2843240e-01
  8.1763981e-04
 -2.4592965e-03
  9.7783159e-05
  4.8596519e-03
 -1.7323757e-02
 -2.8003813e-03
  1.4688014e-03
  7.0902222e-01
  1.5123398e-04
 -6.4807879e-03
 -2.2767752e-03
 -1.2743732e-02
 -1.3088280e-01
 -2.7064690e-03
 -4.4856258e-03
 -2.8936316e-03
  2.6584396e-03
 -1.5650867e-01
 -1.3764899e-03
 -1.0289323e-01
 -8.0014887e-04
  1.6642336e-02
 -7.4912859e-03
 -1.4914965e-04
 -1.0420321e-03
  2.3170274e-04
  9.9173142e-03
 -9.2170626e-04
  5.3038669e-04
  2.0209160e-03
 -1.5896535e-03
 -5.2819522e-03
 -3.0587174e-03
  3.4119468e-04
 -1.5371366e-01
  1.9882363e-01
 -2.5389823e-03
 -1.1340993e-01
 -4.6161881e-01
  3.3538530e-03
  8.8000810e-03
  4.8611625e-03
  2.7404136e-03
 -2.0135820e-01
  6.8165758e-03
  8.9513086e-04
  2.9528160e-03
  1.0911209e-02
  9.8100619e-04
  2.7325923e-02
  3.8987811e-04
 -3.7421744e-02
  1.1113551e-02
 -2.5219971e-04
 -2.1587237e-04
 -6.0664734e-04
 -5.2613625e-03
 -1.2800965e-03
 -8.9278986e-04
 -2.3132823e-03
 -1.5107689e-03
  8.4659601e-05
  4.6883961e-03
 -4.4206912e-03
  7.1941116e-03
 -3.4053714e-04
 -1.4144927e-01
 -7.1573991e-04
 -7.0479073e-02
  2.3197350e-01
  1.1892056e-03
  2.5210381e-03
 -1.9699371e-04
 -3.4577376e-04
 -4.0953746e-05
 -4.1359980e-03
  1.9704401e-04
  6.9807038e-02
 -1.7349273e-02
  2.1768110e-03
 -3.0575369e-02
 -1.4267538e-01
 -1.4518651e-03
 -3.1574491e-01
  4.9803467e-03
  1.4775636e+00
 -2.8723304e-03
  6.1980658e-03
  4.8358558e-04
 -3.3921336e-03
 -7.9161637e-03
 -5.3267695e-02
  4.0359396e-02
  4.7294144e-03
 -1.0935179e-01
  7.9537198e-02
  1.1477742e-01
  4.6640020e-02
 -1.2698185e-01
  4.9762195e-01
 -2.0919372e-01
 -1.8715739e-01
  4.4100720e-01
 -1.1366534e-02
  6.4646932e-03
  1.7418738e-01
  2.9434380e-03
 -2.9772434e-01
  2.1624590e-01
 -2.3262273e-01
  2.0715994e-01
 -5.0810540e-01
 -2.2996858e-02
  2.2269051e-01
  1.7096145e-01
 -9.2269146e-01
 -1.3737679e-01
 -2.2303438e-02
  1.3574891e-01
  1.5060012e-01
  1.2366512e-01
  1.8886468e-01
 -2.3553282e-01
  1.3405748e-01
  3.3636883e-01
  1.0151950e-02
 -7.7469624e-03
  3.1655663e-01
 -4.7649126e-04
  1.9703601e-03
  5.7058144e-01
  1.7437362e-03
 -1.6503994e-04
  4.9733557e-04
  2.3939217e-02
 -3.0144537e-02
 -1.4803775e-02
  1.3221711e-03
 -7.6365002e-05
  3.4489649e-04
 -6.6439426e-03
 -8.1674540e-03
 -1.4237335e-03
 -6.1376486e-03
  2.1266746e-03
 -4.0978976e-03
 -1.8597836e-02
 -3.4397966e-05
  1.7990500e-03
 -2.5288782e-03
 -6.5204338e-03
 -1.1994676e-03
 -4.6915137e-03
  6.2349916e-04
 -6.7496585e-04
  2.4118957e-04
 -2.1715785e-04
 -2.3747464e-03
  1.0668426e-03
 -3.4404051e-04
 -3.4285377e-04
 -5.8230865e-03
 -2.2658319e-03
 -2.4238422e-04
 -2.3871760e-03
  9.0884988e-04
  2.4070072e-01
 -5.6532270e-04
  5.3940669e-02
 -5.2744788e-03
 -1.3890272e-03
 -2.3648439e-03
  1.2277321e-02
 -2.9347625e-03
 -1.8257551e-01
 -8.1020599e-04
  4.0735467e-03
 -8.5973322e-02
  2.8560421e-04
  3.8881294e-04
  2.0610917e-04
  1.6725758e-03
  5.4610538e-04
 -5.3382493e-03
 -8.4703899e-04
 -6.9290365e-04
  6.7778607e-04
 -3.3445768e-03
 -6.2124565e-04
 -3.1482989e-03
 -3.5290644e-03
  2.2992385e-03
  4.2524259e-03
  5.1955627e-03
  9.4391697e-04
  3.5059168e-03
 -2.2165346e-04
  1.7400855e-03
  3.1231288e-03
  3.3697973e-03
 -6.0388413e-03
  4.1410542e-04
 -4.0464560e-04
  5.6546443e-04
 -2.2451442e-03
  6.6056848e-04
  2.0090090e-04
 -3.1329580e-03
  5.5453554e-03
  3.1022716e-01
 -1.6998586e-03
 -1.2105590e-03
 -6.5426569e-04
 -4.7444673e-03
  1.1774395e-03
  7.9634442e-04
  2.4647324e-03
  4.2249258e-03
 -2.2283918e-03
  1.7868400e-03
 -1.1004211e-04
 -1.4352616e-03
 -1.3021070e-01
 -1.4328849e-04
 -3.1070050e-03
 -1.4200122e-03
  4.1136667e-03
 -3.0442689e-05
  2.7318790e-03
  2.7997359e-03
 -2.6701458e-03
  9.1148843e-04
  1.1712093e-03
 -6.3497603e-01
  3.8149552e-03
  9.8497246e-04
 -4.1321940e-03
 -2.5635567e-03
 -3.9760415e-03
 -4.1890237e-03
  4.2119664e-03
 -2.8175015e-03
  7.0692098e-04
 -1.7495102e-03
  1.6312785e-01
  4.5207560e-02
 -4.7202776e-03
 -7.0238166e-02
 -2.2835936e-03
  3.6729255e-03
  5.2155071e-01
  1.1841785e-03
 -1.9185764e-03
 -2.1325674e-02
  3.6619604e-02
 -5.0729862e-04
 -1.9798666e-02
 -7.5080257e-04
 -2.3526442e-04
  1.4978950e-02
 -8.3572892e-03
 -1.3504404e-03
 -2.7462997e-02
  7.3510024e-04
 -1.3827480e-03
 -1.9445730e-03
 -3.4775913e-03
 -1.6390980e-03
 -4.5541197e-04
 -4.6179316e-04
  8.1600654e-01
  3.0458709e-03
  1.7522239e-03
  5.0290329e-03
  5.8565667e-04
  1.6789661e-03
 -2.1278716e-03
 -7.8616681e-04
 -6.0526148e-04
  1.5698363e-03
  4.1830051e-03
 -4.5834989e-03
  1.5214163e-01
 -1.3296951e-04
 -2.2417828e-03
 -6.2826287e-04
 -1.4217186e-05
 -5.2282922e-03
 -8.4407598e-04
  1.8630462e-03
  4.4496129e-03
 -5.2598165e-03
 -4.2460333e-03
 -3.2046335e-04
 -6.0599705e-04
 -2.5219630e-04
  2.6570663e-03
 -1.3675508e-03
 -3.9592320e-03
  3.6564472e-04
  3.5837975e-03
  1.3421086e-03
  8.3527592e-04
  5.0920778e-04
  3.1940609e-03
  5.4444955e-03
 -7.7291144e-05
 -9.1805822e-01
  2.3427846e-04
  1.2095778e-03
  3.6752105e-03
  1.9639099e-03
 -4.5853392e-03
 -4.8854104e-03
 -5.1755528e-04
 -2.1195388e-03
 -2.8873328e-04
  9.6278767e-05
 -1.1390712e-03
  4.1891052e-03
  2.6024264e-04
 -2.6472376e-04
 -2.2889737e-03
 -1.0061186e-03
  1.5200450e-03
  7.8286487e-04
  9.2413007e-05
  1.9480283e-03
  2.9640444e-04
 -2.8645385e-03
  2.0050912e-03
  1.4593067e-03
  7.9044857e-04
  6.7196144e-03
 -7.0381945e-04
  1.1433559e-03
  1.9568820e-03
  6.7379391e-03
  1.6775440e-01
 -7.3320335e-03
  6.8223872e-03
 -1.9251982e-04
  2.0911933e-03
  1.2452068e-03
  3.4791629e-03
  4.5488085e-04
 -1.1311852e-03
  2.3528894e-02
 -2.8571254e-04
 -6.0724011e-03
  7.2483043e-04
 -6.2389656e-05
  5.0577888e-04
  1.7975578e-03
 -1.0445132e-03
  8.4309550e-03
 -3.7451918e-04
  1.9623449e-03
 -1.9440064e-03
 -1.4099315e-03
  3.1248780e-04
 -3.1264205e-04
 -1.9961295e-03
  7.6602009e-04
 -7.9409446e-04
 -1.0068175e-04
  5.0748751e-04
 -5.3783535e-04
 -7.3289231e-04
 -1.9623784e-03
  5.3904887e-04
  1.1034362e-02
 -1.8970093e-03
  2.8475423e-03
 -6.4972574e-03
  4.1142656e-03
  1.3040489e-03
  9.9061718e-03
  3.3983553e-04
 -2.3656577e-04
  5.5671710e-04
 -1.8781888e-03
 -4.7058711e-04
  2.6840286e-03
  2.6744744e-03
  5.1280931e-03
 -2.8734787e-03
  2.4927228e-03
 -4.4612456e-03
  7.9506717e-04
  3.3164604e-03
 -9.3141043e-01
 -7.2266539e-03
  1.1127853e-04
 -5.3703296e-03
 -4.7999687e-04
 -2.3504519e-03
 -6.0225726e-04
  2.1786597e-03
  2.2352459e-03
 -1.5009671e-03
 -1.8182513e-03
  2.4540203e-03
 -2.5035918e-04
 -4.5357758e-04
  5.9603254e-04
 -7.6849991e-04
  3.0933176e-03
  1.6972655e-03
 -3.0940969e-04
  8.8337518e-02
 -4.6370900e-03
  1.7863052e-03
 -4.1995062e-03
 -3.7240954e-03
  3.3372021e-04
  2.3071555e-04
 -4.4367139e-04
 -5.2446874e-05
 -1.6869056e-03
  2.4550506e-03
  1.1194840e-03
  1.3320378e-03
 -7.9976144e-04
 -2.4159709e-03
 -7.3775713e-04
  1.3037195e-03
 -7.9327991e-04
  2.1794615e-03
  3.1822240e-06
 -8.0754105e-03
 -2.8925843e-03
  1.8143845e-03
  6.6907186e-04
 -2.5919371e-03
  3.1892789e-04
 -6.3295569e-04
 -4.2125974e-03
 -4.0751682e-03
 -5.5145960e-05
 -8.0923759e-04
  6.9977660e-03
  7.7904371e-04
  8.8766799e-04
 -1.0466282e-02
 -3.4550047e-03
  1.7982596e-03
 -2.1525484e-03
  2.4290779e-03
  3.0525646e-04
  1.0437167e-03
 -2.6170372e-03
 -1.3762544e-04
 -3.4838065e-03
  2.8046963e-04
  6.7324116e-04
  1.2192912e-03
  1.8940950e-03
 -7.5196452e-04
  1.5740457e-03
 -1.9444914e-03
 -5.7266927e-03
  6.4343389e-04
 -1.2189372e-03
 -9.7801960e-05
 -1.2271636e-03
  1.6810183e-03
  1.7289599e-04
  1.7189782e-04
  1.4478898e-03
  4.2509756e-04
 -3.1804841e-04
 -9.6347212e-04
 -1.5998588e-05
  1.5605750e-05
  2.0779134e-03
 -4.2049811e-04
  9.4117789e-04
  4.0925406e-03
 -4.2453357e-03
  1.1138029e-03
 -8.3123083e-04
 -3.3239841e-02
  3.7850504e-04
 -6.6914281e-04
  1.7551673e-03
  1.5626641e-03
  5.5316288e-04
  6.2423054e-04
  5.7879096e-04
 -1.7954996e-02
  6.2306128e-03
 -3.3341197e-03
  2.1412753e-04
 -4.5679370e-03
 -3.7766183e-03
  2.6949220e-03
  9.7584771e-04
  4.1481247e-03
 -3.7237708e-03
 -4.2676521e-04
 -4.3748533e-03
 -8.4684882e-04
 -1.5846180e-03
  2.1025997e-03
 -3.7394962e-04
  7.7584037e-04
 -1.8476122e-03
 -3.2200941e-03
 -1.1364975e-03
 -3.1034976e-01
  2.3931521e-03
 -3.8658497e-03
  8.0974359e-04
 -6.3209288e-04
 -4.6065194e-03
 -2.8249891e-03
 -7.3447768e-03
  1.0134805e+00
  1.1512521e-03
 -6.5392412e-02
  2.4285902e-04
 -4.2938455e-03
 -1.3783640e-03
 -4.9868207e-03
  2.5935185e-03
 -1.5816874e-03
  5.4497588e-05
  3.2204657e-03
  2.3551640e-01
  5.6868361e-04
  4.8969861e-04
 -1.0267799e-03
 -3.3281478e-05
  2.6274063e-03
  6.0604152e-04
  2.5060691e-03
 -1.3052362e-03
  1.4342336e-03
  9.7704143e-04
 -2.5431616e-03
 -5.9049885e-04
  1.2540983e-03
  4.2991848e-03
  1.7747417e-02
  7.2065167e-02
 -7.6637611e-05
  4.7273695e-02
  1.0856912e-03
 -4.1507307e-04
  1.8665839e-03
 -1.5889257e-03
  8.6991061e-03
 -1.0622891e-03
  9.5560737e-02
  1.6371582e-03
  1.9714043e-03
  3.5296460e-03
  8.1298372e-04
 -2.2636159e-04
  5.4951754e-05
  2.4942185e-03
  2.4948090e-03
 -4.1306010e-04
 -2.8545203e-04
 -3.1144926e-03
  3.1404124e-05
  1.3649403e-03
  1.7896947e-04
  3.4286613e-03
 -1.3540136e-03
 -2.0167333e-04
  3.2713529e-04
  1.9101290e-03
  9.4240469e-01
  6.9550848e-01
  3.4248465e-01
 -2.1855483e+00
 -5.3307253e-01
 -8.6015567e-02
  1.6172372e-01
 -9.6798372e-01
 -8.6336866e-02
 -4.4646472e-01
 -1.6286811e-01
  9.6842670e-01
 -1.2234638e-02
 -1.5752169e-03
 -6.6105626e-04
 -3.2003000e-03
  2.2374339e-01
 -3.0810319e-02
 -9.0060049e-01
  6.9666264e-04
  3.8878311e-04
  2.1232299e-04
 -2.5545279e-02
 -1.5376916e-03
  1.1340403e-02
 -1.3396190e-02
 -7.9693092e-04
  3.1485257e-03
  2.2282610e-03
  1.3344727e-03
  7.6323164e-01
  1.6036056e-02
 -1.9392096e-01
 -2.7115634e-03
  2.1972333e-03
  1.6112664e-03
  3.2690036e-01
 -2.2295539e-03
  1.6114200e-02
 -1.2192526e-01
 -5.0956634e-04
 -4.9120203e-02
 -2.2633072e-02
  2.3264845e-03
  1.1426436e-03
  6.4230151e-02
 -2.1162953e-03
 -9.7421082e-03
 -1.7003633e-01
  5.4344471e-04
  3.8097345e-04
 -9.4268165e-05
 -1.7770374e-02
 -1.8569711e-03
 -1.1114513e-03
 -2.7452257e-02
  9.9398603e-04
  2.1703623e-03
  4.1929795e-03
 -6.8799086e-04
  1.7810772e-03
  1.2919401e-04
 -1.2491141e-02
 -7.9356767e-03
  2.1070496e-03
 -2.7475022e-03
 -6.2820953e-03
  1.5985835e-04
 -1.5561896e-03
  1.5902723e-03
  2.9726748e-03
 -2.4468772e-04
 -4.3837590e-05
  2.0480144e-03
  9.1483298e-04
 -1.7581758e-01
  3.3298592e-04
 -5.8602178e-03
 -1.2590694e-03
  2.0617389e-03
  1.2540768e-04
  1.4012804e-03
  5.4649352e-03
 -3.4280017e-03
  3.4525769e-03
 -1.3972308e-03
 -6.1820517e-04
 -4.3745758e-03
 -5.7811834e-02
 -3.3374391e-03
  3.6173764e-01
 -1.2951171e+00
 -1.6488051e+00
  1.0691568e+00
 -2.3516993e-01
  2.6375347e-01
  7.2600804e-02
 -4.5199186e-01
  2.9084730e-01
 -3.3410832e-01
  1.0814146e+00
 -6.6441137e-01
 -4.8365387e-01
 -8.3631176e-01
 -9.1931492e-02
  5.5286598e-01
 -7.5826246e-01
 -3.0337414e-01
 -4.5202729e-01
 -4.9357638e-02
 -3.1036395e-01
 -4.1922152e-01
 -3.8715607e-01
 -4.6877986e-01
 -1.3460587e-03
 -1.5098580e-02
 -7.2428687e-03
 -3.0698699e-01
 -4.6345685e-02
 -4.3402589e-03
  1.1103832e+00
  1.5332391e+00
 -1.0605298e-01
  6.0088819e-01
  3.6828194e-02
 -1.9801287e-03
 -7.4300694e-01
  2.5616265e-03
  9.6215196e-02
 -2.4994181e-01
  4.1162029e-01
 -4.7419962e-02
 -1.3799823e-02
 -1.4079509e-03
  3.8326869e-04
  2.7944618e-01
  5.6232413e-04
 -4.1239019e-03
  6.2221009e-04
 -2.2865729e-02
  3.0118946e-03
 -4.6990877e-03
 -3.0966017e-02
  3.0126593e-03
  2.1103423e-03
 -1.7036917e-02
 -1.5321168e-03
  6.7111780e-04
  7.3006010e-04
  1.0700384e-04
 -1.7689594e+00
 -1.7090338e+00
  4.4786569e-01
 -1.3525294e-01
  2.0495845e-01
 -1.4548241e-03
 -3.7013656e-01
  2.0916367e-01
 -1.3467353e-03
  2.8108621e-01
  2.6480621e-01
  1.5994236e-01
  2.9450658e-01
 -7.8585833e-01
 -6.6377892e-04
  6.5116765e-04
  1.5442359e-01
  1.3791507e-01
 -1.6176274e-01
  1.7541433e-02
 -3.0330999e-02
  1.5268378e-02
  1.2673034e-01
  2.3248363e-01
 -1.9645847e-03
  8.2234479e-03
  3.3857045e-03
  3.4944509e-04
 -5.4033357e-03
 -1.4101035e-03
  4.6021108e-02
  5.4281745e-02
 -3.6735412e-02
 -1.8910491e-01
  7.1933901e-01
  3.7454932e-03
  1.8306093e-02
 -4.8746184e-01
  1.1414930e-02
 -3.6720924e-02
  2.1923663e-02
 -8.2561346e-03
 -2.0691827e-03
 -8.2360227e-03
 -3.6928752e-03
  6.6855893e-02
 -6.0750409e-03
 -9.3030113e-01
 -1.9517554e-02
 -3.7261727e-04
 -2.2833056e-03
  2.1303212e-03
 -2.9899465e-04
  3.4250686e-04
 -3.8765895e-04
  6.5450341e-04
 -2.9086715e-02
  3.9092628e-03
  5.9816858e-04
  1.8159370e-03
  1.1754627e+00
  2.3534834e-01
 -5.1335800e-01
 -4.3035802e-01
 -7.0628211e-02
  1.4586771e-03
  5.0565727e-02
  6.2167402e-02
  1.9744588e-01
 -6.4824879e-01
  4.3431643e-01
 -1.3033058e-01
 -2.3975663e-01
 -4.5831807e-02
 -3.5207556e-03
 -1.1843863e-01
  1.8613662e-01
 -4.3448615e-01
 -1.6994506e-02
 -1.2022376e-02
 -4.6836971e-03
 -1.4491680e-01
 -6.0577458e-01
 -2.6826626e-02
  3.7194968e-03
 -1.4370939e-01
 -9.7369129e-04
  1.0816719e-03
  3.1569555e-02
 -8.7030180e-04
  3.4969558e-03
 -2.3613834e-04
 -4.6627009e-03
  7.0005649e-04
 -3.2930174e-03
  2.8195555e-04
 -2.2076755e-03
 -1.1700359e-03
  2.4511300e-03
 -3.2055040e-04
  1.9192661e-04
  1.3168453e-03
 -1.7209175e-03
  2.8315871e-03
  2.9765439e-04
  1.4121542e-03
 -8.2774705e-04
 -3.0189252e-03
 -7.4341116e-03
 -9.7792631e-04
 -2.7255439e-03
 -7.7805686e-04
 -2.7845073e-05
  2.2497019e-03
  1.1263430e-03
 -5.1416940e-04
 -1.5522779e-03
  4.3809821e-04
 -1.9076519e-03
  1.0196160e-03
  2.4878101e-03
  4.2988686e-03
 -1.6085864e-03
  1.2123429e+00
 -1.6443750e-01
  3.0495183e-04
  1.2852917e-03
  1.7222589e-03
  3.5044583e-03
 -5.6166355e-03
  1.8601180e-03
 -3.0713012e-03
 -8.6718000e-04
 -9.5061660e-05
  5.4556569e-03
  1.8166259e-03
 -6.1807064e-03
  1.0483126e-03
 -6.4604250e-03
 -9.6440362e-04
 -1.1564421e-02
 -1.4824544e-03
  4.5928656e-04
  9.4697498e-05
  9.2574971e-04
  3.2593103e-03
  1.2855332e-03
 -5.5532524e-04
  3.3899772e-03
 -3.9519742e-03
 -6.1440665e-01
 -8.4327228e-02
  4.2978615e-01
 -8.7198967e-01
 -7.6562822e-02
 -1.4826012e-03
 -5.3839259e-02
 -6.4856960e-03
 -2.7208748e-01
  1.3227385e-01
 -5.2247883e-04
  1.4316687e-01
  1.0874109e-02
  2.9976357e-02
 -3.0016794e-03
 -2.7857503e-01
  2.5746059e-03
  2.7591690e-02
 -1.6695690e-01
  3.3328466e-03
 -3.7364012e-01
  5.4186933e-02
 -8.2426370e-05
  3.3566777e-03
 -4.8563271e-03
  2.4082407e-03
 -4.2507146e-04
  2.8261225e-04
 -1.3487521e-03
  3.5242019e-03
  5.1341718e-01
  7.1018529e-01
  4.3634817e-01
 -2.4692762e+00
 -2.5393477e-01
 -4.5880115e-01
  1.3100028e+00
  2.4473026e-02
 -9.3497291e-02
 -2.0553054e-01
 -1.2743878e+00
  4.8704416e-01
 -5.1021928e-01
  3.0742871e-02
  1.7735375e-01
 -8.5067439e-01
  3.2882109e-01
 -2.7430496e-01
  1.3334684e+00
 -1.0318418e-03
 -3.3743042e-01
  1.1405251e-03
  1.8687397e-01
  2.0861755e-01
 -1.9710103e-01
 -1.2941468e-01
 -6.5977299e-03
  8.6134393e-03
  2.2916073e-02
  5.8504025e-04
 -5.9035618e-04
  1.2506450e-03
 -1.5784435e-04
 -1.7008506e-03
  3.8495397e-03
 -2.9991998e-04
  9.8571123e-05
 -3.5479947e-04
  1.4771598e-03
  1.8646935e-04
  1.9259190e-03
  1.7830012e-04
  1.6043662e-03
 -8.3307234e-05
 -2.9225575e-03
  3.9397675e-04
  2.3265651e-03
 -3.6884695e-03
  4.0429190e-04
  8.6564235e-03
  1.0223556e-02
 -7.9289865e-04
  4.2467582e-04
 -5.1454720e-03
 -8.8699916e-03
 -8.8316516e-04
  1.7026474e-03
  5.2935713e-05
 -1.1135436e-03
  3.0314771e-03
 -1.5191762e+00
 -4.0748635e-01
  3.7762997e-01
  3.0253518e-01
  1.2789801e-01
 -2.0403396e-03
 -2.8521842e-01
 -1.5878220e-03
 -8.7306283e-02
  4.5608097e-01
 -1.8563069e-02
  2.7476293e-01
  1.6003738e-01
  3.6192227e-02
  6.8042748e-02
 -1.1324675e-02
 -7.4820203e-04
  1.2775068e-01
 -2.8462005e-01
  3.6802937e-03
 -1.1700134e-01
  5.7900984e-02
  4.9969178e-02
  3.3020386e-03
 -5.8085128e-04
 -3.5602917e-04
  2.0234156e-03
 -4.5008652e-02
 -7.5200195e-03
  6.9025420e-03
 -4.0526344e-03
  4.3387171e-03
  2.6603427e-03
 -8.9657940e-02
 -2.8968994e-03
  3.2952625e-02
  1.2662036e-03
 -1.2436470e-03
  2.4168489e-03
 -2.0537514e-03
 -3.2872981e-03
 -1.5210405e-03
 -1.1246757e-03
  2.2089276e-03
  4.9338170e-04
  6.3341815e-04
  1.5720722e-03
 -1.4231729e-03
 -1.3674342e-04
  4.7228597e-03
 -1.5720945e-03
  4.2352669e-05
  4.5411270e-03
  6.3673919e-04
 -4.0705153e-04
 -4.7996300e-03
 -2.5301122e-03
  4.4908575e-03
  1.5146418e-03
  8.2510168e-04
  5.0273328e-04
  2.7133077e-03
  2.4785092e-03
  6.9046682e-03
 -1.2018866e-03
  1.1976640e+00
  2.3363137e-03
 -8.3404658e-03
 -3.8456652e-04
 -3.1407827e-03
  1.6257802e-03
  1.2579866e-03
 -3.4676420e-03
  8.8363112e-04
  7.2274184e-01
  7.1946830e-01
 -3.6013714e-04
  5.6847348e-03
 -1.8179007e+00
  1.5997313e-01
 -9.1861472e-02
  4.6707987e-04
  1.3297930e-01
  1.7818279e-03
  6.6743839e-01
  3.6613485e-01
  8.0363059e-01
  8.3389558e-04
 -2.3204987e-01
 -3.4378825e-03
 -5.0001818e-01
 -1.0684200e-03
  3.4408636e-02
  1.1221134e-03
 -4.6705690e-01
  7.4435924e-03
 -1.4909120e-01
  2.5934281e-02
 -7.4816094e-04
  2.3998854e-04
 -7.3412026e-04
 -2.2823354e-03
 -6.3882712e-03
 -1.0605385e-01
 -2.2500085e-03
 -9.8039228e-01
 -5.5656540e-01
  7.6442829e-04
 -1.5296826e+00
 -7.5724590e-01
  9.3785620e-01
 -4.9458107e-01
 -1.4382985e+00
 -3.2513947e-03
 -7.9465157e-01
  5.8370936e-01
 -2.1432137e+00
 -1.1554440e-04
  8.2921386e-01
 -7.2376232e-04
  4.1537534e-02
 -5.3016245e-01
  1.5821425e-02
  2.2229721e-01
  6.3464671e-01
  4.6020383e-03
  2.1427922e-02
 -6.8080967e-04
  3.0904454e-03
  1.7318529e-01
  1.4201023e-02
  4.4462532e-03
 -3.8994748e-02
 -1.6045034e-02
  1.6443379e-02
 -1.5875902e-03
 -8.4087944e-01
  5.2334170e-04
 -4.5634913e-03
  8.5853808e-02
 -1.9707003e-01
 -4.5795452e-02
 -4.5340187e-03
 -7.4169086e-03
  7.7184081e-02
  2.7416304e-03
 -1.3449070e-03
 -2.0180589e-02
 -2.5526796e-02
  7.5082050e-04
  3.1792492e-04
 -1.2142036e-02
  6.7043619e-04
 -1.0113287e-03
  2.1487079e-03
 -4.5733340e-04
  3.0238829e-03
  1.7517826e-03
 -1.2067526e-04
  2.2304987e-03
 -1.5489265e-03
 -7.3244201e-04
  1.0627494e-03
  2.4737490e-04
 -1.2697107e-03
  2.7000306e-03
 -4.1264723e-04
  7.8486267e-04
  4.9448246e-03
  3.7390182e-03
  2.1752441e-01
 -3.8004476e-03
 -1.8972141e-03
 -2.0669368e-03
  1.4270513e-03
  1.0975569e-03
  1.3155151e-03
 -2.5106812e-04
 -1.8410990e-04
 -3.6224894e-06
 -2.3175438e-03
  4.6530436e-04
  2.1506150e-04
 -1.0235797e-04
  1.0935232e-03
  6.6801824e-04
 -4.4848572e-04
 -1.9641877e-03
  1.3672483e-05
 -6.4485188e-04
  1.4340153e-03
  9.8536047e-04
  9.5640688e-04
 -9.3267148e-04
  3.6498529e-04
  1.8697424e-03
  8.0307731e-03
  4.3432365e-04
 -1.5204904e-03
  1.1864798e-03
  3.0816214e-03
  6.9893487e-03
 -3.8475257e-03
 -2.5521074e-03
 -1.8096566e-03
 -1.2008531e-03
  8.6962112e-04
 -1.5207558e-03
  2.2547590e-03
 -1.8672625e-03
  1.3959725e-01
 -5.1326454e-03
 -4.1443501e-03
  4.0914891e-03
  3.4162356e-04
  1.9717182e-03
  8.6313663e-03
  8.0375362e-04
  4.8491576e-01
 -1.7807814e-03
  1.8199241e-03
 -4.4653699e-04
  4.3057080e-04
 -3.1903996e-03
 -1.5562208e-03
 -1.0086105e+00
 -3.4678027e-01
 -1.1181979e-03
  2.2771070e-03
 -3.2606226e-04
  7.7904183e-03
 -2.8110060e-03
 -2.7392881e-03
 -3.7455033e-03
 -3.7173592e-03
 -3.5981624e-03
  1.1864825e-03
 -6.1854431e-03
  8.5451710e-04
 -3.9516385e-03
 -2.2854309e-03
  5.0762451e-01
  3.2938544e-02
 -3.2873914e-01
 -5.8660853e-01
  7.7586505e-03
  1.2552550e+00
  2.0961349e-03
 -2.0952374e-01
 -2.7879437e-03
  3.3305152e-03
  1.4733967e-01
  2.1631646e-01
 -2.9557999e-03
 -1.8731622e-03
  4.9507129e-04
  7.4951065e-01
  1.4869645e-04
  3.8711962e-03
 -4.1699655e-02
 -4.8311967e-01
 -5.2147961e-01
 -6.0253110e-02
  2.3239634e-03
  1.4905122e-04
  4.5054808e-04
  1.4539756e-03
  7.5431117e-03
  8.6016901e-04
  1.5381254e+00
 -2.0311728e-02
  9.9887792e-03
  1.7715431e-03
 -1.0769900e-03
  7.0439309e-02
 -5.6101377e-03
 -3.5842629e-03
 -1.8495406e-03
 -1.0073257e-03
 -4.3761623e-04
  4.6430778e-04
 -3.8825222e-03
  1.2084850e-03
  1.8863874e-02
  1.0509453e-03
 -1.4357759e-03
 -7.6344836e-04
  2.0423374e-04
 -6.3540624e-04
 -2.6760625e-03
  3.7666035e-04
  4.8713782e-03
  4.6012485e-03
  8.3985915e-03
  1.1001904e-03
  7.9742947e-04
  2.7449295e-01
  2.9735912e-03
  1.0971493e-03
  4.0654824e-03
  3.3592130e-03
 -9.1493403e-04
  1.0251841e-04
 -1.0291529e-03
 -4.1091377e-01
 -1.7944875e-03
 -1.5595578e-02
 -4.6720306e-04
 -1.1153414e-04
  6.2269456e-04
 -1.0533086e-03
 -1.0528935e-03
 -2.3431880e-03
 -2.9713926e-03
  2.6069733e-03
 -1.7516456e-03
 -1.8644033e-03
 -2.6754602e-03
 -7.9413614e-04
  1.0411368e-03
  3.0385617e-03
  3.0732858e-03
  3.9882455e-03
 -6.1658939e-04
  5.5735307e-03
 -1.7088416e-03
 -1.0519063e-03
  1.0197310e-03
  6.6865672e-04
 -4.8418478e-03
  4.9037621e-03
 -1.7539714e-03
  9.6559472e-02
  2.1838567e-03
 -1.4371873e-03
  2.8501251e-03
  7.5587805e-04
  2.6827728e-04
  1.3178289e-03
 -5.1454193e-04
  2.8580648e-04
  2.5861379e-04
 -2.0568231e-03
  8.6211257e-05
 -3.0831252e-03
 -1.4527236e-02
  2.9641873e-04
 -3.8816049e-03
  5.9310917e-04
  1.8571257e-03
  4.2743119e-03
  4.0952326e-04
  6.4408721e-04
  1.4171954e-03
  2.9097512e-04
  5.1676272e-04
  2.6251986e-03
  1.4347667e-06
  1.2319175e-03
 -7.4899482e-04
 -3.8614485e-01
  1.1467667e+00
  2.6249455e-03
 -4.8600244e-03
  8.2369976e-02
 -3.7562425e-04
 -8.1635517e-01
 -2.6328322e-03
 -1.6118270e-01
 -4.6061318e-02
  5.0947425e-04
  1.4531405e-01
  5.3346204e-03
 -4.3725513e-04
 -4.4708334e-02
 -2.4476817e-03
  2.8036518e-03
  2.4090554e-03
 -1.1442353e-03
 -1.0655281e-01
 -7.7634268e-03
  5.8455098e-02
  1.4733215e-01
  3.0669071e-02
 -2.4453513e-03
 -2.1589051e-03
 -7.3890184e-04
 -1.2179263e+00
 -3.4363402e-04
  9.3014940e-04
 -4.4553426e-01
  1.1852400e+00
 -2.4722560e-04
  5.3796721e-01
 -8.8471764e-01
 -2.0454971e-03
  3.8482416e-01
 -1.6675501e-01
 -3.7631115e-01
 -5.8321548e-01
 -5.5725634e-01
 -2.8921799e-03
  9.5798966e-04
  3.9149472e-03
 -4.5127055e-01
 -2.2603245e-04
  1.1234808e+00
 -5.0823098e-01
  2.6836984e-03
 -2.9176319e-02
 -4.3085685e-01
  1.1764382e+00
 -7.1471518e-01
  2.4952387e-02
 -2.4645910e-02
 -1.4784145e-02
 -1.3547088e-02
  1.5262212e-02
  6.2138863e-02
  2.9556982e-03
  5.9253144e-01
  1.1210283e-01
  4.0169919e-01
 -1.1335379e+00
 -1.3486017e+00
 -1.3861200e-04
 -2.5245469e-02
 -3.5141740e-04
  3.0243578e-03
 -4.8755956e-01
  1.3082868e-02
 -1.6456775e-02
  9.6287191e-01
  7.0614445e-01
 -1.4553486e-01
 -1.1710061e-01
 -2.2157010e-04
  1.3679301e-02
  2.1262581e-02
 -6.7927289e-01
 -1.6418590e-01
 -4.7817174e-01
 -3.2140172e-01
  8.4253121e-04
 -2.6256388e-01
 -2.1107418e-02
  1.1455425e-01
  1.6676630e-01
  7.8045279e-02
 -7.0185226e-04
  7.6147848e-01
 -1.6961171e-01
  7.0100659e-01
 -4.4457082e-02
 -1.4484423e-01
 -4.4367588e-03
 -3.9181662e-01
  1.0002211e-03
  4.1612182e-03
 -6.7338995e-03
 -7.2795508e-04
 -1.4811547e+00
 -2.7990635e-03
  2.9335937e-01
 -1.7141181e-03
 -1.3112250e-03
 -7.7170891e-01
 -2.7461883e-03
  3.9831005e-02
 -4.6078335e-02
 -5.9346133e-01
 -9.6788049e-01
 -1.0743012e-01
  3.4183904e-03
  1.7285256e-01
 -1.6575322e-03
 -2.2893308e-03
 -1.6475802e-03
  1.3490343e-02
  6.0046962e-03
  8.9538181e-03
 -3.9438978e-03
  1.4828937e-03
 -1.8521991e-03
  1.0134455e+00
  4.6144254e-03
  1.5202318e-03
 -8.3539309e-03
  1.2985172e-04
 -3.9457739e-03
 -3.3994007e-04
  1.9243072e-03
 -8.7654404e-04
  7.8235596e-04
 -7.5292779e-04
 -1.0980039e-03
 -6.3891760e-03
  8.2403130e-04
 -2.7125704e-04
  6.3435151e-03
 -1.4682293e-03
 -1.5760927e+00
  3.4730940e-03
 -1.8884018e-03
 -1.9758164e-03
  1.6853636e-03
  4.9541974e-03
  6.2132417e-04
  4.5401728e-04
 -3.3309980e-04
 -2.3784004e-02
  3.7601054e-02
 -6.3197456e-02
  3.2178904e-03
 -2.3202063e-03
  2.5431815e-04
 -2.7178058e-03
  1.4160009e-03
  1.5400674e-03
 -1.1405762e-03
 -4.0798998e-04
 -2.7457967e-01
  9.0423645e-04
  2.6848025e-04
  1.5985921e-03
 -8.8281994e-04
  2.5903441e-03
  1.6617175e-03
  2.5011081e-04
  8.1858598e-04
 -3.4615913e-04
 -1.4769372e-01
  2.9443516e-03
 -3.9703675e-04
  5.8071682e-04
  1.7618276e-03
 -7.5542612e-04
 -5.1841897e-01
 -6.8378379e-04
  5.7430137e-03
  1.0444974e+00
  6.1749500e-01
 -1.5384744e-01
 -9.7900099e-01
  3.7230060e-02
 -1.7923214e-01
 -2.0005485e-01
  6.0621984e-02
  2.6201387e-03
  3.6630114e-03
  2.1253553e-01
 -5.9142572e-01
  8.9950806e-01
  2.5581622e-01
  1.4012377e-01
 -2.4254511e-01
 -1.9118778e+00
  6.2907326e-01
 -4.0235931e-01
  1.9890711e-01
 -2.1222711e-01
 -1.0873758e+00
 -4.8716146e-01
 -3.7136930e-03
 -2.3988034e-03
  1.0952137e-04
  2.7676595e-02
 -1.4260006e-01
 -1.6514260e-02
  6.1605329e-04
 -7.6493993e-04
  7.6894988e-03
 -8.3454463e-05
 -2.7942513e-03
 -9.1054906e-05
  1.5812531e-03
 -1.5384443e-03
 -2.1273238e-03
 -5.9260725e-04
  3.0301351e-03
 -1.6606768e-03
 -1.2378662e-04
 -4.4605485e-03
  1.4664342e-03
  2.2308961e-01
 -2.7809283e-04
  1.9776395e-03
 -7.7070406e-05
  3.0085244e-03
 -2.5824455e-03
  1.3794424e-03
  5.6822817e-03
 -1.5427595e-03
  3.9823409e-03
  4.2021833e-03
  2.4119941e-05
 -3.4043107e-03
 -3.4006240e-04
 -5.5854004e-03
  3.1356428e-06
 -6.2383560e-04
  6.5546385e-03
 -6.1378151e-04
  4.1245036e-03
 -3.1074136e-03
 -1.5491431e-04
 -8.2336813e-03
  2.0025305e-03
 -9.7611523e-04
  4.5220945e-03
  3.3414457e-03
  5.6233240e-04
  7.1083475e-03
  5.1308265e-03
 -9.8392577e-04
  2.0138104e-03
 -1.2217640e-03
 -1.5254413e-04
  8.9091831e-04
 -3.2362370e-03
 -1.2781337e-03
  6.9926297e-03
  6.9676712e-04
 -1.5811878e-03
  1.1999514e-03
 -1.8040807e-03
  5.1020110e-05
  9.5755694e-04
  4.4558626e-03
  1.9808511e-04
 -8.4245390e-01
 -7.2642784e-03
  4.1436382e-02
  2.3600805e-01
 -1.5720034e-01
  7.2709424e-04
 -1.2918836e+00
  1.0035923e-02
  5.2463895e-01
 -1.7750617e-03
 -2.0814526e-03
 -3.5473442e-01
  2.7299209e-02
  6.2811576e-02
  2.4971894e-03
  1.0895425e-03
 -1.4629123e+00
 -1.5984253e-03
 -3.7224258e-03
 -3.0026208e-03
  8.4011808e-02
  4.6993205e-01
 -6.7433571e-03
  1.3393034e-02
 -1.9217987e-03
  4.4702739e-03
  8.4251398e-03
 -4.3826075e-03
 -4.5966986e-03
  4.3755807e-03
 -1.8078633e-01
  7.8847146e-01
 -4.9539527e-01
 -7.7441826e-02
  8.2036428e-02
 -3.1497329e-03
 -5.8186647e-02
 -7.8094356e-02
 -5.9869108e-03
 -2.9012576e-01
  1.2539877e-01
 -1.0912063e-01
  1.0733466e-02
 -1.6198277e-03
 -2.8141676e-02
  2.9793517e-03
 -1.3942519e-01
  1.7079322e-01
 -1.6979901e-02
 -9.1651225e-01
 -1.6617706e-02
  8.6896950e-01
  1.5364163e-01
  1.8801043e-02
  1.9672370e-04
 -1.0290745e-02
 -4.9469005e-03
  3.1658415e-02
  5.2219745e-02
 -1.5911631e-03
 -1.9107583e+00
  3.1370017e-01
 -1.1001589e+00
 -2.6253510e-01
 -3.9688507e-03
 -5.8110744e-01
  9.8455894e-01
 -4.2256990e-01
  6.7335033e-01
 -4.4720694e-01
 -2.4545011e-01
 -8.1074828e-01
  1.1982820e+00
  5.8933949e-01
 -6.1987108e-01
 -1.9214576e-02
 -1.2881527e+00
  4.6797726e-02
 -1.5816975e-01
 -1.1695846e+00
  1.0131805e-01
 -1.0614980e+00
  2.0717466e-03
  1.7653571e-02
 -1.6872405e+00
  7.5100601e-04
 -1.0480106e-01
  4.2433713e-02
  5.0524898e-02
  3.8472432e-01
  2.9413995e-01
 -7.5242572e-02
  1.4304575e-01
  1.0266570e-02
  8.0820487e-04
  5.8108727e-03
  9.8546245e-04
  1.8109754e-01
  9.2983283e-02
  1.7543870e-01
  3.9920539e-01
 -1.4371330e-01
 -2.6232887e-03
  1.7822119e-04
  1.0921214e+00
  1.7285448e-01
 -1.3656653e-01
 -4.3749604e-02
 -1.2760237e-03
  2.4498567e-01
  2.7120454e-02
 -1.8331969e-01
 -4.1599730e-03
 -4.9353514e-02
  9.6818042e-01
  8.1585422e-02
 -2.6780562e-03
 -8.3411388e-02
 -9.2350729e-02
  1.4640265e-03
  1.8235509e-03
 -6.2052917e-04
 -2.5649215e-03
  3.8641680e-03
 -2.0258529e-03
 -1.5520161e+00
 -1.5693778e-03
 -1.5694897e-04
  2.1270439e-03
  2.1825288e-03
 -1.7759138e-04
 -1.1458163e-03
 -1.7923212e-03
 -1.5634401e-03
 -1.7695434e-03
  1.8513056e-03
 -3.8498831e-03
  4.5391545e-03
  1.9612594e-03
  2.3883744e-04
 -1.7568752e-03
  8.2895311e-04
  3.3078846e-03
 -4.2958376e-03
  6.1192684e-04
  4.1981577e-03
 -2.4121827e-03
  2.7442360e-03
  3.5870031e-03
 -3.1333857e-03
 -4.5034583e-03
 -8.9937932e-04
  9.0408191e-04
  5.2086138e-03
 -3.6041246e-04
 -2.0538711e-03
 -1.2731439e-03
 -7.9619425e-04
 -1.6711819e-03
 -1.2288484e-03
 -1.4066010e-03
  4.1403287e-04
  5.2149370e-03
 -1.1820302e-03
  1.6804979e-03
 -2.2994056e-03
  7.8882143e-04
 -1.0895524e-03
  2.0511774e-03
 -2.5347203e-03
 -9.2446891e-05
  1.1677380e-03
  5.1194173e-04
 -5.6332583e-04
 -5.7620328e-04
  2.4811849e-03
 -2.9053553e-03
 -2.3603318e-03
  2.5960852e-03
 -3.2400633e-03
 -9.3230128e-02
  1.1757294e+00
 -6.9121128e-01
  1.1797004e+00
  5.4000568e-01
 -1.1306005e-02
  1.9878368e-01
 -2.4532136e-02
 -7.1441308e-02
 -1.5275210e-01
 -3.9580190e-01
 -3.2081997e-01
 -7.7775300e-01
  2.3312035e-03
 -4.1640541e-01
 -9.2594005e-02
  8.9461565e-02
 -3.7031272e-01
 -6.6884831e-02
 -1.0450264e-01
 -4.1239846e-01
  4.5374416e-02
  4.9088314e-01
 -6.0823059e-04
 -9.1611676e-02
 -3.5921047e-03
 -5.2765817e-03
  5.7226889e-02
  1.9211600e-02
  4.3168208e-03
  1.0214072e+00
 -9.4016045e-01
  1.3811783e+00
 -1.4789368e+00
 -1.7110540e-01
  3.8438947e-03
  1.8677998e-01
  7.1291052e-02
  3.5565579e-01
  2.3337416e-01
  3.3610225e-01
 -6.3073087e-01
  1.2131572e+00
  3.9919749e-01
 -3.3543843e-01
  1.4877647e-01
 -2.0671774e-01
  1.2747408e-01
  1.8921113e-01
 -2.6067530e-04
 -1.2108737e+00
 -1.0641243e+00
  1.0878174e+00
  5.2974111e-04
 -1.0473154e-02
  1.3443930e-02
  4.5254472e-01
  1.5836379e-03
 -1.8787099e-02
  1.6332096e-03
  2.1621927e-03
 -1.3472732e-03
  8.5914902e-02
  3.5466119e-03
 -4.2346329e-04
 -1.0532225e-02
  1.6016706e-03
  2.0882835e-04
 -9.2276512e-03
 -1.1330444e-03
 -3.3492831e-04
  1.8971912e-03
  9.5674139e-04
 -1.6462042e-03
  2.0925147e-03
 -2.3936627e-03
  5.5456627e-03
  4.2532876e-04
 -6.9087246e-03
  1.2553047e-03
  7.3181116e-03
 -1.7571482e-03
 -1.4909101e-03
 -1.2398213e-04
 -1.1480572e-03
 -1.6803572e-04
  2.9797998e-04
 -2.1772771e-04
  2.9117616e-03
 -3.2650770e-03
  2.8073951e-03
 -2.5079593e-03
  3.8021116e-03
  3.2967590e-03
 -1.2766356e-03
  4.0479828e-04
  1.0917149e-03
  8.5252495e-03
  3.0816253e-05
 -3.9518301e-04
 -2.7081396e-03
  1.2293621e-04
 -1.1877761e+00
  6.9291296e-04
  1.8123380e-04
 -1.1912097e-03
 -1.1878284e+00
 -4.4019762e-04
  1.0076293e-03
  4.5459770e-04
  2.4832380e-03
 -1.6785292e-01
 -1.5830891e-03
 -4.5556322e-04
  3.2982377e-03
  2.2819955e-02
 -7.9516770e-04
 -5.2767742e-04
  4.2768789e-04
  1.9966967e-03
  2.0326187e-03
  1.5274307e-03
 -1.1883783e-03
  9.0971327e-04
  1.1032836e-05
  1.0563834e-03
  2.3233956e-03
  1.4406833e-03
 -3.6715660e-03
  2.2926312e-03
 -5.0263910e-04
 -7.8324863e-04
  2.5517829e-03
 -3.0032927e-03
 -1.3840152e-03
 -3.8715496e-03
  2.3848661e-03
  3.4552536e-03
 -2.1471860e-05
 -1.1699494e-03
 -9.9610409e-04
 -2.9289997e-03
 -2.9754033e-03
  2.9666421e-03
 -5.4469156e-01
  9.6405187e-04
  1.5115632e-03
 -9.2986535e-04
 -2.6787024e-03
 -1.1165887e-03
 -2.7118141e-02
  3.7479654e-02
  5.5106580e-03
 -2.1502115e-04
 -9.5297627e-02
  6.1001167e-02
 -2.1023345e-03
 -5.0800719e-04
 -3.8222399e-05
 -1.5225164e+00
 -2.7835974e-03
 -1.3378982e-03
  7.2929380e-03
  1.0604928e-03
  9.2612958e-04
 -2.3498628e-03
  9.6302778e-03
 -7.7796634e-04
 -4.2825101e-05
 -1.3603760e-02
 -7.4081699e-04
 -1.0411986e-03
  1.0206415e-04
 -5.7459902e-04
  1.6414443e-03
  1.7179666e-03
 -9.3640550e-04
  2.1089065e-04
 -1.6138100e-03
  1.3618513e-03
 -1.1280316e+00
 -4.9360996e-01
 -4.4982226e-04
  1.6598238e-03
  9.2090726e-02
 -2.2364282e-03
  2.2367999e-01
  1.2707800e-03
 -4.2411443e-03
 -1.6996013e-03
 -4.9249483e-03
 -1.0804652e-03
 -1.1857640e-03
  2.7813271e-04
 -1.9683770e-03
  2.6531250e-03
 -1.2797788e-01
  1.0363273e-02
  1.0289003e-03
 -5.6012981e-03
 -1.1596400e-03
  9.1938391e-02
  5.7113767e-02
  1.3562979e-03
  2.0716547e-03
  7.8312866e-04
  1.3082111e-03
  6.5884246e-03
  2.5723893e-03
  1.9676120e-03
 -1.9061270e-01
 -4.1759736e-03
 -7.0312113e-04
  1.9727920e-03
  4.8190564e-01
 -1.9349856e-03
  1.7564441e-03
 -3.5526743e-04
  2.6413065e-03
  7.4051976e-01
 -4.0564933e-03
 -1.7639614e+00
  1.2033186e-03
 -1.9446573e-01
 -4.8437256e-01
  1.3205701e-03
  2.9079323e-03
 -4.1875118e-01
  3.2601315e-01
  5.2595651e-01
 -9.6740300e-04
  6.4500142e-04
 -6.8490987e-04
 -1.1430358e+00
  1.9188094e-01
  3.2699701e-01
 -5.4302267e-03
 -9.5782208e-01
  2.0698979e-03
  2.5644386e-01
  7.8115940e-01
  1.4945097e-01
 -2.3168733e-03
  2.7069348e-01
 -4.9423942e-01
 -2.1850279e-01
 -3.0822517e-02
  1.7580153e-01
 -5.9657240e-01
 -8.8663727e-01
 -9.7513491e-01
 -1.1457912e+00
  3.0680886e-01
 -1.9954495e-01
  1.0626804e+00
  2.5250038e-04
 -2.2993640e-03
  9.3269414e-01
 -8.0256104e-01
 -1.3294823e+00
  1.1377798e+00
 -2.0851810e-02
  6.9982307e-03
 -1.3758397e+00
  1.2490295e+00
  1.5639713e-04
  1.1934148e-01
  1.0507035e-03
 -3.8310561e-01
 -5.0465095e-01
 -2.2048030e-02
  7.9810657e-03
 -1.5775442e-01
  1.0452552e-04
  1.1378436e-03
 -7.9144625e-04
  6.9987560e-03
  4.6506352e-04
  5.8248971e-04
  1.6462187e-03
  1.0381974e-03
 -1.6106645e-03
 -3.7787748e-03
 -6.2697548e-03
  1.0292400e-03
  3.3863226e-03
 -2.0165951e-03
 -1.2912562e-03
  4.0363548e-03
 -2.7866219e-03
 -1.7131614e-03
 -9.6150348e-03
 -1.0315028e-03
 -6.6852407e-04
  2.6023228e-04
 -6.1125550e-03
  4.1462770e-03
  3.6608480e-04
 -1.7289724e-03
  2.3243588e-03
  2.5661445e-01
 -4.1127852e-01
  6.6516107e-01
  1.3790074e-01
 -2.3854170e-03
  5.1468508e-03
 -3.8787048e-02
 -3.7719940e-03
 -2.6609176e-03
 -2.8574893e-01
  3.2512611e-01
  1.9038209e-01
  1.7982914e-01
  2.2074678e-03
  5.1079925e-02
 -3.9723213e-03
 -1.6631588e-01
  2.1724289e-02
 -1.1409194e-04
  6.3297510e-02
 -1.5225736e-03
 -1.9493218e-03
  6.5863375e-03
 -5.8181242e-05
  1.3750551e-02
  2.5976829e-03
  1.1264978e-03
  1.2971587e-03
  2.7546796e-03
 -3.5606006e-03
 -4.4111240e-01
  8.6056447e-01
  6.8978423e-01
  1.5153539e-01
 -1.9652691e+00
 -7.3248428e-01
 -1.0356724e-02
  7.3598661e-02
  1.5674733e-01
 -3.3751547e-01
 -1.0891770e+00
 -3.0632308e-01
  2.3557886e-03
  3.3422001e-02
 -4.2261608e-02
 -8.5929811e-01
  2.5284454e-01
 -3.9235194e-04
 -1.8178180e-01
  2.3016956e-01
 -2.7713457e-01
  3.0094117e-03
  1.7476073e-03
  1.7377518e-01
  4.9678307e-02
 -3.0978448e-03
 -6.2840492e-03
 -3.2145351e-03
 -7.3810545e-04
  6.4411266e-03
 -7.1318582e-02
  1.1131676e-03
 -3.2652349e-03
  1.0687722e-03
 -3.1895563e-03
 -1.1362262e-03
  1.9760903e-03
  4.7920598e-03
 -1.5347774e-04
  3.2052130e-01
 -6.0193194e-03
 -7.9379715e-03
 -3.2209584e-03
  1.7870692e-04
  3.2582110e-01
  5.1188106e-03
 -1.5437332e-03
 -4.0733470e-03
  3.7849832e-03
  3.5605812e-03
 -1.4101249e-01
  5.5486144e-04
 -6.6166755e-04
 -1.0632077e-03
 -8.0997223e-04
 -1.0968055e-02
  1.9473999e-03
  8.7924785e-04
 -1.3597753e-02
  8.9234702e-02
  3.4380615e-01
 -1.3815622e-01
  7.5820559e-01
  4.5336723e-02
 -5.3980532e-03
  1.6075581e-02
 -1.0472994e-01
  2.1841000e-01
 -9.1680856e-03
 -1.3664871e-01
  4.1421392e-04
  7.2569825e-02
  1.2492418e-01
  1.1318840e-01
  1.2846347e-02
 -5.7644024e-02
  3.4431271e-02
  1.2531237e-02
 -7.1798461e-03
 -3.7672415e-03
 -5.1235273e-03
  1.1343684e-02
  5.7929188e-02
  4.8453244e-03
  5.9372298e-02
  2.7528739e-02
  5.6869362e-04
 -2.6820570e-03
  6.8935095e-03
 -1.7417465e-01
  4.2176408e-01
 -1.8655244e-03
 -1.3261427e-01
 -1.2414893e-02
 -1.1092955e-03
 -1.4914374e-03
 -5.0366580e-02
 -7.0473008e-02
  9.3223859e-04
  7.2756994e-01
 -4.9672709e-03
 -1.1610567e-03
 -7.4451871e-02
  1.9324984e-03
  1.0400809e-02
 -6.6227173e-03
 -1.5757221e-01
  7.1774301e-04
  5.7303170e-03
  1.1066356e+00
  7.9129182e-02
 -2.5501114e-03
  6.8176079e-01
 -9.2397258e-04
  7.8043453e-02
 -6.1301878e-05
 -2.9602963e-03
  4.7925697e-03
 -5.3324260e-05
  8.0486797e-02
 -3.8038912e-01
 -3.9578012e-01
 -8.3129862e-03
  9.4177419e-01
  2.8067317e+00
 -1.7421237e-01
 -8.9591271e-01
  2.5345612e-01
 -2.4365363e+00
 -3.0355281e-01
 -1.4970337e-01
 -2.2071363e-01
 -1.1921461e-01
 -1.5991617e+00
 -7.4869835e-01
 -1.0991402e+00
 -6.3979703e-01
  9.2567556e-02
 -1.7752265e+00
 -1.9155406e+00
  6.9134325e-01
 -1.2384062e+00
  4.9625745e-01
 -4.2652088e-01
 -9.9553436e-01
  1.8656337e-01
  5.6294352e-02
  2.1489201e-02
 -1.1155040e-02
  8.9024013e-01
 -3.6585414e-01
  5.8203375e-01
  3.2442313e-01
 -8.3063346e-01
 -1.3448162e-01
  1.0311134e+00
  1.1298615e-01
 -1.3609533e+00
 -1.6637724e-03
 -3.4499872e+00
  9.1658485e-01
 -2.7297169e-01
 -9.0789080e-01
 -9.3159637e-05
 -1.6298772e+00
  6.4739382e-01
 -1.7769291e-01
  1.0535631e-04
  7.2373176e-04
 -6.1149460e-01
  1.9171976e-03
  7.5946629e-02
 -2.6344261e-03
 -3.4528238e-01
 -5.4337996e-01
 -5.1285885e-04
 -6.0594201e-01
  4.8366664e-03
 -3.4499688e-03
 -2.5669725e+00
  7.7495918e-02
  2.1605444e-01
 -2.1627228e-01
 -7.7633506e-01
 -2.4700046e+00
 -1.0086321e-01
  2.8097254e-01
  3.8018110e-01
  4.7166792e-01
 -1.2326001e-01
  6.8645495e-01
 -3.5498366e-01
 -1.0939817e-01
 -5.9660838e-04
  1.4257845e+00
  1.9773383e-02
  4.1006658e-02
  1.0427006e-03
  1.2639159e-02
 -1.5503172e-03
  5.3337133e-01
  3.4654209e-01
 -1.3938093e+00
  1.1458795e+00
  6.9007662e-04
 -2.0377709e-01
  6.1673842e-02
 -1.2376390e+00
 -1.1928573e-02
  4.9854578e-03
  1.1743779e+00
 -2.2828652e-01
 -1.2028124e-01
 -9.5739591e-01
 -4.8765376e-02
 -1.8203057e-01
  1.1464009e+00
  1.7343124e+00
 -1.9610882e-02
  9.0571982e-01
 -6.2856632e-01
  1.1135802e+00
  2.6972422e-01
  3.8951501e-01
 -2.8685075e-01
 -9.7367811e-01
 -3.9411765e-01
  5.9324957e-02
 -9.6441078e-01
 -1.5931908e+00
  3.9632803e-01
  8.8280511e-01
  1.6095339e-01
 -6.8192603e-03
  1.2228653e+00
  8.7009244e-02
 -9.5067304e-03
  1.2203600e-03
  5.5148914e-03
 -1.2869570e-01
  2.9184699e-01
 -3.0574012e-01
 -6.8232514e-02
  7.4824440e-01
  3.8797236e-03
  7.9916245e-01
  5.2922927e-03
 -5.0795305e-01
  1.3479537e-03
 -9.7867772e-02
 -1.0150623e-01
  3.4365114e-02
  2.4119356e-01
  2.1875455e-04
 -3.0730019e-04
  7.1233051e-04
  8.3923024e-01
  6.7257017e-02
  2.2568682e-03
 -4.3634931e-03
  1.4223728e-03
  5.2231915e-02
  1.3271885e-03
  9.7482698e-04
  2.8841253e-03
 -7.3651558e-05
 -7.8041186e-03
 -1.8841180e-03
 -4.3305635e-04
 -1.0634501e-01
  2.1660861e-03
 -4.0653883e-03
 -4.8694012e-01
 -5.2667430e-05
 -3.8301491e-04
 -1.9090909e-03
  1.5904292e-03
  7.0343046e-03
  1.4572750e-03
 -7.4641891e-03
  6.8932539e-04
  2.8468417e-03
  3.8515750e-04
  7.2323456e-03
  3.3903831e-01
 -7.5594295e-04
 -1.6297590e-03
 -3.7953283e-03
 -3.3265206e-03
  3.4599702e-03
  6.1076460e-04
 -6.2350826e-03
  4.1621835e-03
 -1.6339349e-03
 -3.6772399e-04
  2.1046186e-04
  3.3367635e-04
 -2.4132822e-03
  1.0543148e-03
  5.8316174e-03
 -1.2527230e+00
 -2.1507762e-01
  5.5870838e-03
 -2.2020768e-01
 -1.1236703e-03
 -5.3482666e-03
 -3.5210118e-02
 -6.4933203e-02
  1.0148253e-03
 -4.1968669e-03
  1.3758561e-01
  1.7180656e-03
 -2.4264532e-03
  1.6024025e-02
  2.4638395e-04
 -1.4178628e-03
 -1.5399241e-01
  6.7894382e-04
 -2.4518333e-04
 -2.4633577e-02
  1.8490711e-03
 -2.6768255e-01
  3.0835989e-01
  7.0056398e-03
  1.4163550e-03
 -6.3889869e-03
 -1.9224840e-03
 -1.2671584e-03
  9.8447297e-03
  5.7233009e-04
 -1.5874673e-01
 -9.9269254e-03
 -1.3104107e+00
 -6.8355076e-02
  9.9130312e-04
 -4.4663299e-02
  2.7487674e-01
  1.1910524e-03
 -2.8346579e-03
  1.2761965e-01
 -2.8238151e-02
  2.9926753e-01
 -6.7353499e-01
  2.9674009e-04
 -3.7409076e-03
  1.7247527e-03
 -7.3816185e-04
 -1.1456043e-03
 -2.7240233e-02
 -6.2574545e-04
  3.4175667e-03
  9.6981330e-03
  2.3517499e-03
  7.3816436e-03
 -5.9474716e-03
 -4.3652602e-03
  5.7542496e-03
  2.5640245e-04
  7.7562447e-04
  3.5283682e-03
 -5.7592075e-03
  5.5700531e-03
  1.7484985e-01
  1.2802248e-03
 -6.4920136e-03
 -1.0129496e-02
 -3.5822147e-03
 -2.6466325e-04
 -1.8229174e-03
 -1.9084334e-01
  2.6408944e-01
  1.4064109e-02
  1.4174419e-02
 -4.2095375e-03
 -1.2152690e-02
 -7.0434557e-03
 -6.0861278e-01
  1.6319008e-03
  1.3140127e-03
  6.6228288e-01
 -2.1098794e-03
  9.7930801e-01
  6.7729800e-04
  1.4022489e-03
  3.9543354e-04
  1.7011764e-03
 -1.4100061e-03
 -4.1549117e-04
  2.9602908e-03
 -4.5918109e-04
 -3.0763897e-03
  3.5455290e-03
 -8.4294325e-06
 -9.5769740e-04
  6.0164090e-04
 -2.2143011e-03
 -2.1193568e-04
 -1.3685608e-03
  6.6380915e-03
 -1.3649220e-03
 -5.8972026e-04
  8.0366917e-03
 -5.5785361e-04
 -2.1634537e-03
  1.6356936e-03
  2.7075897e-03
 -5.2118406e-04
 -4.6390927e-04
  4.7761944e-04
  4.9599055e-03
 -6.5253844e-04
 -1.7614462e-03
 -3.2692321e-02
  4.5223744e-05
 -1.0795847e-03
 -1.0637606e-03
  2.6779133e-03
 -7.1352617e-05
 -1.2283761e-03
  4.8466864e-05
 -2.8735527e-03
  4.6956427e-03
  7.2864798e-04
 -1.3309175e-03
 -8.7741954e-04
 -1.1507772e-03
  4.3213597e-04
 -1.7229024e-03
  3.0384869e-03
 -5.1506475e-04
  1.5767957e-03
 -3.8965722e-03
 -3.8227541e-03
 -1.7147791e-03
  3.9160517e-03
  3.9608325e-03
 -5.6338019e-04
 -1.5281601e-03
  1.1062215e-02
  3.3983055e-03
  6.8940799e-04
 -3.6265671e-01
 -1.1433602e-03
  2.2170974e-05
 -3.8121585e-03
  2.6804595e-03
  1.0057662e-03
 -1.9957584e-03
  6.4955647e-03
  1.1063705e-04
  1.4778808e-01
  2.1206720e+00
 -1.0493115e+00
 -2.1251303e-01
  9.1951114e-01
 -2.1175289e-01
  3.4061250e-01
  5.5482578e-01
  3.7350979e-02
 -2.7370089e-01
  2.1126116e-02
  4.8517659e-02
 -1.1463422e-02
 -5.9954405e-01
 -1.0979203e+00
  1.7900813e-01
 -9.5445633e-01
 -3.0302104e-01
  8.3391106e-01
 -7.2964770e-01
  4.0512499e-01
  1.7107896e+00
 -2.8739744e-01
 -5.1717126e-01
 -7.6838923e-01
  8.6776453e-01
  8.0639739e-03
  6.4895866e-03
 -5.1263735e-02
 -1.6063155e+00
 -1.0246959e+00
  7.5598735e-01
 -1.9514103e+00
 -5.2804727e-02
 -2.0519564e+00
  1.1738837e+00
  1.2477515e+00
  3.0285418e-01
  6.0475713e-01
 -5.1806804e-02
  1.1043695e+00
  8.9521790e-01
 -2.3898984e-01
  2.7370945e-01
 -1.2506574e-03
  5.0150210e-01
  1.9232086e+00
 -4.4555694e-04
 -8.2504278e-01
  5.0313467e-01
  8.1097347e-01
  1.3511099e+00
 -9.9017650e-01
 -1.4389113e-01
  7.0348197e-01
 -1.3479258e-01
  1.0064309e-01
  3.3377200e-02
 -4.4312975e-03
  2.9730287e-03
  1.2478453e+00
  1.1564169e-02
  1.0832573e+00
 -1.1417921e+00
  1.3821203e-01
  1.5868363e-01
 -3.7339607e-01
  1.0102141e+00
 -2.1863075e-03
 -1.0328486e+00
  2.4078557e-01
  8.7726908e-03
 -5.1536784e-04
  9.1973282e-03
  1.1298114e-01
 -2.9758906e-01
  1.4645425e+00
  2.0590743e-01
  4.6155778e-01
 -2.9394827e-03
 -5.3807563e-04
  7.2313797e-01
  2.6817774e-02
 -1.2817912e-01
 -1.9563960e-03
  2.0799097e-03
 -5.9346445e-03
  1.0766286e-03
  9.1367206e-03
 -5.8501041e-01
 -1.7042888e-03
  2.8516860e-03
 -7.2963089e-03
  7.8816758e-04
 -1.9530810e-03
 -3.5079073e-03
 -3.5511174e-03
  3.1286753e-03
  1.3572128e-04
 -6.4816719e-05
 -2.2711288e-03
  2.4647341e-04
  2.2352713e-03
  7.1167923e-04
  1.6604130e-03
  7.4666599e-03
 -3.2576632e-03
 -2.3478018e-03
  2.2017744e-03
 -2.4124125e-03
 -4.1276222e-04
 -2.5916849e-03
  1.0397945e-03
 -4.8113611e-04
  1.6513678e-03
 -1.1417095e-03
  1.2066762e-03
  1.6650748e-03
 -1.3046748e-03
  7.1102468e-04
  2.8732659e-02
 -1.2425699e-01
  1.5993276e+00
  1.4995506e+00
 -6.0508955e-01
 -1.2093463e-01
  6.4994365e-02
  7.4101388e-01
 -1.3473509e-03
  1.5567923e-01
  8.0166149e-01
  1.0553138e+00
  3.0435242e-03
  2.1554192e-03
  1.3801992e-01
  1.8672363e-05
  3.7091210e-02
  1.2237829e-01
  7.8262121e-04
 -1.3585079e+00
 -8.6984523e-02
 -1.1779732e-01
  1.4426855e-03
 -2.2095540e-01
  5.3213644e-01
  8.3555721e-02
  1.1488348e-03
 -3.4821130e-04
  1.8946588e-03
 -6.6437274e-01
 -1.2941207e+00
 -7.2393960e-01
 -5.5575401e-01
  4.2324886e-02
  4.3986216e-02
  3.5955006e-01
 -2.3561166e-01
  8.7813973e-02
 -9.1462501e-04
 -9.6354723e-01
 -1.3673280e-01
 -8.5586774e-01
 -5.6393882e-03
 -6.4052254e-02
  2.5813499e-01
  2.7687794e-01
  3.4311106e-03
 -9.3930876e-03
 -1.6515705e-01
 -1.6006321e-01
  2.3329218e-03
 -5.8307912e-04
  6.3619099e-04
  7.8735098e-02
 -9.4506396e-03
 -1.7534031e-01
  8.3055854e-04
  2.7984118e-03
  1.5584915e-03
  4.8965764e-01
 -4.3049613e-01
 -2.2553844e+00
  1.4886267e+00
  1.5477396e+00
  2.2047603e+00
 -3.8768816e-01
 -1.5646042e+00
 -2.3834936e-02
 -3.7347127e-02
 -7.3833352e-01
  6.7264196e-03
 -1.4460945e+00
  4.3659297e-01
  1.0399274e-02
  3.3488816e-01
 -8.1276220e-01
 -1.7216289e-01
  1.0341799e+00
  1.4293315e-01
  9.0228552e-01
 -6.8788433e-01
 -4.8310503e-01
  1.8501798e+00
 -6.2084645e-01
 -1.4983149e-02
  1.0307238e+00
 -4.2072490e-02
 -1.2986724e-02
  2.3342917e-02
 -5.9202266e-01
 -1.1091912e-02
 -3.1972260e-03
 -7.7448809e-03
  2.3032648e-03
 -3.6170962e-03
 -1.7114492e-03
  8.6572235e-03
 -5.6534996e-03
  7.2362185e-05
  9.0173535e-02
  2.6069517e-04
 -3.1801298e-02
 -2.8403406e-03
 -4.3114694e-03
 -5.1215646e-04
 -8.6626800e-04
 -2.4304166e-03
  1.6870393e-03
 -2.9098213e-04
 -3.3765259e-01
  3.0293369e-03
 -3.0338597e-03
  1.8812402e-04
 -2.3499362e-03
  7.0014334e-04
 -5.0137201e-03
  7.0996548e-04
  1.6129958e-04
 -1.6917813e-03
  3.2045178e-03
 -1.6867166e-03
  8.6887434e-05
  1.8558741e-03
  3.0037502e-03
  1.4318837e-04
 -1.8216699e-03
  1.2383549e-04
  9.8255603e-04
  1.4682889e-03
  6.0870167e-04
 -7.3681977e-03
  5.8732729e-04
 -1.5650013e-04
  5.0517102e-04
  1.7475660e-03
  3.6312644e-03
  2.8593678e-04
 -2.7386334e-03
 -1.3579594e+00
 -3.2374368e-03
 -3.2686673e-03
 -5.0418422e-04
  2.7739885e-04
  6.8584050e-04
  9.6246024e-04
  9.6137878e-03
 -1.5000890e-04
 -1.9393555e-03
 -9.8260930e-03
  5.2710611e-04
  1.0708133e+00
 -4.9420783e-01
  1.1441391e-02
 -2.3996042e-02
 -1.4852451e-03
 -4.3726823e-01
 -3.8426144e-03
 -1.9251074e-03
  7.2519871e-04
  6.4240402e-01
 -7.1385644e-02
 -3.5890255e-03
 -1.5000721e-03
  2.2239681e-02
  1.6349573e-01
 -4.4497084e-03
 -5.0516474e-01
 -3.6370428e-04
 -1.3483840e-01
 -2.4564378e-03
 -9.9113612e-03
 -5.5118028e-02
  3.9135231e-04
  7.4440026e-01
  6.7599438e-02
  7.3539196e-03
 -2.7922511e-03
  2.2988119e-03
  9.6163759e-03
  4.6491124e-02
 -2.6964612e-04
 -2.6655002e-03
  4.4939499e-03
 -3.8480868e-03
 -1.6158010e-03
  1.3650329e-04
  9.2934305e-04
 -1.6074716e-03
  3.6214413e-05
 -4.3621854e-04
 -7.2296953e-04
 -3.9502727e-03
  6.3934113e-04
  1.0486681e-01
  2.4387175e-02
  1.3485249e-03
 -1.9360784e-02
  1.5272585e-03
 -1.2533095e-02
  1.5780437e-03
 -8.8199670e-04
  1.1961380e-03
 -1.5856514e-03
  1.3001178e-03
  2.4226004e-04
  2.2924987e-03
  1.4852691e-03
 -9.2626456e-04
 -6.8245419e-05
 -9.3027257e-04
  5.3206057e-04
 -6.0664484e-04
  1.0029667e-01
 -5.6613429e-04
 -1.9161970e-03
 -5.1604887e-03
 -8.2677690e-04
 -5.8527064e-04
  1.0369931e+00
  4.0517994e-03
  2.6988445e-04
  2.0845660e-03
 -6.2985620e-03
 -1.5206849e-03
 -1.6487029e-04
  8.1358734e-04
 -6.5940211e-04
  2.1649457e-03
  2.0812403e-03
  1.3453554e-02
 -1.9513386e-03
  1.6936959e-01
  4.9138255e-03
 -1.4085798e-04
  3.0971655e-01
  2.4948944e-03
  2.7234173e-01
 -4.7758620e-04
  4.7100739e-06
  1.2264935e-03
  1.5494166e-03
  3.1808187e-04
  1.1429335e-02
  1.5208249e-03
  7.7485968e-04
 -1.9063267e-05
 -1.2174346e-01
  2.7477001e-03
  1.3004633e-03
 -7.6190382e-02
  3.0340501e-03
  4.2763948e-03
  8.2054205e-05
  5.8638299e-04
 -1.9459061e-03
 -2.2935469e-03
  8.8843366e-04
  1.1053245e-03
 -3.8370574e-04
  2.6362864e-04
 -3.4677880e-03
  3.3151498e-03
  1.2577906e-01
 -5.3815849e-02
 -2.5447605e-03
  4.6189809e-03
 -3.2114044e-03
  1.5693464e-03
  2.4169292e-03
  2.4274818e-03
 -4.0296384e-04
  2.1799248e-01
 -8.1964755e-01
  2.0146735e-03
 -1.4631444e-01
  8.6753803e-01
 -1.2943163e+00
 -1.9257710e+00
 -1.1181444e-01
  5.5145019e-01
  1.3793651e+00
  1.0246512e+00
  4.0423834e-01
  5.6250578e-01
  2.6182663e-01
 -6.9118571e-03
 -1.4222434e-03
  3.3328906e-02
 -1.1188652e-01
 -2.7271470e-01
 -5.8217626e-03
 -3.9440462e-01
  3.9263561e-02
 -3.8611403e-01
  5.1922896e-03
 -1.3873570e-03
 -3.1507456e-01
  1.2892012e-03
  2.1189570e-03
 -2.0441022e-03
 -1.4463086e-01
  3.2467890e-01
  3.8306230e-01
 -1.7387243e-01
  4.4580904e-01
 -2.1681632e-01
 -1.0612193e+00
 -2.2128862e-01
 -5.4329652e-01
  4.4397831e-01
  2.6165995e-01
 -1.0484650e-02
  6.1995000e-01
 -1.7205669e-01
  2.2903578e-01
  3.0536003e-02
 -1.5174469e-02
 -7.0162976e-01
 -1.4557995e+00
  2.7989361e-01
 -5.9691861e-02
  3.2469988e-01
 -3.3017436e-01
  6.4951098e-01
 -1.4572905e-01
 -4.6254331e-03
  6.8045032e-01
  8.6017177e-02
  6.8908878e-02
  1.2070020e-01
  4.9989719e+00
  5.9645106e-03
  1.3398937e-02
  2.9275212e-03
  3.8135830e-01
  1.1087009e+00
 -2.5442660e-01
 -4.6819240e-01
  1.0303780e-01
  1.1908470e+00
  1.2532548e+00
 -1.2207190e-01
 -4.4098750e-01
 -8.4043908e-01
 -1.8728653e-01
 -5.8647025e-02
  1.7043023e+00
  1.7180863e-03
 -1.9866916e-04
  1.6913810e-03
  6.1245559e-04
 -4.6771708e-01
 -2.3827177e-01
 -8.6076334e-02
  3.2197237e-01
  1.6644482e-03
  2.6291466e-01
 -3.4331609e-03
 -1.8737195e+00
 -1.2759588e+00
  8.3374663e-04
 -1.6723128e-01
  2.6206002e-01
  6.2900374e-04
 -4.2898871e-05
 -7.3675476e-03
  5.6658429e-03
  1.0282923e+00
  5.0514150e-01
  5.2052075e-01
 -5.5132222e-01
 -2.1143043e+00
 -4.6888083e-01
 -5.9267335e-02
  1.7703196e+00
 -1.1088017e+00
  2.4738549e-01
  1.4747633e+00
  9.9488243e-02
  8.9245634e-03
 -1.1806620e-03
 -5.9210899e-04
  2.2487275e-01
 -4.7528204e-03
 -1.3571216e+00
 -1.2063096e-01
  6.7742336e-01
 -8.9265311e-01
  1.6006553e+00
  2.7807578e-03
 -1.0754020e+00
  1.0282645e+00
 -1.2675543e+00
 -4.5339372e-02
  4.5151356e-01
  1.4059308e+00
  1.5869830e-03
  7.4674108e-04
  1.2588315e-01
 -3.1389710e-01
  7.4553125e-02
  1.0025127e+00
 -3.4245771e-01
  8.4004498e-01
 -4.4975626e-01
 -4.2249151e-03
 -2.0993766e-01
  6.9916505e-01
  1.2839620e-01
 -7.3829281e-01
  3.2079455e-01
 -3.3622255e-04
 -1.5618384e-03
 -8.7747222e-04
  9.7687414e-04
  1.0743318e-01
  5.6918412e-03
  4.1910544e-02
 -1.3308830e+00
 -9.2481911e-01
  7.4449551e-01
  1.3251787e-03
  7.4381024e-01
  7.7215120e-02
  4.8496336e-01
 -1.9345869e-03
 -8.3872750e-02
  5.7867542e-04
  4.6336255e-03
 -5.6900393e-04
  2.9649290e-03
 -1.6527504e+00
 -1.4689353e-01
 -2.6334062e-01
  3.0779764e-01
 -1.3255610e+00
  6.2303799e-01
 -1.3652612e-02
  1.5400929e+00
  7.8192222e-01
 -2.1316656e-01
  2.7667200e-03
 -2.3134763e-03
  7.1054790e-04
  2.2722013e-05
  8.2917494e-04
  7.2781187e-01
 -1.3028879e+00
  2.6604643e-01
 -4.5386237e-01
  9.7679031e-01
  1.0669472e+00
  1.4736401e-02
 -2.5599087e-03
 -1.3415784e+00
  1.1954489e+00
 -1.8539429e+00
 -4.4585685e-03
  5.5966955e-01
  7.4964261e-04
 -1.3662400e+00
 -7.3893025e-04
  5.5454397e-01
 -1.1481823e+00
  1.5163480e+00
  1.1131042e-01
 -2.6043808e-01
  5.6543314e-01
 -1.0947703e-01
 -1.9048110e-03
 -1.2883158e+00
 -5.1401442e-01
 -9.8623991e-01
 -1.4838417e+00
  1.3671122e+00
  1.8430601e-03
  1.5688278e-03
 -1.1645395e-03
  2.2211331e-01
 -8.7037906e-02
 -7.5621121e-02
 -1.0832598e-03
  2.0213598e-01
  1.5153134e-01
 -7.9722232e-01
  1.1343789e-01
 -7.5437799e-02
  1.0280679e+00
  3.1013030e-01
 -2.2155188e-02
 -8.7589014e-01
  8.5789175e-04
  1.5954087e-03
 -1.4128381e-03
  7.6379143e-03
 -2.2029530e-02
  1.7185245e-02
 -6.1716692e-04
  1.8885215e-01
 -1.2784512e-01
 -2.7657226e-01
 -2.7188354e-03
  2.8813491e-02
  3.8118729e-01
  1.2329853e-01
  1.0292654e-01
  8.5370302e-02
 -1.9779685e-03
  4.1880491e-04
  1.8542572e-03
 -6.2670057e-05
  7.2494209e-01
  3.7861633e-01
  3.0976599e-01
 -1.3116890e-01
  3.7102357e-02
  1.0225719e+00
  7.1742073e-02
 -1.6324199e+00
 -1.3057976e+00
 -7.9565322e-01
 -2.8432095e-01
  2.5685052e-03
 -4.4563808e-04
  5.3485027e-03
  4.2400379e-03
  4.5332250e-01
 -9.4088191e-01
 -1.2194496e+00
 -1.1125877e+00
  1.1771567e+00
 -3.2498118e-01
 -2.0714404e-02
  5.6140749e-03
  1.2199109e-01
 -1.7112364e+00
  1.8075214e-01
 -3.0896866e-01
 -4.5141244e-01
 -1.1825863e-04
 -1.2053722e-04
  3.3216932e-04
  1.7454572e-01
  2.0281722e-01
  2.1828057e-02
  1.2376419e-01
  8.8038033e-01
 -1.1477417e+00
  2.6047978e-01
 -2.2705372e-01
  7.8691268e-01
 -1.5114444e-01
 -3.4034225e-01
  1.5228779e+00
  5.1732498e-01
  7.9860579e-04
  7.7051488e-03
 -1.9137600e-03
  9.2689559e-02
  2.8811499e-01
 -8.4178466e-03
 -4.3638301e-01
 -5.7122386e-01
  2.5727224e-01
  7.7182442e-01
  3.3202849e-04
 -4.1999933e-01
 -1.0558059e+00
 -2.6495817e+00
 -5.7476882e-02
  1.6944134e-01
  6.6429172e-03
  1.3111328e-03
 -3.1859865e-05
 -2.2698636e-04
  4.8882562e-01
 -6.1672896e-01
 -1.0003380e-01
 -8.4751442e-02
 -2.8810024e-04
 -8.3845413e-01
  2.2588365e-03
  6.0635537e-01
  8.7910241e-01
 -1.9657097e+00
  1.0420656e+00
  7.0211762e-03
  2.6938661e-03
 -9.7519706e-04
  1.4077687e-03
  2.3789966e-01
 -1.4128976e+00
 -3.7298667e-01
  1.7702966e-03
 -5.7604885e-01
  2.3375387e-01
  3.8753964e-03
  1.2810911e-01
  1.7113146e-01
  3.8617778e-01
  1.7306653e+00
 -1.0385544e-01
 -9.3662694e-02
 -2.1890507e-03
  1.5705075e-03
 -6.2616228e-04
  4.7203112e-01
  3.1095079e-01
 -1.3933308e-01
  3.8760424e-02
  9.5855629e-01
  6.1712086e-01
  2.9168802e-01
  1.6986831e-03
 -2.6077804e-01
  6.9755763e-01
  2.4622271e+00
  2.0471873e+00
  3.3288933e-02
 -2.0984546e-03
 -5.6126424e-05
 -1.5859714e-03
  1.3846256e-03
 -2.5934878e-01
  3.2414591e-03
  8.8820940e-01
 -1.3998067e-01
  1.3472102e+00
 -1.7415009e-01
 -4.0841778e-03
 -1.2114640e+00
  1.4490511e-01
  2.6484683e-01
  5.4715604e-01
 -8.3359033e-01
 -1.2691096e+00
  6.8723963e-04
  3.8214389e-04
 -1.2438268e-04
 -8.0881435e-01
  3.8244636e-03
  1.8051909e-03
  9.7098815e-01
  9.0953950e-03
  3.6820148e-03
  1.1307275e-03
 -1.9645330e+00
 -2.5266662e+00
 -1.7298423e-01
 -1.9788332e-02
  1.1141201e+00
 -5.9595221e-04
 -2.2445151e-04
 -1.1292392e-03
  2.9566241e-03
 -1.9514679e+00
  2.7847037e-01
 -4.5800394e-01
  6.4321488e-01
 -2.8878786e-03
 -3.9988104e-01
 -2.8139727e-02
  6.5156750e-02
  5.8236641e-01
  6.6980690e-01
  8.0474645e-01
 -1.1419703e+00
 -2.4785253e-04
 -8.5586106e-04
  2.2796330e-04
 -2.4521337e-03
 -1.3790980e-01
  6.7497939e-02
 -6.7644501e-01
  6.5866423e-01
  1.9492612e+00
  1.6228658e+00
 -1.8529625e-03
  2.2404499e-01
 -7.4181068e-01
  3.1299212e-03
  1.6890581e+00
 -2.3480555e-02
 -3.0216298e-03
  5.6066439e-03
 -1.8815037e-03
  1.7127087e-03
  9.4040014e-02
 -1.6365269e-03
 -1.4706819e-02
  1.2937360e-01
  6.3763642e-01
 -1.3801731e-01
 -5.4536951e-03
 -1.0477266e+00
 -2.1510437e+00
  4.5010182e-01
 -5.8069557e-01
  1.0037452e+00
  1.7788727e-03
  7.1294571e-04
  1.3846614e-03
 -1.8413047e-03
 -8.6091256e-01
 -5.9467715e-01
 -8.9597905e-01
 -3.0920362e-01
 -1.3928673e+00
  1.2884461e+00
  5.7848822e-03
 -5.1370394e-01
 -4.5730080e-03
  4.5549676e-01
  2.4553348e-01
 -8.7377918e-01
  1.5456019e-03
 -5.6682995e-05
 -9.7168435e-04
  2.1261869e-05
 -5.5982213e-02
  7.1919239e-01
 -5.7173129e-02
  1.1026978e+00
 -1.2152836e+00
  4.0945375e-01
 -1.0002487e-03
  1.9549569e+00
  8.8329399e-01
 -2.4173386e+00
 -4.3316641e-01
 -7.8428715e-01
 -3.7800131e-04
  9.0314569e-03
 -4.2075040e-03
  7.1463123e-04
  1.4813650e+00
  5.7282764e-03
  1.2405061e+00
  2.9735744e-01
 -2.6501134e-01
 -7.9923823e-02
  2.9508199e-04
  4.1411516e-01
  1.3578790e-01
 -7.2616768e-01
  3.2725918e-01
  1.4448451e-01
 -8.1698243e-03
 -2.1753758e-03
  1.5134134e+00
  2.8398880e-04
  1.7670861e-02
 -5.9925592e-01
 -5.5207229e-01
 -4.0828705e-01
  1.1602013e+00
 -7.7223933e-01
 -4.6750698e-03
  4.1314512e-01
  4.1984165e-01
  9.4911379e-01
  1.2188807e+00
  2.5328815e-02
 -1.4480337e-02
  8.0019450e-03
 -8.1435982e-03
  2.7958550e+00
  1.4942212e-01
 -4.3398735e-01
 -2.6709774e-01
 -2.0181351e+00
 -1.9076815e-01
 -1.4840384e+00
 -4.9637998e-03
  1.1611915e-01
  7.1003455e-01
 -6.0409570e-01
  8.8469398e-01
  1.1185013e+00
 -1.3717001e-03
 -1.0679832e-02
  7.2809304e-03
 -7.6200287e-03
  9.5548016e-01
 -5.6075468e-04
  1.5542397e-01
 -2.4056273e+00
 -7.7985823e-03
 -9.6470550e-02
  3.2694519e-03
 -2.5512144e-01
 -2.3875135e-01
 -3.4007696e-03
 -4.7181565e-03
 -1.3031018e-01
 -1.3363300e-03
  1.3004696e-03
  6.6628325e-04
 -2.8775544e-03
  4.4094703e-01
  1.7808237e+00
 -1.1227438e-03
  4.9180329e-01
 -1.4438308e+00
  1.5352754e-01
 -4.6746559e-03
 -8.0466844e-02
  1.0646939e+00
  2.2627880e-01
  1.5701065e+00
  9.6720362e-01
 -8.3976397e-03
 -7.8584248e-04
 -9.6882245e-04
 -4.7210547e-01
 -6.4513522e-01
  1.7306241e+00
  1.9565849e+00
  1.3415585e+00
 -2.4435410e+00
 -2.3806311e-01
  1.6326690e-04
 -1.3128895e-02
 -2.7388033e-01
  1.2565905e-01
 -1.2261534e-01
 -4.1427821e-01
  3.6676787e-03
 -2.0011002e-02
 -6.5341396e-03
 -4.2797499e-03
  1.0122518e-01
 -3.4222755e-01
 -1.6024150e-01
 -5.5279189e-01
  2.5862951e-02
  4.4689644e-02
 -8.2339754e-04
  5.2703816e-01
  2.0611717e-01
 -1.4351008e+00
 -8.2881212e-01
  7.7418759e-02
 -6.3991785e-02
  1.7039414e-03
 -8.4710322e-05
  1.2549141e-01
 -8.1405044e-01
  5.9690785e-02
 -1.0299803e+00
  1.0084695e+00
  7.6370639e-01
 -5.4625529e-01
 -1.0426511e-01
  9.3897611e-01
 -2.2980881e+00
  1.3248844e+00
  1.5325238e-01
 -2.2422874e+00
 -1.9884089e-01
  6.8014534e-04
 -9.8190261e-03
 -1.6265081e-01
  5.2369481e-01
  5.4731339e-01
  1.6467627e+00
  7.0151901e-01
 -7.6023018e-01
 -3.8332639e+00
  1.3365970e-03
  8.6060381e-01
  5.4305214e-01
 -1.9220587e+00
 -1.7094815e-01
 -3.0347443e-01
  4.4617030e-01
 -4.2273179e-03
  1.3793369e-03
  3.6735359e-01
  5.4945004e-01
 -1.8711544e+00
 -6.7596132e-01
 -1.3875419e+00
  2.6279095e-01
  4.9089795e-01
  3.6276493e-03
  7.3908901e-01
  3.1005323e-01
 -8.3660489e-01
 -2.1173196e-02
  7.4328500e-01
 -1.6425087e-01
  2.3700602e-02
  1.6134961e-03
  1.8038359e-01
  8.9239860e-01
  3.5215047e-01
  1.3055497e-02
 -1.8847530e+00
 -8.7978214e-01
  2.1459250e+00
  2.5591480e-03
  1.9901407e+00
  6.6939300e-01
 -3.3108667e-02
 -1.7902973e-01
  8.6436111e-01
  1.8440771e-03
 -3.4989178e-02
 -2.2812366e-02
 -3.2933980e-01
  1.0880653e+00
  2.2879060e-02
  3.2554651e-03
  2.7981788e-02
 -4.7737864e-01
 -6.3908249e-01
 -5.9686556e-02
  5.8449078e-01
 -7.9048944e-01
 -1.7484007e+00
 -1.5659856e+00
  1.3029349e+00
  3.0986688e-03
  2.4939454e-03
  9.2197437e-04
 -3.5053268e-03
  9.9322875e-04
  1.2426461e-03
  5.9257256e-04
  2.6130688e-03
  5.5601122e-04
 -3.2250029e-03
 -9.1925882e-05
  3.9368000e-02
  3.4764010e-01
 -9.4846539e-02
 -1.5544590e+00
 -2.7448747e-01
 -3.1427345e-03
 -3.3307828e-02
 -7.6238828e-04
 -8.9429561e-03
 -4.9825464e-03
 -5.2886661e-03
 -4.5558203e-02
  5.7693458e-01
 -4.3928686e-01
 -2.5777856e-01
 -2.0726727e-02
 -2.0840250e-01
 -3.2081347e-02
 -2.6235017e-01
  7.1527082e-01
 -1.0891565e+00
  4.4756727e-03
 -3.0130758e-03
 -1.9463394e-03
 -6.1059184e-03
  2.0767909e-01
  1.6424442e-02
  3.1843642e-03
 -5.8021624e-02
  5.3330773e-01
 -4.1994688e-01
 -7.5070432e-04
 -1.5445356e+00
 -1.4500436e+00
 -8.2411277e-01
  1.1269656e-02
  1.3323487e+00
  3.6031142e-02
 -2.4204552e-03
  8.8781095e-04
 -6.4810741e-01
 -5.2033068e-04
 -5.5113537e-03
 -5.8282507e-03
  4.6404009e-05
  1.9197176e-01
 -4.9121995e-02
 -3.2754387e-03
 -1.9322412e-01
 -2.0039635e+00
  1.4148470e-02
 -2.4197364e+00
  9.8816502e-01
  1.8970825e-02
 -1.4349462e-01
 -3.8525325e-03
 -8.4586936e-01
  2.7674076e-01
  4.1178247e-04
 -2.0556316e-02
  1.0000655e-01
 -9.0451449e-01
 -7.0850074e-02
 -8.1509410e-04
  1.7300454e+00
  2.1320120e-01
  1.1673602e+00
 -3.8521123e+00
  4.5702901e-01
 -1.8668182e-03
 -3.0743205e-03
 -2.6275968e-02
  1.0668966e+00
  1.5631563e-03
  3.9822990e-03
  1.7890618e-03
 -4.6565565e-01
  4.3869279e-02
 -1.9287939e-01
 -1.5032862e-03
 -9.0479970e-02
  6.5611601e-01
 -8.4532380e-01
 -3.8854748e-01
  1.2683935e+00
  9.0105730e-01
 -1.2731183e-03
 -9.8310681e-03
 -5.7540905e-02
 -4.8941857e-04
 -3.0618694e-03
  8.9588197e-04
  9.8811579e-04
  5.2359134e-01
  2.9743224e-01
 -4.3602586e-03
 -2.2731874e+00
  4.7033918e-01
 -2.7088687e+00
 -3.3095816e-01
  1.2049596e+00
  4.9847102e-01
 -3.1509617e-01
 -4.3074524e-01
 -6.7550677e-01
  2.6381718e-02
 -1.8582452e-03
 -7.8216614e-03
  1.7234068e-02
  5.3489161e-01
 -1.3176411e+00
 -2.1007100e-04
  1.8619408e-01
 -1.6081826e-01
 -2.3308015e+00
 -1.0117019e+00
  6.2010217e-01
 -3.2170999e-01
  7.8698080e-03
  2.0699797e-02
 -1.6494346e+00
 -4.5930535e-01
  1.1486920e-03
  5.0764412e-01
  4.5780367e-01
 -8.5220933e-01
 -5.7756603e-03
 -4.6005799e-03
  6.9843754e-02
 -1.3761188e+00
 -1.0411668e+00
  2.7501626e+00
 -4.3297123e-02
 -6.7443703e-03
  9.3263597e-04
 -2.3270664e-03
 -6.3351966e-03
 -7.8940195e-01
 -3.1549761e-03
  6.4176656e-03
 -3.2752436e-03
 -1.5269537e-02
  2.6545292e-03
  4.4100229e-03
 -1.2291648e+00
 -9.6204203e-01
 -1.7242675e-03
 -1.0292314e+00
 -4.0360421e-01
  9.0814188e-05
 -2.1126552e-03
 -1.4071262e-03
  2.8132141e-01
 -5.2655488e-01
 -5.7655986e-04
  3.4379870e-01
  6.1135131e-01
 -1.0787699e-01
 -4.3152315e-03
  2.4835255e-03
  4.7625560e-01
 -1.2511227e-01
 -8.3820991e-02
 -6.8922752e-01
  7.2761744e-01
 -5.2509117e-03
 -1.6914724e-03
  8.7389378e-03
  1.5546218e+00
  6.7430389e-01
  1.0634565e-03
 -1.2292967e-03
  8.0131046e-02
 -1.0812588e+00
 -1.2293376e-03
 -1.7561144e-03
  1.9231397e+00
 -8.1148201e-01
 -4.5940739e-01
  6.7015624e-01
 -9.5648521e-01
 -5.8722609e-01
  2.2826044e-04
 -2.6191608e-04
 -5.8302950e-02
 -6.7578697e-01
  1.2480498e-04
  2.8331652e-02
  2.5360696e-03
 -8.5189834e-04
 -5.0047683e-03
 -1.2013640e-03
  6.9213080e-01
 -7.5167763e-01
 -5.5546448e-02
 -4.3239737e-01
 -1.9104645e-01
  1.9396116e-03
 -3.0519441e-04
 -1.2516357e-03
  1.0538197e+00
 -9.6776098e-01
  2.6711307e-03
  2.4796987e-01
  1.4257772e+00
 -6.8146801e-01
  7.2373901e-03
  3.4740509e-04
  2.0365065e-01
  2.7589543e+00
  7.7080286e-01
  1.0357063e-01
  4.1382837e-01
 -1.2568891e+00
  2.1680035e-03
  1.8520696e-03
 -3.6422783e-01
 -2.5554465e-03
 -1.4408973e-04
  2.3164547e-03
  5.9502459e-01
 -1.3217700e-01
 -8.4620655e-02
 -8.8772684e-04
  1.7896022e-01
  2.1173315e+00
  3.3119965e-02
  3.9792106e-01
  2.6284233e-02
 -1.5232692e+00
 -6.6718152e-03
  3.9070100e-03
 -4.4545311e-01
 -9.5998234e-01
 -5.5058342e-03
  4.1284598e-02
  6.6642916e-01
  1.1211300e+00
  1.9510804e-02
  1.5702368e-04
 -2.5938633e-01
  9.1596419e-01
 -6.1790729e-01
 -8.3672065e-01
 -1.8866135e-01
 -1.8110700e-01
  5.0464290e-04
  4.6578324e-03
  5.4315746e-02
  6.0822539e-02
 -1.1975824e-04
 -2.9031951e-03
  5.2696115e-01
  1.0235050e+00
 -6.7106761e-02
  4.2951717e-03
 -6.0862637e-01
 -1.6742486e+00
  2.6029634e-01
  8.5457437e-02
  8.5779063e-02
  1.9052400e-01
  4.5947548e-02
 -5.0717411e-03
 -9.5013432e-02
  1.4106429e-01
  1.8381718e-01
  6.3321930e-01
 -1.1312985e+00
 -3.1839108e-01
 -2.4397476e-01
  1.8281910e-01
  1.8039111e+00
 -8.9924985e-01
 -1.0405838e-01
  1.6522759e-01
 -6.1419103e-02
  9.4471488e-04
  8.3147694e-05
 -5.4256490e-04
 -2.7511117e-01
 -3.6232450e-04
  5.4307457e-04
 -7.1833050e-04
 -6.0386664e-01
 -3.6109807e-03
 -1.6480433e-03
  9.9859678e-04
  1.3593622e+00
 -3.5756856e-01
 -3.4318486e-01
 -1.9357306e+00
  2.0204359e-01
  4.8641306e-03
  1.1297473e-03
 -2.4886210e-03
  3.4763338e-03
  1.9972452e-03
  9.9158555e-02
  4.1583180e-01
  8.2997060e-01
 -1.2551323e-01
 -4.2264223e-01
 -7.3207531e-04
 -1.1537359e+00
 -2.2208862e-01
  1.7620364e+00
 -1.5767469e+00
  5.0298393e-01
 -1.5043423e-01
  6.4792059e-04
 -3.6841531e-03
 -3.3522531e-01
 -3.3490437e-01
  2.7856687e-03
  2.5071697e-02
 -2.2700432e-01
  2.0580779e-01
  1.0190081e-03
  1.8612989e-03
 -1.7041799e-01
 -6.8934739e-01
 -2.1439998e+00
 -3.7245195e-02
  3.1066680e-01
  2.3182166e-04
  2.3128532e-03
 -1.2921987e-04
 -9.9493772e-01
 -1.2171146e-03
  3.5964452e-02
  1.0927034e-01
  9.8818615e-03
 -3.8189348e-02
 -6.4271587e-01
 -1.1987975e-03
  5.2610431e-02
 -2.7962688e-01
 -1.5432245e+00
  9.0696424e-01
 -1.8755984e+00
  2.3246728e-02
  1.2914868e-01
 -3.6725753e-03
  1.5035716e-02
  3.6778897e-01
  9.2799045e-02
  2.6296064e-01
  4.8010200e-01
  3.3008987e-01
  1.3366017e-02
 -1.5804445e-03
 -3.2324690e-01
  9.5144838e-01
  2.0041400e-01
  9.6380621e-01
  6.9375718e-01
  2.0356616e-01
  2.3875774e-03
  3.6863554e-03
  1.3494721e-02
  5.4690361e-02
  9.6537691e-04
  1.7428176e-03
 -1.4266983e+00
 -6.8206005e-02
 -5.9114289e-01
 -8.1547696e-05
  7.1834540e-01
  7.7260023e-01
 -8.3708912e-01
 -1.7206082e+00
  4.5952454e-01
 -4.5675837e-04
  8.2868382e-02
 -3.4933470e-04
 -1.9281040e+00
 -1.0468720e-01
  3.2951626e-01
  5.2846366e-01
 -1.3009049e-01
  9.8961972e-02
 -7.9233781e-04
 -3.8631996e-03
  1.0632068e+00
  1.0303054e+00
 -1.8617762e+00
 -1.6515970e+00
  7.2831877e-02
  1.1925606e-01
 -3.9620959e-04
 -4.5624403e-03
 -9.6971089e-01
 -1.9655262e-01
 -7.1373737e-01
  5.2264426e-04
  2.6007646e-01
 -1.0093028e-02
 -2.3789697e-03
  9.8270713e-05
 -3.0452299e-01
  9.4447499e-03
 -9.8868841e-01
 -1.0995965e-01
  4.2961103e-01
  1.9662167e-01
 -3.7840677e-03
  1.7936844e-03
 -3.0550582e-02
 -1.6583349e+00
  3.7376420e-03
 -3.6885327e-01
  4.9107533e-05
 -1.0150127e-01
  2.8979037e-02
  1.3136468e-03
 -1.9141579e-01
 -1.9882933e+00
  3.5470605e-01
 -2.6078352e-01
 -2.2905971e-01
  8.6985640e-02
  1.5837245e-03
 -5.4449392e-03
 -9.5359318e-02
  4.4586995e-01
  3.1653515e-03
 -4.5457464e-03
 -3.7977027e-03
 -7.6184887e-04
 -1.2127677e-03
  1.5862036e-04
 -3.1192452e-02
  3.6224103e-04
  1.2305443e-03
 -8.3914871e-04
  1.9455691e-03
  4.9010427e-03
  4.9855658e-03
  5.5580616e-02
  2.6045019e-02
  1.0450460e-01
  1.3213750e-03
 -6.9767410e-01
 -9.8852348e-04
  1.2703507e-01
 -8.1577402e-04
  3.0731698e-03
 -5.7281995e-01
 -1.6389631e+00
  6.6383636e-01
 -4.0443559e+00
  1.2662489e+00
  3.2512915e-01
 -4.0390398e-02
 -1.0008783e-01
 -9.4744992e-01
 -5.2202761e-01
  9.1015542e-04
 -1.3891135e-04
  5.6753659e-01
  1.2928177e+00
 -1.4858288e-04
  3.9595533e-03
 -6.8873554e-01
  1.1868052e+00
 -9.2425233e-01
  4.9812397e-01
  1.3551210e+00
  1.5322509e-01
  4.8702783e-03
  7.6202657e-03
 -7.4781746e-01
  3.7288980e-03
 -1.5247018e-04
 -4.2681757e-02
  4.0336470e-03
  2.2344960e-01
  1.0326506e-03
  1.4701489e-03
 -8.2417601e-01
 -1.1789148e-01
 -3.0884854e-02
 -9.0330340e-02
  1.0337369e+00
 -1.2936626e-01
  3.2891165e-03
  3.2576958e-03
 -5.4403234e-01
  1.5971816e-01
  8.6989399e-04
 -1.2505165e-04
  6.3860214e-01
 -5.6090001e-02
  5.4175790e-02
 -1.1261441e-03
 -5.7695895e-01
  1.3764154e+00
 -1.0118166e+00
 -2.5571534e-02
  3.8821176e-01
  3.1910375e-01
 -2.8178462e-01
 -3.9500394e-01
 -9.3743408e-01
 -9.7073263e-01
 -6.9948245e-04
 -5.4440147e-04
 -5.1830155e-01
  1.3466890e-03
 -1.4776479e-02
 -1.0148230e-03
 -1.2483019e+00
  3.2048604e-01
  1.4969231e+00
  3.7418205e-01
  2.1310914e+00
  4.1776335e-01
  5.4674822e-01
  6.6340035e-01
 -5.5447534e-02
  8.6424035e-01
 -5.4625131e-02
 -4.4734504e-02
  3.3195555e-01
  2.8287610e-01
  3.2250518e-01
 -7.6317473e-04
  9.5211881e-01
  8.8882476e-01
  5.9432381e-01
  1.5511699e-01
  1.7712039e-01
 -2.7351791e-02
 -3.3344162e-01
 -3.1061634e-01
  8.2209269e-03
 -7.6278460e-01
  5.2327721e-04
 -6.9549130e-03
 -1.9248302e-01
 -6.3549995e-01
 -1.7107673e-02
  1.6235424e-03
 -1.4724983e-01
  9.7428732e-02
 -3.1945941e-01
 -1.4254636e+00
  3.2416910e-01
  9.2803520e-01
  2.2635001e-03
  1.6378879e-03
 -1.9026197e-01
 -2.7247667e-01
  1.6825482e-03
  9.7500794e-03
 -1.0812124e+00
  7.7080809e-02
  2.2571924e-01
 -1.6105074e-03
 -8.8735245e-02
 -1.5780661e-01
 -3.6399898e-01
 -7.6969373e-01
  8.2305270e-01
  3.4688273e-01
 -7.3103752e-04
  5.3530524e-04
  7.2751692e-03
  2.4415546e-03
 -3.1705822e-03
 -4.4206675e-02
 -8.6359829e-02
  4.4111584e-04
  6.0052366e-04
  6.5981876e-03
  3.3621170e-02
  7.6948345e-01
 -3.5527237e-03
  1.1324288e+00
  6.0157059e-04
 -1.1498293e-01
 -5.5633383e-03
 -1.0649711e-03
 -8.2370406e-01
 -1.7996898e-03
  1.4489294e-03
  4.0562963e-03
  3.3890274e-01
  1.2147155e-03
  4.4671319e-02
  8.6089422e-04
 -5.2946323e-04
 -8.2146883e-01
  6.2963545e-02
 -3.1182206e-01
  5.8263415e-01
  1.2059162e+00
  2.6909944e-01
  1.9899895e-03
 -2.8078962e-02
  1.1377990e-01
 -1.1726602e-03
 -5.5697141e-03
 -6.1034364e-01
  4.4189207e-03
 -7.5469376e-04
 -9.4510324e-05
  2.9663175e-01
 -1.7008582e-02
 -4.4581640e-01
 -6.2191057e-01
  1.1218004e+00
  1.3991652e+00
 -1.5541002e-01
 -1.6195191e-01
  1.5455834e-04
  4.8512439e-04
  5.3319018e-03
  9.1909774e-04
 -4.9537107e-02
  4.1760692e-01
  2.0659599e-03
  2.0431101e-03
  1.1876747e-02
 -3.7681913e-01
 -4.3235533e-03
  4.7945964e-01
  9.7701085e-01
  2.1212994e-01
  1.5816652e+00
  3.1527850e-01
  1.7889731e-01
  7.7888370e-01
  3.8719610e-03
 -1.1004797e-03
  1.0082294e+00
  2.9979169e-01
 -3.1367044e-03
 -3.1318821e-03
 -9.9383332e-02
 -6.4447778e-01
 -1.1061337e-01
  3.9883286e-01
 -1.7075433e+00
  7.4413127e-01
 -1.1766514e-04
 -3.7422958e-01
 -3.9340046e-01
 -1.0114070e-03
 -7.8778490e-03
 -1.0819653e-03
 -7.4080551e-01
 -3.0946028e-01
 -2.5420892e-04
  2.8042763e-04
  1.0144434e+00
 -4.3336865e-01
  3.8422775e-01
 -1.7121661e-01
  5.7169050e-01
  4.2376304e-01
  2.3016557e-01
  4.7180098e-02
 -3.6357293e-01
 -6.7343724e-01
 -1.4597934e-05
  1.4541075e-02
 -1.0092824e+00
  4.3051481e-01
  1.2875642e-01
 -3.5871449e-04
  3.9456180e-01
 -3.5778028e-01
 -6.2097406e-01
  1.2346565e-01
  1.5986514e+00
  2.6033384e-01
  3.9402783e-01
  1.2357054e-01
 -1.6925897e-01
  5.2899623e-01
  1.2670874e-03
 -2.5840020e-03
 -1.1556506e+00
  3.3944887e-01
 -1.4058865e-03
  1.6825938e-03
 -1.0853693e+00
  1.0093193e-01
 -4.3355319e-01
 -1.5854183e+00
  2.4113539e-01
 -1.2215821e-01
 -2.0490520e-01
 -7.2782190e-05
  7.0690733e-01
 -9.9231131e-02
 -4.4886237e-01
 -6.9555469e-02
 -3.8466740e-01
  2.4881683e-01
  3.2743592e+00
  1.8816169e-03
 -5.1844400e-01
 -1.4179546e-01
  2.6982513e-01
 -6.7066270e-01
 -6.1655026e-02
 -3.2452347e-03
  4.0856382e-04
  1.2572522e-03
  3.7872845e-01
 -2.1742741e-03
 -5.7844953e-03
  3.1579994e-03
 -2.6798071e-03
  2.5947716e-02
 -5.3757743e-04
  2.5570500e-03
  4.2975571e-02
  7.1323460e-01
 -1.2030132e-01
 -2.5327835e+00
 -3.8011940e-04
 -1.5402485e-01
 -1.6662222e-01
 -3.0706490e-03
  1.3842580e-01
  1.2485127e-01
 -3.4058547e-01
 -2.5748065e-01
  1.4480527e-03
 -3.2364666e-01
  6.7111659e-01
  1.7221119e-03
 -7.9611444e-01
 -1.9108995e+00
 -3.8610718e-01
 -1.7929018e-01
  6.9994974e-01
 -1.2539446e-01
  8.4735459e-04
  4.8841687e-04
  1.4082084e+00
 -4.7435150e-02
  1.8767206e-01
 -3.1072274e-03
 -1.9067850e-02
  7.2258335e-01
  1.3070025e+00
  7.8287709e-04
 -1.9401206e+00
  2.3702300e-01
  1.7559167e+00
  8.3875602e-01
  1.5282276e-01
  2.4632026e-02
 -9.2601120e-02
 -4.6897206e-02
 -2.4286413e+00
 -2.9309404e-03
 -4.2272188e-02
 -6.3500796e-03
 -7.2352523e-01
  2.2060494e-03
  1.5586596e-02
  7.4982387e-04
 -1.0028615e+00
 -4.0498668e-01
  1.2467675e+00
 -4.5737326e-01
 -5.3342834e-02
 -8.4078141e-02
 -2.0941669e-01
  3.2086279e-02
 -4.5022556e-01
  7.6950297e-02
 -7.8270778e-02
 -1.6246036e-01
  1.3264096e+00
  3.7143443e-02
  5.2885395e-01
  4.4889227e-03
 -4.8179622e-03
  9.1286667e-02
  1.2249354e+00
  9.5627981e-01
 -5.2814496e-01
 -1.0593868e-01
 -1.8533600e-04
 -5.3161480e-03
  1.1070181e+00
 -1.3515903e-02
 -1.5301968e-05
 -2.5555000e-04
 -7.9498303e-01
  4.9992985e-01
 -9.8526217e-02
  3.2127253e-03
  1.1658865e+00
  4.0624329e-01
  4.4435811e-01
  1.5140627e-01
 -6.9725209e-01
 -2.4679763e-02
 -2.8836903e-01
 -9.2437491e-03
  2.0392570e-01
  1.3593068e-02
 -4.3010592e-01
 -1.0458674e-01
  3.2081193e-04
 -5.6859827e-01
  1.3424852e+00
 -2.2553500e-05
  8.6568677e-01
  7.1906316e-01
  1.1159067e+00
 -3.2217851e+00
 -6.0504898e-03
  7.7497344e-03
 -1.1456544e-03
  9.5087998e-02
 -1.1620342e+00
  2.9538613e-04
  2.5548495e-04
 -6.9175271e-04
 -1.3269884e-02
  2.5578892e-01
 -1.0270308e-02
 -7.9900090e-04
  1.7739679e-01
 -1.7444457e-01
 -1.3307575e+00
 -7.8759694e-01
  1.1993112e-01
  4.2859793e-02
  4.2859793e-02
  4.2859793e-02
  4.2859793e-02
  4.2859793e-02
  2.1534939e-01
  2.1534939e-01
  2.1534939e-01
  2.1534939e-01
  2.1534939e-01
  1.1986069e-01
  1.1986069e-01
  1.1986069e-01
  1.1986069e-01
  1.1986069e-01
  5.4790903e-02
  5.4790903e-02
  5.4790903e-02
  5.4790903e-02
  5.4790903e-02
  1.6075475e-02
  1.6075475e-02
  1.6075475e-02
  1.6075475e-02
  1.6075475e-02
  1.3338973e-01
  1.3338973e-01
  1.3338973e-01
  1.3338973e-01
  1.3338973e-01
