nep4 4 Li La Zr O 
cutoff 6 4 95 30
n_max 4 4
basis_size 8 8
l_max 4 2 0
ANN 30 0
 -2.0167905e-01
 -1.6558943e-02
 -1.2996583e-01
 -1.2596959e+00
  1.3691503e-01
 -1.8864673e-02
 -2.8564301e-01
 -4.0130740e-01
 -4.2510841e-02
  1.0013181e-02
 -3.0897141e-01
 -8.1223577e-01
 -6.4124301e-02
 -5.6285232e-01
  1.3567005e+00
 -5.0582312e-02
 -6.4147782e-01
  1.7194940e-01
 -1.7947349e-01
  4.0569723e-01
 -5.4764585e-03
 -6.5580137e-02
  2.0590392e-01
  7.1191870e-02
  4.9502802e-01
  9.8911300e-02
  9.5513791e-02
 -5.5552930e-02
 -5.6923259e-02
 -6.5200768e-02
 -6.9121034e-03
 -3.0997372e-01
 -1.3696574e-01
 -3.3444926e-01
  4.4315532e-02
 -2.5221590e-02
 -1.0356118e-02
 -2.5765091e-02
  8.5891001e-03
 -2.5452864e-03
 -6.3581042e-02
 -1.5486349e-02
  1.5430973e-04
  6.8871427e-04
 -1.7749181e-01
 -1.0227741e-01
 -4.1202209e-03
 -3.7901290e-03
  2.2130799e-03
  7.0789345e-02
 -3.0685994e-01
 -4.7486182e-03
  3.7731566e-02
 -1.4488149e-01
  6.0542148e-05
 -3.9098123e-03
 -2.5113355e-03
  5.1588523e-03
 -3.3101258e-03
 -3.7067020e-03
  5.7064351e-03
  5.6243516e-03
  8.6829262e-03
 -8.9445338e-03
 -5.1664845e-03
  9.7023100e-03
 -4.7028381e-03
  6.3421605e-03
  6.2720440e-03
  1.1978353e-02
  8.4589320e-01
 -2.9557324e-03
  1.4808346e-03
 -1.1803985e-02
  1.1044940e-02
 -3.0196203e-02
  5.4987334e-03
 -1.5120213e-04
 -3.6609585e-03
  1.3895154e-03
  4.6415986e-03
 -4.6729813e-03
 -7.7945343e-04
  1.3504080e+00
  1.2439505e-02
 -6.8482296e-03
  7.7118455e-03
  1.0673293e-02
  1.5108742e-02
 -3.2025350e-03
 -3.1458144e-03
 -3.2864246e-01
  7.4355863e-03
  1.0561588e-03
 -3.4041305e-03
  1.3345800e-02
  6.2967918e-04
 -1.6033517e-02
  9.6852392e-02
 -1.9845968e-02
  3.3433307e-02
  4.0406664e-03
  1.8159522e-02
 -2.5280372e-03
  7.2980742e-04
  5.7421082e-01
  2.1027999e-03
 -2.2405706e-02
 -1.6573635e-01
 -2.5312628e-03
 -1.7043599e-01
 -2.8885999e-03
  6.1164314e-01
  3.5081476e-01
  3.5292695e-03
 -9.8620737e-03
 -7.3810960e-03
 -6.2653930e-03
 -1.9949549e-03
 -2.2760723e-03
  3.5741667e-03
  1.7997228e-03
 -1.3658638e-02
  8.5098604e-03
  3.3191845e-03
 -1.1222205e-03
  9.2415735e-03
  3.1950139e-03
 -9.1564879e-03
 -1.3043418e-02
  2.5114708e-03
 -1.5569799e-01
  1.1391450e-02
 -1.3718202e-02
  2.8139327e-03
 -3.4816300e-03
  1.8428315e-03
  6.0038860e-03
 -7.4256590e-04
 -1.0064507e-03
 -1.7448557e-03
  8.0594374e-03
  7.6967641e-03
  1.5540286e-03
 -1.1445913e-02
 -9.2081167e-03
  1.4612338e-02
 -7.9821246e-03
 -2.1323992e-03
 -1.5952681e-04
  1.1705499e-02
 -2.4762553e-01
  8.2217306e-02
  2.0804349e-01
  8.3931908e-03
 -1.4850797e-02
 -1.5732476e-02
  5.9511326e-03
  2.6791671e-02
 -3.4441743e-02
 -1.6585590e-03
 -5.0502191e-03
  6.0470095e-03
  1.4400650e-02
  1.3317013e-02
 -3.1525159e-01
 -9.4603933e-03
 -6.5892893e-01
 -1.8850109e-02
 -2.9497806e-03
 -2.7476253e-02
 -1.0310810e-03
 -1.4810092e-02
 -5.9111889e-02
  7.1762600e-03
  1.5419872e-02
  1.4859312e-02
 -1.3721627e-03
  9.2106722e-03
  1.3842789e-02
  9.2535827e-04
 -4.1384700e-01
  2.1094544e-02
  5.1986273e-02
 -1.1467963e+00
  1.3873960e-02
  8.8347942e-03
  1.0305449e-01
 -1.0650912e-01
 -9.4144538e-02
  1.7312600e-01
  4.3864362e-02
 -6.0180523e-03
 -1.2733671e-02
  9.3884870e-02
 -2.6093325e-01
  9.7994050e-03
 -1.8600522e-01
 -7.4511781e-02
 -2.5376171e-01
  6.2189456e-02
  1.9145098e-02
 -5.5647325e-03
  1.8060943e-01
 -1.4795256e-03
  1.0166028e-01
 -2.9625904e-03
 -2.2186988e-03
  2.8203502e-02
  1.7681191e-04
 -6.6522129e-02
 -1.4135264e-01
  5.6855031e-04
  1.2084579e+00
  5.6423768e-02
 -2.2672962e-03
 -1.4162632e-02
  2.1092859e-03
 -7.6362956e-03
  1.0637588e-02
  8.2288295e-01
 -5.4107374e-04
  1.2399530e-02
  9.7099422e-03
  5.6157177e-03
  4.2800314e-04
 -1.4121751e-02
  3.4247292e-03
 -2.4394137e-03
  3.0110199e-03
  1.2333825e-03
 -2.7992376e-03
  7.8351870e-03
 -6.7736767e-04
 -6.7598087e-04
  5.4580583e-03
 -3.2348640e-03
 -4.8972322e-03
 -5.0144331e-03
  1.5102134e-03
 -5.9813224e-03
 -2.9269770e-01
  5.1204249e-02
 -4.2157409e-01
 -3.2589391e-01
 -2.3155674e-02
 -8.8403537e-04
  9.8699173e-03
  7.9681164e-01
 -6.0650967e-03
  2.2346403e-02
  1.3296654e-02
 -9.0247886e-03
  6.4680642e-01
 -4.5167445e-03
  1.9053979e-01
  1.4757672e-02
 -4.1872177e-02
  1.1825022e+00
  3.3796901e-01
  3.1373465e-01
  2.4694152e-02
  1.4034906e-01
  6.3683105e-01
  9.4318120e-03
  1.1319375e-01
  4.9790274e-03
 -1.1789299e-03
  2.4114737e-01
 -4.9781380e-03
  2.9895547e-01
 -5.1297975e-01
  4.8205502e-02
 -4.1072759e-01
 -9.3939191e-01
 -6.2118629e-03
  1.1087134e-02
 -4.7650326e-05
 -1.6772042e-01
 -1.6467121e-01
 -3.9673179e-01
  1.1629992e-01
 -3.5178461e-03
 -7.0294172e-01
  4.0361515e-01
  5.1422190e-04
  1.5204094e-01
 -2.1490376e-01
  4.6457940e-01
 -3.3551300e-01
 -2.2808407e-02
 -6.2520495e-03
 -2.4472870e-01
 -4.5891325e-03
 -9.0840288e-02
 -1.9450208e-02
  5.1699722e-01
  8.4455144e-03
 -8.0357920e-03
  4.4786958e-03
  6.7572470e-04
 -3.3060387e-03
  2.1316431e-02
  1.9981598e-02
  2.2082636e-03
 -2.4762924e-03
 -5.6627067e-03
 -1.6584310e-03
 -7.1249143e-03
 -1.3578316e-04
  2.9342309e-01
 -5.6302175e-03
 -4.2828443e-03
  9.5233889e-03
  3.0504612e-02
  1.1362292e-02
  3.9112358e-03
 -4.1326946e-03
  2.7081929e-03
  2.7392344e-03
  1.5921596e-02
 -4.5379740e-03
  1.0173533e-02
 -2.6105191e-03
 -1.2498617e-04
  1.3303999e-03
  9.3291025e-04
  1.0572635e-03
  2.3864298e-03
  4.8526552e-01
  1.1291688e-03
  5.4246378e-03
 -2.7943841e-01
 -1.4963991e-02
  2.8640691e-02
 -4.7883438e-03
 -1.8238712e-03
 -1.7251583e-02
  3.6313407e-02
  4.4952665e-04
  6.0824975e-03
 -1.8426540e-03
  5.5950982e-03
  1.2869445e-03
 -3.7038140e-02
 -2.5002908e-02
  3.9033855e-03
  1.7012667e-02
  1.9139247e-02
  2.9032603e-03
 -4.5646880e-02
 -5.4834974e-03
 -2.0859430e-03
 -6.4541653e-02
 -6.3070990e-03
  1.6968064e-03
 -3.9905906e-03
 -7.8242272e-03
 -6.4234235e-03
 -9.2636887e-04
  5.8692717e-03
  3.2528463e-01
 -8.7961875e-02
  1.1807927e-03
  3.1079983e-04
 -8.2833174e-04
 -5.0077946e-03
  6.3584028e-03
 -8.6008891e-05
 -1.1523749e-03
 -2.5265411e-02
  3.6966247e-03
 -8.9005809e-03
  6.3211806e-03
  3.7840079e-03
 -2.5170792e-03
  5.2094259e-03
  4.6724412e-03
 -4.7483778e-04
  6.5641152e-03
 -1.4377074e-02
 -3.8972541e-03
 -1.4866411e-02
 -1.1734988e-02
 -7.4514365e-03
 -2.2019049e-02
  1.4664578e-04
 -1.2723395e-03
 -2.8306071e-03
 -8.7076817e-03
 -2.1627609e-01
 -1.5511470e-01
 -1.0415806e+00
 -3.1040123e-01
  3.1167802e-01
 -3.3232084e-01
 -5.2950531e-03
 -1.9857916e-01
 -1.1200516e+00
  2.9651823e-03
 -4.2004392e-01
 -3.7727502e-01
 -1.2985822e-03
 -6.0081732e-01
 -2.2052859e-01
 -1.3423878e-01
 -1.3969663e-01
  4.8585910e-01
 -2.3975328e-01
  2.0549472e-03
  1.1512936e-01
  4.9665410e-02
  1.3822269e-01
 -7.0804304e-01
  2.0847724e-04
 -1.0835169e-01
  4.9639591e-03
 -8.9415368e-03
 -1.8165268e-01
  6.9882711e-03
 -7.8408004e-05
 -1.6297429e-03
 -5.0208755e-03
 -2.3694403e-02
  1.0022211e-02
 -5.5209496e-03
 -6.4797048e-03
 -6.7116963e-03
  4.4320184e-03
 -1.0952147e-02
  1.1702519e-03
 -6.3280948e-02
  9.0929559e-03
 -5.7990006e-03
  2.6549448e-03
  2.1415150e-02
  4.1810041e-03
  3.3316464e-04
 -2.0907398e-02
 -3.7206577e-03
 -1.9813573e-03
 -8.5137896e-03
 -9.6026054e-03
 -3.5052542e-03
 -5.1161822e-02
  1.2303168e-03
 -6.7642936e-03
 -4.8625544e-03
  9.8765781e-03
  1.7029357e-03
  1.4347244e-03
  1.1842544e-03
  4.1419002e-03
  6.9406833e-03
 -7.8524736e-04
 -2.0137988e-02
 -1.7572324e-03
  5.2532018e-03
  3.6731677e-03
 -1.0315923e-02
  1.4135479e-03
  6.8170846e-02
  1.5923537e-01
 -8.6582555e-03
 -6.0336839e-04
 -4.6177800e-03
  1.3594046e-02
 -4.2984071e-03
  4.4380929e-03
 -1.7615074e-03
  9.8297116e-04
  9.4971649e-04
 -1.2893922e-03
 -1.3162230e-02
  6.8879826e-03
 -1.0778859e-03
 -2.1844482e-02
 -5.3530908e-03
 -1.9212877e-03
 -1.2323975e-03
 -5.2257610e-04
  4.6775574e-03
 -2.1813488e-02
  5.8370471e-01
 -1.4391082e-02
 -1.6242232e-04
  2.9987688e-04
 -1.6925249e-03
  1.0986575e-03
  2.0877435e-03
  3.4486938e-01
  1.5931420e-03
  1.7716235e-04
  1.0280006e+00
  8.3601558e-01
  6.5353978e-01
 -8.6169476e-03
  1.8068405e-03
 -3.3410650e-02
 -3.9019890e-03
  1.5409218e-01
  1.7688973e-02
 -6.2366119e-03
  1.0409963e-02
 -4.2474992e-03
  4.4276398e-03
 -5.3130028e-05
 -1.6924931e-02
 -6.7541036e-03
  1.7819315e-03
  2.0863398e-03
  7.5169455e-04
 -5.5697802e-03
  9.6815603e-04
  6.8576098e-03
 -9.7619742e-03
  1.7485600e-03
  6.6440855e-04
 -4.3321261e-03
  6.2959986e-03
 -2.8660189e-04
 -1.0239227e-02
  7.6921227e-05
 -7.1041486e-03
 -6.0650910e-04
  4.3579043e-04
  8.4055550e-03
  3.9899088e-03
 -5.2196127e-03
  9.9250069e-03
  2.7033209e-03
 -4.9553937e-03
  2.3931954e-03
 -2.7942780e-04
  6.9145274e-01
 -1.4648555e-02
  7.1982169e-03
 -9.2171150e-04
 -1.2410776e-03
  1.0553332e-02
  2.0675208e-02
  3.8445257e-02
 -9.9942358e-03
  4.2731594e-02
  1.1851132e-02
  1.4709092e-04
 -9.3447918e-01
  2.8423069e-04
  4.2744532e-02
  1.5499213e-02
 -1.6653473e-02
 -1.2798053e-02
 -3.7193689e-03
  1.1206555e-02
 -2.7526505e-03
 -3.0741438e-01
 -4.4490327e-03
 -3.8018286e-02
  5.6873248e-03
 -2.4156712e-03
 -6.4188272e-01
  2.4408607e-03
 -2.4812883e-03
 -3.1744766e-03
  3.1262007e-02
 -4.4629271e-03
  5.9332312e-03
 -1.7001258e-02
 -1.9840044e-03
  1.4484901e-02
  3.3539755e-03
  1.1167405e-02
  2.2491741e-03
  1.0833897e-01
  1.2749020e+00
 -7.4238433e-03
 -8.4267985e-03
  1.5412279e-02
  9.0914425e-03
 -2.5470476e-04
 -4.4955590e-04
  7.7238120e-02
  1.3314801e-02
  5.6616734e-03
  4.6922327e-03
  2.7742136e-02
  2.9999180e-02
  3.5386859e-04
 -2.1192506e-02
  1.7250023e-03
 -1.9214196e-03
  7.3256842e-03
 -5.0280662e-03
  2.1776143e-03
 -5.7074912e-03
  9.8861679e-03
 -5.1724319e-03
 -3.9792949e-04
 -1.0353324e-02
 -1.8767230e-04
 -6.0307547e-03
 -7.7055744e-03
 -9.7977929e-03
  2.0755036e-01
 -8.6845196e-04
 -5.1138224e-03
 -8.9456830e-03
 -3.7722713e-03
 -1.7577943e-03
  3.9413692e-03
  2.4623178e-02
  9.2314750e-02
 -9.1254432e-03
  1.7860359e-02
  6.8252925e-03
 -1.1814202e-03
  1.2138586e-03
  4.6312353e-03
 -3.9085252e-03
  1.1777289e-02
  1.3528819e-02
  1.0192010e-02
  4.8876721e-03
  1.2856144e-02
 -2.4993282e-03
  1.1304576e-01
 -2.2079755e-02
  8.7895489e-04
 -1.6342518e-01
 -1.5406203e-03
  2.8692768e-03
 -9.6393758e-03
 -3.8598725e-01
  3.5153866e-01
  2.3719706e-01
 -1.0772814e-02
  1.7548462e-02
  1.7049318e-02
  3.2190744e-02
  4.7076706e-02
 -1.4349720e-02
 -7.7761158e-02
  1.3102440e-03
  6.2768526e-02
 -1.7106538e-01
  8.1034854e-02
 -7.6935198e-03
  1.0334829e-01
  6.2185712e-02
  2.7165532e-03
 -2.5859687e-02
 -1.2088149e-04
 -8.8121787e-02
 -4.9687833e-02
 -8.5608447e-03
  5.4338197e-03
  6.3480800e-03
  2.8225628e-03
 -3.4652010e-03
 -3.0999202e-03
 -1.0703648e-02
 -1.1230749e-03
  2.4516811e-03
 -1.0282568e-02
 -8.2747085e-04
 -3.1502608e-03
  3.2992777e-04
  9.3109440e-03
 -7.4076899e-03
  1.3929893e-02
 -9.9014090e-03
 -1.0789428e-03
 -6.3369349e-03
  1.2723352e-03
 -2.7864124e-03
  1.7972713e-03
  4.3881610e-03
 -2.5644321e-03
 -4.2263432e-03
 -1.6373850e-01
 -6.7357207e-03
  1.9722259e-02
 -6.3269217e-03
 -3.3739121e-03
 -3.6650647e-03
  9.5279543e-03
 -1.5528108e-02
  1.8893255e-02
  3.0027379e-04
  4.4493722e-03
 -1.0041519e-03
  3.3944556e-01
 -1.6568566e-02
 -6.7574051e-03
 -2.2856693e-03
 -1.4067031e-03
  1.9605452e-01
  4.9738603e-04
  6.1593689e-03
  6.0570502e-04
 -6.6828635e-03
 -1.0074022e-02
 -1.7220201e-02
 -3.7967125e-03
 -5.3568846e-03
  5.6684096e-03
  8.5931486e-03
 -3.5075368e-03
  6.3877925e-03
 -7.5971978e-03
  8.4370817e-04
  1.2792512e-03
  8.0460887e-03
  5.2608326e-03
 -4.6689846e-04
 -3.3958599e-03
  3.0523045e-03
 -4.6781139e-03
  4.5291666e-02
 -5.7660037e-04
  3.7478775e-02
  3.0503365e-01
  1.6609490e-01
  3.9489776e-01
 -1.4278967e+00
  4.8683178e-01
  5.2671660e-02
  4.7220536e-02
 -2.2881840e-01
 -1.5025749e-02
  3.4776983e-01
  9.9425316e-02
  3.8085949e-02
 -9.8828105e-03
  2.1316154e-01
  4.6444324e-01
  5.4264981e-02
 -3.7479350e-01
 -2.4755196e-01
 -1.2060908e-01
  5.1141113e-01
 -3.2305790e-03
 -1.0718426e+00
 -1.5979124e-02
 -1.2810316e-03
 -1.9848952e-02
 -6.4401431e-03
  1.3997666e-02
  4.6725615e-04
  4.0103015e-03
  3.5569044e-03
  3.1729736e-03
  5.6980494e-03
  5.1708417e-03
 -7.4844446e-04
  2.4737448e-03
 -2.3068949e-03
 -3.3382434e-02
  1.4469351e-03
 -2.2142397e-02
 -9.1794003e-03
  5.8716745e-03
 -8.7461318e-04
  4.1358909e-03
  4.6447581e-03
 -9.5738666e-03
 -1.4547021e-03
  1.7994663e-02
 -1.8080162e-02
 -1.1083626e-02
 -1.5877664e-02
  1.5602367e-02
 -3.6746212e-03
 -7.4700466e-03
 -1.2911087e-03
 -3.2504965e-03
 -1.4209043e-03
 -1.2828814e-02
  3.3702680e-03
  8.9925332e-03
  2.9104048e-01
  4.7000181e-03
 -2.7384306e-03
 -3.3283696e-04
  1.7539618e-03
 -1.1192574e-02
 -4.2940181e-02
 -1.5647674e-02
 -1.5567893e-03
  8.7750414e-03
 -2.2466069e-03
 -7.5371453e-04
  1.8156100e-03
  8.9060795e-03
 -1.7774027e-03
 -8.1962692e-03
  7.3065558e-03
  9.1669065e-01
  1.6940130e-01
 -1.4502791e-02
 -1.6668573e-02
  7.0004021e-03
  1.4961016e-03
  1.7473919e-02
 -4.8806667e-03
 -1.4156243e-02
 -9.1909128e-01
  1.0005857e-02
 -1.6320640e-03
  1.0474480e-02
  2.0495319e-01
 -8.5508049e-01
  9.3088448e-01
  1.0178791e+00
 -2.3793504e+00
  1.9384667e-01
  2.9778113e-03
  1.4233714e-02
  5.2947320e-02
 -8.2077451e-02
  5.3626764e-01
  1.0829821e-01
 -9.7436383e-02
 -8.4070407e-02
  1.3428150e-02
  6.1992872e-01
  2.2989057e-03
 -6.4711612e-01
  6.8337762e-01
 -1.0740607e-01
 -1.6170120e-01
 -7.9491064e-03
 -2.9147279e-01
  6.4857066e-01
 -5.1692100e-03
 -5.6131771e-03
  1.6658164e-03
  2.2396818e-03
  5.2091428e-03
  3.5386512e-03
 -1.7398402e-02
 -1.7409072e-03
 -2.0026341e-02
  1.2382139e-02
  2.9207362e-02
  1.2159940e-03
  5.4609291e-03
 -7.0115791e-05
  2.5476884e-02
  5.1370967e-02
 -1.5054169e-01
 -3.7150614e-02
  5.4608649e-01
 -8.9792069e-03
  2.6764509e-03
 -1.1958848e-01
  4.8980792e-04
  2.2679856e-02
  1.1791025e-01
  3.1445040e-03
 -3.3535328e-02
 -7.0577855e-03
 -1.1921694e-04
 -5.2838647e-03
 -1.0343341e-02
  5.0822995e-03
 -2.2728143e-02
 -1.1101282e-02
 -9.3143098e-03
 -8.5395935e-04
 -1.1017282e+00
 -1.3851068e-03
 -2.8764540e-03
  5.9690895e-03
  1.7331550e-02
 -1.1793441e-02
  1.6841192e-03
  6.3939849e-03
  8.5498383e-03
 -4.7223568e-03
  1.5399075e-02
 -3.4015917e-03
  7.5400554e-02
  5.4021682e-05
  8.7202992e-03
  1.5477520e-01
 -4.4353056e-01
  2.3158107e-02
 -1.2121176e-02
  1.5573940e-02
  2.7413581e-02
 -4.5925607e-03
  3.3537603e-03
  2.5478475e-02
  9.3147345e-04
  1.0937206e-02
 -3.7793396e-03
  2.6780746e-03
  1.3608084e-02
  1.1739420e-02
 -1.1338373e-01
  5.3048681e-04
  1.3576529e-03
  6.7564072e-03
  1.0289943e-02
  7.4874662e-02
 -5.3338033e-01
  1.5596034e-01
  1.8524138e+00
 -3.4929624e-01
  2.3612736e-03
  5.5684429e-04
  5.3620418e-03
 -1.4966830e+00
 -9.1417640e-01
 -6.4315153e-03
 -1.8173102e-01
  6.2722340e-03
 -1.5330527e-02
  3.3938851e-02
 -2.0070344e-03
  2.6870437e-03
  1.7545460e-03
  2.7347559e-02
  1.2717992e+00
 -1.4886856e-01
 -1.7413905e-02
 -3.9286122e-01
  1.9329308e-01
  2.0847509e-03
 -1.8410807e+00
 -3.3668783e-01
  2.3147147e-02
  1.5560116e-01
  2.1712435e-02
 -1.9725028e-01
  6.8891835e-01
 -2.7591416e-01
  1.0208381e+00
  5.7668191e-01
  6.7874953e-02
 -1.7315643e-01
 -1.3172647e-01
 -9.0535992e-01
  1.4330393e-01
  3.2377336e-04
  1.6924042e-01
  2.9397808e-04
 -2.4731605e-01
  1.7564702e-01
  6.1413620e-02
 -4.7815347e-01
 -2.0761080e-03
  4.8271962e-02
  5.6156009e-01
 -3.6068425e-02
 -6.1010852e-02
  3.7887561e-01
 -2.0932446e-01
 -2.2427181e-03
 -3.3307793e-03
 -2.2955103e-01
  4.8189424e-02
  6.3783242e-03
 -3.9866544e-02
  9.7424379e-03
 -8.4895352e-03
 -3.2022235e-03
  6.0380339e-03
  6.6510774e-03
 -6.9741118e-03
  9.4805276e-03
  4.9370038e-03
  5.6725228e-03
  3.2972184e-03
  8.4026288e-03
  3.5933650e-03
  5.2327607e-03
  1.1132270e-02
 -9.2125387e-04
  2.5041602e-04
 -2.1718137e-03
 -5.0929110e-03
 -1.1904463e-02
 -5.3031188e-03
  2.3508954e-04
 -5.5948924e-03
 -3.6278015e-03
 -1.8493446e-02
 -2.5626943e-03
  1.4551211e-02
  1.1579999e-01
 -1.9406934e-03
  1.3360694e-02
 -3.6448188e-04
 -7.0761539e-02
  2.5400028e-03
  6.0906053e-01
 -9.2091982e-04
  9.5710158e-04
  5.0614444e-03
  1.2613861e-02
  1.4438311e-02
  4.0421495e-03
  1.8325066e-03
 -1.5468032e-03
  9.4020471e-04
  6.2503997e-04
 -5.2092648e-03
  2.4084551e-02
  1.6838977e-01
 -3.0481149e-03
  1.6292257e-03
  1.6853733e-02
 -4.9280045e-03
  3.5318409e-04
  2.9684467e-02
  3.6403635e-01
  2.0116509e-03
  5.1406629e-02
  1.4755731e-02
 -3.5641551e-02
  4.4916458e-02
  3.7417091e-02
 -7.7784359e-02
  6.6806749e-04
 -5.1597375e-03
  2.5755162e-03
 -7.2132866e-03
  2.6838557e-04
  6.9760187e-03
  1.3903235e-02
  1.1277307e-03
  6.9964835e-03
 -1.1053603e-02
  1.7060536e+00
 -4.1183326e-03
  3.3369609e-03
  1.7178109e-02
 -4.0412251e-02
 -3.7892438e-03
 -9.7193159e-03
 -1.3864522e-02
 -1.4864751e-04
 -1.4246786e-04
  5.8915778e-03
 -1.1594148e-02
 -4.3358986e-04
 -4.4369742e-02
 -3.3359914e-03
 -4.1068971e-01
 -2.7626853e-03
 -1.4369027e-04
  2.8366442e-03
  3.6714088e-02
  1.0627598e-02
  1.2251429e-03
 -9.8666095e-04
 -7.8146504e-03
  1.0445726e-02
  2.0042306e-03
 -4.3153386e-03
 -9.1822641e-03
 -5.6191753e-03
  1.5998840e-03
 -1.8832007e-02
  3.5463991e-03
 -3.8833942e-03
  3.4176704e-04
 -4.6591286e-02
  1.6180960e-03
  1.4330801e-02
  1.0999924e-02
  1.4075515e-02
  6.2497789e-03
 -1.4453523e-03
 -6.3489117e-03
 -5.9998278e-03
 -8.9142146e-03
  3.8027219e-03
  7.6654094e-01
 -8.5623205e-01
  7.1119830e-02
  1.9765308e+00
  1.7893359e-01
  1.5397406e+00
 -4.1277030e-01
  5.4431967e-03
 -6.2723733e-03
 -2.4823463e-01
  3.4918615e-03
  4.8339041e-03
 -2.9487826e-03
 -5.6087412e-02
 -3.8033262e-01
  2.7159697e-01
 -3.7780738e-01
 -1.2324439e-02
  4.5406124e-01
 -2.7101779e-01
 -7.4074024e-01
 -6.4887881e-04
  2.1563983e-03
 -6.0254894e-03
 -3.3378765e-02
  9.0807034e-03
 -2.5656433e-03
  1.5810106e-02
 -3.1167304e-02
  1.0993053e-02
 -1.0610595e-01
 -1.7857952e+00
 -3.9067641e-01
  1.4160935e+00
 -6.3636959e-01
  2.8728193e-01
 -1.7396219e-02
  3.6738325e-02
 -1.8231092e-01
 -3.8199264e-01
  1.5088876e-01
  2.8997215e-02
 -2.1404868e-02
 -1.7013849e-01
 -5.0183833e-01
  1.5196604e-01
 -4.6436954e-02
  8.8324246e-05
  1.6433369e-01
 -3.6361989e-01
  1.5206142e-01
 -1.3780019e-01
 -1.1245149e-02
 -1.0163310e-01
 -2.0841217e-02
  5.5535682e-02
  1.6159454e-02
  3.2470527e-03
 -9.5715430e-03
  1.9145811e-02
  3.3556113e-03
  7.6444526e-03
 -9.3146907e-03
 -2.0483912e-03
  5.6992233e-01
 -1.8065494e-02
  5.1394603e-03
 -4.3556087e-02
  8.4078126e-03
 -7.1728107e-04
 -4.6477234e-03
 -1.5947174e-02
 -4.8191701e-03
 -2.4101064e-03
 -1.0761991e-01
  2.8638160e-01
 -3.5271035e-03
 -1.1167485e-02
  3.1047050e-04
  1.3233918e-02
 -1.4182792e-02
 -1.3568718e-02
  4.9468074e-03
  3.0465128e-03
 -3.4631202e-03
 -1.9162059e-02
  1.2916202e-03
 -1.9084747e-03
  7.0683111e-04
 -8.7368377e-03
  1.0815552e-02
  8.8617697e-02
  1.9524400e-01
  3.1781937e-03
 -2.0766920e-01
 -2.0673575e-02
  2.0691843e-03
 -2.3892574e-04
 -1.4288872e-02
 -6.0766598e-04
  8.0816442e-04
 -1.4941721e-02
  5.7438314e-03
  2.1374822e-03
  1.7610089e-03
 -4.5296684e-04
 -8.9277886e-04
 -2.5008005e-05
  3.8180181e-01
  9.5064403e-04
 -1.0943450e-02
  2.4565460e-02
 -1.7370474e-01
 -1.5801425e-03
 -8.6446162e-03
 -2.1364375e-03
 -2.9420081e-04
 -4.2738834e-01
  1.6622560e-03
 -6.2390221e-03
  1.3257024e-01
 -2.1673898e-01
  3.4025673e-02
  1.8108952e-01
 -1.5624854e-01
  4.1072904e-03
 -8.6181857e-02
  2.8894085e-03
  7.6400517e-03
 -8.0939420e-02
  2.3795285e-03
  4.4751824e-03
 -7.3723732e-03
  2.9290102e-02
 -8.9604646e-02
  8.1670024e-02
  6.7212922e-03
 -5.8145933e-03
  7.0052003e-03
 -1.0077351e-02
 -1.6011385e-02
 -9.5686298e-03
  1.6718896e-03
 -1.7450264e-03
 -2.6245531e-02
 -2.3904250e-03
 -9.5798656e-05
  1.2454337e-03
  1.3388313e-03
  1.9788606e-02
 -1.1946529e-03
 -1.3041066e-02
 -9.6345390e-04
 -4.3996344e-03
  1.4210285e-01
 -2.7319263e-03
  5.5615767e-04
  3.0497636e-03
  1.1607728e-02
  3.9051187e-03
  3.9009869e-04
 -1.3380155e-02
 -6.5090507e-03
  1.5196618e-02
  1.7591622e-02
 -5.5827554e-03
 -5.0119078e-03
  9.4188360e-04
  9.1969939e-03
  6.9663678e-03
 -9.8831002e-03
 -2.1886802e-03
 -9.3874633e-03
 -7.8705518e-04
  6.6801859e-03
  1.5446845e-02
  3.7123682e-03
 -1.1590065e-02
  5.8736913e-03
 -7.1196450e-04
 -1.6428524e-04
  9.7837456e-02
 -9.0604164e-03
 -8.7645680e-02
  2.0650581e-01
 -3.8069923e-04
 -1.4129064e-02
 -3.6794943e-04
  2.3651998e-01
 -1.7009495e-04
 -7.2899773e-03
  5.6939543e-04
  2.9301015e-03
  4.8697325e-03
 -7.4167536e-03
  6.5653655e-04
  7.4145007e-03
  1.2124491e-01
  7.4922550e-03
  8.1772907e-03
 -6.7427647e-03
 -3.7011816e-04
 -7.1742148e-03
  2.1732266e-03
 -2.5327243e-03
 -6.8462021e-03
 -1.5728630e-03
  3.6493107e-03
  6.7868922e-03
  1.0288096e-02
  1.8287950e+00
  6.4034992e-01
  9.9964869e-01
  5.9531939e-01
  2.1919556e-01
  6.5068452e-04
 -9.9261992e-02
  9.8815858e-03
  7.5977303e-02
 -3.9542993e-03
 -5.5348092e-01
 -8.7497681e-03
 -2.0225705e-03
  1.7504616e-01
 -3.7780683e-02
 -5.7796937e-01
 -2.3485525e-02
 -2.6804833e-03
  3.7424841e-03
 -5.3693026e-02
 -1.7204080e-03
 -5.4334749e-02
  7.1705686e-04
 -8.3170421e-02
 -7.0611248e-03
 -4.5613414e-03
  1.5170352e-02
 -4.4884952e-03
  9.7742947e-03
 -6.4588711e-03
 -2.9839093e-03
  1.2670254e+00
  5.1733442e-03
  2.7804424e-03
 -6.4579980e-03
  1.0554963e-01
  1.4086766e-03
  4.0725642e-01
  5.7910806e-03
 -1.9992089e-03
 -3.5876705e-04
  1.8500596e-04
 -7.5898653e-01
 -7.4971602e-03
 -6.2852805e-03
  3.8236282e-03
 -1.3435037e-02
 -3.1714810e-03
 -8.7143038e-04
 -6.4776111e-03
 -2.6239364e-03
 -3.7586845e-02
  1.2668110e-02
  9.2414347e-03
  7.5767366e-03
 -1.6851190e-02
 -2.3634327e-03
  1.5501107e-02
 -4.2247339e-03
 -3.3515730e-04
 -5.9740466e-01
 -1.4240501e+00
  2.1099895e-01
  1.2339085e+00
  3.5118788e-01
  3.4819376e-01
 -5.9715174e-02
  4.9903944e-02
  2.1264518e-03
 -1.9187714e-01
  3.9218399e-03
  3.0593411e-03
  1.8785149e-03
  3.0573545e-02
 -2.0911257e-01
  1.7313264e-01
 -2.7351284e-01
  1.0449493e-02
  2.6401740e-01
 -3.2999444e-01
 -5.0449586e-01
 -5.6593910e-02
 -1.3006834e-02
 -1.2036420e-01
 -3.7611032e-01
  6.7503280e-03
  1.2433331e-02
  2.7006594e-04
 -9.6731465e-03
 -3.5096279e-03
  2.6003418e-03
 -6.4731733e-04
  2.6868016e-03
  9.7078886e-03
 -3.0279979e-03
  7.8441184e-03
  8.3129836e-04
 -9.1745984e-03
 -7.2258376e-03
 -5.6686713e-03
  4.1129580e-03
 -5.6856207e-04
 -5.6444627e-04
  1.8287997e-03
  1.8626914e-03
 -1.1283864e-02
 -2.0995026e-03
  3.3086941e-05
 -7.4849329e-03
 -4.9136756e-03
 -1.3434698e-03
 -4.0549571e-03
 -3.2403145e-03
  9.3127042e-03
 -2.3114420e-01
  9.1886468e-02
  1.8676685e-04
  3.4964468e-02
 -9.8728726e-04
 -1.7486762e-02
 -2.0651268e-02
  1.5366021e-01
 -1.2085193e+00
 -6.8930616e-03
  7.5116801e-01
 -4.3053657e-04
  8.2972151e-04
 -2.2585874e-03
  6.0088089e-04
 -2.4138370e-03
  1.3943771e-03
  4.7369320e-03
  1.2510039e-03
 -2.1084154e-03
 -2.4950029e-03
 -1.0661404e-02
  2.6179526e-03
  9.9169239e-03
 -6.9751125e-03
  3.4518531e-03
 -2.0514231e-02
 -4.4839940e-04
 -4.2743310e-03
  4.2881127e-03
  5.0022816e-03
 -4.0517692e-03
 -1.1086067e-02
 -5.2061834e-05
  3.2737448e-03
  3.7867518e-03
  1.2556168e-02
  4.6480226e-04
  8.7970160e-03
  1.5298671e-02
  6.9655624e-04
  1.5350814e-03
 -4.2877304e-03
  6.3103787e-03
  7.8089247e-03
 -5.3095659e-03
  2.8845781e-01
 -1.2495717e-01
 -2.1377632e-03
 -8.9183096e-03
  2.2737274e-03
  6.3631167e-03
 -8.0122671e-04
  9.0409545e-03
 -7.0413775e-03
 -3.0000350e-01
 -1.4181206e-02
  2.4034227e-03
 -2.7516347e-01
  3.1686325e-03
 -1.3960684e-04
  1.5084891e-03
 -9.6015958e-04
  2.7541576e-03
 -3.3804460e-03
  6.3397246e-03
 -2.6611595e-03
  9.0526935e-04
 -5.6975162e-01
 -1.0358371e-02
 -1.3186183e-02
 -4.1145552e-03
 -4.0042428e-03
 -2.9426755e-03
 -1.3975258e-02
 -4.9031898e-03
 -1.9446023e-02
  1.1699530e-02
 -1.8478715e-03
  1.3227364e-03
  3.9397401e-05
 -1.0350175e-02
  1.9626692e-02
  1.0703860e-02
 -7.6784440e-03
  6.1210580e-03
 -1.1529337e-03
  5.6246459e-03
 -6.9220648e-03
  4.9518053e-03
  5.1314887e-02
  3.1740543e-01
  1.7673601e-03
  2.0517029e-03
 -1.4392293e-05
 -2.2071495e-03
 -3.9209216e-03
 -3.4270543e-03
  5.2372267e-04
 -6.7621763e-03
 -1.4095099e+00
  7.5943507e-03
  1.9958902e-02
  3.8937274e-03
 -8.9349924e-03
 -1.6506862e-02
 -4.2964763e-04
 -3.3598053e-03
 -3.9899638e-03
  2.0624925e-03
  6.1520808e-03
  1.8144287e-03
 -1.3492014e-02
 -4.2700521e-03
  3.0023180e-04
 -2.3229225e-03
 -1.4887895e-02
  3.1739573e-03
 -6.3280216e-03
  2.6549420e-03
 -3.7063207e-03
 -2.8732293e-03
 -2.8475111e-02
  5.4897200e-03
  1.2795659e-02
 -6.7827203e-03
 -6.0962681e-03
 -1.0254827e-02
  1.3955778e-03
  2.7842047e-03
  1.2231969e-03
 -1.4289577e-02
 -1.5828881e-03
 -4.4761235e-03
  8.3988411e-03
 -1.0114296e-02
  1.4652634e-02
 -3.0359095e-03
  1.9970429e-04
  2.5292486e-03
  4.2631002e-03
  2.0635651e-02
 -6.3097018e-01
  1.0314705e-02
  1.0689870e-02
  1.6186209e-01
 -2.1086319e-01
  4.2402763e-03
 -3.3806290e-03
 -2.7985641e-01
 -1.0057754e-02
 -1.9831103e-03
  3.6416643e-03
  4.2095189e-03
  6.6808695e-03
  1.4779974e-04
 -3.4471025e-04
  1.9745389e-02
  8.3676567e-03
 -2.5177557e-02
  2.0491288e-03
 -1.0225150e-03
  5.1899957e-03
  4.1036555e-03
 -9.5803207e-03
 -3.7328883e-03
  2.2832403e-02
  4.5743729e-03
 -9.3445333e-04
 -1.1728548e-03
 -2.9723055e-03
  5.1922910e-04
  2.1115832e-03
  5.9979392e-04
 -1.8921243e-03
  4.9296813e-03
  6.1356148e-04
  4.8605357e-03
 -7.6676812e-03
 -8.4641671e-01
  5.8461633e-03
 -1.1845514e+00
 -6.5488508e-04
  1.8534284e-03
 -2.7747911e-03
 -7.4203527e-03
  3.4362799e-03
 -7.0866868e-03
 -7.9746516e-03
  1.2210335e-02
 -1.6694774e-03
  2.0605216e-02
 -4.8203371e-03
 -9.1383961e-04
 -1.8753598e-02
  3.6711048e-03
  8.4922276e-03
 -3.4854639e-02
 -3.2374163e-03
  4.2311815e-03
 -1.3912719e-03
  5.4463465e-03
  1.5980148e-04
  3.0438418e-03
 -6.0276142e-03
  1.0035525e-02
 -3.2605883e-03
 -6.4308839e-03
 -1.0784856e-02
  3.8536838e-03
  9.2438486e-04
 -6.1469469e-03
  1.7142327e-03
  2.1873584e-03
  2.8083250e-03
 -9.3406457e-03
 -1.7699787e-01
  7.5429845e-01
  9.2948705e-01
 -6.6885084e-01
  2.7103695e-01
 -6.8517792e-01
  2.4990225e-04
 -1.6449492e-01
  5.8684421e-01
  2.4089932e-01
 -6.3680804e-01
 -2.0943056e-01
  2.4873720e-02
  1.6016046e+00
  4.9546731e-01
 -8.3825475e-01
  8.0939950e-05
  2.1203358e-03
  1.8620455e+00
  3.4822232e-01
  8.3869368e-01
  1.6012870e-02
  2.1164565e+00
  2.4851397e-01
  1.2555936e-01
 -1.8910567e-01
 -5.0045401e-03
 -8.7905002e-01
  3.7982492e-03
  1.4859542e-02
 -4.0733232e-03
 -1.5123324e-02
 -5.3988653e-03
  8.8170491e-02
 -6.5432186e-03
 -1.3832386e-02
  5.6733452e-03
  8.1268586e-03
 -7.2302215e-04
 -3.8673314e-03
 -2.5451963e-03
 -2.3531578e+00
  6.4793597e-03
  1.1941987e-02
 -1.0484544e-02
  3.2529060e-02
 -1.3678100e-04
 -2.4629046e-01
 -7.1645919e-03
 -7.1408655e-03
 -1.0550489e-03
  1.6526377e-03
 -4.7616838e-03
 -7.6313796e-03
 -1.1087192e+00
  4.2546217e-04
  5.7783574e-01
  1.2877391e-02
  6.3855055e-04
  6.5355110e-03
 -8.6268544e-01
  6.8743306e-01
 -1.1634548e+00
 -1.3136800e-01
 -2.1440828e-01
  4.6372795e-03
  4.8300455e-04
 -2.3781780e-02
 -1.7111275e-02
  2.8463358e-01
 -3.2229740e-02
 -6.0663163e-03
  5.8780000e-02
  2.3347795e-02
  3.5318125e-03
 -3.1491960e-03
  4.8319888e-03
  6.7562767e-04
 -9.3129404e-02
  1.6110670e-02
  2.0933168e-03
 -6.6581252e-03
  4.9838009e-03
  7.0303432e-03
 -1.2344571e-03
 -9.6760571e-02
 -1.5755456e-02
 -2.0736149e-03
 -5.0539756e-04
  6.5814299e-03
 -4.7958907e-01
  5.7590914e-01
  4.9294233e-02
 -5.1728118e-02
  3.4698465e-01
 -4.2211767e-03
  3.2019459e-02
  7.0029317e-04
  2.6129862e-02
  5.4950599e-02
 -4.6949852e-02
  1.0910961e-02
  1.3752542e-02
  9.9423563e-04
  2.1287542e-02
 -7.7124166e-01
  2.5381136e-04
 -1.1734070e-03
 -5.8283448e-02
  4.9552292e-02
 -1.9011801e-04
 -2.4511295e-03
  9.5196365e-04
  1.1659461e-01
  1.5138130e-03
 -9.0035014e-03
 -1.8591627e-03
 -6.5565268e-03
 -1.6312479e-03
  4.0885468e-04
 -2.6545423e-01
  7.5162917e-01
  1.0266060e-01
 -2.0708244e-01
  1.1357952e+00
 -2.2137213e+00
  4.7100174e-01
 -1.2045372e-01
  7.5701792e-03
  3.7824929e-01
 -6.9170550e-02
  5.1590698e-03
  1.2418872e-02
 -9.3193393e-04
  5.6240571e-01
 -2.7772969e-02
  2.3167749e-01
  5.4547335e-03
  1.1450923e-02
  3.9248049e-01
  3.9787032e-02
  4.0438819e-01
  1.8060410e-02
  5.6206536e-02
  6.1307963e-02
 -3.7663911e-02
 -1.2251348e-04
  6.1398777e-03
  1.3141745e-01
  8.9262920e-03
  3.0505613e-03
 -1.9416795e-03
  1.2492846e-03
  2.4898497e-03
  3.3933281e-03
  1.1502352e-02
 -6.5228885e-01
 -4.8651109e-03
  7.2629319e-04
 -4.6136011e-03
 -4.1487903e-04
  4.1781518e-01
 -8.6398814e-03
  5.8823666e-03
 -5.4569417e-03
 -2.3146723e-03
  4.7250888e-03
 -7.4320505e-03
  1.3813163e-03
  2.7606899e-03
  1.1685165e-02
 -3.0706630e-03
 -3.8867702e-03
  3.8869324e-04
  1.3768451e-03
  9.2224535e-03
  1.4140157e-04
  2.0710609e-03
 -3.6325636e-03
  1.4586376e-03
 -1.6188780e+00
  2.6627967e-01
 -1.4716393e+00
  5.8393192e-01
 -2.9362425e-01
 -1.5820634e-01
  5.4786932e-01
 -3.0278358e-01
 -2.3807099e-01
  1.3193582e+00
  1.3866324e+00
  2.6335666e-01
 -7.6788221e-03
 -1.9249761e+00
  5.1320314e-01
  1.6719860e+00
  8.7228185e-01
  5.1872794e-02
 -7.9817742e-01
  6.0348177e-01
  4.2037833e-03
  5.3552026e-01
  1.0875950e-02
  1.2792373e-01
  1.3249084e-01
 -9.0097725e-02
 -1.6409004e-02
 -1.7163981e-02
  3.2062539e-01
 -4.5153336e-03
  8.1367947e-02
 -1.3239418e-01
  6.6886239e-02
 -8.1751001e-01
 -4.7852859e-02
  9.6644787e-03
 -2.7809700e-02
  3.6148180e-03
 -3.5895701e-03
 -1.1411889e-02
 -5.5688070e-03
  7.9824980e-03
 -2.1300372e-03
  7.8874768e-04
 -8.0847396e-03
 -1.4271556e-03
 -2.3642177e-02
  1.4344163e-03
  3.0443845e-02
 -1.0956991e-02
 -3.6833743e-03
 -1.0344016e-02
 -3.0499303e-03
 -7.9936177e-02
  1.7800272e-04
  6.0479646e-03
  8.6852387e-03
 -1.8061223e-02
 -9.1003459e-03
 -1.2073104e-02
 -1.6858783e-02
  2.7084982e-03
  8.8747375e-04
  5.4149204e-03
 -3.5161224e-01
  1.2368982e+00
 -5.2668294e-03
 -8.4053688e-03
  4.3646987e-03
  2.9955411e-03
  8.2008466e-03
 -2.7201045e+00
  1.5409210e-01
  6.5316975e-01
  2.8508767e-03
  3.7012473e-03
 -9.6837938e-04
  1.2219546e-02
  4.3507656e-03
  3.2458823e-02
  1.1319553e-02
 -1.5670416e+00
  2.6735988e-01
  1.1749393e-03
 -5.0578761e-01
 -1.0969276e-01
 -1.1829236e+00
  2.7266706e-03
  1.4166361e+00
 -2.5048137e-03
 -2.5602487e-01
 -1.9237890e-03
 -2.3666026e-01
  1.5234630e-01
 -9.8717552e-01
 -1.1889927e+00
  9.0532616e-02
 -3.8165566e-02
 -6.0711509e-01
  5.0690137e-02
 -2.8086558e-03
 -8.1158739e-01
  2.3683503e-03
 -8.2211483e-01
  9.5630191e-02
  2.1352312e-01
 -1.2752379e-01
  9.7660966e-02
 -3.1208219e-03
 -4.1036978e-02
 -4.7672328e-02
 -3.3108908e-01
  2.9641967e+00
 -2.0915094e-01
  1.0707673e+00
  7.6742989e-01
  1.1373670e+00
  9.1876034e-03
  1.2634196e+00
 -4.5253372e-01
  8.4589362e-01
 -9.6419376e-01
 -2.1503069e+00
 -3.1292346e-01
  5.7762080e-01
 -6.1392939e-01
  1.0147985e+00
  1.7882513e-01
 -7.3593676e-01
  9.6413410e-01
  1.1406941e+00
 -1.4354236e-01
  2.0192823e-01
  1.9207622e+00
  2.6816046e-01
  5.5158991e-01
  1.2960781e-01
  2.7423519e-01
  1.0916331e+00
  9.4438635e-02
  1.7739420e+00
 -2.9573063e-03
 -1.3336843e-01
  1.4069791e-01
  1.7712076e-01
  2.0980597e-02
 -5.8693811e-02
  1.7747749e-01
 -2.1227493e-03
 -5.7469341e-03
 -1.0902268e-03
 -4.0716532e-01
 -4.4337907e-01
 -1.4238382e-02
  1.8696162e+00
 -1.1698175e-01
  2.4485260e-02
 -2.7979535e-01
  6.9394191e-03
  5.0095147e-03
  1.0251319e-01
 -6.4349130e-02
  2.3987776e-01
  4.8308368e-03
  1.4365275e-02
 -4.9419454e-01
 -3.9482764e-03
  2.9383164e-03
 -3.3669281e-01
  8.5929129e-03
 -4.3763805e-02
 -2.2164179e-01
 -1.0112181e-01
  1.8442665e-01
  2.0966817e-01
  1.9793736e-03
 -1.7303598e-04
 -2.0277470e-03
  6.9100427e-04
 -1.4132218e-02
 -1.2884150e+00
  5.1072307e-02
  8.7171778e-02
  4.6577375e-02
  8.5978862e-03
 -6.8034773e-04
 -2.8994451e-03
 -2.1738257e-02
 -4.4605289e-02
 -5.0630048e-03
 -2.3796970e-02
  2.0812200e-03
 -3.1745201e-03
 -1.0643020e-02
 -1.0031657e-02
 -5.0886776e-02
 -1.3534920e-02
 -9.3530919e-03
  8.7798245e-02
  1.2826031e-01
 -7.1969524e-02
  5.0740600e-01
 -2.1204737e-04
 -4.3336764e-01
 -1.8322310e-01
  7.0921383e-03
  6.4892741e-03
  3.6500194e-03
  1.0651547e-01
  7.2835302e-03
 -4.1625933e-03
  7.8467736e-03
  1.0178996e-02
  2.2539517e-03
  1.4882221e-02
 -3.1301482e-03
 -1.3064620e-02
  8.7298645e-04
  6.8844524e-03
  3.9705846e-01
 -6.9742361e-03
  2.4070868e-03
  9.6865315e-03
 -1.4090694e-02
 -4.2512771e-03
  1.7831681e-02
 -7.0493709e-04
 -3.7104506e-03
 -1.0297630e-02
  8.9468677e-03
  9.6299313e-03
 -1.3558008e-02
  4.1363202e-03
 -2.1981845e-02
 -3.5142440e-02
 -5.1087193e-04
 -2.4431104e-02
  7.1547600e-03
 -1.3920953e-02
 -2.6056462e-03
 -2.2064748e-01
 -2.2598922e-03
  7.0032465e-01
  3.9158951e-02
  4.0030649e-01
 -1.9305593e-03
 -8.9086518e-03
 -1.7085421e-03
 -4.2007081e-03
 -2.6641818e-02
 -1.6168608e-01
 -5.6150719e-05
 -8.5577434e-03
 -2.9332703e-03
  3.7873115e-02
  1.0110960e-02
 -1.0591241e+00
  1.3226257e-02
  6.1153034e-03
 -1.2461568e-02
 -3.8907491e-02
 -3.0740662e-03
 -2.1500543e-02
 -8.4252842e-02
 -1.6343312e-02
  3.6312286e-02
  6.4079245e-03
 -5.8818767e-03
 -1.7205851e-02
  3.2453411e-03
  1.0362296e-02
 -3.8945657e-01
  5.1057176e-03
  6.6917725e-03
 -9.1154724e-03
 -1.2824073e-02
  6.7052883e-01
  1.9833969e-02
 -1.3433304e-03
  4.5800347e-02
  3.0674243e-03
  1.8173901e-02
  1.9638054e-02
  2.2888564e-02
  2.5248388e-02
  4.5110937e-03
 -5.3631747e-03
  1.6145444e-03
  9.6541792e-03
  3.0210435e-02
 -2.0621508e-02
  7.0990091e-03
  1.8757355e-03
 -2.7385852e-04
  1.1943344e-02
  1.5064886e-04
  1.4793496e-03
  1.1131337e-02
 -6.9954770e-04
 -9.9311722e-03
 -5.0254869e-01
  1.6806636e+00
  1.9296541e+00
  1.0689234e+00
 -5.2468127e-01
  3.4542468e-01
 -2.7057087e-01
 -6.0807634e-02
  4.9334620e-03
 -3.8034827e-02
  8.2456344e-01
 -9.2725540e-03
 -1.6657900e+00
  4.9716732e-01
 -5.3608930e-01
  1.2108568e+00
  1.9839741e-03
  5.2001588e-03
  5.5816048e-01
 -2.3176530e-02
  5.8864957e-01
  1.8478905e-01
  8.9083433e-02
  2.3990667e+00
 -6.0453534e-01
 -2.1949749e-02
  8.7013487e-03
 -6.9737628e-02
 -2.1648780e-02
 -2.6971085e-03
 -5.3663564e-01
  1.1239471e-01
 -2.0688498e-01
  1.2949061e-03
 -1.0881933e+00
 -1.9374864e-02
 -2.4601395e-05
 -6.6015199e-02
  1.0268100e-02
 -6.2800893e-03
 -1.6343545e-03
  5.7831023e-02
 -1.5437084e-02
 -8.6964516e-04
  2.4100074e-03
  3.1859763e-03
  1.7786032e-02
 -5.8260124e-02
 -2.9058656e-01
 -1.6164593e-02
 -1.5093370e-01
  1.7618294e-03
 -1.0583424e-01
 -1.7275820e+00
 -1.5032358e-01
 -3.0645831e-02
  3.0131079e-04
 -7.5233947e-03
 -1.2089306e-03
 -3.8222857e-03
 -1.0440451e+00
  1.0822015e+00
  4.3740094e-01
  1.8042268e-01
 -4.1229439e-01
  4.7832927e-01
 -2.7107218e-01
 -2.1371718e-01
 -3.0602801e-01
  4.8360962e-02
  2.9637525e-03
  1.6012248e-02
  3.2226405e-01
 -1.1528483e-01
 -5.2639824e-01
  9.6365303e-01
 -2.4760865e-02
 -3.0137143e-01
  3.6958620e-01
 -5.1966485e-02
  4.5080610e-02
  1.4980276e-01
  2.1370968e-02
  7.0127331e-02
 -7.2895348e-02
 -1.2501293e-02
 -3.0984951e-03
 -2.2709893e-02
  2.8470454e-03
 -2.9188418e-03
 -5.8433008e-03
  7.8302203e-03
  2.7047357e-02
 -8.6667929e-03
 -3.4371717e-03
 -6.4023072e-03
 -9.3180528e-03
 -2.1625502e-04
 -6.0901314e-04
  8.9621479e-03
  6.8677976e-03
  1.4441840e-02
 -1.4566394e-03
 -1.7760172e-02
 -6.3672103e-03
  1.9738764e-02
  5.9113381e-03
  3.9958905e-02
  3.2372449e-02
  3.1959836e-04
  4.2960825e-03
  4.0358230e-03
  6.2651662e-03
  2.0265494e-02
 -8.8336304e-02
  7.1184863e-03
 -1.1027498e-02
  1.8455302e-02
 -4.2858380e-03
 -1.5481425e-02
 -4.3168673e-03
 -4.4922295e-04
 -8.8160010e-03
  5.5816704e-03
  5.6564999e-03
 -8.5808653e-03
  2.6428115e-03
  5.7396344e-03
  5.7230666e-03
  4.5131272e-01
 -4.2249574e-03
  6.6203793e-04
 -1.0583351e-03
  1.3206134e-02
  4.7354959e-03
 -2.9727709e-03
 -2.0770011e-03
  7.4002845e-03
 -9.7516421e-03
  8.7155281e-03
  9.0639731e-03
  6.5445835e-03
 -6.5173353e-03
  8.3042011e-03
 -1.1137958e-03
  2.5736068e-03
  1.2785659e-02
 -1.4007284e-02
  9.0748128e-03
  4.1038874e-03
 -1.6511174e-02
 -4.4931346e-03
  6.5619696e-04
 -1.4668516e-03
 -8.6612208e-03
  6.9499109e-04
  4.9911869e-01
 -1.0872627e-02
 -6.2075461e-04
 -6.4891400e-03
 -5.6979111e-03
  4.5764060e-03
  2.2908824e-03
 -7.2126524e-03
 -5.2596885e-03
  6.1667142e-03
  4.0829150e-04
  5.7265321e-03
 -3.9735041e-03
 -9.9283049e-04
 -9.3688653e-04
  1.6822662e-02
 -7.9578435e-04
  1.0105510e-03
  1.8989692e-02
 -1.1661049e-02
 -9.9108247e-03
  8.7647643e-03
  4.5699496e-03
 -1.6992764e-03
 -2.1636073e-01
 -6.6408170e-03
  1.0714851e-03
 -4.0619955e-03
 -6.2537594e-03
  4.8988527e-03
  7.7478215e-03
  8.1975022e-03
 -1.0692786e-02
 -1.3689155e-02
  3.2429609e-03
 -9.8124575e-03
  5.4885022e-04
  3.6887643e-03
  4.1534144e-02
 -4.2347135e-03
 -4.2471713e-03
 -2.8415134e-02
  4.1516399e-04
 -4.0388126e-03
 -9.1450913e-03
  1.4871028e-01
 -7.1377531e-03
 -8.2302950e-03
 -2.2326440e-03
  1.4730101e-02
  1.8731836e-03
  1.1299748e-03
 -9.8782638e-03
 -4.1859332e-04
 -6.7425305e-03
 -8.9368057e-03
  1.8407039e-02
  4.4390014e-03
  7.7099557e-04
 -1.0102300e-02
 -3.9836774e-03
  3.0085484e-03
  7.7222413e-03
 -6.1708274e-03
 -1.0675829e-02
 -8.7025808e-03
  2.1104834e-03
 -2.8706188e-03
  2.9317592e-04
  3.1462230e-03
 -1.8348217e-03
  1.7659633e-03
 -1.0538388e-02
  2.1371678e-02
  6.3770553e-03
 -1.8381780e-03
  2.0249431e-01
  7.2008087e-03
  2.2524162e-03
  1.2982056e-03
  1.3504178e-02
 -2.2811543e-02
  2.6740918e-03
  1.2604244e-03
  3.9514814e-02
  1.1373384e-01
 -1.7714974e-01
 -2.5259191e-01
 -1.4778255e-01
  3.8549341e-02
  1.1409894e-01
  1.7497642e-01
  2.7020031e-01
  2.2598137e-01
  1.8917335e-02
 -1.1406657e-01
  5.0994363e-02
  1.3793376e-01
  7.4428566e-02
 -1.6126782e-02
 -2.2190469e-03
  4.2530286e-01
 -8.7532046e-04
  3.7392262e-02
  5.9434758e-03
 -6.6207685e-02
  1.6344482e-01
  2.4235299e-04
  2.7345410e-01
  1.3149710e-02
 -8.0097020e-03
  4.6538151e-04
 -3.6566441e-03
 -2.8894360e-03
 -3.2433698e-01
  1.2871036e-01
  1.5063181e+00
  8.2173586e-01
 -5.5883753e-01
  1.3862911e+00
  2.1869712e-02
 -3.2437608e-02
 -7.2182231e-02
 -6.6344792e-01
 -1.0227095e-01
  4.6711426e-02
  4.3734199e-01
 -1.7681548e-02
 -5.8563697e-01
  1.1046692e+00
  1.7871987e-02
  3.8203028e-01
 -2.2147849e-01
 -1.3169323e+00
  1.5711713e+00
 -1.7881941e+00
 -6.9226898e-02
 -8.7670791e-01
  2.8773811e-02
 -6.8158805e-02
  3.9920032e-02
 -7.0137039e-02
 -1.8103430e-02
  2.2386925e-03
  3.0296538e-03
 -1.5876677e-03
  2.3718807e-03
 -6.0222526e-03
 -6.4385403e-03
  8.3962129e-03
  8.1808874e-03
 -4.8595965e-03
  1.9452557e-02
 -5.7976265e-03
 -1.0827781e-02
  1.5486552e-03
  4.8395428e-03
 -2.5086151e-03
 -4.0932404e-04
  2.0970260e-03
  1.5718781e-04
  4.0884190e-03
 -3.9403403e-01
 -1.9062724e-03
  1.4728963e-02
  2.3298826e-02
  1.0930634e-03
  1.6600883e-02
  1.6741947e-03
  8.7629352e-03
 -9.3216160e-03
  1.0415574e-02
 -8.6736453e-01
 -4.8374063e-03
  1.9381326e-02
 -1.4110178e+00
  1.6865318e-01
  2.4739649e+00
  9.1683023e-02
 -2.1302568e-02
 -1.1722969e-02
 -1.1235211e-01
 -4.4069669e-01
 -4.5468950e-01
 -2.9528195e-01
  8.0590092e-02
  4.9355030e-01
 -3.4237853e-01
 -3.5158743e-04
  4.4401804e-01
 -7.4510634e-02
 -2.1776240e-02
 -1.0223938e+00
 -6.2831119e-03
 -2.2400060e-01
  3.7517278e-03
 -1.6440822e-01
 -5.9256864e-01
 -2.7509695e-01
  2.1330621e-02
 -2.6836316e-03
  5.3318101e-03
 -2.1494797e-03
  2.3780505e-03
  9.1529000e-01
  7.8365993e-01
 -4.5010290e-01
  4.7260520e-01
  2.5735030e-01
  4.6091652e-03
 -4.7342648e-04
  8.7647967e-02
 -1.4360616e-02
  1.5827899e-01
  3.8848142e-03
 -3.7715798e-03
  1.3059919e-01
  2.8315166e-03
 -1.3902333e-03
 -8.2940273e-03
 -2.8564187e-02
  1.7493645e-02
 -1.2705274e-02
  4.5677372e-03
 -2.1541862e-01
 -8.0628581e-03
  1.1930282e-02
  4.5435503e-01
  5.0560945e-01
 -1.3586016e-02
 -3.5774797e-02
  4.9144488e-02
 -4.0874388e-03
  4.3663247e-03
 -2.1181195e-03
  6.0677528e-03
  4.6834847e-04
  9.0911817e-03
  1.8790812e-03
  9.1497395e-03
  5.7807900e-03
 -1.7850281e-03
  1.9152503e-01
  1.0769268e-02
 -1.6977115e-03
 -5.0227097e-03
 -1.8003128e-03
 -3.5048597e-03
  1.1073167e-03
 -5.8293822e-03
  3.1615607e-03
 -1.0317704e-03
 -2.3459332e-01
  8.7081417e-03
 -5.4020369e-03
 -2.7211946e-03
 -1.0079612e-02
 -1.9094603e-02
  3.0071137e-02
 -1.1657737e-02
  8.2322005e-03
 -6.8670954e-03
  1.2022179e-03
 -1.3688513e-02
  9.8144021e-03
  2.7629998e-02
 -2.2860821e-03
  7.4768565e-03
 -2.3123104e-02
  3.0752236e-03
 -3.1502391e-04
  1.7556873e-03
  2.1808010e-02
  2.4779106e-02
  6.8692472e-03
 -5.0068307e-03
 -1.9454903e-03
  9.3514961e-01
  7.0600822e-03
  1.9473410e-03
 -7.9647517e-03
  3.8555898e-02
  7.3837647e-03
  3.1993059e-03
 -3.6001883e-03
  6.7891809e-03
  6.6916412e-03
  4.3231118e-03
  3.7910242e-03
  1.1231243e-02
 -1.1389921e-02
  3.5189011e-04
 -2.3068616e-03
  1.0280674e-02
 -9.5631696e-02
  2.0941931e-01
 -2.2803263e-01
 -1.6454051e-01
  4.1465287e-04
  1.6665477e-03
  1.5192328e-03
  1.6583772e-02
  6.4587973e-02
  2.0465029e-03
 -3.7351644e-03
 -1.9869151e-02
  2.4890138e-02
  3.9428856e-02
  9.7251022e-03
 -6.4337994e-03
  1.8014890e+00
  1.6640908e-01
  6.8545989e-03
 -2.3521234e-03
  8.9519136e-02
  5.7473574e-03
  2.4071448e-02
  1.1169294e-02
  3.1687111e-01
  3.1850375e-03
 -2.0871673e-02
  3.8430665e-02
 -6.2271114e-03
  7.8941900e-03
  5.7864226e-02
  7.0225142e-02
 -5.9631675e-02
 -2.4780387e-02
 -2.3282733e-02
  1.9741170e-03
  6.8600285e-03
  9.5450990e-03
  1.6742373e-04
  1.9749007e-03
  9.8595081e-04
 -2.4925152e-02
  4.4891750e-03
 -2.6876652e-03
  9.1010714e-03
 -1.2514835e-02
  1.2802594e-02
  1.0876603e-01
 -2.7684742e-03
  1.3478550e-02
  9.4971173e-03
 -5.8920458e-03
  2.7033454e-03
 -4.7193868e-03
  1.8124402e-01
 -6.9219247e-04
 -1.3448980e-02
  1.7746870e-03
  4.7682398e-03
 -1.0466683e-03
  7.3925132e-01
  8.6686827e-02
 -3.6128655e-01
 -6.5405294e-02
  3.0072442e-01
  3.3688836e-03
  2.1751501e-02
  4.3872735e-03
  1.0699668e-03
 -1.1328934e-03
  1.8577067e-02
 -6.1564671e-04
 -2.3928240e-03
  2.2387464e-02
 -3.7452572e-03
 -2.8931976e-03
 -6.9576572e-03
  6.9661229e-03
 -1.2937895e-04
 -2.0630250e-02
  3.4708787e-02
 -3.0162036e-03
  2.4257973e-03
  4.1639563e-01
  1.1022483e-01
 -1.1555993e-03
 -2.3074755e-02
  2.8276720e-04
  3.2885321e-03
 -1.2518547e-02
  1.5544001e-03
 -6.3376529e-03
 -1.9799178e-03
  8.0866646e-03
 -2.1897703e-02
  3.1875137e-03
 -1.1370120e-02
  4.8614522e-03
 -1.8879496e-02
 -5.4675299e-03
  1.5832217e-03
 -2.2763092e-04
 -2.5586974e-02
  1.5956291e-03
 -8.9449203e-03
 -2.1122864e-02
 -1.0032714e-02
 -2.8885234e-04
  2.9786807e-04
  3.5543367e-04
 -5.9538358e-03
  1.3162535e-01
 -1.8747708e-02
  2.9484287e-02
 -3.3807394e-03
 -1.7244259e-02
  1.8112287e-02
  4.3875310e-03
 -2.6989836e-01
 -4.7096480e-03
 -1.4016533e-02
 -4.1695130e-01
 -3.4182877e-03
  7.1391817e-03
 -1.9603942e-03
 -6.7489996e-04
  5.6165759e-03
  4.0584211e-03
 -5.0160401e-03
  3.7607267e-03
  4.0471219e-03
 -4.1157803e-03
 -2.7446453e-02
 -6.5700882e-03
  9.6637206e-03
 -6.4798407e-03
  4.9437080e-03
 -7.3188976e-03
  2.8795935e-04
  3.0092166e-03
 -2.6575194e-04
  3.2321676e-03
  2.7926101e-03
 -3.3938908e-03
 -4.1086855e-03
 -1.2483558e-03
  5.7375152e-03
 -3.9322494e-04
  5.1088852e-01
  9.8442007e-03
  5.4478627e-01
  8.6735852e-02
 -6.7930450e-03
 -1.6908704e-01
 -3.6864504e-01
  1.0985826e-02
  3.3493282e-03
 -1.5086518e-03
  7.8476183e-03
  5.8976472e-03
  1.4510687e-02
 -1.7206931e-03
 -1.2425541e-02
  1.2293743e-02
 -9.3502719e-03
 -1.8443247e-05
 -1.2831527e-03
  1.7974891e-02
  6.2573396e-02
  5.0851894e-03
 -2.4272211e-01
  9.2640176e-04
  6.2246160e-03
  4.6271405e-01
  3.2118343e-02
  4.6603158e-03
  1.6322007e-02
 -3.1114975e-03
 -1.8650872e-03
  1.6678570e-02
  9.7168215e-02
  3.5413597e-03
 -1.8057460e-02
 -2.3469126e-02
 -1.7418402e-03
  4.5589642e-03
  6.3848672e-03
  3.9754156e-02
  2.4791146e-02
  2.0406820e-02
  8.8925501e-03
 -4.6951715e-03
  3.6125104e-03
 -1.1203635e-03
  9.9852658e-04
 -1.2434284e-02
 -2.4263553e-02
  1.0512919e-03
 -2.5409970e-02
  9.4142398e-03
  2.3559680e-02
 -1.3495177e-03
  4.7100242e-03
 -2.2713782e-03
  1.0233759e-03
  9.8643489e-03
 -2.3529637e-03
  2.8004490e-03
 -2.0835521e-03
  2.3836592e-02
  2.9244309e-02
  1.7274218e-02
 -4.1443687e-02
  1.5063005e-03
  2.9541176e-02
  1.0541962e-02
  2.5343189e-02
  1.7876189e-02
  5.4678455e-02
  7.8145504e-02
 -7.5417212e-03
 -2.3615565e-03
 -2.7019298e-02
  7.0210812e-03
 -1.4076055e-03
 -3.9500827e-03
 -2.7586096e-03
  1.7419010e-01
  3.4989008e-01
  2.3394164e-02
  1.4190483e-03
  7.0249196e-03
  1.7457841e-02
  6.7771718e-02
  1.4470553e-01
 -7.9631843e-03
 -9.6644294e-03
  1.0060633e-02
 -1.3127303e-02
  1.8943076e-03
  1.0763927e-02
  8.1501903e-06
 -5.4899263e-03
  4.4187181e-02
 -2.0079162e-02
 -5.3655403e-04
 -1.3392083e-02
  2.8330588e-03
  8.1204679e-03
 -2.1616213e-03
  5.6307320e-03
  6.1869662e-04
  1.2483295e-03
  9.1486992e-03
 -4.1862167e-03
  4.2304825e-03
  8.4704151e-03
 -1.8288648e-02
  3.2633537e-04
  7.0333970e-04
 -2.4547063e-02
 -3.5907712e-03
 -7.4958210e-03
 -3.7184890e-02
 -4.9971035e-03
  1.6231493e+00
  1.0931860e-02
  3.4020212e-03
 -2.9128356e-02
 -3.0324734e-03
  7.1429074e-02
 -8.6600792e-01
 -2.6952228e-01
 -8.1007095e-04
 -1.5507138e-02
  3.3155566e-03
  4.3141153e-01
  6.8494982e-01
 -2.5145309e-02
 -2.0219162e-03
  2.2993423e-03
  2.2207981e-01
  3.6157495e-01
 -3.3777328e-03
  4.7455830e-03
  1.3375834e+00
  1.9062203e-01
  4.0110740e-01
 -5.1010495e-01
 -3.9317650e-03
 -5.5808871e-04
  1.0133447e-01
 -2.3397531e-03
 -1.0962635e+00
 -5.3944725e-01
 -4.2154323e-03
  1.4937362e-01
  1.4835640e-03
 -8.0117648e-03
 -1.4094696e-02
  1.3093269e+00
  7.4509513e-01
 -4.5118430e-01
 -6.6790715e-02
 -1.9557434e-01
  1.8214028e-02
 -1.6181436e+00
 -4.8265070e-01
 -9.7823370e-01
 -9.1948528e-03
 -4.2652306e-03
 -5.8149742e-03
 -8.2673587e-02
  4.3142443e-03
  8.0551463e-01
 -3.0849633e+00
  7.4175437e-04
 -6.0450870e-01
  7.9873693e-01
 -5.4113474e-02
  1.5325125e-01
  4.8761246e-01
  3.7521493e-01
  7.1167690e-01
  2.6927898e-02
 -1.2400839e-01
  3.3645612e-01
  1.9515499e-01
  4.3252617e-01
 -9.5937528e-02
  8.8945439e-04
 -1.0833229e-03
 -2.0786402e-01
  1.1920335e-03
 -2.4606971e-02
 -6.2624749e-04
  3.5722271e-02
 -1.0073449e-02
 -1.1171587e-01
  3.2846092e-03
 -1.3374554e-02
 -5.2225273e-02
  1.9543599e-03
  1.4202470e-03
  1.7993032e-03
  1.6084081e-02
 -2.7451317e-03
  3.3020298e-03
  2.7068827e-02
 -8.0126533e-03
 -1.8593955e-03
 -1.8665635e-03
  1.3219649e-02
  1.9715556e-03
  5.7945196e-03
  1.1342891e-02
 -1.4929981e-03
 -1.2351688e-03
  1.9612517e-03
 -2.0143516e-02
  1.0475602e+00
  5.1445965e-02
 -7.4311525e-01
 -5.3207148e-02
 -8.3336341e-01
  9.7829811e-02
  3.3143315e-02
  3.4671568e-03
  5.5746597e-01
  1.2566118e-01
  1.5031411e-03
 -1.0205260e-02
 -2.6590902e-02
 -4.9586887e-03
  4.1290470e-03
 -5.6893617e-01
  9.0364680e-02
  1.3473793e-02
  9.1325007e-03
  1.0968573e-02
 -6.6831522e-03
  2.4953609e-02
 -5.3592268e-03
  4.2608110e-03
  2.7766788e-01
  3.7275462e-03
 -3.3520726e-03
 -2.2455365e-03
  4.3519863e-04
 -1.4638007e-01
 -9.9494323e-02
 -4.8800348e-03
  2.0746981e-01
 -3.7762272e-01
 -7.3011988e-03
  6.3791755e-03
  2.8043661e-01
 -2.2308119e-02
  5.1053807e-02
 -2.0640248e-02
 -5.1758173e-03
  1.8883644e-01
 -1.5943551e-02
  1.1540558e-04
  1.8051994e-01
 -2.4072522e-01
  3.5227820e-01
  1.5729329e-02
 -1.8118037e-02
 -1.6413233e-01
  1.2082669e-02
  2.2912440e+00
  1.3932588e-03
 -1.1034141e-02
  2.6197165e-02
  7.4068741e-03
 -7.5461338e-03
  2.1721041e-03
  6.3602382e-04
 -6.8706181e-03
  1.5796424e-03
 -5.1092664e-03
 -1.9439415e-03
 -1.9909695e-02
 -8.3771326e-02
 -3.7992318e-04
  1.4616595e-02
 -5.6438980e-04
 -6.4377058e-03
  3.3293318e-03
  1.2119763e-02
 -2.0539747e-04
 -4.8534418e-04
 -6.7445203e-03
  4.9655288e-03
  7.3746890e-03
  5.6078862e-03
  1.3183454e-01
  1.0493079e-02
 -2.1626081e-03
  1.8753705e-03
  6.8177059e-02
  1.2784794e-02
  1.5430086e-02
  4.4124871e-03
  1.2070222e-03
 -1.3556017e-03
  3.9117266e-03
  7.4695912e-03
  4.2527094e-03
  1.0947357e+00
  4.5980275e-01
 -4.4969413e-01
  8.8215923e-01
  9.2579389e-01
 -1.0345227e-01
 -1.0312661e-02
 -2.3776263e-03
 -6.3830778e-02
  2.9620928e-01
 -8.4639359e-03
  1.5782480e-01
 -2.0253994e-01
 -3.0084312e-01
  8.7315403e-02
  4.0462942e-04
  1.2994347e+00
 -1.2796688e+00
 -1.7101511e-02
  3.4741271e-01
 -2.6437059e-02
  9.8419011e-02
 -1.2233641e-02
  1.8949743e-01
  2.0924860e-03
 -4.0574949e-03
 -3.9632325e-03
  1.0155697e-03
 -1.0145816e-02
  2.4094158e-03
 -2.2350503e-03
  2.7970973e-02
 -2.0422837e-04
  2.9491324e-03
  1.4422341e-04
 -7.7985525e-01
 -4.0504136e-03
 -4.4344654e-03
  8.9609595e-03
  3.1159325e-02
  5.3165220e-03
  6.2919562e-03
  1.6803462e-02
 -7.8311004e-03
  2.6721058e-02
  1.1970868e-02
 -2.2135365e-04
 -9.2962984e-04
 -3.8374779e-03
 -6.8298937e-03
 -1.6884858e-02
 -4.4539842e-01
  8.1654033e-03
  2.8189000e-01
  1.0147882e-02
  1.3117964e-02
  3.9498820e-03
  1.8415430e-04
 -5.3113201e-03
 -8.7884063e-01
 -1.4713722e+00
  1.3406335e+00
  1.2335744e+00
 -1.3379968e-03
  3.7214288e-01
  6.9550248e-03
  1.3530904e-03
  3.8029394e-01
  3.5808128e-01
 -1.6857538e-01
  5.1085752e-02
  1.3933009e+00
  1.7659892e-01
  1.6173658e-01
 -1.2914139e-02
 -1.8855773e-02
  6.1124700e-01
  5.0401497e-01
  1.9457050e-01
 -1.3248880e-02
 -3.4934292e-03
  2.6153237e-01
 -1.2312736e-03
  1.4471357e-02
  3.4018800e-01
  2.6925707e-03
  5.2096718e-03
 -1.9668035e-01
 -2.5184955e-03
 -5.0056502e-03
  6.7238016e-03
 -4.3820557e-03
  5.4389663e-02
  4.7239897e-01
  1.5451609e-01
  1.4555186e-03
  2.3266035e-03
  1.8038446e-02
 -2.1451427e-02
 -8.3606075e-03
 -4.9763978e-01
 -8.1166514e-04
 -1.0835324e-02
  1.0022522e-02
 -2.5208633e-02
 -3.1742733e-04
 -1.0209855e-02
  7.9251155e-03
  3.9045196e-03
  4.8602764e-03
 -5.6403819e-03
 -1.8410860e-03
  1.5516193e-02
  1.6304714e-03
  3.7465831e-03
  5.3661228e-03
 -1.1797394e-03
  1.3002313e-03
 -2.3690180e-03
 -6.1217430e-03
 -5.2606767e-01
 -7.8266091e-04
  3.2400045e-01
 -5.9797443e-03
  2.1704568e-01
  9.0939283e-01
  7.4736546e-03
 -9.9790550e-04
 -6.9048293e-03
 -5.1749323e-02
  9.7191771e-03
  1.2787046e-02
 -1.5000263e-03
  3.6910636e-04
 -2.8793037e-02
 -7.7949618e-03
 -3.3796544e-03
 -1.0814629e-03
 -4.6699061e-03
 -3.6221851e-02
 -1.6266956e-03
 -2.4367169e-04
 -1.2152606e-02
 -1.7119024e-02
 -1.2280879e-02
 -8.1344163e-03
 -3.7339425e-03
  3.1027803e-03
 -1.0435550e-03
  4.0371302e-03
  7.9963580e-02
  1.1455552e-02
 -9.0998691e-01
 -2.3798638e-03
 -2.7425230e-01
 -1.6644409e-02
 -4.7172147e-01
 -4.1247913e-01
  2.4892708e-02
  2.7552292e-02
 -1.4819602e-02
 -1.2351445e-02
  5.2376945e-02
 -6.8465699e-03
  1.1241490e+00
 -1.2808450e-02
 -9.6582323e-02
  5.9467260e-02
 -3.1328103e-01
  4.2775427e-03
 -1.0190578e-01
 -1.4047283e-01
  1.8008633e-02
  2.9607283e-02
 -5.1024626e-04
 -5.1728469e-01
  6.1277032e-04
 -1.5849207e-03
 -9.5122978e-03
  2.0443301e-03
  5.2450711e-01
  1.3572732e+00
  6.5104222e-01
 -1.1369405e+00
  9.1723508e-01
  3.7991859e-02
  4.7667256e-01
  1.6059911e-02
  1.6198479e-01
 -3.7344202e-01
 -1.0920545e-01
  3.9028099e-01
  1.1575438e+00
 -7.1557686e-02
  1.1414046e+00
  4.0258549e-02
 -3.6203748e-01
  2.5874746e-01
 -1.3538428e-01
 -7.6287918e-02
 -6.0040046e-02
  1.2101342e-03
  2.0820361e-03
  1.5573934e-02
  1.8949217e-01
  8.4131898e-04
 -6.4701624e-02
  1.2141316e-01
  4.0816409e-03
  7.7705537e-03
 -4.4455342e-03
  5.3906639e-04
  6.2882692e-01
  3.3556297e-03
 -6.5102391e-03
  5.7704095e-02
 -5.4293992e-03
 -1.1081866e-02
 -4.7579706e-03
 -3.7832655e-02
 -7.4948063e-03
  3.1694479e-02
 -3.0101253e-02
  1.6076155e-03
 -6.2861759e-03
  5.9009418e-03
 -1.9641526e-02
  3.7803538e-03
  1.8094617e-03
 -6.3451817e-03
  1.2156305e-02
 -8.7152096e-03
 -4.8706587e-03
  4.9535180e-03
 -3.9210789e-02
 -3.1444475e-02
  7.5931572e-03
 -7.6566386e-04
 -2.9508867e-03
 -2.6254168e-01
  1.0221395e+00
  7.6996893e-02
 -7.9495591e-01
  2.4530249e-02
  1.2761760e-01
 -4.5535114e-02
 -5.5703866e-01
 -1.0050846e-02
  9.2915720e-01
  2.3545483e-01
 -3.0860191e-03
 -1.6163777e-03
  2.6114890e-01
 -7.2527997e-02
  1.9804555e-01
  6.6457712e-03
 -1.1319569e+00
 -6.9004786e-01
 -1.0041320e+00
  2.8035975e-01
 -4.8581087e-03
 -7.4866694e-01
  1.2248929e-02
  4.3504614e-01
  7.4988313e-02
  4.2274990e-03
  1.2938003e-03
  2.4914921e-03
  4.8839664e-01
  6.8045789e-03
 -1.5184602e-01
  1.4702971e-03
  1.6811255e-01
 -6.1861955e-04
  1.4106908e-01
 -5.4943474e-04
 -5.2022561e-03
 -4.6639731e-03
 -1.0255418e-03
  7.0330699e-04
 -7.4492459e-04
 -2.2939355e-03
 -6.1494267e-01
 -1.1260468e-03
 -5.3119939e-03
 -2.6436478e-03
 -4.2180100e-01
 -1.0885627e-02
  7.2947075e-03
 -3.1995086e-03
  7.8621022e-03
  1.2364888e-02
 -2.0777867e-03
 -2.2010684e-01
 -1.2731750e-03
 -8.7950646e-04
 -2.8578355e-03
 -1.4381947e-03
 -2.0017596e-03
  3.3051069e-03
  5.4130149e-03
  1.8177845e-02
 -5.1972596e-03
  5.8424398e-03
 -7.2781728e-03
 -1.2260490e-03
  6.2821391e-03
  1.0557310e-02
 -5.1016929e-03
  1.3693482e-02
 -3.4919861e-03
  4.4756636e-02
 -3.3115793e-03
 -9.4827876e-04
 -2.4807202e-03
  6.3711843e-03
  1.0331676e-03
 -6.9955895e-03
 -1.5447708e-03
 -1.0055202e-03
 -4.4042710e-03
  1.0702985e-03
 -9.8247314e-03
  1.7804378e-03
  5.9083547e-03
  4.2561954e-03
 -4.4307536e-03
  2.1849493e-02
  5.9358468e-03
  2.3001170e-04
 -1.6502446e-01
  1.9562919e+00
  2.4016839e-01
 -7.6348633e-01
  1.8382417e+00
 -4.3996575e-01
  3.2885067e+00
  1.0213926e+00
  2.0010489e-01
 -9.4237901e-02
 -5.7465851e-01
  1.2043253e+00
 -5.0936955e-01
  1.7935774e-01
  3.5304272e-01
 -3.2099846e-01
  2.9935005e-01
 -2.9369062e-01
  1.6025767e-01
  3.5337657e-03
 -9.7368461e-01
  5.2404301e-03
  2.0484418e-02
 -4.1324508e-01
  4.6104622e-01
  3.7035442e-04
 -3.2462195e-02
 -1.9214271e-02
  4.4409186e-02
 -1.0447387e-01
  4.2036560e-01
 -8.6061627e-04
  5.3041466e-02
  5.1460814e-02
  3.2613641e-03
 -1.2431222e-03
  9.3863085e-03
 -3.3910247e-03
 -4.7433109e-04
 -1.3025393e-01
  1.4113337e-02
 -7.3553547e-03
 -9.1500662e-04
 -3.7732849e-01
 -6.4144749e-03
  9.0631908e-03
  1.5186451e-03
  4.7178306e-03
  7.0998986e-04
  2.2020186e-03
  1.0710509e-03
 -2.5252701e-04
 -2.0120637e-03
  4.4585192e-03
 -3.6336046e-02
  3.7976839e-03
 -9.9123328e-04
  1.0545307e-02
  1.7947805e-03
 -9.2064794e-03
  2.3767427e-02
  2.6479685e-03
 -2.4409143e-03
 -3.5176205e-03
 -1.2801035e-03
  8.8475104e-03
 -1.1258956e-02
 -2.3677906e-03
  1.3083599e-02
 -9.6679283e-03
  5.2726632e-03
  2.4906116e+00
 -2.0018367e-03
  2.5802043e-03
  3.6779102e-02
  1.7810257e-02
  1.0867362e-03
  1.4826325e-03
 -1.3683140e-02
  2.9474560e-03
 -4.5233695e-03
  1.8683257e-02
 -1.1728918e-02
  4.7748298e-03
 -8.4168250e-03
 -3.7927995e-03
 -1.0675364e-03
  1.2445273e-02
  7.8951130e-03
 -1.3124964e-03
  5.6199141e-02
 -1.7245714e-01
 -5.5255806e-01
 -4.5660603e-01
  1.7142260e-01
 -1.2546233e+00
 -7.3181771e-02
  1.6099159e-01
 -6.5813166e-01
  3.4775794e-01
 -3.0069524e-01
 -1.1819695e-01
 -2.5174448e-01
 -6.5153247e-01
  3.4182790e-01
 -1.0873716e-01
 -1.5472703e+00
 -1.8648966e-01
 -7.1189159e-01
  1.5745296e+00
 -3.9231983e-01
 -2.5614807e-01
  3.0753410e-03
 -1.3899595e+00
  3.3450538e-01
  6.8715964e-03
 -1.2776908e-01
 -1.4972913e+00
 -2.2319404e-03
 -1.4012307e-02
 -2.2043281e-03
  5.9968251e-04
 -4.4692825e-03
  9.6736423e-04
  5.6744404e-03
 -2.9510777e-03
 -3.5397997e-03
 -5.2422360e-03
 -8.5829441e-03
  2.5420319e-02
 -5.8145714e-03
  7.2233714e-03
  1.9001962e-01
  2.5797538e-03
  5.6237685e-03
 -4.9284366e-03
  1.1459785e+00
  1.4607945e-03
 -2.2080394e-02
 -4.1229413e-03
 -1.2923253e-02
  1.1541470e-01
 -8.6450973e-04
 -1.6145102e-03
 -2.8776185e-05
  7.1237393e-04
 -2.7096877e-02
  2.9450699e-03
  1.2374521e-02
  7.0274523e-03
  6.5426575e-05
 -5.2260023e-01
 -2.9912347e-01
  1.4005938e-02
  1.4193566e-03
 -7.5702718e-03
 -2.2912988e-02
 -4.3693581e-04
  3.1333795e-01
 -4.0911995e-03
 -1.0582329e-03
 -1.2586298e-03
  1.4719574e-03
  6.3380175e-03
  7.8537110e-03
 -2.2510185e-03
 -7.2884220e-01
  2.1898590e-03
 -2.4237039e-03
  5.5808905e-03
 -6.0737504e-05
 -4.6494305e-03
 -6.0649090e-02
  2.8085045e-03
 -4.6425398e-02
  3.0702665e-03
 -1.9513419e-03
  2.9097077e-01
  2.0273808e-02
  2.3476863e-03
  5.8961887e-02
  1.6149285e+00
  1.1023861e+00
 -1.1450487e+00
  2.6455481e+00
  5.2579578e-02
  6.8472004e-01
  2.8703055e-01
  9.1077513e-01
 -3.4880373e-01
 -6.3278073e-01
 -1.3929163e-01
  1.3359234e+00
  2.5913861e-01
 -1.0003490e+00
 -1.5566427e+00
  4.9725866e-01
  7.1915233e-01
  5.0649989e-01
 -9.0371591e-01
 -5.1640511e-01
  1.1430624e-02
 -4.7711515e-01
  1.3070023e-01
  4.9578726e-01
 -3.2129814e-03
  1.3514033e-02
 -3.9382538e-01
 -2.9471783e-02
 -6.5147681e-03
 -2.9277965e-01
 -1.4457978e+00
  2.9496825e-01
  2.2472367e-01
 -8.1146616e-01
 -7.0129102e-01
 -7.3034459e-01
  4.2577547e-01
  3.8110444e-01
 -3.2017183e-01
 -1.5360004e-01
  4.8230588e-01
  1.1074449e+00
  3.4376368e-01
 -1.6432746e-01
 -3.1814170e-01
  6.3854583e-02
  1.5620244e-02
  3.6040795e-01
  1.0147381e-01
  3.3841383e-02
 -5.8436126e-02
  1.1488643e+00
  4.5897120e-01
 -4.3605751e-01
 -2.2483384e-02
  2.9364237e-01
 -1.3390611e-02
  1.4759098e-02
 -3.8040537e-02
 -3.1729974e-03
  2.0795585e-01
  8.3788214e-03
 -6.0537062e-03
 -7.2281852e-02
 -1.1201796e-02
 -1.2785165e-03
  1.8704094e-02
 -5.9815884e-01
  2.1006962e-02
 -5.5498192e-03
 -2.9904324e-01
  3.2832418e-02
 -5.5733051e-02
  4.8622448e-02
  3.2989731e-01
  8.3749006e-03
 -2.7275495e-03
 -1.1121469e-02
  7.5275622e-02
 -3.6508176e-01
  2.1882656e-01
 -6.3360661e-02
  1.0660676e-02
  1.0860993e-02
  4.1237286e-01
 -5.2932584e-01
  8.2918257e-03
  2.8789593e-03
 -4.4057872e-03
  8.6364828e-02
  5.3784538e-02
 -7.9988323e-02
 -1.8580195e-01
  4.4404499e-02
  2.4422352e-01
 -1.3562353e-02
  1.8281081e-01
  5.8820969e-01
 -8.6121827e-02
  2.9996276e-01
  1.9799237e+00
  5.0821896e-03
  9.0308303e-01
 -1.1473221e-01
 -1.6294699e-04
  2.4177012e-01
  2.6197588e-01
  3.6924022e-01
 -1.5499869e-01
  1.2522870e-01
  1.5387754e-01
  7.5986497e-02
  7.3455711e-04
  1.0032076e+00
 -7.1692560e-03
  4.9818042e-03
 -5.2931603e-02
  3.4783448e-03
 -2.8744934e-02
 -1.1824549e-02
 -6.7406432e-03
 -4.7700917e-03
 -2.0291133e-02
  5.9959665e-03
  4.4863778e-03
  4.5387209e-03
 -3.2849552e-03
  3.8842839e-04
 -7.5688600e-03
  3.7600435e-02
  2.8636481e-03
  1.8276972e-03
  3.4614063e-03
 -1.7307344e-01
  1.4045072e-01
  8.3677806e-02
 -4.3863738e-03
  7.5802095e-03
  1.5070797e+00
 -1.1512869e-02
 -3.9072991e-03
 -6.0919244e-03
 -1.3042759e-02
  1.6499817e-02
 -1.9535567e-03
  3.1919130e-03
  6.3864230e-03
  3.2613467e-02
 -3.6940440e-03
  1.0771343e-02
  2.3379619e-03
  4.2982996e-01
  6.8566147e-03
 -1.0778572e-01
  1.3243374e-03
  6.8177758e-03
  8.4028364e-04
 -8.1229059e-04
  6.7322850e-03
  1.7315302e-03
 -5.6756806e-04
  2.4252692e-03
 -4.9001239e-03
 -9.9881552e-04
 -2.1007187e-04
 -9.0186620e-01
 -5.5835565e-04
  5.4506031e-03
 -7.9510193e-03
 -2.4770799e-03
  2.6062405e-01
  3.8818433e-03
  2.0922905e-02
  2.5422908e-03
  2.1811300e-03
 -1.9607425e-03
  3.8642410e-02
  4.6222880e-03
 -2.3963705e-03
 -4.5488006e-01
 -5.8424599e-03
  6.0266167e-01
  1.5095207e-01
  3.1012478e-01
  1.6547620e-02
 -1.0985649e-03
  2.1414760e-01
  2.5083991e-03
 -1.7319405e-01
  2.0480806e-02
  3.5068835e-03
  1.0554832e-01
  3.4441900e-01
 -5.0541654e-02
 -5.4262336e-03
  6.9176376e-01
  2.0116644e-03
  6.4554210e-03
 -4.2538679e-01
  4.1429795e-02
 -3.0055924e-03
 -1.8682281e-03
  2.8724301e-01
 -2.2760155e-02
 -1.2876775e-02
  2.1820799e-04
 -6.8172752e-03
  4.7871792e-03
  1.4437526e-03
  7.3940023e-03
  8.1537730e-01
 -9.3469314e-02
 -1.2625244e-02
 -4.9783525e-01
  1.6536934e-03
  1.7499350e-02
  5.5918684e-03
 -1.1869222e-02
 -8.0622239e-03
  3.9713862e-03
  1.5707108e-03
  1.7655727e-01
 -2.2803645e-01
  2.3276119e-01
  3.5978734e-02
  6.8385325e-02
  2.7973391e-02
  1.7375210e-03
  5.3403266e-02
 -4.7438731e-03
 -1.0121529e+00
  1.4247977e-02
  5.8306152e-01
  5.1202695e-03
  3.3639597e-03
  5.1404408e-04
 -9.0716276e-03
  1.0550950e-02
  1.7849067e-03
 -1.2444071e+00
  5.6564271e-02
  1.2361106e+00
 -2.0379891e+00
  4.4578737e-01
  1.6154504e-01
  1.0170641e-01
  8.5702276e-01
  1.4927577e+00
 -3.1394807e-01
  6.0059987e-02
  4.2877238e-02
  1.0663607e+00
  7.6725799e-01
  4.9445617e-01
 -6.4638935e-02
 -5.6409669e-01
  1.0538367e+00
  8.6758761e-03
 -1.5988949e-01
  3.1386507e-01
 -6.8489194e-01
 -5.9309375e-02
  7.6864072e-04
 -2.7296805e-01
 -2.8784426e-03
  4.6237215e-02
 -9.4079999e-03
  2.3511719e-02
 -5.5851652e-03
  1.1792112e-03
 -7.8282848e-02
 -4.8817271e-01
  7.2014187e-03
  1.2789738e+00
 -5.5674622e-03
  1.0690676e+00
  9.5602131e-01
 -1.3889225e-02
  8.6642198e-02
  5.6721862e-02
 -6.5025586e-01
  6.8621702e-02
  4.0881154e-03
 -8.4751211e-03
  7.6960415e-01
 -2.9850597e-04
  3.4673894e-03
 -1.1361854e-01
  4.9042192e-01
 -4.1334447e-02
  1.3527998e-01
 -1.3100610e+00
 -7.2600114e-01
  1.4421277e+00
 -4.6509164e-03
  1.7722279e-02
  1.2636802e-02
 -8.1702328e-01
  3.1644103e-01
 -6.5697163e-02
 -2.3974966e-01
 -3.1827974e-01
  3.1027838e-03
 -3.5212260e-01
 -7.2859973e-02
  3.3706453e-01
  2.2070161e-01
  1.5695520e-01
 -2.8873232e-01
 -5.5941105e-01
  1.9189830e-01
 -2.6476583e-01
  1.2964739e-01
 -2.3365008e-02
 -8.0030364e-01
  4.4813227e-02
 -7.1559362e-02
 -6.0882574e-01
 -9.7384058e-02
  9.9669039e-02
 -1.1965476e+00
  7.7643174e-01
 -3.0570289e-01
  6.5345061e-01
  8.9337900e-02
 -9.3305811e-02
  2.3014089e-01
 -3.9140254e-01
  3.7980953e-01
  4.5498886e+00
 -5.0302050e-03
  1.2097222e-03
  2.2553876e-02
 -4.3211799e-02
  2.1022961e+00
 -5.5776805e-01
  1.2150856e+00
 -1.6023806e+00
  3.5266888e-01
  6.8269610e-01
 -1.4224185e-02
  2.0530929e-01
 -5.8007729e-01
  1.4126410e+00
 -7.0097786e-01
  9.0646946e-01
  2.8040076e-03
  1.6152326e-03
 -5.8567188e-05
 -6.1195758e-05
  4.6133932e-01
 -6.9981012e-03
  2.1345831e-02
  8.8510007e-01
  2.4475018e-02
  2.7037847e+00
 -1.4017088e-03
 -1.6615725e-01
  1.4178002e+00
 -1.8414952e-01
 -2.5072744e-01
  6.1533470e-02
 -5.0778198e-04
 -2.2803182e-03
  2.6853400e-04
  1.4618951e-02
  2.0463090e+00
  4.2212671e-01
  6.6517073e-01
  3.6092395e-01
 -1.1564964e+00
 -7.9811102e-01
 -3.7780672e-02
  2.0159753e-01
 -7.8124124e-01
 -4.1842443e-01
 -8.3792204e-01
  1.0544902e+00
 -6.2469738e-03
 -1.9604650e-03
 -2.3959824e-03
  3.6309178e-03
  1.4350984e-01
  4.8535246e-01
  1.1773790e-01
  2.8050101e-01
  1.7023898e+00
  1.5020688e+00
 -2.6154526e-02
 -8.1240958e-01
 -1.0966505e+00
 -1.1407809e+00
 -4.3726084e-01
  6.4270145e-01
 -1.7868182e-01
 -6.6855373e-03
  8.4367730e-03
 -1.3417533e-01
 -1.1051214e+00
  1.8061660e-02
  1.3189650e-01
 -2.2420659e+00
  1.4140135e+00
 -2.7707292e-02
 -7.8745112e-03
 -1.8119073e+00
 -1.7265759e-02
 -4.9729496e-01
 -3.9502800e-01
  8.1800133e-01
  2.9703944e-03
  1.3735835e-02
 -2.0978332e-03
  1.8353868e-01
 -4.2086769e-02
 -7.1361274e-01
 -8.1830338e-02
 -2.6899260e-01
 -4.9767536e-01
 -6.4479673e-01
  7.7729940e-01
 -5.4609295e-02
  4.9425960e-01
 -1.0272700e+00
 -1.5067022e+00
  8.2413983e-01
  2.8271124e-01
  3.2394078e-02
 -2.1389225e-02
  9.4403230e-02
 -1.0609171e+00
 -4.1001740e-01
 -1.9201398e-02
 -1.2894644e+00
 -2.3108043e-01
  5.3759146e-01
  4.3271756e-04
  6.9020647e-01
 -1.5884370e+00
 -1.9382253e+00
  2.1219093e-02
 -1.5707873e-01
 -7.5429100e-01
  9.4342763e-03
  3.7491668e-03
 -8.3480299e-02
 -9.1477835e-01
 -2.2852235e-01
 -1.1315210e+00
  7.7916420e-01
  2.1728628e+00
 -1.2158477e-01
 -3.8353410e-01
 -1.3720649e+00
 -1.2710133e-01
 -2.6727113e-01
 -1.3357273e-01
  1.7514904e-01
 -1.3988242e-02
  2.8622902e-03
 -9.3012005e-03
  5.3294802e-01
 -6.8911219e-01
  3.3023102e+00
  8.7501913e-01
 -1.1280739e-01
  8.7481216e-02
 -1.8511181e-01
 -1.5906285e-02
  1.6762059e+00
 -6.9356728e-01
 -7.5942123e-01
 -1.6183827e+00
  8.1359439e-02
 -3.7494162e-01
 -3.5434749e-03
 -1.1527955e-02
  1.2920045e+00
 -1.2652428e+00
  7.8202680e-02
  1.5219960e+00
 -7.6444751e-01
 -1.2844709e+00
 -2.2742283e+00
 -2.6615236e-02
 -3.6735582e-01
  9.5748937e-01
  2.5212200e+00
  6.7388701e-01
 -9.4036329e-01
  8.2678339e-03
 -2.3267362e-03
 -7.4739615e-03
  2.6079165e-02
  6.7962468e-01
  9.6451616e-01
  3.3956811e-02
 -2.7828882e+00
 -5.1403055e-03
 -5.2290452e-01
 -5.0296094e-03
  2.0204949e+00
  2.0609238e+00
  1.2345560e-01
  2.6184034e-01
 -8.9473170e-01
  1.4414687e-03
  6.7325202e-03
 -1.6897434e-02
  1.9109276e-01
 -1.2442074e+00
 -2.7370542e-01
 -1.2199559e+00
 -5.8995813e-02
  1.8194102e-01
  5.3140354e-01
  9.3369544e-02
 -1.6524453e-01
 -5.5234170e-01
 -1.7309198e+00
 -1.5201681e+00
  2.2092931e+00
  3.3711512e-02
 -4.8291064e-03
  1.9896175e-03
  2.5797382e-02
  1.2696292e+00
  1.4497749e+00
  9.1693705e-01
  3.2238390e-02
 -9.0444422e-01
 -1.8443964e+00
  4.4734426e-02
  7.4994439e-01
 -5.5716664e-01
  1.1203499e-01
 -2.2242254e-02
 -1.1718794e+00
  1.2542713e-01
  6.4509746e-04
 -1.5392086e-02
  3.3696222e-03
  2.2110808e+00
 -4.0979549e-01
 -7.7103716e-01
 -9.5474130e-01
 -1.9280738e-01
  5.3267493e-03
  2.3348635e-01
  4.1592506e-01
  1.7905163e+00
  2.3479092e+00
  2.1540058e+00
  1.6588600e-01
 -1.2115106e-02
  6.2259501e-03
  3.1951502e-02
  6.9359362e-02
  1.0011815e-01
  1.2607741e+00
 -3.3422165e+00
  8.2781911e-01
  1.8817484e-01
  8.7870681e-01
  1.3684452e-02
  2.4457736e+00
  6.9732112e-01
 -8.4991056e-01
 -6.6092652e-01
  8.3774555e-01
  5.6314307e-01
 -1.1997518e-02
 -1.3396812e-02
  3.6856222e-01
  8.1900597e-02
  1.4481634e+00
  1.7428802e-01
 -6.9387376e-01
 -6.9507873e-01
 -5.4784697e-01
 -9.9659548e-04
 -1.2146299e+00
 -3.9780039e-01
  7.0226926e-01
  6.3692695e-01
 -1.5482888e-01
  2.6484308e-01
  2.2061387e-02
  8.8454086e-01
  8.4236234e-01
 -9.0780908e-01
 -2.2772584e+00
 -2.6485378e-01
  1.1013474e-01
 -5.5413827e-02
  1.3535224e-01
  8.6697014e-03
 -2.1680139e-02
  1.1736832e-02
 -1.4816768e-01
 -6.8449801e-01
 -2.5445896e-01
  3.4473538e-02
  1.7039107e-02
  4.3772531e-01
 -2.8931022e-01
 -4.1826382e-01
 -7.3725277e-01
  8.3935362e-01
 -7.1261150e-01
 -1.1186465e+00
 -3.9579746e-01
  1.6645140e-03
  1.3941138e+00
  5.0143819e-02
  6.8103987e-01
 -4.4598302e-01
 -5.5505854e-01
  1.3332603e+00
  7.6370515e-02
  1.9158594e-01
  1.4139706e+00
 -7.0758832e-01
 -2.4628080e-01
  6.6986773e-03
 -1.5239334e+00
  1.6126658e+00
 -1.7501991e+00
  5.2605860e-02
 -5.5689603e-01
 -1.5878905e+00
  1.1707368e+00
  5.9539538e-02
 -1.4239802e+00
  4.3433079e-01
 -1.7186763e-02
  5.1555196e-03
  3.1103492e-01
 -5.9741702e-02
 -2.4284523e-03
  1.1939388e-02
 -1.7450715e+00
 -3.2707300e+00
 -9.9720365e-01
  8.2682921e-03
  6.7056960e-01
  6.6787112e-01
 -1.4945630e+00
  1.5492123e-03
  2.1977036e+00
 -1.4185683e-01
 -1.9092184e-02
 -1.7467344e-02
  6.0597509e-01
 -1.4988662e+00
  6.3616350e-02
  1.4950873e+00
 -7.9619057e-02
  4.5009205e-01
 -6.7653459e-01
  4.6194008e-01
 -1.1881131e+00
 -1.6273980e+00
  2.5815351e+00
  1.1472589e+00
 -2.2025514e-01
 -1.0222777e+00
  4.5498687e-01
  1.2296624e-01
 -1.2022405e+00
  8.9790887e-01
  2.0619591e-01
  8.4949501e-02
  1.8208957e+00
 -8.8366377e-01
 -9.4763911e-01
 -3.9464482e-03
  1.0676368e+00
  1.0716935e+00
  3.8760582e-01
  5.0240207e-01
 -6.7031091e-01
 -1.0564418e-02
  3.0338228e-02
  1.9703914e-01
 -1.2051694e+00
 -7.0726341e-01
  4.6846136e-03
 -1.8867586e-02
 -1.7527597e+00
 -9.8515391e-01
  1.0878816e-01
  1.8640932e-01
  1.7360775e+00
 -2.2733775e-01
  1.1928633e+00
  5.6799716e-01
 -3.6705109e-01
  1.6554049e-01
 -3.4813698e-02
 -1.2030136e-01
  1.0205708e+00
  1.2828646e+00
  4.6710111e-02
 -6.9216198e-01
 -1.3008060e+00
 -1.2666643e+00
  8.1103390e-01
  1.5938357e-02
 -7.7911955e-01
  2.0840268e+00
  1.1328230e+00
  6.5246433e-01
 -8.4246439e-01
  1.2599744e+00
  6.3190103e-02
  2.3269340e-01
 -2.4611913e-01
  6.9302970e-01
  1.5713950e-01
  2.7309794e+00
  1.3881660e+00
  6.5205532e-01
  6.4063352e-01
  3.0864555e-01
 -2.6667756e-01
  3.2159850e-01
  1.8176848e-01
  1.3524015e-01
 -1.8576479e+00
 -3.3652589e-02
 -1.8364331e-03
  8.4840180e-04
  4.8682737e-01
  1.3606657e-01
 -4.1938865e-01
 -2.7300912e-01
 -5.3555775e-01
  1.0271513e+00
  4.4078503e-02
  2.1019705e-01
 -3.3409831e-01
  9.3357843e-01
  1.5607893e-01
  6.9995362e-01
  3.9615759e-01
 -7.3221421e-01
 -2.6276549e-03
 -1.9784677e-03
 -1.2848667e+00
 -1.0294268e-01
  3.6005765e-01
  9.6927643e-01
 -1.5869818e+00
 -1.2066651e-01
 -2.7928248e-01
 -4.7368021e-03
  8.6344904e-01
 -5.1371747e-01
 -1.7413165e-01
  5.5504721e-01
  2.2852847e-01
 -9.8166907e-01
  3.6014654e-02
  5.9210509e-01
 -1.6649846e+00
 -2.0028791e+00
 -3.3885553e-02
 -1.2457539e-02
 -9.7863030e-01
  4.8194915e-01
  8.2134092e-01
  1.5353123e-02
 -1.2253855e+00
 -8.8632733e-01
  1.9129494e-01
 -1.4950869e+00
  1.4415268e+00
  1.4068229e-01
  1.9420376e-02
  4.8875827e-03
  2.9907195e-02
 -1.8536276e-01
 -1.1355943e-02
  2.2170437e-03
  8.5047609e-01
 -1.2102073e+00
  4.0606940e-03
  6.4333946e-02
  3.6235264e-01
  6.2509310e-01
  4.2220051e-03
 -5.1046363e-03
  3.1011158e-01
 -5.1745164e-01
 -4.6247640e-03
 -1.2971184e-02
  8.0847907e-01
  9.3438572e-01
  2.7828503e-01
  7.7260131e-01
 -2.4488051e+00
 -5.3860390e-01
  5.6123227e-01
  4.9059123e-02
 -2.7254989e+00
 -1.3801105e-01
  2.2779424e+00
 -4.6565864e-02
  7.0106514e-02
  2.8207031e-01
  1.4366318e-01
  9.5834285e-03
  2.0628808e-01
 -2.1165760e-02
 -4.0680286e-02
 -1.2865041e+00
  6.5976924e-01
  1.4442666e+00
 -1.1914290e-01
  6.3731922e-03
  1.2261540e+00
 -9.6071994e-01
 -6.3314331e-01
 -2.3287542e-01
  9.8244310e-04
  1.4519846e+00
  3.0203624e-02
  1.4522816e-01
 -1.8763443e+00
  7.0918810e-01
  2.4172124e-01
  8.8414051e-02
  4.6565819e-01
 -1.3794498e+00
  3.9548287e-01
  4.3734214e-03
  7.6492023e-01
 -1.2232050e+00
 -1.5545646e+00
 -2.8417392e-02
  3.1717414e-01
  2.5650933e-01
 -1.9775318e-02
 -2.6060484e-02
 -2.3296085e-01
  8.4682375e-02
 -1.2354513e+00
 -1.1902519e-01
  7.8510845e-01
  1.7780299e-01
 -7.7571057e-02
  4.9990122e-03
 -4.2208549e-01
 -5.5615437e-01
 -1.9170341e-01
 -2.4173674e-01
  1.6253859e+00
  2.3810770e-02
  3.3823282e-01
  9.9498723e-03
  8.9170223e-01
  1.3747420e+00
 -8.3797884e-01
 -1.7278899e+00
  1.8378222e-02
 -3.5038462e-01
  1.5825732e-02
  5.4806579e-02
 -3.9424978e-02
 -4.6454033e-01
  3.4384407e-02
 -1.4064192e+00
  2.4256676e-01
  1.9566749e-01
 -5.2719522e-02
 -1.6514050e-02
  7.4743904e-02
 -7.6264989e-01
  2.4603911e-01
 -9.4030935e-01
  8.4878671e-01
  5.8487225e-01
 -7.5768816e-01
  4.5556705e-02
  1.0398144e+00
 -3.1230628e-02
 -2.2997758e-01
 -1.8538855e+00
 -5.7144779e-01
  5.5765516e-01
 -1.2426396e-01
 -3.9023781e-01
 -1.5007545e-01
  2.9305823e-02
  1.1942660e-02
  5.1653630e-01
 -5.5703747e-01
  4.9942556e-01
  7.8347504e-01
  1.3544246e-03
  5.5389322e-02
  1.6817716e-01
 -7.5309604e-02
 -5.8399504e-01
 -1.9499347e-01
  1.2366539e-01
 -1.0835693e+00
 -6.6244461e-02
  3.5468340e-01
  6.9945168e-01
  2.3884084e+00
 -2.2414090e-02
 -1.4012884e+00
 -1.0882471e+00
 -1.8245479e-02
  1.2637450e+00
 -1.2943235e-01
 -9.5393375e-02
  7.7176964e-01
  4.8759475e-01
 -6.7331165e-01
 -3.4369570e-01
 -1.4091502e-01
 -1.9698900e-01
  4.7720164e-01
  2.7657470e-03
  2.0411650e-02
  8.7268353e-03
 -4.2627543e-01
  1.6864218e-01
  1.0821163e-02
  1.4781584e-03
 -4.5735246e-01
  1.3800498e+00
 -1.2123406e+00
  1.0818751e+00
 -9.2557210e-01
  1.0350863e+00
  5.0732088e-01
  2.2293832e-02
 -2.8204229e+00
  4.8613664e-02
 -1.0535999e-03
 -1.1577432e-02
 -2.1496172e-01
 -1.0298112e-01
 -7.3226988e-01
 -5.0480116e-02
  2.2865184e-02
 -7.6462013e-01
 -1.6176552e+00
  6.1307345e-02
 -9.4130790e-01
 -1.2742946e-01
 -5.6303638e-01
 -1.6900824e-01
  2.6698568e-01
 -2.2949837e-01
  1.1758456e-01
  5.5591071e-01
  9.2140362e-02
 -1.0198016e+00
  6.5623313e-01
 -1.3892917e-01
 -3.2206529e-01
  7.7633992e-02
  1.5724142e+00
 -3.4066257e-01
 -4.2024809e-01
 -7.9493654e-01
 -2.0928466e-01
 -4.6684298e-01
 -6.3050580e-01
  1.2918794e-01
 -5.7986904e-02
 -2.5318189e-02
 -1.5838643e+00
  1.3465384e+00
 -1.6377844e-01
 -1.6191501e-02
 -3.8631397e-01
  4.7512877e-01
  1.4853190e+00
  1.8096211e+00
 -1.4000953e+00
 -6.7782605e-01
  5.9784651e-01
  4.3328789e-01
  8.9087749e-01
  4.3345116e-02
  1.8658348e-03
 -4.8257308e-03
  6.7086500e-01
 -2.3259394e-02
 -1.3931310e-02
 -4.1712192e-03
  5.3536676e-02
 -7.5247532e-01
 -8.5651350e-01
  1.0088773e+00
  1.4870621e+00
  6.0492986e-01
  2.1455275e-01
 -9.0174608e-02
  2.6441641e-02
  2.0244367e+00
 -5.9844095e-01
  2.0311121e-02
 -8.1442833e-01
 -3.5996670e-01
 -2.5323057e-01
  2.4691238e-03
  1.1578199e-02
 -3.3239836e-01
 -1.7685329e-03
 -8.6507827e-01
  1.2469593e+00
  6.6032700e-02
 -1.3533466e+00
  1.9634610e-01
 -2.9406813e-01
  1.3354698e+00
  2.1437320e-01
 -3.7054133e-03
 -1.5893465e+00
  1.1404847e-01
 -1.6536661e-03
 -3.7060038e-03
  1.4896826e-01
 -5.7142997e-01
  2.0421550e+00
  4.3900189e-01
 -5.3498226e-01
 -7.7472679e-02
 -9.1196185e-01
  7.9313489e-03
 -4.4778824e-01
  1.5785065e+00
  2.3388571e-01
  1.7229481e-02
 -1.5321130e+00
 -1.1042592e-02
 -1.7683409e-01
 -2.2071911e-02
 -5.9463286e-01
  1.1402784e-01
  1.7483921e+00
  2.5153408e+00
 -8.1608526e-02
  2.2904513e+00
  5.6843087e-02
  3.7871259e-01
 -2.6651570e-01
 -1.1550841e-01
  5.8003563e-01
  4.2196915e-01
 -4.5363566e-01
 -4.2141557e-01
 -2.3989508e-01
 -5.7379021e-03
 -1.6867284e-01
 -1.1501938e+00
 -3.5725936e-01
 -1.5224594e-01
  1.7789537e-01
  2.4997698e-02
  8.8921320e-03
  8.7052127e-03
  1.0958408e+00
  3.9814580e-03
 -2.0784687e-03
  2.5155781e-05
  7.5238146e-02
  1.3324581e-02
  2.1869109e-03
  2.5335916e-03
  5.8605063e-01
  3.7398240e-01
  6.8908706e-03
  5.6503080e-03
 -3.4636024e-01
 -5.2118421e-01
 -5.1354943e-03
  7.7042361e-03
 -1.3342083e-01
  5.6977141e-01
  3.9211571e-01
  4.7012547e-01
  1.0851691e+00
 -5.4460660e-02
 -2.9069966e-01
 -8.5230556e-04
  4.5703620e-01
 -7.8576094e-01
  5.5127352e-01
  6.8792647e-01
  8.9856458e-01
  1.6605330e-01
  4.7919768e-01
  6.8321335e-01
 -7.2990489e-01
  1.3320661e-01
  5.4026282e-01
  3.3216938e-02
 -3.8180086e-01
  6.2867299e-02
 -1.7884369e-03
 -1.1341183e-02
  7.3465610e-01
 -4.8073870e-01
  6.3440964e-02
 -7.5621921e-01
 -3.4695502e-02
  3.5541299e-01
 -3.7488994e-01
 -6.4589038e-02
 -1.4234761e+00
  1.2983119e-01
  4.3293685e-03
 -5.1725196e-04
  1.3932304e+00
 -3.2846957e-01
 -5.9045327e-01
  8.6344816e-02
  1.4788291e+00
  1.3261051e+00
 -3.5301939e-01
 -9.4308355e-04
 -6.2211275e-01
 -8.3793920e-01
  4.4641829e-01
  1.7812398e-01
 -1.8590450e-02
  7.7876687e-01
  4.0901026e-01
  6.9454126e-02
 -5.1484030e-01
  1.7514150e-01
  2.0084167e-02
 -8.7561441e-04
 -4.9348676e-01
  1.3144624e+00
  1.8539801e+00
  4.9134552e-01
 -1.0293907e+00
  3.1564486e-01
  6.1696200e-03
  1.5404128e-03
 -6.5593863e-01
 -4.5685819e-01
  3.2717197e-03
 -2.6045846e-02
 -2.1102352e+00
  2.0303081e-01
 -6.1906677e-01
 -4.0009256e-02
  7.0439696e-01
  1.0599737e+00
  1.0541850e+00
  1.5701748e+00
 -2.6097143e+00
  4.7381550e-01
 -6.2230737e-03
  4.1413179e-01
  1.3580516e-01
 -8.0990416e-01
  8.8066632e-01
  4.4130474e-01
 -1.1280550e+00
  2.0949878e-01
  4.5587975e-03
 -1.2894828e-02
  2.5813180e-01
  3.5955575e-01
  4.6237922e-01
  5.2822322e-01
 -3.3901215e-01
  2.3916444e-01
  6.1629319e-01
  4.6233055e-01
 -3.9158088e-01
 -2.1266440e-01
 -1.5307644e-02
  4.6241675e-03
  1.9510409e-01
 -2.9280484e-02
 -1.9388045e-01
 -6.9746249e-03
 -8.4401025e-03
 -1.0032244e-01
 -3.5729820e-01
 -1.7499901e-01
 -7.3938513e-01
  3.1029543e-01
 -1.6497174e-01
 -3.8455769e-03
  1.1175993e-01
 -2.9449290e-01
 -1.3409836e-04
 -1.7105277e-03
  4.2939126e-01
  8.6778089e-02
 -1.2151950e-02
 -3.2545342e-03
  9.4398308e-01
 -1.3759004e+00
  4.3434316e-01
  3.8989726e-01
 -2.3576303e+00
  5.1949138e-04
 -1.5431566e-02
 -1.3604039e-02
 -5.7678097e-03
 -2.4474959e-03
  4.6646772e-03
 -1.3636496e-03
  4.1372132e-01
 -4.4598342e-03
  2.5168017e-03
  7.7394093e-03
 -3.1036417e+00
  2.9215448e+00
  4.8182657e-01
  7.9601765e-01
 -1.2014469e-01
 -4.8627220e-03
 -4.0542195e-03
  1.9745396e-04
  4.5275176e-01
 -1.2769389e-02
 -1.1819305e-03
 -8.1873849e-02
 -3.4203461e-01
 -7.2185345e-02
 -1.8102091e-02
  3.7544770e-03
 -5.6267348e-03
  8.5315770e-01
  1.2581897e-01
  1.5282409e+00
 -7.9262495e-01
 -2.9544665e-03
 -3.1302834e-01
 -2.2887425e-02
  6.1599261e-01
 -2.1819411e-01
  2.4388914e-03
 -1.1509010e-03
  5.9705943e-01
  1.6035650e-02
 -6.9735147e-04
  2.7367296e-03
 -3.6955130e-01
  1.1045296e+00
  1.7664359e+00
  8.1292218e-01
 -5.4967010e-01
  1.3983318e+00
  1.2097551e-02
  7.8349682e-03
  1.5681253e-03
 -2.1056922e-03
  1.7042272e-02
  3.5041885e-03
  9.9926984e-01
 -1.9772970e-03
 -5.2986909e-02
  2.1057320e-03
 -1.2087546e-01
  2.7253655e-01
  1.1829553e-01
  1.2269922e+00
  2.2684500e+00
 -4.2116027e-02
 -4.2286266e-02
 -1.0013860e-02
  1.3063334e-01
 -4.0006647e-01
 -4.6047289e-03
  1.6475251e-03
 -1.3673487e+00
  3.1741918e-03
  9.3985945e-03
  7.2327531e-03
 -1.4273018e+00
  3.2110000e-01
  6.6200984e-01
 -5.4363990e-01
  8.7193346e-01
  1.0600401e-01
 -1.4711514e-01
  7.5039314e-03
 -6.6922173e-02
 -9.9543873e-03
  2.2460305e-04
 -7.3441420e-06
  5.0181067e-01
  1.1464953e-01
 -8.8654561e-03
 -7.2268639e-03
  8.3502311e-01
  5.7106528e-02
  8.9725953e-01
  1.1376003e+00
  2.5670636e-01
  7.8199828e-01
  5.2078469e-03
 -1.1737013e-01
  1.3991700e-02
 -7.3530892e-04
 -3.3829596e-03
 -1.6858958e-02
  1.4034445e+00
  4.6642908e-01
  6.0796733e-03
  5.5128051e-04
 -2.6341639e+00
  2.3480612e-04
  1.1577973e+00
  7.9195070e-01
  3.9041290e-01
  5.0294733e-01
 -2.3425448e-01
 -3.7981018e-03
 -6.2038326e-03
 -1.3180192e-01
 -1.3966705e-02
 -2.4941850e-03
  4.1326341e-01
  1.9487930e-02
  8.7249251e-03
 -5.0702160e-03
 -6.4139128e-01
  1.9617576e-02
 -4.1957763e-01
  3.4613755e-02
  2.8232893e-01
  1.8570367e-01
 -1.8044915e-03
  2.3319189e-01
 -2.6759234e-01
  3.0249739e-01
 -8.2150930e-01
 -2.5585201e-03
 -2.0346545e-01
  1.1274920e+00
 -2.6656199e-02
 -5.5290950e-03
 -6.0744274e-02
 -1.8716455e+00
 -1.3110390e+00
  9.4015837e-01
 -3.5752457e-01
  1.0584726e-02
  3.2689963e-02
 -1.8586606e-02
 -6.1505878e-01
  6.9010071e-03
 -8.9089602e-04
 -1.2288379e-03
 -4.3162346e-04
  2.9939919e-04
 -8.0568865e-03
  2.3819664e-02
 -8.5482337e-02
  2.2941253e-01
  1.1082164e-02
  8.0896735e-01
 -8.5101271e-04
  5.3281750e-04
 -1.7643187e-04
  3.9958021e-01
 -6.4323009e-03
 -3.0454479e-03
  6.8295831e-03
 -1.4572991e-03
 -1.9590619e-01
  1.1390851e-01
 -2.6808175e-01
  1.4326047e-03
 -3.1593326e-01
  2.3025607e-01
 -6.2838728e-03
 -1.6038544e-02
  1.5214658e-02
  4.3618623e-02
 -2.4227434e-01
 -1.5449414e-02
  7.4950524e-02
  4.0198681e-01
  5.7962938e-04
 -1.4401644e-02
 -1.5934287e-01
 -1.0032305e-01
 -9.2301471e-03
 -7.6198107e-01
 -1.5489866e+00
  8.8639981e-01
  1.1944739e+00
  1.0228255e+00
 -9.7381157e-01
  4.5619978e-04
  5.3845782e-02
  5.0163545e-02
  3.9651647e-01
  9.5976010e-02
  1.2116129e-02
 -1.9145526e-02
 -2.4098044e-02
  1.4597072e-01
 -5.7926756e-01
 -2.1976730e-02
 -1.6363506e-01
  8.6559165e-01
 -7.2108144e-01
  1.4305300e+00
  1.1435709e-02
  1.0915144e-01
 -2.8113473e-02
  1.0391220e-01
 -2.2246552e-01
  1.3727948e-01
  2.8223658e-03
 -8.4604565e-03
 -4.4444561e-01
 -1.4675227e-01
 -1.2949263e-02
  3.9243459e-04
 -5.6953776e-01
  7.7197957e-01
  5.9225734e-02
 -4.6627438e-01
 -3.1193140e-01
  5.4877025e-01
 -1.0460109e-02
 -8.5949086e-02
 -1.5019459e+00
  3.2155409e-02
 -3.1964090e-03
  3.5153073e-01
  2.1371813e-01
 -3.4942922e-01
  1.1561500e-02
 -7.5005641e-04
  4.3947148e-01
  3.6820835e-01
 -9.8737419e-01
  9.1252190e-01
 -2.9923592e-02
  3.7325403e-01
  4.3209646e-02
  6.7917472e-01
 -5.3361660e-01
  2.7133729e-03
 -1.3103049e-02
  2.2383722e-02
 -4.7248167e-01
  8.1798822e-01
 -1.3940744e-01
 -2.8079892e-02
  2.3155140e-03
  1.8735848e-01
 -4.2781755e-01
  8.8213325e-01
  4.9939355e-01
 -5.2356426e-02
 -3.9744785e-01
  1.9496529e-01
  1.7896153e-02
  6.5539694e-01
  8.4679630e-03
 -2.6856348e-02
  2.2140396e-01
 -2.6763117e-01
 -8.1918258e-03
 -1.3702770e-03
 -1.0142103e+00
  1.8255731e-01
 -4.1264343e-01
  1.0918928e+00
  6.3946939e-01
  4.9039368e-02
  1.8007021e-02
  5.9033122e-02
 -6.6380441e-01
 -7.2544038e-01
 -6.0778931e-03
  4.6678305e-01
  1.3213344e+00
 -8.2191639e-02
 -3.2074416e-01
  2.5033136e-04
  8.0918723e-01
  1.7603111e-02
  8.3402449e-01
  8.5343190e-02
 -6.3822818e-01
 -3.9729668e-04
 -8.4416009e-03
  6.3430749e-02
 -3.1282631e-01
 -1.0734456e-02
  2.1583198e-02
  8.6343680e-03
 -2.2025220e-03
 -1.2161371e-02
 -7.3634699e-04
  4.8937323e-03
  7.1444386e-01
  9.5822059e-02
  1.2924685e+00
  2.1530247e-01
  1.1144674e-02
  1.7863410e-02
 -1.2883916e-01
  7.4524586e-03
  7.1918970e-01
 -8.7105858e-01
 -6.6266174e-04
  2.4374343e-01
  7.5888777e-01
  8.7190233e-02
 -8.8550530e-02
  4.4784406e-03
  1.1270278e+00
  1.4592731e+00
  8.5288382e-01
 -4.2656544e-03
  1.2566327e-01
 -2.7522931e-01
  4.4869962e-01
  1.2288471e+00
  3.2053384e-01
 -2.5632815e-02
  1.6200001e-03
 -1.1943883e-03
  9.5428534e-02
 -2.1235149e-01
  1.5962234e-03
  1.5441268e-03
  2.0718767e-01
 -1.9465268e-01
 -2.2355895e+00
  6.9324625e-01
 -7.7946746e-01
  1.4366471e-02
 -2.2671612e-01
 -2.1979131e-01
 -1.4863173e+00
 -2.9822370e-01
 -3.0722609e-03
  4.2412329e-02
  3.6840365e-04
  7.5805503e-01
 -1.9602768e-02
 -5.3172064e-04
  2.0760033e+00
  6.4045250e-01
 -5.3112549e-01
 -1.6622007e-01
 -8.7950826e-01
 -1.2534790e-01
  6.3546550e-01
  5.1654685e-01
  5.7602972e-01
 -6.3823628e-01
  9.6310303e-03
  6.8092585e-02
  7.2462970e-01
 -3.2985285e-01
 -2.3786984e-01
 -4.1686506e-03
 -4.8880434e-01
 -3.7460253e-01
 -2.0780226e-02
  1.0584397e+00
 -7.5861210e-01
  5.7200658e-01
  4.2935569e-02
  3.1371397e-01
  2.4599972e-01
 -2.6997748e-01
 -3.0674387e-04
 -8.9909872e-03
 -1.9843000e-01
 -1.6197771e+00
 -6.2217605e-03
 -4.5444440e-02
 -6.5984529e-01
  3.6266655e-01
 -1.4796435e+00
 -2.0871246e-01
 -2.1737537e+00
 -1.5695801e-02
 -1.2791476e-01
 -3.6966555e-02
 -1.1593366e+00
 -3.2749030e-01
 -1.6886959e-02
  2.5563836e-02
  2.8445438e-01
 -9.7860798e-02
 -3.4071079e-01
 -1.2108759e-02
  1.8509429e+00
  5.8271229e-01
 -5.6903267e-01
 -1.9547036e-02
 -9.0628308e-01
  5.8989767e-02
  5.1264983e-01
  2.0562516e-01
 -1.9848673e+00
 -4.2685955e-03
  4.7801882e-03
  1.0616027e-03
  3.7202328e-01
  3.7741733e-01
  3.0817105e-03
 -3.5409912e-02
  1.2584897e+00
  8.6901432e-01
  1.5969799e+00
  1.3549684e+00
 -1.0411041e-01
 -2.7688112e+00
 -3.5610682e-01
 -3.3377628e-03
 -2.1577068e-01
  2.9608836e+00
  5.9400070e-01
  9.3581533e-01
 -6.2647092e-01
 -5.8071768e-01
 -8.8265103e-01
 -1.2595179e-02
  1.3603160e+00
 -7.1762852e-02
  7.6480544e-01
  8.0132222e-01
 -2.2990435e-01
  1.5478091e-02
 -1.1833992e-03
 -4.8239338e-03
  2.4737474e-03
  8.9328419e-03
  2.3409862e-03
 -1.5534789e-03
  2.3710817e-01
 -6.5242320e-02
 -1.4067462e-02
  7.3636728e-03
  3.1356548e-03
  1.2560563e-01
 -4.7310509e-04
  1.2345430e-02
 -1.3205477e-03
  4.6128321e-01
  1.8262963e-03
 -5.1130545e-03
  9.9183273e-01
 -3.4603783e-01
  4.8912117e-01
  7.6354426e-01
 -2.6402581e-01
 -5.0836968e-01
 -3.8882774e-01
 -4.2430806e-04
  4.4913918e-02
  7.0748096e-03
  4.5120919e-01
  1.9366843e-01
 -2.7434579e-01
  1.5638908e+00
 -2.4446227e-02
 -1.9583312e-01
 -7.4856237e-02
  3.0975282e-01
 -8.0188742e-04
  2.2922827e-01
  2.0584373e-01
 -3.1593746e-01
 -1.3888742e-01
  1.2895433e-03
  5.0396222e-01
  2.8901082e-01
  1.2285803e-01
  1.9234416e-01
 -3.7659666e-01
  2.1318708e-02
 -2.4681028e-03
  5.6016825e-02
  2.5089493e-01
 -3.1677485e-01
  1.8760628e-01
  9.5407357e-03
  6.1293387e-01
  1.2721484e+00
  3.1477522e-02
 -3.5648784e-03
  2.6511973e-01
 -4.1834373e-04
 -1.4246686e-03
 -3.5413414e-01
 -1.2335788e-02
  4.3036860e-01
 -2.2064615e-03
 -1.9332878e-02
 -5.8489799e-01
 -6.7271757e-01
  1.6482066e-02
  1.0805017e+00
 -5.0369012e-01
  4.3695736e-01
 -1.7139767e+00
 -9.3004378e-03
  6.5289026e-01
 -5.8413148e-02
  3.2434653e-02
 -1.3930428e-01
  4.1191372e-01
  5.8506918e-01
 -1.4068763e-02
  1.2649794e-04
 -7.0932567e-01
  5.8179736e-01
  1.3818948e-01
 -3.9563168e-02
  9.5391458e-01
 -1.1364672e+00
  2.7379718e-01
 -4.7159898e-03
 -5.4943407e-01
 -1.0159422e-01
 -7.8725946e-01
  1.6126897e+00
  5.2293891e-01
  4.0090278e-01
  9.5154336e-03
 -4.7295801e-03
 -1.4078177e+00
 -1.4366395e+00
  1.0065934e-01
  1.3308368e+00
  7.8017837e-01
  1.8852578e-01
 -1.3176800e+00
 -2.2218588e-03
 -1.3382207e-01
  2.7661180e-01
  6.6804641e-01
  3.3153662e-01
 -7.6939352e-02
  1.2607221e-01
 -1.1486393e-01
 -1.5465039e-04
 -5.0170451e-01
 -4.0156436e-01
  2.5780998e-02
 -7.8157587e-03
  3.9377224e-02
  3.0948812e-01
  2.3395259e-02
 -3.4001519e-03
  7.0588982e-01
  5.2851254e-01
  1.8083862e+00
  5.8274370e-01
  2.1176583e-01
  5.0103955e-02
  5.0103955e-02
  5.0103955e-02
  5.0103955e-02
  5.0103955e-02
  1.5609963e-01
  1.5609963e-01
  1.5609963e-01
  1.5609963e-01
  1.5609963e-01
  8.4405415e-02
  8.4405415e-02
  8.4405415e-02
  8.4405415e-02
  8.4405415e-02
  4.5280520e-02
  4.5280520e-02
  4.5280520e-02
  4.5280520e-02
  4.5280520e-02
  1.5940692e-02
  1.5940692e-02
  1.5940692e-02
  1.5940692e-02
  1.5940692e-02
  8.2015425e-02
  8.2015425e-02
  8.2015425e-02
  8.2015425e-02
  8.2015425e-02
