nep4_zbl 4 Li La Zr O 
zbl 0.9 1.8
cutoff 6 4 95 30
n_max 4 4
basis_size 8 8
l_max 4 2 0
ANN 30 0
 -3.7475314e-03
  1.9209690e-03
 -5.4835943e-03
  9.3842588e-02
 -2.1177093e-03
  1.4324777e-01
 -1.7580918e-04
  4.5760372e-03
  1.4288480e-02
  1.6119340e-03
  3.8984802e-03
  1.6787053e-03
  3.0208614e-03
 -1.1813986e-02
 -6.8963061e-05
 -1.8815933e-03
 -3.1628634e-03
  2.1442818e-03
  2.5797363e-03
  9.8667304e-05
  8.2598696e-04
  3.9971888e-02
 -7.8454101e-03
  3.4125922e-03
 -1.5103843e-04
  4.3081269e-03
 -1.1318909e-03
  1.0142521e-03
  6.3915591e-05
 -1.3452111e-04
 -4.7171074e-01
  1.6225254e-02
 -4.8984468e-02
 -7.9888761e-02
 -1.0819702e-03
 -1.0085018e-01
 -1.5224781e-03
  1.2175079e-03
  3.2758649e-04
 -6.8424502e-04
 -3.2598882e-03
 -1.4723552e-03
  1.8405778e-02
 -1.1977230e-03
  2.7820063e-03
  1.2396649e-03
  1.5634522e-02
 -6.2181900e-04
  3.8096700e-03
 -6.7017600e-02
 -2.8799934e-04
 -7.6758221e-02
  2.5998543e-03
 -3.3684610e-03
 -9.6788385e-04
 -1.3577407e-03
  1.9699597e-01
 -2.1726147e-03
  4.8021758e-03
 -3.1413350e-03
 -4.3689439e-01
  3.7898979e-01
  1.7064905e-02
 -1.0664329e-01
  8.2978401e-03
  5.3950124e-03
 -1.8254170e-01
 -6.0095090e-01
 -2.9386169e-01
  5.4742204e-04
  3.5913958e-04
 -5.1543236e-02
 -1.5794753e-01
 -3.1128833e-01
  7.4171525e-01
 -1.3311252e-01
 -7.7674334e-04
 -2.7644917e-01
 -2.4117727e-02
  1.5178494e-01
 -5.4768313e-02
  2.4782284e-01
 -1.3288412e-03
 -9.4235040e-02
  2.2510004e-01
 -1.4647064e-03
  1.5512613e-02
  9.5147826e-02
 -2.8894160e-02
  1.1986135e-02
  4.8367316e-03
  6.8258966e-04
  1.4203375e-02
  1.1322849e-03
 -5.4077612e-04
 -6.0255001e-03
 -1.0805120e-02
  2.3748192e-03
 -2.1092284e-03
 -1.8789759e-03
 -3.9999126e-03
 -1.6265900e-03
  1.0975602e-04
  1.6673295e-03
 -3.4235979e-03
 -2.0782300e-03
 -2.7732999e-04
  9.3643470e-03
  6.9035584e-04
 -1.2715941e-03
  1.6178970e-03
 -2.9408215e-03
  3.1733369e-03
  1.8002229e-02
 -1.9054448e-03
  2.3475552e-03
 -4.7803791e-03
 -1.0973957e-03
 -7.9196095e-03
  4.8741708e-03
  3.1658940e-02
 -1.5082860e-02
 -2.2642454e-03
  3.8899884e-02
 -4.4883583e-03
 -4.9185261e-02
  3.6950917e-03
 -3.1449036e-03
 -1.5569417e-03
  2.6577163e-02
  4.2734724e-03
  1.1290120e-02
 -9.1308516e-01
 -1.9204268e-03
  3.3445002e-03
 -1.1062768e-03
 -1.2237029e-03
 -1.7157976e-03
  4.7360663e-04
  2.4880195e-02
 -6.6333222e-03
  4.2007029e-02
 -2.4881328e-03
  7.8301458e-04
  1.8095243e-03
  1.2038824e-03
 -1.7045486e-03
  5.6921825e-04
  1.0508231e-03
  3.2398302e-02
 -2.8682186e-03
 -1.5638845e-02
 -9.7985476e-01
 -5.4993317e-04
  2.1676800e-01
  1.3243736e-03
  1.4374708e-02
  3.7592583e-04
 -2.2092462e-03
  5.2198645e-04
  7.1922368e-03
  3.6542513e-03
  4.1045630e-03
 -9.7674932e-03
  7.2240878e-06
 -2.1066391e-03
 -1.4526596e-03
 -5.6339282e-04
 -1.4162129e-01
  1.1176183e-02
 -9.1969986e-03
 -1.7228066e-03
  1.0329705e-03
 -1.4875979e-04
 -1.7561649e-03
 -6.7389021e-03
 -3.2596609e-03
  4.6766959e-03
 -6.1313310e-03
  3.9412719e-03
  7.9623468e-02
 -4.7798129e-03
  9.7512687e-03
  8.4144548e-03
 -8.3122530e-04
 -7.8004971e-04
  1.1405176e-02
 -1.1599090e-02
 -2.1138375e-03
  4.0997460e-04
  4.2586313e-03
 -2.1264756e-03
 -2.7677747e-03
 -3.7202530e-03
  3.8669698e-03
 -8.7369391e-04
 -3.1965261e-04
  1.4587288e-03
  3.0761102e-04
 -1.0562299e+00
  3.0311770e-03
  4.7121994e-04
  4.6667191e-03
  8.9221727e-03
  6.2447186e-03
 -3.9409078e-03
 -1.9558764e-03
  4.7258572e-03
 -6.3508796e-03
 -7.6370393e-03
  4.2473397e-01
  2.7086980e+00
 -4.3716999e-03
  1.3438622e+00
  3.5713238e-03
  1.0090359e-03
  1.0425219e-03
  1.0709322e-02
  5.8597314e-05
  2.5783170e-03
  8.8103516e-03
 -4.0563075e-03
  1.6320601e-02
  1.6990378e-04
 -2.6635081e-03
  1.9551018e-04
  2.6684257e-03
  1.8698985e-03
 -5.1507065e-03
 -6.5522157e-03
  7.7254828e-03
 -1.0658762e-03
 -5.1028421e-03
  1.1078114e-02
 -1.0321740e-01
 -4.8776139e-03
 -2.9225261e-03
 -1.7680955e-03
 -1.6044306e-03
  5.4483828e-03
 -7.4422359e-03
 -4.3664863e-03
  9.6002932e-06
 -5.2475023e-01
 -6.8606036e-03
  1.9292023e-03
  1.4229972e-03
  4.9816510e-03
 -1.0774711e-03
 -5.4457048e-03
  1.3400121e-03
 -2.1995552e-01
 -3.5417762e-03
  3.2711984e-03
 -1.1243151e-03
 -9.9765947e-03
 -2.6710576e-03
 -8.0725329e-04
 -2.7674118e-03
 -1.6482314e-02
 -2.5063949e-03
  9.7352522e-04
 -3.1010527e-03
  5.4418007e-03
 -1.6427831e-03
 -2.4906201e+00
  2.2080276e-04
  1.0635929e-04
 -1.5066096e-03
 -8.8317378e-04
 -1.8915990e-01
  1.2124227e-01
 -1.1679758e-02
 -4.1780353e-01
 -3.1964767e-03
  3.2443847e-03
  1.9413186e-02
  1.2181923e-02
 -1.1800709e-03
  2.5787696e-04
  2.2001160e-04
 -4.9021584e-04
  7.0823610e-02
  1.2328818e-02
  1.3625792e+00
 -1.3229435e-03
 -3.1000585e-04
 -1.0961420e-01
 -1.8617701e-02
  2.3224594e-03
  8.3858175e-03
 -7.3777232e-03
  3.1770818e-04
  1.1815166e-01
  4.3097842e-03
 -5.7316381e-03
 -1.5584088e-04
  2.3448800e-03
 -1.1256278e-03
  5.2434039e-05
  2.9804558e-03
  9.8809018e-04
 -5.9874030e-03
  6.4951345e-02
 -7.5368001e-04
  4.3564681e-03
 -1.3326990e-04
 -1.5271070e-03
 -1.1808884e-03
  2.6737781e+00
  9.1522187e-03
 -1.9606224e-03
 -6.8042183e-04
  5.7454867e-04
 -1.2300112e-02
  2.1798497e-03
 -2.1380710e-04
 -2.5351560e-03
 -1.1653167e-02
  4.4995560e-03
 -5.5491733e-03
  9.1166951e-04
 -2.2883425e-03
 -3.9446619e-04
 -5.4287305e-03
  1.8866143e-04
  1.2319416e-03
 -1.2996580e-02
 -8.7366957e-04
  6.4871632e-03
  8.3910540e-04
  2.5443728e-03
 -2.1350157e+00
  1.7926905e-04
 -4.0514953e-04
  1.4738702e-03
 -2.9398045e-03
  4.0231603e-03
 -2.3133927e-03
 -1.2135685e-03
  3.7902591e-03
 -1.0570894e-02
  2.3460573e-04
  3.0169867e-03
 -4.2943619e-03
  3.4782554e-03
 -1.8483547e-03
  5.8558411e-03
 -1.7373130e-04
  1.8843060e-03
  6.5797823e-03
  3.9518583e-03
  5.4515069e-03
 -4.9043405e-03
 -1.6589892e-03
 -4.8844721e-03
 -1.1251800e-03
 -6.6835680e-03
  4.3931878e-03
 -9.3101681e-04
  1.5733557e+00
 -2.9038971e-03
  1.7918409e-01
 -4.3385275e-04
 -3.8006192e-04
 -5.7760477e-01
  2.6299161e-01
  2.3689397e-02
  6.6750436e-03
 -6.9213863e-03
  3.9595455e-02
  5.1406008e-04
  6.8023711e-02
  1.6322953e-01
  1.2543672e-01
  3.5887491e-04
  1.2439045e-03
  1.0122325e-02
  8.5712716e-02
  6.4101475e-03
  2.9961526e-04
 -2.8242305e-02
 -1.0673028e-01
 -5.8213137e-03
 -2.4993353e-01
 -1.1047629e-03
 -4.8334980e-03
 -1.4222532e-03
  5.1597966e-04
 -7.2676521e-05
  6.8198740e-01
  1.2042291e-02
  1.4203271e-03
 -1.7466344e-01
 -1.1307135e+00
 -2.2908191e-01
 -2.9613381e-02
  2.3676601e-01
 -4.1497502e-02
 -2.2820141e-03
 -8.0292694e-02
 -2.8130162e-01
  2.8959045e-01
  2.6835781e-03
 -2.2761071e-02
  7.8981519e-02
 -3.6369619e-01
  6.9827460e-02
  2.5225037e-01
  1.0532332e-01
  3.2702464e-01
 -3.5637286e-01
 -4.6939217e-03
  8.3960608e-02
  2.5480546e-02
 -2.1027979e-03
  2.0119905e-02
 -1.4209943e+00
 -1.5797058e-01
 -2.4277365e-03
 -7.2395462e-01
  8.8626711e-04
  9.7863600e-03
 -2.2438497e-03
  2.2872880e-03
  1.5136899e+00
 -2.5399385e-03
  1.6460994e-03
 -4.0823147e-03
  3.6066703e-03
 -2.8316892e-04
 -6.1411726e-01
 -8.9252193e-04
  9.2773809e-04
 -4.4419765e-03
  1.0079616e-03
 -8.9930724e-03
 -1.0849518e-01
  1.8207908e-01
  3.4000797e-03
  2.0524501e-04
 -3.1798740e-03
 -1.9194332e-03
  5.6284945e-03
 -1.3514220e-03
  1.2576127e-03
 -2.1908591e-04
  1.3111014e-03
  2.0136971e-03
 -7.5725775e-04
 -3.7881443e-01
 -2.5002885e-01
  1.4338258e-02
  5.6400919e-01
 -2.7835652e-01
  5.3667207e-03
  1.7362128e-01
 -1.4075918e-02
  6.8789318e-02
  1.3524849e-03
 -3.1047657e-03
  2.5099164e-01
 -8.4265798e-02
  7.1602887e-03
  6.2375508e-02
  8.8445038e-01
  1.8172009e-03
 -4.0234827e-02
 -1.6057003e-01
  7.0992315e-01
 -1.5899183e-01
  2.2754858e-01
 -2.5086911e-04
 -2.8165400e-01
  1.8764446e-03
  2.4881463e-01
  1.8732788e-03
 -3.1432905e-03
  5.3478777e-03
 -9.0866868e-04
  1.6313887e-01
  1.6510583e-02
  4.3478023e-02
 -4.8990920e-01
  1.8314894e-03
  1.6800801e-03
 -1.6001653e-03
  2.4903209e-03
  2.6759362e-01
 -3.2208026e-03
 -2.3683535e-03
 -1.1500218e-01
  1.1162714e-03
  2.9805433e-03
  3.6904409e-03
  2.4488331e-03
 -3.5894522e-03
 -1.6015965e-03
  3.8365710e-03
 -1.2559353e-01
  1.5912084e-04
 -2.4553183e-03
 -2.7390391e-02
  1.1648390e-02
  3.4114555e-03
  5.6200163e-03
  1.7811592e-04
 -6.0899758e-05
  3.8525515e-04
 -3.9307849e-04
 -1.5085883e-03
  3.3065379e-03
 -1.3569411e-03
  1.4276037e-03
  4.0024738e-03
  1.1884138e-03
  1.4652299e-03
  4.6522869e-03
 -1.2019159e-03
  1.1436787e-03
  1.0911375e-02
 -5.0476082e-03
 -7.8007635e-03
  1.5657399e-03
  3.2021318e-02
 -2.2308368e-03
 -3.7737301e-04
  1.6736607e-03
 -2.0994307e-03
  4.3221650e-04
  2.9757633e-03
  3.6496209e-04
  1.3751305e-03
 -3.5107995e-03
  5.7335285e-04
  1.1907510e-02
 -4.6583355e-04
  2.7561765e-03
 -1.5703903e-03
 -1.1945223e-03
 -7.8946752e-03
 -2.2582544e-01
 -9.5935864e-03
  5.3759590e-03
 -1.7355887e-03
 -6.2137276e-01
  4.6701818e-03
  1.0274392e-01
 -1.3454368e-04
 -4.1316241e-02
 -1.3238273e-03
  2.5429949e-03
 -3.7360415e-01
  2.7179460e-03
  4.1879766e-02
  1.6912165e-03
  2.6934734e-03
 -2.3720001e-03
 -3.8808461e-02
  1.9870888e-02
  3.2880516e-03
  5.8252141e-03
  4.0979739e-03
 -3.1032125e-03
  1.5250972e-02
  1.7103408e-03
  2.5411677e-03
  7.9071353e-04
 -7.0539024e-04
  2.0957869e-03
  1.2493422e-01
  2.1853268e-03
 -5.6114841e-02
  1.0068167e-02
 -4.5751273e-03
 -4.2054607e-03
  3.9621540e-05
  1.3799310e-03
 -1.6855422e-03
 -2.5871480e-03
  9.0595344e-03
  1.2980872e-02
 -8.7367026e-03
 -4.4341506e-03
  1.6839055e-03
  5.0801332e-03
  5.8177306e-05
  3.6667644e-03
 -7.9517893e-05
 -1.8564942e-03
 -2.6977763e-03
 -2.0606276e-01
 -5.6821746e-01
  2.7088783e-04
  2.4432759e-03
 -2.5228488e-03
 -3.6565464e-03
  2.0543195e-03
  1.5952767e-01
  5.5859024e-03
  6.8933058e-01
  1.5929511e-02
  5.5360743e-03
 -1.8637186e-03
  4.5629432e-03
 -1.5012577e-02
  3.8982081e-04
  4.6741865e-03
 -4.6918094e-03
 -3.3586719e-03
 -1.8739881e-01
 -1.0044148e-02
 -8.4660883e-04
  3.0774367e-01
 -3.7749218e-05
  5.0457688e-03
 -1.5425359e-02
  2.6671097e-03
  5.8538023e-02
  5.2089156e-03
  4.7309217e-03
 -3.4785678e-03
 -2.4862630e-02
  9.5606275e-04
  6.2176962e-03
 -3.7384738e-04
 -4.2077096e-04
  1.3994816e-03
 -3.9416454e-03
  6.2237430e-04
 -1.5800726e-03
 -1.6046740e-04
 -1.5624583e-03
  2.7930317e-03
 -4.6378067e-03
  3.1050658e-03
  1.1839871e-03
 -5.2787103e-03
 -2.5385545e-05
  1.2905637e-03
  3.7529501e-03
  2.4066237e-03
 -2.6459307e-03
  3.6736665e-04
 -4.8591732e-03
  3.1101091e-03
 -1.0696978e-02
  2.8980917e-03
 -7.6411309e-04
  2.4160903e-05
  4.4250814e-03
  6.7927955e-05
  8.4166753e-01
 -1.1445067e-03
 -2.0839048e-03
 -5.3190556e-03
  1.0952555e-04
  1.7474029e-03
 -1.5126108e-03
  3.3359816e-03
 -5.1229768e-02
 -2.8983871e-02
  3.1881349e-04
  2.6530740e-01
  5.0980703e-04
  1.0869146e-03
  1.5034781e-02
 -2.7959193e-03
 -5.6798100e-03
 -1.9400668e-03
 -2.0462282e-03
  2.1448073e-03
 -5.6938652e-02
  4.4961306e-03
  5.5382149e-03
 -1.1616538e+00
 -1.8107627e-02
 -1.3740481e-01
 -4.8705167e-01
  6.0495757e-04
 -2.2931468e-01
 -1.1017107e-03
 -9.1293445e-03
 -7.8011735e-04
  1.4480875e-02
 -7.5981440e-03
 -8.5101426e-02
 -1.4192108e-03
  4.2310186e-02
  8.9914110e-03
 -1.0502557e+00
 -4.8162100e-01
 -4.7031909e-02
  1.4210612e+00
  1.0378259e-01
  7.9188477e-03
 -1.8550903e-02
 -3.0744013e-01
 -5.0028324e-01
 -2.3836499e-01
  7.5283580e-02
  1.3563275e-01
 -1.5557969e-01
 -1.0704221e-02
  3.0325331e-02
 -7.4473931e-04
  8.8795468e-02
 -1.1964125e-01
 -3.5582423e-01
  1.9566283e-01
 -1.5783332e-01
  2.1583091e-01
 -1.0650716e-02
 -5.2757215e-01
  1.8905136e-01
 -1.1996047e-02
  1.3550522e-03
  2.6256192e-04
 -1.1626175e-01
  6.1784759e-03
  6.2951946e-04
 -9.5220283e-03
  1.1192631e-02
 -7.7638298e-02
 -2.5975122e-03
 -1.1854297e-03
 -4.1714887e-04
  1.2679553e-03
  3.8282224e-03
 -4.6058064e-03
  2.1159619e-03
  7.9786060e-03
 -9.6745742e-03
 -3.1107829e-03
  1.3283214e-03
 -3.3614957e-01
  1.1589720e-03
 -8.2758637e-03
 -8.1037404e-03
 -3.2831539e-04
  2.9052580e-03
  1.5726294e-03
 -7.4670091e-03
  1.5225088e-03
 -7.0292311e-04
 -2.1514858e-03
  1.9715205e-03
 -2.2325836e-05
  2.3080275e-04
  1.7378416e-03
  1.0699373e-01
  1.0835955e+00
  3.8603881e-01
 -3.0850008e-01
  8.7463003e-01
 -2.1365951e-01
  1.0152185e-01
  2.6055419e-01
 -2.5970969e-02
  3.7815426e-02
  1.0896839e-01
  8.0260158e-02
  2.7269728e-02
  2.3742932e-01
  4.7130743e-03
 -2.8893313e-01
  3.1309061e-02
  1.5479515e-01
 -7.6334863e-03
 -3.4537324e-01
  1.0678195e-01
 -9.1314644e-01
  5.2805017e-03
  1.0452447e-04
 -8.0779606e-01
  3.5196783e-03
 -2.5613063e-03
  2.5681003e-03
  6.7462483e-03
 -1.8427635e-02
 -5.4435533e-01
  4.8869317e-03
 -5.5436242e-01
 -2.2373408e-02
  1.1990144e-03
  3.3528449e-03
  1.1086978e+00
  9.8252676e-02
  2.2387052e-02
 -1.0323199e-02
  5.3310256e-02
  6.2276584e-01
  2.4857254e-01
  8.3925791e-02
 -3.1247441e-04
  7.7391990e-02
 -8.6476014e-04
  1.4219067e-01
  1.8172085e-01
 -1.9726382e-01
  8.1009254e-02
 -1.7188092e-01
 -1.7198501e-02
 -4.4931173e-02
 -3.5711825e-01
  7.9660259e-02
  6.8271571e-01
 -1.6425556e-03
  6.6082440e-02
 -5.9957216e-05
  2.8641254e-01
  4.5139627e-03
  8.8807213e-01
 -6.5803163e-02
 -1.3201226e-01
  5.9714234e-01
 -3.3273342e+00
  8.4753640e-02
  1.0152920e-02
  5.4064086e-03
  1.3857262e-01
 -9.6905363e-01
  3.6857270e-02
  7.2213155e-03
 -9.1383914e-03
  9.6544647e-01
 -1.1321543e+00
  2.0473808e-02
  4.7731437e-02
 -1.4020394e-01
  2.3864838e-01
 -3.8419545e-01
 -6.6386121e-03
  1.4785337e-01
  7.9930760e-02
  4.2406414e-03
  3.7434340e-01
 -5.0174620e-04
 -2.1237606e-01
  3.8948499e-02
 -1.2775165e-02
 -1.4693989e+00
 -3.3623531e-01
 -9.7860403e-02
  3.4477985e-03
  2.2745565e-01
  8.6048877e-01
 -3.1100339e-03
 -6.8318099e-02
  4.0399555e-02
  3.3930089e-02
  8.0495372e-02
 -5.3383071e-02
 -3.4462026e-01
  4.0203661e-01
  7.6617813e-03
  5.1381910e-01
 -6.2564318e-04
 -1.1208901e-01
  5.0573438e-01
 -1.4186341e-03
  3.3704497e-02
  6.3227429e-03
 -3.1892827e-01
  6.4031407e-02
 -9.3180209e-01
  6.1843632e-04
  1.4627372e-03
  1.2254858e-03
 -5.3268909e-03
 -3.0009160e-04
  3.1063884e-01
 -4.5794519e-03
 -9.9514024e-03
 -2.0112828e-03
 -4.3424703e-03
 -1.7241019e-01
  1.1603707e-02
  8.1615878e-04
  4.2623191e-04
 -1.4636110e-01
 -1.3476646e-01
  2.6761619e-02
  1.1480086e-01
 -9.5669404e-02
 -2.8612214e-01
 -2.0369504e-01
  1.2741494e-03
  7.1544126e-02
 -2.0929052e-01
  8.4349615e-03
 -2.1533945e-03
  9.1579912e-04
  1.2027745e-02
  1.9148216e-03
  1.5540665e-03
  1.3447050e-02
  5.9880130e-03
 -1.4416316e-03
 -3.8065584e-04
  7.8113942e-04
 -1.1295880e-04
 -1.6110881e-01
  4.5957221e-03
 -4.9523216e-01
  3.2088198e-03
  3.2348426e-03
 -1.3013914e-01
 -3.8225579e-03
 -9.0937510e-02
  4.5170230e-03
 -4.1066203e-03
 -6.5658522e-01
  2.1320726e-01
 -6.9009900e-02
  3.0607450e-01
  5.8391005e-01
 -1.0587425e+00
  1.9358657e-03
  2.4871785e-02
 -2.5165984e-03
 -3.2687462e-03
  9.3170077e-02
 -1.6019967e-01
 -8.3560351e-04
  6.6829033e-02
  2.2803026e-01
  4.4655630e-01
  5.8803153e-01
 -2.0104459e-02
 -4.5705517e-03
  1.7451455e-01
 -8.1866783e-01
  5.2597519e-02
 -1.6574204e-01
 -1.8459800e-01
 -5.1011145e-02
  1.2009704e-01
  9.2870608e-02
  2.5154030e-01
 -4.2641424e-03
 -8.5046500e-02
  4.4715559e-01
  6.0664791e-01
  1.4974904e-01
 -3.0692142e-01
  1.3244426e-01
 -3.0734681e-03
 -1.7105755e-01
 -1.2151399e-01
  2.6040128e-01
 -3.6858823e-02
 -2.1261574e-01
 -5.4443920e-01
  1.8987428e-02
  6.4106756e-01
  5.8638865e-01
  4.2757228e-01
 -2.8264719e-01
  2.4230844e-01
  4.8860260e-03
  9.3572383e-04
 -1.4838093e-02
  7.4193049e-03
  1.6299149e-03
  2.3844067e-03
 -3.6384498e-03
 -2.4172517e-03
 -4.0520886e-03
  1.0945851e-02
  6.4869295e-04
 -3.6182958e-03
 -1.5980196e-03
 -4.5681354e-03
 -5.5277091e-03
  1.2630814e-03
  2.0374509e-03
 -1.9182674e-04
  1.9691363e-03
  5.1342510e-03
  6.0553318e-03
  6.2332139e-03
 -2.8023606e-03
  8.8113424e-04
  3.5236776e-04
 -1.1205010e-04
 -1.8309539e-03
  3.0541236e-03
  5.0870620e-04
  6.3495535e-01
  7.5557739e-01
 -3.6521051e-02
  2.4533550e-01
 -3.5765573e-02
 -1.3828658e-02
  2.0163426e-04
  4.3714121e-05
  1.3993636e-01
  1.9031395e-03
 -4.1917961e-02
 -4.8619395e-04
 -6.4551714e-03
  1.5687789e-03
 -9.6002251e-01
  1.0275792e-01
  4.7840968e-02
  3.3563455e-03
  9.3568135e-03
  1.0226824e-03
 -6.6175114e-04
 -6.1559380e-04
  4.2028036e-03
  7.8897746e-03
 -1.9832489e-03
 -2.8126866e-03
 -8.1978831e-04
  4.4172285e-03
 -6.4450093e-03
  1.9272771e-02
  6.0494654e-03
 -3.7346310e-03
 -5.0730776e-02
  1.0723967e-01
 -6.1421408e-03
 -4.3872342e-02
 -6.0111079e-03
  1.0776527e-03
  1.0590585e-02
  1.5029386e-03
  2.5480789e-01
  1.2739028e+00
  2.5583447e-03
  6.7797134e-04
 -1.1780682e+00
  7.5137062e-04
 -2.1878555e-03
 -5.5876262e-03
 -3.0702754e-04
 -4.1111126e-03
  7.0092957e-03
  6.2535357e-05
  2.3365528e-03
  1.3323273e-03
 -5.8837570e-03
 -3.6931674e-03
  7.4835986e-01
  7.4609607e-03
 -2.3499841e-04
  1.4426846e-02
 -4.0047909e-03
  2.0940976e+00
 -1.0006748e+00
 -1.0151985e-03
 -1.8617980e-03
  6.6214699e-01
 -5.6062620e-03
  4.2164445e-04
  8.6477054e-03
 -4.5423578e-03
  6.8710945e-03
 -3.0881655e-03
  3.3818756e-04
 -9.7769278e-04
 -1.8960993e-01
  1.9119986e-03
 -4.3775393e-03
 -5.0356830e-03
  1.5519123e-03
 -7.5600634e-04
  3.1181606e-03
 -5.8355462e-03
 -3.5519032e-03
 -6.4356060e-04
  4.0087113e-03
  3.0018686e-04
  1.8440221e-01
 -2.4823328e-03
  4.7346763e-03
 -4.7524348e-03
  7.7609015e-01
  6.4440154e-02
  5.9260195e-01
  1.0987002e-01
  8.2547730e-01
  2.4552558e-01
  3.2302755e-01
  2.8439468e-01
  6.9335842e-01
  1.1066215e-03
 -1.6925065e-01
 -7.4892230e-02
 -9.7036408e-03
  5.7264751e-01
 -1.9911021e-01
 -1.3085417e+00
  1.0884313e-01
 -2.1918707e-02
  5.7331938e-01
 -2.1749568e-01
 -1.0813869e+00
 -2.6821580e-03
 -7.0684979e-04
  1.5742589e-02
 -1.6684045e-01
  1.6521615e-01
  1.0948306e-02
  3.5042041e-03
 -2.2862621e-01
  2.5398094e-02
  6.4371610e-03
  8.7396810e-03
  2.1093196e-01
 -1.1750032e-01
  2.0788966e-01
  1.1593153e-03
  8.8549656e-04
 -4.4430539e-04
 -5.1431106e-03
 -3.0503471e-03
  1.0318378e-03
  8.5795461e-04
  1.8433160e-03
  9.3622357e-02
  5.7692613e-02
  1.2107248e-03
 -3.2445469e-03
  1.9576780e-03
  3.7702147e-03
 -7.7317492e-04
 -2.8764722e-03
 -3.8933416e-03
  1.6243932e-04
  5.0430191e-03
  6.1438009e-03
 -1.5482875e-03
  6.9179453e-02
 -2.2610161e-04
 -4.0154480e-03
 -8.3196955e-03
  2.8549314e-02
 -3.7060909e-03
  5.9954030e-04
 -4.6559600e-03
  5.3214277e-05
  2.8491500e-01
  9.0750856e-03
 -5.7972730e-03
 -4.3447372e-03
  2.7707154e-03
 -1.1263601e-03
  4.0147607e-03
 -5.2421940e-03
 -3.4028473e-03
  2.9071647e-04
  2.7199244e-04
  4.8316852e-04
  3.7297185e-03
 -3.5097559e-03
 -3.4226929e-03
 -9.5782382e-04
 -2.8600686e-03
 -1.2027347e-02
  2.3735580e-03
  1.6498576e-03
  2.3889458e-03
  9.9238881e-04
 -6.7113274e-06
 -8.1326058e-03
  3.9772285e-04
  2.8354820e-04
 -3.4671709e-01
  9.2992234e-01
 -8.0025291e-01
  7.7995583e-03
 -1.8459652e-02
 -1.8907563e-01
 -5.9615701e-02
 -4.0681365e-01
 -1.4546106e-02
 -8.6806528e-03
  4.0462449e-01
  2.6945377e-02
 -3.5885075e-01
  2.7842414e-01
  1.7056029e-01
 -1.5359223e-02
  4.6679109e-02
 -2.5317317e-01
  2.4036925e-01
  1.7033246e-01
  5.6319688e-03
  7.8266868e-03
 -7.5378321e-02
  2.5456339e-01
 -2.2961326e-01
 -1.3004895e-02
  5.7982299e-03
 -1.5062701e-03
 -5.1165566e-02
 -1.4598445e-02
 -8.2602800e-04
  8.5338755e-03
  6.2347911e-03
  3.7931406e-03
  3.3082638e-04
  6.0675312e-03
  2.0986460e-03
 -3.8847025e-03
 -5.6099758e-04
  2.7836994e-03
 -6.9321669e-03
  7.6643052e-03
 -2.0321019e-03
  2.5945771e-03
 -5.8707735e-03
  1.1337968e-02
  1.0109829e-03
 -7.4089468e-03
  1.7239789e-05
 -1.1383075e-02
  5.1633501e-03
  5.0776321e-03
 -3.0368599e-04
  6.6235452e-04
 -3.0803445e-03
  2.7593922e-05
 -1.8986412e-03
 -7.4456986e-03
  1.5318750e-03
 -3.1876510e-03
 -1.5775527e-01
  2.0878494e-01
 -1.1630432e-01
 -2.0081973e-02
 -3.7267837e-01
 -5.2641419e-04
 -2.0491451e-03
 -3.6661450e-02
 -3.4976872e-03
 -5.9279844e-02
  1.1543697e-03
  1.1511632e-03
 -7.0941942e-03
  6.1916614e-01
  6.4917646e-02
  1.4557729e-03
 -5.3967658e-04
 -9.8856585e-03
  3.6180718e-03
 -9.4885230e-01
  1.2368830e-04
  1.5319260e-03
 -3.6008761e-03
  2.5862949e-03
 -1.2564604e-01
  5.3340214e-04
 -9.2899855e-03
  4.0533012e-03
  2.4347045e-03
 -1.2134707e-02
 -9.1560924e-01
 -7.3008281e-01
  3.8290480e-01
  8.3329666e-01
  1.0670561e+00
  1.5343741e-02
 -3.2395828e-03
  7.5054861e-04
  2.4452072e-02
 -2.1678559e-03
  3.5013330e-01
 -8.9132012e-04
  1.3453416e-02
 -1.8634072e-03
 -1.6665714e-03
  2.0689857e-01
  5.5748974e-03
  1.4153348e-02
  9.5296539e-03
 -5.1456769e-03
  7.5943326e-03
  1.6755937e-03
  7.4570929e-03
  8.1107663e-03
  1.0211294e-01
 -5.7287250e-02
 -1.7550631e-03
 -1.0071566e-03
  2.1630651e-03
  8.9488499e-04
 -2.8480217e-04
 -6.3160603e-04
  9.8468643e-03
  2.1162822e-03
  7.3866849e-04
 -4.6017027e-04
  8.0739697e-03
  4.7377697e-03
  9.4731484e-04
 -1.6943284e-03
  2.4267551e-02
 -7.0401924e-03
  3.1923973e-03
  1.4836352e-03
 -3.0670583e-03
  9.1517270e-03
 -8.4547937e-04
  7.6440396e-04
 -9.9503633e-04
  1.0034179e-02
 -6.4459811e-03
  1.4040906e-03
 -6.1739254e-04
 -2.4228997e-03
 -1.0142702e-03
 -2.2280591e-03
 -7.7885636e-03
  8.7877625e-04
  3.2124639e-04
  2.5674151e-03
  8.7241788e-04
 -9.9809263e-03
 -1.7324906e-03
  1.1948997e-03
  3.8853252e-01
 -1.3301928e-03
  5.2916055e-04
  4.7160993e-05
 -9.5384913e-03
  4.3383646e-03
 -3.0496925e-02
 -1.4083892e-03
  1.4959829e-03
  1.1668026e-02
 -8.1454022e-03
 -8.0349064e-04
 -1.0467350e-03
  6.5975883e-03
  2.1848302e-05
  1.0692130e-03
 -3.0911521e-03
  1.8144187e-03
  3.0639449e-03
  3.4069105e-03
 -2.7385256e-03
  5.9728120e-03
  2.0864794e-03
 -1.5999983e-03
 -2.2250184e-01
 -3.7658680e-03
 -9.0333056e-01
 -5.8385421e-02
  3.5333011e-01
 -2.3542954e-01
  7.6258725e-01
  3.3949625e-01
 -2.8711778e-01
 -4.1536489e-01
 -6.1482538e-02
 -1.0133718e-01
  2.9580787e-01
  2.0556014e-03
 -2.7925822e-01
  1.7570656e-02
 -1.3694590e-01
  1.1834544e+00
  3.8907288e-03
 -2.6587876e-02
 -4.2709126e-04
 -1.8683270e+00
 -1.7229910e-01
 -2.4965852e-03
  3.4871885e-01
  3.8400645e-04
 -4.0688950e-01
 -3.1621318e-02
  3.0154530e-03
 -2.5490858e-04
 -2.4585530e-02
 -2.0341205e-03
 -1.4376906e-01
 -6.5069765e-01
  3.4277120e-01
 -9.9915996e-02
 -7.7478284e-01
  1.8715760e-01
 -2.8387621e-02
  1.9750091e-01
 -6.8194903e-03
 -1.7715991e-01
  4.4599347e-02
 -7.2782789e-03
  8.2248338e-02
  1.7489433e-02
  2.8881696e-01
  9.1623198e-03
 -4.5770715e-04
  1.5694523e-01
 -9.9858813e-02
  1.2666357e-01
  2.2564176e-01
 -3.7381230e-03
  8.5463878e-03
 -3.7144634e-03
  3.2230185e-03
  2.6730364e-03
  1.8491009e-03
 -2.6543604e-03
 -6.1564433e-04
  1.7338090e-04
 -1.8218637e-03
  2.9534986e-03
  4.4166991e-03
  2.6715661e-03
  2.4923426e-03
  7.6941220e-04
 -2.0344371e-03
 -3.5823500e-03
 -3.0676852e-04
  2.6980040e-03
 -9.9281035e-03
  6.7018106e-04
 -1.6754888e-03
  3.7262635e-03
 -1.0357828e-02
 -7.8085240e-04
  1.9273965e-03
  4.5499080e-03
  3.4203598e-01
 -3.5684535e-03
 -1.8768624e-03
 -2.9084890e-03
  1.7025451e-04
  5.7120388e-03
  2.8468083e-04
  2.9717167e-03
  6.5310340e-04
  1.2952305e-01
 -2.7800784e-03
 -3.3820553e-03
  1.4413102e-02
 -6.8728458e-03
  5.7653565e-04
  4.4672755e-03
  5.8808050e-04
 -3.3875825e-03
  2.9786401e-03
  4.3373150e-03
 -2.3473454e-04
 -4.3487069e-03
 -7.7645382e-05
  3.4718076e-03
  1.4268663e-03
  8.1265694e-04
  1.1866833e-03
  9.7677251e-03
 -6.5215654e-03
 -5.5220821e-03
  3.7134327e-02
  6.5972627e-04
 -2.4374449e-03
  4.0490096e-03
 -8.9570804e-04
 -3.7345625e-03
 -2.6439712e-03
  3.4202481e-04
  1.0364861e-02
 -2.3135550e-02
  4.2517395e-03
  2.7563842e-03
 -1.4090581e+00
  6.9236195e-01
  3.0148563e+00
  1.1979419e-01
  7.4859959e-01
  1.6987631e-01
 -6.2111355e-03
  1.2877910e-01
 -3.4491073e-05
 -2.5423619e-01
  1.9345251e+00
 -1.4011631e-02
  4.0224795e-03
 -1.1667534e-02
 -4.3721318e-01
  1.0877259e+00
 -3.0405402e-02
  2.9186130e-01
  7.4102026e-01
 -7.8307199e-01
  1.1542968e-01
  7.0454599e-03
  1.6791468e-02
 -5.6477655e-03
  9.3564093e-02
 -5.1911757e-04
 -1.3728983e-03
 -1.5102800e-03
 -1.3537096e-03
  2.0866418e-01
 -5.3394437e-03
  9.7609432e-03
 -2.4981645e-01
  5.4630516e-03
 -7.9063259e-02
 -6.9456582e-05
  1.2179913e-03
  1.4878305e-03
 -2.2487561e-03
 -2.2512695e-03
  6.1350018e-03
  1.7045297e-02
 -2.7152568e-03
  1.3657515e-03
 -2.9179116e-03
 -3.4160179e-03
  4.0617087e-03
 -4.6830904e-03
  1.1679020e-02
 -9.3651551e-04
  1.7425254e-03
 -3.7255008e-03
 -5.4756546e-04
 -5.0477761e-01
 -1.7642174e-04
  1.7514535e-03
 -1.6397154e-03
 -1.3382212e-03
 -1.9185116e-03
 -2.5075229e-04
  1.8928997e-03
 -4.1101354e-01
  2.9413141e-03
 -4.6336788e-04
  2.5570733e-03
 -8.8553916e-04
  4.2429501e-03
  2.4734376e-04
 -4.8680123e-04
 -2.2790895e-03
 -1.2520400e-02
 -1.1714573e-02
  8.3958339e-03
 -1.0099897e-02
 -5.2984669e-03
  2.1772138e-03
 -1.0989826e-02
 -6.1116705e-05
  1.8750447e-03
  4.9872964e-04
  9.1776803e-02
 -2.5915070e-03
 -1.3181554e-03
  3.8254822e-03
 -3.6596810e-03
 -3.2875978e-04
 -3.0935034e-03
 -4.4448357e-03
 -1.0043214e-03
  7.1541494e-04
 -3.1748790e-01
  9.8881954e-01
 -8.2121314e-03
  1.6155198e-01
  3.2674251e-03
  1.0308253e-02
 -1.2299044e-03
 -5.2002366e-03
  9.8691951e-04
 -1.1287432e-03
  5.2211456e-02
  3.6799158e-03
 -5.6330608e-03
  1.9458316e-03
  2.1821407e-03
  1.4809667e-03
 -2.3617209e-03
 -1.2606543e-02
  4.4832663e-03
 -7.2230883e-02
  1.3284379e-01
 -1.4243706e-03
  5.0227833e-03
 -4.0922000e-04
 -5.4191142e-01
 -2.9513512e-03
  2.8179283e-03
  1.4484285e-03
 -4.6837474e-03
  7.3950533e-03
 -1.8660234e-01
 -3.0834472e-01
 -3.9906523e-01
 -6.4421463e-01
 -5.7688808e-01
  3.3885574e-03
 -4.3667778e-03
 -1.5487625e-03
 -1.3101313e-02
 -2.2046344e-01
 -1.7259503e-02
 -2.4830690e-03
 -3.8599551e-03
  1.0529728e-02
  2.3822870e-02
 -5.3294138e-03
  3.4608177e-03
 -1.5223222e-02
  8.2904138e-03
 -6.6733360e-04
 -1.0559188e-03
 -1.6324631e-03
 -3.5288185e-01
  9.3451850e-02
 -9.0736588e-03
 -1.0681060e-02
 -9.8156612e-03
  1.3475423e-03
 -3.3425614e-03
 -7.0979926e-03
  3.9241556e-02
  1.6278729e-01
 -2.0038197e+00
 -1.5447104e-01
 -3.4033561e-01
 -5.0108695e-01
 -4.7049176e-02
 -5.8254614e-03
  2.3020778e-03
 -8.7503940e-02
  3.2814229e-01
 -5.0264015e-04
 -3.8708024e-02
  1.1745109e-01
  1.6049317e-01
 -9.4156668e-02
  5.1756236e-03
 -1.5648542e-01
  1.1343457e-01
 -2.6332039e-01
  4.2436542e-03
 -3.4061426e-03
 -6.6390610e-03
 -3.9002494e-04
 -1.1803952e+00
  4.1271625e-05
 -4.1286866e-03
 -5.4779984e-03
 -1.0807280e-02
 -1.7199629e-03
 -1.1637164e+00
 -1.4456582e-02
 -2.9693907e-01
  5.5163729e-01
 -9.2215590e-02
 -8.8228378e-05
  3.0072688e-03
 -1.4686926e-02
 -1.3977987e-03
 -1.9061964e-02
 -4.6775598e-04
  3.4134533e-02
 -3.2151071e-03
  3.0831395e-02
  2.1362223e-02
 -1.4507177e-04
 -1.3687217e-04
 -7.7508963e-03
  1.8542488e-04
 -7.2621414e-03
  5.6728889e-04
 -1.6030245e-03
 -2.4794887e-03
 -6.5040770e-03
  2.8485814e-04
 -3.8971032e-03
  1.2493504e-01
  1.1319196e-02
  1.6357705e-04
 -2.5098813e-03
  2.3039563e-03
  7.3726974e-02
  7.2201123e-03
  2.0123373e-03
 -3.0275637e-03
 -5.5983393e-03
 -1.1455913e+00
 -7.4500158e-02
 -2.1802066e-03
 -6.8710507e-03
 -1.6149576e-03
 -4.1527455e-03
 -4.0143341e-02
 -2.3734480e-02
 -2.3260983e-03
 -1.7036229e-02
  1.6109702e-03
 -2.7955750e-03
  1.6725741e-02
  4.2379106e-04
 -5.9452723e-04
 -7.1320712e-04
  3.9670649e-03
 -2.6210141e-03
 -7.9557637e-04
  8.1190403e-04
 -3.0657800e-03
 -2.7011830e-04
 -3.7002240e-03
 -1.8748709e-03
  2.6003161e-04
  2.4515609e-03
 -2.4127488e-03
  7.4292613e-05
 -3.0850568e-03
  3.3721649e-03
 -4.2514675e-03
 -5.7706187e-05
 -6.1824992e-03
  1.2989411e-03
 -7.7913506e-03
  2.1619273e-03
  3.4683417e-03
 -2.5495822e-03
  3.6422808e-03
 -9.7657815e-03
  1.8088863e-03
 -3.1809867e-03
 -1.2530774e-03
 -4.9962418e-04
 -1.7543325e-03
  1.6218032e-03
  2.5416827e-03
 -1.4792073e-03
  6.6194967e-03
  2.0718189e-02
  2.0841463e-03
  6.2589318e-04
  2.5305515e-03
 -1.3115163e-03
  2.7923498e-01
 -1.1818975e+00
  3.1070846e-01
  5.1205277e-01
 -2.2810006e-01
 -6.0409685e-03
 -3.5457015e-03
  1.6630191e-02
 -3.8593707e-03
 -1.7904103e-02
 -1.3553478e-01
 -9.1360239e-03
  9.3530882e-03
 -2.5574753e-02
 -1.7901337e-02
 -2.6054101e-03
 -1.7923821e-03
  1.8211514e-01
 -8.2616299e-02
  4.5005335e-03
  2.5343563e-04
 -2.7666141e-03
  2.8090042e-03
 -2.5861142e-03
  2.9993355e-01
 -8.7004313e-03
  2.2583555e-03
  2.6636274e-04
 -2.1063674e-02
  1.1770729e-02
  1.2563671e+00
 -4.6262938e-01
  1.2875429e-02
 -1.4259483e-03
 -1.0879760e-02
  1.4577500e-03
  9.6834562e-04
 -1.0995462e-03
  2.3854251e-03
  4.3212075e-02
 -9.8781874e-03
 -3.9614299e-03
  8.6345524e-03
  8.0582331e-04
  1.8998695e-03
 -3.0092527e-03
 -1.6990501e-03
  8.5826041e-03
 -3.9275042e-03
  4.6552283e-01
  2.4585102e-03
 -1.0508467e-02
  5.2388073e-03
 -7.6409988e-03
  1.2981646e-03
  2.4859780e-03
  5.3924466e-03
 -3.1795208e-03
  9.8966574e-03
  5.9504929e-04
  9.6898770e-01
 -1.1662140e+00
  1.6557296e-01
  1.0696871e+00
 -2.9757592e-01
 -1.7672304e-02
  3.9116472e-01
  1.5889345e-01
  2.2120330e-02
 -1.2059735e+00
 -2.2156365e-01
 -1.7536653e-02
  7.0975929e-01
  9.5323193e-01
  1.1581225e+00
  3.9011586e-02
 -3.5374865e-01
  1.0842946e+00
 -4.5904389e-01
 -4.2872164e-01
 -3.0134644e-02
 -1.1026254e-02
  1.5774956e-01
 -8.6689323e-01
  1.4160479e-02
  1.3872237e-02
 -9.9476427e-03
 -2.7533560e-03
  2.2804601e-01
  2.0607923e-01
 -1.2943206e-03
  3.6462634e-03
 -3.0949824e-03
 -2.5284581e-03
 -2.1758724e-03
  5.1950524e-04
  5.5326596e-03
 -4.0810523e-03
  3.1910295e-04
 -3.9721490e-03
 -6.9459830e-04
  4.0468858e-03
 -1.8742741e-03
  6.4168451e-04
 -4.7560016e-04
 -4.3875817e-03
 -1.3968967e-03
  3.2901494e-03
 -2.3491567e-03
  4.4340012e-03
  5.0523416e-03
  3.3892514e-03
  3.6070824e-03
  6.7223250e-03
  2.3216414e-03
 -1.7213726e-03
 -6.9448125e-04
 -1.4038068e-03
 -7.5314050e-03
 -5.3011142e-03
  9.1066677e-03
  1.2798625e-01
 -2.3616037e-04
  3.9394280e-01
  6.7023790e-01
  6.5719704e-03
 -4.3973880e-05
  4.7546539e-01
  7.8669149e-01
  1.3849569e-02
 -9.0298310e-02
 -4.2589400e-03
 -1.6412658e-03
 -1.9600241e+00
  5.1094458e-04
 -3.1182501e-03
  5.9381169e-03
  1.4599821e-01
 -2.5499740e-03
 -5.9272745e-03
  3.7270818e-02
 -7.7413350e-01
  9.5524723e-05
 -3.4560999e-01
 -7.7731699e-02
  1.1678458e+00
 -4.0938634e-01
  7.6267546e-01
  2.2772314e-01
  1.7838676e-03
 -1.1101125e-01
  3.3562237e-01
  2.2207454e-01
  1.1566410e-01
  9.7370976e-01
 -3.2123145e-01
 -3.2778755e-03
 -1.1249281e+00
  2.5954719e-03
 -4.8862210e-01
  1.2332450e+00
 -7.4759126e-03
 -2.6337587e-04
 -1.3884538e+00
  6.3226521e-01
  2.1672944e-02
 -2.1473512e-03
  1.1918283e+00
 -2.7935109e-01
  1.1561735e-01
 -4.8798248e-01
 -6.5685588e-01
 -7.8978980e-01
 -3.7268955e-01
  1.2135864e-01
 -8.0982054e-04
  6.1986315e-01
  3.4299183e-01
  1.5706705e+00
 -1.0308837e-02
 -1.2081493e+00
  1.1506879e+00
  2.3508850e-01
  9.8876786e-01
  1.9483350e-01
  3.5984603e-01
 -5.3658351e-02
  3.2578883e-01
  1.6823807e-01
 -8.2335472e-01
  7.2233355e-01
 -3.6564365e-01
 -1.4488560e-01
  3.5221720e-01
 -1.4239696e-01
  6.5374458e-01
 -7.3121446e-01
  7.2167975e-01
  8.6494893e-01
  2.6970389e-01
  2.5298813e-01
 -4.1460502e-01
 -4.2021340e-01
  6.2440616e-01
  2.6272652e-01
  2.8226778e-01
 -1.1793503e-01
  2.4148619e-01
 -6.3415230e-03
 -8.1117980e-02
 -3.2705152e-03
 -1.1696451e-02
  2.8224431e-03
 -7.3812464e-03
  6.9198501e-04
  9.6501615e-03
  1.7319343e-03
 -1.7263279e-04
 -1.7228012e-03
 -3.6721465e-03
 -4.0202745e-04
  8.1315037e-04
 -1.3231154e-02
  4.5379121e-03
  1.2072278e-03
 -1.3099043e-03
 -1.0807374e-03
  5.4992968e-03
  8.5947169e-03
  8.5959095e-04
  4.3213650e-04
  1.2682533e-03
 -2.0881472e-03
 -4.9423510e-03
 -8.3475737e-03
  1.0943540e-03
 -5.3903316e-03
  1.2769490e-02
 -7.2642049e-04
 -9.4412587e-04
 -5.2640919e-04
 -1.2090727e-01
 -1.4931471e-03
 -3.2845403e-03
 -1.6080418e-03
 -4.4364226e-03
 -4.1596792e-04
 -1.4179271e-01
  1.6373685e-03
 -9.4961263e-02
 -6.0042837e-03
  1.0998154e-03
  2.3595158e-03
  5.1129772e-03
 -2.3799773e-01
 -6.5074698e-04
 -3.1627668e-04
  4.0635732e-03
  6.0184924e-03
 -3.1458896e-03
  3.9643192e-04
 -1.6355470e-03
 -8.7976234e-04
 -5.9260983e-05
 -3.1916178e-03
 -8.0237328e-04
  3.7365037e-03
 -1.0337729e-03
 -2.4413024e-03
  4.2338255e-03
 -2.2873726e-04
  2.6414748e-03
  4.4466518e-03
  5.2713552e-03
  1.0241142e-02
 -1.4189346e-03
 -1.2281588e-02
 -3.5832543e-03
 -1.3287729e-02
 -6.4029540e-03
 -9.3868509e-04
  1.4250107e-03
  1.3728100e-03
 -3.5841798e-03
 -6.2602363e-03
  5.2662771e-03
  2.9394843e-03
 -1.2293098e-03
 -8.8416515e-03
  1.5188750e-03
  4.3560717e-01
 -8.5451972e-04
 -3.0408230e-02
 -8.2323356e-03
  5.3074711e-04
 -4.0205191e-03
  2.3046539e-04
  3.4870193e-03
  2.9322205e-03
 -4.1088782e-04
 -2.9659341e-04
 -1.6319409e-03
 -1.4292126e-03
 -1.5979339e-03
 -6.4407964e-03
 -1.3654901e-02
 -5.1981397e-03
 -1.2607385e-02
  3.8366730e-03
  1.3809447e-03
 -5.2852100e-03
  2.0087610e-03
 -1.0546853e-02
  2.3016619e-04
 -1.4178149e-03
 -2.1559217e-03
 -1.4542485e+00
  6.2284633e-03
 -4.2347102e-03
  6.1193379e-03
  2.2607865e-02
 -3.0461173e-03
 -2.3584836e-03
 -1.1159093e-03
 -3.4751429e-03
 -8.1746029e-03
  6.3610799e-03
  1.9414729e-03
 -1.9314211e-04
  4.4335378e-03
 -7.7239797e-03
  1.3759771e-01
  7.4648303e-01
  1.1847348e+00
 -1.7033514e-03
 -5.2037537e-03
  1.8488076e-03
 -4.3894500e-03
 -2.5888532e-03
  3.3135570e-03
 -4.4997424e-04
  4.2163222e-03
  2.2356431e-03
 -1.9681212e-03
  3.7586216e-03
 -1.9284059e+00
 -2.4710493e-03
  5.2780788e-03
 -1.6668936e-03
 -1.4751467e-01
  5.7806601e-03
  7.4396278e-03
 -2.3434069e-03
 -4.6054758e-03
  5.2525621e-02
  2.1170950e-03
  1.5467808e-03
 -9.6932385e-04
 -8.3837396e-04
  2.4148496e-03
 -5.5867835e-04
  4.4062912e-01
  7.1375584e-04
 -1.8843966e-04
 -3.3832311e-03
  1.0158189e-04
  4.0508364e-03
  4.0532923e-03
  3.9604917e-04
 -1.5462599e-04
  3.7365903e-03
  3.7034377e-03
  1.2017146e-03
  6.7444900e-03
 -2.2212779e-03
  5.4279859e-03
 -7.4388343e-03
  2.7424796e-03
  9.4556028e-04
 -5.5920612e-03
 -1.9540025e-03
  1.7607444e-03
  2.9429153e-03
 -2.7400097e-03
  4.2596254e-01
 -1.0017046e+00
  1.7568542e-03
 -2.0209758e-03
 -6.7543532e-03
  1.2509397e-03
  3.0272454e-01
 -1.2866998e-01
 -1.6443427e-01
  3.6845630e-01
  7.0667274e-02
  7.3097378e-01
 -1.1724463e+00
  1.9143364e-01
  5.7025731e-01
 -1.0969936e+00
  3.5775098e-01
 -5.6483227e-01
 -2.9253529e-02
  3.5807914e-01
  4.7258532e-01
  1.1982540e-02
 -8.7624770e-01
  1.5589968e-02
  3.0618596e-01
 -2.9177489e-03
  3.6947954e-01
  3.3270010e-01
 -1.5610359e+00
  5.6606978e-02
  2.0115788e+00
 -2.0713824e-01
 -2.2007862e-02
  2.0916136e-03
  2.8703692e-03
 -5.9278286e-01
  4.5636618e-03
 -1.9473146e-01
 -3.9877933e-03
  1.4274862e-02
 -6.3734204e-03
  4.3746087e-01
 -3.8169572e-04
  5.1555550e-04
  1.4773190e-01
 -2.5572427e-02
  1.8592139e-03
 -3.0919258e-02
 -7.6251146e-03
  1.0178847e-02
  3.9512038e-01
  1.0777997e-01
  2.0878381e-01
  3.1282981e-03
  7.2174199e-02
  4.3097869e-05
  8.9385889e-02
  4.0352507e-03
 -1.0705737e-02
  7.1470267e-03
 -2.4099080e-01
 -7.7980347e-03
 -5.9984666e-03
  7.5477880e-04
  1.9326170e-04
  8.6971029e-04
  1.3069430e-03
  1.0464254e-03
 -2.9348130e-03
  8.0805499e-04
 -1.7716523e-03
  4.1578757e-03
  1.3871322e-02
  2.5868197e-03
  4.4796672e-03
  7.5577217e-04
  2.4130965e-02
  1.8745615e-05
  4.9732565e-03
 -3.3398267e-04
  3.8056291e-04
 -3.6470890e-03
  4.3300991e-03
 -5.5582928e-03
 -7.7569759e-03
 -4.0508308e-03
  9.4574923e-03
 -2.9351526e-01
  4.6210079e-03
 -1.1061364e-03
 -5.8729376e-04
  4.4402755e-03
 -1.1378358e-03
  1.5036640e-02
 -6.7076797e-04
  6.4066504e-03
 -1.8756140e-02
  8.3133881e-04
  4.1958010e-03
  2.4580320e-03
  5.5913499e-04
 -1.9141196e-04
 -4.5835556e-04
 -1.1526015e-04
  4.1028219e-03
 -1.2552813e-03
  3.8375000e-03
  1.8464960e-04
  2.1817583e-04
  2.9549401e-03
  9.9021811e-03
 -9.8497979e-04
 -5.5360707e-04
  2.5607978e-03
 -3.0104332e-03
 -2.9798911e-03
 -4.2659833e-04
  3.2578968e-03
  1.0226843e-03
  3.1542063e-03
  5.0816997e-03
  2.2725441e-04
  1.0652519e-04
 -1.3835452e-03
  5.2433014e-03
  5.0387131e-03
  6.1825372e-04
  5.6561069e-03
 -5.3443066e-03
  3.8841914e-03
  2.4680607e-03
 -1.4322947e-03
  1.3686989e-02
  4.1355714e-03
 -1.4936888e-03
  1.4448110e-03
  2.6737656e-03
 -7.4254693e-03
  3.7285730e-03
 -4.8901443e-03
 -3.9447917e-04
  7.9824455e-04
  1.2018632e-03
 -2.3025011e-03
 -4.3518669e-03
  2.5371439e-04
  1.5219928e-03
 -9.4427483e-04
 -1.3146554e-03
 -7.3217293e-03
 -1.4587587e-03
 -3.8065696e-03
 -7.1796670e-04
 -4.1223667e-03
  2.0996328e-03
 -7.6759252e-04
  6.7864289e-04
 -1.0520620e-02
 -4.2956062e-03
  1.2670162e-03
 -3.9604595e-03
  3.0610010e-03
  1.4261185e-03
 -1.1475466e-02
  4.5818335e-04
 -3.6379616e-03
  1.5444918e-02
  2.5164532e-03
  3.5389471e-03
 -9.7308971e-04
  3.0411540e-03
 -2.4964586e-03
 -3.6334882e-03
 -4.0870113e-03
 -4.5196325e-04
 -3.6973946e-03
 -4.4220975e-03
 -4.0334314e-03
  2.0202710e-03
 -5.6625233e-04
  1.4463791e-03
  1.8307160e-03
  6.5070819e-03
  1.0130703e-03
 -8.0858840e-04
  3.3681098e-04
  4.1843825e-03
 -1.0269598e-02
 -2.1198401e-03
  1.2083259e-02
  6.3518557e-04
 -2.6616580e-03
 -3.2312046e-03
 -4.0871752e-03
  5.4715360e-03
 -7.5047938e-03
 -2.0336542e-04
 -1.5629783e-03
 -4.3259920e-03
  1.4430893e-03
  4.8760291e-02
  1.8744534e-03
  2.2689309e-03
 -2.6307669e-03
 -1.0550654e-01
 -6.0424209e-04
 -6.3220976e-04
 -6.6098932e-04
  3.4013588e-04
  7.3807797e-04
 -6.9344966e-03
 -7.8867050e-03
 -1.0785316e-03
  1.2258557e-03
 -3.1492993e-04
 -9.9055059e-03
 -1.0694774e-03
  3.0356061e-04
  3.4993307e-03
 -1.4912026e+00
  3.7134157e-03
 -1.0025570e-03
 -6.1934459e-04
  3.1274077e-02
  3.5025498e-03
 -2.7899628e+00
 -4.4922289e-03
  5.2744080e-03
 -2.2481782e-03
  2.6965742e-03
  4.7804853e-03
  2.1070349e-03
  9.8253629e-05
 -3.2169856e-03
 -6.1874916e-03
  1.1846924e-03
  2.1263117e-03
 -7.0363731e-04
 -3.1262674e-04
  4.3418193e-03
 -1.2176790e-03
 -2.1597424e-03
 -1.4763526e-03
  1.2327767e-04
  9.6378749e-04
  1.4873552e-03
  3.5639559e-03
  3.8617710e-03
 -1.0493011e-02
  4.2949175e-03
  1.9998979e-03
 -2.0062751e-03
  6.7593851e-03
 -8.4253168e-04
  1.2355456e-03
 -1.9416858e-04
 -3.0009359e-01
  1.4921182e-01
  2.8440908e-03
 -3.8865434e-03
 -7.2987515e-01
  9.8690088e-04
  3.6432641e-03
 -2.6542772e-04
  1.0319786e-03
  3.7131449e-03
  2.8683231e-03
  4.0006801e-03
  6.1375084e-03
  2.5936922e-03
  2.7587970e-03
  1.5920388e-03
 -5.1201007e-04
  1.1721710e-03
 -3.7787037e-03
  6.8461145e-03
 -7.1208581e-04
  1.3655053e-02
 -1.2600780e-02
  1.3844280e-02
  2.6922985e-03
  2.9079011e-03
 -7.9180481e-04
  1.7844674e-03
 -2.1968577e-03
 -7.7783950e-03
 -6.2127475e-04
  1.8855971e-03
  1.1570590e-03
 -7.9546601e-01
 -5.6942983e-04
 -7.7484018e-04
 -8.0995476e-03
  3.8973521e-03
  9.3405331e-03
  3.5668423e-03
 -9.0045732e-04
 -1.0504990e-03
 -2.3370693e-03
  4.1883537e-05
  1.0388131e-03
  3.4705347e-03
  1.5269506e-03
 -5.5001765e-03
 -2.2226546e-03
 -3.1528489e-03
  2.0250692e+00
 -2.4981112e+00
 -2.9490936e-01
 -8.3392805e-01
 -7.6099783e-01
  1.0345213e-01
  3.8853714e-01
 -4.8165312e-03
 -7.5192124e-02
 -2.4125135e-01
 -9.9937922e-01
 -1.5997067e-03
  4.3580782e-02
 -1.2660119e-01
  4.9438405e-01
 -7.3679362e-04
  4.4044558e-02
  1.1851030e-02
 -8.7611895e-04
  3.1419792e+00
  5.3698099e-01
  2.4962423e+00
  2.0614699e-03
 -1.8692350e-01
  1.5732741e+00
  2.0431313e-03
 -3.4686446e-03
 -1.5505434e-03
  1.2939065e-02
  1.6785032e-01
 -1.0062264e-03
 -2.6818663e-03
  8.5546775e-03
  3.3075174e-03
 -4.2477396e-04
  4.1601420e-03
 -2.5200695e-02
 -6.8242773e-03
  2.4550490e-03
 -1.0588875e-03
  4.0741380e-02
  1.6701998e-03
 -5.0577021e-04
 -3.1500584e-03
 -2.7383689e-03
 -1.1438652e-03
 -3.1734006e-03
  8.1101730e-03
  1.4785313e-03
  5.6092460e-03
  5.5897995e-03
 -6.2572642e-04
  1.2454794e-03
  2.2386720e-03
  1.2287232e-03
  1.7640502e-03
  7.7027353e-03
 -3.9615412e-03
 -5.2094636e-03
  1.8504966e-02
 -1.6284711e-03
  3.4557756e-03
  1.1692310e-01
 -1.2732559e-03
  3.8145066e-03
  8.6613735e-03
 -8.1352555e-05
 -2.6140036e-03
 -1.2096690e-03
  4.7336823e-01
 -1.5765731e-03
  3.2987841e-03
 -1.6039073e-04
 -1.2612919e-02
  1.3399002e-03
  1.6123763e-03
 -3.2402845e-03
  4.1374046e-04
  6.1715334e-03
 -7.8021170e-04
 -3.1646416e-03
  2.3073468e-03
  4.3174946e-03
 -4.2106272e-03
  2.1966589e-03
  3.9508976e-03
 -5.9356685e-03
 -6.1661383e-04
 -1.6924591e-03
 -1.1001668e-02
 -1.8723920e-02
  5.3242829e-02
  6.7410553e-01
 -6.6314399e-02
  2.9919220e-03
  1.5017331e-01
 -1.4329444e-03
 -3.6761656e-03
  5.1037353e-03
 -4.8359770e-02
 -3.3668092e-01
  4.8985111e-04
 -3.8527604e-02
  5.3064149e-02
  7.7182082e-03
  9.0482831e-03
  8.0780970e-04
  4.3711271e-03
  1.2390752e-02
 -1.6632518e-01
  3.1642169e-01
  1.9270784e-01
  1.6787051e-03
  4.7816284e-02
  1.0369498e+00
  2.0564944e-03
 -4.3992898e-03
  4.1582300e-03
  2.6711815e-03
 -4.0362258e-02
 -1.0942843e-02
  5.7472237e-03
 -1.0373537e-02
  1.1748429e-01
  3.1709718e-03
 -1.2579691e-04
  1.9506323e-04
 -1.4120971e-03
 -3.1399189e-03
  9.4911335e-03
 -3.6298519e-03
 -6.0964189e-04
  2.9907664e-03
  2.0314022e-03
  1.1478142e-02
  4.6227785e-04
  1.2215736e-03
 -1.9590878e-03
  1.4817996e-04
  5.0513102e-03
  7.3411939e-04
  4.6095620e-03
  6.5169134e-03
  3.3989153e-04
 -8.3932962e-04
  2.2299893e-03
 -2.5440959e-04
 -2.2382251e-04
  1.0198826e-02
  5.0198883e-03
 -3.0540114e-03
 -4.5574149e-03
  3.4363145e-01
 -5.8652340e-03
  4.0406635e-04
  3.7339714e-03
  4.7478550e-03
 -2.9077807e-03
  6.0500861e-03
 -1.1688366e-01
  3.1198894e-03
  3.0910757e-03
  7.8099489e-04
 -2.0898420e-03
 -2.9631148e-03
 -1.0472946e-03
  5.1019760e-04
  4.2543984e-03
 -3.1640730e-03
  9.4381624e-01
  8.7563270e-01
  4.3041460e-02
  1.6721580e-03
 -6.5610530e-03
  3.9620465e-03
  3.5072186e-03
 -7.4954401e-04
 -1.9815404e-03
 -7.8676613e-03
  6.6148082e-04
  1.3400540e-03
  2.1832681e-03
  6.9784356e-04
  2.4886983e-03
 -5.8665790e-02
 -2.5604325e-04
  5.4209004e-03
 -2.7673072e-03
  5.0754561e-03
  2.5354070e-03
 -2.0912366e-03
  5.1557072e-03
  1.3644666e-03
  7.0022198e-04
  5.9549082e-03
  2.4934281e-03
 -2.7871638e-04
  6.9517473e-04
  3.3590049e-04
 -5.2250493e-03
 -3.6453346e-03
 -5.7654292e-03
 -5.6319445e-04
 -1.7190384e-03
  1.3493605e-02
  5.7682460e-03
 -1.7995989e-03
 -8.0143329e-04
 -2.7746506e-04
  9.1456234e-01
  1.2474442e+00
 -1.0119401e+00
 -1.7014530e-03
  5.9730154e-01
 -2.5630793e-01
  6.3499260e-01
 -7.9393983e-02
  1.0402754e-01
 -3.8733330e-02
 -3.3954805e-01
 -1.6376182e-01
 -2.4014762e-01
  3.8670429e-03
  1.0582070e-01
  1.2047620e+00
  2.6525757e-01
  4.1467749e-04
  6.7705765e-02
  2.5946042e-01
 -4.5065078e-01
  3.6305442e-02
 -5.7984203e-01
 -8.4014693e-03
  1.1194310e-01
  1.0173959e+00
 -3.6160865e-01
  2.7675525e-04
  2.5148047e-03
  2.6878905e-03
  9.0164763e-01
 -1.0054061e+00
  1.8014814e-01
 -1.4140563e+00
 -4.6589330e-01
  5.7571179e-01
 -8.6761042e-02
 -8.6726211e-02
 -2.7717054e-02
 -5.5576783e-01
  1.2452594e-01
 -7.7521009e-03
  3.3393300e-01
  1.7250268e-02
  1.1777859e-01
 -2.6564699e-01
 -7.0633735e-03
  6.0372990e-02
 -3.5970014e-02
 -3.3334076e-01
  2.0516618e-01
 -1.3217932e-01
 -1.2595760e-02
  3.5626750e-02
 -1.9824151e-02
  1.7264000e-01
  1.7054863e-01
 -9.9056262e-05
 -1.9021185e-02
 -6.5677566e-03
  4.6346346e-03
  3.6797095e-03
  1.2188605e-03
  5.2546811e-01
 -1.9365636e-03
 -4.8018428e-03
  1.1827822e-03
 -6.4108465e-03
 -2.2061318e-03
  3.3684985e-03
 -3.1940781e-03
  6.5862206e-03
  1.2649220e-03
  2.9015159e-03
  1.8512046e+00
  1.2646238e-03
  7.6771379e-03
 -8.6615058e-03
  4.0880246e-03
 -2.6649004e-03
 -1.1813160e-02
  8.1800511e-03
 -1.7706398e-03
 -4.6881862e-04
  1.6301398e-01
  1.1297849e-03
 -3.8999796e-03
  9.6376454e-03
  5.2048685e-04
  7.2213617e-04
  1.9843704e-03
  8.2718767e-03
  5.9615318e-03
  4.6777981e-04
  5.2246156e-05
  2.0260655e-03
 -3.8016138e-03
  1.5416805e-03
 -1.6861319e-03
 -2.6235045e-03
 -1.3399419e-03
 -4.2673354e-03
  4.7273287e-03
  9.3116116e-04
  5.1013315e-03
  2.3882545e-03
  8.9255790e-04
  3.4594000e-03
  6.6275820e-03
  1.9730223e-04
 -3.2835181e-03
 -3.6153246e-03
 -1.6677853e-03
  3.6535317e-03
  3.4196887e-02
  7.8253997e-03
  2.1150261e-05
  4.2746132e-03
  4.4505829e-03
 -1.7899513e-03
  8.0199767e-04
  9.3762046e-03
  9.1116910e-04
 -1.9161849e-01
  4.2007295e-03
  1.1687946e-02
 -5.3548813e-04
  4.8257103e-03
  2.0498158e-03
 -1.5978756e-03
  4.0083998e-03
  1.6618134e-03
  2.9862055e-03
  4.6334723e-03
  3.5679113e-04
 -2.2601080e-01
  8.3273184e-04
  1.8213008e-03
 -1.0050670e-02
 -4.1696532e-03
 -1.3448946e-03
 -3.1075682e-04
 -1.6951610e-03
  8.2199378e-03
  3.6088580e-03
  3.9448771e-03
 -1.5805508e-05
  3.5383704e-04
  1.9869388e-03
 -1.8808101e-03
  3.9011836e-03
 -3.0003875e-04
 -7.4886247e-03
  2.9195631e-03
 -1.0184560e-01
 -6.4884657e-03
  2.2938857e-03
  1.5875958e-03
 -6.4141583e-03
 -1.4398359e-03
  5.7251668e-03
  7.8179808e-03
 -3.9517847e-01
  2.2139451e-03
  1.4915296e-03
 -2.0753854e-04
 -1.3843526e-03
  1.5986746e-03
 -1.1568555e-03
  3.2868830e-03
  8.7936064e-03
 -4.3924752e-04
 -4.7556516e-03
 -7.4645299e-01
  4.2466177e-03
 -1.4433016e-02
 -4.3137409e-03
 -2.9768646e-03
  2.1351513e-03
  1.6255254e-03
 -1.6984567e-02
  8.8543558e-01
 -5.2969102e-03
  9.6459324e-03
 -7.2973658e-04
 -2.2456588e-03
  2.0631945e-03
 -2.8261906e-03
 -2.0266883e-02
  3.1244049e-03
  1.4812294e-03
  8.2983347e-03
 -8.6706383e-03
 -1.0818862e-03
 -1.0699603e-03
  7.1794055e-03
 -2.1946006e-02
  1.0397705e-03
  1.8516038e-01
 -2.2445559e-03
 -2.2966613e-03
 -7.2290726e-02
 -2.2363893e-03
  2.8910925e+00
  5.4359540e-02
 -2.1204543e-01
 -6.6624546e-01
  1.7343834e-02
 -3.8865473e-02
 -7.4084644e-04
 -9.4820571e-05
  1.7396756e+00
  1.0358699e-01
  3.3172708e-02
 -1.4515114e-02
  2.4999720e-03
 -1.6689250e-01
 -4.4415276e-02
  5.7658488e-01
  3.8201678e-01
  6.1657131e-03
 -7.0438012e-03
  1.9088896e-03
 -1.0394392e-03
  1.0172000e-01
 -1.3346059e-02
 -1.1968335e-01
 -4.4926632e-02
 -4.3541810e-01
  3.8657852e-02
 -9.9832028e-02
  1.2006118e+00
  9.7222760e-04
  9.6905525e-05
 -7.6562263e-02
  4.1548496e-01
 -6.0721022e-01
  1.5572993e-01
 -1.4590789e-02
 -1.3240050e-01
  1.3482150e-01
  5.5610123e-03
 -7.3136538e-03
  4.3684104e-03
  8.9440044e-05
 -2.2055015e-03
 -9.4596954e-04
 -2.1726501e-05
  6.0806228e-03
 -6.1832849e-02
  8.2564125e-05
  1.6422389e-02
  1.4081981e-03
  1.0706651e-02
  4.2909771e-05
  6.6287428e-02
  2.3564647e-03
 -4.7429940e-03
  2.8604999e-01
 -5.8613908e-02
  4.8568179e-03
  1.8784550e+00
  7.0054489e-03
  1.1919363e-03
  2.4931900e-02
  1.1662565e-03
 -3.1113961e-01
  1.6211534e-02
 -7.1024718e-03
 -1.8839351e-03
  2.9139696e-03
  3.6835102e-03
  5.1071704e-03
 -8.8282849e-04
 -3.9018914e-03
  1.6208423e-03
 -1.2035678e-03
 -4.9669002e-03
 -1.4140311e-03
  3.7452348e-03
 -6.5871603e-03
 -7.5678609e-04
 -6.0966740e-05
  2.5386009e-03
 -2.2494225e-03
 -3.1978518e-04
  6.1013072e-04
 -2.3238335e-03
 -3.1459434e-03
  2.2482255e-03
  3.2972248e-04
  2.5804570e-01
 -8.3368152e-02
  3.2770564e-03
 -4.9661275e-04
 -1.5601877e-03
 -5.0688740e-03
 -5.3593782e-03
  4.5267338e-04
 -6.7669759e-03
 -4.2622997e-03
  2.1909032e+00
  9.4906783e-01
  2.2333199e-02
  9.4725125e-02
 -9.0071398e-01
  9.8470449e-03
 -2.4866149e-01
 -4.8490185e-01
 -1.4725885e-01
 -1.3256425e-01
  8.9627663e-03
  2.6925062e-03
  1.1864022e-01
 -3.3263925e-01
 -5.6414187e-01
 -1.0754393e-02
  3.9642379e-01
  5.4215319e-02
 -1.7354551e-01
 -1.3035879e-02
  1.7418889e-03
  5.9279703e-02
  3.8429357e-02
 -1.3934763e-02
 -1.3382564e-03
 -6.4536463e-03
  1.7164575e-02
  7.8478886e-04
 -7.2388290e-03
  2.4890671e-03
  3.4528442e-02
 -9.0271270e-01
  6.8512321e-01
 -1.1636562e+00
 -2.8227198e-01
  7.6687759e-01
 -1.4419346e+00
  3.7060045e-02
 -1.3600039e-01
  5.0885963e-01
  5.8303094e-03
 -1.3308609e-01
 -6.9193316e-01
 -7.3874354e-01
  9.4889677e-01
  5.1595378e-01
  4.0084708e-01
 -6.9621462e-01
 -1.1193834e-01
  4.5472206e-04
  3.7172252e-01
  3.0374616e-01
 -8.7279063e-01
  6.4590901e-01
 -1.9331021e+00
  1.4913932e-03
  5.6794342e-03
  6.6001918e-03
  1.8347682e-01
 -8.8985014e-01
  9.7463566e-01
 -1.0785754e+00
  5.4697567e-01
 -6.2560773e-01
  8.9327246e-03
 -1.9684732e-01
 -2.1132399e-01
  4.3085507e-01
 -2.3563088e-01
 -1.3352340e-01
 -5.9349749e-02
  2.2598309e-02
  6.8926203e-01
 -4.1213638e-01
 -1.5726249e-01
 -6.5704726e-02
 -1.2264172e+00
  6.3110399e-01
  7.5774485e-01
 -1.1635907e+00
  3.1272992e-03
 -4.9350124e-02
  3.6615100e-02
 -3.4877574e-01
  1.6291561e-02
 -1.1163885e-03
 -1.2542964e-03
 -1.2443093e-01
  8.6441839e-01
  4.4299272e-01
  7.2453720e-03
 -1.8596790e-03
  1.4049365e-01
  5.0885472e-03
  1.7715144e-01
 -6.5508173e-03
 -2.4712190e-04
 -2.4472245e-03
 -2.0374533e-02
  1.1576171e-03
  1.1817117e-03
  4.3618656e-03
  3.5132519e-03
 -1.2170761e-03
 -6.1244532e-02
  8.7715255e-04
 -2.1091248e-03
  7.5203124e-03
 -5.5031497e-03
 -1.1802897e-03
  7.8094978e-04
 -4.3377499e-03
  6.0759694e-03
 -9.2529273e-04
 -2.9978710e-03
 -4.4097728e-04
  3.2896604e-03
  2.7485038e-03
 -3.0984459e-03
  9.9255899e-03
  1.9861740e-05
 -7.6688878e-04
  3.5881091e-04
  9.0167644e-03
  2.0469606e-03
 -1.3445139e-04
  7.4365065e-03
 -2.5594665e-03
  2.3878897e-03
 -1.6042058e-03
 -1.3455764e-03
  3.8281572e-04
  2.6942766e-03
  1.1022140e-04
  9.0340413e-03
 -1.2772924e-02
  1.5571173e-03
  2.6573595e-03
 -3.7544442e-03
 -3.9355690e-04
  3.2837049e-03
 -5.2976287e-03
 -1.7992737e-03
 -1.1609650e-03
  3.4772474e-03
 -1.1066388e-02
 -4.6390803e-03
 -4.9159932e-04
 -3.2065487e-03
  1.3144409e-04
  6.2190178e-05
 -9.3836058e-04
  4.2077894e-03
 -2.4902604e-03
 -8.7135620e-02
  1.1094356e-03
 -6.2003662e-04
 -4.2259929e-04
 -2.6821627e-04
 -6.5557528e-01
 -9.3617549e-05
  4.5008939e-03
 -1.9525296e-04
 -2.2976701e-03
 -1.9078481e-03
 -3.6578233e-04
 -5.0699604e-03
  1.0839335e-03
 -6.1385646e-05
 -1.2528899e-03
  5.6903949e-03
 -1.1343574e-04
 -1.7614716e-03
 -9.2356028e-03
  2.5580835e-03
  2.5842909e-04
  5.4092924e-03
 -3.5045918e-03
 -4.2284681e-03
  3.1093523e-04
  2.0596483e+00
 -4.0246453e-03
 -6.7654026e-01
 -1.0727007e+00
 -2.6835781e-01
 -7.0382323e-04
  6.8629866e-05
  2.9638223e-02
  3.4482696e-03
  1.5098942e-02
 -3.5296420e-03
 -5.1240544e-03
 -2.4438682e-03
 -2.2843327e-02
  1.2187468e-01
  6.1086303e-04
  3.1184021e-01
  6.0806819e-03
 -8.8681513e-03
  2.0967331e-03
 -2.3717498e-03
  2.0450106e-01
  1.7442477e-03
  3.0104867e-03
  6.2833042e-03
  2.8866414e-02
 -1.3937748e-03
 -2.3986087e-03
 -4.2093292e-04
 -2.3428858e-03
 -1.2224319e+00
  4.6825553e-03
  1.7460722e-02
  4.8826808e-01
  2.6501572e+00
  1.4381000e-03
  1.5066179e-02
 -1.6582657e-02
 -2.1483900e-03
 -1.2640375e-02
 -5.6363386e-03
  1.7722410e-01
  1.0324505e-02
  1.4261591e-02
 -9.1116801e-02
 -3.6083253e-03
  3.8413315e-03
  2.3242878e-03
 -3.1083307e-01
 -6.7743075e-01
 -5.7890695e-03
  1.3014262e-03
  2.5353234e-03
 -1.4992427e-03
  1.5790084e-03
  1.8458345e-03
 -2.5184059e-03
  4.7359822e-04
 -3.0287808e-02
  8.9414921e-03
  3.5321590e-01
  9.8869991e-01
  7.2829115e-01
  3.3568344e-01
 -1.8827508e-01
 -5.8848676e-03
 -2.3367697e-01
 -2.8873888e-01
 -4.2275846e-02
 -6.6448939e-01
 -4.9853870e-01
  2.3792975e-03
  3.9510840e-01
 -1.3261114e-01
 -6.3383551e-03
 -8.0141246e-02
  1.8281040e+00
 -6.7990653e-02
 -1.7707068e-01
  1.2895165e-03
 -4.0116307e-04
 -4.1282274e-02
  2.1452613e-02
 -7.9892583e-02
  1.0638648e-03
  3.8266636e-03
  1.3071815e-03
  4.6223267e-05
 -2.1341755e-03
  5.7747819e-02
 -1.8586399e-01
 -1.5522032e+00
  9.0576178e-01
 -2.4016078e+00
  1.4420010e+00
  8.0273747e-03
  2.1357144e-01
 -1.0778079e-02
  6.1380553e-01
  1.7254271e-01
  1.0646166e+00
 -1.0485213e-02
  2.3072505e-01
 -1.3113263e-01
  1.7197489e+00
  7.5195372e-01
 -2.6674724e-01
 -2.8980443e-01
  1.1958888e+00
 -2.7570423e-01
 -1.6623960e-04
 -3.4316543e-02
 -2.4904218e-01
 -2.2876814e-01
 -3.7204307e-01
  6.1293622e-03
 -4.2550317e-03
  1.5291892e-01
  4.4548153e-03
  1.4834555e+00
 -3.0262882e-01
 -9.7240619e-03
 -6.3430667e-03
  1.4460224e-01
  1.8934959e+00
  1.0777704e-03
 -1.2599296e-03
 -1.1286683e+00
  5.7858783e-03
  3.4841653e-03
 -1.2696885e-03
  7.2291374e-02
 -5.6817750e-03
 -1.5748474e-03
  1.3398933e-01
 -1.1666196e-03
 -7.1619969e-04
  7.3227379e-04
  3.3526057e-03
 -1.1744074e-03
 -4.2648404e-03
  4.7551496e-03
 -3.4281884e-03
  8.6776778e-04
 -8.5039046e-03
 -9.9650776e-01
  7.1230537e-04
 -2.0144217e-02
  3.5563638e-03
  1.4254085e-03
 -2.2937033e-01
  2.5202862e-03
 -2.6932018e-02
 -5.8021410e-03
  5.7230467e-01
 -2.2572202e-03
  4.8936591e-03
 -1.7844142e-01
  3.2632563e-03
  1.0989307e-01
  3.5199046e-04
 -2.0263006e-03
 -4.6652136e-03
 -8.2149304e-02
  1.9402987e-01
  6.4953067e-04
 -1.2894885e-03
 -2.0442797e-02
 -6.9895131e-03
 -2.1648610e-03
  1.2846777e-03
  1.5692827e-01
 -4.9779318e-02
  2.6163146e-02
 -4.3456958e-04
  1.3389270e-04
 -1.4375803e-03
  2.0788508e-03
  1.9347179e-04
 -1.6028562e-03
  1.3673081e-01
  1.2090983e+00
 -3.5569203e-01
  1.2223964e+00
 -1.2154262e+00
 -7.6681358e-01
 -2.4136144e-01
  5.2125245e-02
 -1.4295282e+00
  3.7278965e-01
 -8.3121359e-01
  1.5344474e-01
 -2.0962137e-01
 -1.0906676e+00
  4.1645554e-01
 -2.0989114e-01
 -1.2601632e-01
 -1.1442243e-01
 -1.6292773e-01
 -1.1907420e+00
 -1.2223722e-01
 -1.6979551e-03
  8.7885797e-01
 -2.3912460e-01
 -5.6557560e-01
 -5.9462227e-02
  1.4777741e-02
  5.3146017e-01
 -2.8588602e-02
  7.8537840e-01
  7.5761765e-01
 -1.2215414e+00
  1.6388483e+00
 -1.2511851e+00
  2.1680601e+00
  3.0737536e-02
  5.6048334e-01
 -2.0003872e-02
  6.2950784e-01
 -1.0357815e+00
  9.6188493e-02
 -5.6441987e-01
  5.9233975e-01
  2.6356080e-01
  2.5326887e-01
 -1.7899004e-01
 -2.8417072e-01
  7.9114443e-01
  8.8806975e-01
  6.4511523e-02
 -1.0951335e-01
 -2.2626339e-01
  1.4024367e+00
  1.0731157e+00
  9.8753005e-02
 -3.8138572e-02
 -4.5115843e-01
 -6.5478832e-01
  4.9908605e-01
 -7.3134214e-01
 -2.6505899e+00
 -4.9195183e-03
 -1.2397846e-02
 -2.8874409e-01
  1.3921418e+00
  5.1017301e-03
  4.6960250e-03
  2.0786640e-03
  1.2535761e-03
  3.1615302e-02
  1.2525835e-03
 -1.1511426e-01
  2.0285742e-03
 -2.2037902e-03
 -5.6191452e-02
  7.6957867e-06
  3.9194373e-04
 -3.0985329e-04
 -3.6027816e-03
  5.5523184e-03
 -9.5902238e-04
 -1.5653493e-03
 -2.5900494e-02
 -4.6769311e-03
 -3.0198369e+00
  5.2557052e-03
  2.0870478e-03
 -1.6465555e-03
 -3.6649352e-03
 -3.2422248e-01
  1.8322786e-03
  3.6525175e-03
  2.3672662e-03
 -6.2681554e-04
 -5.8451749e-02
  1.6924730e-03
  1.5214871e-03
  3.0192698e-03
 -7.0527970e-04
 -2.4544615e-03
  2.8724512e-04
  2.1467429e-04
  5.1646424e-04
  1.5810232e-03
  1.4996817e-03
 -1.5638004e-03
 -5.8654294e-04
 -3.8930438e-02
  3.0618107e-03
  1.7323485e-03
 -3.1268189e-03
  8.6753676e-03
  1.9441565e-03
 -1.7055475e+00
  1.7471388e-03
 -1.1097790e-03
  6.2873508e-03
  2.4988031e-04
  2.1233500e-03
 -1.0894927e-02
  5.4644996e-01
 -2.8894267e-03
 -5.5234253e-01
  5.1833254e-01
 -3.5463154e-02
 -1.3991287e-01
 -8.4363448e-04
 -1.2950087e-03
 -1.3559818e-02
 -1.1892316e+00
 -9.0369501e-04
 -8.2674890e-04
  6.4688854e-02
  6.3097030e-03
 -3.7966782e-01
 -1.7579008e-02
  9.3860300e-03
 -1.6792276e-04
 -2.8490545e-03
 -2.7206587e-03
 -1.3276317e-02
 -9.6874114e-04
 -3.5159613e-03
 -4.4509904e-03
  1.7039081e-03
  1.3448365e-02
  2.0068784e-03
 -4.4449553e-04
 -2.1616949e-03
  1.7528973e-03
 -1.0240870e-03
  8.2092015e-03
  7.3899888e-04
  1.6527442e-02
  1.9170132e-02
  1.0976852e-03
 -2.2787557e-03
  1.3335496e-02
  5.1927673e-05
  1.0121769e-02
  1.1945961e-03
  1.3091235e-02
 -1.3753595e-03
 -2.2314992e-03
 -1.5537447e-04
 -3.1490424e-03
  3.9336276e-03
 -1.3916617e-03
  2.2173841e-02
 -4.3225517e-03
  3.9174501e-03
  2.6055451e-03
  2.8416144e-02
  9.3057835e-03
  1.2808396e-03
 -1.4382468e-03
  4.2451746e-03
  5.0524063e-04
 -1.8149138e-03
  3.5617466e-03
  8.7480271e-01
 -1.6003308e+00
  2.3455810e-02
  1.1987607e+00
 -1.8165046e+00
 -4.5795533e-01
  1.9680484e-01
  1.5951414e-01
  5.0888097e-01
  7.6411575e-01
  9.0896164e-04
  3.1168166e-01
  2.1277556e-01
  1.0837756e-01
  8.0898756e-01
 -2.4541338e-01
 -3.4145486e-01
  1.1835738e-02
  2.1346116e-03
 -1.6437965e-03
 -2.3716795e-03
  2.7283255e-04
  1.0461552e-03
  1.9551897e-02
 -6.8125799e-03
 -5.1531629e-03
  7.4628978e-03
  1.2832106e-04
  1.9666140e-03
  4.1545103e-03
 -4.1234333e-02
 -1.0281517e-01
 -1.1841227e-01
  7.0276633e-02
  2.0483932e-01
 -1.3113626e-02
 -2.0931171e-01
  2.7749402e-02
 -5.9100520e-02
  9.4052941e-01
  7.2019217e-03
 -7.3337305e-01
 -5.1527359e-02
 -4.0113315e-01
  1.9008392e-01
 -7.4175200e-03
 -7.2347306e-02
  1.9510359e-01
 -1.5892997e+00
 -5.6090003e-01
 -2.9771149e-03
  8.5894339e-05
  1.1771115e+00
  4.9093243e-02
 -7.6574436e-04
 -5.0596398e-04
 -2.3944996e-01
  3.0774060e-01
 -8.5199609e-02
  1.5779352e-02
  1.0238173e+00
  6.8452006e-04
  6.8674612e-01
 -1.0638434e+00
  7.3191181e-02
 -3.3142266e-01
 -4.9543205e-01
 -2.9206054e-02
 -2.1298394e-02
 -1.4602451e+00
 -1.0912497e-01
  7.6324455e-03
  3.3011958e-02
  5.6315058e-01
  5.8575076e-01
 -7.7008642e-02
 -1.0321060e-03
  1.8009588e-02
  2.4750815e-01
  3.8648126e-04
 -1.1996916e-02
 -2.1851130e-03
  3.5055932e-02
  5.9945434e-03
  7.2874185e-03
 -7.2473561e-04
 -7.4582169e-04
 -5.0546750e-03
 -9.1874423e-03
  1.2725105e-03
 -1.5198904e+00
  1.6127288e+00
 -3.7046260e-01
  1.1713015e+00
 -1.9219351e+00
 -9.5460512e-02
 -7.4993575e-01
 -2.4854055e-01
 -8.2398188e-01
 -1.8889128e+00
  1.1278074e-01
  1.2037465e-01
  1.2658556e-01
 -2.6228944e-02
 -2.9445481e-01
 -4.6674231e-01
  3.0166641e-01
  6.6360869e-02
 -4.0168425e-01
 -5.3640229e-01
 -2.2393179e-03
  1.3074036e-01
  9.6385978e-02
 -3.2667216e-02
 -2.9820988e-01
  8.8766869e-03
  5.3093825e-02
 -3.2279927e-01
  4.1297588e-01
  8.0121273e-01
  3.1204924e-01
 -1.6731494e-03
 -4.7082980e-03
 -7.1815862e-03
  4.0688133e-01
  2.8276420e-03
  4.9426658e-03
  2.7550107e-01
 -7.3998679e-05
 -1.8614387e-02
 -3.8819604e-02
 -1.3397777e-03
 -6.4550072e-02
  6.2987655e-03
 -1.6797647e-01
 -4.7446364e-03
 -4.2570036e-02
  3.7608151e-03
 -1.5531886e+00
 -2.8792846e-03
 -5.9572891e-03
 -2.0391876e-03
  2.3777944e-03
  4.0157661e-03
 -1.0487837e-03
 -6.2406547e-03
 -1.7576480e-03
 -1.7691298e-03
 -2.7147990e-03
 -2.2363020e-01
 -2.1003786e-01
  6.7260601e-02
 -1.0951632e-01
  1.7888529e+00
 -2.0434260e+00
 -1.0635074e-02
 -7.8731641e-02
 -2.2603460e-01
 -6.4173204e-01
 -8.4730250e-01
 -5.2177548e-01
 -1.7851098e-03
  5.8869094e-01
 -1.9494606e-02
 -2.4630146e-02
 -1.8287733e-02
  3.6808100e-01
  5.9723640e-03
 -2.4700783e-01
 -1.7598456e-01
 -1.1370556e-04
 -8.5722119e-02
 -1.8460862e-03
 -2.5890279e-01
  3.6269054e-04
  2.7439508e-03
 -1.4864896e-02
  6.2532566e-04
  8.6514698e-03
  1.3602830e-01
 -1.1326199e+00
  8.1733383e-02
  4.7529048e-01
  6.5940756e-01
 -1.2617844e-01
  6.5895927e-01
 -1.5987290e-01
 -4.4430724e-01
  1.0215709e-02
  3.0518967e-01
 -6.5144785e-03
 -5.0465292e-01
  1.3635536e-01
  2.7161607e-01
  2.4467617e-01
  3.8367993e-01
  7.5066082e-02
 -3.8371503e-01
 -7.6230282e-01
 -5.6667082e-02
  1.0330559e-03
 -2.3026478e-01
 -2.6729739e-01
  8.3265054e-01
 -4.2244117e-03
  7.7349126e-02
  8.5578468e-03
 -1.4730635e-01
 -1.7840482e-02
  6.9494432e-01
  7.4193990e-01
 -2.7794877e-01
  6.5922779e-03
 -7.5272202e-01
 -1.6343959e-01
 -3.0548172e-02
 -1.6640674e-01
  3.2446700e-01
  3.1430572e-01
 -9.1060624e-02
 -1.4315383e-04
  2.8539956e-01
 -2.7045718e-01
 -4.1779210e-03
 -6.4344031e-01
 -4.9336427e-03
  1.2738761e+00
  2.8789935e-01
  6.6146421e-01
 -2.9445630e-03
 -6.7652324e-03
  1.6230047e-03
  3.2113828e-02
 -2.5874636e-01
  4.4300044e-03
  1.2379674e-02
  6.4098635e-03
 -5.3465302e-04
  1.6811568e-03
  6.7148453e-01
 -4.1654772e-01
  4.0212643e-01
 -1.3051414e-01
  3.6127451e-01
 -4.6869493e-01
 -5.5352807e-01
 -1.6240747e+00
 -7.0633882e-01
 -1.3195274e+00
  4.2874435e-01
  4.4353217e-01
 -3.2146962e+00
  1.1912821e-01
 -1.5751060e+00
  1.0229995e+00
  6.1148442e-02
  3.0837613e-03
 -1.0265457e-02
 -1.8430773e+00
 -8.6427098e-03
  2.6682029e-03
 -3.1968711e-03
  2.0908122e-03
 -3.4417054e-01
  4.7097630e-03
  7.1126805e-04
 -5.5635542e-01
 -3.1845701e-01
  9.4786024e-01
  3.9925743e-03
 -1.8288258e-03
 -4.2003994e-03
 -8.4066249e-02
 -5.9693996e-03
 -1.7512667e-01
  4.2513320e-03
 -1.3213494e-03
  3.2329542e-04
 -3.1636041e-03
 -3.2803864e-04
  2.7081880e-03
 -4.6724956e-03
 -1.2816836e-02
 -1.7723331e-02
 -1.1843131e-03
  2.6785395e-01
 -4.4128139e-04
 -1.1095270e-02
 -3.3065947e-03
 -4.3051993e-03
  6.1419682e-04
 -2.4526124e-03
  6.8848017e-03
  2.5109611e-03
 -4.3510064e-04
 -6.0072890e-03
  2.1886688e-03
  4.1052081e-02
 -3.1358569e-03
 -1.6220104e-02
  1.4962871e-03
  9.5063932e-03
 -1.2930324e+00
 -5.4167008e-01
 -1.8912234e+00
 -9.5749358e-03
  7.4392450e-03
  7.6793237e-03
 -1.0261197e-01
  1.0962070e+00
 -3.5677694e-02
  1.9661030e-02
 -1.9510134e-01
 -4.5283476e-01
  6.2555265e-01
  1.2769417e+00
  1.2260655e+00
 -1.3806658e-03
  1.0051832e-01
 -1.4122841e-03
 -1.9203057e+00
 -1.1471194e+00
 -1.0288104e+00
  6.1092085e-01
 -5.7143390e-01
  7.4932724e-02
  6.5156549e-02
 -1.4085329e+00
 -7.3268038e-01
  1.6215971e-03
 -4.3389425e-02
  5.0123637e-03
  4.7331917e-01
 -6.3503730e-01
  5.2546376e-01
  1.1352558e-01
  3.4912720e-02
 -7.6139212e-02
 -1.0408332e+00
  5.2193987e-01
  2.9952133e-01
 -6.5379983e-01
 -5.8419555e-01
 -5.0375909e-01
  2.4301043e+00
  9.1046512e-01
 -2.6224488e-01
 -5.5590220e-02
  2.0072186e-01
  7.6105140e-02
  3.0279848e-01
  1.1860878e+00
  3.1429812e-01
  8.3893973e-01
  2.7165610e-01
  5.5877960e-01
 -1.0933714e+00
  3.3609563e-01
 -2.8448576e-01
 -1.1830328e-01
  4.7908697e+00
 -6.9547691e-03
  1.0229063e-02
 -1.0954929e-01
 -8.3048832e-01
  1.9909510e-01
  6.3793290e-01
 -2.1499233e+00
  1.1805940e+00
  9.5836282e-01
 -2.3212757e+00
  5.8985467e-04
 -5.3062379e-01
 -1.2264864e-01
  4.5930967e-01
 -5.3023700e-02
 -3.8156772e-01
 -5.1488221e-04
  1.4893436e-03
  1.5366737e-03
 -1.0244697e+00
 -1.7184600e-01
  1.1231581e-03
  8.9613473e-05
 -6.6595244e-01
 -3.9371827e-01
 -1.7473565e-02
 -4.8959129e-03
  1.2119968e+00
 -9.6569228e-01
 -3.7069742e-03
  7.1012415e-02
 -2.1364480e-01
 -5.9025572e-03
 -2.1107944e-02
 -1.3735305e-01
  4.5141906e-01
 -1.2236480e+00
 -1.6200925e-01
 -2.3817992e-01
  4.4032884e-01
  1.7460345e-01
  5.1464342e-02
  1.6011013e-02
  8.4950590e-01
 -8.6591917e-01
  1.4776634e-01
  2.4607043e+00
 -2.5640070e+00
 -1.0289967e-02
 -1.5802832e-03
 -3.4009734e-01
 -2.8129697e-01
 -1.3701152e+00
 -8.8379353e-02
 -4.5436794e-01
 -9.3564533e-02
 -1.2977822e+00
 -1.7629318e+00
 -4.0259399e-03
  1.0470188e+00
  2.2618396e+00
 -6.4161062e-01
  3.0128512e-01
 -7.4142182e-01
  1.2659345e-02
  5.1240968e-03
  2.6057991e-01
 -4.2092088e-01
  1.6528603e+00
  1.5069194e-03
 -7.8378897e-03
  1.0675139e+00
  6.2569365e-02
  3.9754356e-03
 -5.1944251e-03
 -2.7945035e+00
  2.8904844e-02
  7.9750538e-01
  1.8411823e-01
  1.1540771e+00
  2.2031735e-03
 -5.1979156e-04
 -2.5887388e-01
 -1.0276294e+00
 -3.4269238e-01
 -2.2491281e-01
 -1.4644338e-01
 -8.3098310e-01
 -1.9595750e-02
  5.8505643e-02
  6.5805106e-03
  4.6592381e-02
 -1.9060221e-02
  9.4813073e-01
  2.4188330e+00
 -1.3183479e+00
  3.1484377e-02
  2.3990626e-02
 -5.2531739e-03
 -3.7701833e-01
 -2.8981027e-01
 -1.8520023e+00
 -1.3083342e-01
 -1.3332443e+00
 -5.2945089e-01
 -1.2719480e+00
 -9.3572284e-04
  2.2320110e-01
  5.6874871e-01
 -4.9720701e-02
  3.9666516e-01
 -1.6703571e+00
 -1.7877415e-01
  1.2969595e-02
  1.3674823e-02
 -9.1995388e-02
  3.7724310e-01
 -7.7830547e-01
  1.1534716e+00
  1.5875750e+00
  3.4855413e-01
  1.3322999e-01
  2.3614657e-03
  3.6874360e-01
 -5.1441592e-01
 -2.9744912e-02
  1.5977471e-01
  6.0812312e-01
 -1.6249476e-01
  2.2967584e-01
 -1.1962221e-03
  5.7509553e-01
  2.0907161e+00
 -2.7028532e+00
 -1.1159069e-01
  2.7156076e+00
 -3.4448302e-01
  4.2057067e-02
  7.7977045e-03
  1.3262719e+00
 -4.4131655e-01
  2.3645160e-01
  1.2986997e+00
  7.8554153e-01
  7.1723610e-02
  8.1853084e-03
 -5.5299111e-02
  4.1913785e-02
  1.7788169e-01
  1.1326270e-01
  1.3518192e-01
  1.3967450e+00
  1.3175911e+00
  6.6146916e-01
 -6.1576121e-04
 -2.5514621e-01
 -4.9261379e-01
 -1.0543478e-03
  7.8149790e-01
  1.0949100e+00
  9.2624612e-03
  6.3097128e-03
  4.9116709e-03
 -3.2170132e-01
 -1.3668731e-01
  1.6256156e-03
 -6.5728271e-04
 -3.7153265e-01
 -1.3656867e-01
  2.2420768e-02
  3.2655396e-03
 -7.9724632e-02
 -3.4833029e-01
 -8.2740587e-01
 -1.6801658e-01
  1.5694443e+00
 -2.2107972e-02
 -1.3594849e-03
 -1.9596012e-01
  1.6383870e+00
  1.3013198e+00
  1.9064249e-01
  2.4834496e-01
 -1.5648390e-01
  1.7848494e+00
 -1.1304953e+00
  2.2759628e-03
  7.8526951e-02
  8.4517688e-01
  9.6524823e-01
  7.4198566e-02
 -2.3590188e-01
  1.4873663e-01
  2.0490604e-02
 -2.2398813e-01
  6.2525803e-01
 -4.8812693e-01
 -7.6834184e-01
 -6.2226094e-03
 -3.6974120e-01
 -2.5831717e-03
  9.2079359e-01
  9.6222223e-04
  7.6972580e-01
  1.4614856e+00
 -9.2747599e-01
 -2.5036093e-02
 -6.9356686e-01
  9.5510036e-02
  4.3127665e-01
  4.6927178e-01
 -1.2309448e-02
 -2.1722966e-01
  8.4811330e-02
  1.2665148e-01
  8.1397820e-01
 -5.1510814e-03
  2.3623193e-03
 -3.2754366e-03
 -2.1396627e+00
 -1.8027254e-03
 -1.7414082e+00
 -2.8591914e+00
 -3.0316953e-02
 -1.1729752e-01
  2.2890035e-03
 -1.0461614e+00
  1.2981551e+00
  1.0779137e-01
  2.1014217e-01
  1.1258264e-02
  6.2488174e-01
 -5.5194634e-01
 -7.4813354e-01
 -1.6651297e-03
 -1.8054844e+00
 -8.0045766e-01
  1.2785432e+00
  1.8167940e-01
 -4.5738345e-01
 -4.4167826e-01
  2.9906753e-02
 -3.0979849e-03
 -3.7492800e-01
 -3.1995285e-01
 -4.1408208e-01
 -1.0627419e+00
 -2.7403420e-01
  4.3836106e-02
  2.0560222e+00
 -8.3776899e-03
  2.2633402e-01
 -4.2861602e-01
  1.5565532e+00
 -7.4998233e-03
  2.4063575e-01
  2.1149705e-01
 -8.7067764e-03
  1.8050151e-02
 -6.9261062e-01
 -1.1136206e+00
 -9.4851539e-02
 -3.4500548e-01
  5.5983526e-01
  1.0765772e+00
 -1.6890821e-01
  1.7364193e-03
 -1.2604548e+00
  8.0574739e-01
  5.3723669e-01
 -4.2935493e-03
 -1.6159354e+00
  7.3928070e-01
 -1.3000901e-03
 -1.4485000e-01
 -1.2203575e+00
  1.6975158e+00
  8.3660662e-02
  1.7420319e-01
  5.6138378e-02
  1.1315302e+00
  1.0920910e+00
 -1.8482313e-02
 -3.0883676e-01
  3.6195740e-01
  6.4124262e-01
 -1.4662980e+00
 -1.0130572e+00
 -2.8330440e-02
  4.8833076e-02
 -1.5424358e-02
  2.8955925e-01
 -2.3781189e-01
  1.1092983e+00
  5.8548665e-01
 -6.2652588e-01
  3.0330247e-01
 -5.1195472e-03
 -1.6544086e-03
  1.0157739e+00
  1.7049389e+00
 -3.6126995e-01
  4.9944487e-01
 -1.6097090e+00
  4.2376161e-02
 -5.9152241e-03
  4.2832135e-03
 -1.5114029e-02
  1.5089705e+00
  1.8909249e-02
  3.2413042e-01
 -2.0255588e-01
 -6.5487443e-04
  1.1141542e-02
 -1.3726027e-03
 -5.8652596e-03
 -3.0575109e-01
 -1.2633671e-03
  3.3303541e-01
 -2.5327289e-01
 -7.1434719e-03
 -2.2054559e-01
 -1.1859162e-02
  1.6616331e-02
 -2.4844136e+00
 -1.9861102e-01
 -7.5964874e-01
  4.5478880e-01
 -2.9684743e-04
  1.7727035e-03
  2.0269528e-03
  3.5554430e-01
 -1.6011295e+00
  1.5733223e-03
  1.2460770e-02
 -1.6951963e+00
 -3.6957643e-03
 -1.6971739e-03
 -5.6794737e-03
 -5.9846634e-01
 -3.5001132e-01
  1.1384254e+00
  1.8524759e+00
  4.1994548e-01
  2.2743089e-01
  7.6232724e-02
  5.8654137e-03
  9.1896325e-01
  1.4598011e+00
 -3.2092565e-01
  2.1699617e-02
  1.1783829e-01
  4.2555988e-01
 -6.2274933e-04
  1.1353114e-01
 -1.8083701e+00
  1.9877492e+00
 -8.5842556e-01
 -3.3390296e-01
 -5.1180696e-01
  2.4545570e-01
  4.1348352e-03
 -1.1441047e-04
  3.0651616e-02
 -3.5502857e-01
  1.7111757e-01
  7.0310420e-01
 -1.7161627e+00
 -7.8313993e-03
 -1.0423866e-03
 -1.3478208e-02
 -5.8313060e-01
  1.6591210e+00
 -7.4252285e-02
  8.4429771e-01
 -9.1280848e-02
 -6.4089790e-02
  2.4808818e-04
 -1.3762517e-03
  1.1326528e-01
  1.0410320e+00
 -9.6545760e-03
  5.0704855e-01
 -7.2119972e-03
 -4.0268907e-04
  3.7226051e-03
 -3.2560083e-03
 -3.9115480e-01
  7.9667765e-01
  1.4998385e+00
  2.4073286e+00
 -3.2821655e-01
  4.9710551e-01
  6.2390338e-03
 -1.9832801e-02
  1.5845167e-03
 -4.4099471e-01
  1.2805556e+00
  2.1505639e-02
  1.1323428e+00
 -1.3698177e-01
  4.8015439e-03
 -6.9203731e-03
 -2.5046367e-02
  8.6684573e-01
 -3.4948501e-01
 -2.1507822e-01
 -7.3987252e-01
 -4.9075103e-01
 -9.6627191e-02
 -3.6038207e-03
  1.7318319e+00
  2.6145795e-01
  3.0779192e-01
  5.3863288e-03
 -1.5941896e-01
 -4.3407036e-03
 -8.3435461e-04
 -4.7699385e-03
 -6.2585600e-02
  1.1611844e+00
 -5.4200542e-01
 -1.0689257e+00
 -1.1034883e+00
  1.2423914e-01
 -1.7115585e+00
  7.9841260e-04
  5.5323195e-02
 -1.2235994e+00
  5.3600863e-05
  7.3244184e-01
 -6.1770018e-02
 -2.0508480e-01
 -1.7351435e-01
  2.9681576e-02
 -9.3703926e-01
 -1.1233828e+00
 -1.7820595e-01
  2.9593937e-03
  1.4311578e+00
 -6.6036302e-01
  6.6948153e-02
 -1.2510158e-03
  7.8498256e-01
 -4.3542194e-01
 -2.8758969e+00
 -1.0894084e-01
  1.1698605e+00
  6.3423151e-03
 -3.6199048e-02
 -4.5917430e-03
  4.9207076e-02
  7.6102048e-01
  4.6431556e-02
  2.0604308e-01
 -6.3596201e-01
  7.1067763e-03
  6.6338323e-02
  1.0740190e-03
 -3.8146147e-01
 -1.0664513e+00
 -9.6240121e-01
 -4.1376615e-01
  1.9257469e+00
 -5.0222792e-02
  1.5916418e-03
  5.0817333e-02
 -1.2622698e-01
 -8.8294417e-01
 -3.3098108e-01
 -3.0843031e-01
  1.3424652e+00
 -3.4421720e-02
 -4.9264364e-02
 -1.6536204e-02
  1.1313533e+00
  9.2024934e-01
  1.1864545e+00
  3.9559130e-02
  4.5211247e-01
  2.8601754e-01
 -1.0699113e-02
  2.5387314e-01
  1.3766912e-01
 -6.2897462e-01
  2.0472951e+00
  6.7780715e-01
  8.0278510e-01
  1.2946569e+00
  1.1677343e+00
 -6.2372396e-03
 -2.5601052e-02
 -1.5914400e+00
 -1.4363937e+00
 -1.2706929e+00
  1.2996790e+00
  5.8686394e-02
 -2.4452577e-03
 -1.9580005e-01
 -2.8541401e-01
  3.0372250e-01
 -1.3024901e-01
 -2.0783046e-01
  2.7022108e-01
  4.2527440e-01
 -5.6630023e-02
 -2.5936177e-02
 -2.2283714e+00
 -1.1470896e+00
 -2.8068936e-01
 -1.3956355e+00
 -7.4642909e-01
 -5.8188462e-03
  1.8106375e-02
  5.9419751e-01
 -1.7051232e-01
  2.3545206e-02
 -3.2725535e-02
  4.3098844e-04
  4.0096989e+00
 -7.2639048e-01
 -3.6446969e-03
  7.9382956e-03
  5.0029308e-02
  3.1864262e-01
  1.3665742e+00
 -5.5226672e-01
  4.9944752e-01
 -3.7975946e-01
 -1.0341861e-01
  4.3875890e-04
  3.1242189e-01
  5.3439665e-01
  3.0194694e-02
  4.0162701e-02
  2.9989856e-01
 -1.5180651e+00
  2.6429656e-01
 -8.0139361e-02
  1.6506678e+00
  8.6549324e-01
  4.1386491e-01
  1.8982781e-02
  7.5257838e-01
 -3.7639144e-01
 -5.0786935e-04
  3.8877756e-03
 -1.0220733e-01
 -6.9203532e-01
 -5.7396579e-01
  9.9445939e-01
 -1.9506882e+00
  4.1046202e-01
 -7.8395160e-04
 -1.1633723e-03
 -1.4186442e-01
  5.4277164e-01
 -1.1371841e+00
  2.8821865e-02
  9.7171789e-01
  1.0971981e-01
 -9.2073210e-04
  6.2782764e-01
 -3.6528337e-01
 -4.1161132e-01
 -1.8175341e-01
 -4.7576708e-01
 -2.1435177e+00
 -2.6354415e-02
 -5.0766265e-01
 -6.7025848e-02
 -2.3879545e+00
 -4.7892380e-01
 -1.4991837e+00
  1.3513378e+00
 -4.7510475e-02
 -1.3703645e-04
  6.3475431e-04
 -8.2811210e-05
 -1.3266631e+00
  5.4979062e-01
  2.2297294e-03
  3.7461188e-01
 -1.8283045e-02
 -2.3599932e-04
  9.7265637e-01
  1.2594255e-03
  4.6937156e-01
  4.7611117e-01
  8.3529609e-01
  5.9715077e-02
 -5.2690339e-01
  1.3720762e-02
 -2.3859579e-03
  6.9312972e-04
  2.9901040e-03
  8.2125247e-02
  4.4489573e-03
 -3.8771697e-03
 -5.6616157e-01
 -7.6525181e-04
 -7.4003623e-03
 -4.1336336e-04
  7.2018877e-03
  1.8385574e+00
  4.9093732e-01
  4.1910723e-01
 -2.1060350e+00
 -6.5858308e-03
 -2.5729770e-03
  5.4763788e-01
 -2.9728194e-03
  1.0636001e+00
 -1.2251647e-03
  4.7476217e-02
  2.4832959e-01
 -1.3717647e-03
 -8.8299932e-03
  3.5716177e-04
 -1.3563662e-02
  2.0815969e-01
 -3.0324405e-01
  2.2709230e-01
  1.0536319e+00
  6.1354311e-03
  1.8012946e-02
  3.1170605e-03
  9.8480862e-01
  5.8686441e-01
 -5.6550745e-04
  1.0734901e-02
  1.1577218e+00
  5.6874286e-04
  9.6727759e-03
  5.3262874e-03
 -9.0524954e-01
  1.5367506e-01
  1.2437949e+00
  1.3679272e+00
  4.4178975e-01
 -4.5182146e-03
  3.5241209e-03
  1.2457262e+00
 -1.6079092e-01
 -1.9113626e-03
 -2.5040355e-01
 -3.0151801e-03
 -1.7588676e+00
 -4.0795472e-03
  2.1191344e-03
 -3.6262528e-03
  5.9669614e-01
  1.7272993e+00
  1.7559699e+00
  1.3235269e+00
 -4.8317569e-01
 -7.8952120e-04
 -2.3467939e-02
 -1.9706903e-02
  3.0293918e-04
 -1.1036462e+00
  4.3692842e-02
  3.3215545e-02
 -5.8163327e-01
  1.8572548e-03
 -7.2956495e-02
  3.2151685e-04
 -9.8410863e-01
 -3.3394805e-01
 -3.5440916e-01
  6.2243593e-01
  2.0819380e+00
  3.9726179e-03
  1.2219833e-01
  9.0722647e-03
  7.9148918e-01
 -1.2099507e+00
 -3.4936951e-04
  1.8106354e-02
 -1.6669086e+00
  2.7909665e+00
  1.7119071e-01
 -8.8158023e-04
  3.3932424e-01
 -9.5928329e-01
  2.3357514e-01
  6.3103281e-02
  4.1247568e-01
  2.1591373e-01
 -2.8916518e-03
  9.8934164e-03
 -6.2254101e-02
 -9.6534837e-05
  5.3689387e-03
 -1.3685318e-03
 -1.7524530e+00
 -3.2303955e-02
  2.0286816e-03
 -9.5349248e-04
 -7.8056020e-01
 -1.3430522e-01
  1.1350399e+00
  3.3132359e-01
 -1.5118405e+00
 -1.6818497e-03
 -1.8598231e-03
 -1.3677230e-03
 -1.1259890e-01
  1.3006930e-01
  4.5297917e-02
  3.7461436e-01
  2.8591084e-01
  1.9467317e-02
 -3.2752523e-01
 -7.5075123e-04
 -4.6544576e-01
 -2.0846228e-01
  1.4309391e+00
  1.3883417e+00
 -1.9207380e+00
 -1.3930171e-02
  3.9360607e-01
  1.8566012e-02
 -1.0207776e-01
 -1.1494552e+00
 -5.9016049e-03
  4.6144614e-01
  3.2938826e-01
  6.0481364e-01
  4.2914748e-01
  2.3964193e-04
 -1.6597327e+00
 -1.2622255e+00
  7.2364473e-01
  1.1486681e+00
  4.9582949e-01
  1.6097579e-03
 -1.1164823e-01
 -3.6078860e-04
 -3.7886126e-03
  1.0583586e-03
 -2.9928784e-03
  4.7499436e-04
 -4.3152720e-03
  1.1177921e-01
 -1.0166811e-02
 -4.1094452e-02
  8.4366585e-04
 -1.8829271e+00
  2.1002050e-03
 -1.2994845e-01
  4.8278970e-01
 -3.3363711e-02
  1.6506043e-01
 -1.2745405e-02
  1.6312310e-02
 -5.0864106e-01
  1.9687291e-03
  4.2774293e-01
  1.0229913e+00
  2.8437746e-01
  8.3110154e-02
  6.4681619e-03
 -1.2117195e+00
  4.0995809e-01
  3.2670993e-01
  4.5462826e-01
  1.4107615e+00
 -9.4258994e-02
  2.3865487e-02
  5.1857326e-03
 -7.5099838e-01
 -4.4305199e-03
  1.1760175e-03
  2.0300025e-02
  7.1030849e-01
  4.6493292e-01
 -1.9783764e-03
 -3.6992100e-03
  3.4055775e-01
  4.1613758e-01
 -2.8293612e+00
 -2.2329412e+00
  1.4506090e-01
  2.0471780e-01
  1.5424303e-04
 -6.5843563e-04
 -2.9568687e-01
 -2.5168124e-01
 -8.6406976e-02
  4.2515784e-03
  6.5955641e-03
  3.2448040e-03
  1.3095334e-03
  6.4342975e-04
  1.0075641e-03
 -4.7692430e-01
  3.5041085e-01
  1.4331570e+00
 -1.6252345e+00
  2.0153873e-02
  2.8955799e-01
 -4.9913079e-03
  3.3522329e-01
 -7.7013588e-03
 -1.1693422e-04
  2.0282219e-01
  1.2279443e+00
  6.0252990e-03
  3.7156561e-01
  1.2114511e-03
 -4.4124618e-01
  9.8757565e-01
  1.5147520e+00
 -7.5899407e-02
  1.2273949e-01
 -3.2590279e-01
  3.1453068e-03
  8.4157763e-03
 -8.3900994e-01
 -4.3863693e-01
 -1.1721428e-03
  3.8424492e-02
 -2.0517537e-01
  2.3441286e+00
 -1.7053252e-02
  9.9980133e-04
 -4.8836306e-01
  9.8852146e-01
  6.9842839e-01
 -1.1316080e+00
  1.1668714e+00
  4.1593760e-03
  1.4593726e-01
 -1.9856533e-02
 -5.7746083e-01
 -8.3056504e-01
 -3.0219262e-03
  4.6869162e-01
  4.6301611e-02
  9.0306103e-01
  7.6625353e-01
 -1.5194437e-03
 -9.3615530e-03
  6.4910805e-01
 -7.2067022e-01
 -5.6980574e-01
 -3.8686022e-01
  2.0215373e-01
  4.0788062e-02
  1.2003788e-03
  7.6042670e-01
  3.3539776e-02
 -1.0804297e+00
 -5.0767004e-03
  2.3766622e-01
  3.0133107e-01
 -2.2169001e-02
 -1.8455889e-03
 -9.5327593e-02
 -6.6725963e-01
 -7.6474816e-02
 -3.3793503e-01
 -8.6529410e-01
 -9.2962533e-03
  2.1672959e-02
  6.3159108e-02
  1.3588275e-01
 -3.9097467e-01
 -5.3698006e-03
 -5.7013235e-03
 -1.0525492e-03
  9.3805276e-02
  1.6643560e-02
 -1.9376200e-03
 -1.6861786e-01
  3.6641520e-01
 -1.8746507e-01
  7.2955090e-01
 -1.5887120e+00
 -1.2177319e-03
  2.0112360e-03
  3.2885091e-03
 -1.5336809e-01
  1.3928656e-02
  4.6657870e-04
  3.1798915e-03
  1.5588913e-03
  1.9990990e-01
 -3.8369966e-03
 -7.4869879e-03
 -2.1918896e-03
  6.6181004e-01
  4.9258508e-03
 -2.0198441e+00
  5.6718472e-02
 -7.6687994e-04
  1.0646535e-02
  1.2440103e-01
  1.2194607e+00
 -2.7361920e-01
 -4.0267520e-03
 -3.7832875e-04
  3.8084034e-02
 -1.0392391e-02
  7.4571939e-03
 -7.1542559e-04
  6.8345606e-01
  1.2288972e+00
  1.8139327e+00
  1.0883567e+00
 -5.1851118e-01
 -3.6668313e-01
 -2.1395234e-03
 -2.0970286e-04
  1.3100117e+00
 -7.8657912e-03
  1.7877767e-03
 -3.2845680e-02
 -1.0736911e-01
  5.1692301e-01
  3.7475904e-03
  1.3483998e-03
  3.2753689e+00
  5.9275138e-01
  3.9840618e-01
  5.9403151e-01
  4.4133846e-02
  2.3270054e-03
  1.0606491e-02
  9.8169949e-03
 -3.4924808e+00
  5.7038158e-04
 -3.0240476e-02
 -4.4831808e-04
 -7.8488197e-03
 -4.9090701e-01
  1.4460599e-03
  1.1127389e-03
 -1.2916307e+00
  7.1707569e-02
  2.9706035e-02
 -1.6256980e+00
 -1.7720614e-02
 -1.0169169e-01
 -3.3837070e-03
  2.6167717e-03
  4.4874439e-01
  8.7154639e-01
  4.7002992e-04
 -8.3508827e-03
  4.5031527e-01
 -1.1671861e-01
  4.6986680e-02
  1.1220180e-03
  6.4362913e-01
 -5.0696868e-01
 -7.8579731e-02
  2.4586718e+00
  8.2213841e-02
 -1.3854268e-03
  6.8488922e-03
 -9.2769368e-03
  3.1822672e-01
  4.8627937e-03
 -1.3065761e-02
 -4.3764929e-03
 -5.7673657e-01
 -1.9782217e-01
  4.4078156e-03
  2.8737432e-03
 -2.8815264e-01
 -2.1168220e-01
 -3.7040678e-01
  9.5473444e-01
 -7.0659059e-01
  6.5264732e-02
  1.1020529e-01
  5.0356802e-02
  2.2022772e-01
  2.3117539e-01
 -3.1403072e-02
 -6.4088888e-03
 -1.0579977e-02
  6.6691214e-01
  2.4698661e-01
  2.0760298e-03
 -8.5591626e-01
 -1.1930362e-01
  1.6526929e+00
 -1.7992595e+00
 -5.4500483e-02
  1.5758456e-01
 -6.0876958e-02
 -9.5672878e-03
 -3.1404603e+00
 -2.0755175e-01
 -9.8023694e-03
 -6.4097135e-03
  6.9244027e-01
  2.5390048e-02
  2.4037814e-04
  2.2128532e-03
 -1.1054820e+00
  2.7650645e-01
  1.1566437e+00
 -1.1289113e+00
  6.6597790e-01
 -6.4052187e-02
 -2.8626993e-01
  9.4791603e-01
 -7.6709963e-02
 -1.0838782e-02
 -9.5458686e-02
 -1.0865430e+00
  1.8476106e-02
 -5.0320931e-02
  1.8045378e+00
  1.8406210e-03
  3.8057044e-02
 -1.1719491e+00
  3.2443210e-01
 -1.6681949e+00
 -1.8099153e+00
  6.3995095e-03
  1.6304757e-03
  1.1659656e-01
  1.9195066e-03
  1.2599258e-03
  2.6965169e-03
  1.8001271e-04
 -4.8889318e-03
  3.4422965e-03
  4.1552056e-03
  2.8932001e-03
 -4.0922998e-04
  7.0176147e-02
 -2.8618107e+00
  9.5655262e-01
 -1.0341704e-03
 -7.7413812e-02
 -6.5347594e-03
  1.5434155e-01
 -2.5723856e-03
 -7.9768467e-01
 -1.6875650e-01
 -1.1713130e+00
  7.9104334e-01
  1.2686333e-03
  2.4946783e-01
 -1.0838482e-03
 -3.4127480e-01
  2.4691989e-01
 -5.8652204e-01
  2.6911184e-02
 -3.5259646e-01
 -4.9856456e-04
 -4.2278852e-02
  1.0240793e+00
 -4.6619633e-03
 -1.8494625e-02
 -1.2604511e+00
 -2.4539813e-01
  3.4059897e-01
 -8.6467546e-01
  1.2219013e-02
 -1.3941552e-02
 -1.2081014e+00
 -1.3172443e-01
  8.1023121e-01
  3.3219802e-01
 -1.5777731e+00
 -7.5259387e-02
  7.4011483e-04
  1.1854678e-03
 -6.8936562e-03
  6.0987892e-05
 -7.5060815e-02
 -1.6422097e-01
  1.2099002e-01
  1.0612743e-02
  1.8588269e-02
  1.1257318e-02
 -9.3811113e-01
  8.8285321e-01
  2.4132166e+00
  8.3505243e-01
  6.6481143e-01
 -1.2440822e-02
 -4.4544418e-03
  1.1225226e+00
 -1.3331864e-02
  6.4407349e-01
 -6.4669363e-03
 -1.8830972e+00
  5.9225732e-01
 -1.5012902e+00
  1.5356825e-01
 -3.9198852e-04
 -4.2259738e-01
  2.2506450e-01
 -8.2734150e-01
  1.8440939e-01
  5.9694636e-01
 -3.5543900e-02
 -1.0868808e-01
  3.1200558e-01
 -5.9887804e-03
 -2.0570885e-01
 -2.9752096e-02
  8.9783629e-04
 -3.5518381e-01
 -6.1685429e-04
  1.3320834e-03
 -5.0301868e-03
  5.6529576e-01
  8.2868451e-01
  1.6514480e+00
  5.0485027e-01
 -5.9676033e-01
 -3.9539427e-02
 -7.1417133e-04
  6.5830134e-02
 -2.2079062e-03
 -1.9086997e-01
 -1.1918252e-02
 -1.4791743e+00
  8.4617309e-02
  8.2429504e-01
  1.9625081e-01
  9.5504330e-04
 -1.1071577e+00
  8.9210939e-01
  2.7449059e+00
 -1.6060562e+00
  1.1132698e+00
  1.9141915e-03
 -3.3773038e-01
  3.8841379e-01
 -8.5660659e-02
 -5.8001739e-01
 -1.2570854e-03
  3.9344095e-03
 -1.4391889e-01
  2.2588496e+00
 -7.5759361e-03
  1.6482821e-03
 -2.2794740e-02
  2.0658034e-01
  6.5735298e-01
  8.3336943e-01
  4.2659283e-01
 -2.6964395e+00
 -2.2477017e-01
 -5.3079790e-01
  8.9040059e-01
 -2.2307500e-01
 -2.2591932e-03
  3.7363546e-03
 -9.6015714e-02
  7.8328097e-01
 -8.8160205e-01
 -6.5687968e-04
  6.7458826e-01
 -8.3751076e-01
  3.3028415e-01
 -1.0751586e+00
  1.0104906e-01
 -4.4774469e-02
 -4.9340390e-03
 -1.3380519e-02
  1.3445005e-01
 -4.9744658e-03
  1.9004053e-03
  5.4338309e-03
 -1.9639909e-01
 -1.1433017e-02
 -7.2452556e-03
  3.5401108e-03
  9.0223901e-02
  6.5107502e-02
  4.7183850e-01
  1.4165775e+00
  1.2201300e-01
 -5.6678104e-01
 -1.2085299e+00
 -1.0875342e-03
  2.6805297e-01
 -2.9491108e-02
 -2.3737310e-03
 -2.3169135e-04
 -2.1229543e-02
  1.2466736e-01
 -6.4219397e-01
  4.9348976e-03
 -6.8227983e-01
  1.3494470e+00
 -2.5649449e-01
 -6.6677064e-02
  7.4846423e-01
 -7.5673318e-01
 -6.4742970e-01
 -1.1211021e-01
 -1.3448050e+00
 -1.1699437e-01
 -2.4885457e-02
 -3.6886744e-05
 -6.4869410e-01
 -1.7816307e-01
 -2.4418479e-01
 -1.7323522e-02
 -1.2875043e-01
  7.6776928e-01
  6.4834422e-01
  1.9079314e+00
  5.7641196e-01
  4.8323600e-03
  2.3550160e-01
  3.4607060e-02
 -1.0628944e-02
 -1.0988714e-02
  2.6508340e-01
 -1.4614784e-03
  5.9980374e-02
  3.4874222e-01
 -2.4695117e-02
 -7.9931235e-03
 -1.6955870e-01
 -7.2233897e-01
  1.3841976e-02
  1.8798112e+00
 -3.1169596e-01
  1.3655578e+00
 -2.0100252e-01
 -1.6714664e+00
  5.1603365e-01
 -2.0203738e-01
 -4.6821637e-03
  5.1604775e-03
 -1.6507488e+00
 -5.0383937e-03
 -1.9689996e+00
  5.7716412e-03
  4.1347321e-02
 -4.0734094e-01
  2.0985894e-01
 -3.2940102e-01
 -1.9916012e+00
  3.2032165e-01
 -1.4307620e-01
 -5.6632441e-02
  1.6295112e+00
  4.9643493e-03
 -1.4995201e-03
 -3.7506786e-01
 -1.0558841e+00
 -3.5056573e-01
  6.4281328e-03
  1.3614479e-03
  1.0566808e+00
  2.3257971e-01
  1.6897644e+00
  4.1386169e-01
 -4.2782047e-01
  2.6132557e-01
  2.7759656e-01
  1.2158117e-02
  7.9972905e-01
 -2.6637667e-01
  5.5322461e-03
  1.1976333e-02
  3.9508507e-01
  1.2805219e+00
 -1.3352139e+00
  4.8719611e-04
 -1.0640152e+00
  5.9253156e-01
  9.0027970e-01
  1.4647328e+00
 -3.4257028e-01
  2.2635634e-01
 -1.0671368e+00
 -2.1668458e-01
  6.7621815e-01
 -3.1119213e-03
 -1.9386115e-03
 -6.1929487e-03
  7.9502922e-01
 -2.7679822e-01
  1.2664686e-02
  2.3760030e-03
 -1.9672315e-01
  1.1070582e-01
 -4.2811170e-01
  6.7544615e-01
 -7.0113045e-01
 -1.4379440e-01
 -1.1404338e-01
  1.6058211e-03
  1.3744824e+00
 -8.4693205e-01
 -2.4175338e-02
 -2.9507947e-01
  3.1778319e+00
  1.1541065e+00
  9.2981952e-01
 -1.0502101e-03
  8.3215278e-01
 -1.3877091e+00
 -3.3293229e-02
 -1.1087047e+00
  3.7051350e-01
 -1.2801140e-02
  3.8758465e-03
 -8.9144729e-02
  9.0846747e-01
 -7.2003088e-05
 -2.2608959e-03
 -6.1980728e-03
  4.9902350e-02
 -2.3311793e-03
  1.4199510e-04
  6.9433106e-03
  4.3784952e-01
 -4.7194743e-01
 -1.0110893e-01
  5.6695938e-01
 -3.2162043e-01
  1.2472876e-03
 -4.1876334e-01
 -4.1033257e-02
 -3.4658890e-02
  1.1343840e+00
 -4.6390048e-03
 -1.6278647e-01
 -1.9116439e+00
  3.3760298e-02
  7.2973734e-01
 -2.0398164e-02
  4.8084199e-01
  7.3186493e-01
 -4.6120730e-01
 -5.2954775e-01
  4.9417800e-01
 -3.8151816e-01
  1.0154761e-02
  2.7350703e-01
  1.0696870e+00
 -9.8976201e-01
 -2.2919288e-04
 -4.5964337e-04
 -7.9589970e-02
 -1.9965205e-02
  6.5614731e-05
  1.1628833e+00
 -2.6135437e+00
  6.1257452e-01
  8.3078317e-02
  2.0412822e+00
 -2.0016012e+00
  3.7834144e-03
 -2.4949262e-01
 -2.7666909e-01
  1.4153917e-01
 -1.4244843e-02
 -4.2295172e-03
 -2.0358722e-01
 -7.4206251e-01
 -5.6954288e-01
  1.9629958e-01
  7.1581302e-04
 -2.0441349e+00
  4.2682827e-01
 -9.6082181e-01
 -1.1340150e+00
 -1.2846115e+00
 -1.7264867e-01
  5.5655587e-04
  2.2943778e-02
  7.6235898e-02
  5.1850069e-01
 -6.0910289e-03
 -5.1720157e-02
 -1.3921462e+00
 -1.3722910e+00
  1.0711271e-01
  2.6828761e-04
  8.5207260e-01
  3.5831797e-01
 -1.9390209e+00
  1.7433697e+00
  2.8951749e-01
 -1.9903038e-01
 -1.0844377e-02
 -2.3109436e-03
  1.0504465e-01
 -2.2718237e-01
  8.7004161e-04
 -7.0805713e-03
  9.2410874e-01
 -3.2211837e-01
 -2.3929046e-01
  7.4137334e-04
 -2.4999091e-01
  4.0584025e-01
 -9.8770015e-02
  1.8434408e+00
  9.0562248e-01
 -1.7188057e-01
 -3.4047681e-01
 -1.2053811e-01
 -7.8763765e-01
 -2.4479346e-01
 -3.0486259e-01
 -2.4939962e-01
  1.1056023e+00
  1.7949650e-01
  2.1162858e-02
 -7.6626237e-03
 -1.4557191e+00
  2.5536266e-01
  7.2524285e-01
  1.1464643e+00
  5.2409482e-01
  1.2806524e-01
 -2.7056301e-03
  2.0645103e-01
 -4.1579321e-01
  6.3985638e-02
  2.6592171e-01
 -1.1356046e-03
  5.6932086e-01
  3.8750798e-01
  6.3385867e-02
  1.7283107e-03
 -7.4959415e-01
 -1.1026477e-01
  7.0363402e-01
  4.3529682e-02
  2.4440548e-01
  4.6828941e-02
  4.6828941e-02
  4.6828941e-02
  4.6828941e-02
  4.6828941e-02
  2.7381089e-01
  2.7381089e-01
  2.7381089e-01
  2.7381089e-01
  2.7381089e-01
  1.6558123e-01
  1.6558123e-01
  1.6558123e-01
  1.6558123e-01
  1.6558123e-01
  5.7737924e-02
  5.7737924e-02
  5.7737924e-02
  5.7737924e-02
  5.7737924e-02
  1.7484842e-02
  1.7484842e-02
  1.7484842e-02
  1.7484842e-02
  1.7484842e-02
  2.5736472e-01
  2.5736472e-01
  2.5736472e-01
  2.5736472e-01
  2.5736472e-01
