nep4 4 Li La Zr O 
cutoff 6 4 95 30
n_max 4 4
basis_size 8 8
l_max 4 2 0
ANN 30 0
  1.0507505e-02
 -1.3408555e-01
  3.1901984e-03
  5.7402276e-03
 -3.6748250e-03
 -5.1815626e-03
 -1.6065873e-05
  1.5823860e-02
 -4.0276111e-03
  6.6546868e-03
  1.3772858e-03
 -1.8143553e-02
  4.6839779e-03
 -5.9218202e-03
 -3.9938986e-03
 -6.3431570e-03
 -2.2925399e-04
  3.4506771e-01
  2.8009869e-03
  2.3042720e-03
  3.8258573e-03
  6.2949420e-03
 -3.0313088e-03
 -2.0344560e-03
  1.5742028e-02
 -1.4366709e-03
  1.3583093e-02
  2.8053191e-03
  1.4350589e-02
  5.4322896e-03
  2.0941882e-01
  5.0182259e-01
 -3.5655415e-01
  1.3754623e-03
  6.4154051e-02
 -8.5673351e-03
  4.8875708e-02
 -3.9354186e-03
  9.0920785e-03
  4.6348758e-03
  3.7172124e-02
  3.5315447e-02
 -1.8394259e-01
 -3.8083934e-03
 -1.3130810e-02
  1.1752759e-02
  3.8302328e-02
 -2.1066375e-03
  1.4695512e-02
 -1.1560654e-03
  1.1484131e-01
  6.9235194e-01
 -1.4325892e-02
  4.8414534e-03
 -2.1160606e-02
  3.8109648e-03
  1.2864230e-03
 -1.3804609e-01
  5.6770857e-02
  8.2575679e-03
 -1.8582549e-02
  7.4060098e-03
  1.5228270e-03
 -2.4958661e+00
  5.5735004e-03
  5.2128488e-04
  8.5749303e-04
 -4.3624982e-01
  9.2059243e-03
 -8.3337333e-03
  5.3183339e-03
 -3.5958565e-03
 -5.5671312e-06
 -3.7505445e-03
  1.0413690e-03
  2.7418479e-03
 -1.4363431e-03
 -4.2870161e-01
  2.8275330e-02
 -1.5714355e-02
 -6.0908106e-04
 -2.3304627e-03
 -4.0982584e-03
 -1.2109887e-02
 -5.2210537e-04
  9.9725891e-03
  2.8092545e-03
  5.0058928e-03
 -8.5798604e-03
  1.1843855e-02
 -6.7162186e-01
 -1.1349527e-02
 -8.9043248e-03
 -1.5691226e-02
 -2.7259551e-03
 -4.3427879e-03
 -4.1611150e-01
  2.3601474e-02
  4.0872036e-03
 -7.4942135e-03
 -2.2635569e-03
 -1.4420921e-02
  2.1695290e+00
  1.4886425e-02
 -1.2082542e+00
 -6.8817311e-03
 -1.4502448e-03
  8.8528786e-03
 -2.2980992e-03
 -8.0255508e-01
 -9.1123050e-03
 -4.2946795e-03
 -2.6964284e-03
 -4.6245479e-03
  2.9715660e-04
 -1.5819667e-02
 -1.1380015e-02
  1.1239976e-02
  1.0378545e-02
 -1.6741474e-03
  8.2275160e-02
 -2.3802387e-02
 -1.3149898e-04
  2.3440722e-02
 -6.3976775e-05
 -2.8804028e-01
 -1.3680731e-02
 -1.9444191e-03
  1.0854958e-03
  7.7298698e-03
 -7.9721017e-03
  1.0511861e-02
  8.6654089e-03
  2.1227687e-03
  1.3283729e-02
  1.4964323e-02
 -6.3465757e-04
  8.0996510e-03
  1.6400080e-02
  4.8905349e-04
 -2.9104089e-03
 -2.7672556e-04
  3.1856366e-02
  2.7459585e-03
  3.5496480e-03
 -9.7929006e-03
  2.5494542e-04
 -1.0033148e-02
 -1.2050916e-02
  2.6264116e-03
  1.2996582e+00
 -1.1970907e+00
  1.6627587e+00
  2.6165417e-01
 -7.5442082e-01
 -6.1930645e-01
 -3.4285966e-02
 -6.3073260e-01
 -3.9944148e-01
  3.7412098e-01
 -7.3228765e-01
 -1.1188239e+00
  1.6153042e-01
  1.0455624e-03
  4.5048848e-02
 -6.4873862e-01
 -1.6784422e-01
  7.2938836e-01
 -4.1727775e-01
 -4.6609487e-02
  1.0744636e-02
 -2.2392489e-03
  2.2259320e-01
 -2.1241957e-02
 -7.5248331e-03
 -2.7067717e-02
  9.6444052e-04
 -9.1393699e-04
 -8.3914660e-02
  9.2812499e-04
  5.0576478e-02
 -1.6646718e-03
 -4.2858976e-03
 -4.5953202e-01
 -8.2992753e-03
 -2.4396512e-03
 -1.4105977e-02
  9.9544870e-03
 -4.1278335e-03
  1.3052430e-03
  7.9685822e-03
  6.8953438e-03
  1.9035226e-03
 -2.2020822e-03
 -2.5111344e-04
 -3.7784495e-03
  3.1371606e-03
 -2.4808319e-03
 -9.5026009e-03
  6.0933004e-03
 -1.1902684e-03
  6.8656243e-03
 -5.5060983e-03
  3.3509387e-03
 -4.7880928e-03
  1.0996814e-01
 -1.1714250e-02
 -7.7713354e-05
 -6.0359553e-02
 -4.1949027e-03
 -1.2292728e-02
  6.2115699e-01
 -1.7841111e-01
 -3.3633228e-02
  2.6894385e-01
 -3.0066493e-01
 -8.7569410e-04
  4.1366080e-03
  1.2605009e-02
  8.6910456e-01
  5.2301021e-04
  6.9368851e-01
 -8.8236898e-02
  5.2194417e-01
  3.7035644e-03
 -2.7358348e-03
  4.9426097e-02
 -3.6374342e-03
  1.9278295e-02
  1.1081755e-02
  2.2145173e-01
  3.1778112e-02
 -6.8303044e-03
  6.8783559e-02
 -2.3890487e-03
  1.0721885e-02
 -3.2272148e-03
  4.0388107e-03
  3.0648561e-02
  1.8699964e-03
 -3.0521920e-01
  1.2226974e-01
 -1.1737520e-01
  5.4152846e-01
  8.8726538e-01
  8.6146480e-01
  3.8273689e-01
  6.0031869e-02
  2.7205861e-01
 -3.5136095e-01
  1.7148955e-01
  7.3050714e-01
 -2.4943066e-01
  4.9719232e-01
  3.0938573e-03
  4.2662597e-01
  3.7164706e-01
 -2.4016835e-02
  7.6132394e-02
  9.8847255e-02
  5.2760267e-03
  1.0412219e-01
  1.2214331e-01
  7.9558665e-01
 -3.0712999e-02
  2.6289895e-02
 -3.3144284e-02
 -6.4734891e-03
  8.0484850e-03
  6.3873287e-03
  1.6783583e-01
  4.0058795e-01
 -6.5444261e-01
 -1.5997181e-02
 -5.5279118e-01
 -5.1036295e-02
  4.2860776e-02
  1.0239272e-02
  6.3494900e-03
 -2.8047875e-01
  3.6610490e-01
  3.5326570e-02
 -1.7450674e-02
  5.3519020e-03
 -1.1789747e-02
 -5.5140685e-02
  2.9540041e-01
  1.0075467e-01
 -3.5007885e-01
  4.6379715e-02
  7.9269111e-02
  1.6509973e-02
 -1.2131452e-01
  1.4603169e-01
 -1.2516265e-02
  6.2952810e-03
 -7.1771592e-03
 -2.8720284e-03
  1.2547182e-01
  4.2827665e-03
 -6.0559460e-04
  2.8838924e-04
 -6.3082058e-04
  3.1444922e-03
 -6.7669165e-01
 -7.1848794e-03
 -9.9907685e-03
 -5.5398522e-03
  4.2635268e-03
  7.4507850e-03
 -3.1719348e-04
  4.9060019e-04
 -1.6621828e-02
  1.2186846e-03
  6.8734591e-03
 -3.8438556e-03
 -2.6770881e-03
  1.0408137e-02
  8.5534400e-04
  1.1183211e+00
  1.5113722e-03
  1.2543841e-03
 -6.7388061e-03
 -5.8942538e-04
 -4.0969692e-02
  4.3509221e-03
  2.3284115e-04
 -9.3994886e-03
  2.5350554e-04
 -4.4286740e-03
  1.7170170e-01
 -2.1666753e-01
  1.1116959e-02
 -2.3343994e-01
 -2.3131908e-03
  6.5760858e-02
 -1.7043647e-01
 -2.9698138e-03
 -1.3269253e-01
  8.7494694e-02
 -1.9603180e-02
 -1.2526727e-01
  1.5478705e-01
 -1.0344952e-01
 -9.9700261e-03
 -4.0010970e-02
 -2.2527714e-01
 -5.5287354e-02
 -6.6895485e-02
 -4.4196220e-03
 -2.8192712e-02
 -4.0641297e-02
  2.7718478e-01
 -1.4258336e-01
  5.4774806e-02
 -3.0206495e-03
  9.8379422e-04
  9.4400849e-03
 -3.7509464e-02
  9.7726285e-04
 -2.1752045e-02
  1.0791020e-02
  5.3900711e-02
  3.3503477e-03
  1.0160453e-01
 -7.9930902e-02
  6.1797159e-04
  5.5423728e-04
  6.1295084e-03
 -5.1996484e-02
  8.7011479e-02
  6.8012550e-02
 -2.0536445e-02
  3.8473424e-02
 -3.3247509e-04
  2.4222398e-02
  2.0202853e-02
 -1.0443591e-01
  1.3118638e-01
  4.6731429e-03
  4.3231561e-03
 -1.0304797e-03
 -6.8274215e-02
  4.7570020e-02
 -1.3412233e-02
 -5.9920237e-03
  1.2108430e-03
 -1.1225599e-03
  4.4310847e-03
  1.0791087e-02
 -1.9995207e-01
 -2.6043414e-03
  1.1223720e-03
 -9.5914886e-04
 -5.9960433e-03
 -4.7534532e-03
 -1.6265739e-02
  1.4035797e-02
  3.0445880e-03
 -2.3263212e-02
 -4.8733880e-03
 -1.0911199e-02
  1.0316485e+00
 -8.3495574e-03
  6.4172526e-04
 -6.8286289e-03
  2.0084137e-02
  2.5905021e-03
 -5.9915099e-02
 -7.7249031e-03
 -4.2575342e-04
  3.3815953e-04
  5.2234269e-04
 -4.6810275e-04
 -7.5925356e-03
  1.0067527e-03
  6.2243049e-03
 -1.2924145e-02
  8.8894845e-04
 -8.0451053e-03
  1.3517459e-01
  1.2811705e-01
 -2.2542315e-02
  1.6184896e-01
 -1.0583296e+00
  2.8397629e-02
 -6.0305867e-02
 -9.9799251e-03
 -1.4885411e-01
 -4.2925254e-01
 -2.4873407e-01
 -4.1771916e-01
  8.2915202e-02
 -1.0644533e-01
 -1.1914520e-02
 -2.0026194e-01
 -1.9398215e-01
  4.3832666e-01
 -5.8111258e-02
 -4.4871937e-03
 -2.4654696e-02
 -1.2224845e-03
  1.4751573e-01
 -1.0322721e-01
  3.5821334e-03
  2.7504712e-04
 -6.4655859e-03
  1.2687895e-02
  6.8803295e-02
 -7.0064412e-03
  1.4859749e-04
 -1.2855166e-02
 -3.7385706e-02
 -4.4084352e-02
 -1.9802544e-02
 -9.6727647e-03
 -6.9144471e-03
  9.3304113e-02
 -8.8245533e-03
 -3.4502947e-03
 -7.1701156e-03
 -3.2553005e-03
  7.9954052e-01
 -3.6199085e-02
  8.2408339e-03
  1.5901377e-03
 -5.8108266e-04
  6.0411874e-02
 -4.6985772e-02
 -5.3897162e-04
  1.2512475e-03
  1.2478867e-03
  5.9521184e-03
 -4.9207197e-03
 -6.4590769e-03
  1.6711343e-02
 -3.8182437e-01
  8.1318239e-04
  5.8875261e-03
 -2.3383019e-03
  2.4968678e-01
 -6.3215786e-01
  4.3677408e-02
 -3.3146495e-01
 -3.6085731e-01
  2.2240882e-03
 -5.3306293e-02
  2.7353424e-03
 -1.0603711e-01
  8.3035026e-03
 -1.1976855e-01
  9.0527707e-01
  7.1938410e-02
 -8.5629568e-02
  8.9247795e-03
 -2.0893559e-01
 -1.6251224e-01
  7.9959822e-01
 -2.4870810e-01
 -3.6848571e-02
 -1.9417679e-02
 -3.6347900e-02
  1.9833335e-01
 -2.3344994e-01
 -2.9051695e-03
 -4.0890586e-02
  2.8586635e-02
 -8.2167977e-04
 -4.9951222e-02
  1.9012451e-03
 -6.0955877e-03
  4.7919340e-03
 -7.1001239e-03
  2.6553649e-02
  3.2777493e-03
  3.0149136e-02
  1.0991713e-02
 -1.6354620e-02
 -9.5545473e-03
  8.0912588e-03
 -1.4013291e-02
 -1.4094148e-04
  6.6799812e-02
 -5.9305783e-03
 -6.1618439e-03
  2.6871054e-03
 -6.4334369e-01
  6.1183297e-03
 -3.8130160e-02
 -3.0777329e-03
 -1.0887032e-02
 -4.2875534e-05
  3.1863879e-03
  1.2467256e-02
  8.1876190e-03
 -1.8151279e-03
  3.9918930e-03
  4.7379276e-03
  9.7046858e-01
 -4.2678751e-03
  2.4646420e-03
  2.0420458e+00
  1.7556390e-02
 -3.0679470e-01
 -4.5301524e-04
  2.5375036e-03
  1.1265769e-02
 -1.2007898e-03
 -4.4592184e-01
  8.7774097e-04
 -2.5634672e-02
  1.0379091e-02
  2.7837467e-03
  7.2568730e-02
 -6.8130059e-04
  5.3119021e-03
 -2.4587909e-02
 -5.5610184e-03
  1.0542042e-03
 -4.1317330e-03
 -2.0860313e-03
 -1.1454333e-03
 -1.1414666e-01
 -7.1712118e-03
  1.1398916e-02
  7.3037696e-01
  7.0051658e-03
  9.5652277e-03
  1.0901741e-02
  4.2695976e-03
  4.3444065e-03
  2.9646725e-04
  2.6422462e-03
 -8.4405644e-03
 -3.0537064e-03
  3.9494004e-02
 -8.3213793e-03
 -2.2488581e-03
  1.3845491e-02
  1.7047811e-02
  3.3508514e-03
  2.8900935e-03
 -2.3853118e-03
 -5.7436884e-03
  8.0113746e-03
 -5.8768112e-03
  1.3931069e-03
  8.7164097e-02
  3.3639746e-03
 -2.5204422e-02
 -8.5895965e-03
  1.2066658e-02
  5.5371254e-04
  4.7888178e-03
  3.2019489e-03
 -2.4830527e-03
 -1.0544549e-02
 -9.4896276e-03
 -5.9525102e-01
  9.3029262e-03
 -2.2947715e-01
  3.1204797e-02
  3.8670428e-02
 -1.6637526e-01
  4.9663521e-02
 -1.3014325e-02
 -2.0205281e-03
 -1.1286055e-03
  2.7663885e-03
 -2.7305488e-02
 -3.9038665e-04
  2.5631529e-03
 -3.5164866e-03
 -3.0200435e-03
 -5.1678374e-04
  1.5038809e-01
  5.9066541e-03
  1.0159281e+00
 -3.6916840e-03
  3.6418962e-04
  1.3348866e-01
  8.0517279e-03
 -2.2644460e-02
  1.4549628e-02
  5.0224928e-04
  9.4412575e-03
  7.2025991e-04
 -2.2414453e-02
 -3.4580140e-03
  2.5862572e-03
  1.1415021e-04
  5.0384609e-04
 -1.1738200e-02
  7.7660796e-03
 -4.2488617e-03
  2.8297372e-02
  4.7965460e-02
  5.8890921e-03
  2.3032376e-03
 -1.7524962e-03
 -1.1306949e-02
 -5.5517431e-02
 -2.4870615e-03
 -1.1093295e-02
  1.0499335e-03
 -4.6331664e-03
 -7.2503863e-03
  2.5188250e-03
  7.4560596e-03
 -1.0264346e-03
 -2.5151975e-03
 -1.5749812e-02
  5.3755497e-03
  2.5980728e-04
  1.5960963e-03
 -1.2871077e-02
 -1.8799827e-04
 -9.1134943e-03
  8.8315113e-03
  3.1836927e-02
  1.9920515e-01
 -4.9110164e-04
 -4.0567544e-01
  5.4680012e-02
 -1.9156854e-03
  5.9300386e-03
 -1.5701361e-04
 -2.7748728e-02
  1.1540968e-02
 -4.8293453e-03
 -1.6467274e-03
 -2.5704192e-02
 -1.5898957e+00
 -7.1692183e-03
 -2.2762576e-03
  1.1012731e-03
 -1.1200082e-02
  1.3958024e-02
 -1.8573718e-02
 -1.8069878e-03
 -1.7626932e-02
  7.8516826e-03
 -1.6202288e-03
 -2.2221920e-03
  4.9032621e-02
  5.9878812e-03
  2.0826343e-03
 -4.3499144e-03
 -6.7017665e-03
 -4.5396704e-03
 -4.3715990e-01
  8.1631905e-01
  9.3484312e-02
 -1.4089961e-01
  2.6005673e-01
 -9.8100878e-02
  2.2213994e-01
  4.7697425e-03
  2.2808301e-01
 -1.4878072e-01
 -1.3365653e-01
  9.2253506e-02
 -1.3981654e-01
  3.0467957e-01
 -3.8855281e-02
 -7.1255511e-01
  2.1722145e-01
 -6.3732666e-01
  1.3042786e+00
 -1.0528646e-01
  3.6309734e-01
  7.0692658e-02
 -1.3824791e+00
  1.6809377e-01
 -2.7192511e-02
 -2.1530404e-03
  2.3087490e-02
 -7.5522927e-03
  1.2168907e-02
  2.1340556e-03
  4.4731995e-01
  1.3633905e-02
 -5.5755395e-03
  5.4850912e-01
  2.6595239e-02
 -4.7617190e-02
  2.7163845e-01
  5.3022109e-02
  1.0878845e-01
 -3.9673769e-01
 -2.7632659e-02
  1.7674218e-01
 -8.2420306e-03
  4.8380002e-01
  4.8654947e-02
  3.2453862e-01
  2.3770836e-01
 -2.2388193e-01
  2.7431330e-01
  1.3237022e-01
  1.0059354e-01
  5.4951221e-01
 -4.5637619e-02
  2.1117555e-01
 -1.4382437e-01
  1.3836772e-02
 -2.5047615e-02
 -5.7011651e-04
  8.8406399e-02
  1.1422868e-02
  2.0475233e+00
  3.3938664e-03
  5.4486408e-03
 -1.5570237e-02
  9.7298920e-03
  3.1537365e-03
 -8.0562299e-03
  2.0060070e-04
 -1.0369224e-02
  5.4542967e-03
 -9.8880415e-04
  1.4204915e-02
 -1.6604442e-02
 -2.1966178e-02
 -3.7933548e-03
  3.7713533e-03
  1.9210351e-03
  3.9701192e-03
  1.3993235e-02
  3.3452716e-03
 -9.3610846e-03
 -8.5205780e-03
 -7.4368721e-04
  1.1784463e-03
  1.0669873e-03
 -1.5347739e-03
 -1.6963478e-03
  4.6634679e-03
  2.2946354e-03
 -1.7516075e-02
 -2.8283890e-02
 -4.3360144e-03
  1.0336760e-01
 -2.7954115e-03
 -4.0922095e-03
  1.8301407e-03
 -4.0240167e-03
 -1.8598545e-02
  6.2512548e-04
  6.0672676e-03
  2.5650999e-02
  2.0916438e-01
  1.5624244e-03
 -1.0824576e-02
  3.7229364e-03
 -9.8631436e-01
  1.2588548e-03
  3.9224099e-02
 -1.7793411e+00
  6.1330757e-05
 -7.0931525e-03
 -9.2160225e-01
  4.2478667e-04
 -8.4377285e-03
 -9.9245179e-04
  6.1549111e-03
  1.2658914e-02
  1.3357599e-03
  3.4738588e-03
 -3.3647799e-01
  8.1212642e-03
 -9.3610073e-04
 -8.7227607e-05
  9.2570402e-02
 -1.3991036e-03
 -7.1894121e-04
  2.6628654e-03
 -5.0223032e-03
  9.8768796e-04
 -1.0937396e-04
 -2.0812838e-03
  4.4611404e-03
 -4.5588906e-03
  4.8921508e-01
 -7.3894877e-03
  1.0506436e-02
 -1.8875686e-02
 -3.5796489e-03
  5.4664137e-03
  1.8108148e-02
  7.3894477e-03
  2.4470976e-03
  2.9960542e-03
  6.9746530e-01
  4.3937205e-03
  5.6030494e-03
  3.3666410e-03
 -6.2066350e-02
 -2.7502039e-03
 -1.2238313e-03
 -4.6459401e-01
 -5.2590566e-03
  1.8030101e-01
  1.3160722e+00
 -2.9942896e-03
  5.9391130e-03
  1.3533530e-02
  1.8521580e+00
  9.3903337e-03
 -1.1445742e-02
  1.7101115e-02
  3.5814244e-02
  1.3877621e+00
  6.3309371e-03
 -8.7252213e-03
  4.7748636e-02
 -9.6236188e-03
 -4.1577053e-01
  1.8198723e-03
  1.7635823e-03
  7.5858563e-02
  4.2226608e-03
 -5.5247422e-02
  1.3326285e-03
  1.1997760e-02
  1.0649367e-02
  4.1701519e-03
 -1.8678773e-03
  1.0729153e-02
  3.1442309e-03
 -2.7104586e-01
  5.4875878e-03
 -7.4804157e-02
  1.1748899e-01
  3.5804931e-02
 -4.6867110e-02
  6.7909546e-02
 -1.2406705e-02
  1.3141776e-02
 -7.8439482e-02
  3.3879620e-01
  3.0263159e-02
 -7.6237097e-02
  4.4873338e-02
 -2.1749623e-03
  2.5952321e-01
  2.0577741e-01
  2.3277041e-02
  5.1123220e-02
 -3.5358293e-03
  3.7531815e-03
  4.2773627e-02
 -4.2397319e-03
  4.2478660e-01
 -2.0858865e-02
  6.9497828e-03
 -4.6827127e-03
 -9.5399749e-03
  5.9851855e-03
  1.6596549e+00
  1.3731464e-02
 -3.0251408e-01
 -1.2679411e-04
 -3.0820791e-04
 -1.6876707e-02
 -1.0177857e-01
  1.6788731e-03
 -2.1212327e-03
 -1.9936191e-01
  3.7476037e-02
 -8.9829959e-02
 -1.8827774e-01
 -2.1299180e-03
 -1.2525959e-02
  1.6363479e-02
  1.3217783e-03
 -5.3153116e-02
 -7.5785280e-04
 -4.4922009e-03
  1.0323963e-03
 -1.7357360e-01
  2.2468295e-02
  1.2237997e-01
  1.1308012e+00
 -4.9786326e-01
  1.2825638e-03
 -1.5877309e-01
  1.8876325e-02
 -9.8980265e-03
  3.8439114e-02
  2.5583699e-03
  2.4411716e-01
 -6.0815454e-02
 -3.3162523e-02
  1.6765388e-02
 -3.7604010e-01
  6.1915163e-03
  2.6843074e-01
  5.3582346e-01
  6.4054203e-01
  3.2453362e-02
 -4.2434072e-01
  2.5333539e-01
  1.6530197e-02
 -4.4219947e-01
 -8.7673448e-02
 -3.6029190e-01
 -1.5652348e-01
  8.4016984e-03
 -1.4336184e-02
  1.7993501e-01
 -5.1365107e-02
 -3.2855090e-01
  3.7819627e-01
  6.1561400e-01
  2.4646450e-02
 -1.0123520e-01
 -4.8505836e-03
  1.2988143e-01
  3.2312459e-01
 -1.0470692e+00
 -1.9849494e-02
 -6.8622434e-01
 -9.1834337e-01
 -2.0948797e-01
  3.6906356e-01
 -1.8058866e-01
 -7.9213418e-02
  3.2259605e-03
  1.1938038e-01
  1.2145292e+00
 -4.4547826e-01
 -1.6403724e-02
  1.2346270e-02
 -4.0921205e-01
  3.1975785e-01
 -5.7991587e-05
  2.5995646e-02
 -3.2583885e-02
 -2.1293151e-01
 -1.4505151e-01
  2.3845555e-03
 -4.8148264e-03
 -2.1400575e-01
 -1.8780980e-01
 -3.0529553e-01
 -3.5643991e-02
  1.4478702e-03
  5.0233053e-03
 -2.1406076e-05
 -4.8665260e-03
 -7.3464626e-01
 -1.3491953e-03
 -3.8638478e-03
 -1.3586918e-02
 -4.7647227e-03
 -4.2021261e-03
  5.8444868e-05
 -6.1533600e-03
 -1.5110096e-02
 -1.2715589e-02
  7.0648505e-03
  2.0066174e-02
 -5.3996108e-03
 -8.2082013e-03
  2.3364562e-03
  5.4989853e-03
  5.5061400e-01
  5.3761629e-03
  1.0680764e-02
  1.6264586e-03
 -2.1187859e-03
  1.0093885e-02
  4.9184016e-03
 -3.9787518e-04
  8.7314304e-03
 -1.2284447e-02
  1.7664573e-03
 -6.4223344e-03
 -2.2380229e-03
 -1.2825406e-01
  2.0738455e-02
 -5.2029741e-01
 -6.5647408e-02
  1.5093782e+00
 -1.2008864e-02
  4.4660601e-03
 -1.2117835e-03
 -5.4498604e-03
  1.1583287e-01
  8.5519962e-02
 -1.1927983e-02
 -1.0239891e-05
  5.3046630e-03
  3.1231975e-03
  1.3895853e-02
  1.1067663e-02
 -7.0139952e-04
  6.4277067e-03
 -1.3104258e-03
 -1.6359036e-03
  1.1969528e-02
  1.0335553e-02
 -9.4780168e-03
 -3.6103047e-02
  1.9253485e-01
 -1.4238720e-02
  1.4609919e-03
  2.2112972e-03
 -2.5611821e-01
  3.2187799e-01
 -1.9385792e-01
  4.3403113e-01
  1.9100301e-01
 -1.7325930e-01
 -3.8771551e-02
  6.0033634e-02
  1.8699288e-02
 -7.9943985e-03
  3.2713526e-04
 -2.0179555e-02
  1.7101621e-02
 -2.7569754e-03
  8.2897143e-03
 -7.7568501e-02
 -5.5862828e-03
  2.0689976e-03
 -1.7663561e-02
  1.5597933e-02
  2.2938550e-01
  3.5215259e-02
 -4.1198623e-03
 -7.5775427e-03
  1.0294520e-03
 -3.1296197e-02
  1.2400175e-02
 -2.1217370e-03
 -3.3492569e-03
  4.5893306e-01
 -1.2712566e-03
 -1.4113391e-02
 -1.6010908e-02
  7.4646682e-02
 -9.8030098e-02
 -4.5671917e-02
  1.3022467e-02
 -2.0852346e+00
 -3.8532729e-03
  2.1348894e-03
  6.9251447e-03
  2.9893531e-02
 -1.7596493e-02
  2.5308589e-04
 -9.1635931e-04
  8.4672734e-04
 -5.4809172e-03
 -1.6427444e-02
 -2.3766261e-02
 -1.0671946e-02
 -2.0306527e-03
 -2.4979850e-03
 -1.6624471e-02
  4.6714949e-03
  4.5538804e-04
 -1.8595625e-02
  3.4359181e-03
 -7.1841227e-03
  6.8376558e-03
 -2.2018116e-03
  6.4129032e-02
  3.8140684e-03
  6.1983949e-01
 -5.0855702e-01
  1.2461893e-02
  1.3103721e-01
  6.9532408e-03
  2.2337772e-03
 -2.1033864e-03
 -7.9923244e-03
 -4.9649477e-03
  7.2557237e-03
 -6.3313046e-03
 -2.5586558e-03
  5.4678028e-03
 -2.3657016e-03
  3.7538863e-03
 -5.1992798e-01
 -2.0023307e-03
 -9.4469674e-03
 -1.9491252e-03
 -2.1213107e-02
  1.9700346e-03
 -4.8028928e-04
 -1.2207787e-02
 -2.7569679e-03
 -4.2606419e-04
 -3.7968177e-03
 -5.5429642e-03
  8.1340291e-02
  6.7146695e-03
 -1.1738611e+00
 -1.2179008e+00
  2.0211127e+00
 -1.2865137e-01
  1.8343805e-01
 -5.6511057e-03
 -5.3848759e-03
 -1.6771436e-03
  1.1084168e-02
  1.6009142e-03
 -3.6179990e-01
 -1.7263688e-02
 -5.3150891e-03
  2.8312732e-03
  3.1729627e-01
 -8.6558558e-02
  9.5157493e-03
 -9.0540278e-01
  7.3391940e-03
  1.7444201e-02
  3.8382423e-03
  2.4650507e-03
 -1.8554630e-03
  3.0627009e-03
  8.8766757e-03
  8.6321933e-03
  2.8881228e-03
  2.3443649e+00
  1.0432307e-02
 -6.2183128e-03
  1.0670528e-02
 -1.2736125e-02
 -4.7240057e-03
  2.7590350e-03
 -1.5277674e-02
 -7.8132572e-03
  3.0835888e-03
 -5.2021332e-03
 -8.0166623e-04
 -1.0771370e-02
  1.7386208e-03
 -1.6644603e-03
 -1.6942378e-02
  4.3487870e-03
 -9.6274288e-03
 -6.0832030e-03
 -4.7304290e-03
 -1.0364512e-02
  8.4259054e-03
 -4.2154692e-02
  7.7880244e-03
 -4.4938889e-03
  2.3692984e-03
  1.1977738e-03
 -1.6499477e-02
  6.5956181e-03
  7.1930201e-03
 -2.1260597e-03
  7.5618946e-03
 -6.4014323e-04
 -2.0049060e-02
  7.9923710e-03
  1.1105280e-03
  4.4162866e-02
 -2.8074419e-03
 -6.9592049e-04
  1.8549033e-02
  5.7320413e-03
  8.9758206e-03
 -8.6010422e-04
 -3.7167851e-02
  1.1324887e-02
  9.7573624e-04
 -2.0228639e+00
 -3.2866944e-03
  2.7576073e-03
 -9.0428498e-03
 -1.3601025e+00
 -9.9997688e-03
  3.1718314e-03
 -6.0047717e-03
  2.2405757e-02
 -7.9025161e-03
  6.9171097e-03
  7.6045333e-03
  3.2895012e-03
 -8.3945261e-04
 -1.9067323e-03
 -6.9108871e-03
  2.0979606e-03
 -3.7122965e-01
 -3.6848158e-01
  1.3546242e-01
 -7.8622794e-01
  2.9546052e-01
  8.3119191e-02
 -1.3512553e-01
 -1.8906191e-03
  5.7115155e-01
  6.0219449e-01
  2.7940486e-02
 -4.4785082e-02
 -1.7468081e-03
 -3.6560758e-03
 -3.7101817e-03
  9.7675656e-04
 -3.4503607e-04
 -5.9179619e-02
 -4.5278915e-03
 -3.8662009e-04
 -8.6894584e-01
  1.6993926e-03
 -7.7618919e-03
  1.1677139e-01
 -2.8810874e-02
 -9.1484152e-03
  1.2860431e-02
  2.8998253e-03
  3.2287377e-03
  9.7981431e-03
 -2.2942768e-02
 -1.1569977e+00
  9.7589567e-03
 -5.0320746e-03
  9.8957156e-04
 -5.7423715e-03
  5.8163134e-03
 -1.5868127e-01
 -1.8417850e-03
  1.0740264e-02
  1.9912990e-03
 -8.1711536e-04
 -5.2726416e-05
  5.3771031e-03
  1.2611864e-02
 -1.7666214e-03
 -2.0114009e-03
  3.3261771e-03
 -1.2503086e-03
  5.1074661e-03
 -1.0428947e-02
  1.1116617e-02
  1.1070712e-02
  3.7823783e-03
 -5.8121025e-04
  2.0266699e-03
 -5.6366744e-03
 -1.7497083e-02
  2.6807368e-03
  7.9094619e-03
  1.1873569e-02
  1.0117327e-03
  2.2834592e+00
  4.8099002e-03
  9.9082827e-04
 -1.0317484e+00
  9.4411690e-03
  1.7495871e-03
 -1.9549802e-02
 -9.6611893e-01
 -7.4235904e-03
  1.4797166e-03
 -1.4306386e-03
 -5.7979715e-03
  3.7674110e-03
 -2.3345631e-03
  5.9152357e-03
  6.4513828e-05
 -2.0871486e-01
  1.7372904e-02
 -5.3687757e-03
  4.4277422e-03
 -4.6787248e-03
  7.9024145e-03
  1.6307534e-03
  1.1603144e-02
 -1.4311425e-02
  3.3960275e-02
 -5.9334566e-03
  5.6057732e-05
 -1.9722450e-01
 -1.1759771e-03
  8.1498012e-02
  1.0273245e-02
  7.3315878e-03
 -1.6934988e-03
 -5.2555454e-01
  2.8032358e-03
 -8.1293676e-03
  1.0970855e-03
 -1.6089433e-03
  6.0903784e-03
  2.2478388e-03
 -7.6944092e-03
 -3.4034227e-03
  2.8991231e-03
 -2.3488590e-02
  2.4831720e-02
 -4.4234954e-03
  2.3845888e-03
 -1.1480943e-02
  2.3522084e-03
 -1.4577536e-01
 -3.8077545e-03
  3.2428701e-03
 -1.9563513e-01
 -1.2691619e-03
 -2.0348157e-03
  1.8864305e-03
 -2.8415287e-01
  3.7952460e-02
  1.3972963e-01
  9.3974741e-03
  8.8664925e-01
 -1.0087567e-03
 -3.4898897e-03
  2.3769967e-02
  7.7558244e-03
 -2.0249991e-03
  6.0007335e-03
 -3.7715780e-03
  5.4115988e-02
 -1.2161407e-02
 -1.8256782e-02
 -4.3098242e-03
 -1.9867807e-03
 -2.6486704e-02
  1.4978705e-02
  1.8667139e-02
 -5.9278733e-03
 -7.5631496e-03
  6.0614492e-03
  5.3549153e-03
  3.4183378e-03
 -6.0957591e-03
  1.8887345e-02
  1.8295988e-03
  3.9195009e-03
 -3.0063901e-03
 -8.0441972e-03
 -1.7603530e-03
 -9.7878147e-03
 -8.1779793e-02
  5.4307535e-02
  1.9969538e-02
  3.5090842e-03
 -1.6189210e-02
  5.8930542e-04
 -3.1956108e-03
  3.5521283e-03
 -4.1688192e-03
 -1.3006270e-02
 -1.2413351e-02
  7.4918116e-03
  3.4363605e-02
 -4.6346183e-03
  1.1362073e+00
 -9.5874923e-01
  8.9024883e-03
 -2.2323113e-03
 -2.6473592e-03
  1.7311500e-03
  3.2815812e-03
  1.2799563e-02
 -1.1646126e-02
 -1.0793922e-03
 -4.8491049e-01
  5.7688109e-03
 -3.4781969e-03
  1.7227811e-03
 -1.8797293e-02
  2.2895722e-01
 -1.1156763e-02
 -2.2693509e-03
 -5.2771525e-04
 -8.7956777e-03
  3.2408477e-04
  4.6185469e-03
  6.9659238e-04
  8.2276180e-02
  3.9452818e-01
 -1.1890174e-03
  1.6859150e-03
 -1.2620757e-02
 -1.0215202e-02
  1.1437385e-02
 -1.1524563e+00
 -1.6391760e-03
 -8.1391707e-03
 -2.1745425e-05
 -3.5951529e-03
  2.8136915e-02
  4.0489915e-03
  2.6940197e-01
 -2.9121772e-03
 -1.3677523e-02
 -2.6360282e-03
  1.0939923e-02
  5.3144298e-03
  5.2976292e-03
 -1.0571951e+00
  8.2061524e-03
  1.7189827e-02
 -4.5401175e-03
 -5.2545951e-03
  1.0942990e-03
 -6.5006159e-04
 -6.3974145e-03
  2.6236714e-03
  3.2004057e-03
  5.3898394e-03
 -1.3334434e-02
  1.2394455e-02
 -9.8442775e-04
 -1.7025798e-03
 -1.1045969e-02
  1.6426004e-02
 -4.3153106e-03
  3.2013243e-03
  1.7931335e-02
  4.4376887e-03
  1.1299435e-02
  1.0939785e-01
  5.4489453e-03
 -4.6989094e-03
 -1.7398836e-02
 -4.1174171e-03
  6.4732200e-07
 -3.2174532e-04
 -1.0600248e-02
  3.2420096e-04
 -1.5596703e+00
  1.6508435e-01
  3.5432659e-02
 -4.7460843e-02
 -1.7697213e-02
  1.6825016e-03
  3.5184498e-03
 -2.3638629e-03
 -1.4711516e-01
 -4.7530505e-01
 -1.4463010e-02
  5.1088754e-02
  1.2702867e-03
  3.2399255e-01
 -1.5277934e-01
 -2.7881358e-03
  5.7145744e-03
  1.1167520e-02
  7.5648808e-01
 -3.4854426e-03
 -1.1354426e-03
  6.6628218e-02
 -2.0451786e-03
  2.1905743e-01
 -3.1661086e-03
 -6.4436179e-03
  7.7585435e-01
 -8.7414328e-03
 -1.6184471e-03
 -6.9883996e-01
 -5.9576738e-01
  9.3435591e-01
  9.5795113e-01
  5.2571888e-03
 -6.9094319e-03
 -2.9843693e-04
 -3.9911363e-03
 -9.3461322e-03
 -3.7299972e-02
 -5.6734085e-02
 -2.0145994e-02
 -2.2363238e-02
  3.2848974e-03
  2.5170657e-01
 -1.7953089e-03
  5.3525884e-03
  8.2280225e-01
 -7.3986836e-03
  9.3824886e-02
  8.2889162e-02
  1.5370912e-03
 -7.7359453e-03
 -7.2389292e-03
  7.3318481e-01
  2.4407175e-01
 -5.0987047e-03
 -2.7540338e-03
 -8.8612996e-03
 -3.7722293e-02
  2.8309509e-02
 -5.3104627e-01
  6.8882686e-01
 -2.4575430e-01
  7.7286857e-01
  2.8654691e-03
  8.9131417e-03
 -1.0833183e-02
  6.4349049e-03
  2.7069625e-01
 -5.3948081e-01
 -6.9546364e-03
  6.1934106e-03
 -6.6632601e-03
  3.1420788e-01
 -3.1413209e-02
  7.6207169e-03
  1.9719114e-03
  8.2808267e-04
  8.6849773e-01
 -2.2661941e-02
 -3.4256692e-03
 -5.2184784e-03
  5.4267058e-03
  1.1151521e+00
 -6.2179356e-03
  2.0805015e-03
 -4.0197759e-03
  2.8108183e-02
 -5.6442861e-03
  3.4753513e-01
  2.3057538e-03
 -5.4425485e-03
  2.7055431e-02
  9.5952950e-05
  1.3560512e-02
 -1.8920745e-03
  4.4102385e-03
 -6.1045061e-03
 -7.9750568e-03
 -1.6924808e-03
 -2.0064807e-03
  1.4219927e-03
  2.3874339e-04
 -4.3757059e-04
 -7.5262464e-03
 -1.1801322e-02
 -1.3164246e-03
  3.5275223e-03
  8.3404528e-03
 -2.7316503e-04
  4.9201264e-03
  5.3738509e-03
 -5.5541564e-03
  3.9930237e-03
 -4.2214454e-03
 -4.0380619e-03
 -1.3760191e-02
 -7.7640899e-03
  1.1987325e-02
  1.0906659e-02
 -1.7056841e-02
 -6.0751834e-03
  2.3929885e-02
  6.9220643e-03
 -5.0655515e-03
  5.4641692e-03
 -1.2213683e-01
  2.6738204e-03
 -8.6082714e-03
 -3.6252222e-03
 -1.4143550e-02
 -8.0389297e-03
 -1.1224902e-03
 -2.0040208e-02
  3.1406321e-03
  1.1798927e-02
  3.6941459e-03
  9.4125699e-03
 -8.9926189e-03
  9.6803866e-03
 -1.9060705e-02
  3.9633452e-03
  1.6127352e-03
 -9.3502579e-03
  3.1216403e-03
 -6.9512068e-03
 -1.6839878e-03
  1.2298227e-02
  9.9608884e-04
 -1.6427392e+00
 -1.1651598e+00
  7.4396980e-01
  3.7338176e-01
  9.8070025e-01
 -9.7915894e-01
 -1.1143916e+00
 -6.2904769e-01
  2.7969509e-01
  1.1158211e+00
 -1.3114973e+00
 -4.9696484e-01
 -5.7323319e-01
 -3.4763107e-01
  6.7975259e-01
 -6.9031584e-01
 -8.7731242e-02
 -1.6358947e-02
 -7.1025622e-01
  8.9968437e-01
 -2.3456889e-01
  5.0337233e-02
 -7.5074285e-01
 -2.2759412e-01
 -2.9158214e-01
 -4.3093029e-02
  2.0876806e-03
 -8.1941225e-03
 -2.5466820e-02
 -1.3301626e-01
 -6.6653816e-03
 -6.7892355e-01
  4.2383832e-01
 -8.8156986e-01
  1.3655742e-01
  6.3159943e-02
  1.7889133e-03
 -9.2217708e-03
  1.0775662e-02
  2.9006740e-01
  1.3580462e-01
 -2.0711994e-01
 -5.5277334e-03
 -2.5800124e-02
 -5.6599744e-02
 -2.1625535e-01
  9.4136363e-03
  2.3574157e-02
 -2.4730779e-02
  1.2369613e-01
 -7.4910244e-04
  8.4658444e-04
 -6.6318242e-03
 -5.8272053e-03
 -3.9366666e-02
 -1.3691498e-02
 -1.5787579e-02
  3.0573701e-02
 -3.5470815e-03
  5.8172468e-02
 -2.8566725e+00
  5.7896024e-01
  1.6556804e-01
 -1.1368269e-01
 -2.0570862e-01
  4.7530193e-04
 -4.0949024e-02
 -8.4401360e-03
  1.7833276e-02
 -2.8088377e-03
  1.3960427e-02
  5.0932220e-03
 -6.8420242e-03
  8.6104320e-03
 -9.2807207e-03
  1.1121927e-02
 -4.3774587e-03
  3.1217039e-03
 -5.9309802e-03
  1.6952744e-03
 -1.5191744e-01
  4.2705104e-02
  3.2432319e-03
 -1.3760056e-02
 -1.2664033e-02
  5.9946906e-03
 -7.9114836e-01
 -2.8796296e-03
 -1.9028273e-03
 -7.3644458e-03
 -1.8844992e-01
 -1.9435482e-01
 -1.1738649e-01
 -7.0295995e-01
  1.1168827e-01
  3.1392759e-01
 -1.8040398e-02
 -1.6110610e-02
  1.2700508e-03
  5.4781802e-02
  4.0337098e-01
 -2.5754434e-01
  6.6615321e-04
  1.5912207e-02
  8.8642217e-02
  1.8371847e-01
 -7.7846926e-03
 -4.8166532e-03
 -7.6997573e-03
 -7.5296462e-03
 -6.2413055e-02
 -2.0927850e-03
 -1.0360037e-02
 -2.0714931e-02
 -8.0930434e-02
 -4.0269446e-01
  7.4372236e-03
  1.0472611e-03
 -5.4453951e-03
  6.2755300e-03
  2.0832941e-02
 -8.5825199e-01
 -5.4131122e-03
 -3.1385273e-03
  1.9007492e-03
  8.0031697e-03
 -3.6819246e-02
  3.1984313e-03
  1.1062108e-02
  2.9852246e-03
  3.5055494e-04
  1.2688707e-02
 -5.9686176e-04
 -1.2255827e-02
 -2.9023418e-03
  2.6267662e-03
  3.4830143e+00
  4.6180403e-03
 -1.2571381e-02
 -1.0224910e-02
  4.5065731e-03
  8.5950084e-03
  1.9036939e-03
  1.4229590e-02
 -5.0256960e-04
 -4.3533766e-03
  2.7552703e-02
 -4.3092370e-03
  1.0923950e-01
  6.4309251e-01
  9.0799443e-03
  4.2441194e-03
  1.1886279e-02
 -6.3779335e-03
 -3.0035302e-03
 -3.4599325e-03
 -1.1941042e-01
 -1.6235830e-02
 -2.5289725e-03
  5.1150168e-03
 -3.0731354e-04
  3.1796247e-03
 -1.1228904e-03
  6.6152896e-04
  7.7180974e-03
 -2.4493629e-02
  6.5620774e-03
  9.0143299e-03
 -7.2710924e-03
 -4.7058701e-03
 -2.4054400e-03
  2.7644597e-03
  8.9038732e-03
 -4.4891466e-03
  2.5168858e-03
 -1.1284457e-03
  1.8059817e-03
  5.7863914e-03
  6.1263908e-03
 -2.2802230e-02
 -1.8657808e-03
  9.4746249e-03
 -3.6841675e-03
  1.3330435e-02
 -7.9897689e-03
  5.5061216e-03
 -2.9666962e-03
  1.0623523e-02
 -9.9524744e-03
  2.8511486e-03
  8.6051272e-03
  3.3544509e-03
 -3.3873208e-03
  7.4285664e-02
  7.4245413e-03
 -2.5834774e-03
  9.7655528e-04
  7.1968871e-01
 -2.0258594e-02
  3.6499272e-03
  9.6656177e-03
  8.9717400e-04
  8.4332867e-05
  4.5020394e-03
  2.7431138e-03
 -1.0519672e-02
 -4.6080973e-02
 -7.0094601e-03
  3.0317578e-01
  1.2567306e-02
 -2.0216517e-02
  7.7147805e-03
 -1.8514476e-03
 -5.4784216e-02
 -8.9509465e-04
  1.0687004e-02
 -1.7473222e-03
 -2.3881267e-03
  3.4040023e-04
  1.2877240e-03
  7.8811659e-04
 -5.2694078e-03
 -1.0733838e-02
  5.7855775e-03
  4.2419652e-03
 -4.1273403e-01
 -2.1246455e-03
  6.0367739e-01
  2.5216471e-03
  9.1865631e-03
  2.4864739e-03
  6.4907079e-03
  9.3815383e-03
  7.0794192e-03
 -6.5945839e-03
  1.0106274e-03
  1.1467955e-01
  2.3874212e-03
  2.0296494e-03
 -5.6235851e-03
  2.1754840e-01
 -3.6596972e-03
  1.3226649e-01
 -4.7427244e-02
  5.8521139e-03
 -1.9674195e-02
 -7.9031551e-01
  1.3573145e-02
 -4.1784970e-03
 -5.3670672e-03
  1.2944078e-01
 -7.9443894e-04
 -3.1174095e-03
 -2.3924280e-03
  2.3998585e-01
 -1.2105673e-02
  6.0294517e-03
  2.9043977e+00
  3.5974520e-01
 -9.4375408e-01
 -1.2096955e-03
  9.3342820e-03
  1.4270556e+00
  2.3742808e-01
  1.9600917e-02
  1.3698267e-03
 -4.4501442e-03
 -3.0636303e-03
  4.6047247e-03
 -8.5270830e-04
 -1.0766321e+00
  4.9319729e-01
 -4.6086681e-01
  3.8413733e-01
 -2.9954344e-01
 -2.8975582e-01
 -6.6172349e-01
  2.0066058e-02
  4.0446036e-02
 -4.0954611e-01
 -7.7362108e-01
  4.1781414e-02
 -4.2478547e-02
  2.5277242e-01
  1.2295803e-01
 -2.4308486e-01
 -1.7657880e-01
  4.1396776e-01
 -9.2649591e-01
 -1.2689035e+00
  8.4884807e-02
  1.7387742e-02
 -2.4055135e+00
 -3.4698945e-01
 -1.7631389e-01
 -8.3141267e-01
 -4.2309836e-01
  5.3454392e-02
  5.8305362e-04
 -1.3159700e-01
 -4.3440971e-01
  9.7572729e-03
  1.5957591e-03
  6.3684043e-03
 -4.3785609e-02
  3.7839072e-05
 -4.9655169e-04
 -2.0715008e-02
 -5.6788471e-04
  1.2368085e-02
 -3.1879281e-03
  3.1582655e-03
  7.7746175e-02
 -3.5148428e-03
  4.5289048e-03
 -2.7744676e-04
 -1.1448296e-03
  8.1495028e-03
 -2.9476834e-05
 -1.3830572e-03
 -8.3627179e-03
  2.1801023e-02
  9.0173976e-03
  1.8190751e-03
  1.2855843e-02
  3.1818599e-03
 -9.6249143e-03
 -4.5464715e-04
 -2.4601260e-02
  1.0237121e-02
 -3.6484643e-03
  2.1615359e-03
 -1.4568752e-03
  7.3591266e-03
  1.5084655e-04
  3.8130265e-03
 -4.6039983e-03
  1.1428164e-03
 -6.1125397e-03
  1.3462212e-03
  3.4407344e-02
  5.7066726e-03
 -9.4205741e-04
 -8.6041552e-04
  8.8952826e-03
  1.8588350e-03
 -3.2516175e-03
 -1.2384674e-03
  4.1535487e-03
 -4.7899168e-03
  8.1488938e-04
 -2.9621981e-03
  2.7970546e-03
 -3.5703420e-03
 -8.1839794e-03
 -2.0296979e-03
 -1.3270111e-02
  3.4277374e-03
 -6.2487512e-03
 -1.4580146e-02
  9.7651165e-03
  1.7102621e-02
 -7.9984749e-03
  1.9209647e-03
 -1.3622508e-03
 -3.7678585e-03
  6.3264538e-03
 -4.1219653e-03
 -4.5822602e-04
 -2.1305536e-03
  1.3279703e-02
 -7.0091574e-03
  2.6751077e-03
 -1.4739223e-02
 -9.5868716e-03
 -9.6988690e-04
 -1.0068725e-02
 -1.1695457e-03
 -1.7723561e-03
 -1.7334599e-02
 -1.8983129e-02
 -1.3402370e-02
  1.5433208e+00
  1.8404236e-02
  2.9977428e-02
  5.1187962e-01
  7.5387227e-04
 -7.2574946e-03
  5.0058425e-03
  1.4919613e-02
 -1.8927205e+00
 -4.3866697e-01
 -5.9271634e-01
 -1.2496008e+00
  7.0763057e-01
 -4.4393021e-01
 -9.5987844e-01
 -1.2492186e+00
 -1.2487018e-01
  1.3811532e-01
  1.0648607e-02
 -4.7540870e-01
  5.2374960e-03
  1.7088946e-04
  2.3614803e-01
  1.1291959e-03
 -9.2484832e-02
  1.0992928e-01
 -3.0532900e-02
  5.4534262e-01
  1.6517274e-03
 -5.1073784e-01
  3.3192534e-02
 -1.1479056e-02
  7.7488291e-01
  7.2540166e-03
 -8.5229678e-03
  9.8637223e-02
  4.0970352e-02
 -1.7216757e-03
  6.0431671e-01
 -2.7823910e-01
  6.7096418e-01
 -1.3125844e-01
  3.7740052e-01
 -9.9742459e-03
 -9.9232970e-03
  1.3106111e-03
 -2.0253574e-02
  4.1679842e-03
  7.6577244e-03
  1.4771614e-03
 -7.9401834e-03
 -4.3941405e-02
  4.9395764e-01
 -2.3902666e-03
 -4.9307635e-03
  2.0829120e-03
 -1.5184387e-03
  2.7495632e-01
  6.9192117e-03
 -7.2424300e-03
 -8.3774939e-04
 -6.0549411e-03
  3.6470196e-01
  3.6136531e-03
 -3.5790436e-05
 -5.8104121e-03
 -8.8495305e-03
  2.7356041e-03
  1.3377942e-01
  3.0120933e-01
 -2.6229431e-03
  1.1703446e-01
 -2.4050318e-01
  1.3435902e-03
  3.0730945e-01
 -2.7074760e-02
  2.9696647e-02
 -1.2498358e-02
  2.4343917e-01
  1.9766696e-02
  5.5560078e-03
  9.7898664e-03
 -5.6251809e-03
 -1.9560849e-02
  1.4491460e-03
 -3.2549519e-02
  3.7045997e-01
 -1.9120814e-02
 -7.9492433e-04
  7.9017179e-03
  7.1499622e-03
  3.4899870e-01
 -6.4310300e-01
  2.7068104e-03
  2.0930283e-04
 -3.8724383e-03
 -2.1342712e-02
  4.6100835e-03
  1.0699073e+00
 -4.6315372e-01
 -2.8760347e-01
 -8.4306896e-01
  1.1321905e+00
  2.3288207e-01
 -7.4683231e-01
  8.6955158e-03
  8.8212800e-01
  1.2804988e-01
 -1.4759378e-01
 -1.2432933e+00
  2.4731104e-01
  9.5308506e-01
  1.4659070e+00
 -5.5804364e-03
  1.7359720e-01
  2.1762946e-03
  5.8598965e-01
  7.0233949e-02
 -5.3772515e-01
 -2.9329735e-01
  3.8956311e-01
  2.5688711e-01
 -3.9655399e-03
 -2.6190062e-03
 -2.7389523e-02
 -1.9604896e-01
 -1.6406658e-01
 -2.1066478e-01
  1.7334649e-04
 -3.2351690e-03
  4.9371069e-04
 -1.2715475e-02
 -1.0602519e-02
 -1.3982458e-03
  2.8964536e-02
  5.3233065e-04
  8.4290644e-03
 -8.3308277e-04
  7.5497046e-05
  4.6884608e-03
 -1.1019477e-03
 -1.8354893e-02
  3.1515027e-03
 -3.1781860e-03
 -1.1903427e-02
  3.4727182e-03
  1.2178685e-03
  1.1338907e-02
 -4.2773644e-04
  1.7277334e-03
 -7.1809976e-05
 -4.2205353e-04
  2.4411129e-03
  1.1702997e-02
  1.2239280e-02
 -4.2845337e-03
 -3.8196247e-03
 -7.9934551e-05
 -6.9179916e-01
  1.4885685e+00
  8.3763212e-01
 -2.4394467e-01
 -7.2641522e-01
  2.6056113e-02
  1.3261840e-01
 -4.5130709e-03
  5.4194834e-02
 -1.1222135e+00
 -8.2106637e-03
  7.5407803e-01
  8.0916807e-03
  1.5375583e-02
 -9.9951610e-02
  1.1103841e-02
 -1.5876318e-03
 -6.5498018e-01
  5.5869859e-02
 -6.0977032e-03
 -3.8761398e-01
 -4.0146127e-01
 -5.4376297e-02
  2.6795117e-02
 -2.3710895e-01
 -6.8938249e-04
  5.4512914e-02
  7.0988210e-03
 -6.8630390e-03
  3.7445638e-02
 -1.3120291e-01
 -4.4225562e-02
  4.7812890e-03
  3.5409912e-01
  6.6848621e-02
 -8.2792602e-03
 -7.2449930e-02
 -1.2130524e-02
 -1.3416761e-03
 -1.2182177e-02
  4.2793457e-03
  1.5663730e-01
  5.7968512e-02
  8.5181454e-03
  4.3875885e-01
  7.3195663e-03
 -1.2049628e-03
 -9.1563053e-02
  6.5740691e-03
 -5.7818823e-02
 -5.2413009e-03
 -2.9237750e-01
  4.6812207e-03
 -5.8587329e-03
  1.0867598e+00
 -1.1128513e-03
 -1.5822543e-02
  4.9468815e-02
  9.3159852e-06
 -4.8475996e-02
 -4.3051010e-03
  3.7631802e-02
  2.5135025e-01
  1.7538387e-01
 -3.8911662e-01
 -5.9905932e-03
  1.2525130e-03
 -1.0693595e-02
 -5.1891422e-03
  1.2071273e-02
 -1.1597214e+00
 -7.2183055e-03
  8.8522022e-05
  1.7874071e-02
 -4.2908369e-03
  2.2929506e-03
 -1.8693114e-02
 -3.8719498e-02
  8.0251851e-04
 -3.9273305e-03
 -3.2563047e-03
  4.6765562e-03
  4.5186959e-04
  7.3656728e-03
  2.4221018e-04
  1.4421031e-02
  8.5228300e-03
 -2.0716326e-02
 -2.0038502e-03
  1.6876041e-03
 -2.4952853e-02
  3.6615131e-03
  1.2928518e+00
 -1.7820505e-03
 -4.5011919e-03
 -2.1856695e-03
  8.4787393e-03
  9.9071609e-03
  5.2106860e-03
  1.1698917e-02
  5.0869561e-03
 -3.9073322e-03
 -1.0756227e-02
 -1.7066784e-03
 -2.2131838e-02
  5.5400218e-04
  1.2414147e-03
  2.7112352e-02
 -7.6635799e-05
  5.0404379e-03
 -6.8688858e-03
 -8.8819565e-04
  3.1695452e-03
 -3.7167086e-03
  5.5701160e-03
  4.7430382e-03
 -2.6091173e-02
 -7.4528744e-03
  5.4581459e-03
  1.7230182e-03
 -1.4417828e+00
  6.6131358e-03
  1.9001445e-02
 -1.8648313e-03
  5.1537991e-01
  1.4373475e-03
 -1.4440501e-03
  4.0000384e-03
  5.9194239e-03
  2.6701870e-03
  3.1568210e-03
 -3.7469316e-02
 -1.2593970e-03
 -4.7302884e-03
  1.3534448e-02
  2.0971211e-02
 -2.3628607e-02
  8.2157683e-03
 -1.1624540e-02
  3.3882737e-02
 -7.2728153e-03
  5.6836510e-01
  9.8608859e-02
 -4.6255686e-03
 -8.9437306e-02
 -2.0677631e-03
 -4.8549888e-03
  1.7932247e-02
  2.1708779e-02
  5.5058865e-04
 -1.3347522e+00
 -1.7724496e-01
  1.0314384e+00
 -5.6415476e-02
  1.4442261e-01
 -1.1402906e-02
 -3.4665251e-01
  1.4254344e-01
 -1.6046536e-01
 -1.9715576e-02
  5.8512215e-02
 -1.4460699e-01
 -4.8290346e-02
  5.9011844e-03
  5.1725142e-02
 -1.9266034e-03
 -8.5567266e-02
  1.4755107e-01
 -4.4551041e-02
 -3.2747427e-01
  1.9661678e-01
 -1.1460159e+00
  1.1974946e+00
 -3.4774518e-01
  1.3187274e+00
  7.1070502e-03
 -7.0701991e-03
 -3.1505770e-03
 -2.9864511e-03
 -1.6148701e-02
 -9.5890188e-01
 -1.1860980e-01
  9.8137148e-02
 -1.3593259e-01
 -7.9520899e-01
 -1.2690388e-02
 -5.5486923e-01
  1.6201369e-02
 -2.1364641e-01
 -8.0898911e-02
  2.0052235e-01
 -3.2801795e-01
 -5.9408322e-02
 -4.4072422e-01
  2.8406093e-02
 -1.2892702e-01
 -4.6669006e-01
  2.5210978e-02
 -3.8774499e-01
 -7.0042425e-01
  1.6529733e-01
 -1.3462349e+00
 -6.4614118e-04
 -2.9933336e-01
  4.0761687e-02
 -3.7852838e-03
 -3.1827897e-02
  1.3490945e-02
  5.6180172e-02
 -1.4599153e-02
  9.3218744e-02
  5.2726024e-01
 -3.5699524e-02
  3.4191046e-02
 -5.7881784e-01
  3.0770972e-03
  1.0068512e-02
 -1.2674727e-02
  8.1888782e-03
  7.7147476e-02
 -1.0205262e-01
  1.0370736e-02
  3.7250288e-02
  3.3171165e-03
 -1.9226547e-01
  1.2671934e-02
  5.5372703e-04
 -4.3736128e-03
  1.0471230e-01
 -2.5695805e-03
 -1.5114173e-02
  1.4723857e-02
  1.5815756e-03
  2.2790581e-02
 -3.1986307e-02
  2.1202713e-03
  4.3841046e-03
 -4.6366055e-02
 -2.4662204e-02
 -8.0824428e-04
 -3.6911845e-01
  1.6468128e+00
  1.9896233e-01
  7.3316139e-01
  1.7658557e-01
  1.1148643e-02
  1.7647838e-02
  4.4975970e-03
  3.3624795e-01
 -8.2197160e-02
 -1.5651710e-02
  4.4283929e-01
  1.0358644e-01
  4.7006141e-02
 -4.9843445e-01
 -3.0572084e-04
  5.7737726e-01
 -1.0345856e-01
  3.6646929e-01
 -1.1979738e+00
 -6.0014039e-01
  4.8848546e-01
 -8.5773915e-02
  2.5209269e-01
 -7.8041655e-01
  2.3544635e-04
  4.2514883e-02
  4.0927981e-03
 -2.8643379e-02
  1.5670168e-01
  2.4343694e-03
 -3.7224856e-03
  2.0213019e-02
 -2.2901032e-02
  2.9676955e-02
 -4.3413658e-03
  1.1409549e-03
  4.5632715e-03
  7.6261158e-03
  2.7097831e-03
  4.9906513e-03
  9.7553795e-03
 -4.9348874e-03
 -1.0703573e-02
  9.8980742e-04
 -5.4107048e-03
 -1.2652630e-03
  8.4264018e-04
 -8.5705556e-03
 -5.4854872e-03
  8.0486190e-01
 -3.7788298e-02
  2.6166616e-03
 -1.1220905e-03
  3.4253255e-03
 -3.2144659e-03
 -7.5043538e-03
 -3.8984194e-03
  2.4607710e-03
  6.1668581e-03
 -5.6624204e-02
 -5.6210570e-03
  3.8605151e-04
 -4.3678582e-01
  6.4182535e-02
  1.4443823e-02
 -1.5774170e-02
  3.0922687e-03
 -6.0558212e-03
  6.9648470e-03
  6.5731439e-03
  5.6869525e-04
 -9.4974553e-03
  1.4124024e-02
  7.3890346e-01
 -5.4814522e-03
 -1.3029071e-03
  2.9658178e-02
 -1.5194484e-02
  2.1799920e-02
 -8.3770892e-03
 -5.8110720e-03
 -3.2962689e-03
  2.2622017e-02
  3.5453306e-03
  3.7032629e-03
 -2.9479254e-03
  6.5728608e-03
 -1.3467423e-02
 -7.0163556e-03
 -1.9344984e-02
  1.0022958e-02
  7.9163760e-03
  7.6858705e-04
  1.3945167e-02
  2.9978438e-03
 -2.8721702e-03
 -5.8084596e-03
 -1.7389050e-03
 -7.0583732e-03
  9.0566417e-03
  1.0802526e-02
 -1.1129255e-02
 -2.6362920e-03
  1.4767705e-01
  6.4639449e-03
  5.0478945e-03
  3.4200263e-03
  1.4313892e-02
 -2.0450216e-02
 -2.7652300e-04
 -7.2154414e-04
  3.4245043e-03
 -3.2178760e-03
 -7.1457200e-02
  2.1215012e-02
  1.3799047e-02
 -3.2319410e-03
 -7.1178018e-03
  1.0537123e-03
  2.7268309e-02
  3.0742297e-03
  3.7996392e-03
  2.2872102e-03
 -3.5819151e-02
  5.0806263e-03
 -7.2370947e-04
  6.5067490e-03
  1.0208297e-01
 -4.6955864e-03
  4.2782328e-03
  5.0722709e-04
 -5.4819104e-03
  6.5491063e-04
 -4.7868839e-03
  1.5321478e-03
 -3.1173426e-01
 -7.4839136e-03
  3.9120104e-02
 -2.1766959e-02
  1.5662009e+00
 -1.5657190e-02
  1.3933280e-02
 -1.2626793e-02
  1.1041299e-02
  1.9485118e-03
  1.1292918e-02
 -1.3334395e-02
  1.7101074e-02
 -4.2052106e-03
 -8.7297887e-02
 -9.2634970e-01
 -5.5740303e-01
 -7.2277224e-01
  1.4877647e+00
 -4.6842657e-02
 -1.3678176e+00
  4.0904215e-01
 -1.1018137e-01
  1.9823560e-01
  2.7858176e-05
 -1.8035655e+00
 -1.7219545e-02
 -5.6023598e-02
 -1.1591810e+00
 -3.0443227e-04
 -1.6139308e+00
  4.5675653e-01
 -4.3501410e-01
  1.4056769e-01
  9.2804086e-01
 -6.0850668e-01
 -1.0145370e-02
 -1.1667335e-01
 -2.0259404e+00
  5.9382878e-03
 -2.6661208e-01
  7.6681383e-02
  1.4830942e-01
 -3.8745821e-02
  4.2792427e-04
  5.8427737e-03
  1.2239170e-03
  4.5473161e-03
 -2.4002041e-04
 -6.8030139e-03
  5.7035931e-03
 -5.7769251e-01
  4.4356366e-03
  4.1174521e-03
 -1.3604023e-02
  4.1095153e-03
  4.9663163e-03
 -3.1089082e-02
 -6.2166508e-03
 -7.4018394e-03
  5.9744408e-03
 -1.6931480e-02
 -8.8440450e-03
 -1.6879982e-03
  3.2612865e-03
 -1.9807217e-03
 -3.4545161e-02
 -1.0496302e-02
  4.8670758e-02
 -1.3630568e-02
 -1.4982947e-04
  1.2040029e-03
 -9.8524401e-03
  9.1792498e-04
 -4.6672869e-01
 -7.3670261e-02
  1.4886465e+00
  3.3873615e-01
  6.9191873e-02
  5.3897565e-03
  5.2313664e-04
  1.3136050e-02
  1.1122307e-02
  3.8285404e-02
 -1.7815061e-02
 -8.8137887e-02
  2.4627775e-02
 -5.3520274e-04
 -1.0986878e-02
  3.5676667e-03
  3.1943116e-03
  1.0956115e-02
 -1.8478096e-02
  8.2723582e-03
 -5.5163899e-03
 -7.6164268e-03
 -1.8604238e-02
 -8.9934515e-03
  1.4027262e-02
 -1.9274647e-03
  2.1267028e+00
  3.0424925e-02
  2.1859906e-03
 -1.1788690e-03
 -2.2400238e-01
  4.6961986e-02
  1.9451368e-03
  7.2762139e-02
 -2.1933575e-01
 -1.1621973e-03
  1.5736477e-03
 -1.7872973e-01
  9.1779018e-03
  1.7458729e-02
 -1.9136589e-02
  2.5518583e-02
  7.6359967e-03
  5.3557552e-02
 -2.3312034e-02
  2.3441285e-02
  2.6758830e-03
  6.3316934e-03
  1.3245057e-02
 -1.1316022e-01
  1.8616519e-03
  2.3264987e-03
 -7.6268897e-03
  9.8259458e-03
 -8.4567592e-03
  2.5958000e-03
 -2.3510554e-03
  3.4723464e-05
  2.0067164e-04
 -5.1048282e-05
  1.1572272e+00
 -9.7864103e-01
 -2.6293509e+00
 -2.0356856e-01
  1.6451137e+00
 -2.5788902e-03
 -1.1806504e-01
  7.5546667e-02
 -5.6475420e-02
  1.5308485e-02
  3.2814771e-02
 -1.2756729e+00
 -1.3411970e-01
  1.5326303e-02
  6.7687575e-03
 -1.1930021e-02
 -2.4219120e-01
  6.5421778e-01
 -2.8661436e-01
  1.3861418e+00
 -3.2808232e-01
  5.8340502e-01
 -1.7418655e-02
 -2.2908647e-01
  2.9942855e-01
  3.3084971e-03
 -2.6469973e-01
  1.2410372e-03
 -2.8064266e-01
  8.9516383e-01
  4.5465315e-03
 -7.9690496e-04
 -3.7761745e-03
 -4.3036649e-03
  9.5535920e-04
 -9.1718892e-03
 -1.6514853e-02
  3.9990754e-03
  5.2042231e-03
  1.0372241e-03
 -3.4711082e-03
 -6.8796398e-03
  1.4931192e-02
  1.4053008e-02
  5.5781304e-04
 -3.3829443e-04
 -4.2070085e-03
  1.9715317e-03
 -5.8292923e-03
 -1.2626244e-03
  5.0582208e-02
  2.8343142e-03
  5.0858453e-05
  7.3003569e-03
 -2.0508507e-02
 -4.0127686e-03
  7.3766341e-03
 -1.3468526e-03
 -3.8682090e-04
 -1.1192591e-02
  7.6392013e-01
 -4.7391587e-01
 -1.5047505e+00
  7.3963225e-01
 -2.6896251e-03
  1.5248049e-02
  1.7406825e-03
  3.0928209e-01
  1.5149020e-02
  3.8521770e-02
 -7.2648592e-02
 -1.2057557e-01
  6.5384693e-03
 -2.5836022e-03
 -5.1660836e-01
  1.9981444e-03
  4.1163757e-02
  3.3094645e-02
  7.1924239e-02
 -1.8470675e+00
 -3.5911474e-02
  7.5540012e-01
 -6.2731430e-03
  2.0748036e-02
 -3.5826754e-02
  3.0619404e-03
  1.2782407e-02
 -3.2684293e-03
 -3.5618860e-03
  2.3798237e-03
  2.7764341e-04
 -1.2679244e-02
 -2.5001795e-03
 -2.1014341e-04
 -5.0706258e-03
 -4.7143409e-03
 -6.3348152e-03
  1.9895000e-02
  5.0227996e-04
 -1.4922504e-02
  1.5557493e-02
 -1.1376945e-02
 -1.1562671e-02
 -5.3893756e-03
  6.0540028e-03
  1.8293239e-03
 -3.1420807e-03
 -1.0671654e-02
 -1.4026165e-02
  1.3809696e-02
 -6.5123830e-03
 -1.7797992e-02
 -3.1968339e-03
 -1.4875432e-03
 -9.0986527e-05
 -1.5880555e-02
  1.5476178e-03
  8.7725259e-03
  1.5950833e-04
  9.9788625e-03
  6.1674702e-01
  8.4576929e-01
  5.7733023e-01
 -4.1798443e-01
  3.6270630e-01
  3.4127131e-01
  1.9000483e-01
 -4.6145315e-03
  2.6627383e-01
 -1.4402297e+00
 -2.3568596e-03
 -1.7367621e-01
  2.4143945e-04
  2.8794220e-02
  1.8407494e-01
  1.8507126e-03
  4.9948370e-01
 -3.5095546e-02
  3.8341366e-02
  4.7832945e-01
 -1.0146265e+00
  7.2885111e-02
 -6.1367662e-03
  5.8241636e-02
 -9.0581048e-01
  1.2418194e-04
  1.0690047e-01
 -2.3967793e-02
 -7.4284025e-02
  6.9786195e-04
 -2.8853314e-02
 -1.1052790e-02
 -1.7931221e-02
  1.2960650e+00
 -2.9779097e-01
  3.3253856e-02
  7.8749722e-01
  1.0054807e-02
  4.2399234e-01
  9.8259676e-01
  1.6116082e-03
 -1.1708270e-02
  1.2882400e+00
  1.5159354e-01
  3.3256751e-02
 -7.7215483e-04
 -4.5924687e-01
  5.7751657e-03
 -7.8533413e-03
 -3.8027608e-01
 -1.3751266e-02
 -4.1617322e-01
  1.2399253e-04
  9.6376967e-03
 -1.0300971e-02
 -1.7998861e-01
 -9.5850730e-01
  3.3197805e-01
 -1.7514627e-03
  1.0390547e-01
  1.6291569e-01
 -1.6005425e-02
  1.1778822e-01
 -7.8316897e-01
 -3.3663380e-01
  5.7591158e-01
  1.7497261e+00
 -2.6581690e-03
  6.2960768e-01
  7.2801644e-01
  2.1431121e-01
 -1.1301275e-01
 -3.4207681e-01
 -6.2319511e-01
 -8.4147382e-01
  5.5560118e-01
  8.8383329e-01
 -1.4601475e-01
 -1.6747966e-01
 -1.5037701e-03
  6.9238760e-02
 -1.0856005e+00
  3.5614610e-02
 -2.4121900e-01
  2.7155417e-01
 -5.9933227e-01
  1.3233633e-02
  4.7017369e-01
 -1.6512869e-01
  1.0414312e+00
  1.7792283e+00
 -1.3709491e+00
 -3.2312083e-01
  1.2012966e+00
 -1.1753123e+00
 -1.3735853e+00
  1.5894434e-01
 -1.3482112e+00
 -1.1734976e+00
 -5.5974436e-01
 -6.6552967e-02
  1.7361119e-01
 -1.3134693e+00
  1.8571468e-01
 -3.9582494e-01
 -9.7752142e-01
  1.3731292e-03
 -3.1481180e-01
  1.4045933e-01
  7.4201517e-02
 -7.9367913e-02
 -1.4938626e+00
  9.4006367e-02
 -1.6426812e-01
  6.3043758e-02
 -3.4068534e-03
  3.6810219e-01
 -1.2292883e-01
 -1.0359086e-03
  8.6749703e-01
 -1.0419211e-03
 -2.5523832e-04
 -2.6407694e-03
  1.1658921e-02
 -5.0926656e-03
 -1.5422682e-03
 -1.1017080e-03
 -3.6319231e-03
  4.6424097e-03
 -5.2758474e-03
  6.1542569e-03
 -2.4993002e-04
 -4.3379012e-03
  1.5294673e-03
  1.6204288e-02
 -2.2013355e-03
  8.2143545e-03
 -2.0480162e-02
  4.4161626e-03
 -6.3280822e-03
 -1.1444476e-02
 -3.2028286e-03
  5.9270430e-03
 -4.6370573e-02
 -4.9734265e-03
  2.4581077e-02
 -2.2355940e-03
 -1.1872229e-02
 -4.8400736e-03
  2.4636306e-02
 -9.0285879e-01
  4.8033375e-01
  1.1337495e-01
 -5.9524542e-01
  6.0653192e-01
  1.2842499e+00
  1.4564687e-01
  2.5433770e-01
  2.2589233e+00
 -1.0205073e+00
  1.0807828e+00
  7.1249485e-02
 -9.3444847e-02
  1.6165514e+00
  4.0331906e-01
 -1.2326445e-01
  5.6744426e-01
 -6.0272314e-02
  2.5595337e-01
  9.7214001e-01
  4.9658868e-01
  2.7871153e-01
 -1.0147288e+00
  1.6007650e-01
  1.1198783e+00
 -2.1028771e-01
  2.4008438e-01
  1.1787533e-01
 -1.4872624e-02
 -2.1505971e-01
 -1.5145319e+00
 -2.3356800e-03
 -1.7782392e-02
  1.4598092e-02
  3.9024983e-04
  2.3311940e-03
 -1.6644179e-03
  1.0059240e-01
  2.2051733e-02
 -2.6189783e-03
  1.9209899e-02
  2.6962617e-03
  3.8807164e-03
 -5.4577063e-03
  3.9790760e-04
 -3.9042661e-03
  2.2861061e-01
  2.0361738e-03
 -5.6816399e-02
  9.9589452e-03
 -9.0971868e-03
  1.3108882e-02
  9.8197877e-02
  1.7232707e-02
  3.2234788e-03
  1.9534322e-02
 -7.4296352e-04
 -1.7088074e-03
 -3.3157174e-03
 -1.5762206e-02
  5.3682899e-01
 -1.8270304e-02
  4.9795150e-03
 -3.9337887e-03
  1.8013122e-03
 -4.2022532e-04
  1.2805291e-02
  1.5668194e-03
  1.0175883e-02
  1.6344507e-04
 -5.0231451e-01
  1.0783270e-03
 -1.5512600e-02
  1.0523232e-02
 -1.0647629e-02
 -7.4895809e-04
  5.8191326e-03
  1.6948172e-01
  2.9763504e-04
  1.4029980e-01
  3.5052581e-03
 -1.3216916e-02
 -1.8952503e-03
  2.6085612e-03
  4.3369476e-03
  3.1410826e-03
 -3.6278514e-03
  2.7340034e-03
  1.1837056e+00
  2.9789025e-04
  2.9476872e-03
 -2.1275919e-02
  1.5793268e-01
 -3.3904877e-02
 -8.9240121e-04
 -7.9205930e-03
 -4.0434329e-03
  1.3400871e-02
 -4.5672519e-04
  1.7675355e-01
  4.8301643e-04
 -9.2605036e-03
 -1.4188614e-03
 -9.8681040e-03
 -1.0355561e-02
 -2.7667085e-02
  2.4886612e-02
  7.1138419e-02
  1.8539356e-02
  2.5573788e-02
 -5.6254757e-03
 -1.6894718e-03
  7.5368742e-03
  4.8864479e-03
  6.5330449e-03
 -4.2375624e-03
  2.7571487e-01
 -4.5971917e-03
 -1.5538917e-01
  3.6122731e-03
 -8.9685470e-03
 -1.1610731e-02
 -8.1544294e-04
 -6.5844593e-05
  1.0344390e-01
  1.3582963e-03
 -2.4381790e-03
  6.2673408e-01
 -8.7508606e-04
  6.9551817e-03
 -9.4182212e-03
  6.6536353e-03
  1.8251499e-03
 -6.2825982e-03
  2.5987951e-03
  1.0413248e-02
 -5.8495314e-03
  5.3330902e-03
 -9.0914797e-03
 -1.7927130e-04
  1.2143396e-02
 -6.9496938e-04
  6.7446917e-02
 -4.6690260e-03
 -4.3026017e-04
  2.5787102e-03
 -5.5281878e-03
  1.0106449e+00
  1.3800245e-03
 -8.6729387e-03
  2.6517551e-02
 -8.6129487e-02
  1.2402320e-02
  2.6854056e-01
 -1.4403031e+00
 -1.2047896e-03
 -2.7632858e-03
 -2.1671083e-02
  8.6002819e-02
  1.2534484e-03
  2.2536905e-02
 -1.1962198e-02
 -1.3055476e-02
 -6.8120691e-03
 -1.3485573e-03
  1.3827956e-01
 -5.7771954e-06
  5.5441339e-02
 -2.8490012e+00
 -4.4603772e-03
  7.0849888e-04
 -4.2085079e-03
 -6.2091183e-03
 -3.5265326e-03
  1.5200633e-02
 -1.3712592e-03
 -2.9459486e-03
 -5.7091027e-01
 -5.0231889e-03
 -4.7075748e-03
 -7.1059451e-03
  5.7846660e-07
 -2.1079652e-01
 -7.2988278e-01
 -6.0996853e-02
  4.0818015e-03
  1.2893359e-03
 -1.2150698e+00
  9.4280832e-02
  2.8408563e-02
  1.4932376e-02
  1.3842778e-02
 -5.9112631e-02
 -1.2759250e-02
  1.5463009e-01
 -1.2165443e+00
  1.1259832e-01
  6.2983453e-02
  2.1290494e-02
  7.6830365e-02
 -2.9440284e-01
 -4.2371379e-04
 -3.0372844e-03
 -1.6664197e-01
  8.3799735e-02
 -4.9157278e-03
  1.6427384e-03
  4.4961777e-03
 -9.9566462e-04
  4.5738355e-03
 -2.0303356e-03
 -1.0811383e-01
  3.4307335e-03
  2.1028881e-01
  1.3208893e-01
 -5.5819832e-02
  2.9555115e-01
 -6.4546421e-02
  1.3090952e-02
 -3.7437718e-02
  7.1959333e-03
  1.1483750e-02
 -1.1634880e-01
 -1.1058469e-01
 -1.6825615e-01
 -2.8505828e-03
  2.5177142e-02
 -3.2161385e-01
  2.2452644e-03
  2.6377134e-02
  3.7452835e-05
  1.1279536e-02
  2.6945556e-03
  1.5959375e+00
  2.5345789e-02
  5.2375766e-03
  2.0647846e-02
 -1.1402233e-02
  1.9463936e-02
  3.8674308e-03
 -5.3206585e-02
  3.0038920e-03
 -2.7150291e-03
  2.1476864e-03
 -8.9246750e-02
  4.3278672e-02
  2.4645761e-02
 -1.6204400e-03
  4.8377495e-03
 -8.0264848e-01
 -6.6972887e-03
  5.1851817e-03
 -4.0860092e-03
  4.8632956e-01
 -8.5069919e-03
 -2.5021020e-04
  1.2685921e-02
 -7.9956660e-03
  8.1687729e-04
 -5.7125819e-04
  6.6341840e-02
 -1.3451651e-03
  6.3648946e-03
  1.9363647e-02
  1.2570834e-02
  4.5202496e-03
  3.0201175e-03
 -9.3708374e-03
 -3.4074935e-03
  3.6773980e-03
  9.0803094e-03
  1.2536032e+00
 -1.0921988e-01
  1.5248032e-03
 -1.3883941e-02
  8.5292133e-03
  1.2907707e-03
 -6.2139919e-03
  3.4102385e-03
 -3.7428960e-01
 -1.1407325e-02
  1.3883852e-02
 -9.8451227e-04
  5.3164106e-02
 -2.2771712e-03
 -1.0274275e-03
  2.4813837e-03
 -5.0422605e-03
 -7.1119480e-02
 -1.0546506e-02
 -3.3307192e-03
 -7.5300493e-05
  6.1766049e-03
 -5.1224600e-03
  6.8679056e-03
  1.0017406e-02
  5.9227437e-02
 -1.4340677e-02
  3.2499074e-03
  3.0077680e-03
  1.5607940e-01
  3.0348471e-03
 -2.4965061e-02
  4.2281520e-01
  4.1176863e-02
  7.1971422e-01
 -5.4096710e-03
  9.1931503e-03
  2.5447963e-03
 -1.1148402e-02
 -2.2039254e+00
  9.0935506e-04
 -7.1369822e-04
  2.9126084e-03
  1.6998161e-02
  7.8356955e-03
  2.2875136e-03
  1.1621860e-02
  9.7256619e-03
 -3.5153015e-04
  1.4455706e-02
 -1.9595923e-03
  4.6709799e-03
 -2.5334507e-02
 -9.6189044e-03
 -5.9057334e-03
 -9.0575861e-03
 -1.7397745e-03
 -1.1248426e-03
  6.4752195e-03
 -6.6462451e-01
 -2.7996930e-01
 -6.6284007e-01
  2.7576447e-01
  1.9020425e+00
  8.9958686e-01
  7.0546150e-02
 -5.8108743e-02
  2.2355659e-01
  1.3018734e+00
 -9.4088924e-01
  1.2333103e+00
  2.4943309e-01
  6.4204878e-01
 -9.5790136e-01
  7.0327008e-01
  1.5446593e-01
 -9.3803245e-01
  3.7649718e-01
  5.4236209e-01
  1.3694135e+00
  7.5956643e-01
 -5.2928525e-01
  4.8682350e-01
  1.0686901e+00
 -6.6400528e-02
  1.7748249e-01
  5.3090481e-03
 -1.9806135e-03
  6.0419228e-02
  2.4378125e-01
 -9.9603355e-01
 -1.0185244e+00
  2.2437387e+00
  3.0404183e-01
  3.6920381e-01
 -2.1145578e-01
 -5.7994223e-01
 -1.1774886e-02
 -4.9531245e-01
 -3.9493903e-03
 -3.4932542e-01
 -5.1096892e-01
 -7.9892790e-01
  1.5004382e-02
 -2.1316664e-01
 -7.5667465e-01
  8.9511669e-01
 -7.3406775e-04
 -5.0779074e-01
 -7.3612958e-02
 -4.3012190e-01
 -6.9160277e-01
  1.8446403e-02
  3.8163797e-03
 -1.6906725e-04
  5.5949162e-03
  1.0605033e-01
 -5.3384379e-03
  4.8807943e-03
 -3.8177934e-01
  1.8287370e-01
  2.4611931e-02
  2.2709701e-02
 -1.5375446e-01
 -7.0099428e-02
  1.5792824e-01
 -5.2986126e-03
  9.0144742e-01
  1.4695811e+00
  3.0513614e-01
  5.3667939e-01
  1.0613757e+00
  3.5002840e-01
  6.7070341e-01
  3.2577619e-01
 -1.3320878e-01
  8.2902944e-01
  1.4145379e-01
  5.3204232e-01
  6.3261276e-01
  1.6530607e-02
  1.1566560e-01
  3.2653451e-02
  1.6002369e-01
 -3.4280043e-02
  3.5434777e-03
 -8.8373367e-03
 -1.6719134e-01
  6.1635971e-03
  3.0641207e-01
 -5.8376703e-02
  5.5864799e-01
 -5.1084369e-01
 -7.3314621e-03
  1.3496928e-02
 -6.6226785e-04
 -2.1239411e-02
 -2.2728030e-02
  4.1100612e-01
 -8.2194693e-03
  9.8164305e-03
 -3.3796628e-03
  1.2179523e-02
  1.5045049e-03
  2.4763716e-02
 -6.5271165e-03
  7.2861218e-01
  1.8731034e-01
 -1.4070066e-02
  1.1649652e-03
 -1.1968677e-03
 -3.9790567e-02
 -3.8810214e-01
 -1.6163816e-01
 -7.3746736e-03
 -2.7498933e-03
  9.6188094e-03
 -2.8946533e-04
  1.3709820e-02
 -1.2918492e-02
  8.5306950e-03
 -1.4230068e+00
 -3.1325445e-02
  1.8380581e-01
 -2.9311132e-02
  3.5768005e-03
 -1.5253187e-03
 -2.8380301e-04
 -3.1431571e-02
 -3.5596320e-03
 -8.3765090e-03
 -1.2673521e-02
 -9.1038476e-04
  8.6293191e-02
  2.0070817e-02
  3.8038304e-01
  1.1823136e-01
  2.5228670e-02
  2.0229664e-02
 -6.3559338e-03
  1.0085080e-02
 -9.4612902e-03
 -1.6281122e-03
 -1.0925911e-01
 -6.0465271e-03
  1.2395336e-02
 -1.7647751e-02
  5.9092841e-03
  8.2085826e-02
  1.9100168e+00
 -2.4792454e+00
  9.0740219e-02
  3.4790617e-01
 -2.7057436e-01
  9.5797569e-01
  3.0277291e-02
 -1.0603808e+00
 -8.6406566e-04
 -6.0419416e-01
  5.9794241e-01
 -1.6753891e-02
 -3.7357938e-01
 -4.0247831e-02
  2.3213292e-02
  1.4292475e+00
 -9.3325201e-05
 -2.0872599e-01
 -5.7623601e-01
  7.1841396e-02
  8.7842889e-02
 -1.7330705e+00
 -4.0177356e-02
  5.3223294e-01
  2.1753354e-01
  6.0191895e-03
  5.3311817e-02
  7.3392685e-03
  1.9197153e-03
  1.1998209e-01
  1.6900909e+00
 -2.4915290e+00
  2.9598168e-01
  1.1282560e+00
 -3.3016765e-01
  4.5517311e-01
 -6.2666112e-01
 -8.4064394e-01
 -1.9403210e-01
  9.6265621e-02
 -2.0736189e-01
 -4.5491278e-01
 -5.8077681e-01
  1.1587692e-01
 -3.0336502e-01
 -8.7189168e-02
 -2.2142088e-01
 -2.8237924e-02
 -5.2872326e-02
 -5.5167484e-01
 -3.7887290e-02
 -5.9304070e-01
  3.6037698e-01
  7.8891408e-01
 -2.2008821e-02
  3.7659302e-01
 -4.5515997e-03
  1.9823009e-02
 -3.9512932e-01
  7.2336221e-01
  1.7631312e-01
 -5.5422258e-01
  1.1030782e+00
  7.4564373e-01
 -2.3922739e+00
 -2.0591458e-03
  8.9914160e-04
 -1.5567013e-02
 -2.4515688e-03
  6.5442530e-04
 -1.2789984e-02
  6.9095609e-03
 -1.2089574e-02
 -1.8165739e-03
 -2.7064747e-01
 -3.3377684e-03
 -2.8515592e-02
 -8.6152673e-01
 -8.0619464e-03
  3.4782517e-01
 -2.5342165e-03
 -6.4393446e-02
 -1.6266232e-02
  7.6277438e-03
  3.8931207e-04
 -5.3352402e-03
  1.3569383e-03
  5.5413740e-04
 -1.8078319e-04
 -4.5316370e-04
  4.1685852e-01
 -1.4821935e-02
  6.2262905e-01
  2.4055799e-02
 -3.3054399e-01
  2.7050772e-03
  1.6596870e-03
 -4.0991637e-03
 -3.1230736e-01
 -2.5949609e-01
 -9.4829686e-03
  4.0851133e-03
  1.8566555e-01
  3.4138928e-03
 -1.1846295e-01
  7.3390086e-03
 -2.9960418e-02
  5.7383585e-01
  8.2288727e-02
  5.7682913e-04
 -1.7314737e-03
 -3.2624725e-02
 -1.9434971e-03
 -2.0654224e-02
  3.1042399e-03
  1.6998162e-02
 -3.2200463e-02
  1.3124330e-03
 -1.9568566e-02
 -1.3812077e-01
  3.7408959e-02
 -4.9573731e-01
 -2.6448962e-01
 -6.7428094e-01
  1.6946808e-01
 -2.7441102e-01
 -3.8994141e-03
 -5.4956224e-02
  1.6783273e-02
  4.6401143e-02
 -1.9868060e-03
 -1.5003834e-03
 -1.2542889e-01
  4.1612419e-01
 -1.5711268e-02
  1.2659437e-03
 -2.3500647e-03
 -1.3638462e-01
 -8.8962150e-04
  5.9923936e-02
 -9.0109389e-03
 -1.4458494e-02
 -3.5748169e-01
  3.6077809e-02
  4.2936739e-02
 -1.4384998e-02
  1.3154014e-02
  4.1541178e-03
  6.0561011e-03
  8.2780365e-03
 -1.7487687e-03
  7.9680129e-04
 -4.2176209e-03
  5.5372543e-03
 -5.7516289e-03
 -9.0868277e-03
  1.1673138e-02
  1.8058689e-02
  2.7618504e-03
 -8.0246637e-03
 -5.3353356e-03
  1.5498630e-02
  5.1087602e-03
 -2.0539002e-03
  8.5102059e-03
 -1.9509535e-03
 -3.6227790e-04
  3.2845580e-03
 -6.3467878e-03
 -2.3101023e-03
 -4.3818235e-02
 -8.0615496e-03
  8.8910828e-04
  9.8166708e-03
 -2.0258061e-03
  1.0290948e-02
 -3.1135586e-01
  8.7941083e-04
  1.2995918e-02
 -6.6960659e-03
  3.7440002e-01
 -2.0570818e-01
 -1.6931997e-01
  1.0581478e+00
  1.6554745e+00
 -5.6042457e-01
 -2.0651591e-03
 -8.5300654e-01
 -2.8564307e-01
 -9.3567096e-02
  1.9321744e-01
  2.7979258e-01
 -5.5115845e-02
 -3.8966802e-01
 -6.7516273e-01
 -2.7049443e-01
 -1.1633122e-01
 -6.8594882e-04
 -7.3511438e-03
  8.1579827e-02
 -4.2014528e-02
 -1.9216129e-01
 -7.8446028e-04
 -1.0651805e-02
  1.6254106e+00
 -9.0917555e-04
 -5.4094349e-03
  1.6195587e-03
  2.2555452e-03
  1.0573903e-01
  2.7637105e-03
  5.3388406e-02
  7.3423022e-01
  1.0865510e+00
  1.0504907e+00
  1.2771562e-03
  7.0955616e-01
 -6.6447733e-03
  1.2388813e-01
  5.3761121e-02
 -2.6006886e-04
  3.0639223e-04
 -1.4810990e+00
 -4.8931991e-03
 -7.8755245e-03
  8.9256105e-04
  5.5086133e-03
  1.2357937e-01
 -2.5914364e-02
 -8.5984506e-03
  4.2898324e-03
 -7.5356690e-03
 -9.0491008e-03
 -5.5218237e-03
 -5.6422365e-01
  1.0253952e-02
  1.2894007e-03
 -4.4801668e-04
  5.2655898e-03
  2.0157473e-02
 -2.2414246e-01
  1.3711707e-01
  4.2812866e-01
 -1.0663456e+00
  7.9345934e-02
 -2.9688759e-02
  8.4020130e-02
  4.5690838e-01
  2.5391016e-02
  2.6305368e-02
 -3.5533673e-01
 -5.4903673e-03
  4.4173662e-02
  3.4335561e-03
 -1.3705511e-02
 -9.5570646e-02
  9.0527842e-03
  6.8814032e-02
  1.3041215e-01
  1.9895756e-01
  3.0363030e-03
  1.7945063e-01
  3.1688442e-03
 -4.7683876e-02
 -6.5372162e-03
 -1.7242073e-03
 -7.8090712e-02
  4.1618738e-03
  4.2155679e-04
 -9.0143174e-02
 -7.3665977e-02
 -8.3919811e-01
  2.5503853e-01
  3.9974177e-01
 -1.0757518e+00
  5.4170650e-01
  4.9847737e-01
  3.0326280e-01
  2.0765092e-02
  1.1497006e+00
 -3.6125010e-01
 -2.7203245e-02
  2.7082133e-01
  2.4901623e-02
  1.6064321e+00
  1.1628873e+00
 -1.5844266e-03
  3.1087503e-01
  8.4144063e-02
  5.3625566e-01
 -8.6175716e-03
 -4.3710093e-03
  1.4700553e+00
 -7.3727608e-01
  4.5794180e-01
 -8.5696049e-02
  1.4624465e-01
  2.7016741e-03
 -9.4091175e-03
  4.2558592e-03
  2.2007148e-01
  4.2885128e-01
  2.0525604e-01
  1.4077646e-01
  3.1607315e-01
  5.6748879e-01
  2.1719034e-01
 -8.4857941e-01
 -3.9450637e-01
  3.9257860e-01
  2.1470888e-02
  1.0180556e-03
 -3.1470278e-01
 -8.7573893e-02
  1.3642374e+00
 -6.4720697e-04
  1.0535523e+00
 -1.2716174e-01
  1.9021358e-01
  1.1307771e+00
 -4.2233682e-01
  1.8437168e-03
 -2.4069357e-01
 -6.8328726e-01
  3.2133287e-01
 -2.7240927e-03
  4.5926250e-03
  5.2364822e-03
 -7.3627487e-04
  4.5989120e-01
 -1.6122937e-01
 -9.4095945e-02
 -6.1563753e-02
 -1.2976710e-01
 -8.1529689e-01
 -1.3538806e+00
  1.1567287e-02
  9.7703105e-01
  2.1888776e-02
 -4.0204886e-01
  2.3831996e-04
  4.7947476e-03
 -9.4946581e-01
 -1.4862399e-01
  2.4076982e+00
  3.5421036e-02
 -6.1242692e-03
  7.1020597e-03
 -3.5668906e-02
  2.0149381e-01
 -2.6175323e-01
  1.5983028e-02
 -9.0980017e-01
 -8.7843066e-01
  6.5955184e-02
 -5.4508619e-02
  1.3821591e-02
  2.0489574e-03
  3.6579443e-03
 -1.5944768e-01
  3.3248654e-01
  2.7783606e-03
  7.4177825e-01
  1.3534897e-02
 -2.7061487e-03
  7.2625931e-03
 -1.7846869e-03
  2.4224911e+00
  1.9843765e-02
  9.1599441e-01
  2.0275861e-03
 -8.4402721e-04
 -7.2534904e-02
 -9.7141522e-01
 -8.1104350e-01
  1.7414379e+00
  3.7482672e-03
  1.0510643e+00
  5.1902229e-01
 -1.8831565e+00
 -9.2211716e-02
 -8.3824986e-01
 -7.9943717e-01
 -4.3497276e-01
 -5.5739629e-01
  1.3584188e-01
 -7.0024467e-01
  4.8068190e-01
 -1.6481909e+00
  2.2776167e-01
  1.3501443e+00
 -1.6331658e-02
  7.5031561e-01
 -4.1667383e-02
 -2.7466273e-02
  1.4475350e-01
  2.1239424e-02
  5.0923955e-01
  2.7946815e-01
  5.2132738e-01
  1.1266891e-01
 -1.2346199e-01
 -1.5037833e-01
  6.3097668e-01
  3.9832363e-01
  1.1600108e+00
 -1.6316190e-01
  1.8536191e-01
  8.1954175e-01
 -7.0126081e-01
 -1.6370603e-01
 -3.1843585e-01
  1.0207210e+00
  7.9663732e-04
  1.4209244e+00
 -9.6579146e-01
 -1.2245550e+00
  5.0735158e-01
  9.1571242e-01
  2.6655853e-01
  4.1563406e+00
 -1.2101760e+00
 -2.9100403e-03
 -4.6253745e-03
 -2.7823809e-01
  1.4470114e-01
  2.0858066e+00
  3.5702416e-01
  5.7388252e-01
 -1.2499201e+00
 -2.4431427e+00
 -2.7195138e-01
 -4.4014475e-01
 -1.2668108e+00
 -4.0314555e-01
 -8.7672782e-01
  1.4474468e+00
 -4.9414635e-02
 -4.1723279e-03
 -3.0169371e-03
  1.8844533e-01
 -1.3694578e-01
  6.7179620e-02
  7.3774424e-03
 -8.0615515e-01
  3.9014756e-03
 -2.6080428e-02
  8.5824728e-03
  1.7422429e-01
 -2.0677882e-01
 -2.5433598e+00
  4.8441073e-01
  3.3708197e-01
 -6.1221790e-01
  3.8611269e-01
 -3.5010448e-03
 -9.1555841e-02
 -1.0232991e+00
 -1.2382275e+00
 -3.7042499e-01
 -1.3363256e-01
 -2.9182681e-01
 -6.2407511e-01
 -1.4404349e-01
  1.4407339e+00
 -2.6772091e-01
 -1.6532001e+00
  9.8115541e-02
  1.9771455e-01
 -5.8080250e-01
  2.6858756e-03
  2.4614041e-01
 -2.2511075e+00
 -2.3893014e-01
  1.1398687e+00
  1.0260161e+00
 -1.0033001e+00
 -2.4530976e-01
 -6.4671332e-01
  4.4785989e-03
 -1.7756566e-01
 -7.0155954e-01
 -1.1732048e+00
  7.8120208e-01
  4.0829811e-01
 -2.7415183e-01
 -8.6499041e-01
 -3.6600213e-02
  9.2484975e-01
  1.1662881e-01
 -7.5369269e-01
 -1.2306976e+00
 -7.3527098e-02
  5.1421279e-01
 -4.3341720e-01
 -4.8821670e-01
  3.8885263e-01
 -1.7017676e+00
 -1.9773958e+00
 -6.9246694e-02
  2.0233181e+00
  2.9731663e-02
  9.4376564e-02
  2.1802992e-02
 -5.7992119e-01
 -3.9553338e-01
 -5.5921781e-01
 -2.2193027e-01
  1.2424383e+00
 -8.6540401e-01
 -1.5733620e+00
  4.9140707e-02
  3.4873395e+00
 -3.0941993e-01
  1.6135134e-02
 -1.6173197e+00
 -1.0431470e+00
 -1.0733031e-01
  4.2865248e-03
  8.8345380e-03
 -7.4949241e-01
 -6.7826772e-01
  1.9363067e-01
  6.1600663e-02
 -1.8206424e+00
  2.5246418e-01
  3.2787827e-01
 -4.1200107e-01
  1.5863639e+00
  9.5763791e-01
 -1.1181005e+00
  3.4158409e-01
  7.9793400e-01
  8.9583695e-02
 -1.8242549e-02
  8.5235881e-03
 -4.2881408e-01
  4.0995634e-01
 -1.4764018e-01
  1.0406524e-01
  1.6702554e-01
  1.0170858e+00
  6.4739043e-01
  1.1920789e-02
 -1.1143216e+00
  2.8282118e-01
 -1.3520427e+00
  3.0189949e-01
 -2.2465733e-01
 -1.4475937e+00
  5.7452880e-02
 -5.9504010e-02
 -6.5783411e-01
  6.6894364e-01
 -1.1754587e+00
 -2.0741498e-02
 -1.3116108e+00
 -3.5194808e-01
 -8.1724662e-01
 -5.9500327e-03
 -6.2497713e-02
  6.3454323e-02
 -4.7120151e-01
 -6.1353344e-01
  6.8222439e-01
  2.1263804e-01
  2.2238670e-02
  1.1340153e-01
 -3.1154484e-01
 -3.6086124e-01
  2.2931032e-01
  9.1609788e-01
 -7.7838612e-01
 -9.7705209e-01
  1.1414175e+00
 -1.0822144e-03
 -8.1056666e-01
  7.8405708e-01
 -4.4045609e-01
  8.4430355e-01
  6.2753938e-02
  4.8842570e-03
  1.4566043e-02
  1.1041829e-02
 -3.9421922e-01
 -4.3597165e-01
  1.3155271e-03
  3.5021028e-03
 -7.6145464e-01
  3.0722094e-01
  1.0292109e+00
 -1.4588567e-03
  1.3182148e+00
  6.3306309e-02
  1.0809509e+00
  1.0564117e+00
 -4.0406477e-01
 -2.3473106e-01
 -3.2661948e-02
 -2.5204695e-03
 -4.7018418e-01
 -4.9054116e-02
 -3.6389780e-01
 -1.7680782e-01
 -2.5418556e-01
 -1.2572696e+00
 -1.2446700e-01
 -1.7270543e-01
  1.5491909e+00
 -7.6060903e-01
 -2.8841226e+00
 -1.2447017e+00
 -4.3054384e-01
  6.8694793e-02
  5.8928084e-02
 -3.1407480e-03
  8.8095874e-01
  3.0972484e-01
  1.2481910e+00
  5.6579655e-01
  5.4197092e-02
  1.0218211e+00
  5.8213842e-01
  7.0572132e-03
 -5.4337376e-01
  1.6682353e+00
  8.3243543e-01
  1.7251208e-02
 -1.3637455e-01
 -1.0604227e-02
  6.5544575e-02
  3.5257918e-01
 -5.7254958e-01
  9.7772211e-01
 -3.5089070e-01
 -3.1874962e-02
 -2.8911321e+00
  1.1135169e+00
 -3.0637059e-01
 -2.5881356e-01
 -1.7684942e+00
  5.3784817e-01
  1.3400199e+00
  3.1191301e+00
  6.5379095e-01
 -6.9725549e-01
 -4.3582061e-01
 -7.2388643e-01
  2.7591056e-01
 -1.6540308e+00
 -1.1925149e-03
  2.7549222e-01
  2.0459338e-01
 -3.1126406e-02
  6.3232046e-01
  6.4774007e-03
 -2.8410903e-01
 -8.1306756e-01
 -3.8740894e-01
  8.2858163e-01
 -2.0265020e-02
 -4.7628462e-01
  8.4517248e-02
  1.9700421e-01
  8.5662436e-01
  3.9369434e-01
  6.4787799e-01
  3.3912203e+00
 -3.7321016e-01
  4.8399362e-01
  1.1687098e+00
 -2.0729840e-01
  4.3149868e-01
 -1.0103371e+00
  1.3760817e-01
 -1.2927672e-01
 -6.8276477e-01
  4.6179265e-02
  6.2893741e-03
 -1.6558875e-01
  8.8858646e-01
 -2.7047142e-01
 -3.5378098e-02
  1.8696071e-01
 -2.5186787e+00
  1.0724770e+00
 -7.9493141e-01
 -8.4345732e-03
  2.1036868e-01
 -1.3042113e+00
  6.5700758e-01
 -3.3638272e-01
 -5.8527082e-01
 -3.3100566e-01
 -6.5524317e-02
  1.1340259e+00
  7.2026193e-01
 -9.9999547e-01
 -3.6560374e-01
  2.9243922e-01
 -5.9816822e-02
  1.4626009e+00
 -1.7147589e+00
 -6.5200813e-02
 -6.4644796e-01
 -4.6469752e-02
  1.4921997e+00
  1.1737165e+00
 -3.4395719e-01
  6.0591531e-01
 -4.8396830e-03
  2.3107535e-01
  1.3640695e+00
 -4.0471754e+00
 -3.9824414e-01
 -2.1551095e-01
 -1.7112606e+00
  1.0495570e+00
  7.5077015e-01
  2.7521981e-02
 -5.3576708e-01
 -8.6828727e-01
 -1.9258009e+00
  3.3149698e-03
  4.2337146e-02
 -1.3451102e-01
 -4.3742961e-04
 -1.0667142e-02
  7.2948760e-01
  2.1509747e-01
 -2.3918355e-02
 -1.6792854e-03
  3.5949031e-01
  1.3111798e+00
  6.2557048e-01
  8.3364453e-03
 -1.8878521e-01
  3.3257547e-01
  1.8359853e-02
  8.2635425e-02
 -1.5692551e-01
  5.1563414e-04
  3.0543542e-02
 -1.4815076e-03
 -5.0467020e-01
  2.0524662e-02
  5.6625549e-02
 -6.6816551e-03
 -1.5045439e+00
 -5.4582220e-01
 -3.1196943e-02
  3.5666278e-01
 -3.3778250e-01
 -1.0115803e+00
 -3.0805236e-02
 -1.1694545e+00
  2.2263339e+00
  7.3751668e-03
  1.0022355e-02
  4.2343740e-03
 -6.0024448e-02
 -1.2100246e+00
 -1.0932758e+00
 -1.6749269e+00
  2.2767177e+00
  1.5430439e+00
 -6.4189237e-01
 -2.4100324e-02
 -9.9577749e-01
  4.1570321e-02
 -5.5521065e-01
  7.1980482e-01
 -4.7356704e-01
  8.0529869e-02
 -3.2604899e-02
 -1.6420184e-01
  1.6631190e+00
  1.2997192e+00
  1.2571561e-01
  1.7469361e-02
  2.8843409e-01
 -2.0610151e-01
 -7.5587118e-03
 -2.7281210e-01
 -4.7832534e-01
  2.2124719e-02
  8.2324985e-03
 -1.2638357e-01
 -6.1321996e-02
  3.9394477e-01
  3.3504225e-02
 -1.2646954e-03
  5.4226559e-01
 -4.7416577e-01
 -1.0961194e+00
 -6.0657699e-02
  5.8325626e-02
 -2.6924512e-01
 -2.5936380e-02
  6.3342894e-03
 -1.0451135e-01
  8.9052373e-01
 -1.8701633e+00
 -1.4967022e+00
  9.4314480e-01
 -8.3022334e-02
  1.3086875e-02
  4.5371116e-03
 -8.8872784e-01
 -6.8559843e-01
 -5.5047095e-01
 -3.9941812e-01
 -2.4273747e-01
  1.4750609e+00
  3.6698797e+00
 -1.1529243e-02
  4.0841240e-01
 -1.6823763e-01
 -2.4691921e-01
  1.3922404e-01
 -6.1547905e-01
  5.6966268e-03
 -5.4942258e-03
 -1.0311886e-02
  1.1397097e+00
  1.6363014e-01
  7.6573128e-01
  1.0870403e-01
  1.6453290e+00
  3.8596805e-02
 -4.9147666e-01
  2.3948830e-03
 -1.4356979e+00
 -1.8088903e-01
  1.6125517e+00
 -3.7499693e-01
 -1.0168920e+00
 -1.2326855e-01
  2.4982911e-01
  8.2451001e-02
  1.4650030e+00
 -8.4231007e-01
 -1.4699675e+00
 -2.7742913e-01
  2.5764968e+00
  1.2049439e+00
 -2.9401639e-01
 -2.3300408e-03
 -1.6689824e+00
  8.5024124e-01
  1.8722153e-01
 -9.3026316e-01
 -1.3035961e+00
 -7.8478104e-01
  4.2382713e-02
 -1.2366450e-03
 -3.8661739e-01
  2.1838881e-02
 -1.0482457e-01
 -4.6604235e-02
  1.6391370e+00
  9.4444764e-01
  9.2220974e-01
 -8.1790136e-03
 -4.4271386e-01
 -3.2441598e-01
 -2.5865045e+00
 -1.7651305e-01
 -2.7576196e-01
 -7.4458770e-03
  1.8444039e-02
 -6.6506527e-03
 -5.0998242e-03
  3.3247685e-01
 -4.1281544e-03
 -9.6078153e-04
 -3.2878611e-03
 -1.7411936e-05
  1.3044159e-03
  3.7466763e-03
  5.5524122e-02
 -4.2638145e-03
 -5.3006268e-01
 -8.7766552e-01
  1.8997581e+00
 -5.7353932e-02
 -1.3761016e-02
 -9.5682230e-04
 -1.8359130e-03
 -5.9795745e-02
 -4.2041369e-02
  1.9534917e-03
 -1.9299957e-01
  5.4239821e-01
  1.7617889e-01
  2.3460142e-02
  2.0952139e+00
  1.5275898e+00
  2.8176328e-02
  7.5568718e-01
 -7.2757006e-01
 -3.8539059e-02
  1.9430170e-02
 -2.0828964e-03
 -3.3303314e-01
 -4.3478271e-01
 -1.1016564e-01
 -1.8394614e-02
  3.1565693e-01
 -2.4205050e+00
  1.5217831e+00
  1.8631601e-04
 -1.0945066e+00
  1.9741422e-01
 -1.4049965e-01
 -1.3186541e-01
  2.5372000e-02
 -2.6722825e-01
  8.2737431e-03
  1.9656533e-02
 -4.9602279e-01
  5.1528800e-01
 -1.2739465e-03
 -3.1453315e-02
  1.1720568e+00
  1.6495153e-02
 -7.6763518e-02
 -1.4887427e-02
 -8.2331192e-01
 -2.1406875e+00
 -1.2331517e+00
 -3.3093319e+00
  3.3766559e-01
  1.4898221e+00
 -6.9603257e-02
 -7.3181964e-02
 -8.0023986e-01
 -5.9158403e-01
 -7.6911896e-02
  6.9154322e-02
 -3.5867706e-02
  1.0524192e+00
  4.0858999e-02
 -2.6091337e-03
 -1.2284802e+00
 -1.6993858e-01
  1.6836268e+00
  3.1386003e-01
 -6.8660557e-01
  3.2636914e-02
  1.0331832e-01
 -1.0149603e-03
  5.1121987e-02
  1.2332339e+00
 -5.7022879e-03
 -1.7633700e-01
  8.9282203e-01
  9.2524350e-01
 -2.4848336e-02
  5.7005935e-04
  5.5936176e-02
  2.6118755e-01
  1.2076898e+00
 -1.2826666e+00
 -5.2650940e-01
  5.3751236e-01
  1.0806200e-02
 -2.6569969e-03
 -3.1201327e-01
  5.3521365e-01
  8.9572698e-02
  5.6694508e-02
 -1.4803703e+00
 -7.4511492e-01
  1.4799175e-02
  1.9066438e-02
 -7.8622508e-01
 -9.4106011e-02
 -1.9628376e-01
 -1.6663516e+00
  2.0375524e+00
  1.9549442e-02
 -1.5759259e-02
  7.8310192e-01
  3.9037055e-01
  2.5826940e-02
 -1.6002742e+00
 -1.6219375e-01
  1.1493069e+00
  5.8029807e-01
 -2.4064364e+00
  3.1042250e-02
 -2.2156641e-01
  4.1212580e-01
 -1.0578792e+00
 -1.6403403e+00
  3.7673277e-01
 -1.3180460e-01
  2.4289562e-01
  2.2608960e-02
 -1.4038947e+00
 -2.4404044e-01
 -8.8319294e-03
 -1.3821878e+00
  4.6125409e-01
 -5.3769207e-01
 -1.5160874e-02
  1.2119844e-02
  5.6843664e-02
 -1.2922451e+00
  1.4311620e+00
  1.4233934e+00
 -1.0692066e+00
  2.3345210e-01
  1.6100951e-02
  8.9879148e-03
 -8.7399269e-03
 -1.5462020e-01
 -8.4406054e-03
  1.2456641e-03
  2.9545310e-01
 -1.0821423e-02
 -6.9478676e-02
 -1.7711490e-03
  1.0645084e+00
  5.9172940e-01
  2.4976777e-02
  4.1897237e-01
  6.8976134e-02
 -1.2455548e-01
 -1.5463166e-01
  1.1695591e-02
  1.2173858e+00
  8.6090285e-01
  2.4316506e-01
  9.6877202e-02
 -8.0051541e-01
  5.4516187e-03
 -2.0948550e-01
 -9.1716126e-03
 -1.0576782e+00
 -2.3457411e-01
  2.2698307e-01
  1.6608140e-01
 -7.8069532e-01
 -4.0320423e-01
  3.2945013e-01
  7.1005947e-03
 -7.2947014e-03
 -9.1810077e-01
 -5.1387501e-01
 -6.2007713e-01
  4.7822523e-01
  1.4759381e-01
 -8.1937200e-01
 -7.3129982e-02
 -1.5700761e+00
  2.2772242e-01
  7.6930054e-02
 -2.5934952e-01
 -2.0747972e+00
  2.8846511e-01
  5.5205915e-03
  1.1081826e-01
 -7.0717448e-01
 -6.6468245e-01
  2.5099301e-01
  3.3426594e-02
 -8.5904539e-02
 -3.6122528e-01
  8.8862563e-03
  7.3927585e-03
  1.0622680e+00
  1.3649364e-02
  6.5248892e-02
  2.7819404e-02
  7.3223794e-01
 -4.4092962e-01
 -1.7496173e-01
  2.5594754e-03
  3.7230295e-01
  1.1228399e+00
  7.6780908e-02
 -8.5539615e-01
 -8.3867148e-02
  6.2497753e-01
 -1.3965917e+00
 -5.9763012e-03
  7.2695926e-02
  1.6228145e+00
  3.1892523e-01
  1.3762994e+00
 -8.0634153e-01
  5.8249038e-02
  2.9275930e-01
  1.0331347e-01
  4.5650110e-02
  1.8454213e+00
 -9.3717080e-01
  8.4221698e-03
 -1.8830459e+00
  1.8419480e+00
 -8.2991350e-01
 -7.0839711e-03
 -2.2715611e+00
  1.2844547e+00
  4.6061227e-01
  8.3221096e-01
 -4.6970356e-01
  4.1744329e-02
 -7.0657157e-03
 -1.5549510e-02
 -2.0783599e-01
 -4.8284224e-01
  1.5992166e-01
 -8.5026324e-03
  1.0948338e-01
 -2.6235992e-01
  2.9272854e-01
  2.8403013e-03
 -1.0909715e+00
  7.0129836e-01
  8.3241719e-01
  8.6628956e-01
 -2.6943639e-01
  4.9334681e-03
 -1.0461367e-02
 -5.4268155e-04
 -9.7416893e-02
 -5.6475347e-01
  4.2076957e-01
  5.1013201e-02
 -1.2014413e+00
  2.0122638e+00
  2.6798227e-01
  1.1804070e-03
  9.2873859e-01
 -3.1395400e-01
  3.9500764e-01
  3.9931816e-01
 -7.7012919e-02
  4.8007551e-01
 -1.3509105e-01
  2.4340136e-01
 -3.8287854e-01
 -2.0324670e-01
 -8.3490200e-02
 -3.4506324e-01
 -4.2066211e-01
  8.6870380e-03
 -1.2231714e-03
 -8.6885519e-02
 -6.4497155e-01
 -9.2077786e-01
  1.0623338e+00
 -3.5527539e-01
  5.8450794e-01
  1.3032016e-02
 -1.2093051e-02
  1.1737048e-02
 -2.3134479e-01
 -9.1678491e-03
  3.9452976e-03
 -8.1346836e-04
  7.5493464e-03
  3.2966719e-03
  3.5461593e-02
 -1.9984329e-03
  3.6981729e-01
 -3.4907073e-01
  2.4803792e-01
  6.6260737e-01
 -4.6230764e-03
  3.2540470e-02
 -2.3392759e-01
  3.2251098e-03
 -4.4880027e-01
 -4.2222378e-01
 -1.1718984e-02
  1.9621481e-01
  8.6596161e-01
 -4.3908313e-01
 -2.0521758e-03
 -1.1585408e-01
  7.2148778e-02
  4.0200180e-01
 -9.3355733e-01
 -2.4096707e-01
 -1.5708485e-01
 -2.6028074e-02
  1.9453471e-03
  1.3466862e-01
 -9.0023911e-01
 -1.0769699e+00
 -1.0171565e-03
  1.8607215e-03
  1.0002261e+00
 -3.8808009e-01
  1.0332102e-03
  2.4109497e-03
  9.4876224e-01
 -3.4928098e-01
 -6.9735912e-03
  4.4254649e-01
 -3.0473092e-01
  3.6952677e-03
 -1.4265840e-01
 -2.0049145e-02
 -7.4956232e-01
 -6.1306965e-01
 -3.2890193e-02
 -2.5016337e-03
  6.7857128e-01
 -4.6241675e-02
 -8.0903955e-03
 -7.9772519e-03
  1.4609754e-01
 -8.1997454e-01
  2.0353705e-01
  4.5471328e-01
  6.8434697e-01
  5.3417679e-02
  4.8547401e-04
  1.8110739e+00
 -1.2943393e-01
  4.7704032e-01
 -1.2716256e-02
 -5.4977629e-03
  6.9020367e-01
 -1.6865620e-01
  5.3542526e-03
 -1.9889390e-02
  6.5995283e-02
  3.0723569e-01
 -1.1352240e+00
 -5.0490373e-01
 -2.1116377e-01
  1.0933130e+00
 -3.1517871e-02
  9.8230803e-01
 -3.9672521e-01
 -8.1450969e-01
 -1.1320571e-01
  5.9402585e-03
  7.3804253e-01
 -2.3778947e-03
 -1.7377332e-02
  4.2446451e-03
  8.7595779e-01
  7.9306221e-01
  8.2322395e-01
 -4.7763488e-01
  6.3308865e-01
  1.8010932e-01
 -1.2109363e-01
 -3.1269100e-01
  1.0437071e+00
 -1.1561149e+00
 -9.4227210e-02
 -2.0098891e-02
  2.0477462e+00
  6.4594574e-02
 -1.0921210e+00
  8.2597015e-03
 -1.8060038e+00
 -4.4375020e-01
  1.8955362e-01
  1.4932619e-01
  1.8482032e+00
  2.6635302e-03
 -5.1025148e-03
  5.4962158e-01
  3.4345624e-01
 -3.5794571e-01
 -2.8524222e-02
  1.4418825e-02
  8.9822829e-01
  2.3554679e-02
  1.6864949e-03
  1.1603253e-02
 -2.9653111e-01
 -1.1003739e+00
 -2.4360585e-01
 -2.0617463e-01
  8.7784624e-01
 -7.2758484e-01
  4.3829593e-01
  4.5623946e-01
 -1.5027069e-01
  2.3787390e-01
  8.9660157e-03
  5.6967431e-01
  2.7581784e-01
  1.1519415e+00
  8.7540418e-01
 -3.2100698e-03
 -1.0717857e+00
 -1.0413468e-02
 -1.2040637e-02
 -3.6124788e-02
  1.1131567e+00
 -1.0267421e-02
  1.1496328e-02
  4.0063854e-02
  1.9105392e-03
  9.2545813e-03
  2.1060137e-02
 -1.7101963e-03
 -1.9316172e-03
  2.3914987e-02
  8.4115071e-03
  1.4704187e-02
 -2.3724835e-02
 -4.4183526e-02
 -3.6001122e-01
 -1.2811449e+00
  9.5863147e-03
 -1.5849403e-01
  2.4925608e-03
 -2.4145580e-04
 -4.7954586e-01
  2.0023431e-01
 -3.1740156e-03
  1.4783272e-01
  5.3129989e-01
  4.1283838e-02
  6.8435264e-01
 -3.8588390e-04
 -1.7568804e+00
 -7.2842710e-02
 -2.5539494e-01
  4.8573795e-01
  1.7131042e+00
  5.4491019e-01
  4.7698420e-01
  5.1203382e-01
 -4.0888506e-01
  1.0190351e-01
  5.1219049e-03
  2.6472537e-03
  3.9334085e-02
  8.7584412e-01
  4.6713224e-01
 -1.5321374e-01
  5.1461369e-01
  3.4051669e-01
 -8.0863070e-01
  9.8479575e-01
  3.4249139e-01
 -1.2578155e-01
 -2.7037017e-02
  1.2468112e-04
 -8.1610101e-01
  4.8800819e-03
  4.0074596e-03
  7.2951421e-02
  2.7991693e-02
 -5.3507173e-01
 -6.8244517e-02
 -4.8357667e-03
  6.0751028e-03
  6.6911376e-01
 -1.5509216e+00
 -1.1223941e+00
  5.1803762e-01
 -1.2824240e-01
  7.2649920e-01
  9.4361849e-02
 -1.7233197e-01
 -3.9862087e-01
 -8.7562688e-02
  5.3870928e-01
  2.8220693e-02
 -4.3289566e-01
  1.3536015e+00
 -8.4788827e-03
 -3.1413836e+00
 -3.1033161e-01
 -6.5320575e-01
  6.3000381e-01
  9.5188422e-03
 -5.3959733e-01
  7.0222330e-01
  8.2228839e-01
  1.4661537e-01
  1.0121500e-01
  3.4527783e-04
  2.3832920e-03
  1.0773550e+00
  7.8516459e-01
 -7.4892558e-02
 -4.3135852e-01
 -8.7094724e-01
 -5.8945751e-01
 -1.2458951e+00
 -2.0637321e+00
 -2.0594938e+00
 -8.4585756e-02
  1.2437169e-01
 -5.9506062e-02
  8.5690103e-02
  2.8354707e-01
  7.5028375e-02
  5.6030452e-01
 -2.9340711e-01
  1.9195949e-01
  1.3474607e+00
  1.3609593e-02
 -1.3841844e-01
 -7.2203207e-01
 -1.5011295e+00
 -1.1435633e+00
 -2.5379438e+00
  1.3886803e-02
  5.6246078e-01
  6.3357794e-01
 -6.0648853e-01
 -2.8126212e-03
 -2.7744526e-02
 -1.4425820e-02
  2.2261019e-01
 -5.2064633e-01
  8.8455826e-03
  6.9265710e-03
  9.3513721e-01
 -1.9118065e-01
 -3.5443568e-01
 -1.2825812e+00
 -1.2602601e+00
  1.6521730e-01
 -1.6114429e-02
 -3.0800864e-01
  8.4988201e-01
 -2.2825584e-01
  9.3683656e-03
  8.0559134e-01
  1.0569153e-03
  3.8828489e-01
  7.4791936e-03
  1.4482621e-03
 -6.0340601e-01
 -2.1027410e-01
 -3.1366768e-01
  1.4501736e+00
  8.9267361e-01
 -6.0423873e-03
  1.3643732e-02
  3.4213555e-01
  1.5627873e-01
 -2.7273330e-03
 -2.3429397e-05
 -1.9463114e-03
  1.1003897e-02
 -9.1814384e-04
  5.3177513e-03
 -4.2799753e-04
 -3.8533729e-02
  2.2033081e+00
  1.9017239e-01
  1.9806447e+00
  5.2940208e-01
  1.1037939e-01
 -5.5035401e-02
 -4.7968748e-01
 -1.0509605e-01
 -2.4515387e-01
 -5.5279369e-03
  1.7075978e-02
 -5.9560016e-03
  2.2323622e-01
 -1.1798752e-02
 -1.8418955e-02
  2.7018279e-02
  5.5878311e-01
  1.7966455e+00
  9.8633230e-01
  1.2619226e+00
 -7.1978104e-01
  2.9096454e-03
  6.7793883e-02
  1.2374882e+00
  2.0475889e-02
  1.8136957e-04
 -1.1200141e-03
 -4.7927132e-01
  3.7519160e-01
 -5.7166428e-03
 -5.3888215e-03
 -9.8378378e-01
  5.3443378e-01
 -1.3111708e+00
 -6.2520188e-01
 -7.1368575e-01
 -4.0735498e-02
  1.3290112e-01
 -5.1150370e-01
 -9.1161156e-01
 -4.2803530e-02
 -3.7216162e-03
  5.6957995e-04
  1.5106582e-02
  5.9687544e-02
 -3.1138116e-03
  8.1349481e-03
 -1.5364328e-01
 -5.6481266e-01
  1.0178480e-01
  6.3967425e-01
 -3.5709453e-01
  3.2188799e-02
 -1.0909802e-01
 -7.4461080e-02
 -3.1569591e-01
 -1.7605111e-01
  1.9668401e-03
  1.8343426e-02
 -1.8946686e-01
  1.7862503e-03
  1.5225909e+00
  6.2915054e-04
  2.0382884e+00
 -4.9056792e-01
  4.2833287e-01
  3.3770210e-01
 -2.0429525e+00
 -1.6820802e-01
  2.6575105e-02
  9.1310672e-02
  4.4921461e-01
  3.3183905e-01
  1.5588351e-02
 -8.4961327e-03
  8.7148613e-01
 -2.0408311e-03
 -6.7813336e-03
 -3.2843782e-03
 -1.2586449e-01
 -3.8462222e-01
  7.6566672e-01
  1.8355153e+00
 -1.6168320e+00
 -4.1944495e-01
 -1.0997567e-01
  6.6696805e-01
  1.9962636e-01
 -1.8892713e-01
 -7.9537751e-03
  1.6527574e-01
  1.1825651e+00
  2.1838838e-01
 -4.8407917e-03
  1.5952468e-03
  5.9703998e-02
 -1.8233260e-02
 -2.2220215e-02
 -1.1370984e-01
 -5.6096298e-01
 -1.5972817e-03
 -4.3683674e-02
  7.9997718e-02
 -2.2736435e-01
  7.7971315e-01
 -8.1331264e-03
  1.5703053e-03
  8.2620665e-02
  1.8331046e-01
  3.8196216e-03
 -4.8015136e-03
 -6.2591535e-01
  1.1768982e-01
  8.3136010e-01
 -5.1605445e-01
  2.0893084e-01
 -1.0155640e+00
 -5.4171473e-01
 -2.1453577e-03
  1.6345975e+00
  2.8276466e-02
  2.7749455e-02
 -1.9017346e-03
 -2.7400246e-01
 -3.2677945e-01
  1.3556646e+00
 -1.0303299e-02
 -3.5796037e-01
 -2.4522732e-01
 -3.8202235e-01
 -7.1272528e-01
  1.0674709e+00
 -1.5272804e-01
 -5.4805543e-02
 -3.2935005e-03
  4.4873841e-02
 -1.5509174e-03
  2.7844082e-03
  7.8677513e-05
  2.0540422e-02
  3.8483664e-02
 -4.6954013e-02
  2.6067081e-03
  1.9195591e-03
 -5.0155804e-02
 -3.8817828e-03
  5.6055672e-02
  6.8578929e-01
  8.8056564e-02
  1.3304005e-02
  2.4855711e-02
 -2.5629547e-01
  6.3151583e-02
 -7.4730855e-03
 -1.2817336e-02
 -8.2669944e-02
 -3.5229477e-01
  6.4227289e-01
 -1.4271708e-02
 -7.4355952e-02
 -2.1438148e+00
 -2.0619900e+00
 -9.3566436e-01
  7.2159666e-01
 -1.2518871e+00
 -1.0811242e+00
  3.0266806e-03
 -4.7939265e-01
 -4.4076080e-03
 -1.2430074e-03
  9.1287657e-04
  2.5130481e-01
  8.1802857e-01
  4.8856202e-01
 -1.3007355e-03
 -2.0216188e-01
 -1.0999644e-01
 -1.2845829e+00
 -1.4101564e+00
 -6.7168169e-02
 -9.9645716e-01
  1.8550994e-01
  4.1906017e-01
 -1.8989597e-01
  1.0188590e-02
 -7.3190182e-03
 -2.7229334e-03
 -4.4162935e-03
 -9.5120084e-01
  1.2641498e-02
  3.9786589e-03
  9.1517434e-02
  5.4489523e-01
 -1.4473410e-01
  1.8836639e+00
  5.3935689e-01
  1.0674620e+00
 -1.1508853e+00
 -2.9866752e-01
 -4.7985759e-01
  9.2679285e-04
  1.0127911e-02
 -1.6493235e-02
 -1.1497825e-01
  8.8304192e-01
  1.4202727e+00
 -7.3621799e-03
 -8.0370894e-03
  3.6193234e-01
  2.9382116e-01
 -9.8372626e-01
 -1.7938906e+00
  2.9971978e-01
 -6.8392831e-01
  8.1351000e-01
 -1.0405155e-01
  1.2229799e-03
 -1.0978539e-02
  1.1437177e-04
  2.3943985e-01
  4.1275695e-01
 -9.5219528e-03
  4.0951269e-03
 -7.1625239e-01
 -3.5709876e-01
  9.8820382e-01
  1.9148219e-01
  4.6824181e-01
 -5.4790622e-01
  2.8826156e-01
 -8.1046216e-02
  4.4887257e-01
  1.4141434e-01
 -1.5461601e-03
 -6.7378848e-04
 -8.8112444e-01
 -1.2683454e+00
  1.6753681e+00
 -7.3801173e-04
 -7.3336221e-02
  2.3610631e-02
 -2.6874849e-01
  2.6061678e+00
  1.9178102e+00
 -4.1386241e-01
 -4.6608984e-01
  1.1754314e-03
  8.4216821e-01
 -6.3471356e-04
 -1.1855219e-02
 -1.3924015e-03
  2.9181573e-01
 -5.1712883e-01
 -3.2784534e-03
  1.3038315e-03
 -1.8767394e-01
  4.0895358e-01
 -6.4993938e-03
  4.5128000e-01
  1.1069533e+00
 -9.5781788e-02
 -1.6584508e-01
 -4.8169442e-02
 -6.0420511e-03
  1.3001238e-01
 -1.8808755e-01
 -2.3935509e-01
  2.5051208e+00
  6.7760569e-01
 -5.7224905e-01
 -1.4417612e-03
  1.0284654e+00
 -4.4095919e-01
  1.3497710e+00
  8.9694864e-01
 -2.6866126e-01
  3.6276415e-05
 -2.0095366e-03
 -6.3958731e-03
  4.5904145e-04
  9.8961316e-02
 -2.0838690e-03
 -1.2338721e-02
  8.1371233e-02
  1.8842626e+00
  5.1475689e-03
 -3.7308428e-03
  5.4329950e-01
  2.9026148e-01
  1.2936779e+00
 -9.1998833e-01
 -8.6597371e-01
  6.7113470e-03
 -8.1550027e-04
  2.7062066e-03
  3.6148238e-01
  1.2379298e-01
 -2.9512304e-01
 -6.8806954e-02
 -2.6225994e+00
  6.4406258e-01
 -5.1121396e-01
 -1.5987067e-02
 -2.6482847e-01
 -9.7694778e-01
 -1.8503653e+00
 -8.4379596e-01
 -2.0837359e-01
 -8.8564068e-02
  3.8036024e-03
 -1.9362866e-03
 -1.1180222e-01
 -1.4429094e-01
 -4.5205182e-03
  4.7498844e-03
  1.3836871e+00
  6.4187068e-01
 -2.6259556e-01
  1.6151472e-03
  1.0323822e+00
  1.4151119e-01
  2.0206516e+00
 -2.4534243e-01
 -2.0480328e+00
  1.5682284e-03
  5.1053263e-02
  7.6522841e-04
 -2.6971686e-01
 -1.5867971e-03
 -9.9439256e-02
 -3.6993116e-04
  2.8049743e-01
 -7.4755090e-01
 -8.1104505e-01
  1.3133513e-03
  7.0579076e-01
  1.4351044e+00
  1.8833649e+00
 -1.7525629e+00
  5.1957280e-03
 -1.0107065e-02
 -1.4784490e-01
 -2.1036051e-01
  5.1732314e-01
  8.9148089e-02
 -1.5590994e-01
 -1.5545562e-02
  4.6052268e-01
 -1.2750760e+00
  6.8815066e-03
  1.0288541e-02
  5.6529082e-02
  6.7999637e-01
 -7.7658343e-01
 -1.1803056e+00
  8.0735676e-02
 -3.2767098e-02
 -2.3626676e-01
  1.0364924e-02
 -1.8717481e-01
  5.4052202e-03
 -2.4343852e-03
 -8.9609623e-04
  6.6759992e-01
 -1.0212332e+00
 -5.2099895e-01
  8.2250368e-03
  2.5687790e-01
  8.5822552e-02
  5.5290079e-01
  6.4149696e-01
 -9.3372297e-01
  1.3560694e-01
 -1.4127553e-03
 -2.4532661e-02
 -1.8224244e-01
 -1.0479464e-01
 -5.1955122e-01
 -6.0370368e-01
 -4.6176553e-01
 -3.4624371e-01
  3.5817104e-03
  9.0766525e-01
  5.9424919e-01
 -3.7084550e-01
  5.6225479e-01
 -1.7948506e+00
  6.3632208e-01
 -2.1387640e-02
 -4.0196002e-02
 -2.7334604e-02
  5.1722008e-01
 -4.3486682e-01
  1.1455419e-02
  1.4339784e-03
 -7.3873234e-01
 -3.9484036e-01
 -4.0094182e-01
 -9.3303004e-04
 -5.7704663e-01
  7.4309871e-02
 -4.0378472e-01
 -7.9457074e-01
  2.4360659e-02
  4.6828941e-02
  4.6828941e-02
  4.6828941e-02
  4.6828941e-02
  4.6828941e-02
  2.0539802e-01
  2.0539802e-01
  2.0539802e-01
  2.0539802e-01
  2.0539802e-01
  1.0692688e-01
  1.0692688e-01
  1.0692688e-01
  1.0692688e-01
  1.0692688e-01
  4.8349306e-02
  4.8349306e-02
  4.8349306e-02
  4.8349306e-02
  4.8349306e-02
  1.6278693e-02
  1.6278693e-02
  1.6278693e-02
  1.6278693e-02
  1.6278693e-02
  1.0698410e-01
  1.0698410e-01
  1.0698410e-01
  1.0698410e-01
  1.0698410e-01
