nep4 4 Li La Zr O 
cutoff 6 4 95 30
n_max 4 4
basis_size 8 8
l_max 4 2 0
ANN 30 0
  2.9613983e-02
  4.6352133e-01
  1.0345057e-03
  5.2441739e-02
 -9.6425064e-02
 -4.4124271e-03
 -4.4898340e-03
 -5.5191405e-03
  5.4352790e-01
  7.0320698e-03
  2.5124967e-01
  6.9351628e-02
  3.7893370e-02
 -7.4682985e-03
  3.3095272e-03
 -1.6519656e-02
 -3.9468189e-03
  3.1011400e-03
  2.7897739e-01
 -5.0133769e-03
  1.6714061e-02
 -5.5663759e-04
  1.3324696e-02
  3.8112875e-04
  9.2026200e-03
 -5.0464636e-03
 -2.7689922e-03
  1.4557822e-02
  5.3837425e-03
  4.1387249e-03
  6.4754169e-03
 -4.7336733e-03
  7.4888505e-03
 -2.3644709e-03
 -1.3360796e-02
  7.4235671e-03
  9.8109078e-03
  1.0064570e-02
  1.1844527e-03
  3.4132209e-03
 -2.1001399e-03
  9.0313954e-03
 -5.5955877e-03
 -4.3402268e-03
  1.3524899e-02
 -3.3477698e-03
 -5.5957818e-03
  6.7667598e-03
  1.7849987e-02
 -2.9270593e-02
  5.8426140e-03
 -4.3963236e-03
  1.5404092e-03
  4.2058248e-04
  6.2007806e-03
  1.3973810e-02
 -1.1954443e-02
  1.5991475e-03
  1.7163321e-02
  2.4486348e-02
 -2.1119351e-03
  1.9575967e-02
  3.3922128e-02
 -3.0173615e-02
  4.2911023e-01
 -9.5139747e-04
  2.7599242e-03
  2.2495227e-01
 -6.9615357e-02
  1.6583955e-03
 -7.6775409e-02
  4.8730645e-01
 -7.2597824e-03
 -6.3882217e-02
  4.8562173e-02
 -2.4961736e-02
 -2.5873577e-02
  1.3280702e-03
 -1.1368839e-01
  1.0209578e-03
 -3.2391734e-02
 -1.3156422e-02
  4.8791971e-02
 -1.3552229e-01
 -5.1659681e-03
  5.3910771e-03
 -6.3991569e-02
  1.0907467e-02
  1.8854469e-02
 -4.1695498e-04
  2.2183415e-03
  1.9498171e-02
  2.1582018e-03
  1.7161404e-01
  7.9782279e-03
  9.3352627e-03
  4.0149554e-03
  2.2304030e-03
  4.2079403e-03
  5.8342023e-03
  2.8979941e-04
  2.2187445e-03
 -2.0344823e-03
 -2.1778594e-03
 -2.8123308e-02
  4.9389312e-03
  1.6471209e-02
 -7.8860682e-04
 -7.1874303e-03
 -1.2191761e-03
 -6.3867243e-03
  3.6325490e-03
 -4.9954378e-03
 -3.9907261e-03
 -1.1607874e-02
  1.2168818e-02
 -1.5392486e-02
 -3.8734989e-03
  8.6794067e-03
  3.6654852e-03
 -2.3818672e-01
  2.6530657e-02
  1.7655397e-02
  3.1728668e-03
 -1.1334504e-02
  5.6933146e-03
  3.5994840e-03
 -1.6958999e-02
  2.3081573e-03
  8.7522250e-04
  2.7032148e-02
  1.5455433e-03
 -1.3545784e-02
 -1.5538054e-03
  4.9067303e-03
 -1.5080112e-02
  3.6491200e-03
 -8.9104930e-03
  3.0150354e-02
 -6.1166594e-03
 -5.1019080e-03
  6.9644577e-03
 -2.0388996e-03
 -5.7201856e-03
 -3.4157638e-03
 -1.1112145e-02
  1.8715084e-01
 -5.4876134e-04
  4.9346569e-03
 -5.4291794e-03
 -4.2170486e-03
  1.3115649e-02
  4.2171646e-03
 -5.3759981e-03
 -2.6876448e-02
 -3.3352003e-01
 -1.5698688e-02
 -7.3661953e-02
 -2.5606609e-03
 -4.5559239e-03
  5.1107366e-02
 -1.8981453e-03
 -3.8527064e-02
  1.8594347e-02
 -1.5745200e-02
  3.5242864e-01
 -1.7136829e-02
  2.6202407e-03
  1.8171804e-02
  2.5005592e-03
  1.5186272e-03
 -8.5326508e-03
  2.4850162e-02
  1.9657558e-02
 -5.5068001e-02
  2.2927325e-02
 -3.1571432e-03
 -2.1722823e-02
  5.3561080e-02
  8.4439078e-03
 -1.1400712e-02
  4.7536148e-04
  1.1372553e+00
 -6.4743771e-03
 -3.1893250e-02
 -1.1480504e-03
  3.1775269e-03
  7.6964456e-03
  1.7215565e-02
 -2.2868374e-01
 -1.2821299e+00
 -1.5415956e-02
  4.2828979e-04
  2.7553346e-03
 -4.6587428e-03
  1.7605170e-03
  1.4124970e-02
 -1.9351864e-01
  4.3776929e-01
 -5.4872432e-03
  1.7620482e-02
  1.0802686e-02
 -1.0976612e-03
  5.0636444e-02
  8.9786993e-04
 -5.4004766e-02
 -5.5099945e-03
 -7.2185937e-03
  4.3929312e-03
  1.7865572e-02
 -6.9812313e-03
 -9.6486695e-03
 -1.2597006e-02
 -1.8737228e+00
  9.4428714e-03
 -8.0979513e-03
 -1.5345681e-02
  1.2451834e-03
 -6.0338271e-03
 -5.4022977e-03
 -4.2635677e-03
 -2.3954879e-02
  9.2232125e-03
 -1.8961106e-04
 -9.1667688e-03
  6.0309819e-03
  2.2466467e-03
  5.4500595e-04
 -3.8908648e-03
 -5.4245563e-03
  1.0584009e-02
 -8.4734626e-02
 -7.7699259e-04
  2.0124031e-02
  1.6568119e-02
 -6.8537043e-03
  1.1166193e-02
 -1.4718016e-02
 -2.1321436e-03
  1.1485636e-04
  2.6883096e-03
 -1.6732948e-02
 -7.2519998e-03
 -6.3892864e-03
  1.4724812e-02
  2.3780090e-03
  2.4422954e-03
 -7.6958160e-03
  5.3281230e-03
 -1.0002553e-02
  1.1365779e-02
  1.8618625e-03
 -1.6743079e-02
  1.2406409e-02
 -3.3355160e-03
  6.7275492e-03
  3.6660908e-03
  1.3611499e-02
  1.4610231e-01
  4.7584418e-03
  5.4989960e-03
  6.0094818e-03
 -1.5637954e-03
  1.2490133e-02
  1.3754553e-02
  1.5434512e-03
 -1.2261458e-01
 -1.8829944e-02
 -2.2436375e-02
 -2.5902917e-03
 -3.0980552e-02
  1.0968898e-04
  6.4058960e-03
 -3.1920702e-03
 -3.8002979e-02
  6.2273610e-03
  6.1700339e-03
 -1.9854674e-02
  7.9398127e-03
 -6.0148290e-03
  3.9027312e-01
 -7.2730603e-03
 -2.0183876e-01
  1.0663527e-01
 -1.7585368e-01
  6.1705850e-02
  1.0244174e-01
  3.1860352e-02
  2.3734291e-01
  1.3670756e-02
  5.3649478e-02
  3.2620989e-03
 -4.1208524e-01
  1.4270058e-01
 -3.9142307e-02
 -2.8829141e-02
  4.1624349e-02
 -2.8462850e-02
 -5.3372199e-04
 -8.0878444e-02
 -2.1248598e-02
  4.9907625e-01
 -1.3230869e+00
 -1.3719469e-02
 -5.1327866e-01
  1.1903194e-03
 -1.9780302e-03
 -9.4715590e-03
  5.8534779e-03
  5.7133968e-04
  6.2932493e-03
  7.1672189e-01
  1.0455077e-02
  2.4578029e-01
 -1.9762974e-02
  2.2395512e-02
  9.2386892e-03
  2.0177940e-02
  1.0889715e-01
 -2.9473180e-02
  2.1743381e-02
 -2.4380134e-03
  8.3322553e-03
  9.2417501e-02
 -7.9611503e-03
 -7.9046329e-04
  5.8549899e-04
  1.0476930e-02
 -2.0313323e-03
  1.6321015e-02
 -1.3351263e-01
 -3.1967997e-03
  3.3294328e-03
 -1.7657119e-03
  6.5883346e-02
 -1.5850762e-02
 -7.8089945e-03
  7.7643991e-02
 -2.8742548e-02
 -1.6924700e-03
 -2.0156715e-03
 -8.6703680e-02
 -9.0868812e-04
 -8.3482869e-02
  6.3331280e-04
 -6.6964753e-02
 -2.6784845e-02
 -9.4956290e-03
 -3.2481560e-01
  8.4246176e-01
 -1.0226899e-02
  4.9293947e-01
  3.1733958e-03
 -3.0987173e-01
  8.5880071e-02
  5.7630879e-01
 -8.0330381e-03
  3.7748129e-03
 -3.2169078e-02
 -7.9019479e-03
 -2.1768525e-02
 -1.8415538e-03
  1.2248310e-02
 -4.3899096e-03
  2.4833536e-01
  4.8710406e-03
  1.2308451e-03
 -1.5492773e-02
 -4.9172640e-01
 -4.7234246e-03
  2.8213623e-04
  1.0372713e-03
  1.9058868e-02
 -2.4439415e-02
 -7.9799285e-03
 -1.4335201e-02
  8.6694136e-03
  5.2800602e-03
  4.5562317e-03
 -4.3792347e-04
  2.6021960e-01
 -1.2979407e-03
 -1.4227330e-03
  3.7887134e-03
  2.7601361e-02
  2.1595174e-02
  5.1238141e-03
  8.1058973e-03
  1.6715925e-02
  1.3051941e+00
  2.7844023e-03
 -5.0316919e-03
  4.3517170e-03
  1.1522482e-02
  5.5192311e-05
 -5.5636968e-03
 -1.9806871e-02
 -6.3998168e-03
 -1.8464165e-02
 -2.5893429e-02
 -6.2112715e-03
  4.5528710e-03
 -3.0657183e-03
 -2.3088280e-02
  3.9942279e-03
 -4.1834856e-03
  7.8104534e-03
  1.4291560e-02
  1.1578591e-02
 -2.1835435e-02
 -5.6393570e-03
  4.0049180e-03
  1.5277894e-03
 -7.7976175e-03
 -1.6237552e-01
  4.6412735e-03
  8.6002628e-04
 -1.1943828e-02
 -3.4859369e-03
 -1.7949013e-02
  1.3837207e-02
 -8.6517044e-04
 -6.7971693e-03
 -1.4431415e-02
 -4.7762764e-01
 -1.0484939e-04
  5.2685752e-03
 -1.2832641e-02
  4.4445787e-02
  6.1103553e-03
  6.1930008e-03
 -7.8379287e-04
  5.7777050e-03
  5.4810621e-02
  8.6897556e-03
  4.8173741e-03
  3.2346047e-02
  1.0868148e-02
  5.3006657e-03
 -2.9364878e-03
  7.1896771e-03
 -6.5199160e-03
 -1.3934885e-01
  4.2008430e-02
 -3.7054610e-02
 -5.5383379e-03
 -3.9741207e-02
 -9.9692470e-04
 -6.0584461e-03
 -1.0597719e+00
 -1.5136778e-01
 -1.2571070e-01
  2.4406965e-01
 -5.7980925e-01
  5.7728446e-01
  1.8904780e-01
  3.3939555e-02
 -1.7653555e-01
  4.3560423e-02
  2.7611423e-01
  2.3542963e-01
 -2.6205694e-03
  1.2104637e-02
  2.6801938e-01
 -1.0440887e-02
 -3.1547935e-04
  3.4741931e-02
 -6.9087674e-03
  1.3730285e-01
 -3.3673689e-01
  2.1852430e-02
  6.2386125e-02
 -5.2427180e-04
  1.2932137e-01
 -9.1159239e-02
  5.2396720e-04
  1.5883097e-01
 -3.9932098e-02
  1.5633318e-01
 -1.6226606e-03
  1.4735551e-01
  5.1147318e-01
 -2.4965424e-02
  1.4710096e-01
 -4.3745658e-01
 -5.0704614e-03
 -6.9540842e-03
  9.6562311e-02
 -9.3319066e-02
  9.9538341e-03
 -2.2455662e-01
 -1.5711724e+00
  2.0216186e-01
 -4.6566314e-01
  3.7231492e-03
 -6.9178051e-01
 -4.6043319e-01
 -3.5155828e-03
 -4.2245132e-01
 -2.7549256e-02
 -5.2957434e-02
 -1.2058960e-01
 -2.0954128e-02
 -7.6709533e-01
  1.8354326e-01
  1.1145433e-02
 -9.3083926e-02
  4.3324507e-03
 -1.9675326e-02
 -2.1968588e-02
 -1.9143651e-03
  3.9304961e-02
 -3.6776138e-03
 -7.3244176e-03
 -1.1627921e-02
 -2.9435840e-03
 -3.5726700e-03
 -7.4228650e-04
 -1.9246977e-02
  9.5902765e-03
  1.5460517e-03
 -2.3808491e-03
  5.0822864e-03
  5.3378204e-03
  3.9578183e-04
  8.5916044e-03
  2.7073422e-03
 -5.5757238e-05
  1.6847751e-01
  5.4428084e-03
 -1.2868362e-04
  2.6671050e-04
 -1.2448087e-02
  5.8407331e-04
 -9.4001805e-03
 -6.2915636e-03
 -6.8932581e-03
  2.5931410e-03
  2.9190860e-04
 -1.9873442e-02
 -4.1649393e-03
  9.5495200e-01
 -1.0563225e-02
 -1.3238683e-02
  1.9555325e-02
 -1.6281269e-03
  1.3435473e-03
  4.0155533e-03
 -4.3134703e-03
 -1.5019629e-02
 -2.5429929e-04
  1.8335489e-03
 -6.1557922e-03
  1.1725519e-02
 -2.3978064e-02
 -9.4157141e-03
 -8.0115218e-03
 -5.6895367e-03
  2.6430494e-01
 -1.1753929e-02
  1.3769708e-02
  4.5508979e-04
  6.4762770e-03
 -1.8742419e-04
 -4.3101162e-02
 -3.2377189e-03
 -1.5081005e-02
  1.1254381e-02
 -7.4665803e-03
  6.8359198e-03
  5.7236850e-03
 -1.2846364e-02
 -3.3038312e-03
 -1.0959877e-02
  4.4546959e-01
  1.6862125e-03
 -4.6371254e-03
  2.3356520e-02
 -3.1272320e-03
  9.4824629e-03
 -2.5296617e-02
 -5.9853615e-03
 -9.1127325e-03
 -5.0734542e-03
  2.2536943e-02
  1.5266678e-01
 -3.9042830e-02
 -1.0594032e-03
 -1.0355402e-02
  4.7037397e-02
 -1.9802988e-02
  1.2555576e-02
  2.9768362e-03
 -1.3336664e-04
 -1.0592192e+00
  8.0339320e-02
  8.4469112e-04
  1.6930135e-02
  1.9186577e-03
  5.9376108e-03
 -1.3094207e-02
 -4.1340692e-03
  1.6835555e-04
  1.2637541e-02
 -2.1852115e-02
  8.3311414e-03
  5.8118774e-05
 -1.8328954e-02
 -5.8766161e-03
 -7.0678126e-03
  1.1777525e-02
 -1.2281319e-03
 -4.2772493e-03
 -3.2229047e-02
 -3.4044243e-03
 -2.4873370e-01
 -1.5381747e-03
  9.5723465e-04
  1.5244080e-03
  3.0405042e-03
 -2.3732186e-04
 -7.0463028e-03
 -2.4381932e-03
 -2.5832206e-02
 -3.1778648e-02
 -2.4832178e-02
 -3.9444407e-03
  4.2556974e-05
 -2.1506879e-02
 -2.7842098e-01
  1.2528954e-01
 -9.1308891e-04
 -1.0175100e-02
 -9.4002914e-03
 -3.3324158e-03
  1.1418679e-02
  1.9711692e-02
 -1.2440327e-02
 -1.5998837e-02
 -8.8750785e-03
  8.6134663e-03
 -9.5810095e-04
  4.9466332e-03
  1.4771953e-02
  6.3811480e-03
  2.9027294e-02
  1.2047564e-02
 -1.2535720e-04
 -7.2413678e-03
 -4.8256610e-03
 -1.3736413e-03
 -4.3546013e-03
  1.2107411e-02
  1.1093530e-03
 -9.7719049e-03
  7.9548247e-03
  7.1369032e-03
 -6.4074853e-03
  8.1379283e-03
 -1.6356777e-02
  4.0514339e-02
 -5.3012691e-04
 -4.6351939e-02
  1.0267537e-02
 -1.8083613e-01
  4.3524720e-02
  2.5276970e-03
 -3.7834603e-02
 -4.6991617e-03
 -8.1112975e-04
  1.3710874e-01
 -1.3376559e-02
 -4.8086595e-02
  6.3667081e-02
 -7.1855746e-02
 -3.2382969e-02
 -8.1864273e-04
  5.9226919e-03
  2.8771061e-01
  1.5837222e-01
  4.4953073e-03
 -8.9377695e-04
  4.9935037e-04
  3.1298169e-01
 -9.9851564e-02
 -4.3113199e-03
  9.1306184e-04
  7.5978190e-03
  3.7120175e-02
 -5.0035897e-03
 -9.8499947e-04
 -1.5865706e-02
 -3.1146183e-04
  3.2366889e-03
  3.2477152e-01
  1.5061374e-02
  4.8894603e-02
 -1.6539512e-02
  5.7113299e-04
 -5.9684035e-03
  2.3773618e-03
 -3.0732492e-03
 -4.0089753e-03
  9.7343847e-03
 -5.1599699e-03
  1.9432235e-03
  1.0760581e-02
  1.5013025e-02
 -7.1433075e-03
  7.4491403e-03
 -3.8822647e-04
  6.4193420e-03
  4.0859707e-02
  1.9141061e-02
 -8.2387708e-02
 -5.8553899e-03
 -1.0171165e-02
 -2.7927663e-04
  4.0035862e-03
  4.0416112e-03
 -6.6163912e-02
 -3.6789093e-02
 -9.9638570e-03
 -7.5767450e-03
 -1.5937309e-01
 -1.0396829e-01
 -2.4135029e-03
 -3.0429197e-02
  1.0160659e-01
  2.3917343e-01
  6.7223618e-03
  1.0686213e+00
 -1.7230412e-02
  1.6397389e-02
 -6.8177418e-03
 -6.4888020e-04
  3.4265427e-03
  8.0457171e-03
  2.1939817e-01
  9.6032454e-05
  3.5168309e-02
  7.2386577e-03
 -3.3006564e-02
  2.3554438e-03
 -2.6581892e-01
 -1.0351451e-02
  6.3101086e-03
  6.4086479e-01
  1.2796780e-02
  3.9233975e-03
 -2.7991885e-01
 -4.2898435e-02
  7.7781770e-03
 -5.7284678e-03
 -5.2379197e-01
  5.1237082e-01
  1.2587639e-02
 -4.2245951e-02
  3.6957979e-01
 -9.1999387e-03
  3.8967791e-01
  9.2833041e-04
  1.7816136e-02
  1.3348229e-01
 -2.1553791e-01
  1.1863188e-01
  2.8397602e-01
  1.7091244e-02
  2.9285446e-01
 -3.5723138e-01
  6.2166002e-02
 -7.4591772e-03
 -7.6590508e-02
  8.4896032e-03
 -2.6218241e-01
 -2.2047863e-03
  3.2868840e-02
  2.1075618e-02
  2.7976986e-02
  1.2464119e-02
  4.2691803e-01
 -7.7966046e-01
 -1.4029638e-01
 -3.1407002e-02
  1.0352461e+00
 -4.9143296e-01
 -1.0473774e-01
  4.4449631e-02
 -7.8193687e-02
  1.4454531e-02
 -4.6320295e-01
 -3.6671662e-03
  1.5641417e-03
  5.1695573e-01
  3.1275161e-02
 -6.0115311e-02
 -4.3289682e-01
 -1.8121469e-01
 -1.5797059e-01
  5.7613466e-02
  1.7841671e-03
 -1.2167808e-01
  2.0498426e-01
 -2.3606546e-01
  1.2734187e-01
  7.5697206e-02
 -9.7350635e-02
  8.1367977e-02
 -1.3655171e-01
 -6.1374869e-02
 -1.1032352e-03
  3.5610150e-03
  5.3947172e-03
  2.5972607e-02
  1.0020842e-03
  4.9914364e-03
 -4.5488440e-03
 -1.6643578e-02
 -2.7142507e-03
  8.0293352e-03
  1.8840712e-02
  1.0257401e-02
  1.7248783e-02
  4.9325437e-03
  1.8515460e-03
  2.3111477e-03
 -4.9902429e-03
  1.8212527e-02
  1.1658171e-02
  1.0820337e-01
 -8.6145999e-04
 -2.3992707e-04
  1.1368676e-03
  1.1084778e-02
 -1.6611850e-02
  6.4052925e-03
  4.8368628e-04
 -2.0092110e-04
  1.5406065e-02
  9.0624737e-03
  6.3238204e-01
 -2.1497820e-01
  6.5460151e-01
 -2.9498184e-01
 -1.0260537e-02
  5.7718122e-01
  3.7280428e-01
 -6.6414863e-02
  3.6779067e-01
  2.1360904e-01
  7.7472192e-01
  8.2362488e-02
  8.6349003e-02
  1.1476641e+00
  2.4458188e-01
  2.7524527e-02
  1.4028379e-01
  1.2619504e-01
  3.5905239e-01
  8.7452820e-03
  1.1323103e-01
  2.2042085e-01
 -1.2279610e-01
  4.3836549e-01
 -3.7275961e-01
 -9.7426504e-02
  2.0314674e-01
 -3.7368233e-03
  8.2911208e-02
  6.8062129e-03
  7.3903287e-03
  3.8745736e-03
  7.9893582e-03
  1.8570364e-02
  3.3928352e-04
 -8.0026589e-02
 -1.8030206e-02
 -1.4550816e-01
 -4.8090597e-03
  6.7570573e-04
  3.8072199e-01
  9.0527451e-03
 -3.4546589e-03
 -8.8662477e-03
 -5.1506502e-03
 -3.7068999e-03
  1.6310973e-02
 -3.7858840e-02
  3.8325463e-03
 -7.1361003e-04
  1.5984816e-02
 -1.9436629e-02
  7.8856330e-03
  1.3979449e-02
 -3.7509926e-02
 -8.9341132e-03
 -8.7033501e-03
  3.3870691e-03
  3.9294586e-03
  1.2242291e-02
  1.7867142e+00
 -3.8789657e-03
  4.2632478e-03
 -2.1954738e-02
 -2.7322821e-02
 -7.0788898e-03
  1.2219945e-03
  1.1716040e-02
  4.6022600e-03
 -1.5702829e-02
 -5.6256587e-03
  4.8388564e-03
 -5.4888348e-03
 -7.3774345e-04
 -5.2864908e-04
 -9.0764791e-01
  4.5262489e-02
  1.8682589e-03
 -2.7280217e-02
  2.1101129e-03
 -2.3180915e-02
 -8.0471659e-01
  8.0799796e-03
 -1.0755953e+00
  2.5326351e-03
 -3.5202834e-01
  3.5380244e-01
 -8.0585936e-03
  8.4733510e-01
 -4.2819087e-03
  2.8150775e-02
 -3.2091071e-03
 -3.6786851e-01
  5.4731456e-05
  2.5841121e-02
  1.4992936e-01
  9.0327486e-02
  3.9539143e-02
  7.6932177e-02
  3.9121878e-01
  2.3400678e-01
 -3.4404400e-01
  1.0718928e-01
  1.6734133e-02
  1.3783693e-01
  1.5189695e+00
 -5.7485700e-01
  8.2904501e-03
 -4.2861264e-02
 -2.1504447e-01
 -5.8128383e-02
  7.9831615e-02
  3.0560482e-01
  4.6570107e-02
  2.7477160e-01
  5.3973752e-01
 -8.0187041e-01
 -7.6691783e-03
  1.0292653e+00
  4.3041434e-02
  3.5434276e-02
 -4.1914776e-02
 -8.5152751e-03
  7.1211261e-01
  5.0321827e-03
  5.2441196e-03
  5.2496698e-04
 -2.9337259e-03
 -1.6082076e-02
 -1.3152722e-03
  7.2566681e-02
 -4.7345250e-03
 -9.9033583e-03
  3.5967389e-03
 -6.1656535e-03
 -4.8336582e-03
 -1.2980659e-02
 -2.1695085e-03
  8.7560952e-04
 -2.7340740e-02
  1.4414510e-03
 -2.2103009e-03
  9.3603348e-03
  1.2322344e-02
  6.6468683e-03
  2.9843134e-01
 -2.9716222e-03
  8.0946451e-03
 -2.4342448e-03
 -5.9293862e-03
  7.7506983e-01
  1.3591812e+00
  1.3833803e+00
 -1.3477599e-02
 -5.2165367e-02
  5.2714384e-01
  2.1465135e+00
  4.7400258e-03
  1.7591987e-03
 -3.2954820e-02
 -2.6478309e-02
 -1.0252727e+00
 -4.3717395e-03
 -9.1556361e-04
  1.3435429e-01
 -4.6033630e-01
 -3.0939481e-01
 -3.2398915e-01
  1.4176219e-03
  1.2348946e-02
 -4.9915917e-02
 -3.6599299e-01
  2.3911039e-03
 -9.8423893e-03
 -2.2688057e-01
 -7.9412952e-02
  3.4360306e-03
  8.2943039e-03
  1.2305871e-02
  2.0706197e-02
  2.0421256e-01
  5.3495508e-01
  7.8894466e-02
 -1.8820170e-01
 -3.9220098e-01
 -1.1056129e-02
 -6.0254736e-03
  4.8121642e-02
  4.7236912e-02
 -2.1594933e-01
 -2.2266544e-03
 -3.3779687e-01
 -3.4740947e-02
 -3.6559601e-03
  2.3540637e-02
 -4.0270048e-01
 -1.3390940e-02
 -1.0559136e-01
  1.2378863e-02
  8.0271077e-04
 -8.8212065e-02
 -3.0694127e-01
  7.5275991e-03
  1.9147860e-02
  2.1107873e-02
  2.6520142e-01
  8.1638042e-03
  1.4206757e-02
  2.0500148e-02
  1.9270983e-02
  1.0170622e+00
  1.0429473e+00
  6.3240790e-01
  1.8188372e-01
 -4.4632801e-01
 -1.6468018e-01
 -9.4675191e-02
  1.8357679e-03
 -2.5021791e-02
 -1.7657040e-01
 -2.0827642e-03
 -1.9451378e-01
 -3.7473610e-03
 -9.6004717e-02
  7.1447037e-02
  3.1205876e-02
  4.1387428e-02
 -7.7893272e-02
  9.4370633e-02
  1.6758344e-01
 -3.5803060e-03
 -4.1296784e-02
  2.0804445e-03
  1.1831657e-02
  1.0009648e-01
 -1.1386660e-02
  1.8942766e-02
 -1.7610965e-02
 -8.5700359e-03
  5.9148194e-03
  2.8337938e-01
  1.8646909e-02
  2.5618427e-02
 -9.1855954e-03
 -1.5483656e+00
  1.2626036e-03
 -7.8580238e-02
 -6.8749483e-03
  2.6867092e-03
  6.9884747e-01
  1.4663740e-02
  3.2626115e-02
 -9.9480310e-03
  2.2838296e-02
  8.7724411e-04
 -9.6858583e-02
 -2.7958694e-04
 -2.7823718e-03
 -1.7716077e-01
 -1.1087131e-03
 -1.6116517e-03
  7.6702394e-02
 -9.6546178e-04
 -4.6257563e-03
  1.2226605e-02
 -1.9842699e-02
 -2.0779375e-02
  3.9121867e-03
 -1.6792434e-03
 -5.0725351e-04
  3.9346494e-02
  8.4766127e-02
 -6.6488385e-02
 -9.2379225e-04
  1.7504829e-03
 -9.1896914e-03
  6.9070213e-02
  3.9873761e-04
 -1.0167036e-03
 -7.8663426e-03
  2.0881388e-03
  2.0684353e-03
  1.2789234e-02
 -1.0016838e-03
 -3.2449709e-03
 -2.1009718e-03
  1.0908414e-03
 -4.9855118e-03
 -2.3838654e-03
 -1.9052842e-03
  1.6537644e-02
  4.0854371e-04
 -2.7050551e-03
 -2.0830815e-03
 -5.6633563e-03
  9.1678994e-03
 -1.1606527e-02
  4.3441937e-03
 -1.1872911e-03
 -1.2244786e-02
 -1.6933420e-01
  8.0794366e-03
  2.8642633e-03
  3.8350608e-02
 -4.1379910e-02
  5.0140689e-03
 -1.4114130e-02
  3.2956705e-03
 -1.4020071e+00
 -6.0996730e-03
  4.3047220e-02
 -1.7540755e-03
 -8.7227067e-04
 -7.0392867e-03
 -1.2908907e-03
  5.3126369e-02
  8.6510340e-03
  7.2103287e-03
  3.9054748e-01
  3.9709946e-03
  1.7982000e-02
  4.7819366e-04
 -1.3162760e-02
  1.5936658e-02
 -2.3599595e-02
 -1.5728882e-02
 -1.3652064e-02
  2.2640733e-02
 -8.4639406e-03
  4.4056675e-03
  6.3400710e-01
  8.1837678e-01
  1.2861018e+00
 -5.8038956e-01
  4.7251885e-03
 -9.6501699e-03
 -4.4359793e-05
  1.1210160e-02
  1.1305271e-03
 -3.2176904e-02
 -3.1919535e-03
  6.8947957e-03
  7.3832879e-03
 -8.6455699e-03
  4.1928948e-03
  8.4989315e-01
 -6.4872042e-03
  7.7008256e-03
  3.7125906e-03
  1.4105091e+00
  4.1323826e-03
 -5.3926669e-03
 -1.0099092e-02
  1.8678796e-02
  4.6497495e-03
 -5.5796929e-02
 -1.1855403e-02
  2.7117974e-03
 -8.8051660e-03
  1.0118621e-02
 -3.4225658e-01
 -3.9600700e-02
 -2.2583258e+00
 -2.0172021e+00
 -6.2741631e-01
  2.2438124e-01
 -1.7018192e-01
 -3.7924901e-02
  2.4189306e-03
  3.1889957e-01
  1.0936016e+00
 -9.3625152e-01
  2.2979928e-03
  3.5560586e-02
  1.6543033e-02
  1.0780772e+00
 -1.3497421e+00
  1.3605766e-01
 -7.3265322e-02
  7.1522987e-01
  3.6536908e-01
 -1.1437237e+00
  5.8951522e-03
 -3.3851322e-02
 -2.4543193e-01
  2.3690827e-02
 -3.7573818e-03
 -1.5806492e-06
 -6.3817347e-03
 -2.3534547e-03
 -1.1575904e-01
  1.2908869e+00
 -2.4530731e-01
 -1.9031937e+00
 -1.3758285e+00
  2.2701548e-01
 -2.6869094e-01
 -5.0941300e-01
 -1.8724534e-03
 -6.7965406e-01
  1.0479885e+00
 -2.2154956e-01
 -8.1989110e-01
 -6.4452988e-01
  4.2518876e-02
  6.2027043e-01
 -8.6835861e-01
 -3.0006909e-01
  7.3969383e-03
  2.8766820e-01
 -8.1112795e-02
 -4.5300257e-01
 -2.7994770e-03
  5.1728683e-03
  4.0546855e-01
 -2.6712018e-01
  1.5947416e-02
  2.9156650e-03
 -8.7338714e-03
 -3.6578567e-04
  1.1472357e-03
  9.3021700e-03
  2.8495905e-03
  6.8901516e-03
 -2.1467187e-02
 -5.8649261e-03
 -1.5495774e-02
  3.1017815e-03
 -1.3073824e-03
  1.4919186e-02
  2.3307654e-04
  1.0197845e-02
  8.4676258e-03
 -3.8651226e-03
 -2.4288930e-02
 -2.5601589e-04
 -2.0180935e-02
  2.9832521e-04
 -2.2983071e-03
  4.5734431e-04
 -5.5099060e-03
  9.1192415e-03
 -3.3460623e-03
 -6.6858348e-03
 -1.5117450e-02
  7.4995961e-04
  7.3498730e-03
  3.0393986e-02
  3.4026618e-03
  1.3737987e-02
  1.1208262e+00
  6.7141765e-01
  1.3385471e+00
  1.1338614e-01
 -5.3338003e-01
 -2.3731101e-02
 -2.2356085e-01
 -9.9452817e-01
  4.2233407e-01
 -6.4212096e-01
 -1.6503206e-01
  3.2315844e-01
 -3.9085501e-01
 -7.0358373e-02
 -9.8579508e-01
  2.8104073e-01
  4.6575788e-01
 -1.5933335e-01
  2.3940573e-02
 -1.1739305e-01
 -1.1924756e-01
 -1.9216821e-01
  2.7741063e-02
 -5.0609134e-02
  7.3545374e-02
 -6.0049679e-02
 -3.6123499e-02
 -1.7685838e-02
  2.0963422e-03
  1.2960453e-02
 -8.7821579e-01
  5.8756038e-03
  6.6279466e-03
  3.5575364e-02
  1.0045053e-02
 -6.7048632e-03
  1.0822850e-02
  1.0499757e-02
 -1.5642880e-02
  3.1700549e-03
 -4.8188320e-03
 -1.5499377e-02
 -1.1211236e-03
  5.6692986e-03
 -8.2741026e-03
 -6.2002041e-03
 -1.1797829e-03
  5.3631673e-03
  7.0041984e-02
  1.4391080e-03
 -3.6657564e-03
 -1.7276680e-02
  3.7751421e-02
  5.6226410e-02
  1.0629361e-02
 -1.0159115e-02
 -1.3426775e-03
  5.4061557e-03
 -4.9182144e-03
 -6.3297991e-03
 -2.9891205e-01
 -3.6594283e-03
  2.9729214e-03
 -9.3948394e-03
 -7.9688523e-03
  1.8649697e-01
  3.0217939e-03
 -1.9064626e-02
 -6.7473942e-04
  5.3564897e-03
  1.9124554e-03
 -4.3890742e-03
 -2.6722178e-03
 -1.9403476e-02
 -1.3880882e-02
  1.3602165e-02
  2.2014729e-03
 -8.9600094e-04
  4.4867857e-03
  7.2746456e-02
  4.9360679e-03
 -2.6937120e-02
 -1.8621060e-03
  6.3595627e-03
  7.6070376e-04
 -2.4145535e-04
  1.8182758e-02
 -3.9063388e-01
  1.7901993e-03
  1.5861669e-03
  2.6986098e-02
 -3.8740177e-02
 -1.7290330e-02
  2.3252491e-02
 -1.8388266e-02
 -7.9697043e-02
 -9.5196144e-04
 -5.9967828e-03
 -1.4692254e-03
  9.0091974e-03
  4.3321103e-03
 -1.3534896e-01
  2.9359167e-03
 -1.7769831e-01
 -1.7074380e-02
 -4.0121889e-03
 -2.8126040e-02
 -1.4323062e-02
 -4.9723433e-03
  3.1643759e-03
 -5.5608328e-04
  9.0373354e-04
 -3.8593404e-02
  1.1272524e-02
  8.2229711e-03
  4.6681138e-03
  7.0986189e-03
 -4.3508583e-03
 -5.3010858e-04
 -1.2765387e-03
 -1.2688120e-01
  4.1303728e-03
  1.2490467e-02
 -9.0354644e-03
 -2.6970738e-04
  8.6992020e-03
 -1.6601981e-03
  1.6702555e-02
  1.5463054e-02
  3.7428236e-03
 -4.3775193e-02
 -1.2118357e-02
  4.1097600e-02
 -6.7030347e-04
 -2.3201413e-02
  1.0702219e-02
  4.7286726e-03
  1.7727427e-02
 -2.5261261e-03
  1.5359332e-03
  1.3523404e-03
  6.2400526e-03
  3.1961014e-03
 -3.2800587e-03
  1.5397646e-03
 -7.9631787e-03
  1.9407553e-03
  1.0268764e-02
 -5.3929468e-03
  5.0750328e-03
  5.8244180e-02
 -3.1014376e-03
 -1.8352619e-01
  1.8352866e-02
  8.3159562e-03
 -1.8068312e-02
 -4.3562893e-03
 -1.0585859e-03
 -6.3312855e-03
  3.3039695e-03
 -7.2482933e-04
 -1.4553627e-02
 -1.5171882e-02
 -2.1734533e-03
  3.9671944e-05
 -1.2345557e-02
 -4.2614117e-03
  1.8524495e-03
 -5.5744224e-03
  7.8431692e-04
  4.9887410e-01
 -2.4315319e-03
  8.1523489e-03
 -1.7499411e-02
 -3.7114769e-02
  4.2567165e-03
 -1.5752101e-02
  4.3264092e-03
  4.9728447e-01
 -3.0628305e-03
 -1.7677131e-01
  3.2317605e-02
  1.1340163e-02
 -1.8870553e-02
  5.4329180e-04
 -1.9206826e-02
  2.2742266e-02
  1.0139714e-03
  7.5045414e-03
 -1.8402079e-02
 -7.6334856e-02
 -1.3283937e-01
  1.6630666e-03
  9.4741723e-03
  2.2726167e-02
 -6.6206759e-01
  3.0610797e-03
 -8.2558692e-03
 -1.6956917e-03
 -3.1850921e-04
 -1.2492223e-02
 -2.2609558e-02
  4.4412096e-03
 -3.5498654e-03
 -1.3061713e-02
  1.3756317e-04
  4.3613715e-03
 -1.9836327e-04
  1.0618277e-02
  8.7841451e-03
  6.7376918e-03
  4.1829115e-01
 -2.3351474e-01
  1.1482188e-02
  1.1237284e-02
  2.7502324e-02
 -1.1546454e-02
 -2.4222972e-02
  1.5040216e-02
  1.2519684e-04
  7.2028050e-03
 -1.1915627e-02
 -2.1690098e-03
  6.4667885e-04
 -6.0659610e-03
 -9.5543935e-04
 -1.1288311e-03
 -2.5502315e-03
  1.1868814e-02
 -2.7448817e-03
  2.0662046e-03
  9.3708974e-01
 -1.5204270e-01
 -3.4616229e-03
  3.8412395e-03
  1.0229244e-03
 -8.7052388e-03
  8.7861540e-03
 -1.7376646e-03
  5.3767352e-03
  5.3717536e-01
  1.2926644e-01
  3.6859640e-01
 -7.3449230e-01
  1.4566693e-01
 -2.1299751e-01
  8.7375343e-01
  4.7038037e-01
  2.2662368e-02
 -2.1431445e-01
 -2.7480057e-01
  8.0824602e-01
 -7.7861003e-03
  2.7976062e-03
  9.8508976e-02
 -7.3390499e-02
  2.7578539e-01
 -4.0279636e-01
  4.0851794e-02
 -1.0887476e-02
 -2.5836059e-01
 -1.1798632e-02
  4.3122284e-03
  1.0134330e-02
  4.4313889e-02
 -5.8919154e-03
 -2.3587361e-02
 -3.5208524e-03
 -2.9837191e-03
  8.5927863e-03
 -1.3404975e+00
  6.4486009e-03
  1.5975527e-02
  5.6877704e-03
  1.8321201e-02
  6.3284766e-05
  7.9158852e-03
  1.3757201e-03
 -2.7190195e-03
  3.1842582e-03
 -8.1882216e-02
  2.8161947e-03
 -5.6054019e-03
  4.8334273e-03
  5.7840091e-03
 -1.8866116e-02
 -1.2265991e-01
 -4.0996489e-03
  2.9079823e-04
 -3.6223907e-02
  6.8942446e-04
 -3.8837716e-03
  1.5172205e-02
 -7.9091196e-04
  1.5553776e-02
  1.2619293e-03
 -1.1309308e-02
  2.6664371e-02
  1.5299432e-03
  1.2364049e-02
  5.6997305e-03
  1.4848675e-02
 -8.0420943e-03
 -3.1974930e-03
  1.2445764e-02
  5.9860032e-03
  3.1241134e-03
 -1.5765299e-04
  1.8572176e-02
 -9.1357157e-04
 -4.5820097e-03
  1.1344605e-02
 -3.1797034e-03
 -1.2528610e+00
  6.6686505e-03
 -1.6284660e-02
  6.6845314e-05
  1.7986106e-03
 -5.1421970e-03
  7.5528561e-04
  5.8629843e-03
 -6.8356581e-03
 -2.3081105e-03
  1.8185955e-02
  1.1262237e-02
 -1.3718522e-02
  6.6714571e-03
 -1.8630395e-04
  1.1504155e-02
 -5.5067544e-03
 -8.1746466e-03
 -3.1786121e-03
  9.9644344e-03
 -4.5277663e-03
 -3.5812869e-03
  2.5957339e-02
 -1.6676674e-02
  3.7656873e-03
 -3.5326049e-01
 -1.8734599e-02
 -1.7048992e-02
 -2.1110019e-02
  2.2759237e-03
  5.2032787e-03
 -4.2901470e-04
  1.0558954e-02
 -2.7251281e-03
 -6.9077564e-03
 -8.3209947e-03
  1.0652679e-03
  2.5396001e-02
  9.1434753e-04
 -2.6577895e-03
 -2.0660758e-03
  7.6331128e-04
  1.7335884e-02
  6.2680636e-03
 -5.0630025e-03
  2.9118227e-02
 -2.5058016e-02
  1.9146076e-01
 -1.9663601e-01
 -4.8964590e-02
  1.6425287e-02
 -8.1618791e-03
  7.9221595e-03
  1.4204723e-02
  2.8218107e-02
  1.4288063e-04
  9.1894967e-03
  1.1422315e-02
 -1.6198451e-02
  1.7252872e-02
 -1.6601209e-02
  8.7049842e-02
  1.4067711e-03
 -7.1239304e-03
  4.1356951e-02
 -6.1549027e-03
  1.3372063e-03
  7.1383017e-01
  5.0302134e-03
 -1.1271705e-02
  4.1253911e-03
  2.9550284e-02
  6.1936222e-02
 -4.3224068e-03
 -5.0095087e-03
 -2.7597232e-03
 -3.6113657e-04
  1.3553053e-02
 -8.1876917e-03
  1.0663175e-02
 -1.9922409e-02
 -1.3333486e-02
  3.7601718e-01
 -1.1163656e-01
  6.8281180e-01
  2.3292337e-02
  3.3199103e-03
  9.5364545e-03
  4.2857297e-02
  8.2251607e-03
  8.6217849e-03
 -2.0824393e-02
 -1.2251774e-02
  2.8408526e-03
 -6.3374243e-04
  5.1800371e-03
  1.7790098e-02
 -7.8131640e-03
  8.1387568e-01
 -6.8878075e-03
  6.1982498e-03
  1.8868695e-03
  8.6628441e-03
 -9.1820833e-04
 -5.0262994e-01
  1.9202158e-03
 -3.3569913e-03
  3.0940142e-02
  1.2775135e-01
 -3.1019874e-02
 -2.3209622e-02
 -6.1235367e-03
  3.9664684e-03
  7.4099912e-03
 -4.7592893e-03
  2.4097865e-03
  6.7758844e-03
 -3.6844644e-03
  3.4018755e-02
 -3.6410103e-03
 -1.2374468e-02
  1.4884067e-02
 -9.4590578e-03
 -1.9028990e-02
 -9.1591282e-03
 -7.4999181e-05
 -9.8036509e-03
  7.4172737e-03
  2.8728775e-03
 -1.9864187e-02
 -1.6539078e-03
 -1.5294288e-02
 -2.1961503e-02
 -5.2561411e-03
  1.2971651e-04
  5.2464954e-03
 -1.1356986e-03
 -1.4829923e+00
 -1.3203491e+00
 -6.9377351e-01
 -1.5786040e-01
 -5.5371158e-02
  9.7162473e-01
 -5.3014791e-01
 -1.4936903e-02
  1.8138011e-03
  1.0485091e-01
  1.5610480e-01
 -3.2070151e-01
  3.2438640e-02
  1.3036416e-02
 -4.1710228e-02
  1.4271574e-01
 -2.4990787e-01
 -3.8768291e-01
  1.0339865e-02
  5.0278682e-02
  2.6350248e-01
  1.5368585e-01
  8.3027203e-03
 -6.1921829e-01
 -5.2203205e-03
 -1.8587919e-02
 -5.2045686e-03
 -2.0188155e-02
 -7.7910448e-04
  6.5991003e-03
  1.0241552e-01
 -5.4374733e-03
 -4.8058652e-03
 -8.9706481e-01
 -5.8029308e-03
  8.8475570e-03
 -1.5234219e-02
  6.0675794e-04
 -1.8946857e-03
  1.0112410e-02
 -1.1227210e-02
  2.4022821e-03
 -1.0492195e-03
 -8.1041979e-04
 -6.6406964e-03
 -1.6192280e-02
  5.3241714e-03
  6.5777055e-04
 -3.1861853e-02
 -8.4029883e-04
 -6.3849441e-03
  5.7984687e-02
  7.3979282e-01
 -8.2698399e-03
 -5.5109038e-05
  1.4044855e-02
 -1.0923570e-02
 -3.6971748e-03
 -4.4388203e-03
  3.0475764e-03
 -1.4503478e-01
  4.5188246e-03
  7.3656705e-03
 -7.9809496e-04
 -2.9344575e-03
 -7.5097117e-03
 -3.1669925e-03
  4.1714415e-02
 -1.3622813e-02
  1.7408162e-02
 -2.5665818e-03
  1.0971233e-02
 -1.5254520e-03
 -1.7473930e-01
 -1.6312530e-02
  1.1379600e-02
 -1.0342222e-02
 -3.1485993e-03
 -5.1823319e-03
 -4.8817988e-03
 -7.2857165e-03
  1.2692740e-02
  3.3639096e-02
  6.3217652e-04
 -4.1607495e-02
 -1.0914411e-03
 -9.5822923e-03
 -4.6612415e-03
 -4.5447121e-03
  9.2206765e-03
  5.4241535e-03
 -4.3960118e-01
 -4.9391714e-01
 -1.7775881e-01
  2.8969809e-02
  1.6141199e-01
 -2.7050516e-01
  1.4987351e+00
  1.0973800e-02
  8.7557323e-02
  1.0622596e-01
 -8.6895072e-01
  1.2246745e-02
  4.4137733e-03
 -5.7657277e-03
  1.0543636e-01
 -1.6222045e-02
 -6.2023746e-03
  6.1405539e-03
 -1.1014716e-02
  9.9152952e-02
  1.0125264e+00
  3.1852219e-03
  1.3511193e-02
  6.6183601e-03
  2.9832639e-02
 -1.6952102e-03
 -2.6253508e-03
 -2.7354069e-03
  3.0926920e-02
  6.5068747e-03
  4.4797429e-01
 -6.0385293e-01
  1.8199807e+00
 -2.5627005e-03
  8.2047831e-04
 -3.6339258e-04
  2.7173322e-01
 -6.6461951e-02
 -2.2403893e+00
 -6.5638861e-03
  2.7167642e-01
  9.4970644e-02
  7.4309832e-04
  8.7836385e-04
 -2.6634485e-03
 -4.6860282e-03
  9.1861114e-03
 -2.1039009e-02
  4.3905158e-02
 -6.4105153e-01
 -3.2899298e-02
  8.1372317e-03
  3.0598084e-03
  1.5908011e+00
  6.8202079e-03
 -1.3460526e+00
 -8.7194629e-03
 -1.0115729e-03
 -1.6681635e-01
  1.5816920e-01
 -9.2379612e-01
 -9.6777451e-01
 -9.0749943e-01
 -2.0318930e-01
  2.0856218e-02
  1.7742251e-01
 -2.7247250e-01
  1.2831599e+00
 -1.7126905e+00
  5.4971989e-02
 -2.4136062e+00
 -2.6740003e-01
  4.4079520e-02
  9.6871004e-02
  1.0198730e-02
  9.6238419e-02
 -6.0251176e-02
  8.2369763e-03
 -9.8658931e-01
 -4.0361774e-01
 -2.4960494e-02
  1.0351809e-01
  1.4089257e-01
  4.2414448e-01
 -2.4474712e-01
  7.3891467e-01
 -9.7309100e-03
  8.1543043e-02
  4.8909050e-01
  5.0416135e-04
 -9.9335387e-03
  1.7683727e-03
  2.8300846e-03
  5.6332905e-02
  9.9933008e-03
 -3.3735298e-03
 -1.8287342e-02
 -2.5305247e-03
 -1.1430198e-02
 -9.3582887e-03
 -1.0113269e-02
  6.5574092e-03
 -9.5323863e-04
  1.8489324e-02
  1.5080578e-02
  5.1812390e-03
 -6.8600994e-04
 -3.2535449e-03
  2.3060865e-03
  1.2054994e-02
  2.2898203e-02
 -4.1874340e-03
 -3.2435313e-01
  9.9684373e-03
 -3.8017177e-03
 -4.2011049e-03
 -1.4508085e-03
  1.4637937e-02
  4.3187076e-03
  8.3170552e-03
 -1.3076960e-02
 -8.5042865e-04
  9.4727986e-04
  1.0866832e-02
 -1.2747298e-02
  2.4344376e-03
 -7.7454201e-03
  1.0718711e-02
 -5.7410314e-03
  2.5288616e-03
 -2.9665234e-03
  5.9704911e-03
 -2.4788941e-03
 -1.2274931e-02
 -3.0713775e-03
 -2.4335237e-02
 -1.5860666e-02
 -7.3977476e-03
  1.8416816e-02
  2.9800816e-03
 -9.2972647e-03
  2.3405567e-02
  1.5064393e-02
  7.0609152e-04
  9.2136767e-03
 -1.7531789e-03
 -8.1134588e-03
 -5.7470310e-03
 -1.5823537e-02
 -9.8718572e-03
 -2.2783129e-01
  3.6773346e-02
  3.2265294e-02
 -1.8268541e-03
  2.3256303e-03
  1.8529680e-02
 -9.1917277e-04
 -9.3543564e-04
  9.8722847e-03
 -3.2097034e-02
 -6.5256786e-03
 -5.0942991e-03
  1.8974263e-02
  6.4775124e-03
  1.0756281e-02
  1.0538290e-02
  3.6710771e-03
  3.3436469e-03
  8.7912912e-03
 -9.3967058e-03
  4.2301007e-02
 -3.2140897e-03
  5.8048617e-02
  1.0874709e-03
 -2.3805110e-02
  3.9366814e-03
  1.1610936e+00
  7.5112656e-04
 -2.5666626e-03
  1.0592000e-02
 -4.2547290e-03
 -1.8093956e-03
  1.5845714e-03
  3.9354730e-02
  8.6561740e-05
  7.4060280e-03
  6.1806240e-03
  8.6584147e-03
  4.3897198e-05
  1.2139865e-02
 -6.2295706e-03
 -3.6661953e-03
  1.2781314e-02
  1.4216318e-02
 -1.6280727e-02
  8.9995614e-05
  1.9920156e-03
  1.2760492e-03
  4.7221808e-03
 -9.2597166e-03
  3.0573967e-05
  1.2151633e-02
 -1.0874229e-02
  1.0747302e-02
 -4.6068844e-03
  3.4726472e-03
 -7.7163999e-04
 -1.3199016e-03
 -1.0735213e-02
 -3.2884446e-03
  2.0385324e-03
  1.5220447e-02
 -1.2748644e-03
 -6.8299612e-03
 -1.1727438e-02
  1.0212905e-03
  4.7509479e-03
  2.7735825e-03
  5.8262558e-03
  6.6527212e-03
  8.0822594e-03
 -3.7996951e-02
 -3.0047209e-03
 -1.3062116e-02
 -1.2904251e-02
 -1.6867764e-02
  4.4781845e-03
  6.1892173e-03
  2.1210280e-03
 -1.8537616e-03
  6.0918247e-03
  4.3274695e-03
 -1.0206073e-04
 -3.2834695e-03
 -9.9727931e-03
  3.3487019e-03
  9.4292976e-04
 -4.1016261e-03
 -1.4077188e-02
  6.6724569e-01
  4.7182373e-04
  7.3803020e-01
  3.1140733e-03
 -3.1192955e-01
  5.5651348e-03
  9.6871506e-04
 -1.0144256e-02
  1.2781125e-02
  1.3548434e-02
 -1.2721539e-03
  5.1337713e-03
 -3.4436232e-03
 -2.9708842e-02
 -2.9753877e-02
 -2.4429109e-02
  2.9657228e-04
  1.2898765e-03
 -6.0589205e-02
  2.6796456e-02
  5.4843474e-02
 -4.3450054e-03
 -3.6836162e-02
  8.5643725e-03
  5.5892859e-03
  7.2208522e-03
  9.4732624e-03
  9.7738355e-03
 -5.6661046e-03
  1.3199735e-02
  5.8270101e-02
  1.3468064e-02
  9.7195366e-03
  3.4825230e-01
  4.2560357e-03
  1.7054485e-02
 -8.8184292e-04
 -1.5134553e-02
  1.1247282e-04
  9.0084395e-05
  6.2715481e-03
  5.4762317e-03
  8.3114263e-03
  5.8072276e-04
 -4.3278690e-02
  8.0156615e-03
  2.6162757e-02
  1.7938893e-02
  1.3882200e-03
  2.8901834e-03
  3.9073522e-03
 -1.9562220e-02
  3.6507782e-03
 -1.3728195e-02
 -3.5810594e-02
 -8.6958949e-03
  1.9710647e-02
  1.4605156e-02
  1.1561070e-02
  3.2471619e-03
 -2.8219724e-01
  3.1692553e-01
 -1.4177728e-01
 -2.1134296e-01
  1.4593174e+00
  1.7542323e-01
 -1.6783956e-04
  2.0972150e-03
  2.8919214e-03
  8.9124572e-01
 -7.9590511e-03
 -6.2487096e-01
  3.3698339e-02
  1.0233634e+00
  5.1412606e-01
  9.3719554e-01
 -1.3745090e-02
  1.1273063e+00
  1.6549273e+00
  3.9277187e-01
 -1.1329114e-03
  5.0975376e-01
  2.6186337e+00
  1.4756172e+00
 -6.5369874e-01
  1.2350063e-02
  7.4593169e-03
  1.3130516e+00
 -8.8175130e-04
  1.3793275e-02
 -2.8575349e-03
 -1.1554749e-01
 -2.6857362e-03
 -9.5678978e-03
  2.0428981e-04
 -3.6435682e-01
 -5.5674934e-03
 -2.7442855e-01
 -7.5333607e-01
 -2.0461014e-02
  5.7323789e-03
 -7.1887026e-04
  1.3782384e-03
  3.8747117e-02
  5.2479431e-03
 -3.3469375e-03
 -3.7158192e-03
 -3.4469331e-04
 -1.1208154e-02
  1.1180421e-02
  3.8041630e-01
 -1.5718712e-02
 -1.0821953e-01
 -7.0136865e-03
  2.3287065e-02
  5.3913980e-03
  2.1508425e-03
 -6.3548526e-03
  3.3668499e-03
 -2.8593030e-03
  2.0761399e-01
  3.3496535e-01
 -1.0774243e+00
 -2.7698372e-02
  7.9125250e-03
 -6.4583598e-03
 -5.3501364e-02
 -1.7497424e-02
  1.3844406e-02
  3.4132837e-03
 -6.4281048e-05
  3.6703248e-03
 -7.8060525e-03
 -2.5219603e-03
 -1.2704676e-02
 -1.7419223e-02
 -7.9769501e-03
 -4.7310363e-03
  1.7794959e-01
 -1.2971247e-02
 -1.3629965e-02
 -1.0912900e-02
  1.7023845e-01
  4.6555381e-02
 -2.2653063e-01
 -6.8447907e-03
 -5.0774021e-03
  2.0209732e-03
 -5.3269751e-02
  1.7449563e-02
  7.6561468e-03
  5.2077365e-03
 -8.1837162e-02
 -4.3828413e-03
  9.2518394e-04
 -2.9826257e-03
  5.6714020e-03
  9.4387894e-03
  4.8357779e-03
  8.0355856e-04
  2.1435235e-02
  8.0392025e-03
 -2.6460692e-02
  5.7692728e-03
  1.0566621e-02
 -5.2909250e-03
 -7.3110714e-04
  1.3097837e-02
 -4.5368569e-03
 -1.5374582e-02
 -1.1284785e-02
  2.2905236e-02
 -2.1534808e-02
 -1.5853560e-02
  2.1175733e-02
 -3.2374815e-03
  5.7621463e-03
  2.5419192e-03
 -6.8510342e-03
 -3.2400852e-03
 -1.8309215e-01
 -1.9977397e-01
  6.5386072e-02
  3.7371246e-03
  4.3601766e-01
  1.3483749e-01
 -3.3195666e-03
  3.2690648e-02
 -7.8011998e-03
  5.5842563e-03
  1.5601549e-02
 -6.7849723e-03
  4.1293461e-02
  4.1072313e-02
  3.1282192e-01
 -2.2922584e-03
  1.1660367e-01
  4.9732510e-02
  1.0604949e-01
  3.5899392e-01
  1.8129827e-02
  7.7524997e-02
 -2.4874102e-01
  4.9940620e-02
 -1.0656192e-02
 -1.0012798e-03
  4.9537309e-02
 -5.1549738e-03
  2.6268899e-03
 -6.5216571e-03
  4.6513593e-03
  7.3033962e-03
 -6.0430979e-03
  1.8250970e-03
  7.3366184e-03
  1.3930971e-02
 -1.3771540e-02
 -3.1864278e-02
 -1.0767431e-03
 -9.4612278e-03
  5.8115767e-03
 -6.8947296e-03
 -6.3304731e-04
 -7.7858246e-03
  1.4057333e-02
 -4.5575012e-02
 -5.2461880e-03
 -1.6742555e-03
  8.3571505e-03
 -2.6983663e-03
 -1.3856146e-03
  1.1355329e-01
  1.5725912e-01
 -1.2176895e-02
  1.2168999e-02
  5.6217224e-03
  6.0418989e-03
 -7.2741234e-03
  1.9479578e-02
  1.9634126e-02
 -2.2138564e-05
 -5.0074826e-03
 -2.8541547e-03
 -8.2226396e-03
  8.8802371e-03
  2.2989337e-03
  2.8283689e-03
 -2.0242235e-02
 -1.2071053e-02
  9.8914858e-03
  3.7518896e-03
 -8.1072543e-03
 -1.4331322e-03
  8.3042756e-03
  4.1771285e-02
 -4.7319230e-02
 -6.3981302e-03
  1.7960183e-02
  3.1975899e-03
 -1.6466437e-02
  6.4774784e-03
 -8.4184110e-03
  1.2624056e+00
 -5.2915630e-03
  1.3759189e-02
  8.9167655e-03
 -7.7671865e-03
 -6.9140864e-04
  1.9443579e-02
 -3.4061186e-02
  1.6487812e-01
 -1.7795084e-03
  1.8002842e-02
  3.6130555e-03
  3.5870727e-03
 -9.4775632e-03
 -1.0294221e-02
 -1.2659272e-02
 -5.5877771e-03
 -4.6817134e-03
  8.7224068e-03
 -8.8868225e-03
  1.6756037e-02
 -2.9929418e-03
 -4.6023056e-02
  6.3354563e-04
  6.3316771e-03
 -1.1568644e-02
  4.9579726e-04
  5.9931041e-05
  1.6657850e-02
 -4.2488138e-04
 -2.1574233e-02
 -1.5434829e-03
 -6.2484495e-02
  3.2462567e-02
  6.2083481e-03
 -3.3035859e-01
 -1.5867868e-02
  1.8468399e-03
 -1.3162760e+00
 -3.6598009e-03
 -4.6286073e-01
 -2.4397809e-03
  3.0863753e-01
 -7.4012391e-04
 -8.4891943e-03
  2.9414380e-04
  1.5300943e-01
  1.7849572e-02
  7.0743491e-03
 -2.9896110e-01
  4.8941609e-02
  3.7223001e-03
  4.3441195e-02
  1.4383700e-03
  2.4028083e-03
  1.2049527e-02
 -1.2535365e-02
  1.1808186e-02
 -2.4865903e-01
  8.2602531e-02
  1.8368413e-01
 -5.9323046e-02
  1.0485001e-02
  4.4833608e-03
  1.0943991e-03
  6.0295905e-03
  2.8019699e-03
 -9.4863651e-03
  1.6174713e-02
 -9.7065454e-04
 -1.5802201e-02
 -5.9549403e-03
  2.6531736e-03
 -6.0671284e-03
  2.2452414e-02
 -1.8795786e-02
  1.6067607e-02
 -6.0596451e-02
 -1.5796747e-03
 -2.9237693e-02
 -3.4412298e-02
 -3.2683635e-01
  1.1695891e-02
  7.8598633e-03
 -1.8333992e-02
 -1.0534044e-03
 -1.1596188e-02
 -8.9668221e-04
  5.3173108e-03
 -8.7395813e-03
 -1.4977609e-02
  2.4979938e-02
  1.3183858e-03
  1.4260272e-02
  1.0224459e-02
  1.6577948e+00
 -5.5803800e-01
  1.7960653e-02
  2.8712554e-02
  2.3956169e-01
  9.4975322e-02
 -1.6931770e-02
 -1.7285734e+00
 -8.7829670e-03
  1.7678834e-03
 -2.2297330e-02
 -9.3949282e-05
 -2.4675213e-02
 -1.7914454e-02
  9.1585796e-04
 -1.6836327e-02
  1.2679661e-02
  4.9378054e-04
 -7.6065501e-03
 -6.2040761e-03
 -3.9410010e-02
  2.1035939e-01
 -4.0843149e-04
 -1.0613689e-02
  1.8403452e-02
 -1.8954333e-03
  3.1437878e-03
 -6.2401746e-03
 -1.3973746e-02
 -9.3537793e-03
  1.6029166e-02
 -1.3456756e-02
  1.4875965e-02
 -7.6822573e-01
  2.3968313e+00
 -3.8427556e-01
  1.8064541e+00
  2.7358844e+00
 -9.0653650e-02
 -4.1365767e-01
 -1.0699796e-01
  7.7005225e-01
 -4.9820161e-01
  6.1348574e-03
 -9.1520464e-01
 -2.4509175e-02
  2.6937914e-01
 -1.0020772e+00
 -2.3899270e-02
 -9.9604733e-02
 -4.8214281e-01
  8.1531173e-01
 -3.9341104e-01
 -2.7779636e-01
  2.2732109e-01
 -2.3794143e-02
  7.3193498e-03
 -1.9250443e-02
 -1.0702086e-03
  2.5031668e-01
 -2.8496177e-03
 -2.0919379e-02
  1.4416343e-02
 -4.1306252e-03
  1.0541059e-02
  5.5282819e-04
  1.0655627e+00
 -8.2099950e-04
  4.0988799e-04
  2.7933387e-02
  6.4178149e-04
  1.9245661e-03
 -7.1926266e-03
 -2.4018134e-03
 -1.4002837e-03
 -6.4394630e-02
  2.9663472e-03
  3.4662476e-04
 -6.7559998e-03
  5.0154682e-03
  1.0068915e-03
  6.5533691e-03
 -1.6034195e-02
 -4.3125293e-04
 -1.7416698e-03
 -1.3102395e-03
 -2.5119639e-03
  5.3083682e-03
  2.5904113e-01
 -1.2283972e-02
 -3.3788111e-03
 -2.1801418e-02
 -3.9084742e-04
  1.4505390e+00
 -2.8816932e-01
  1.0598277e-01
 -8.8086165e-03
  4.6977933e-02
 -5.7013304e-04
  1.7879977e-03
 -1.2400609e-02
 -2.1341326e-02
 -1.6168945e-02
  7.3139654e-03
 -1.1538199e+00
  6.0095894e-03
  1.6819674e-03
  2.8412065e-02
  1.7913140e-02
  3.9341468e-03
  1.1975840e-02
  1.3814082e-02
  1.2928391e-02
  3.8822347e-03
  1.3667931e-03
  3.0115528e-02
  9.7314548e-03
  1.4745509e-03
 -1.4962119e-03
 -6.8410987e-04
  3.4954851e-03
  3.3463906e-02
 -1.1989056e-03
 -1.1556058e-01
  1.1965210e+00
  1.0515424e+00
 -7.8911446e-03
  7.9397398e-01
 -5.6895297e-02
 -3.4409289e-03
  3.4444308e-01
 -8.2327582e-02
 -8.9345630e-03
 -5.5065574e-03
 -6.6462435e-02
 -2.8485619e-02
  1.2606996e-01
 -2.1985698e-01
 -7.1799889e-04
 -1.3900716e-02
 -3.7078038e-02
  1.5535894e-01
 -1.2138410e-02
  6.9048524e-02
  2.0299171e-01
 -2.5492260e-01
  6.8505454e-01
  5.3206668e-03
 -7.5092986e-03
 -2.5071497e-03
  8.2988571e-04
 -4.4172682e-02
  7.0654000e-03
  8.3915675e-01
 -7.9148436e-01
 -3.9377230e-01
  7.4059588e-01
 -1.2941995e+00
  7.3012412e-02
  2.5761497e-01
  7.5860590e-02
 -8.8599598e-01
  4.7048706e-01
 -7.3726838e-03
  5.6011474e-01
  2.8038565e-02
 -2.1528086e-01
  1.0493853e-01
  4.1895846e-01
  3.3632636e-02
  4.1818570e-02
 -1.3872515e+00
  2.8121954e-01
  2.0458226e-03
 -1.1918194e-02
  3.4026280e-01
 -4.8398409e-02
  4.8440129e-02
  1.0099346e-02
 -1.1303117e-02
 -9.3443897e-03
  2.7470868e-02
  6.6618930e-05
  1.7050825e-02
 -8.1305450e-04
  1.0768832e+00
  6.0167364e-03
 -6.6486839e-03
  1.0587354e-02
 -9.7355014e-03
 -3.1164573e-03
  4.8306224e-01
 -4.8293518e-03
 -5.0164271e-02
 -2.1270036e-03
 -1.5491280e-02
  1.1201843e+00
 -2.5012808e-02
  1.3805816e-03
  2.8937303e-03
  7.4955460e-04
 -1.5324961e-03
 -2.5613373e-03
 -5.2382080e-03
 -5.4018374e-04
  1.9084635e-01
  1.5033845e-02
  1.4797448e-01
  4.5826328e-03
  3.2079697e-03
  3.4143371e-04
  4.2765219e-02
  1.9631810e-02
  1.0519691e+00
  9.8200077e-01
 -8.4092999e-01
 -1.5815206e+00
 -2.3538308e-01
 -5.9837848e-02
  1.7363267e-02
 -1.7844212e-01
  1.3174924e+00
  4.7966006e-01
 -5.1444381e-02
  1.0367634e-01
 -9.3016732e-01
 -4.2114842e-01
 -3.7883225e-01
 -8.4533554e-01
 -1.5239835e-01
  6.1830979e-02
  4.9859133e-01
 -1.1568459e+00
  2.8426406e-01
 -1.8183663e-02
  1.2325493e-01
 -1.4100852e+00
  1.8563555e-01
 -2.8577440e-03
 -7.6381033e-03
  1.3793997e-03
 -3.5012722e-02
 -1.5571812e-02
 -1.0685796e+00
  1.6524895e+00
 -2.1106981e-01
  5.4501899e-04
  2.6497595e+00
 -2.2036182e-02
 -5.7297489e-03
  5.7768051e-02
  5.4733947e-02
 -1.5067807e-01
 -6.3092174e-04
 -6.8991315e-01
 -1.0891538e-02
  2.7819812e-01
  2.9157029e-02
  1.5891921e-03
 -1.4000123e-03
  5.1267622e-03
  6.5985993e-02
 -1.1182154e-01
  8.7213337e-02
  1.3461281e-02
  1.2334563e+00
  2.0292687e-01
 -6.1322980e-02
  2.1183467e-03
  1.1474152e-02
 -1.8564814e-03
 -2.2556162e-03
 -6.2367006e-04
 -4.5578375e-02
  7.5817215e-01
  9.2585897e-01
 -5.8123493e-01
 -1.3281227e+00
 -1.2816675e+00
 -2.2531280e-02
 -1.0232285e-01
 -3.0217543e-01
 -1.7097449e+00
  4.2816587e-03
  5.0210766e-03
 -8.1310168e-02
 -1.6145040e+00
 -3.8356814e-01
  5.8993763e-01
  2.3846938e-01
 -6.2761903e-01
  1.1016294e-02
 -3.0655372e-01
  1.4067213e-02
 -1.4173392e-02
 -9.9880654e-01
  9.5039046e-01
 -1.6099905e+00
 -3.4526235e-04
 -4.5037858e-02
  7.9385741e-03
 -1.7040012e-02
  2.7840997e-03
 -4.4693216e-03
 -1.9654142e-02
 -6.0142779e-01
 -6.7649428e-03
 -8.1520732e-03
  2.8196489e-02
  2.4649441e-02
  2.1128850e-03
 -2.8961927e-02
  2.1206739e-03
 -1.3949103e-02
  3.8162530e-03
 -5.2329660e-03
  1.3642261e-03
  4.8416411e-03
  3.5888937e-01
 -2.7571743e-02
  7.7412929e-03
 -5.8430252e-03
  6.6478979e-03
  1.7083392e-02
 -4.0973565e-03
  1.2844103e-02
 -4.6579852e-03
  1.1278432e-02
 -1.4492491e-02
 -1.7602615e-03
 -1.8008661e-03
 -1.8129906e-03
  2.1154776e-02
 -8.2401624e-03
 -3.2802621e-01
 -4.0876237e-01
  2.8100172e-03
  3.6280477e-01
  2.9694702e-02
  1.4130343e-02
  7.1505857e-01
  5.3247124e-01
  1.7619651e-04
  1.1046888e-02
  2.9367961e-02
  3.4471725e-03
 -4.6854476e-03
 -2.2304898e-04
  1.0442788e-03
  9.1260258e-04
  8.2593106e-02
  3.4200951e-01
  4.1749049e-03
 -6.6123609e-03
  6.2469603e-03
  1.8899864e-01
 -3.2570839e+00
  2.9388782e-01
 -6.4141606e-03
  1.4369192e-03
 -7.1425666e-03
 -2.5292884e-03
 -1.1128325e-03
  6.3083051e-03
 -1.3244057e-01
 -1.0929029e-02
 -5.0972300e-03
 -1.0653865e-02
  2.6270407e-04
 -2.2561909e-03
  3.5664188e-03
  5.3985170e-03
 -1.9408800e-03
 -6.4943978e-03
 -9.7910734e-04
 -2.7380658e-02
  9.2070154e-04
 -6.8840357e-03
  1.5178625e-02
 -1.7342005e-02
  5.9186951e-03
 -9.1344658e-03
 -4.2137927e-01
  1.0462433e+00
 -2.4926055e-03
 -1.6907409e-02
  2.5243459e-02
  5.2300487e-03
  1.2991509e-02
 -5.6985733e-03
  1.1437132e-02
  4.9328327e-04
 -2.3487380e-03
 -1.7200312e-02
  5.8954558e-03
  3.6408310e-03
 -3.6149565e-03
 -3.6915254e-03
 -2.0247293e-01
  1.1801044e+00
  2.1723104e+00
  9.5988465e-03
 -4.8654210e-02
  2.3457094e-03
  3.9354497e-01
 -3.9220941e-03
  1.1806338e-03
 -3.3785645e-02
  1.7586583e-01
  2.3646092e-03
 -4.0090732e-02
  4.0007454e-01
 -5.4353382e-03
 -4.2020582e-04
  1.7183784e+00
 -1.0963587e+00
  2.9558877e-03
 -7.7410734e-01
  1.1346974e+00
  3.6698513e-02
  5.8159600e-03
  7.9404690e-06
 -5.3983950e-03
  5.3047445e-02
  6.4906657e-02
  1.4967346e-01
  7.9220813e-04
 -7.2407457e-03
 -5.2361375e-01
  2.2913119e-02
  6.3203162e-01
  1.0170368e-01
 -1.2851268e+00
 -2.5820501e-02
  5.1401210e-01
  2.0302782e-02
  4.3901183e-02
  1.1339255e-02
  6.5309882e-01
 -9.4126284e-02
 -5.2274472e-01
 -8.7228841e-01
 -1.1523204e-02
  2.6602131e-01
 -6.9101226e-01
  1.0841607e+00
 -2.6356289e-01
 -1.2717626e+00
 -4.6432772e-01
 -1.3187554e+00
  4.7332197e-02
  3.7653252e-01
 -5.0419074e-02
 -9.8661578e-01
 -3.7572345e-01
 -3.4505615e-01
  5.1805907e-01
  7.9046446e-01
 -2.0765613e-01
 -4.2305952e-03
  2.8232679e-01
 -2.7756533e-02
  3.4165260e-01
  7.2014362e-02
  3.0343406e-02
 -1.2998340e-03
 -1.9101003e-01
  2.3395845e-01
 -1.2490947e+00
  1.4717828e-03
  1.7667104e-01
 -1.0452249e+00
 -4.5164916e-01
  4.5109419e-03
 -4.9185553e-01
 -3.7563086e-02
 -3.6999304e-02
  1.4759559e-03
  2.3295069e-03
  2.0052823e-03
  3.9386223e-03
  2.4887634e-02
 -8.8228779e-03
 -5.7557054e-02
  8.7879747e-02
 -1.1542656e-01
 -5.2226619e-03
  1.0017663e-01
 -9.2945099e-02
 -3.7597152e-04
 -3.1785630e-03
  6.3934000e-03
 -3.3821405e-03
 -1.8416202e-02
  4.3674703e-03
  7.0541026e-03
 -4.6954893e-02
  1.0739347e-03
 -5.0819027e-03
 -1.8724158e-02
 -1.0631285e-02
 -3.6655348e-02
 -4.3981329e-02
 -3.6370095e-03
 -2.8045420e-02
  7.8578969e-04
 -7.8833112e-03
  2.9119857e-02
 -1.4122434e-02
  1.2194415e-02
  1.5014416e-02
  1.0280168e-02
 -2.3359796e-02
  2.1132250e-01
 -9.3649048e-01
  3.3989949e+00
  5.4098213e-01
 -5.5507803e-01
 -9.0661234e-01
 -4.6910372e-01
  6.1168534e-01
 -8.7634319e-01
 -1.4657068e+00
  8.5455507e-02
  5.7342249e-01
 -1.5858650e-01
 -1.4952913e-02
 -6.1887139e-01
  6.8874110e-04
  8.1063956e-02
 -2.0992149e-01
 -9.3778622e-01
 -8.8637495e-01
 -3.7913290e-01
  3.7184751e-01
 -5.4801661e-01
  3.4727387e-02
 -5.4859352e-01
  3.1596079e-02
 -3.4755370e-01
  1.9708336e-03
 -1.9425275e-02
  3.6827931e-01
  5.1679753e-02
  1.6976018e-01
 -1.8959085e-02
 -4.9008611e-03
 -2.2841769e-01
  4.2691156e-03
  3.1242953e-03
 -7.6901071e-02
 -1.0469009e-01
 -1.2085693e-01
 -6.4636767e-04
 -2.3961667e-02
  4.5873220e-03
  2.5801254e-02
  2.5201314e-03
  4.3761642e-03
 -1.1077781e+00
 -3.3169877e-02
  3.5050824e-02
  1.3729052e-01
 -2.2383737e-03
  8.7313522e-03
  4.6477304e-03
  1.0585354e-01
 -4.9165498e-02
  6.2876036e-03
 -6.2041227e-03
 -1.8537712e-03
 -1.0846669e-02
  2.7749890e-02
 -4.9940723e-01
 -7.1187705e-01
 -4.3231007e-02
  4.1792974e-01
  5.1356488e-01
 -4.7075126e-02
  3.2991138e-01
 -5.3445413e-03
  3.3295482e-01
  3.5256141e-01
  6.1713511e-01
  6.8179525e-02
 -1.2965165e-01
  4.9334984e-02
  7.0957953e-01
  9.0727389e-02
  1.8143716e-01
 -1.1989902e-01
  9.5314026e-02
  7.6563269e-01
  4.2680524e-02
  1.0935056e+00
  1.1313210e+00
 -1.4303862e-02
 -9.9450445e-01
 -5.6028003e-03
  1.7392129e-02
  1.8045209e-02
  8.3371699e-02
 -1.0316925e-02
 -1.3861925e-02
 -3.4450222e-02
  1.9486656e-02
  1.3170515e-02
 -1.8110778e-02
  1.5899235e-02
 -5.3019583e-04
  8.8426182e-03
  2.3604529e-03
  8.9660740e-01
 -2.7819658e-03
  4.8873937e-03
 -4.6199183e-03
  4.9791983e-03
 -1.3881007e-02
  1.3642670e-01
  5.1148594e-03
 -2.9665316e-03
 -1.0449400e-02
  5.7441532e-03
 -9.5526557e-03
 -9.0696439e-03
 -4.1338461e-04
 -7.8668399e-03
 -1.1496458e-02
  1.7270122e-03
  1.2421727e-03
 -1.1054611e-02
  1.0101157e-02
  7.7763200e-03
  2.0720824e-03
  1.4259777e+00
  3.6592045e-04
 -5.3901779e-03
 -2.9116545e-03
  3.8300313e-03
 -1.7330203e-02
  1.0159723e-02
  2.7958944e-02
 -2.4793474e-03
  3.1703236e-03
  2.3647728e-03
  2.2062811e-01
  5.7436815e-03
 -1.2934852e-02
 -6.5750533e-01
 -1.0798444e-01
 -4.6338132e-01
 -2.7847651e-04
  4.4537336e-02
  6.4036720e-03
 -3.8852445e-03
 -3.1339951e-04
 -4.7470238e-03
 -1.9421957e-03
  7.3644827e-04
 -9.9708680e-03
  1.2563912e-03
  1.4399554e-02
 -2.0634091e-02
 -8.5325213e-03
 -6.0382240e-02
 -1.7013445e-01
 -8.0641791e-02
 -8.8810915e-01
  1.2870398e-03
 -2.2533381e-02
  1.1750658e-01
  1.5130610e+00
  1.8934179e-02
  1.2421826e-02
 -1.3700299e-02
  7.7254209e-03
  9.5598372e-03
  1.5094021e-01
  1.2761171e-01
 -1.6248859e-01
  2.2702804e-01
  1.5310194e-01
  1.6564565e+00
  1.8290928e-02
 -3.0089779e-02
 -5.0953217e-03
  1.4963628e-01
  4.2549893e-02
  1.1630005e-02
 -1.2661695e-02
 -1.9597681e-02
 -1.1037430e-02
 -5.3405412e-03
 -3.9742449e-01
  4.2036539e-01
  2.0866608e-02
  1.0003027e+00
  3.3180909e-03
 -1.4813316e-02
 -3.6003843e-02
 -1.4372808e-03
  4.3279421e-01
 -4.8837266e-03
 -1.9541573e-02
 -6.8359640e-03
 -8.6264024e-03
  2.1656054e-01
 -4.5068674e-03
  2.4046592e-02
  5.0413158e-02
 -3.2274451e-04
 -1.8754881e-02
 -2.3455030e-01
  5.9304078e-04
  1.4560665e-01
 -8.7064253e-03
 -1.7335906e-03
  4.1129965e-02
 -1.5641751e+00
 -3.7333586e-03
 -8.2873609e-03
 -1.0687347e-03
 -2.0921877e-01
 -1.5762226e-03
 -5.7647780e-02
  3.8350713e-03
  2.8759819e-02
 -4.2265845e-03
  1.6235354e-03
  2.2345334e-02
 -5.3479318e-05
 -9.8075569e-03
 -2.8067841e-03
 -1.9745490e-02
 -4.0437270e-02
 -4.9630092e-03
 -6.1055575e-03
  7.9031214e-03
 -1.0418275e-02
  2.1314190e-03
  9.8706121e-03
  1.4032268e-02
 -9.9958740e-03
  1.0880141e-02
 -7.9767936e-04
  3.2025555e-03
 -8.3739972e-03
 -6.1791003e-02
  9.1977743e-03
  1.0426271e-03
  9.7480026e-04
 -1.6539028e-02
 -2.2031505e-02
  1.2964943e-01
  6.9422781e-02
  5.4514730e-05
  1.2785384e-02
 -2.6840329e-02
 -8.0176825e-03
  2.8077564e-03
 -7.3152510e-03
 -5.4329075e-04
 -2.3714675e-02
 -2.5776611e-03
  2.1835910e-02
  5.0360877e-03
 -2.9652752e-03
  9.0319058e-03
 -1.2492661e-02
 -1.2241433e-02
 -6.3449405e-02
  2.3363801e-03
 -1.3326302e-02
 -1.2824818e-02
  1.0474569e-01
 -2.3132676e-02
  6.9902658e-02
 -5.4233197e-02
 -5.1749144e-03
 -2.9625823e-03
 -2.3339011e-02
 -5.4349825e-02
  2.4557114e-02
 -1.4124541e+00
  3.5088056e-01
 -8.4636134e-01
  8.8953537e-01
  8.9335901e-01
  3.5208911e-02
  1.4019686e-02
 -3.6530548e-01
  1.5516210e-01
 -2.3595248e-01
 -2.4141178e-01
 -2.0939507e-01
  5.3809681e-03
 -1.0317111e+00
  7.3968375e-01
  5.3585779e-02
 -3.4793943e-01
  9.1219153e-03
  1.4435308e-01
 -1.1427642e-01
  3.7837577e-01
 -1.8665321e-01
 -3.0136233e-02
 -8.8281699e-02
  2.9581860e-02
  6.2926030e-03
  1.7824812e-02
  1.5739149e-01
  1.4745741e-01
 -1.9591693e-02
  8.7488234e-01
 -2.6544607e-01
 -8.8554814e-02
  2.9064074e-01
 -1.8097097e-01
 -3.3926862e-01
  6.9881850e-01
 -2.1473169e-01
  5.5090614e-02
 -3.6992335e-03
  9.9101234e-03
  2.6572296e-01
 -1.5354052e-03
  5.1341154e-02
  3.2283422e-03
  2.3448307e-03
 -5.4360494e-02
 -1.0871111e-01
  2.5077067e-02
 -3.6970295e-02
  1.7309189e-01
 -1.6332582e-01
 -2.1482700e-01
  2.7175462e-01
 -3.1214133e-01
 -9.3213730e-03
  1.5681711e-03
 -2.5372699e-02
 -2.1393584e-01
  6.1368970e-03
  2.6681123e-02
  5.6575263e-01
 -3.4122935e-01
  2.9464874e-01
  1.8599261e-01
 -1.3427858e-01
  8.7519008e-01
  8.9804453e-01
  5.2312499e-01
  2.3552586e-01
 -4.5182261e-01
 -2.1140350e-01
  2.0326090e+00
  1.6770515e-01
  1.2186645e+00
  2.0446677e-02
  3.3185247e-01
  5.9179062e-01
  1.4236407e+00
  3.7909943e-01
  1.0813665e-02
  1.9182608e-01
 -3.2009983e-01
  6.3941979e-01
  7.4618250e-01
 -9.5061231e-03
  2.4676125e-03
  4.7172643e-03
 -3.2202622e-01
  1.2690587e-01
 -9.5004424e-02
  9.5536105e-02
  3.1030877e-03
  6.5540385e-01
  8.7637659e-03
  1.8921991e-01
 -5.5392489e-02
 -1.2665413e-02
  1.3703538e-01
 -7.5817086e-05
  2.8452231e-03
  3.4362895e-03
 -2.2456773e-02
 -1.4560316e-03
  4.1917663e-02
 -9.2583969e-03
  1.8302327e-01
  1.2664065e-01
 -2.3700045e-01
  1.3261855e-01
  1.0758582e-02
 -2.5077027e-01
  4.2449847e-02
 -1.1279800e-01
  1.6489944e-01
 -3.2071244e-02
  2.6320333e-03
 -5.7157972e-03
  6.4128585e-02
 -1.2445248e-03
 -4.2520311e-01
  3.2531255e-01
 -5.1849812e-02
  4.0355016e-02
 -4.5706946e-02
  5.9417249e-03
 -8.6666113e-03
  2.2582460e-02
  1.3643144e-01
  2.7955681e-04
 -2.4253100e-01
 -6.2333546e-03
  3.5888452e-02
  1.7692387e-02
 -2.2041316e-01
  9.1030458e-03
 -5.6789042e-03
  2.2145757e-03
  3.6148239e-02
  9.3524426e-02
  2.5792990e-03
  1.4183216e-01
 -2.8149860e-02
  3.6584616e-02
 -7.2968453e-01
 -1.0100732e-03
  8.4177414e-03
 -7.1966206e-04
 -2.4374860e-04
  1.4343194e-02
  9.8552272e-02
  1.7042662e-01
 -6.3550775e-03
 -7.9275215e-01
  5.0652763e-03
  1.2661695e-02
  2.3338564e-02
  2.6556889e-03
 -3.0323827e-01
  2.0559995e-02
  7.3479730e-01
  1.7430970e-03
  3.3800574e-03
  9.7499439e-04
 -6.6136201e-03
  2.3135112e-01
  1.8291316e-03
 -4.2405378e-02
  6.4579753e-04
  3.6706445e-01
  6.8612987e-01
 -1.4905127e-02
 -6.1479546e-03
  5.6123991e-02
 -1.3176093e-02
  1.9486533e-03
 -8.0498923e-03
  8.9719910e-03
 -2.0114328e-03
  5.0626524e-02
  1.3236078e-02
  3.0717982e-03
 -3.9391215e-03
  1.0594868e-01
 -1.9469714e-02
 -2.6346434e-02
 -5.4661846e-03
 -3.0272396e-02
 -1.2748394e-03
  2.6759496e+00
  4.2748070e-04
  3.1686411e-03
 -5.9764436e-03
  8.5697538e-01
  7.2744247e-03
  1.3373245e-02
  2.7769828e-02
 -9.5416937e-04
  1.0162391e-03
 -4.7993301e-03
 -1.5831454e-02
  4.2458659e-04
  2.0000782e-02
  2.8872801e-02
 -3.7746187e-03
 -4.7246544e-03
 -1.4882180e-02
 -1.4942405e-02
 -1.6643314e-03
  1.6085985e-03
  2.1739373e-02
  2.2674610e-01
  8.7404829e-03
 -7.1685486e-03
  1.1943731e-02
 -8.0313458e-04
 -1.3514882e-02
  5.5471896e-03
 -2.6696818e-03
 -6.7945165e-03
  9.9307168e-03
 -5.7595745e-03
 -1.8240076e-02
 -3.1541925e-02
  7.8668316e-05
 -4.0593003e-03
 -6.5957671e-03
  2.3045603e-02
 -8.6332737e-03
 -2.3767614e-01
  5.9273781e-04
 -3.6899839e-03
 -9.0519653e-04
 -1.1212286e-02
  1.3347519e-02
 -5.1666014e-03
 -7.1811168e-03
 -9.3863886e-03
  1.8998263e-02
 -1.9456839e-02
  2.3554479e-01
 -8.6670774e-01
  1.7020779e+00
  8.5647655e-01
 -4.1221705e-01
  6.7121512e-01
 -8.1819728e-02
  1.5875781e-03
 -8.4063423e-01
 -1.5520142e-01
  1.7148595e-01
  5.7595156e-05
 -2.5169370e-03
 -2.4092105e-01
 -2.6587540e-01
  3.0477542e-01
  4.7739735e-01
  1.3071985e-02
 -6.6562309e-03
 -6.4957893e-01
  3.2614917e-02
 -2.4001023e-02
  1.6562911e-02
 -3.4680386e-05
 -7.5529586e-04
  5.3987973e-03
 -5.9973087e-02
 -3.9236352e-02
 -7.4018887e-03
  4.0937975e-04
 -4.9171925e-02
 -1.4410787e+00
  1.3631656e+00
  1.3598201e+00
 -1.9649523e+00
 -2.4144945e-01
 -3.7245899e-01
  1.7714407e-02
  1.5578774e+00
 -1.3714459e+00
  3.4012347e-01
  6.4379847e-01
 -1.6557392e-01
  3.6592686e-01
 -1.1488060e+00
 -5.3985101e-01
 -1.9589940e-01
 -7.0231801e-01
 -1.7727473e-01
  1.2095403e-01
 -2.3059116e-01
 -1.1977927e-01
 -4.7814450e-01
  3.1476675e-03
 -5.0786012e-01
 -8.4257197e-01
 -3.4693465e-02
 -2.3296603e-03
  6.2689008e-03
  4.0045553e-01
 -1.4292274e+00
 -6.1991322e-03
 -4.2658001e-02
  7.8719330e-01
  1.4040992e-01
 -5.0680541e-02
 -4.3634206e-02
  5.0865356e-03
  3.0184134e-03
  1.1622604e-03
 -5.9171729e-02
 -4.0042013e-02
  3.9799786e-01
  6.9124751e-02
  9.7254999e-03
 -2.2379275e-02
 -2.7848935e-01
 -4.7025350e-03
 -4.2104911e-02
 -4.9627102e-03
  2.3335205e-01
 -5.5052489e-01
  2.6317790e-02
 -5.0674140e-02
  1.6712132e-01
 -3.5880837e-03
  9.7410558e-03
  1.6076688e-03
  1.2688214e-02
 -1.7368909e-02
  9.9436752e-02
  1.4542538e-01
  2.0375819e+00
 -2.9839191e-01
 -3.4632182e-01
 -1.7269786e-02
 -4.2597442e-03
  4.5101661e-03
 -1.4175692e-01
 -2.6438639e-01
  2.1633898e-01
  5.3752037e-03
  1.0932491e-02
 -2.8752190e-01
 -2.4562441e-02
  4.0714076e-01
  1.1412868e-02
  1.6904947e-01
  7.0676222e-02
 -6.3136935e-01
 -1.6019089e-03
  3.6058775e-01
 -4.3825144e-03
 -2.2290688e-02
  4.5681861e-03
 -1.1005499e-02
  3.5479190e-03
 -1.1391315e-02
 -8.2769450e-03
  8.0064352e-04
  7.1389107e-03
 -3.1859499e-01
  2.4129467e-03
  5.1467950e-03
 -5.7854699e-03
  1.0817992e-02
  6.4287004e-03
  6.3503212e-03
 -1.5589605e-03
  4.2469851e-03
  3.5616800e-03
  7.5557624e-04
  7.5791508e-04
 -2.3569846e-04
 -3.3895748e-03
  1.0891885e-01
 -3.7632599e-03
 -4.5073070e-03
 -4.4582398e-03
 -4.9833949e-03
 -2.4379555e-03
  1.6917406e-03
  3.2316144e-03
  8.9084707e-02
 -3.0270580e-02
 -1.6088726e-02
  7.4287838e-01
  2.8364405e-02
 -5.0979640e-02
  1.5071923e-03
 -5.2637452e-01
 -1.9552293e+00
  2.7131236e+00
 -4.1141663e-02
 -1.0528010e+00
 -2.7983779e-01
 -1.4836719e+00
  1.7208610e-01
 -7.0589721e-01
 -5.4526663e-01
 -3.0824384e-01
 -2.1417611e+00
  4.4634691e-01
 -1.1133022e+00
 -5.6004381e-01
 -3.2638270e-01
  2.3384281e-03
 -2.2368503e-01
 -5.8360738e-01
 -4.8229027e-01
  2.2428285e-01
  1.0371352e+00
 -7.2593635e-01
 -5.4607415e-01
 -1.4892987e+00
  2.2737177e-01
  8.7711103e-03
 -3.9040304e-03
  5.5234468e-01
  1.2445133e-02
  1.0924141e+00
  2.7488086e-01
  9.1093016e-01
 -1.1041601e+00
 -5.2277297e-01
  2.2224127e-03
 -3.2168019e-01
  1.3412599e-02
 -1.8455054e-01
  4.2935124e-01
 -1.0384921e-02
  4.8187509e-01
  5.0210636e-03
 -3.6910948e-01
 -4.5046166e-01
 -5.1497626e-01
  3.9915803e-01
 -3.4654579e-01
  7.1183242e-02
  5.0069892e-01
 -9.6958615e-03
  4.0633203e-03
  1.4146870e-02
  2.0908418e-01
 -3.4768745e-01
  9.8981811e-03
  3.5797960e-01
  4.0391972e-03
  1.0697176e-02
 -4.3923394e-03
  2.0274062e-01
 -3.1787135e-02
  1.8572754e-01
  1.6276104e+00
  4.9817571e-01
 -7.4340426e-03
 -1.2285567e-02
  1.6985534e-01
  4.0789298e-03
 -4.1264252e-04
  8.4024042e-02
 -1.8116014e-02
  6.6301282e-03
  4.1161466e-02
  8.0470052e-03
  1.0643448e-02
 -1.5297937e-01
 -3.1879511e-01
 -5.2764863e-02
 -3.7003331e-02
 -1.0266391e-02
 -2.0240062e-01
  3.6386275e-01
 -1.4767294e-02
  2.1784486e-01
  7.9518963e-05
  2.7925979e-02
 -1.4937998e-02
  1.3149222e-02
 -5.3630294e-03
 -2.1261833e+00
  2.3597895e-01
 -4.8242080e-01
  9.8461407e-01
  3.3492543e-02
  5.5263966e-01
 -7.7703291e-01
  7.8692928e-02
 -6.4454311e-01
  1.1394725e+00
  4.1109387e-02
 -1.3354576e-01
  1.4377913e-01
  3.8614079e-02
 -9.7974795e-01
  2.4635652e-01
  2.5164980e-01
  1.8482135e-01
 -1.7816682e-01
 -9.7383028e-01
  2.5243592e-01
 -6.5015072e-01
 -6.3049151e-03
 -8.7001783e-01
  5.7629734e-01
  1.4587806e-02
  2.9181147e-02
  1.2002985e-02
  3.2681358e-01
 -9.5230509e-03
  7.6903850e-01
 -3.9969382e-01
 -2.8490552e-01
  1.4991829e-02
  8.8687408e-01
 -5.9512633e-01
 -2.9540747e-01
 -6.1172163e-03
  4.4906810e-01
 -1.2197038e-01
 -3.0089873e-01
  4.6077645e-01
 -2.2497153e-01
 -2.3951599e-01
  8.6010434e-03
  6.5451258e-01
 -2.0451396e+00
  3.5119532e-03
 -6.8409348e-01
  1.3033232e-01
  2.4953978e-03
 -1.1038349e+00
  1.7603463e-02
 -9.4345018e-02
 -1.4729623e-02
 -7.0585003e-03
 -2.4504366e-03
  3.5041347e-03
  1.7289960e-01
  3.6507489e-03
  9.2653438e-02
  1.9976860e-01
  9.7987419e-03
  7.7034497e-01
 -7.8921121e-01
 -4.1941571e-01
 -4.7797449e-02
  3.6138985e-01
  2.9296142e-01
  5.6798123e-03
 -1.2400595e-02
 -1.6815882e-02
  7.9457797e-03
  1.3915069e-02
 -2.2039015e-02
 -4.1323057e-01
  6.0758519e-01
  2.2869751e-01
  4.2681530e-02
 -2.1358552e+00
 -4.9846449e-01
 -1.1774088e-01
 -8.7852664e-03
  1.0036718e-01
 -1.4733337e-01
  8.8328756e-03
 -7.1924375e-03
 -8.3363103e-03
 -5.0092093e-03
  2.1367934e-02
  8.2680866e-02
  9.5838559e-01
 -6.4489156e-01
  2.7914766e-02
 -5.9129417e-01
 -5.6368619e-01
  5.1328301e-01
 -8.1554696e-02
 -9.8051900e-01
 -3.5716528e-03
 -2.5816005e-02
 -4.4717345e-01
 -9.5175368e-01
 -1.9266346e-01
  5.2549653e-02
  1.2785833e+00
  9.9288493e-01
 -8.5933059e-02
  1.2648332e-01
  3.1098002e-01
  3.4188083e-01
  2.2799993e-02
 -2.4001129e-01
 -6.8928844e-01
 -8.0097038e-01
 -4.4666693e-02
  3.2103533e-01
  3.1022020e-03
 -1.6816713e-01
  2.5701270e-01
 -3.0888522e-01
 -5.0518930e-01
  9.8676074e-01
  2.1468574e-01
 -1.7078174e+00
 -7.5924411e-02
 -7.1976744e-03
  2.5629738e-01
 -1.2765300e-01
  1.2212956e-02
  2.6798782e-01
 -5.4538864e-01
  4.5438415e-01
  4.3995476e-01
 -3.2263041e-01
  1.1190778e+00
  1.9561203e-01
  4.5407001e-02
 -1.3440394e-01
  8.3676559e-01
  5.9413815e-01
 -2.8923470e-01
  2.4964915e-01
  2.3130989e-01
 -5.8780026e-01
  2.8577271e-01
 -6.7374009e-01
 -4.5922774e-01
 -2.4336152e-01
  7.6245993e-01
  4.4884515e+00
 -1.5030128e-01
  5.0172033e-03
 -1.3037927e-02
  7.0288408e-01
  1.3570744e+00
 -5.9654945e-01
  2.0252322e-03
  6.2240726e-01
  7.3003590e-02
  3.0293688e-01
  1.4449006e-02
  2.8002939e-01
 -5.3933656e-01
  1.1981918e+00
  3.2790729e-01
  3.3534351e-01
  9.5843123e-03
 -8.2313633e-03
  1.3595575e-02
  1.8654856e-03
  1.3343920e+00
 -6.3805529e-03
 -3.9548827e-03
 -7.2484130e-01
 -1.7859591e-03
  8.4231132e-01
 -4.3770163e-03
 -1.9078736e+00
  9.6913302e-01
 -6.4674892e-02
 -2.6185042e-01
  9.1361362e-01
  1.5286846e-03
  1.6534552e-02
 -4.5085954e-03
  2.0883266e-02
 -4.9035004e-01
 -6.9857067e-03
  2.2087732e-01
 -7.5569534e-01
 -7.5215511e-02
 -9.2791896e-03
  1.7263116e-02
 -4.4904429e-02
  1.9167423e-01
 -1.8450852e-01
  2.0990498e+00
 -2.7007103e+00
 -1.5708177e-03
 -1.6825670e-02
 -7.1836344e-04
  3.8894728e-01
  1.2006848e-01
 -7.6674771e-01
 -9.9620134e-01
 -6.2137723e-02
  1.8186730e+00
  1.4182473e+00
  6.1526555e-03
  2.1361011e-01
 -3.1369099e-01
 -4.5356828e-01
 -2.4911095e-01
 -1.8811765e+00
  1.0379446e-02
 -5.8189221e-03
 -4.3228015e-02
 -1.3824540e-02
 -1.8268906e+00
  9.9554159e-02
  2.7686760e-01
  3.7323818e-02
 -3.2359499e-02
  2.3848706e-04
  9.7435247e-03
 -7.6355195e-01
 -9.7590142e-01
 -2.8798714e-01
 -8.9711910e-01
  1.2446427e+00
 -2.9486222e-02
  6.1653410e-03
  1.0758363e-02
  7.9623334e-02
 -5.3377616e-01
 -6.1923760e-01
 -5.1517673e-02
  1.4317594e+00
  2.2461619e+00
 -1.2000043e-01
  6.0422150e-03
 -1.2770422e+00
  5.8154809e-01
  1.3805655e+00
  6.8681419e-01
  8.7341392e-01
 -3.8643067e-03
 -1.6375575e-02
 -6.6310982e-03
  3.5433936e-01
 -5.9759712e-01
  5.6732571e-01
 -1.0103927e+00
  4.7169062e-01
 -8.5672981e-01
  9.6843171e-01
  9.9752732e-03
 -7.8448105e-01
  4.9359921e-02
  6.8878078e-01
  1.3196770e+00
 -6.9623119e-01
 -5.6317947e-03
 -3.5339675e-04
  5.4776017e-03
  1.4636399e-01
 -1.1977451e+00
  4.8908377e-01
  4.2940184e-01
  5.1439857e+00
 -1.5454885e-02
 -5.1117275e-02
  5.2052443e-03
 -7.8320779e-02
  1.3959275e+00
  4.9508101e-01
 -5.8749294e-01
 -3.6862877e-01
  1.5453871e-01
  1.3386567e-02
 -5.1768650e-03
 -2.5295841e-02
 -6.4398006e-02
  2.1708002e+00
 -5.3717326e-02
  2.9333284e-01
  2.1200269e-01
 -4.0063626e-01
  7.9945317e-03
 -2.3002414e-01
  2.2678446e-02
  4.6003157e-01
  8.1003422e-01
 -2.8237718e-01
  1.5456999e-02
 -7.1172505e-03
  7.9065831e-03
  4.3268704e-01
  1.1044095e+00
  2.7409336e-01
 -1.1827187e-02
 -1.0132562e+00
 -1.6273621e-01
 -6.6038895e-01
 -2.8054774e-01
 -9.4858003e-01
 -1.2149431e+00
  1.5821371e+00
  8.2429236e-01
 -1.3284208e+00
  1.8340040e-02
 -1.2444670e-03
  1.4239695e-03
 -1.5862739e-03
 -3.6045736e-01
 -1.5319644e-02
 -1.1014215e-02
 -2.1704756e-01
 -5.9802485e-01
 -6.8019903e-01
  4.3600053e-03
  8.0590546e-01
  5.1024926e-01
  1.5940034e-01
  4.1393852e-01
  1.0326386e-01
 -8.6274957e-03
 -2.0214829e-04
  7.9042083e-03
  9.8113716e-03
  7.7122682e-01
  3.1669316e-01
  9.5582271e-01
  2.5912872e-01
  1.1737034e+00
  4.5731166e-01
  1.4637657e-01
 -1.2296330e+00
  4.7109765e-01
 -2.2277594e-01
  6.6268551e-01
 -9.8934567e-01
 -1.6679345e-02
 -8.1964079e-03
 -5.1009706e-03
  3.0667849e-03
 -5.7141906e-01
 -1.3721739e+00
 -4.4104630e-01
 -3.0199742e-01
 -8.8934407e-02
 -7.0176160e-01
 -2.3975028e-02
  2.7626863e-01
  1.5969476e+00
  1.7636058e+00
  2.4272831e-01
 -1.7456046e+00
 -4.9969992e-03
  4.0370333e-03
 -1.3015514e-03
  2.4847097e-03
 -2.8527314e-02
  4.7136730e-01
  7.8769249e-01
 -1.3711189e+00
 -1.0474062e+00
  1.1040913e+00
  6.6874504e-01
  2.4154401e+00
 -2.5223533e-02
  1.0692680e+00
  1.8911377e-01
  9.6040982e-01
  6.9413283e-03
 -1.8073887e-03
  1.5947437e-03
  6.7452230e-02
  7.1491653e-01
  3.1803120e-02
 -5.8752513e-01
 -8.8273513e-01
  3.0530003e-01
  7.8093296e-01
  1.6034205e-02
 -1.4471569e+00
  1.2631396e+00
 -4.5805955e-01
  2.2553596e-01
 -7.8900152e-01
 -1.3647402e-03
  4.9459860e-03
  2.6311243e-02
  5.0202026e-03
 -1.0735370e+00
 -1.2799551e+00
 -2.8430765e-02
  1.0916479e+00
 -5.8903712e-01
 -3.9788043e+00
  4.6900260e-01
  1.3729450e-01
 -3.8351387e-01
  2.0797846e-01
  2.0239399e-01
 -6.9461238e-01
  3.0978385e-02
  2.4208238e-02
 -1.2367547e-02
  1.3064374e-02
  6.6160798e-01
 -5.9938520e-01
 -5.0311387e-01
  2.5848439e-01
 -8.5461509e-01
 -1.6934155e+00
 -8.7021235e-03
  1.3578788e+00
  2.1573991e-01
 -8.6669576e-01
  7.0988911e-01
 -3.0748376e-01
 -1.1298104e-01
  8.0545964e-03
 -3.0299604e-02
  9.5745549e-02
  2.3890105e-01
  7.9828501e-01
 -3.2058533e-02
  1.0682442e+00
 -4.6131858e-01
  1.1271231e+00
  2.0040937e-01
  1.0505185e+00
 -5.6862056e-01
 -2.3752111e-01
  5.8574373e-01
  1.2361041e-03
  1.9538197e-01
  3.9964947e-03
  7.2766535e-02
 -8.6738057e-02
 -1.8447375e+00
 -1.0759206e+00
  1.1597150e-01
  3.0476660e-01
  1.8651981e+00
  7.9342800e-01
  2.8127935e-03
 -2.2103660e+00
  5.3863496e-01
 -2.1821911e+00
 -1.1778195e+00
  3.9282307e-01
 -4.5408797e-02
  6.0424204e-03
  3.7820642e-03
 -3.3882648e-02
 -2.1451819e+00
 -1.5354609e-01
 -1.4535114e-01
  1.7531307e+00
 -6.0241329e-03
  6.0595298e-04
 -2.8249234e-02
  1.6726083e-01
 -7.5197977e-01
 -5.1436114e-01
 -1.9318225e+00
  1.2966416e+00
 -5.0581597e-02
 -1.4150443e-02
  1.4059711e-03
  1.3855356e-01
  3.3644274e-01
  2.2019233e-01
  1.6301742e-01
 -1.8287982e+00
  2.9572917e-02
  2.6567231e-03
  1.1136517e-02
  2.5687421e-02
  5.7791775e-01
  1.6599365e+00
  1.7325746e+00
 -2.2211802e-01
 -2.9574458e-02
 -9.8857852e-03
  1.3798359e-02
  1.0894766e-01
 -8.6171979e-01
 -1.7972186e+00
 -1.4146770e+00
  5.1986420e-01
  4.9295557e-01
  4.3441886e-01
  5.2152723e-03
  2.0129883e+00
 -5.6272936e-01
 -6.1210692e-01
 -3.2737097e-01
 -1.4513798e-01
  1.4250803e-01
 -1.2002900e-02
  1.0218544e-01
 -4.4740149e-01
  1.8919051e-01
  5.9171331e-01
  3.5414883e-01
  4.8000935e-01
 -4.5949620e-01
  8.1278738e-03
  4.3804483e-03
  8.3518833e-01
 -2.4387825e+00
 -1.8226824e+00
 -2.3691049e+00
  2.1601665e+00
  5.4823076e-03
  1.4454152e-02
 -4.9738777e-03
  2.9951170e-01
  1.3516374e+00
  5.9868520e-01
 -9.6848077e-01
 -1.5092508e+00
  1.8723303e-02
 -2.2079882e-03
  2.4045995e-03
 -3.0727184e-04
 -4.4137374e-01
  7.8030747e-01
 -1.7384875e-01
 -4.0888950e-01
 -1.5809173e-03
 -1.8812335e-03
  4.6417601e-02
  3.2893398e-01
  1.6949749e+00
 -7.5270915e-01
 -1.4019864e+00
  6.3415474e-01
  1.0457218e-02
  1.8097809e-01
  1.3096996e-03
 -4.5865262e-01
 -2.3015870e-01
  3.7270501e-01
 -6.0714819e-02
  7.5514561e-01
 -3.6139432e-01
  2.5447059e-01
  3.1497788e-03
  1.0547268e-01
 -3.3000427e-01
  7.7172345e-01
  2.8350392e-02
 -2.3695853e-01
  1.3967671e-02
 -4.6037128e-03
  1.9597718e-03
  1.8664179e+00
  1.5754078e-01
 -1.7650137e+00
 -1.4198753e+00
  7.5612909e-01
 -1.7620819e-02
  1.1942196e-02
  2.7899255e-06
 -2.4038915e-02
 -6.3132876e-01
 -1.0144773e+00
  6.3368803e-01
  9.6077597e-01
 -3.5580206e-01
  4.8485741e-01
 -1.7119144e-03
  1.8296601e+00
 -3.3263919e-01
 -1.4511918e+00
 -3.1466563e+00
  8.4937543e-01
  4.0379584e-01
 -5.5742241e-03
 -1.7578527e-01
 -1.0623403e-01
  1.8781826e+00
 -5.5681807e-01
 -5.3263330e-01
  1.2572494e+00
 -2.5350270e-01
 -4.2029607e-01
 -8.9467943e-02
 -1.5535225e+00
  3.2649910e-01
 -7.7279258e-01
 -7.9533786e-01
 -6.0811454e-01
 -1.0086400e-02
 -1.2396370e-02
 -4.2380453e-03
  1.1096387e-01
  9.7117698e-01
  4.9465103e-04
  8.2258200e-03
  1.7934823e+00
  7.6313684e-04
  3.3527677e-04
 -1.4565663e-03
  1.6246575e-01
  1.9602446e-01
 -6.4333957e-03
  2.3583109e-03
  2.2890836e-01
  4.4525623e-02
 -5.3526222e-04
  4.7432500e-04
 -2.1178004e-01
 -7.3710257e-01
  8.3308965e-01
 -4.3822598e-01
  2.0349596e-01
 -4.5139943e-03
 -2.8081542e-01
 -1.4715444e-01
  7.4370950e-01
 -7.7614903e-01
 -4.4566885e-01
 -1.0411639e+00
  1.9205878e+00
 -3.4454826e-04
  9.2791103e-02
 -1.7206745e-02
  1.0758232e-02
 -2.8203416e+00
  4.9271554e-02
 -1.8360445e+00
  9.0538633e-01
 -9.6760862e-02
 -1.9996805e-01
 -8.7189674e-01
 -1.2428211e-01
 -1.6296781e+00
 -1.1985835e-01
 -1.9781911e-01
  6.1139989e-01
 -1.9955423e-01
 -1.4762707e-02
 -1.5602949e-01
  4.0612102e-02
  7.2902608e-01
 -6.6656363e-03
 -4.0922616e-02
  1.2673208e+00
  2.5645855e-01
 -2.0305518e-02
 -3.7846175e-01
  1.0086205e+00
 -9.1152990e-01
 -1.8040857e+00
 -2.9319813e+00
  2.3466215e-01
 -3.0723350e-02
  1.8574450e-02
  2.9104180e-03
  5.6973296e-01
 -3.0522846e-02
 -2.3262779e-01
 -1.1626546e-02
 -1.7586539e-02
 -4.2736349e-01
  3.2807335e-01
 -1.3173036e-02
  1.4110011e+00
 -1.6578850e-01
 -1.1504552e+00
 -1.0057131e+00
 -1.8877959e-01
  2.7916893e-02
 -1.5037562e-02
  7.0063081e-03
 -2.2550260e-01
 -5.6123203e-01
 -4.8845103e-01
 -5.6389463e-01
 -7.8012103e-01
 -1.2367809e+00
 -6.4956915e-01
  4.1107745e-03
  3.3671489e-01
 -2.0698588e+00
 -7.8621346e-01
  1.2817110e-02
  9.2246786e-02
 -3.4439677e-01
 -4.3975815e-01
 -5.8235440e-02
 -1.1294499e-01
  4.2091149e-01
  1.1808155e-01
  9.5168763e-01
 -9.6792418e-01
 -4.7995198e-01
 -3.6423381e-03
 -4.4606283e-02
  7.2861475e-01
  5.0395465e-01
  3.9945504e-01
 -3.4650505e-02
  3.5586426e-01
 -9.1719288e-01
 -1.7393827e-02
 -1.1166289e-02
  3.6625886e-01
 -2.1435136e-01
 -2.7788833e-01
  1.9865757e-01
  3.1577222e-02
 -6.3126303e-02
 -1.0038442e-02
  5.5886758e-03
 -5.6888747e-01
 -2.6965746e-01
 -5.6015635e-01
  2.0923685e-01
 -4.4056368e-01
 -9.0425059e-02
  6.9928057e-02
 -1.7393591e-01
  1.6043515e+00
  4.0828947e-02
  9.5125120e-03
 -9.5210803e-01
  6.1557192e-01
 -7.5667042e-01
  6.2873685e-01
 -4.1696381e-02
  1.4410324e+00
  2.2717476e-01
  3.2934606e-01
  7.0071733e-01
 -8.1553185e-01
 -2.5379049e-02
  5.3472873e-03
 -2.3376536e-02
  1.8511087e-02
  2.8222832e-01
  1.0333346e-02
 -4.1950112e-03
  9.4785208e-01
 -8.4739566e-01
 -8.5676447e-02
  8.0641003e-05
  3.3603579e-01
  2.3279543e+00
  2.1809633e+00
  5.9359515e-01
 -1.9157127e+00
  3.4538639e-01
  1.8205157e-03
 -3.9900253e-03
 -1.0898165e-01
 -9.1613495e-01
 -1.4900327e-01
 -5.8383677e-02
 -4.0450510e-01
 -2.3806910e-01
 -2.7323186e-01
 -1.1306745e-01
 -2.1486342e+00
 -2.1085060e+00
 -3.9510033e-01
 -1.4426209e+00
  1.6682594e+00
 -9.3137242e-02
 -4.4024615e-03
 -9.4375692e-02
  1.6953962e-01
  1.4631511e+00
 -2.3533418e+00
 -8.3822824e-02
 -1.0992168e-01
  1.3797981e+00
 -4.5425823e-01
 -2.8632591e-03
 -4.1273934e-01
  5.9750747e-02
 -6.3221335e-02
  8.0056407e-02
 -1.7333646e+00
 -1.0172626e+00
 -5.7633981e-02
 -2.0428534e-01
  4.5209017e-01
  1.1869099e+00
  4.8608249e-03
 -1.0626966e-01
  1.2475455e-01
  4.3011272e-01
  1.6455008e-02
 -4.6464227e-02
  7.5001639e-01
  1.0069714e+00
  1.2142295e+00
  2.3414083e+00
  3.8577732e-01
  1.5402146e-01
 -6.9960640e-03
  5.3909115e-02
  4.6669561e-01
 -3.6015946e-02
  4.7361782e-01
  1.6035999e-01
  6.2276495e-01
 -2.0694263e-01
 -1.0497931e+00
  8.4020030e-03
  2.2360435e+00
  5.4785335e-01
 -3.5700995e-01
 -7.9277068e-01
  7.4964535e-01
  4.8369952e-02
 -1.6386202e-02
 -1.9078605e-03
 -7.0080894e-01
 -1.4380984e+00
  1.1410417e-02
 -5.4065529e-02
 -5.3395307e-01
 -9.0352631e-01
 -4.9897116e-01
 -5.2170493e-03
 -1.5681647e-01
 -1.3390909e+00
 -1.0666268e-01
 -1.3049319e+00
  1.3944163e+00
 -5.6327474e-01
  2.1498543e-04
 -2.0793246e-01
  9.4440103e-02
 -7.0082843e-02
 -4.0699717e-01
  2.1874925e-01
  3.9296916e-01
  1.6041808e-01
  1.0673522e-01
  1.0227595e-02
  3.0528280e-01
  2.8479299e-01
 -8.3370292e-01
 -3.3897248e-01
  2.5952312e-01
 -1.8502571e-01
  2.2166066e-01
 -2.2097632e-02
 -2.0644797e-01
  1.0049704e+00
 -1.0103053e+00
 -6.9320858e-01
  7.2428995e-01
 -2.2371550e-01
 -1.5966510e+00
  4.1459161e-03
  1.1854538e+00
 -2.7380544e-01
  6.5188818e-02
 -7.9724115e-01
  8.1235453e-02
 -2.4102782e-01
 -1.4932933e-01
 -6.7271818e-03
  7.2424084e-02
 -1.1972038e+00
 -2.8238255e-03
  5.8159936e-02
  1.2636905e+00
 -5.9691234e-03
  4.3214369e-01
 -2.8543209e-03
 -7.7549523e-01
  3.3944219e-01
  1.1616645e+00
  9.0697330e-01
  1.3385056e-01
  1.1855405e-04
 -1.3158499e-02
 -1.0929342e-02
  4.5363340e-01
 -1.5345620e-02
 -3.1751249e-02
  4.9360265e-04
  5.3323293e-03
  2.2140369e-02
  1.1030474e-02
  9.6354811e-03
 -9.8797721e-01
  1.6288387e-02
 -3.8868282e-03
  4.4163287e-01
  2.3985945e-01
 -7.8785256e-02
 -3.8854613e-03
  1.8474054e-01
 -2.8110850e-01
 -9.4499606e-01
 -9.8703913e-03
  7.5527541e-02
  5.1709139e-01
 -1.0761793e-01
  6.4958796e-02
 -6.5296195e-03
  8.0161132e-02
 -7.0702512e-04
 -2.9934874e-01
  5.2165450e-03
  4.0772167e-01
  1.6524336e-01
 -3.8400298e-01
 -2.1071086e-02
  2.3640472e-01
 -4.3934119e-01
 -4.6702954e-03
  2.9079204e-03
  6.1286896e-01
  1.8969373e-01
 -6.4643086e-03
 -9.5327087e-03
  1.4157295e+00
 -8.8650304e-01
 -4.6347278e-01
  1.5130237e+00
 -5.5375934e-01
 -3.1598219e-01
  2.3440521e-02
  1.5421997e-01
  1.7096050e+00
 -1.0233776e-01
 -5.7956390e-03
  2.4456557e-02
  1.1156341e-01
 -1.2860128e-01
  5.1244885e-01
 -2.3837329e-03
  1.0406137e-02
 -1.2331420e+00
  1.5190168e-01
 -3.8270324e-01
  1.1856357e+00
  4.4473004e-01
 -4.4392434e-01
 -1.1116369e-03
 -2.7219939e-01
 -4.4699526e-01
 -1.2550926e-01
  1.3164639e-02
  1.1474614e+00
 -4.4184089e-01
  1.7538475e-01
 -1.2198766e-03
 -6.7381091e-02
 -3.4077641e-01
  7.5594991e-01
  1.8293022e-01
 -5.7496935e-01
  7.2368428e-02
 -1.1231394e-02
 -1.6430650e-02
 -6.1347896e-01
 -1.3601205e-01
 -4.4758720e-03
  2.0309515e-02
 -3.1469196e-01
 -5.1257629e-02
 -5.6908885e-03
 -4.7510779e-03
 -1.7828658e+00
  6.7050838e-01
  3.3473410e-02
  2.3817046e-01
  7.9595088e-04
 -5.7313979e-01
  5.7519536e-02
 -6.5033566e-03
 -2.3745061e-01
 -4.4958362e-01
 -1.6214175e-03
 -9.0173312e-04
  5.8442926e-01
 -1.0974865e-01
  2.7054161e-01
 -3.1115925e-02
  6.0619366e-01
  5.6687421e-01
  1.1453334e+00
  1.6139053e+00
  7.2428733e-02
 -2.4091333e-01
 -6.6894442e-02
 -1.5089886e-01
  5.4263079e-01
 -1.2460885e-02
 -2.1193426e-03
  1.7460408e-02
 -7.6118365e-02
  4.1078773e-01
 -7.0737279e-03
  3.8667773e-03
  7.4814039e-01
  4.1849729e-01
  1.5736769e+00
 -5.2233303e-01
  2.8147885e-01
 -4.1453898e-02
 -5.8201998e-01
  7.3548996e-01
 -1.5032094e+00
  9.5093139e-02
 -3.6719543e-01
 -3.8055888e-01
  1.2190695e+00
 -9.8322815e-01
  4.2264974e-01
  1.0265020e-02
  8.8789874e-01
  1.5044799e-01
  1.5056585e+00
  9.1093892e-01
 -8.9985031e-01
  2.5037944e-02
 -1.1214189e-01
  5.0082169e-03
  1.2680792e+00
  7.2816908e-03
  1.3367540e-03
 -5.6008929e-03
  9.0705132e-01
  2.1731993e-02
 -1.0481935e-02
 -1.9726839e-03
  9.6988184e-03
 -9.1117436e-01
 -2.7401170e-01
 -1.5272970e+00
  4.5472179e-03
  6.0920286e-01
  6.6808462e-02
 -8.1361150e-03
  2.2623739e-01
  2.0746675e-01
 -2.2701201e-01
 -4.9676320e-01
 -1.2888622e+00
 -1.3660955e-01
  6.3279949e-02
 -2.5681967e-03
  1.2730554e-01
  1.7757969e+00
 -2.0026708e-01
  1.2076720e+00
 -9.4857305e-01
  9.9695641e-01
 -8.0289446e-02
  1.4705911e+00
  2.2255599e+00
 -1.0165505e-02
 -7.3111087e-02
 -8.7293394e-02
 -3.4539527e-01
  4.7569326e-01
 -3.3573899e-03
  1.2345748e-03
  4.9549133e-01
  1.2217820e+00
  3.8594478e-01
  4.2613901e-02
 -4.5923722e-01
  4.1786641e-01
 -1.5764670e-02
  2.8988172e-03
  6.9674462e-01
  3.6267914e-02
 -1.3850258e-01
 -5.1407620e-02
  6.4431176e-02
 -2.5867177e-03
  8.6677849e-02
  6.2183607e-03
  1.0903690e-02
  5.0494438e-01
 -7.7128887e-01
 -7.6126611e-01
 -2.7434385e+00
 -9.0682596e-01
 -2.1811288e-03
  4.8036033e-01
  3.6148018e-01
  4.0867019e-01
 -6.7888454e-02
 -1.9199608e-02
 -6.7197514e-01
 -1.0147141e+00
  1.2106974e-01
 -5.7349419e-03
  7.7706575e-01
 -5.1224899e-01
  7.6785225e-01
  2.0061035e+00
 -1.2626055e+00
 -8.7971389e-02
 -5.3401893e-01
  7.5974178e-01
 -1.4007717e+00
  3.4360439e-02
 -1.1853081e-02
  2.9430739e-03
  2.1183879e+00
  1.2884353e-03
  4.7944603e-03
 -1.8730478e-02
  1.9559669e-01
 -2.9494321e-01
  4.2883533e-01
  1.0925461e+00
 -8.5394555e-01
  3.3660319e-01
  5.6297716e-02
 -1.4224793e-02
 -1.4397521e+00
 -5.4243118e-01
 -4.2002067e-01
 -6.2599164e-01
  9.8251253e-01
 -6.8265915e-01
  2.5763065e-01
 -2.0406850e-02
  1.9122532e-01
 -3.2397676e-02
  1.4922408e+00
 -7.5832862e-01
  1.1881793e+00
  2.4105451e-01
 -1.9033355e-01
 -2.3148361e-01
 -4.5554295e-01
 -6.8109429e-01
  2.3680206e-02
 -7.6144412e-02
  1.0919330e+00
 -1.0645056e-02
 -1.0614438e-03
 -7.9647601e-03
  9.0070099e-01
  4.3298554e-02
 -8.6297762e-01
  8.6334300e-01
  3.3191812e-01
 -7.4487992e-02
 -2.0041738e-03
  1.0157704e-02
 -9.9278554e-02
  3.4869462e-01
  1.1736611e-01
  7.1773994e-01
 -1.5647943e+00
  7.4952954e-01
  1.4043960e-02
  3.8139501e-03
 -6.8363202e-01
 -9.0156788e-01
  1.1058997e-02
  1.7084714e+00
  1.1096109e+00
 -3.4046963e-02
 -4.7733430e-03
  7.9313794e-04
  1.0630515e-01
  8.4069334e-03
  6.9005685e-03
 -1.8649571e-02
  6.6877124e-03
 -1.8995814e-02
  1.5097055e-02
 -1.4896872e+00
  1.8779258e-01
  3.1510655e-02
  6.4293244e-03
 -5.4409891e-01
 -8.5528468e-04
 -7.3083364e-03
 -2.3160148e-03
 -2.4745356e-01
 -9.1546792e-01
 -1.0039650e-01
  1.7978238e-01
  3.6192858e-01
  2.3848033e-01
 -1.9050141e-01
 -6.1413211e-01
 -8.4757227e-03
  4.9559298e-01
  4.4728824e-01
  6.4813310e-01
  2.2735555e-01
 -3.4676293e-01
  1.2660606e+00
  2.0747298e-02
  1.1500276e-02
  7.5333647e-02
  5.0828378e-03
  7.3777433e-03
  3.5489568e-01
 -2.5075862e-01
  3.3362332e-01
  1.0095361e-03
  7.0461282e-03
  7.4549699e-01
  7.6789480e-01
  1.0038528e+00
  1.1760715e-01
 -3.0182263e-01
  1.4980095e-02
 -1.0932704e-02
 -4.0150802e-03
  2.1426637e-01
  7.9807639e-02
  9.4251987e-03
 -2.5805838e-03
  4.0453441e-02
  3.0779816e-02
  1.7599754e-01
  8.1825200e-03
  2.0835588e+00
  4.3767282e-01
  2.8616461e-01
 -1.6759871e-02
 -1.5449076e+00
 -7.6122163e-03
  6.8955727e-02
  3.8016677e-02
 -6.7843360e-01
 -1.3121212e-01
 -6.0693379e-02
  8.4073222e-01
  2.0288840e-02
 -1.5126829e+00
 -2.2739485e-01
  1.1569373e-01
  8.7145549e-01
  1.0820004e+00
  4.8900384e-01
  1.0481116e+00
 -1.6629225e-01
 -1.4300515e-01
 -1.6076340e-03
 -8.5557826e-02
  1.5318139e-02
  1.0538641e+00
 -9.6679531e-04
 -1.4662528e-02
  2.1708393e+00
 -1.3597034e-02
  6.4297616e-03
 -1.5373704e-02
 -2.2420852e-01
  7.7817327e-01
  9.0488124e-01
  5.9926480e-01
  1.5244163e+00
 -1.0827876e-01
  1.2442098e-03
  2.8038768e-03
  3.0458862e-01
  6.4830184e-01
  1.0094597e-01
  1.0674660e+00
  3.1783095e-01
  4.7602656e-01
  2.9723415e-02
  1.8664765e-01
  2.2121029e+00
  1.7832683e-01
  5.9036201e-01
 -2.0299966e-02
 -2.4750359e-01
 -8.7460496e-02
 -2.3934185e-04
  1.7880777e-02
 -4.6451446e-01
  3.2499066e-01
  1.3517929e-04
  5.5050771e-03
 -3.1746408e-01
  2.6234871e-01
 -2.7078311e-03
  9.5369411e-05
  1.4767542e+00
 -4.1364127e-01
 -3.3499467e-01
 -6.8784416e-01
 -2.0269011e-01
  5.2358752e-01
  6.4004195e-01
  2.9609302e-01
 -1.6070753e+00
 -7.4605006e-03
 -4.9215922e-01
  1.1993990e-02
 -8.5358512e-01
 -1.1635494e+00
 -6.5082324e-01
 -1.8386567e-02
 -9.2435324e-01
 -2.6113214e+00
 -1.0276351e+00
  1.7492630e+00
  1.1701249e-01
  4.4351575e-01
  1.5286221e-02
  3.1065110e-02
 -1.7564659e-01
 -1.8361666e-03
 -1.8055758e-02
  4.1380008e-03
 -4.2477444e-02
  6.9515812e-03
  3.5706732e-02
  2.1206222e-02
  7.4098051e-01
 -3.0765408e-01
  6.9120973e-01
  7.3276883e-01
  9.9769300e-03
  3.8383450e-02
  7.6555274e-02
 -1.6605793e-02
  4.3460190e-01
  8.7434601e-04
  9.1421176e-03
  2.1223895e-02
 -9.8480983e-03
  3.8191167e-01
 -3.2738738e-02
  2.5301950e-02
 -5.9799892e-01
  7.4730515e-01
  8.6433369e-01
 -3.1870253e-02
  3.0101082e-01
  5.0714821e-01
  1.8044018e+00
  1.9349985e+00
  1.7939940e-01
 -4.1541834e-03
  1.3319186e-02
 -1.1515400e-02
 -7.2700357e-01
  1.0281563e+00
 -2.5114032e-02
 -2.8516650e-03
  1.6459709e+00
  5.6408274e-01
  1.8959996e-01
  5.9864992e-01
  4.5623744e-01
  1.4231346e+00
 -1.1283453e-01
 -1.9403843e-02
 -1.2135760e+00
  8.6826212e-06
 -8.8977773e-04
  3.7631516e-03
 -3.5239086e-01
 -2.8235556e-03
 -9.9582297e-01
  7.3828123e-04
  2.4258320e+00
 -5.7551157e-01
  1.5283902e-01
  2.2182460e+00
  1.3452962e-02
 -9.7039223e-02
 -9.2804754e-01
  4.8996165e-01
 -6.2761873e-02
  3.2523097e-03
  7.6058437e-04
 -2.9155012e-02
 -1.2276874e-01
 -3.6849275e-01
  1.9179358e-03
  5.7756379e-03
 -4.4669822e-02
  8.0845928e-01
  6.7282194e-01
 -9.4741243e-01
 -1.8824837e-01
  6.0649699e-01
  1.2331273e-01
  9.8249304e-01
  3.6263448e-01
 -1.8035041e-02
 -5.3267912e-03
  2.7855322e-02
 -4.7501135e-01
 -5.0798561e-03
 -3.5454762e-01
 -6.3746413e-03
  6.0535246e-01
  1.6804829e+00
  2.6906626e+00
 -2.2356834e+00
 -6.9103158e-01
  5.1652502e-02
 -9.7705740e-03
 -1.7055389e-02
  9.9023813e-01
  1.5934454e-02
  7.7051800e-03
  2.8016418e-03
 -6.0797583e-02
  6.5005761e-01
 -9.4220079e-02
 -4.8598158e-03
  3.6021587e-01
  3.5417902e-01
  3.3313396e+00
  5.8885658e-01
  3.9157560e-01
  1.2784615e-01
  1.0568990e+00
  3.1640511e-02
 -3.8830671e-01
  6.8241106e-03
 -1.4590406e-01
 -4.3485789e-03
  2.6800878e-02
  6.0321394e-02
 -3.7164965e-01
 -8.1508551e-03
  1.5820999e-01
 -7.3936784e-01
 -3.7851545e-01
  1.0361232e+00
 -3.7454048e-01
  1.2198708e+00
  1.0155802e-01
  1.7016821e-01
 -5.0077283e-01
 -1.1784591e-01
  1.2493146e-02
  2.7167851e-01
  6.6518283e-01
 -8.2327729e-01
 -9.0757382e-01
  7.6464000e-03
 -3.9081654e-01
 -1.2055897e-01
  3.2520294e-02
  6.0046405e-01
 -4.1956773e-01
  9.3946598e-02
  8.9235055e-01
 -5.1188557e-03
 -1.7345545e-01
 -8.1087716e-02
  1.0264374e-02
  9.1115266e-02
  1.3191905e-02
 -3.0192983e-01
  1.1496591e-02
 -5.4028082e-05
  7.5365831e-03
  1.0116906e+00
  1.3470796e+00
  2.8205481e-01
 -6.4198501e-02
 -1.1948550e-01
  1.2006509e-01
  3.2689494e-01
  6.7102122e-01
 -2.9071318e-02
  4.0067226e-04
  2.1230012e-01
  5.5708247e-01
 -4.7280034e-01
 -6.6250944e-01
 -2.3926005e-02
  1.1529270e+00
  6.0872519e-01
 -3.3273655e-01
 -6.9149274e-01
 -8.0990386e-01
 -3.3148634e-01
 -8.9669871e-01
 -4.8717737e-02
 -8.8269496e-01
 -2.3000878e-01
 -3.3177340e-03
  1.4311514e-02
 -1.4044186e-01
 -1.4677869e-02
 -1.3024822e-02
 -8.3545865e-03
  2.0484314e+00
  1.1833202e+00
  1.7045735e+00
  2.1495693e+00
 -7.3676592e-01
  5.4182503e-03
  1.4532176e-01
  2.3938237e-01
 -2.6712355e-01
 -2.2725487e-02
 -4.8723216e-03
  1.0598822e-02
  5.3124595e-02
  9.0658045e-01
  1.7952232e-02
 -8.0175558e-04
  6.7017281e-01
  2.2788760e-01
 -2.0936439e-02
  1.2918013e+00
  2.2268771e-01
  4.5594680e-01
  1.2080027e-02
  8.9165203e-02
 -1.0769727e+00
  5.1981157e-01
  9.1847479e-03
  7.5883642e-02
  5.4004025e-01
 -2.0991605e-02
 -1.3096552e+00
  1.2050901e-02
  7.2729152e-01
 -2.6568252e-01
  5.8803536e-02
 -3.1231639e-01
 -7.4206609e-01
  6.8932605e-01
 -2.9884700e-02
  1.6085353e-01
 -5.1787114e-01
 -8.2157535e-04
  1.3819186e-02
 -7.8825407e-02
  6.7588829e-02
 -8.1288755e-01
  1.7288690e-02
  4.1444302e-03
 -2.4734192e-01
 -5.4376113e-01
  1.2057428e+00
 -3.1664926e-01
 -1.8751767e-01
 -8.9878365e-02
  1.1340494e-01
  2.7849960e-01
  3.3991393e-01
 -1.0932318e-01
 -1.4431650e-02
  1.3542120e-01
 -1.1726272e+00
  5.6077701e-01
 -3.1113720e+00
  1.0790686e-03
 -2.2779590e-01
 -3.7104070e-01
  1.1409403e+00
  2.5477371e-01
  6.4949680e-04
 -5.9641588e-01
 -3.8724005e-02
 -1.7337933e-02
  2.8478342e-01
 -3.9062998e-01
  4.1076583e-03
  4.7495004e-02
  3.5308918e-01
  1.6080166e-01
 -4.1092998e-01
 -8.2458751e-03
  4.9037716e-01
 -4.4361977e-03
 -4.7765544e-01
 -3.3805293e-01
 -3.2942110e-01
  4.6828941e-02
  4.6828941e-02
  4.6828941e-02
  4.6828941e-02
  4.6828941e-02
  2.0539802e-01
  2.0539802e-01
  2.0539802e-01
  2.0539802e-01
  2.0539802e-01
  1.0675663e-01
  1.0675663e-01
  1.0675663e-01
  1.0675663e-01
  1.0675663e-01
  4.8349306e-02
  4.8349306e-02
  4.8349306e-02
  4.8349306e-02
  4.8349306e-02
  1.6065972e-02
  1.6065972e-02
  1.6065972e-02
  1.6065972e-02
  1.6065972e-02
  1.0698410e-01
  1.0698410e-01
  1.0698410e-01
  1.0698410e-01
  1.0698410e-01
